SNNS network definition file V1.4-3D
generated at Wed Apr 20 16:53:31 1994

network name : art2_tetra
source files :
no. of units : 34
no. of connections : 70
no. of unit types : 0
no. of site types : 0


learning function : ART2
update function   : ART2_Synchronous


unit default section :

act      | bias     | st | subnet | layer | act func     | out func
---------|----------|----|--------|-------|--------------|-------------
 0.00000 |  0.00000 | h  |      0 |     1 | Act_Logistic | Out_Identity 
---------|----------|----|--------|-------|--------------|-------------


unit definition section :

no. | typeName | unitName | act      | bias     | st | position | act func          | out func                | sites
----|----------|----------|----------|----------|----|----------|-------------------|-------------------------|-------
  1 |          | inp1     |  1.01800 |  0.90000 | i  |  1, 3, 0 | Act_Identity      |                         | 
  2 |          | inp2     |  2.94325 |  0.90000 | i  |  1, 7, 0 | Act_Identity      |                         | 
  3 |          | inp3     |  1.09677 |  0.90000 | i  |  1,11, 0 | Act_Identity      |                         | 
  4 |          | w1       |  4.10116 |  0.90000 | h  |  3, 3, 5 | Act_ART2_Identity |                         | 
  5 |          | w2       | 11.85728 |  0.90000 | h  |  3, 7, 5 | Act_ART2_Identity |                         | 
  6 |          | w3       |  4.41851 |  0.90000 | h  |  3,11, 5 | Act_ART2_Identity |                         | 
  7 |          | x1       |  0.30832 |  0.90000 | h  |  3, 4, 5 | Act_ART2_NormW    | Out_ART2_Noise_ContDiff | 
  8 |          | x2       |  0.89140 |  0.90000 | h  |  3, 8, 5 | Act_ART2_NormW    | Out_ART2_Noise_ContDiff | 
  9 |          | x3       |  0.33217 |  0.90000 | h  |  3,12, 5 | Act_ART2_NormW    | Out_ART2_Noise_ContDiff | 
 10 |          | u1       |  0.30832 |  0.90000 | h  |  4, 3, 5 | Act_ART2_NormV    |                         | 
 11 |          | u2       |  0.89140 |  0.90000 | h  |  4, 7, 5 | Act_ART2_NormV    |                         | 
 12 |          | u3       |  0.33217 |  0.90000 | h  |  4,11, 5 | Act_ART2_NormV    |                         | 
 13 |          | v1       |  3.39145 |  0.90000 | h  |  4, 4, 5 | Act_ART2_Identity |                         | 
 14 |          | v2       |  9.80536 |  0.90000 | h  |  4, 8, 5 | Act_ART2_Identity |                         | 
 15 |          | v3       |  3.65388 |  0.90000 | h  |  4,12, 5 | Act_ART2_Identity |                         | 
 16 |          | p1       |  0.30832 |  0.90000 | h  |  5, 3, 5 | Act_ART2_Identity |                         | 
 17 |          | p2       |  0.89140 |  0.90000 | h  |  5, 7, 5 | Act_ART2_Identity |                         | 
 18 |          | p3       |  0.33217 |  0.90000 | h  |  5,11, 5 | Act_ART2_Identity |                         | 
 19 |          | q1       |  0.30831 |  0.90000 | h  |  5, 4, 5 | Act_ART2_NormP    | Out_ART2_Noise_ContDiff | 
 20 |          | q2       |  0.89140 |  0.90000 | h  |  5, 8, 5 | Act_ART2_NormP    | Out_ART2_Noise_ContDiff | 
 21 |          | q3       |  0.33217 |  0.90000 | h  |  5,12, 5 | Act_ART2_NormP    | Out_ART2_Noise_ContDiff | 
 22 |          | r1       |  0.30832 |  0.90000 | h  |  5, 2, 5 | Act_ART2_NormIP   |                         | 
 23 |          | r2       |  0.89140 |  0.90000 | h  |  5, 6, 5 | Act_ART2_NormIP   |                         | 
 24 |          | r3       |  0.33217 |  0.90000 | h  |  5,10, 5 | Act_ART2_NormIP   |                         | 
 25 |          | rec1     |  0.00000 |  0.90000 | s  |  8, 5,13 | Act_ART2_Rec      |                         | 
 26 |          | rec2     |  0.00000 |  0.90000 | s  |  8, 6,13 | Act_ART2_Rec      |                         | 
 27 |          | rec3     |  0.00000 |  0.90000 | s  |  8, 7,13 | Act_ART2_Rec      |                         | 
 28 |          | rec4     |  0.00000 |  0.90000 | s  |  8, 8,13 | Act_ART2_Rec      |                         | 
 29 |          | rec5     |  0.00000 |  0.90000 | s  |  8, 9,13 | Act_ART2_Rec      |                         | 
 30 |          | rst1     |  0.00000 |  0.90000 | h  | 11, 5,18 | Act_ART2_Rst      |                         | 
 31 |          | rst2     |  0.00000 |  0.90000 | h  | 11, 6,18 | Act_ART2_Rst      |                         | 
 32 |          | rst3     |  0.00000 |  0.90000 | h  | 11, 7,18 | Act_ART2_Rst      |                         | 
 33 |          | rst4     |  0.00000 |  0.90000 | h  | 11, 8,18 | Act_ART2_Rst      |                         | 
 34 |          | rst5     |  0.00000 |  0.90000 | h  | 11, 9,18 | Act_ART2_Rst      |                         | 
----|----------|----------|----------|----------|----|----------|-------------------|-------------------------|-------


connection definition section :

target | site | source:weight
-------|------|---------------------------------------------------------------------------------------------------------------------
     4 |      | 10:10.00000,  1: 1.00000
     5 |      | 11:10.00000,  2: 1.00000
     6 |      | 12:10.00000,  3: 1.00000
     7 |      |  4: 1.00000
     8 |      |  5: 1.00000
     9 |      |  6: 1.00000
    10 |      | 13: 1.00000
    11 |      | 14: 1.00000
    12 |      | 15: 1.00000
    13 |      | 19:10.00000,  7: 1.00000
    14 |      | 20:10.00000,  8: 1.00000
    15 |      | 21:10.00000,  9: 1.00000
    16 |      | 10: 1.00000, 29: 0.00000, 28: 0.00000, 27: 0.00000, 26: 0.00000, 25: 0.00000
    17 |      | 11: 1.00000, 29: 0.00000, 28: 0.00000, 27: 0.00000, 26: 0.00000, 25: 0.00000
    18 |      | 12: 1.00000, 29: 0.00000, 28: 0.00000, 27: 0.00000, 26: 0.00000, 25: 0.00000
    19 |      | 16: 1.00000
    20 |      | 17: 1.00000
    21 |      | 18: 1.00000
    22 |      |  1: 1.00000, 16: 0.10000
    23 |      |  2: 1.00000, 17: 0.10000
    24 |      |  3: 1.00000, 18: 0.10000
    25 |      | 30:-11.00000, 18: 2.88675, 17: 2.88675, 16: 2.88675
    26 |      | 31:-11.00000, 18: 2.88675, 17: 2.88675, 16: 2.88675
    27 |      | 32:-11.00000, 18: 2.88675, 17: 2.88675, 16: 2.88675
    28 |      | 33:-11.00000, 18: 2.88675, 17: 2.88675, 16: 2.88675
    29 |      | 34:-11.00000, 18: 2.88675, 17: 2.88675, 16: 2.88675
    30 |      | 25: 1.00000
    31 |      | 26: 1.00000
    32 |      | 27: 1.00000
    33 |      | 28: 1.00000
    34 |      | 29: 1.00000
-------|------|---------------------------------------------------------------------------------------------------------------------


3D translation section :

 delta x | delta y |    z    
---------|---------|---------
       3 |       0 |       5 
       7 |       0 |      13 
      10 |       0 |      18 
---------|---------|---------

