SNNS network definition file V1.4-3D
generated at Thu Oct  6 15:47:07 1994

network name : bdg_TDNN_untrained
source files :
no. of units : 155
no. of connections : 504
no. of unit types : 0
no. of site types : 0


learning function : TimeDelayBackprop
update function   : TimeDelay_Order


unit default section :

act      | bias     | st | subnet | layer | act func     | out func
---------|----------|----|--------|-------|--------------|-------------
 0.00000 |  0.00000 | h  |      0 |     1 | Act_Logistic | Out_Identity 
---------|----------|----|--------|-------|--------------|-------------


unit definition section :

no. | typeName | unitName | act      | bias     | st | position | act func        | out func | sites
----|----------|----------|----------|----------|----|----------|-----------------|----------|-------
  1 |          |          |  0.31711 |  0.04557 | i  |  2, 2, 0 |||
  2 |          |          |  0.71300 |  0.73800 | i  |  3, 2, 0 |||
  3 |          |          |  0.61747 | -0.33605 | i  |  4, 2, 0 |||
  4 |          |          | -0.03214 | -0.37883 | i  |  5, 2, 0 |||
  5 |          |          |  0.05296 |  0.99628 | i  |  6, 2, 0 |||
  6 |          |          |  0.02270 |  0.43912 | i  |  7, 2, 0 |||
  7 |          |          | -0.31288 |  0.42607 | i  |  8, 2, 0 |||
  8 |          |          | -0.40517 | -0.56223 | i  |  9, 2, 0 |||
  9 |          |          | -0.53280 | -0.94708 | i  | 10, 2, 0 |||
 10 |          |          | -0.34525 |  0.70482 | i  | 11, 2, 0 |||
 11 |          |          | -0.37073 |  0.30250 | i  | 12, 2, 0 |||
 12 |          |          |  0.09999 |  0.06656 | i  | 13, 2, 0 |||
 13 |          |          |  0.06870 |  0.30149 | i  | 14, 2, 0 |||
 14 |          |          | -0.06717 | -0.78903 | i  | 15, 2, 0 |||
 15 |          |          | -0.37582 |  0.21633 | i  | 16, 2, 0 |||
 16 |          |          | -0.27710 |  0.65452 | i  | 17, 2, 0 |||
 17 |          |          |  0.29748 | -0.15268 | i  |  2, 3, 0 |||
 18 |          |          |  0.61847 | -0.85350 | i  |  3, 3, 0 |||
 19 |          |          |  0.45336 |  0.37466 | i  |  4, 3, 0 |||
 20 |          |          | -0.13996 |  0.00411 | i  |  5, 3, 0 |||
 21 |          |          | -0.04787 |  0.55117 | i  |  6, 3, 0 |||
 22 |          |          | -0.13150 |  0.13437 | i  |  7, 3, 0 |||
 23 |          |          | -0.43343 | -0.43596 | i  |  8, 3, 0 |||
 24 |          |          | -0.51003 | -0.12521 | i  |  9, 3, 0 |||
 25 |          |          | -0.52510 | -0.85904 | i  | 10, 3, 0 |||
 26 |          |          | -0.48097 | -0.82842 | i  | 11, 3, 0 |||
 27 |          |          | -0.51076 |  0.20782 | i  | 12, 3, 0 |||
 28 |          |          | -0.08132 | -0.00542 | i  | 13, 3, 0 |||
 29 |          |          | -0.06651 | -0.25569 | i  | 14, 3, 0 |||
 30 |          |          | -0.29215 |  0.15615 | i  | 15, 3, 0 |||
 31 |          |          | -0.54001 | -0.23110 | i  | 16, 3, 0 |||
 32 |          |          | -0.42424 | -0.42141 | i  | 17, 3, 0 |||
 33 |          |          |  0.26350 |  0.51175 | i  |  2, 4, 0 |||
 34 |          |          |  0.55134 | -0.75376 | i  |  3, 4, 0 |||
 35 |          |          |  0.32453 |  0.49905 | i  |  4, 4, 0 |||
 36 |          |          | -0.15410 |  0.26024 | i  |  5, 4, 0 |||
 37 |          |          | -0.09647 | -0.13257 | i  |  6, 4, 0 |||
 38 |          |          | -0.14213 |  0.56427 | i  |  7, 4, 0 |||
 39 |          |          | -0.48909 |  0.45601 | i  |  8, 4, 0 |||
 40 |          |          | -0.66367 |  0.96146 | i  |  9, 4, 0 |||
 41 |          |          | -0.81975 |  0.16984 | i  | 10, 4, 0 |||
 42 |          |          | -0.67091 | -0.26588 | i  | 11, 4, 0 |||
 43 |          |          | -0.66179 | -0.30831 | i  | 12, 4, 0 |||
 44 |          |          | -0.25242 |  0.46037 | i  | 13, 4, 0 |||
 45 |          |          | -0.25132 |  0.04862 | i  | 14, 4, 0 |||
 46 |          |          | -0.62445 |  0.87874 | i  | 15, 4, 0 |||
 47 |          |          | -0.77999 |  0.58851 | i  | 16, 4, 0 |||
 48 |          |          | -0.65322 |  0.45242 | i  | 17, 4, 0 |||
 49 |          |          |  0.23418 |  0.48028 | i  |  2, 5, 0 |||
 50 |          |          |  0.51809 | -0.68576 | i  |  3, 5, 0 |||
 51 |          |          |  0.27526 | -0.51532 | i  |  4, 5, 0 |||
 52 |          |          | -0.18383 |  0.53061 | i  |  5, 5, 0 |||
 53 |          |          | -0.09135 | -0.42964 | i  |  6, 5, 0 |||
 54 |          |          | -0.16364 | -0.10114 | i  |  7, 5, 0 |||
 55 |          |          | -0.61629 | -0.55094 | i  |  8, 5, 0 |||
 56 |          |          | -0.68647 | -0.38733 | i  |  9, 5, 0 |||
 57 |          |          | -0.77385 |  0.03669 | i  | 10, 5, 0 |||
 58 |          |          | -0.79614 | -0.67696 | i  | 11, 5, 0 |||
 59 |          |          | -0.69937 |  0.77880 | i  | 12, 5, 0 |||
 60 |          |          | -0.43633 | -0.60646 | i  | 13, 5, 0 |||
 61 |          |          | -0.47639 | -0.73037 | i  | 14, 5, 0 |||
 62 |          |          | -0.62801 | -0.60686 | i  | 15, 5, 0 |||
 63 |          |          | -0.71237 | -0.59914 | i  | 16, 5, 0 |||
 64 |          |          | -0.74102 | -0.03231 | i  | 17, 5, 0 |||
 65 |          |          |  0.20614 |  0.53195 | i  |  2, 6, 0 |||
 66 |          |          |  0.49128 | -0.75558 | i  |  3, 6, 0 |||
 67 |          |          |  0.21659 | -0.26292 | i  |  4, 6, 0 |||
 68 |          |          | -0.21527 | -0.99024 | i  |  5, 6, 0 |||
 69 |          |          | -0.07648 | -0.97672 | i  |  6, 6, 0 |||
 70 |          |          | -0.24813 |  0.43999 | i  |  7, 6, 0 |||
 71 |          |          | -0.62811 |  0.08115 | i  |  8, 6, 0 |||
 72 |          |          | -0.67263 |  0.08079 | i  |  9, 6, 0 |||
 73 |          |          | -0.91938 | -0.93935 | i  | 10, 6, 0 |||
 74 |          |          | -0.82660 | -0.06323 | i  | 11, 6, 0 |||
 75 |          |          | -0.78900 | -0.55309 | i  | 12, 6, 0 |||
 76 |          |          | -0.52395 | -0.41140 | i  | 13, 6, 0 |||
 77 |          |          | -0.59214 |  0.12435 | i  | 14, 6, 0 |||
 78 |          |          | -0.68491 |  0.13616 | i  | 15, 6, 0 |||
 79 |          |          | -0.77163 |  0.95923 | i  | 16, 6, 0 |||
 80 |          |          | -0.74475 |  0.61991 | i  | 17, 6, 0 |||
 81 |          |          |  0.19100 | -0.18579 | i  |  2, 7, 0 |||
 82 |          |          |  0.48466 |  0.73887 | i  |  3, 7, 0 |||
 83 |          |          |  0.22340 |  0.91993 | i  |  4, 7, 0 |||
 84 |          |          | -0.26047 | -0.18537 | i  |  5, 7, 0 |||
 85 |          |          | -0.08584 |  0.39990 | i  |  6, 7, 0 |||
 86 |          |          | -0.30850 | -0.71365 | i  |  7, 7, 0 |||
 87 |          |          | -0.50710 | -0.09217 | i  |  8, 7, 0 |||
 88 |          |          | -0.67435 |  0.30010 | i  |  9, 7, 0 |||
 89 |          |          | -0.62418 | -0.60692 | i  | 10, 7, 0 |||
 90 |          |          | -0.65029 |  0.33650 | i  | 11, 7, 0 |||
 91 |          |          | -0.70213 | -0.14925 | i  | 12, 7, 0 |||
 92 |          |          | -0.53731 | -0.32935 | i  | 13, 7, 0 |||
 93 |          |          | -0.50505 |  0.90322 | i  | 14, 7, 0 |||
 94 |          |          | -0.63439 | -0.22856 | i  | 15, 7, 0 |||
 95 |          |          | -0.72298 | -0.40902 | i  | 16, 7, 0 |||
 96 |          |          | -0.72419 | -0.59741 | i  | 17, 7, 0 |||
 97 |          |          |  0.21469 | -0.83813 | i  |  2, 8, 0 |||
 98 |          |          |  0.51082 | -0.80023 | i  |  3, 8, 0 |||
 99 |          |          |  0.47132 |  0.67900 | i  |  4, 8, 0 |||
100 |          |          |  0.14802 |  0.84997 | i  |  5, 8, 0 |||
101 |          |          |  0.23400 | -0.06666 | i  |  6, 8, 0 |||
102 |          |          |  0.13895 | -0.43566 | i  |  7, 8, 0 |||
103 |          |          | -0.06986 | -0.93661 | i  |  8, 8, 0 |||
104 |          |          | -0.34241 |  0.07716 | i  |  9, 8, 0 |||
105 |          |          | -0.18893 |  0.21181 | i  | 10, 8, 0 |||
106 |          |          | -0.34690 | -0.48410 | i  | 11, 8, 0 |||
107 |          |          | -0.30321 | -0.94035 | i  | 12, 8, 0 |||
108 |          |          | -0.15985 |  0.85067 | i  | 13, 8, 0 |||
109 |          |          | -0.02387 |  0.99206 | i  | 14, 8, 0 |||
110 |          |          | -0.05778 | -0.17869 | i  | 15, 8, 0 |||
111 |          |          | -0.46807 | -0.99442 | i  | 16, 8, 0 |||
112 |          |          | -0.37507 | -0.17211 | i  | 17, 8, 0 |||
113 |          |          |  0.51585 | -0.42901 | h  | 20, 2, 0 | Act_TD_Logistic |          | 
114 |          |          |  0.43817 | -0.64019 | h  | 21, 2, 0 | Act_TD_Logistic |          | 
115 |          |          |  0.43243 | -0.09249 | h  | 22, 2, 0 | Act_TD_Logistic |          | 
116 |          |          |  0.87627 |  0.08663 | h  | 23, 2, 0 | Act_TD_Logistic |          | 
117 |          |          |  0.16215 |  0.45222 | h  | 24, 2, 0 | Act_TD_Logistic |          | 
118 |          |          |  0.83975 |  0.63002 | h  | 25, 2, 0 | Act_TD_Logistic |          | 
119 |          |          |  0.53814 |  0.72493 | h  | 26, 2, 0 | Act_TD_Logistic |          | 
120 |          |          |  0.05004 |  0.07725 | h  | 27, 2, 0 | Act_TD_Logistic |          | 
121 |          |          |  0.54161 | -0.61383 | h  | 20, 3, 0 | Act_TD_Logistic |          | 
122 |          |          |  0.38509 | -0.89140 | h  | 21, 3, 0 | Act_TD_Logistic |          | 
123 |          |          |  0.23841 | -0.64075 | h  | 22, 3, 0 | Act_TD_Logistic |          | 
124 |          |          |  0.85306 |  0.47849 | h  | 23, 3, 0 | Act_TD_Logistic |          | 
125 |          |          |  0.23922 | -0.36828 | h  | 24, 3, 0 | Act_TD_Logistic |          | 
126 |          |          |  0.86333 |  0.32967 | h  | 25, 3, 0 | Act_TD_Logistic |          | 
127 |          |          |  0.61613 |  0.12786 | h  | 26, 3, 0 | Act_TD_Logistic |          | 
128 |          |          |  0.06173 |  0.93727 | h  | 27, 3, 0 | Act_TD_Logistic |          | 
129 |          |          |  0.46793 |  0.10253 | h  | 20, 4, 0 | Act_TD_Logistic |          | 
130 |          |          |  0.26960 | -0.39282 | h  | 21, 4, 0 | Act_TD_Logistic |          | 
131 |          |          |  0.09873 |  0.63558 | h  | 22, 4, 0 | Act_TD_Logistic |          | 
132 |          |          |  0.84917 |  0.70842 | h  | 23, 4, 0 | Act_TD_Logistic |          | 
133 |          |          |  0.28915 |  0.50733 | h  | 24, 4, 0 | Act_TD_Logistic |          | 
134 |          |          |  0.88968 | -0.62375 | h  | 25, 4, 0 | Act_TD_Logistic |          | 
135 |          |          |  0.69485 |  0.43214 | h  | 26, 4, 0 | Act_TD_Logistic |          | 
136 |          |          |  0.06121 | -0.69292 | h  | 27, 4, 0 | Act_TD_Logistic |          | 
137 |          |          |  0.41712 |  0.08461 | h  | 20, 5, 0 | Act_TD_Logistic |          | 
138 |          |          |  0.28269 | -0.04484 | h  | 21, 5, 0 | Act_TD_Logistic |          | 
139 |          |          |  0.09213 | -0.43834 | h  | 22, 5, 0 | Act_TD_Logistic |          | 
140 |          |          |  0.83451 |  0.08055 | h  | 23, 5, 0 | Act_TD_Logistic |          | 
141 |          |          |  0.29949 | -0.16439 | h  | 24, 5, 0 | Act_TD_Logistic |          | 
142 |          |          |  0.85118 | -0.54117 | h  | 25, 5, 0 | Act_TD_Logistic |          | 
143 |          |          |  0.81069 | -0.48606 | h  | 26, 5, 0 | Act_TD_Logistic |          | 
144 |          |          |  0.05869 | -0.50836 | h  | 27, 5, 0 | Act_TD_Logistic |          | 
145 |          |          |  0.28851 |  0.74972 | h  | 20, 6, 0 | Act_TD_Logistic |          | 
146 |          |          |  0.17131 |  0.30750 | h  | 21, 6, 0 | Act_TD_Logistic |          | 
147 |          |          |  0.21126 | -0.67848 | h  | 22, 6, 0 | Act_TD_Logistic |          | 
148 |          |          |  0.74540 | -0.39748 | h  | 23, 6, 0 | Act_TD_Logistic |          | 
149 |          |          |  0.29127 | -0.28152 | h  | 24, 6, 0 | Act_TD_Logistic |          | 
150 |          |          |  0.77408 |  0.29778 | h  | 25, 6, 0 | Act_TD_Logistic |          | 
151 |          |          |  0.65242 |  0.32046 | h  | 26, 6, 0 | Act_TD_Logistic |          | 
152 |          |          |  0.19179 | -0.77818 | h  | 27, 6, 0 | Act_TD_Logistic |          | 
153 |          | B        |  0.89559 |  0.50317 | o  | 30, 2, 0 | Act_TD_Logistic |          | 
154 |          | D        |  0.04264 |  0.44201 | o  | 31, 2, 0 | Act_TD_Logistic |          | 
155 |          | G        |  0.03322 | -0.30995 | o  | 32, 2, 0 | Act_TD_Logistic |          | 
----|----------|----------|----------|----------|----|----------|-----------------|----------|-------


connection definition section :

target | site | source:weight
-------|------|----------------------------------------------------------------------------------------------------------------
   113 |      |   1: 0.84530,   2:-0.15554,   3:-0.36890,   4: 0.08390,   5: 0.12313,   6:-0.51423,   7: 0.46325,   8: 0.31671,
                  9: 0.21900,  10: 0.11322,  11: 0.18108,  12: 0.49629,  13: 0.77465,  14:-0.95604,  15:-0.64018,  16:-0.80468,
                 17: 0.07288,  18:-0.33376,  19: 0.52498,  20:-0.13209,  21:-0.90761,  22:-0.76477,  23:-0.85523,  24:-0.75639,
                 25: 0.27982,  26: 0.70013,  27: 0.52258,  28: 0.95987,  29:-0.18081,  30:-0.45117,  31:-0.15424,  32:-0.26794,
                 33:-0.40658,  34: 0.13726,  35: 0.37068,  36: 0.08977,  37: 0.20118,  38:-0.16377,  39: 0.18743,  40:-0.48617,
                 41:-0.94300,  42: 0.26433,  43: 0.93331,  44:-0.32901,  45:-0.15351,  46:-0.96436,  47: 0.03242,  48: 0.56453
   114 |      |   1:-0.04100,   2: 0.93989,   3:-0.28069,   4: 0.25632,   5: 0.07243,   6:-0.02961,   7: 0.13666,   8:-0.26300,
                  9:-0.15628,  10: 0.69113,  11:-0.45327,  12: 0.87836,  13:-0.65607,  14: 0.75205,  15: 0.52858,  16:-0.18682,
                 17: 0.20427,  18: 0.19870,  19:-0.84318,  20:-0.32124,  21:-0.83575,  22: 0.64605,  23: 0.98163,  24:-0.22072,
                 25: 0.44572,  26:-0.33995,  27: 0.08891,  28: 0.56284,  29: 0.94863,  30: 0.86484,  31: 0.67019,  32: 0.47032,
                 33:-0.76816,  34:-0.16860,  35:-0.37223,  36:-0.50357,  37:-0.24107,  38:-0.03841,  39:-0.86186,  40:-0.72315,
                 41:-0.73548,  42:-0.78832,  43: 0.40330,  44:-0.11158,  45:-0.88882,  46:-0.45646,  47: 0.86131,  48: 0.37572
   115 |      |   1:-0.01263,   2:-0.55051,   3:-0.30812,   4: 0.66257,   5:-0.22190,   6:-0.12068,   7: 0.50571,   8: 0.54477,
                  9:-0.58730,  10: 0.77429,  11:-0.23523,  12: 0.55001,  13:-0.01384,  14: 0.64114,  15: 0.44179,  16:-0.31356,
                 17:-0.28816,  18:-0.58797,  19:-0.69680,  20: 0.74393,  21:-0.87666,  22: 0.34759,  23:-0.56347,  24:-0.60384,
                 25:-0.31075,  26: 0.78744,  27:-0.38149,  28:-0.18989,  29:-0.85730,  30: 0.15013,  31:-0.79965,  32:-0.38863,
                 33:-0.97838,  34:-0.98472,  35: 0.17678,  36: 0.93974,  37:-0.88605,  38:-0.42117,  39:-0.51795,  40: 0.36395,
                 41:-0.32082,  42:-0.50818,  43: 0.65245,  44: 0.01139,  45:-0.45814,  46: 0.52375,  47: 0.98931,  48:-0.21857
   116 |      |   1: 0.80465,   2:-0.22989,   3: 0.79108,   4: 0.58313,   5:-0.01744,   6:-0.74633,   7: 0.05973,   8: 0.48311,
                  9: 0.59447,  10:-0.08332,  11: 0.15552,  12: 0.80368,  13: 0.61332,  14:-0.90249,  15: 0.34617,  16: 0.47822,
                 17:-0.45257,  18:-0.09669,  19:-0.55946,  20: 0.74972,  21: 0.89523,  22:-0.39941,  23: 0.65741,  24: 0.02524,
                 25:-0.82075,  26: 0.84002,  27: 0.67094,  28:-0.07602,  29: 0.40104,  30:-0.10845,  31: 0.57959,  32: 0.94520,
                 33: 0.49201,  34:-0.14242,  35: 0.51998,  36: 0.76451,  37: 0.32379,  38: 0.70503,  39: 0.55896,  40:-0.26519,
                 41:-0.05797,  42:-0.62976,  43: 0.37570,  44: 0.91667,  45: 0.97644,  46:-0.55230,  47: 0.08882,  48:-0.32152
   117 |      |   1:-0.28074,   2:-0.14157,   3:-0.53002,   4: 0.49681,   5:-0.49317,   6: 0.03468,   7:-0.74080,   8: 0.43463,
                  9: 0.37142,  10:-0.46217,  11:-0.10030,  12: 0.44139,  13:-0.28735,  14:-0.28791,  15: 0.52533,  16: 0.95890,
                 17:-0.63229,  18: 0.43981,  19: 0.20901,  20: 0.34019,  21:-0.76890,  22:-0.85743,  23:-0.58040,  24: 0.30966,
                 25: 0.42704,  26:-0.78709,  27:-0.78926,  28: 0.61095,  29: 0.71627,  30:-0.83925,  31: 0.11421,  32: 0.22096,
                 33: 0.00560,  34: 0.54035,  35:-0.98106,  36:-0.50512,  37: 0.29202,  38: 0.73166,  39:-0.87989,  40:-0.94177,
                 41: 0.69709,  42: 0.53866,  43:-0.36159,  44: 0.87706,  45: 0.86000,  46:-0.04001,  47: 0.35092,  48: 0.13797
   118 |      |   1: 0.47512,   2: 0.04655,   3:-0.00653,   4:-0.65337,   5: 0.83378,   6:-0.57865,   7: 0.23311,   8: 0.97770,
                  9:-0.83405,  10:-0.64491,  11:-0.89746,  12: 0.80421,  13:-0.25706,  14: 0.24732,  15: 0.10672,  16:-0.65729,
                 17: 0.88360,  18:-0.47991,  19:-0.78677,  20: 0.77166,  21: 0.24869,  22:-0.51064,  23:-0.35086,  24:-0.38828,
                 25:-0.49376,  26:-0.36284,  27: 0.91228,  28:-0.02200,  29:-0.54711,  30: 0.54322,  31: 0.86368,  32: 0.89812,
                 33: 0.98384,  34:-0.88571,  35:-0.77759,  36: 0.33711,  37: 0.62702,  38: 0.63087,  39: 0.55330,  40:-0.60127,
                 41: 0.97495,  42: 0.95871,  43: 0.24907,  44: 0.23486,  45: 0.50822,  46: 0.08269,  47:-0.89430,  48:-0.61254
   119 |      |   1:-0.95579,   2:-0.86271,   3: 0.34994,   4:-0.14410,   5: 0.12574,   6: 0.25661,   7:-0.84719,   8:-0.08955,
                  9: 0.54456,  10:-0.43891,  11: 0.67770,  12: 0.48484,  13: 0.40547,  14:-0.86891,  15: 0.45734,  16: 0.26748,
                 17: 0.72390,  18: 0.60692,  19:-0.95882,  20:-0.94815,  21: 0.06766,  22: 0.21994,  23: 0.05664,  24: 0.34844,
                 25:-0.03142,  26:-0.51171,  27:-0.82346,  28:-0.62929,  29: 0.51458,  30:-0.75671,  31: 0.96137,  32:-0.27817,
                 33: 0.32588,  34: 0.04297,  35: 0.47014,  36: 0.96569,  37:-0.07611,  38:-0.91397,  39:-0.53975,  40: 0.33133,
                 41: 0.88320,  42:-0.58512,  43:-0.39755,  44:-0.05270,  45:-0.71900,  46: 0.15926,  47:-0.55678,  48:-0.42647
   120 |      |   1: 0.71168,   2: 0.71894,   3:-0.89594,   4:-0.97488,   5:-0.35013,   6: 0.27296,   7:-0.06758,   8: 0.46618,
                  9:-0.24486,  10:-0.69888,  11:-0.64757,  12: 0.44641,  13: 0.16485,  14: 0.34953,  15:-0.27398,  16:-0.37156,
                 17:-0.69479,  18:-0.34908,  19: 0.37241,  20: 0.69627,  21: 0.25960,  22:-0.40316,  23: 0.67435,  24:-0.32964,
                 25: 0.33958,  26: 0.82944,  27: 0.37945,  28: 0.68480,  29:-0.74068,  30: 0.37106,  31: 0.58998,  32:-0.66942,
                 33:-0.89045,  34:-0.99369,  35:-0.45608,  36:-0.76077,  37: 0.64013,  38:-0.24978,  39:-0.47820,  40: 0.86254,
                 41: 0.76887,  42:-0.52140,  43: 0.56719,  44: 0.68407,  45: 0.03115,  46: 0.81063,  47:-0.85088,  48: 0.75731
   153 |      | 113:-0.03468, 114:-0.32771, 115:-0.64191, 116:-0.34098, 117:-0.12745, 118:-0.13723, 119:-0.85321, 120: 0.92912,
                121: 0.42891, 122:-0.83031, 123:-0.30160, 124: 0.22168, 125:-0.83429, 126:-0.87850, 127: 0.85791, 128: 0.01493,
                129:-0.84044, 130:-0.18985, 131:-0.23021, 132: 0.75151, 133: 0.98491, 134: 0.60435, 135: 0.60233, 136:-0.43464,
                137: 0.48125, 138:-0.66704, 139:-0.41402, 140:-0.67649, 141: 0.39037, 142: 0.83713, 143:-0.45456, 144: 0.47626,
                145:-0.95682, 146:-0.63827, 147: 0.82682, 148: 0.32514, 149:-0.41073, 150:-0.52567, 151: 0.50945, 152: 0.98897
   154 |      | 113: 0.93727, 114: 0.20816, 115: 0.24530, 116: 0.68012, 117: 0.55695, 118: 0.87165, 119:-0.56499, 120: 0.96782,
                121: 0.80468, 122:-0.38323, 123:-0.64962, 124:-0.66088, 125: 0.72467, 126:-0.25135, 127: 0.30704, 128:-0.00939,
                129: 0.06536, 130:-0.75852, 131:-0.02720, 132:-0.56317, 133:-0.09376, 134: 0.72448, 135: 0.75553, 136: 0.24434,
                137:-0.50963, 138:-0.34374, 139:-0.87988, 140: 0.65787, 141: 0.16620, 142:-0.80191, 143:-0.18803, 144:-0.80674,
                145: 0.91434, 146: 0.22321, 147: 0.03252, 148: 0.46721, 149:-0.02196, 150:-0.06778, 151: 0.77787, 152: 0.78052
   155 |      | 113: 0.28277, 114: 0.17391, 115: 0.22630, 116: 0.22276, 117:-0.42145, 118: 0.29530, 119:-0.83818, 120:-0.81846,
                121: 0.38584, 122:-0.06307, 123: 0.90832, 124: 0.67928, 125: 0.83518, 126:-0.37195, 127: 0.51695, 128: 0.70919,
                129:-0.70302, 130:-0.92545, 131: 0.69582, 132:-0.32336, 133:-0.53927, 134: 0.63388, 135:-0.28992, 136:-0.76645,
                137: 0.65991, 138: 0.54059, 139: 0.76584, 140: 0.92048, 141: 0.62521, 142: 0.79692, 143:-0.56546, 144: 0.37476,
                145:-0.93363, 146: 0.02940, 147: 0.77620, 148: 0.28500, 149:-0.97888, 150: 0.51556, 151: 0.53090, 152: 0.11296
-------|------|----------------------------------------------------------------------------------------------------------------


time delay section :

 no. | LLN | LUN | Toff | Soff | Ctype
-----|-----|-----|------|------|-------
   1 |   1 |   1 |    0 |    0 |     0
   2 |   1 |   2 |    0 |    0 |     0
   3 |   1 |   3 |    0 |    0 |     0
   4 |   1 |   4 |    0 |    0 |     0
   5 |   1 |   5 |    0 |    0 |     0
   6 |   1 |   6 |    0 |    0 |     0
   7 |   1 |   7 |    0 |    0 |     0
   8 |   1 |   8 |    0 |    0 |     0
   9 |   1 |   9 |    0 |    0 |     0
  10 |   1 |  10 |    0 |    0 |     0
  11 |   1 |  11 |    0 |    0 |     0
  12 |   1 |  12 |    0 |    0 |     0
  13 |   1 |  13 |    0 |    0 |     0
  14 |   1 |  14 |    0 |    0 |     0
  15 |   1 |  15 |    0 |    0 |     0
  16 |   1 |  16 |    0 |    0 |     0
  17 |   1 |  17 |  -16 |    0 |     0
  18 |   1 |  18 |  -16 |    0 |     0
  19 |   1 |  19 |  -16 |    0 |     0
  20 |   1 |  20 |  -16 |    0 |     0
  21 |   1 |  21 |  -16 |    0 |     0
  22 |   1 |  22 |  -16 |    0 |     0
  23 |   1 |  23 |  -16 |    0 |     0
  24 |   1 |  24 |  -16 |    0 |     0
  25 |   1 |  25 |  -16 |    0 |     0
  26 |   1 |  26 |  -16 |    0 |     0
  27 |   1 |  27 |  -16 |    0 |     0
  28 |   1 |  28 |  -16 |    0 |     0
  29 |   1 |  29 |  -16 |    0 |     0
  30 |   1 |  30 |  -16 |    0 |     0
  31 |   1 |  31 |  -16 |    0 |     0
  32 |   1 |  32 |  -16 |    0 |     0
  33 |   1 |  33 |  -32 |    0 |     0
  34 |   1 |  34 |  -32 |    0 |     0
  35 |   1 |  35 |  -32 |    0 |     0
  36 |   1 |  36 |  -32 |    0 |     0
  37 |   1 |  37 |  -32 |    0 |     0
  38 |   1 |  38 |  -32 |    0 |     0
  39 |   1 |  39 |  -32 |    0 |     0
  40 |   1 |  40 |  -32 |    0 |     0
  41 |   1 |  41 |  -32 |    0 |     0
  42 |   1 |  42 |  -32 |    0 |     0
  43 |   1 |  43 |  -32 |    0 |     0
  44 |   1 |  44 |  -32 |    0 |     0
  45 |   1 |  45 |  -32 |    0 |     0
  46 |   1 |  46 |  -32 |    0 |     0
  47 |   1 |  47 |  -32 |    0 |     0
  48 |   1 |  48 |  -32 |    0 |     0
  49 |   1 |  49 |  -48 |    0 |     0
  50 |   1 |  50 |  -48 |    0 |     0
  51 |   1 |  51 |  -48 |    0 |     0
  52 |   1 |  52 |  -48 |    0 |     0
  53 |   1 |  53 |  -48 |    0 |     0
  54 |   1 |  54 |  -48 |    0 |     0
  55 |   1 |  55 |  -48 |    0 |     0
  56 |   1 |  56 |  -48 |    0 |     0
  57 |   1 |  57 |  -48 |    0 |     0
  58 |   1 |  58 |  -48 |    0 |     0
  59 |   1 |  59 |  -48 |    0 |     0
  60 |   1 |  60 |  -48 |    0 |     0
  61 |   1 |  61 |  -48 |    0 |     0
  62 |   1 |  62 |  -48 |    0 |     0
  63 |   1 |  63 |  -48 |    0 |     0
  64 |   1 |  64 |  -48 |    0 |     0
  65 |   1 |  65 |  -64 |    0 |     0
  66 |   1 |  66 |  -64 |    0 |     0
  67 |   1 |  67 |  -64 |    0 |     0
  68 |   1 |  68 |  -64 |    0 |     0
  69 |   1 |  69 |  -64 |    0 |     0
  70 |   1 |  70 |  -64 |    0 |     0
  71 |   1 |  71 |  -64 |    0 |     0
  72 |   1 |  72 |  -64 |    0 |     0
  73 |   1 |  73 |  -64 |    0 |     0
  74 |   1 |  74 |  -64 |    0 |     0
  75 |   1 |  75 |  -64 |    0 |     0
  76 |   1 |  76 |  -64 |    0 |     0
  77 |   1 |  77 |  -64 |    0 |     0
  78 |   1 |  78 |  -64 |    0 |     0
  79 |   1 |  79 |  -64 |    0 |     0
  80 |   1 |  80 |  -64 |    0 |     0
  81 |   1 |  81 |  -80 |    0 |     0
  82 |   1 |  82 |  -80 |    0 |     0
  83 |   1 |  83 |  -80 |    0 |     0
  84 |   1 |  84 |  -80 |    0 |     0
  85 |   1 |  85 |  -80 |    0 |     0
  86 |   1 |  86 |  -80 |    0 |     0
  87 |   1 |  87 |  -80 |    0 |     0
  88 |   1 |  88 |  -80 |    0 |     0
  89 |   1 |  89 |  -80 |    0 |     0
  90 |   1 |  90 |  -80 |    0 |     0
  91 |   1 |  91 |  -80 |    0 |     0
  92 |   1 |  92 |  -80 |    0 |     0
  93 |   1 |  93 |  -80 |    0 |     0
  94 |   1 |  94 |  -80 |    0 |     0
  95 |   1 |  95 |  -80 |    0 |     0
  96 |   1 |  96 |  -80 |    0 |     0
  97 |   1 |  97 |  -96 |    0 |     0
  98 |   1 |  98 |  -96 |    0 |     0
  99 |   1 |  99 |  -96 |    0 |     0
 100 |   1 | 100 |  -96 |    0 |     0
 101 |   1 | 101 |  -96 |    0 |     0
 102 |   1 | 102 |  -96 |    0 |     0
 103 |   1 | 103 |  -96 |    0 |     0
 104 |   1 | 104 |  -96 |    0 |     0
 105 |   1 | 105 |  -96 |    0 |     0
 106 |   1 | 106 |  -96 |    0 |     0
 107 |   1 | 107 |  -96 |    0 |     0
 108 |   1 | 108 |  -96 |    0 |     0
 109 |   1 | 109 |  -96 |    0 |     0
 110 |   1 | 110 |  -96 |    0 |     0
 111 |   1 | 111 |  -96 |    0 |     0
 112 |   1 | 112 |  -96 |    0 |     0
 113 |   2 |   1 |    0 |    0 |     1
 114 |   2 |   2 |    0 |    0 |     1
 115 |   2 |   3 |    0 |    0 |     1
 116 |   2 |   4 |    0 |    0 |     1
 117 |   2 |   5 |    0 |    0 |     1
 118 |   2 |   6 |    0 |    0 |     1
 119 |   2 |   7 |    0 |    0 |     1
 120 |   2 |   8 |    0 |    0 |     1
 121 |   2 |   9 |   -8 |   16 |     1
 122 |   2 |  10 |   -8 |   16 |     1
 123 |   2 |  11 |   -8 |   16 |     1
 124 |   2 |  12 |   -8 |   16 |     1
 125 |   2 |  13 |   -8 |   16 |     1
 126 |   2 |  14 |   -8 |   16 |     1
 127 |   2 |  15 |   -8 |   16 |     1
 128 |   2 |  16 |   -8 |   16 |     1
 129 |   2 |  17 |  -16 |   32 |     1
 130 |   2 |  18 |  -16 |   32 |     1
 131 |   2 |  19 |  -16 |   32 |     1
 132 |   2 |  20 |  -16 |   32 |     1
 133 |   2 |  21 |  -16 |   32 |     1
 134 |   2 |  22 |  -16 |   32 |     1
 135 |   2 |  23 |  -16 |   32 |     1
 136 |   2 |  24 |  -16 |   32 |     1
 137 |   2 |  25 |  -24 |   48 |     1
 138 |   2 |  26 |  -24 |   48 |     1
 139 |   2 |  27 |  -24 |   48 |     1
 140 |   2 |  28 |  -24 |   48 |     1
 141 |   2 |  29 |  -24 |   48 |     1
 142 |   2 |  30 |  -24 |   48 |     1
 143 |   2 |  31 |  -24 |   48 |     1
 144 |   2 |  32 |  -24 |   48 |     1
 145 |   2 |  33 |  -32 |   64 |     1
 146 |   2 |  34 |  -32 |   64 |     1
 147 |   2 |  35 |  -32 |   64 |     1
 148 |   2 |  36 |  -32 |   64 |     1
 149 |   2 |  37 |  -32 |   64 |     1
 150 |   2 |  38 |  -32 |   64 |     1
 151 |   2 |  39 |  -32 |   64 |     1
 152 |   2 |  40 |  -32 |   64 |     1
 153 |   3 |   1 |    0 |    0 |     1
 154 |   3 |   2 |    0 |    0 |     1
 155 |   3 |   3 |    0 |    0 |     1
-----|-----|-----|------|------|-------
