SNNS network definition file V1.4-3D
generated at Fri Apr 22 13:09:35 1994

network name : eight_elman
source files :
no. of units : 20
no. of connections : 112
no. of unit types : 0
no. of site types : 0


learning function : JE_BP_Momentum
update function   : JE_Order


unit default section :

act      | bias     | st | subnet | layer | act func     | out func
---------|----------|----|--------|-------|--------------|-------------
 0.00000 |  0.00000 | h  |      0 |     1 | Act_Logistic | Out_Identity 
---------|----------|----|--------|-------|--------------|-------------


unit definition section :

no. | typeName | unitName | act      | bias     | st | position | act func     | out func | sites
----|----------|----------|----------|----------|----|----------|--------------|----------|-------
  1 |          | inp1     |  1.00000 |  0.85412 | i  |  1, 1, 0 |||
  2 |          | inp2     |  0.50000 |  0.13804 | i  |  1, 2, 0 | Act_Identity |          | 
  3 |          | hid1     |  0.63341 | -0.57129 | h  |  8, 1, 0 |||
  4 |          | hid2     |  0.64055 | -0.64227 | h  |  9, 1, 0 |||
  5 |          | hid3     |  0.06321 | -1.10226 | h  |  8, 2, 0 |||
  6 |          | hid4     |  0.09149 |  1.24957 | h  |  9, 2, 0 |||
  7 |          | hid5     |  0.60316 |  1.12290 | h  |  8, 3, 0 |||
  8 |          | hid6     |  0.99395 |  0.11263 | h  |  9, 3, 0 |||
  9 |          | hid7     |  0.00567 | -0.38155 | h  |  8, 4, 0 |||
 10 |          | hid8     |  0.11044 | -0.42249 | h  |  9, 4, 0 |||
 11 |          | out1     |  0.97786 |  1.72375 | o  | 15, 1, 0 |||
 12 |          | out2     |  0.85669 |  0.07069 | o  | 15, 2, 0 |||
 13 |          | con1     |  0.86444 |  0.50000 | sh  |  4, 6, 0 | Act_Identity |          | 
 14 |          | con2     |  1.03442 |  0.50000 | sh  |  5, 6, 0 | Act_Identity |          | 
 15 |          | con3     |  0.11706 |  0.50000 | sh  |  4, 7, 0 | Act_Identity |          | 
 16 |          | con4     |  0.17491 |  0.50000 | sh  |  5, 7, 0 | Act_Identity |          | 
 17 |          | con5     |  0.85045 |  0.50000 | sh  |  4, 8, 0 | Act_Identity |          | 
 18 |          | con6     |  1.34642 |  0.50000 | sh  |  5, 8, 0 | Act_Identity |          | 
 19 |          | con7     |  0.01699 |  0.50000 | sh  |  4, 9, 0 | Act_Identity |          | 
 20 |          | con8     |  0.13459 |  0.50000 | sh  |  5, 9, 0 | Act_Identity |          | 
----|----------|----------|----------|----------|----|----------|--------------|----------|-------


connection definition section :

target | site | source:weight
-------|------|---------------------------------------------------------------------------------------------------------------------
     3 |      |  1: 0.15672,  2:-0.06525, 13: 0.55697, 14:-0.55702, 15:-0.60977, 16:-0.91131, 17: 0.54218, 18: 1.06594, 19: 0.41874,
                20:-0.69031
     4 |      |  1: 0.76192,  2:-4.63644, 13:-0.84542, 14: 1.99339, 15:-0.05191, 16: 0.26818, 17: 1.21869, 18:-0.25786, 19: 1.47508,
                20:-0.14920
     5 |      |  1:-1.69286,  2:-0.33853, 13:-1.56272, 14:-2.54733, 15: 0.52981, 16:-2.45596, 17: 2.78914, 18: 2.72867, 19: 0.74852,
                20:-1.60172
     6 |      |  1:-2.99953,  2:-2.02433, 13: 1.35958, 14:-1.01567, 15:-0.11494, 16:-1.45785, 17: 0.22195, 18: 0.87704, 19: 1.68812,
                20:-1.21556
     7 |      |  1:-1.80913,  2: 2.59163, 13:-0.35954, 14:-1.21714, 15: 0.21696, 16: 0.79859, 17: 1.26712, 18: 0.26976, 19: 0.74189,
                20: 0.41546
     8 |      |  1: 1.09740,  2: 5.13442, 13:-0.50401, 14: 1.35872, 15:-0.37352, 16:-0.66704, 17:-1.44474, 18: 1.14913, 19:-1.90556,
                20: 1.17281
     9 |      |  1:-5.54066,  2:-1.14380, 13: 0.38960, 14: 2.07453, 15: 1.12850, 16: 2.92017, 17:-2.21630, 18:-0.89209, 19: 0.63232,
                20: 1.74235
    10 |      |  1:-1.29662,  2: 0.23617, 13:-0.03664, 14: 0.16861, 15:-0.34408, 16:-0.29538, 17:-1.25763, 18: 0.46053, 19:-0.93210,
                20:-0.04758
    11 |      |  3:-0.42389,  4: 2.96729,  5:-0.09088,  6:-3.15490,  7:-2.07320,  8: 2.07201,  9:-4.29823, 10:-0.52766
    12 |      |  3:-1.21829,  4:-4.14983,  5:-4.44427,  6:-3.20219,  7: 2.16718,  8: 4.27201,  9: 5.00897, 10: 1.25929
    13 |      |  3: 1.00000, 13: 0.30000
    14 |      |  4: 1.00000, 14: 0.30000
    15 |      |  5: 1.00000, 15: 0.30000
    16 |      |  6: 1.00000, 16: 0.30000
    17 |      |  7: 1.00000, 17: 0.30000
    18 |      |  8: 1.00000, 18: 0.30000
    19 |      |  9: 1.00000, 19: 0.30000
    20 |      | 10: 1.00000, 20: 0.30000
-------|------|---------------------------------------------------------------------------------------------------------------------
