SNNS network definition file V1.4-3D
generated at Mon Apr 25 17:49:00 1994

network name : eight_jordan
source files :
no. of units : 14
no. of connections : 52
no. of unit types : 0
no. of site types : 0


learning function : JE_Rprop
update function   : JE_Order


unit default section :

act      | bias     | st | subnet | layer | act func     | out func
---------|----------|----|--------|-------|--------------|-------------
 0.00000 |  0.00000 | h  |      0 |     1 | Act_Logistic | Out_Identity 
---------|----------|----|--------|-------|--------------|-------------


unit definition section :

no. | typeName | unitName | act      | bias     | st | position | act func     | out func | sites
----|----------|----------|----------|----------|----|----------|--------------|----------|-------
  1 |          | inp1     |  0.00000 |  0.20707 | i  |  1, 1,13 | Act_Identity |          | 
  2 |          | inp2     |  0.00000 | -0.68097 | i  |  1, 2,13 | Act_Identity |          | 
  3 |          | hid1     |  0.00000 | -9.87510 | h  |  7, 1,13 |||
  4 |          | hid2     |  0.00000 | -1.31809 | h  |  8, 1,13 |||
  5 |          | hid3     |  0.00000 | -1.56226 | h  |  7, 2,13 |||
  6 |          | hid4     |  0.00000 | -1.89887 | h  |  8, 2,13 |||
  7 |          | hid5     |  0.00000 |  0.98617 | h  |  7, 3,13 |||
  8 |          | hid6     |  0.00000 |  2.95693 | h  |  8, 3,13 |||
  9 |          | hid7     |  0.00000 |  0.62888 | h  |  7, 4,13 |||
 10 |          | hid8     |  0.00000 | -1.11553 | h  |  8, 4,13 |||
 11 |          | out1     |  0.00000 |  0.30814 | o  | 13, 1,13 |||
 12 |          | out2     |  0.00000 | -1.06836 | o  | 13, 2,13 |||
 13 |          | sta1     |  0.50000 |  0.50000 | sh  |  4, 5,13 | Act_Identity |          | 
 14 |          | sta2     |  0.50000 |  0.50000 | sh  |  4, 6,13 | Act_Identity |          | 
----|----------|----------|----------|----------|----|----------|--------------|----------|-------


connection definition section :

target | site | source:weight
-------|------|---------------------------------------------------------------------------------------------------------------------
     3 |      | 14:-5.81777, 13: 3.46869,  2:23.30402,  1: 9.81350
     4 |      | 14: 0.80066, 13:-0.76782,  2:-7.56048,  1: 6.91610
     5 |      | 14:-1.11893, 13: 0.82194,  2: 1.84130,  1: 0.66501
     6 |      | 14: 6.42300, 13:-3.12154,  2:-2.99109,  1:-4.00996
     7 |      | 14: 0.83372, 13: 0.35880,  2:-0.88153,  1:-4.24245
     8 |      | 14:-1.92001, 13: 6.54536,  2: 2.71441,  1:-30.59291
     9 |      | 14: 0.54760, 13:-0.58624,  2:-0.78935,  1:-0.26237
    10 |      | 14:-5.81634, 13: 2.70582,  2: 0.65042,  1: 4.63374
    11 |      | 10:-0.37120,  9:-3.79451,  8:-1.04740,  7:-4.66867,  6: 4.09876,  5: 3.86516,  4: 4.02643,  3: 0.08507
    12 |      | 10: 4.36635,  9:-4.05850,  8: 5.62653,  7:-4.11797,  6: 3.31129,  5: 2.48420,  4:-5.44632,  3: 2.39830
    13 |      | 13: 0.50000, 11: 1.00000
    14 |      | 14: 0.50000, 12: 1.00000
-------|------|---------------------------------------------------------------------------------------------------------------------
