SNNS network definition file V1.4-3D
generated at Fri Oct  7 13:39:45 1994

network name : encoder_untrained
source files :
no. of units : 19
no. of connections : 48
no. of unit types : 0
no. of site types : 0


learning function : Std_Backpropagation
update function   : Topological_Order


unit default section :

act      | bias     | st | subnet | layer | act func     | out func
---------|----------|----|--------|-------|--------------|-------------
 1.00000 |  0.00000 | i  |      0 |     1 | Act_Logistic | Out_Identity 
---------|----------|----|--------|-------|--------------|-------------


unit definition section :

no. | typeName | unitName | act      | bias     | st | position | act func | out func | sites
----|----------|----------|----------|----------|----|----------|----------|----------|-------
  1 |          |          |  1.00000 | -0.75539 | i  | 2,0,0    |||
  2 |          |          |  0.00000 |  0.88126 | i  | 2,1,0    |||
  3 |          |          |  0.00000 |  0.47831 | i  | 2,2,0    |||
  4 |          |          |  0.00000 |  0.39434 | i  | 2,3,0    |||
  5 |          |          |  0.00000 | -0.78299 | i  | 2,4,0    |||
  6 |          |          |  0.00000 |  0.00360 | i  | 2,5,0    |||
  7 |          |          |  0.00000 | -0.42005 | i  | 2,6,0    |||
  8 |          |          |  0.00000 |  0.42717 | i  | 2,7,0    |||
  9 |          |          |  0.41542 | -0.72985 | h  | 5,2,0    |||
 10 |          |          |  0.76499 | -0.33953 | h  | 5,3,0    |||
 11 |          |          |  0.99714 |  0.15023 | h  | 5,4,0    |||
 12 |          |          |  0.93540 |  0.18998 | o  | 8,0,0    |||
 13 |          |          |  0.01511 | -0.74624 | o  | 8,1,0    |||
 14 |          |          |  0.00000 |  0.96261 | o  | 8,2,0    |||
 15 |          |          |  0.00293 | -0.93147 | o  | 8,3,0    |||
 16 |          |          |  0.00000 |  0.55973 | o  | 8,4,0    |||
 17 |          |          |  0.04022 |  0.47735 | o  | 8,5,0    |||
 18 |          |          |  0.00626 |  0.51765 | o  | 8,6,0    |||
 19 |          |          |  0.00066 | -0.00782 | o  | 8,7,0    |||
----|----------|----------|----------|----------|----|----------|----------|----------|-------


connection definition section :

target | site | source:weight
-------|------|---------------------------------------------------------------------------------------------------------------------
     9 |      |  1:-0.35108,  2: 0.08302,  3:-0.91927,  4:-0.54935,  5: 0.24690,  6: 0.54272,  7: 0.29093,  8: 0.39936
    10 |      |  1:-0.43793,  2:-0.13191,  3:-0.64893,  4: 0.21878,  5:-0.63753,  6:-0.68802,  7: 0.63906,  8:-0.88679
    11 |      |  1:-0.04133,  2: 0.86871,  3:-0.82702,  4:-0.76517,  5:-0.52273,  6: 0.20215,  7:-0.37651,  8:-0.52310
    12 |      |  9: 0.74950, 10: 0.03073, 11: 0.55507
    13 |      |  9:-0.05764, 10: 0.99717, 11:-0.72103
    14 |      |  9:-0.62978, 10: 0.51423, 11: 0.37086
    15 |      |  9:-0.87112, 10:-0.61886, 11: 0.01578
    16 |      |  9:-0.15271, 10: 0.42194, 11: 0.35787
    17 |      |  9: 0.65202, 10: 0.99637, 11: 0.91043
    18 |      |  9: 0.16910, 10:-0.40325, 11: 0.55631
    19 |      |  9: 0.86594, 10: 0.21387, 11: 0.04105
-------|------|---------------------------------------------------------------------------------------------------------------------
