SNNS network definition file V1.4-3D
generated at Fri Oct  7 13:47:36 1994

network name : font_untrained
source files :
no. of units : 699
no. of connections : 4752
no. of unit types : 0
no. of site types : 0


learning function : Std_Backpropagation
update function   : Topological_Order


unit default section :

act      | bias     | st | subnet | layer | act func     | out func
---------|----------|----|--------|-------|--------------|-------------
 0.00000 |  0.00000 | h  |      0 |     1 | Act_Logistic | Out_Identity 
---------|----------|----|--------|-------|--------------|-------------


unit definition section :

no. | typeName | unitName | act      | bias     | st | position | act func | out func | sites
----|----------|----------|----------|----------|----|----------|----------|----------|-------
  1 |          | in       |  0.00000 |  0.56372 | i  |  1, 1, 0 |||
  2 |          | in       |  0.00000 |  0.56098 | i  |  2, 1, 0 |||
  3 |          | in       |  0.00000 | -0.83241 | i  |  3, 1, 0 |||
  4 |          | in       |  1.00000 |  0.29956 | i  |  4, 1, 0 |||
  5 |          | in       |  1.00000 |  0.61461 | i  |  5, 1, 0 |||
  6 |          | in       |  1.00000 |  0.57753 | i  |  6, 1, 0 |||
  7 |          | in       |  1.00000 | -0.26736 | i  |  7, 1, 0 |||
  8 |          | in       |  1.00000 |  0.89287 | i  |  8, 1, 0 |||
  9 |          | in       |  1.00000 | -0.56682 | i  |  9, 1, 0 |||
 10 |          | in       |  1.00000 |  0.93865 | i  | 10, 1, 0 |||
 11 |          | in       |  1.00000 |  0.11181 | i  | 11, 1, 0 |||
 12 |          | in       |  1.00000 |  0.64717 | i  | 12, 1, 0 |||
 13 |          | in       |  1.00000 | -0.86436 | i  | 13, 1, 0 |||
 14 |          | in       |  1.00000 | -0.81930 | i  | 14, 1, 0 |||
 15 |          | in       |  1.00000 |  0.05431 | i  | 15, 1, 0 |||
 16 |          | in       |  1.00000 | -0.74339 | i  | 16, 1, 0 |||
 17 |          | in       |  1.00000 | -0.39113 | i  | 17, 1, 0 |||
 18 |          | in       |  1.00000 | -0.86038 | i  | 18, 1, 0 |||
 19 |          | in       |  1.00000 |  0.08982 | i  | 19, 1, 0 |||
 20 |          | in       |  1.00000 |  0.20287 | i  | 20, 1, 0 |||
 21 |          | in       |  0.00000 | -0.78661 | i  | 21, 1, 0 |||
 22 |          | in       |  0.00000 | -0.38709 | i  | 22, 1, 0 |||
 23 |          | in       |  0.00000 | -0.67747 | i  | 23, 1, 0 |||
 24 |          | in       |  0.00000 | -0.47940 | i  | 24, 1, 0 |||
 25 |          | in       |  0.00000 | -0.30254 | i  |  1, 2, 0 |||
 26 |          | in       |  0.00000 | -0.35631 | i  |  2, 2, 0 |||
 27 |          | in       |  0.00000 | -0.15442 | i  |  3, 2, 0 |||
 28 |          | in       |  1.00000 |  0.45376 | i  |  4, 2, 0 |||
 29 |          | in       |  1.00000 | -0.87078 | i  |  5, 2, 0 |||
 30 |          | in       |  1.00000 | -0.32388 | i  |  6, 2, 0 |||
 31 |          | in       |  1.00000 |  0.90517 | i  |  7, 2, 0 |||
 32 |          | in       |  1.00000 |  0.25392 | i  |  8, 2, 0 |||
 33 |          | in       |  1.00000 | -0.23639 | i  |  9, 2, 0 |||
 34 |          | in       |  1.00000 |  0.70274 | i  | 10, 2, 0 |||
 35 |          | in       |  1.00000 |  0.24539 | i  | 11, 2, 0 |||
 36 |          | in       |  1.00000 | -0.28918 | i  | 12, 2, 0 |||
 37 |          | in       |  1.00000 |  0.94862 | i  | 13, 2, 0 |||
 38 |          | in       |  1.00000 | -0.68276 | i  | 14, 2, 0 |||
 39 |          | in       |  1.00000 |  0.84596 | i  | 15, 2, 0 |||
 40 |          | in       |  1.00000 | -0.48527 | i  | 16, 2, 0 |||
 41 |          | in       |  1.00000 |  0.48803 | i  | 17, 2, 0 |||
 42 |          | in       |  1.00000 | -0.80369 | i  | 18, 2, 0 |||
 43 |          | in       |  1.00000 |  0.24470 | i  | 19, 2, 0 |||
 44 |          | in       |  1.00000 |  0.36094 | i  | 20, 2, 0 |||
 45 |          | in       |  0.00000 |  0.57713 | i  | 21, 2, 0 |||
 46 |          | in       |  0.00000 | -0.29707 | i  | 22, 2, 0 |||
 47 |          | in       |  0.00000 |  0.49737 | i  | 23, 2, 0 |||
 48 |          | in       |  0.00000 |  0.54271 | i  | 24, 2, 0 |||
 49 |          | in       |  0.00000 |  0.49816 | i  |  1, 3, 0 |||
 50 |          | in       |  0.00000 | -0.88644 | i  |  2, 3, 0 |||
 51 |          | in       |  0.00000 |  0.72657 | i  |  3, 3, 0 |||
 52 |          | in       |  1.00000 |  0.45988 | i  |  4, 3, 0 |||
 53 |          | in       |  1.00000 | -0.09741 | i  |  5, 3, 0 |||
 54 |          | in       |  1.00000 |  0.35196 | i  |  6, 3, 0 |||
 55 |          | in       |  1.00000 | -0.73016 | i  |  7, 3, 0 |||
 56 |          | in       |  1.00000 |  0.40659 | i  |  8, 3, 0 |||
 57 |          | in       |  0.00000 | -0.36012 | i  |  9, 3, 0 |||
 58 |          | in       |  0.00000 | -0.66629 | i  | 10, 3, 0 |||
 59 |          | in       |  0.00000 | -0.75261 | i  | 11, 3, 0 |||
 60 |          | in       |  0.00000 | -0.29933 | i  | 12, 3, 0 |||
 61 |          | in       |  0.00000 |  0.85377 | i  | 13, 3, 0 |||
 62 |          | in       |  0.00000 | -0.79709 | i  | 14, 3, 0 |||
 63 |          | in       |  0.00000 |  0.49284 | i  | 15, 3, 0 |||
 64 |          | in       |  0.00000 | -0.22264 | i  | 16, 3, 0 |||
 65 |          | in       |  1.00000 | -0.68378 | i  | 17, 3, 0 |||
 66 |          | in       |  1.00000 | -0.66404 | i  | 18, 3, 0 |||
 67 |          | in       |  1.00000 |  0.25483 | i  | 19, 3, 0 |||
 68 |          | in       |  1.00000 | -0.51410 | i  | 20, 3, 0 |||
 69 |          | in       |  0.00000 |  0.78157 | i  | 21, 3, 0 |||
 70 |          | in       |  0.00000 | -0.70162 | i  | 22, 3, 0 |||
 71 |          | in       |  0.00000 | -0.11866 | i  | 23, 3, 0 |||
 72 |          | in       |  0.00000 | -0.71516 | i  | 24, 3, 0 |||
 73 |          | in       |  0.00000 |  0.31381 | i  |  1, 4, 0 |||
 74 |          | in       |  0.00000 | -0.38354 | i  |  2, 4, 0 |||
 75 |          | in       |  0.00000 |  0.30961 | i  |  3, 4, 0 |||
 76 |          | in       |  1.00000 | -0.78717 | i  |  4, 4, 0 |||
 77 |          | in       |  1.00000 | -0.91742 | i  |  5, 4, 0 |||
 78 |          | in       |  1.00000 |  0.75653 | i  |  6, 4, 0 |||
 79 |          | in       |  1.00000 | -0.96309 | i  |  7, 4, 0 |||
 80 |          | in       |  1.00000 |  0.88995 | i  |  8, 4, 0 |||
 81 |          | in       |  0.00000 | -0.22955 | i  |  9, 4, 0 |||
 82 |          | in       |  0.00000 |  0.92375 | i  | 10, 4, 0 |||
 83 |          | in       |  0.00000 |  0.24705 | i  | 11, 4, 0 |||
 84 |          | in       |  0.00000 | -0.05121 | i  | 12, 4, 0 |||
 85 |          | in       |  0.00000 |  0.43615 | i  | 13, 4, 0 |||
 86 |          | in       |  0.00000 | -0.12108 | i  | 14, 4, 0 |||
 87 |          | in       |  0.00000 | -0.21449 | i  | 15, 4, 0 |||
 88 |          | in       |  0.00000 | -0.63288 | i  | 16, 4, 0 |||
 89 |          | in       |  1.00000 |  0.10693 | i  | 17, 4, 0 |||
 90 |          | in       |  1.00000 |  0.94578 | i  | 18, 4, 0 |||
 91 |          | in       |  1.00000 |  0.05629 | i  | 19, 4, 0 |||
 92 |          | in       |  1.00000 |  0.43020 | i  | 20, 4, 0 |||
 93 |          | in       |  0.00000 |  0.41455 | i  | 21, 4, 0 |||
 94 |          | in       |  0.00000 |  0.60864 | i  | 22, 4, 0 |||
 95 |          | in       |  0.00000 |  0.96484 | i  | 23, 4, 0 |||
 96 |          | in       |  0.00000 | -0.65920 | i  | 24, 4, 0 |||
 97 |          | in       |  0.00000 | -0.14633 | i  |  1, 5, 0 |||
 98 |          | in       |  0.00000 |  0.79044 | i  |  2, 5, 0 |||
 99 |          | in       |  0.00000 | -0.46595 | i  |  3, 5, 0 |||
100 |          | in       |  1.00000 |  0.76180 | i  |  4, 5, 0 |||
101 |          | in       |  1.00000 |  0.55222 | i  |  5, 5, 0 |||
102 |          | in       |  1.00000 | -0.89451 | i  |  6, 5, 0 |||
103 |          | in       |  0.00000 | -0.47810 | i  |  7, 5, 0 |||
104 |          | in       |  0.00000 | -0.64271 | i  |  8, 5, 0 |||
105 |          | in       |  0.00000 | -0.65226 | i  |  9, 5, 0 |||
106 |          | in       |  0.00000 |  0.49804 | i  | 10, 5, 0 |||
107 |          | in       |  0.00000 |  0.48701 | i  | 11, 5, 0 |||
108 |          | in       |  0.00000 |  0.32361 | i  | 12, 5, 0 |||
109 |          | in       |  0.00000 |  0.22356 | i  | 13, 5, 0 |||
110 |          | in       |  0.00000 | -0.05464 | i  | 14, 5, 0 |||
111 |          | in       |  1.00000 |  0.46718 | i  | 15, 5, 0 |||
112 |          | in       |  1.00000 |  0.19756 | i  | 16, 5, 0 |||
113 |          | in       |  1.00000 | -0.74179 | i  | 17, 5, 0 |||
114 |          | in       |  1.00000 |  0.90822 | i  | 18, 5, 0 |||
115 |          | in       |  0.00000 |  0.41085 | i  | 19, 5, 0 |||
116 |          | in       |  0.00000 |  0.21151 | i  | 20, 5, 0 |||
117 |          | in       |  0.00000 | -0.12000 | i  | 21, 5, 0 |||
118 |          | in       |  0.00000 |  0.37836 | i  | 22, 5, 0 |||
119 |          | in       |  0.00000 | -0.64515 | i  | 23, 5, 0 |||
120 |          | in       |  0.00000 |  0.04904 | i  | 24, 5, 0 |||
121 |          | in       |  0.00000 |  0.81771 | i  |  1, 6, 0 |||
122 |          | in       |  0.00000 |  0.47520 | i  |  2, 6, 0 |||
123 |          | in       |  0.00000 | -0.83409 | i  |  3, 6, 0 |||
124 |          | in       |  1.00000 | -0.95687 | i  |  4, 6, 0 |||
125 |          | in       |  1.00000 |  0.33581 | i  |  5, 6, 0 |||
126 |          | in       |  1.00000 | -0.80415 | i  |  6, 6, 0 |||
127 |          | in       |  0.00000 |  0.51873 | i  |  7, 6, 0 |||
128 |          | in       |  0.00000 |  0.25367 | i  |  8, 6, 0 |||
129 |          | in       |  0.00000 | -0.50457 | i  |  9, 6, 0 |||
130 |          | in       |  0.00000 |  0.08435 | i  | 10, 6, 0 |||
131 |          | in       |  0.00000 | -0.80126 | i  | 11, 6, 0 |||
132 |          | in       |  0.00000 |  0.15421 | i  | 12, 6, 0 |||
133 |          | in       |  0.00000 | -0.13185 | i  | 13, 6, 0 |||
134 |          | in       |  0.00000 | -0.94092 | i  | 14, 6, 0 |||
135 |          | in       |  1.00000 |  0.29226 | i  | 15, 6, 0 |||
136 |          | in       |  1.00000 |  0.13699 | i  | 16, 6, 0 |||
137 |          | in       |  1.00000 |  0.64182 | i  | 17, 6, 0 |||
138 |          | in       |  1.00000 |  0.56936 | i  | 18, 6, 0 |||
139 |          | in       |  0.00000 |  0.32565 | i  | 19, 6, 0 |||
140 |          | in       |  0.00000 |  0.09126 | i  | 20, 6, 0 |||
141 |          | in       |  0.00000 |  0.91055 | i  | 21, 6, 0 |||
142 |          | in       |  0.00000 | -0.36776 | i  | 22, 6, 0 |||
143 |          | in       |  0.00000 |  0.87570 | i  | 23, 6, 0 |||
144 |          | in       |  0.00000 | -0.10275 | i  | 24, 6, 0 |||
145 |          | in       |  0.00000 |  0.36766 | i  |  1, 7, 0 |||
146 |          | in       |  0.00000 |  0.46356 | i  |  2, 7, 0 |||
147 |          | in       |  0.00000 | -0.00153 | i  |  3, 7, 0 |||
148 |          | in       |  0.00000 |  0.87493 | i  |  4, 7, 0 |||
149 |          | in       |  0.00000 | -0.92965 | i  |  5, 7, 0 |||
150 |          | in       |  0.00000 | -0.45915 | i  |  6, 7, 0 |||
151 |          | in       |  0.00000 | -0.61263 | i  |  7, 7, 0 |||
152 |          | in       |  0.00000 |  0.69605 | i  |  8, 7, 0 |||
153 |          | in       |  0.00000 | -0.41004 | i  |  9, 7, 0 |||
154 |          | in       |  0.00000 | -0.45991 | i  | 10, 7, 0 |||
155 |          | in       |  0.00000 | -0.68513 | i  | 11, 7, 0 |||
156 |          | in       |  0.00000 | -0.23586 | i  | 12, 7, 0 |||
157 |          | in       |  1.00000 | -0.91090 | i  | 13, 7, 0 |||
158 |          | in       |  1.00000 |  0.04122 | i  | 14, 7, 0 |||
159 |          | in       |  1.00000 | -0.05417 | i  | 15, 7, 0 |||
160 |          | in       |  1.00000 |  0.94123 | i  | 16, 7, 0 |||
161 |          | in       |  1.00000 | -0.21522 | i  | 17, 7, 0 |||
162 |          | in       |  1.00000 |  0.90486 | i  | 18, 7, 0 |||
163 |          | in       |  0.00000 | -0.18554 | i  | 19, 7, 0 |||
164 |          | in       |  0.00000 |  0.19471 | i  | 20, 7, 0 |||
165 |          | in       |  0.00000 | -0.80879 | i  | 21, 7, 0 |||
166 |          | in       |  0.00000 |  0.33974 | i  | 22, 7, 0 |||
167 |          | in       |  0.00000 |  0.37833 | i  | 23, 7, 0 |||
168 |          | in       |  0.00000 | -0.70989 | i  | 24, 7, 0 |||
169 |          | in       |  0.00000 | -0.46830 | i  |  1, 8, 0 |||
170 |          | in       |  0.00000 |  0.80275 | i  |  2, 8, 0 |||
171 |          | in       |  0.00000 |  0.31908 | i  |  3, 8, 0 |||
172 |          | in       |  0.00000 |  0.19652 | i  |  4, 8, 0 |||
173 |          | in       |  0.00000 | -0.97033 | i  |  5, 8, 0 |||
174 |          | in       |  0.00000 | -0.25919 | i  |  6, 8, 0 |||
175 |          | in       |  0.00000 | -0.66392 | i  |  7, 8, 0 |||
176 |          | in       |  0.00000 |  0.12576 | i  |  8, 8, 0 |||
177 |          | in       |  0.00000 | -0.58245 | i  |  9, 8, 0 |||
178 |          | in       |  0.00000 |  0.88108 | i  | 10, 8, 0 |||
179 |          | in       |  0.00000 |  0.72973 | i  | 11, 8, 0 |||
180 |          | in       |  0.00000 | -0.08765 | i  | 12, 8, 0 |||
181 |          | in       |  1.00000 | -0.86090 | i  | 13, 8, 0 |||
182 |          | in       |  1.00000 | -0.76980 | i  | 14, 8, 0 |||
183 |          | in       |  1.00000 |  0.22021 | i  | 15, 8, 0 |||
184 |          | in       |  1.00000 |  0.17088 | i  | 16, 8, 0 |||
185 |          | in       |  1.00000 | -0.71373 | i  | 17, 8, 0 |||
186 |          | in       |  1.00000 |  0.42648 | i  | 18, 8, 0 |||
187 |          | in       |  0.00000 |  0.78449 | i  | 19, 8, 0 |||
188 |          | in       |  0.00000 | -0.15335 | i  | 20, 8, 0 |||
189 |          | in       |  0.00000 | -0.55520 | i  | 21, 8, 0 |||
190 |          | in       |  0.00000 |  0.71550 | i  | 22, 8, 0 |||
191 |          | in       |  0.00000 | -0.61735 | i  | 23, 8, 0 |||
192 |          | in       |  0.00000 | -0.49619 | i  | 24, 8, 0 |||
193 |          | in       |  0.00000 |  0.17995 | i  |  1, 9, 0 |||
194 |          | in       |  0.00000 |  0.04977 | i  |  2, 9, 0 |||
195 |          | in       |  0.00000 |  0.31108 | i  |  3, 9, 0 |||
196 |          | in       |  0.00000 |  0.16640 | i  |  4, 9, 0 |||
197 |          | in       |  0.00000 |  0.95270 | i  |  5, 9, 0 |||
198 |          | in       |  0.00000 | -0.05162 | i  |  6, 9, 0 |||
199 |          | in       |  0.00000 | -0.43578 | i  |  7, 9, 0 |||
200 |          | in       |  0.00000 |  0.52795 | i  |  8, 9, 0 |||
201 |          | in       |  0.00000 | -0.38973 | i  |  9, 9, 0 |||
202 |          | in       |  0.00000 | -0.55990 | i  | 10, 9, 0 |||
203 |          | in       |  1.00000 | -0.52550 | i  | 11, 9, 0 |||
204 |          | in       |  1.00000 |  0.75687 | i  | 12, 9, 0 |||
205 |          | in       |  1.00000 |  0.25896 | i  | 13, 9, 0 |||
206 |          | in       |  1.00000 | -0.85650 | i  | 14, 9, 0 |||
207 |          | in       |  1.00000 | -0.53201 | i  | 15, 9, 0 |||
208 |          | in       |  1.00000 |  0.42084 | i  | 16, 9, 0 |||
209 |          | in       |  0.00000 | -0.96732 | i  | 17, 9, 0 |||
210 |          | in       |  0.00000 |  0.14379 | i  | 18, 9, 0 |||
211 |          | in       |  0.00000 |  0.92437 | i  | 19, 9, 0 |||
212 |          | in       |  0.00000 | -0.19665 | i  | 20, 9, 0 |||
213 |          | in       |  0.00000 |  0.96881 | i  | 21, 9, 0 |||
214 |          | in       |  0.00000 | -0.51345 | i  | 22, 9, 0 |||
215 |          | in       |  0.00000 |  0.73864 | i  | 23, 9, 0 |||
216 |          | in       |  0.00000 |  0.25087 | i  | 24, 9, 0 |||
217 |          | in       |  0.00000 |  0.56501 | i  |  1,10, 0 |||
218 |          | in       |  0.00000 | -0.15559 | i  |  2,10, 0 |||
219 |          | in       |  0.00000 |  0.58867 | i  |  3,10, 0 |||
220 |          | in       |  0.00000 | -0.57404 | i  |  4,10, 0 |||
221 |          | in       |  0.00000 | -0.49674 | i  |  5,10, 0 |||
222 |          | in       |  0.00000 |  0.08933 | i  |  6,10, 0 |||
223 |          | in       |  0.00000 |  0.42946 | i  |  7,10, 0 |||
224 |          | in       |  0.00000 | -0.70044 | i  |  8,10, 0 |||
225 |          | in       |  0.00000 |  0.09998 | i  |  9,10, 0 |||
226 |          | in       |  0.00000 | -0.67002 | i  | 10,10, 0 |||
227 |          | in       |  1.00000 |  0.13951 | i  | 11,10, 0 |||
228 |          | in       |  1.00000 |  0.33801 | i  | 12,10, 0 |||
229 |          | in       |  1.00000 | -0.90174 | i  | 13,10, 0 |||
230 |          | in       |  1.00000 |  0.50225 | i  | 14,10, 0 |||
231 |          | in       |  1.00000 |  0.28641 | i  | 15,10, 0 |||
232 |          | in       |  1.00000 |  0.16426 | i  | 16,10, 0 |||
233 |          | in       |  0.00000 |  0.00589 | i  | 17,10, 0 |||
234 |          | in       |  0.00000 | -0.77059 | i  | 18,10, 0 |||
235 |          | in       |  0.00000 | -0.12633 | i  | 19,10, 0 |||
236 |          | in       |  0.00000 | -0.37100 | i  | 20,10, 0 |||
237 |          | in       |  0.00000 | -0.93552 | i  | 21,10, 0 |||
238 |          | in       |  0.00000 |  0.63526 | i  | 22,10, 0 |||
239 |          | in       |  0.00000 | -0.13561 | i  | 23,10, 0 |||
240 |          | in       |  0.00000 |  0.94067 | i  | 24,10, 0 |||
241 |          | in       |  0.00000 |  0.59208 | i  |  1,11, 0 |||
242 |          | in       |  0.00000 |  0.68447 | i  |  2,11, 0 |||
243 |          | in       |  0.00000 | -0.09519 | i  |  3,11, 0 |||
244 |          | in       |  0.00000 |  0.59202 | i  |  4,11, 0 |||
245 |          | in       |  0.00000 |  0.57743 | i  |  5,11, 0 |||
246 |          | in       |  0.00000 |  0.86541 | i  |  6,11, 0 |||
247 |          | in       |  0.00000 |  0.61381 | i  |  7,11, 0 |||
248 |          | in       |  0.00000 | -0.80304 | i  |  8,11, 0 |||
249 |          | in       |  0.00000 | -0.56410 | i  |  9,11, 0 |||
250 |          | in       |  0.00000 |  0.39482 | i  | 10,11, 0 |||
251 |          | in       |  1.00000 |  0.15598 | i  | 11,11, 0 |||
252 |          | in       |  1.00000 | -0.97905 | i  | 12,11, 0 |||
253 |          | in       |  1.00000 | -0.59424 | i  | 13,11, 0 |||
254 |          | in       |  1.00000 |  0.22506 | i  | 14,11, 0 |||
255 |          | in       |  0.00000 |  0.63612 | i  | 15,11, 0 |||
256 |          | in       |  0.00000 |  0.55054 | i  | 16,11, 0 |||
257 |          | in       |  0.00000 | -0.47477 | i  | 17,11, 0 |||
258 |          | in       |  0.00000 | -0.06701 | i  | 18,11, 0 |||
259 |          | in       |  0.00000 | -0.32947 | i  | 19,11, 0 |||
260 |          | in       |  0.00000 |  0.59634 | i  | 20,11, 0 |||
261 |          | in       |  0.00000 |  0.06235 | i  | 21,11, 0 |||
262 |          | in       |  0.00000 | -0.13299 | i  | 22,11, 0 |||
263 |          | in       |  0.00000 |  0.80507 | i  | 23,11, 0 |||
264 |          | in       |  0.00000 |  0.44595 | i  | 24,11, 0 |||
265 |          | in       |  0.00000 |  0.96538 | i  |  1,12, 0 |||
266 |          | in       |  0.00000 | -0.12777 | i  |  2,12, 0 |||
267 |          | in       |  0.00000 | -0.77388 | i  |  3,12, 0 |||
268 |          | in       |  0.00000 |  0.85962 | i  |  4,12, 0 |||
269 |          | in       |  0.00000 |  0.87596 | i  |  5,12, 0 |||
270 |          | in       |  0.00000 |  0.49339 | i  |  6,12, 0 |||
271 |          | in       |  0.00000 |  0.38587 | i  |  7,12, 0 |||
272 |          | in       |  0.00000 | -0.79328 | i  |  8,12, 0 |||
273 |          | in       |  0.00000 |  0.73185 | i  |  9,12, 0 |||
274 |          | in       |  0.00000 | -0.89542 | i  | 10,12, 0 |||
275 |          | in       |  1.00000 |  0.14109 | i  | 11,12, 0 |||
276 |          | in       |  1.00000 |  0.84375 | i  | 12,12, 0 |||
277 |          | in       |  1.00000 | -0.56733 | i  | 13,12, 0 |||
278 |          | in       |  1.00000 |  0.11266 | i  | 14,12, 0 |||
279 |          | in       |  0.00000 |  0.15764 | i  | 15,12, 0 |||
280 |          | in       |  0.00000 | -0.40377 | i  | 16,12, 0 |||
281 |          | in       |  0.00000 |  0.62036 | i  | 17,12, 0 |||
282 |          | in       |  0.00000 |  0.74756 | i  | 18,12, 0 |||
283 |          | in       |  0.00000 |  0.50388 | i  | 19,12, 0 |||
284 |          | in       |  0.00000 | -0.31586 | i  | 20,12, 0 |||
285 |          | in       |  0.00000 |  0.72499 | i  | 21,12, 0 |||
286 |          | in       |  0.00000 |  0.35445 | i  | 22,12, 0 |||
287 |          | in       |  0.00000 | -0.64503 | i  | 23,12, 0 |||
288 |          | in       |  0.00000 |  0.97232 | i  | 24,12, 0 |||
289 |          | in       |  0.00000 | -0.84741 | i  |  1,13, 0 |||
290 |          | in       |  0.00000 |  0.24729 | i  |  2,13, 0 |||
291 |          | in       |  0.00000 | -0.16414 | i  |  3,13, 0 |||
292 |          | in       |  0.00000 |  0.47725 | i  |  4,13, 0 |||
293 |          | in       |  0.00000 |  0.17258 | i  |  5,13, 0 |||
294 |          | in       |  0.00000 | -0.37539 | i  |  6,13, 0 |||
295 |          | in       |  0.00000 | -0.50744 | i  |  7,13, 0 |||
296 |          | in       |  0.00000 |  0.65734 | i  |  8,13, 0 |||
297 |          | in       |  1.00000 |  0.74159 | i  |  9,13, 0 |||
298 |          | in       |  1.00000 |  0.68202 | i  | 10,13, 0 |||
299 |          | in       |  1.00000 |  0.41448 | i  | 11,13, 0 |||
300 |          | in       |  1.00000 | -0.71519 | i  | 12,13, 0 |||
301 |          | in       |  1.00000 |  0.44225 | i  | 13,13, 0 |||
302 |          | in       |  1.00000 | -0.37685 | i  | 14,13, 0 |||
303 |          | in       |  0.00000 | -0.67778 | i  | 15,13, 0 |||
304 |          | in       |  0.00000 | -0.62995 | i  | 16,13, 0 |||
305 |          | in       |  0.00000 |  0.90277 | i  | 17,13, 0 |||
306 |          | in       |  0.00000 |  0.85412 | i  | 18,13, 0 |||
307 |          | in       |  0.00000 |  0.13804 | i  | 19,13, 0 |||
308 |          | in       |  0.00000 | -0.49965 | i  | 20,13, 0 |||
309 |          | in       |  0.00000 |  0.69609 | i  | 21,13, 0 |||
310 |          | in       |  0.00000 |  0.17547 | i  | 22,13, 0 |||
311 |          | in       |  0.00000 |  0.79497 | i  | 23,13, 0 |||
312 |          | in       |  0.00000 | -0.52225 | i  | 24,13, 0 |||
313 |          | in       |  0.00000 | -0.28357 | i  |  1,14, 0 |||
314 |          | in       |  0.00000 | -0.46982 | i  |  2,14, 0 |||
315 |          | in       |  0.00000 | -0.09483 | i  |  3,14, 0 |||
316 |          | in       |  0.00000 |  0.80024 | i  |  4,14, 0 |||
317 |          | in       |  0.00000 | -0.46465 | i  |  5,14, 0 |||
318 |          | in       |  0.00000 | -0.05766 | i  |  6,14, 0 |||
319 |          | in       |  0.00000 | -0.03895 | i  |  7,14, 0 |||
320 |          | in       |  0.00000 |  0.42700 | i  |  8,14, 0 |||
321 |          | in       |  1.00000 | -0.89464 | i  |  9,14, 0 |||
322 |          | in       |  1.00000 |  0.14773 | i  | 10,14, 0 |||
323 |          | in       |  1.00000 |  0.01141 | i  | 11,14, 0 |||
324 |          | in       |  1.00000 | -0.40495 | i  | 12,14, 0 |||
325 |          | in       |  1.00000 |  0.48355 | i  | 13,14, 0 |||
326 |          | in       |  1.00000 | -0.62274 | i  | 14,14, 0 |||
327 |          | in       |  0.00000 | -0.76087 | i  | 15,14, 0 |||
328 |          | in       |  0.00000 |  0.99774 | i  | 16,14, 0 |||
329 |          | in       |  0.00000 |  0.78580 | i  | 17,14, 0 |||
330 |          | in       |  0.00000 |  0.45350 | i  | 18,14, 0 |||
331 |          | in       |  0.00000 | -0.96797 | i  | 19,14, 0 |||
332 |          | in       |  0.00000 |  0.27775 | i  | 20,14, 0 |||
333 |          | in       |  0.00000 | -0.63360 | i  | 21,14, 0 |||
334 |          | in       |  0.00000 | -0.71052 | i  | 22,14, 0 |||
335 |          | in       |  0.00000 |  0.42117 | i  | 23,14, 0 |||
336 |          | in       |  0.00000 | -0.99897 | i  | 24,14, 0 |||
337 |          | in       |  0.00000 |  0.98248 | i  |  1,15, 0 |||
338 |          | in       |  0.00000 |  0.87243 | i  |  2,15, 0 |||
339 |          | in       |  0.00000 | -0.93539 | i  |  3,15, 0 |||
340 |          | in       |  0.00000 | -0.36632 | i  |  4,15, 0 |||
341 |          | in       |  0.00000 |  0.39689 | i  |  5,15, 0 |||
342 |          | in       |  0.00000 | -0.45085 | i  |  6,15, 0 |||
343 |          | in       |  0.00000 | -0.84717 | i  |  7,15, 0 |||
344 |          | in       |  0.00000 | -0.29803 | i  |  8,15, 0 |||
345 |          | in       |  1.00000 | -0.83154 | i  |  9,15, 0 |||
346 |          | in       |  1.00000 | -0.07224 | i  | 10,15, 0 |||
347 |          | in       |  1.00000 | -0.95335 | i  | 11,15, 0 |||
348 |          | in       |  1.00000 |  0.53305 | i  | 12,15, 0 |||
349 |          | in       |  0.00000 |  0.16288 | i  | 13,15, 0 |||
350 |          | in       |  0.00000 | -0.16376 | i  | 14,15, 0 |||
351 |          | in       |  0.00000 | -0.56060 | i  | 15,15, 0 |||
352 |          | in       |  0.00000 |  0.59966 | i  | 16,15, 0 |||
353 |          | in       |  0.00000 | -0.80210 | i  | 17,15, 0 |||
354 |          | in       |  0.00000 |  0.74173 | i  | 18,15, 0 |||
355 |          | in       |  0.00000 | -0.85733 | i  | 19,15, 0 |||
356 |          | in       |  0.00000 | -0.52973 | i  | 20,15, 0 |||
357 |          | in       |  0.00000 |  0.04052 | i  | 21,15, 0 |||
358 |          | in       |  0.00000 | -0.11275 | i  | 22,15, 0 |||
359 |          | in       |  0.00000 |  0.97582 | i  | 23,15, 0 |||
360 |          | in       |  0.00000 |  0.23253 | i  | 24,15, 0 |||
361 |          | in       |  0.00000 |  0.24467 | i  |  1,16, 0 |||
362 |          | in       |  0.00000 | -0.45710 | i  |  2,16, 0 |||
363 |          | in       |  0.00000 | -0.08761 | i  |  3,16, 0 |||
364 |          | in       |  0.00000 | -0.35511 | i  |  4,16, 0 |||
365 |          | in       |  0.00000 | -0.17953 | i  |  5,16, 0 |||
366 |          | in       |  0.00000 |  0.43447 | i  |  6,16, 0 |||
367 |          | in       |  0.00000 |  0.78435 | i  |  7,16, 0 |||
368 |          | in       |  0.00000 |  0.40253 | i  |  8,16, 0 |||
369 |          | in       |  1.00000 | -0.05754 | i  |  9,16, 0 |||
370 |          | in       |  1.00000 | -0.81003 | i  | 10,16, 0 |||
371 |          | in       |  1.00000 |  0.12538 | i  | 11,16, 0 |||
372 |          | in       |  1.00000 | -0.90234 | i  | 12,16, 0 |||
373 |          | in       |  0.00000 |  0.53531 | i  | 13,16, 0 |||
374 |          | in       |  0.00000 | -0.04000 | i  | 14,16, 0 |||
375 |          | in       |  0.00000 | -0.23307 | i  | 15,16, 0 |||
376 |          | in       |  0.00000 |  0.62345 | i  | 16,16, 0 |||
377 |          | in       |  0.00000 | -0.95851 | i  | 17,16, 0 |||
378 |          | in       |  0.00000 | -0.00639 | i  | 18,16, 0 |||
379 |          | in       |  0.00000 |  0.67988 | i  | 19,16, 0 |||
380 |          | in       |  0.00000 | -0.07907 | i  | 20,16, 0 |||
381 |          | in       |  0.00000 |  0.61488 | i  | 21,16, 0 |||
382 |          | in       |  0.00000 |  0.50187 | i  | 22,16, 0 |||
383 |          | in       |  0.00000 |  0.33962 | i  | 23,16, 0 |||
384 |          | in       |  0.00000 |  0.69824 | i  | 24,16, 0 |||
385 |          | in       |  0.00000 | -0.24517 | i  |  1,17, 0 |||
386 |          | in       |  0.00000 |  0.57655 | i  |  2,17, 0 |||
387 |          | in       |  0.00000 | -0.88765 | i  |  3,17, 0 |||
388 |          | in       |  0.00000 | -0.24402 | i  |  4,17, 0 |||
389 |          | in       |  0.00000 |  0.57265 | i  |  5,17, 0 |||
390 |          | in       |  0.00000 |  0.05265 | i  |  6,17, 0 |||
391 |          | in       |  1.00000 | -0.68545 | i  |  7,17, 0 |||
392 |          | in       |  1.00000 |  0.11763 | i  |  8,17, 0 |||
393 |          | in       |  1.00000 |  0.76196 | i  |  9,17, 0 |||
394 |          | in       |  1.00000 | -0.84084 | i  | 10,17, 0 |||
395 |          | in       |  1.00000 | -0.34853 | i  | 11,17, 0 |||
396 |          | in       |  1.00000 |  0.67056 | i  | 12,17, 0 |||
397 |          | in       |  0.00000 | -0.56005 | i  | 13,17, 0 |||
398 |          | in       |  0.00000 | -0.41905 | i  | 14,17, 0 |||
399 |          | in       |  0.00000 |  0.63036 | i  | 15,17, 0 |||
400 |          | in       |  0.00000 | -0.55347 | i  | 16,17, 0 |||
401 |          | in       |  0.00000 |  0.56962 | i  | 17,17, 0 |||
402 |          | in       |  0.00000 |  0.49099 | i  | 18,17, 0 |||
403 |          | in       |  0.00000 | -0.32572 | i  | 19,17, 0 |||
404 |          | in       |  0.00000 | -0.92123 | i  | 20,17, 0 |||
405 |          | in       |  0.00000 | -0.88417 | i  | 21,17, 0 |||
406 |          | in       |  0.00000 | -0.61601 | i  | 22,17, 0 |||
407 |          | in       |  0.00000 | -0.59469 | i  | 23,17, 0 |||
408 |          | in       |  0.00000 | -0.97290 | i  | 24,17, 0 |||
409 |          | in       |  0.00000 | -0.39978 | i  |  1,18, 0 |||
410 |          | in       |  0.00000 | -0.32904 | i  |  2,18, 0 |||
411 |          | in       |  0.00000 |  0.76427 | i  |  3,18, 0 |||
412 |          | in       |  0.00000 | -0.37939 | i  |  4,18, 0 |||
413 |          | in       |  0.00000 |  0.68921 | i  |  5,18, 0 |||
414 |          | in       |  0.00000 |  0.34463 | i  |  6,18, 0 |||
415 |          | in       |  1.00000 |  0.09756 | i  |  7,18, 0 |||
416 |          | in       |  1.00000 |  0.17687 | i  |  8,18, 0 |||
417 |          | in       |  1.00000 | -0.01493 | i  |  9,18, 0 |||
418 |          | in       |  1.00000 | -0.69255 | i  | 10,18, 0 |||
419 |          | in       |  1.00000 | -0.64980 | i  | 11,18, 0 |||
420 |          | in       |  1.00000 | -0.13758 | i  | 12,18, 0 |||
421 |          | in       |  0.00000 | -0.38396 | i  | 13,18, 0 |||
422 |          | in       |  0.00000 |  0.71912 | i  | 14,18, 0 |||
423 |          | in       |  0.00000 | -0.69465 | i  | 15,18, 0 |||
424 |          | in       |  0.00000 | -0.40250 | i  | 16,18, 0 |||
425 |          | in       |  0.00000 |  0.58490 | i  | 17,18, 0 |||
426 |          | in       |  0.00000 |  0.86609 | i  | 18,18, 0 |||
427 |          | in       |  0.00000 |  0.12156 | i  | 19,18, 0 |||
428 |          | in       |  0.00000 | -0.68995 | i  | 20,18, 0 |||
429 |          | in       |  0.00000 |  0.39797 | i  | 21,18, 0 |||
430 |          | in       |  0.00000 |  0.32188 | i  | 22,18, 0 |||
431 |          | in       |  0.00000 | -0.07485 | i  | 23,18, 0 |||
432 |          | in       |  0.00000 |  0.93415 | i  | 24,18, 0 |||
433 |          | in       |  0.00000 | -0.75738 | i  |  1,19, 0 |||
434 |          | in       |  0.00000 |  0.63711 | i  |  2,19, 0 |||
435 |          | in       |  0.00000 | -0.92953 | i  |  3,19, 0 |||
436 |          | in       |  0.00000 | -0.45504 | i  |  4,19, 0 |||
437 |          | in       |  0.00000 |  0.10997 | i  |  5,19, 0 |||
438 |          | in       |  0.00000 | -0.59855 | i  |  6,19, 0 |||
439 |          | in       |  1.00000 |  0.00922 | i  |  7,19, 0 |||
440 |          | in       |  1.00000 |  0.33785 | i  |  8,19, 0 |||
441 |          | in       |  1.00000 |  0.69281 | i  |  9,19, 0 |||
442 |          | in       |  1.00000 | -0.47444 | i  | 10,19, 0 |||
443 |          | in       |  0.00000 |  0.10218 | i  | 11,19, 0 |||
444 |          | in       |  0.00000 |  0.29942 | i  | 12,19, 0 |||
445 |          | in       |  0.00000 | -0.23667 | i  | 13,19, 0 |||
446 |          | in       |  0.00000 | -0.88301 | i  | 14,19, 0 |||
447 |          | in       |  0.00000 |  0.72423 | i  | 15,19, 0 |||
448 |          | in       |  0.00000 | -0.51735 | i  | 16,19, 0 |||
449 |          | in       |  0.00000 |  0.91039 | i  | 17,19, 0 |||
450 |          | in       |  0.00000 | -0.17328 | i  | 18,19, 0 |||
451 |          | in       |  1.00000 | -0.31503 | i  | 19,19, 0 |||
452 |          | in       |  1.00000 |  0.98019 | i  | 20,19, 0 |||
453 |          | in       |  0.00000 | -0.93361 | i  | 21,19, 0 |||
454 |          | in       |  0.00000 |  0.32747 | i  | 22,19, 0 |||
455 |          | in       |  0.00000 | -0.68919 | i  | 23,19, 0 |||
456 |          | in       |  0.00000 | -0.22356 | i  | 24,19, 0 |||
457 |          | in       |  0.00000 |  0.97530 | i  |  1,20, 0 |||
458 |          | in       |  0.00000 | -0.70460 | i  |  2,20, 0 |||
459 |          | in       |  0.00000 | -0.02240 | i  |  3,20, 0 |||
460 |          | in       |  0.00000 |  0.53108 | i  |  4,20, 0 |||
461 |          | in       |  0.00000 | -0.34089 | i  |  5,20, 0 |||
462 |          | in       |  0.00000 | -0.60428 | i  |  6,20, 0 |||
463 |          | in       |  1.00000 |  0.87945 | i  |  7,20, 0 |||
464 |          | in       |  1.00000 | -0.52088 | i  |  8,20, 0 |||
465 |          | in       |  1.00000 | -0.23714 | i  |  9,20, 0 |||
466 |          | in       |  1.00000 | -0.84805 | i  | 10,20, 0 |||
467 |          | in       |  0.00000 |  0.27645 | i  | 11,20, 0 |||
468 |          | in       |  0.00000 |  0.59299 | i  | 12,20, 0 |||
469 |          | in       |  0.00000 |  0.34880 | i  | 13,20, 0 |||
470 |          | in       |  0.00000 | -0.11230 | i  | 14,20, 0 |||
471 |          | in       |  0.00000 | -0.74884 | i  | 15,20, 0 |||
472 |          | in       |  0.00000 | -0.89626 | i  | 16,20, 0 |||
473 |          | in       |  0.00000 |  0.93927 | i  | 17,20, 0 |||
474 |          | in       |  0.00000 |  0.18923 | i  | 18,20, 0 |||
475 |          | in       |  1.00000 | -0.53363 | i  | 19,20, 0 |||
476 |          | in       |  1.00000 | -0.32392 | i  | 20,20, 0 |||
477 |          | in       |  0.00000 | -0.73703 | i  | 21,20, 0 |||
478 |          | in       |  0.00000 | -0.58811 | i  | 22,20, 0 |||
479 |          | in       |  0.00000 | -0.13809 | i  | 23,20, 0 |||
480 |          | in       |  0.00000 | -0.17416 | i  | 24,20, 0 |||
481 |          | in       |  0.00000 | -0.15114 | i  |  1,21, 0 |||
482 |          | in       |  0.00000 | -0.14623 | i  |  2,21, 0 |||
483 |          | in       |  0.00000 |  0.43857 | i  |  3,21, 0 |||
484 |          | in       |  1.00000 | -0.49820 | i  |  4,21, 0 |||
485 |          | in       |  1.00000 |  0.16134 | i  |  5,21, 0 |||
486 |          | in       |  1.00000 | -0.60272 | i  |  6,21, 0 |||
487 |          | in       |  1.00000 |  0.99777 | i  |  7,21, 0 |||
488 |          | in       |  1.00000 |  0.66346 | i  |  8,21, 0 |||
489 |          | in       |  0.00000 | -0.07475 | i  |  9,21, 0 |||
490 |          | in       |  0.00000 | -0.92927 | i  | 10,21, 0 |||
491 |          | in       |  0.00000 | -0.84434 | i  | 11,21, 0 |||
492 |          | in       |  0.00000 |  0.80374 | i  | 12,21, 0 |||
493 |          | in       |  0.00000 | -0.58706 | i  | 13,21, 0 |||
494 |          | in       |  0.00000 |  0.34781 | i  | 14,21, 0 |||
495 |          | in       |  0.00000 | -0.68648 | i  | 15,21, 0 |||
496 |          | in       |  0.00000 |  0.91476 | i  | 16,21, 0 |||
497 |          | in       |  1.00000 |  0.24018 | i  | 17,21, 0 |||
498 |          | in       |  1.00000 |  0.66655 | i  | 18,21, 0 |||
499 |          | in       |  1.00000 |  0.19830 | i  | 19,21, 0 |||
500 |          | in       |  1.00000 |  0.69423 | i  | 20,21, 0 |||
501 |          | in       |  0.00000 |  0.34517 | i  | 21,21, 0 |||
502 |          | in       |  0.00000 |  0.03959 | i  | 22,21, 0 |||
503 |          | in       |  0.00000 | -0.28988 | i  | 23,21, 0 |||
504 |          | in       |  0.00000 |  0.75243 | i  | 24,21, 0 |||
505 |          | in       |  0.00000 | -0.27547 | i  |  1,22, 0 |||
506 |          | in       |  0.00000 | -0.48568 | i  |  2,22, 0 |||
507 |          | in       |  0.00000 | -0.78047 | i  |  3,22, 0 |||
508 |          | in       |  1.00000 | -0.79023 | i  |  4,22, 0 |||
509 |          | in       |  1.00000 |  0.81048 | i  |  5,22, 0 |||
510 |          | in       |  1.00000 | -0.75803 | i  |  6,22, 0 |||
511 |          | in       |  1.00000 |  0.20740 | i  |  7,22, 0 |||
512 |          | in       |  1.00000 |  0.97350 | i  |  8,22, 0 |||
513 |          | in       |  0.00000 | -0.54720 | i  |  9,22, 0 |||
514 |          | in       |  0.00000 | -0.01395 | i  | 10,22, 0 |||
515 |          | in       |  0.00000 |  0.76249 | i  | 11,22, 0 |||
516 |          | in       |  0.00000 |  0.84165 | i  | 12,22, 0 |||
517 |          | in       |  0.00000 | -0.10748 | i  | 13,22, 0 |||
518 |          | in       |  0.00000 |  0.84642 | i  | 14,22, 0 |||
519 |          | in       |  0.00000 | -0.55392 | i  | 15,22, 0 |||
520 |          | in       |  0.00000 |  0.69049 | i  | 16,22, 0 |||
521 |          | in       |  1.00000 |  0.17762 | i  | 17,22, 0 |||
522 |          | in       |  1.00000 |  0.94262 | i  | 18,22, 0 |||
523 |          | in       |  1.00000 | -0.63636 | i  | 19,22, 0 |||
524 |          | in       |  1.00000 | -0.26114 | i  | 20,22, 0 |||
525 |          | in       |  0.00000 |  0.68725 | i  | 21,22, 0 |||
526 |          | in       |  0.00000 | -0.22247 | i  | 22,22, 0 |||
527 |          | in       |  0.00000 | -0.11104 | i  | 23,22, 0 |||
528 |          | in       |  0.00000 | -0.77573 | i  | 24,22, 0 |||
529 |          | in       |  0.00000 |  0.03317 | i  |  1,23, 0 |||
530 |          | in       |  0.00000 |  0.32589 | i  |  2,23, 0 |||
531 |          | in       |  0.00000 |  0.76817 | i  |  3,23, 0 |||
532 |          | in       |  1.00000 |  0.83886 | i  |  4,23, 0 |||
533 |          | in       |  1.00000 |  0.04557 | i  |  5,23, 0 |||
534 |          | in       |  1.00000 |  0.73800 | i  |  6,23, 0 |||
535 |          | in       |  1.00000 | -0.33605 | i  |  7,23, 0 |||
536 |          | in       |  1.00000 | -0.37883 | i  |  8,23, 0 |||
537 |          | in       |  1.00000 |  0.99628 | i  |  9,23, 0 |||
538 |          | in       |  1.00000 |  0.43912 | i  | 10,23, 0 |||
539 |          | in       |  1.00000 |  0.42607 | i  | 11,23, 0 |||
540 |          | in       |  1.00000 | -0.56223 | i  | 12,23, 0 |||
541 |          | in       |  1.00000 | -0.94708 | i  | 13,23, 0 |||
542 |          | in       |  1.00000 |  0.70482 | i  | 14,23, 0 |||
543 |          | in       |  1.00000 |  0.30250 | i  | 15,23, 0 |||
544 |          | in       |  1.00000 |  0.06656 | i  | 16,23, 0 |||
545 |          | in       |  1.00000 |  0.30149 | i  | 17,23, 0 |||
546 |          | in       |  1.00000 | -0.78903 | i  | 18,23, 0 |||
547 |          | in       |  1.00000 |  0.21633 | i  | 19,23, 0 |||
548 |          | in       |  1.00000 |  0.65452 | i  | 20,23, 0 |||
549 |          | in       |  0.00000 | -0.15268 | i  | 21,23, 0 |||
550 |          | in       |  0.00000 | -0.85350 | i  | 22,23, 0 |||
551 |          | in       |  0.00000 |  0.37466 | i  | 23,23, 0 |||
552 |          | in       |  0.00000 |  0.00411 | i  | 24,23, 0 |||
553 |          | in       |  0.00000 |  0.55117 | i  |  1,24, 0 |||
554 |          | in       |  0.00000 |  0.13437 | i  |  2,24, 0 |||
555 |          | in       |  0.00000 | -0.43596 | i  |  3,24, 0 |||
556 |          | in       |  1.00000 | -0.12521 | i  |  4,24, 0 |||
557 |          | in       |  1.00000 | -0.85904 | i  |  5,24, 0 |||
558 |          | in       |  1.00000 | -0.82842 | i  |  6,24, 0 |||
559 |          | in       |  1.00000 |  0.20782 | i  |  7,24, 0 |||
560 |          | in       |  1.00000 | -0.00542 | i  |  8,24, 0 |||
561 |          | in       |  1.00000 | -0.25569 | i  |  9,24, 0 |||
562 |          | in       |  1.00000 |  0.15615 | i  | 10,24, 0 |||
563 |          | in       |  1.00000 | -0.23110 | i  | 11,24, 0 |||
564 |          | in       |  1.00000 | -0.42141 | i  | 12,24, 0 |||
565 |          | in       |  1.00000 |  0.51175 | i  | 13,24, 0 |||
566 |          | in       |  1.00000 | -0.75376 | i  | 14,24, 0 |||
567 |          | in       |  1.00000 |  0.49905 | i  | 15,24, 0 |||
568 |          | in       |  1.00000 |  0.26024 | i  | 16,24, 0 |||
569 |          | in       |  1.00000 | -0.13257 | i  | 17,24, 0 |||
570 |          | in       |  1.00000 |  0.56427 | i  | 18,24, 0 |||
571 |          | in       |  1.00000 |  0.45601 | i  | 19,24, 0 |||
572 |          | in       |  1.00000 |  0.96146 | i  | 20,24, 0 |||
573 |          | in       |  0.00000 |  0.16984 | i  | 21,24, 0 |||
574 |          | in       |  0.00000 | -0.26588 | i  | 22,24, 0 |||
575 |          | in       |  0.00000 | -0.30831 | i  | 23,24, 0 |||
576 |          | in       |  0.00000 |  0.46037 | i  | 24,24, 0 |||
577 |          | h1       |  0.95448 |  0.04862 | h  | 27, 1, 0 |||
578 |          | h1       |  0.95862 |  0.43999 | h  | 28, 1, 0 |||
579 |          | h1       |  0.00000 | -0.40902 | h  | 29, 1, 0 |||
580 |          | h1       |  1.00000 |  0.46325 | h  | 30, 1, 0 |||
581 |          | h1       |  0.00417 | -0.26794 | h  | 27, 2, 0 |||
582 |          | h1       |  0.00000 | -0.26300 | h  | 28, 2, 0 |||
583 |          | h1       |  0.00000 | -0.76816 | h  | 29, 2, 0 |||
584 |          | h1       |  0.99954 | -0.58730 | h  | 30, 2, 0 |||
585 |          | h1       |  1.00000 | -0.98472 | h  | 27, 3, 0 |||
586 |          | h1       |  0.08206 | -0.08332 | h  | 28, 3, 0 |||
587 |          | h1       |  0.01614 |  0.51998 | h  | 29, 3, 0 |||
588 |          | h1       |  0.99220 | -0.10030 | h  | 30, 3, 0 |||
589 |          | h1       |  0.00002 | -0.50512 | h  | 27, 4, 0 |||
590 |          | h1       |  0.99999 |  0.80421 | h  | 28, 4, 0 |||
591 |          | h1       |  0.88493 |  0.62702 | h  | 29, 4, 0 |||
592 |          | h1       |  0.19557 |  0.40547 | h  | 30, 4, 0 |||
593 |          | h1       |  1.00000 | -0.91397 | h  | 27, 5, 0 |||
594 |          | h1       |  0.99120 |  0.34953 | h  | 28, 5, 0 |||
595 |          | h1       |  0.89122 | -0.47820 | h  | 29, 5, 0 |||
596 |          | h1       |  0.99998 | -0.69292 | h  | 30, 5, 0 |||
597 |          | h1       |  0.75398 |  0.92912 | h  | 27, 6, 0 |||
598 |          | h1       |  0.01766 | -0.95682 | h  | 28, 6, 0 |||
599 |          | h1       |  0.00000 |  0.06536 | h  | 29, 6, 0 |||
600 |          | h1       |  0.00000 |  0.28277 | h  | 30, 6, 0 |||
601 |          | h2       |  0.77718 |  0.54059 | h  | 27,10, 0 |||
602 |          | h2       |  0.83533 | -0.65387 | h  | 28,10, 0 |||
603 |          | h2       |  0.44642 | -0.38302 | h  | 29,10, 0 |||
604 |          | h2       |  1.00000 |  0.77854 | h  | 30,10, 0 |||
605 |          | h2       |  0.98914 | -0.86006 | h  | 27,11, 0 |||
606 |          | h2       |  0.94806 |  0.57246 | h  | 28,11, 0 |||
607 |          | h2       |  0.99996 | -0.24821 | h  | 29,11, 0 |||
608 |          | h2       |  0.00000 |  0.74738 | h  | 30,11, 0 |||
609 |          | h2       |  0.09482 |  0.76299 | h  | 27,12, 0 |||
610 |          | h2       |  1.00000 |  0.18649 | h  | 28,12, 0 |||
611 |          | h2       |  0.00000 | -0.61252 | h  | 29,12, 0 |||
612 |          | h2       |  0.00753 |  0.02489 | h  | 30,12, 0 |||
613 |          | h2       |  0.99997 |  0.43966 | h  | 27,13, 0 |||
614 |          | h2       |  1.00000 |  0.11212 | h  | 28,13, 0 |||
615 |          | h2       |  0.99965 | -0.55998 | h  | 29,13, 0 |||
616 |          | h2       |  1.00000 |  0.42397 | h  | 30,13, 0 |||
617 |          | h2       |  0.92949 | -0.67559 | h  | 27,14, 0 |||
618 |          | h2       |  0.00041 |  0.64206 | h  | 28,14, 0 |||
619 |          | h2       |  0.00000 | -0.42464 | h  | 29,14, 0 |||
620 |          | h2       |  1.00000 |  0.26517 | h  | 30,14, 0 |||
621 |          | h2       |  0.83286 |  0.13776 | h  | 27,15, 0 |||
622 |          | h2       |  0.28387 |  0.71278 | h  | 28,15, 0 |||
623 |          | h2       |  0.80003 |  0.91125 | h  | 29,15, 0 |||
624 |          | h2       |  0.84178 |  0.30220 | h  | 30,15, 0 |||
625 |          | s0       |  0.00000 |  0.99838 | o  | 33, 1, 0 |||
626 |          | s1       |  0.00000 | -0.37990 | o  | 34, 1, 0 |||
627 |          | s2       |  0.00000 | -0.17873 | o  | 35, 1, 0 |||
628 |          | s3       |  0.00051 |  0.67430 | o  | 36, 1, 0 |||
629 |          | s4       |  0.00050 |  0.11220 | o  | 37, 1, 0 |||
630 |          | s5       |  0.00000 | -0.22392 | o  | 33, 2, 0 |||
631 |          | s6       |  0.00000 |  0.42302 | o  | 34, 2, 0 |||
632 |          | s7       |  0.00062 |  0.94160 | o  | 35, 2, 0 |||
633 |          | s8       |  0.00161 |  0.68737 | o  | 36, 2, 0 |||
634 |          | s9       |  0.00000 |  0.49606 | o  | 37, 2, 0 |||
635 |          | s:       |  0.00000 |  0.02835 | o  | 33, 3, 0 |||
636 |          | s;       |  0.00000 | -0.93188 | o  | 34, 3, 0 |||
637 |          | s<       |  0.00008 | -0.26895 | o  | 35, 3, 0 |||
638 |          | s=       |  0.00014 | -0.83512 | o  | 36, 3, 0 |||
639 |          | s>       |  0.00140 | -0.58168 | o  | 37, 3, 0 |||
640 |          | s?       |  0.00001 | -0.30184 | o  | 33, 4, 0 |||
641 |          | s@       |  0.00001 | -0.74095 | o  | 34, 4, 0 |||
642 |          | A        |  0.00021 | -0.01066 | o  | 35, 4, 0 |||
643 |          | B        |  0.00019 |  0.75548 | o  | 36, 4, 0 |||
644 |          | C        |  0.00000 | -0.84140 | o  | 37, 4, 0 |||
645 |          | D        |  0.00001 |  0.27504 | o  | 33, 5, 0 |||
646 |          | E        |  0.00025 | -0.28881 | o  | 34, 5, 0 |||
647 |          | F        |  0.00000 | -0.21534 | o  | 35, 5, 0 |||
648 |          | G        |  0.00000 | -0.56616 | o  | 36, 5, 0 |||
649 |          | H        |  0.00000 | -0.13972 | o  | 37, 5, 0 |||
650 |          | I        |  0.00000 | -0.15819 | o  | 33, 6, 0 |||
651 |          | J        |  0.00286 | -0.26459 | o  | 34, 6, 0 |||
652 |          | K        |  0.00002 | -0.59172 | o  | 35, 6, 0 |||
653 |          | L        |  0.00001 |  0.18753 | o  | 36, 6, 0 |||
654 |          | M        |  0.00001 | -0.00912 | o  | 37, 6, 0 |||
655 |          | N        |  0.00000 |  0.94538 | o  | 33, 7, 0 |||
656 |          | O        |  0.00022 |  0.30981 | o  | 34, 7, 0 |||
657 |          | P        |  0.00000 | -0.26900 | o  | 35, 7, 0 |||
658 |          | Q        |  0.00000 |  0.04161 | o  | 36, 7, 0 |||
659 |          | R        |  0.00000 | -0.89060 | o  | 37, 7, 0 |||
660 |          | S        |  0.00002 |  0.48330 | o  | 33, 8, 0 |||
661 |          | T        |  0.00000 |  0.68684 | o  | 34, 8, 0 |||
662 |          | U        |  0.00008 | -0.30007 | o  | 35, 8, 0 |||
663 |          | V        |  0.00020 |  0.28682 | o  | 36, 8, 0 |||
664 |          | W        |  0.00000 | -0.49361 | o  | 37, 8, 0 |||
665 |          | X        |  0.00000 |  0.37748 | o  | 33, 9, 0 |||
666 |          | Y        |  0.00056 | -0.72553 | o  | 34, 9, 0 |||
667 |          | Z        |  0.02493 |  0.52294 | o  | 35, 9, 0 |||
668 |          | s[       |  0.00000 | -0.82528 | o  | 36, 9, 0 |||
669 |          | s\       |  0.00000 |  0.63995 | o  | 37, 9, 0 |||
670 |          | s]       |  0.00000 |  0.73012 | o  | 33,10, 0 |||
671 |          | s^       |  0.00000 | -0.21678 | o  | 34,10, 0 |||
672 |          | s-       |  0.00001 | -0.93321 | o  | 35,10, 0 |||
673 |          | s`       |  0.00019 |  0.56226 | o  | 36,10, 0 |||
674 |          | a        |  0.00000 |  0.24693 | o  | 37,10, 0 |||
675 |          | b        |  0.00000 |  0.45181 | o  | 33,11, 0 |||
676 |          | c        |  0.00134 |  0.88043 | o  | 34,11, 0 |||
677 |          | d        |  0.00893 |  0.82250 | o  | 35,11, 0 |||
678 |          | e        |  0.00000 | -0.80043 | o  | 36,11, 0 |||
679 |          | f        |  0.00003 |  0.97116 | o  | 37,11, 0 |||
680 |          | g        |  0.00021 | -0.76041 | o  | 33,12, 0 |||
681 |          | h        |  0.00002 | -0.09049 | o  | 34,12, 0 |||
682 |          | i        |  0.00000 |  0.98224 | o  | 35,12, 0 |||
683 |          | j        |  0.00052 |  0.32446 | o  | 36,12, 0 |||
684 |          | k        |  0.00000 |  0.51752 | o  | 37,12, 0 |||
685 |          | l        |  0.00001 | -0.01235 | o  | 33,13, 0 |||
686 |          | m        |  0.00000 |  0.11987 | o  | 34,13, 0 |||
687 |          | n        |  0.00000 | -0.51319 | o  | 35,13, 0 |||
688 |          | o        |  0.00000 |  0.82548 | o  | 36,13, 0 |||
689 |          | p        |  0.00000 | -0.34295 | o  | 37,13, 0 |||
690 |          | q        |  0.00001 | -0.85117 | o  | 33,14, 0 |||
691 |          | r        |  0.00001 | -0.83920 | o  | 34,14, 0 |||
692 |          | s        |  0.00007 |  0.67834 | o  | 35,14, 0 |||
693 |          | t        |  0.00000 |  0.61805 | o  | 36,14, 0 |||
694 |          | u        |  0.00001 |  0.68433 | o  | 37,14, 0 |||
695 |          | v        |  0.00007 | -0.99763 | o  | 33,15, 0 |||
696 |          | w        |  0.00005 | -0.92909 | o  | 34,15, 0 |||
697 |          | x        |  0.00797 |  0.75602 | o  | 35,15, 0 |||
698 |          | y        |  0.00000 |  0.62734 | o  | 36,15, 0 |||
699 |          | z        |  0.89079 |  0.03931 | o  | 37,15, 0 |||
----|----------|----------|----------|----------|----|----------|----------|----------|-------


connection definition section :

target | site | source:weight
-------|------|----------------------------------------------------------------------------------------------------------------
   577 |      |   1: 0.87874,   2: 0.58851,   3: 0.45242,   4: 0.48028,   5:-0.68576,   6:-0.51532,   7: 0.53061,   8:-0.42964,
                  9:-0.10114,  10:-0.55094,  11:-0.38733,  12: 0.03669,  13:-0.67696,  14: 0.77880,  15:-0.60646,  16:-0.73037,
                 17:-0.60686,  18:-0.59914,  19:-0.03231,  20: 0.53195,  21:-0.75558,  22:-0.26292,  23:-0.99024,  24:-0.97672
   578 |      |  25: 0.08115,  26: 0.08079,  27:-0.93935,  28:-0.06323,  29:-0.55309,  30:-0.41140,  31: 0.12435,  32: 0.13616,
                 33: 0.95923,  34: 0.61991,  35:-0.18579,  36: 0.73887,  37: 0.91993,  38:-0.18537,  39: 0.39990,  40:-0.71365,
                 41:-0.09217,  42: 0.30010,  43:-0.60692,  44: 0.33650,  45:-0.14925,  46:-0.32935,  47: 0.90322,  48:-0.22856
   579 |      |  49:-0.59741,  50:-0.83813,  51:-0.80023,  52: 0.67900,  53: 0.84997,  54:-0.06666,  55:-0.43566,  56:-0.93661,
                 57: 0.07716,  58: 0.21181,  59:-0.48410,  60:-0.94035,  61: 0.85067,  62: 0.99206,  63:-0.17869,  64:-0.99442,
                 65:-0.17211,  66:-0.42901,  67: 0.84530,  68:-0.15554,  69:-0.36890,  70: 0.08390,  71: 0.12313,  72:-0.51423
   580 |      |  73: 0.31671,  74: 0.21900,  75: 0.11322,  76: 0.18108,  77: 0.49629,  78: 0.77465,  79:-0.95604,  80:-0.64018,
                 81:-0.80468,  82: 0.07288,  83:-0.33376,  84: 0.52498,  85:-0.13209,  86:-0.90761,  87:-0.76477,  88:-0.85523,
                 89:-0.75639,  90: 0.27982,  91: 0.70013,  92: 0.52258,  93: 0.95987,  94:-0.18081,  95:-0.45117,  96:-0.15424
   581 |      |  97:-0.40658,  98: 0.13726,  99: 0.37068, 100: 0.08977, 101: 0.20118, 102:-0.16377, 103: 0.18743, 104:-0.48617,
                105:-0.94300, 106: 0.26433, 107: 0.93331, 108:-0.32901, 109:-0.15351, 110:-0.96436, 111: 0.03242, 112: 0.56453,
                113:-0.64019, 114:-0.04100, 115: 0.93989, 116:-0.28069, 117: 0.25632, 118: 0.07243, 119:-0.02961, 120: 0.13666
   582 |      | 121:-0.15628, 122: 0.69113, 123:-0.45327, 124: 0.87836, 125:-0.65607, 126: 0.75205, 127: 0.52858, 128:-0.18682,
                129: 0.20427, 130: 0.19870, 131:-0.84318, 132:-0.32124, 133:-0.83575, 134: 0.64605, 135: 0.98163, 136:-0.22072,
                137: 0.44572, 138:-0.33995, 139: 0.08891, 140: 0.56284, 141: 0.94863, 142: 0.86484, 143: 0.67019, 144: 0.47032
   583 |      | 145:-0.16860, 146:-0.37223, 147:-0.50357, 148:-0.24107, 149:-0.03841, 150:-0.86186, 151:-0.72315, 152:-0.73548,
                153:-0.78832, 154: 0.40330, 155:-0.11158, 156:-0.88882, 157:-0.45646, 158: 0.86131, 159: 0.37572, 160:-0.09249,
                161:-0.01263, 162:-0.55051, 163:-0.30812, 164: 0.66257, 165:-0.22190, 166:-0.12068, 167: 0.50571, 168: 0.54477
   584 |      | 169: 0.77429, 170:-0.23523, 171: 0.55001, 172:-0.01384, 173: 0.64114, 174: 0.44179, 175:-0.31356, 176:-0.28816,
                177:-0.58797, 178:-0.69680, 179: 0.74393, 180:-0.87666, 181: 0.34759, 182:-0.56347, 183:-0.60384, 184:-0.31075,
                185: 0.78744, 186:-0.38149, 187:-0.18989, 188:-0.85730, 189: 0.15013, 190:-0.79965, 191:-0.38863, 192:-0.97838
   585 |      | 193: 0.17678, 194: 0.93974, 195:-0.88605, 196:-0.42117, 197:-0.51795, 198: 0.36395, 199:-0.32082, 200:-0.50818,
                201: 0.65245, 202: 0.01139, 203:-0.45814, 204: 0.52375, 205: 0.98931, 206:-0.21857, 207: 0.08663, 208: 0.80465,
                209:-0.22989, 210: 0.79108, 211: 0.58313, 212:-0.01744, 213:-0.74633, 214: 0.05973, 215: 0.48311, 216: 0.59447
   586 |      | 217: 0.15552, 218: 0.80368, 219: 0.61332, 220:-0.90249, 221: 0.34617, 222: 0.47822, 223:-0.45257, 224:-0.09669,
                225:-0.55946, 226: 0.74972, 227: 0.89523, 228:-0.39941, 229: 0.65741, 230: 0.02524, 231:-0.82075, 232: 0.84002,
                233: 0.67094, 234:-0.07602, 235: 0.40104, 236:-0.10845, 237: 0.57959, 238: 0.94520, 239: 0.49201, 240:-0.14242
   587 |      | 241: 0.76451, 242: 0.32379, 243: 0.70503, 244: 0.55896, 245:-0.26519, 246:-0.05797, 247:-0.62976, 248: 0.37570,
                249: 0.91667, 250: 0.97644, 251:-0.55230, 252: 0.08882, 253:-0.32152, 254: 0.45222, 255:-0.28074, 256:-0.14157,
                257:-0.53002, 258: 0.49681, 259:-0.49317, 260: 0.03468, 261:-0.74080, 262: 0.43463, 263: 0.37142, 264:-0.46217
   588 |      | 265: 0.44139, 266:-0.28735, 267:-0.28791, 268: 0.52533, 269: 0.95890, 270:-0.63229, 271: 0.43981, 272: 0.20901,
                273: 0.34019, 274:-0.76890, 275:-0.85743, 276:-0.58040, 277: 0.30966, 278: 0.42704, 279:-0.78709, 280:-0.78926,
                281: 0.61095, 282: 0.71627, 283:-0.83925, 284: 0.11421, 285: 0.22096, 286: 0.00560, 287: 0.54035, 288:-0.98106
   589 |      | 289: 0.29202, 290: 0.73166, 291:-0.87989, 292:-0.94177, 293: 0.69709, 294: 0.53866, 295:-0.36159, 296: 0.87706,
                297: 0.86000, 298:-0.04001, 299: 0.35092, 300: 0.13797, 301: 0.63002, 302: 0.47512, 303: 0.04655, 304:-0.00653,
                305:-0.65337, 306: 0.83378, 307:-0.57865, 308: 0.23311, 309: 0.97770, 310:-0.83405, 311:-0.64491, 312:-0.89746
   590 |      | 313:-0.25706, 314: 0.24732, 315: 0.10672, 316:-0.65729, 317: 0.88360, 318:-0.47991, 319:-0.78677, 320: 0.77166,
                321: 0.24869, 322:-0.51064, 323:-0.35086, 324:-0.38828, 325:-0.49376, 326:-0.36284, 327: 0.91228, 328:-0.02200,
                329:-0.54711, 330: 0.54322, 331: 0.86368, 332: 0.89812, 333: 0.98384, 334:-0.88571, 335:-0.77759, 336: 0.33711
   591 |      | 337: 0.63087, 338: 0.55330, 339:-0.60127, 340: 0.97495, 341: 0.95871, 342: 0.24907, 343: 0.23486, 344: 0.50822,
                345: 0.08269, 346:-0.89430, 347:-0.61254, 348: 0.72493, 349:-0.95579, 350:-0.86271, 351: 0.34994, 352:-0.14410,
                353: 0.12574, 354: 0.25661, 355:-0.84719, 356:-0.08955, 357: 0.54456, 358:-0.43891, 359: 0.67770, 360: 0.48484
   592 |      | 361:-0.86891, 362: 0.45734, 363: 0.26748, 364: 0.72390, 365: 0.60692, 366:-0.95882, 367:-0.94815, 368: 0.06766,
                369: 0.21994, 370: 0.05664, 371: 0.34844, 372:-0.03142, 373:-0.51171, 374:-0.82346, 375:-0.62929, 376: 0.51458,
                377:-0.75671, 378: 0.96137, 379:-0.27817, 380: 0.32588, 381: 0.04297, 382: 0.47014, 383: 0.96569, 384:-0.07611
   593 |      | 385:-0.53975, 386: 0.33133, 387: 0.88320, 388:-0.58512, 389:-0.39755, 390:-0.05270, 391:-0.71900, 392: 0.15926,
                393:-0.55678, 394:-0.42647, 395: 0.07725, 396: 0.71168, 397: 0.71894, 398:-0.89594, 399:-0.97488, 400:-0.35013,
                401: 0.27296, 402:-0.06758, 403: 0.46618, 404:-0.24486, 405:-0.69888, 406:-0.64757, 407: 0.44641, 408: 0.16485
   594 |      | 409:-0.27398, 410:-0.37156, 411:-0.69479, 412:-0.34908, 413: 0.37241, 414: 0.69627, 415: 0.25960, 416:-0.40316,
                417: 0.67435, 418:-0.32964, 419: 0.33958, 420: 0.82944, 421: 0.37945, 422: 0.68480, 423:-0.74068, 424: 0.37106,
                425: 0.58998, 426:-0.66942, 427:-0.89045, 428:-0.99369, 429:-0.45608, 430:-0.76077, 431: 0.64013, 432:-0.24978
   595 |      | 433: 0.86254, 434: 0.76887, 435:-0.52140, 436: 0.56719, 437: 0.68407, 438: 0.03115, 439: 0.81063, 440:-0.85088,
                441: 0.75731, 442:-0.61383, 443:-0.89140, 444:-0.64075, 445: 0.47849, 446:-0.36828, 447: 0.32967, 448: 0.12786,
                449: 0.93727, 450: 0.10253, 451:-0.39282, 452: 0.63558, 453: 0.70842, 454: 0.50733, 455:-0.62375, 456: 0.43214
   596 |      | 457: 0.08461, 458:-0.04484, 459:-0.43834, 460: 0.08055, 461:-0.16439, 462:-0.54117, 463:-0.48606, 464:-0.50836,
                465: 0.74972, 466: 0.30750, 467:-0.67848, 468:-0.39748, 469:-0.28152, 470: 0.29778, 471: 0.32046, 472:-0.77818,
                473: 0.50317, 474:-0.03468, 475:-0.32771, 476:-0.64191, 477:-0.34098, 478:-0.12745, 479:-0.13723, 480:-0.85321
   597 |      | 481: 0.42891, 482:-0.83031, 483:-0.30160, 484: 0.22168, 485:-0.83429, 486:-0.87850, 487: 0.85791, 488: 0.01493,
                489:-0.84044, 490:-0.18985, 491:-0.23021, 492: 0.75151, 493: 0.98491, 494: 0.60435, 495: 0.60233, 496:-0.43464,
                497: 0.48125, 498:-0.66704, 499:-0.41402, 500:-0.67649, 501: 0.39037, 502: 0.83713, 503:-0.45456, 504: 0.47626
   598 |      | 505:-0.63827, 506: 0.82682, 507: 0.32514, 508:-0.41073, 509:-0.52567, 510: 0.50945, 511: 0.98897, 512: 0.44201,
                513: 0.93727, 514: 0.20816, 515: 0.24530, 516: 0.68012, 517: 0.55695, 518: 0.87165, 519:-0.56499, 520: 0.96782,
                521: 0.80468, 522:-0.38323, 523:-0.64962, 524:-0.66088, 525: 0.72467, 526:-0.25135, 527: 0.30704, 528:-0.00939
   599 |      | 529:-0.75852, 530:-0.02720, 531:-0.56317, 532:-0.09376, 533: 0.72448, 534: 0.75553, 535: 0.24434, 536:-0.50963,
                537:-0.34374, 538:-0.87988, 539: 0.65787, 540: 0.16620, 541:-0.80191, 542:-0.18803, 543:-0.80674, 544: 0.91434,
                545: 0.22321, 546: 0.03252, 547: 0.46721, 548:-0.02196, 549:-0.06778, 550: 0.77787, 551: 0.78052, 552:-0.30995
   600 |      | 553: 0.17391, 554: 0.22630, 555: 0.22276, 556:-0.42145, 557: 0.29530, 558:-0.83818, 559:-0.81846, 560: 0.38584,
                561:-0.06307, 562: 0.90832, 563: 0.67928, 564: 0.83518, 565:-0.37195, 566: 0.51695, 567: 0.70919, 568:-0.70302,
                569:-0.92545, 570: 0.69582, 571:-0.32336, 572:-0.53927, 573: 0.63388, 574:-0.28992, 575:-0.76645, 576: 0.65991
   601 |      |   1: 0.76584,  25: 0.92048,  49: 0.62521,  73: 0.79692,  97:-0.56546, 121: 0.37476, 145:-0.93363, 169: 0.02940,
                193: 0.77620, 217: 0.28500, 241:-0.97888, 265: 0.51556, 289: 0.53090, 313: 0.11296, 337: 0.80613, 361: 0.04949,
                385:-0.03665, 409:-0.42124, 433:-0.21072, 457:-0.39546, 481:-0.59283, 505: 0.70017, 529:-0.19896, 553:-0.15164
   602 |      |   2:-0.05310,  26: 0.63206,  50: 0.67164,  74:-0.08228,  98: 0.93758, 122: 0.13764, 146: 0.92589, 170:-0.69879,
                194: 0.66389, 218:-0.50735, 242: 0.66742, 266: 0.67289, 290: 0.03242, 314:-0.78726, 338: 0.23092, 362: 0.73501,
                386:-0.39924, 410: 0.87222, 434: 0.48319, 458: 0.55375, 482:-0.25322, 506:-0.20648, 530:-0.56944, 554:-0.77660
   603 |      |   3:-0.76199,  27:-0.01428,  51:-0.80300,  75:-0.51369,  99:-0.73200, 123: 0.87432, 147:-0.17557, 171: 0.53179,
                195: 0.04324, 219: 0.32844, 243:-0.60761, 267:-0.65032, 291: 0.02432, 315:-0.95510, 339:-0.20919, 363:-0.82839,
                387:-0.36382, 411: 0.76768, 435: 0.70063, 459: 0.97031, 483: 0.24633, 507: 0.39511, 531:-0.88211, 555: 0.26914
   604 |      |   4:-0.46152,  28: 0.15224,  52:-0.77011,  76:-0.54938, 100: 0.51500, 124: 0.75938, 148: 0.70698, 172: 0.62451,
                196:-0.39165, 220: 0.62810, 244:-0.39122, 268:-0.18565, 292:-0.44379, 316:-0.57305, 340: 0.75251, 364: 0.83023,
                388: 0.32839, 412: 0.45025, 436: 0.06139, 460: 0.75554, 484: 0.75977, 508: 0.16147, 532: 0.52282, 556: 0.96879
   605 |      |   5: 0.82661,  29: 0.86522,  53: 0.32698,  77: 0.79174, 101:-0.67751, 125:-0.05222, 149: 0.62009, 173:-0.42892,
                197:-0.90377, 221: 0.89032, 245: 0.77220, 269: 0.38544, 293:-0.71089, 317:-0.03424, 341: 0.38473, 365: 0.77091,
                389:-0.78843, 413: 0.17132, 437:-0.93367, 461:-0.47829, 485:-0.00056, 509:-0.40848, 533:-0.35953, 557:-0.21910
   606 |      |   6: 0.53745,  30: 0.42695,  54:-0.95142,  78:-0.52277, 102:-0.16322, 126:-0.88518, 150: 0.63095, 174: 0.19120,
                198: 0.36636, 222:-0.37045, 246: 0.24891, 270:-0.29671, 294:-0.75610, 318:-0.70882, 342: 0.17432, 366:-0.77848,
                390: 0.27571, 414:-0.50059, 438:-0.59018, 462:-0.41430, 486:-0.99043, 510:-0.70334, 534:-0.66092, 558:-0.87639
   607 |      |   7: 0.17627,  31:-0.07005,  55:-0.63294,  79: 0.32978, 103:-0.76189, 127: 0.17480, 151:-0.83393, 175: 0.33793,
                199: 0.66021, 223:-0.07961, 247: 0.57822, 271: 0.68926, 295:-0.04148, 319:-0.28783, 343:-0.42002, 367:-0.93445,
                391:-0.25311, 415: 0.61294, 439: 0.60696, 463:-0.65238, 487:-0.12022, 511:-0.77091, 535:-0.51624, 559: 0.30901
   608 |      |   8: 0.18382,  32:-0.90313,  56:-0.75853,  80: 0.97817, 104: 0.03076, 128:-0.31283, 152:-0.81908, 176:-0.63770,
                200: 0.83372, 224: 0.72521, 248: 0.92600, 272:-0.99247, 296: 0.30208, 320:-0.33910, 344: 0.95754, 368: 0.74231,
                392: 0.13485, 416:-0.56956, 440: 0.02117, 464: 0.84100, 488:-0.02024, 512:-0.67673, 536: 0.83454, 560: 0.11632
   609 |      |   9: 0.86865,  33: 0.90728,  57: 0.24536,  81:-0.08254, 105:-0.15174, 129: 0.56139, 153:-0.59373, 177:-0.22221,
                201: 0.77521, 225: 0.13108, 249: 0.53311, 273:-0.11911, 297:-0.56051, 321:-0.81176, 345:-0.02848, 369:-0.40354,
                393: 0.99123, 417:-0.86178, 441: 0.35545, 465:-0.88867, 489:-0.05766, 513: 0.28205, 537:-0.96165, 561:-0.27345
   610 |      |  10:-0.46059,  34:-0.59436,  58:-0.66579,  82: 0.28175, 106:-0.47046, 130: 0.46951, 154:-0.81972, 178: 0.76919,
                202:-0.85285, 226:-0.00488, 250:-0.83403, 274:-0.98422, 298: 0.64230, 322:-0.68418, 346: 0.28846, 370:-0.88061,
                394:-0.51356, 418: 0.34596, 442: 0.88593, 466: 0.78563, 490:-0.08479, 514: 0.06662, 538:-0.63617, 562:-0.88292
   611 |      |  11: 0.01136,  35:-0.50907,  59: 0.12007,  83: 0.66202, 107: 0.67780, 131: 0.33411, 155: 0.95726, 179: 0.60984,
                203:-0.90808, 227:-0.16040, 251: 0.91786, 275: 0.06295, 299: 0.30581, 323: 0.07212, 347: 0.45324, 371: 0.22717,
                395: 0.85869, 419: 0.51866, 443: 0.98424, 467: 0.70674, 491: 0.21324, 515: 0.69538, 539: 0.42627, 563: 0.71816
   612 |      |  12: 0.82798,  36: 0.23793,  60:-0.70449,  84: 0.53592, 108: 0.59004, 132:-0.63697, 156: 0.36377, 180: 0.22645,
                204:-0.01816, 228: 0.63276, 252:-0.39637, 276: 0.51408, 300: 0.33387, 324:-0.70550, 348:-0.35751, 372: 0.27769,
                396:-0.73735, 420:-0.54675, 444:-0.15774, 468: 0.38901, 492: 0.05049, 516: 0.80840, 540:-0.15504, 564:-0.53871
   613 |      |  13:-0.55369,  37: 0.07969,  61:-0.54542,  85:-0.97809, 109: 0.25401, 133: 0.09566, 157:-0.50678, 181:-0.72133,
                205:-0.75869, 229:-0.69742, 253: 0.72687, 277: 0.61882, 301: 0.53213, 325: 0.37402, 349: 0.87097, 373:-0.57988,
                397:-0.31136, 421: 0.07671, 445: 0.35772, 469:-0.22170, 493: 0.38439, 517: 0.96893, 541: 0.06987, 565:-0.70860
   614 |      |  14:-0.42388,  38:-0.73245,  62: 0.36544,  86:-0.19479, 110:-0.91998, 134:-0.50473, 158:-0.95436, 182:-0.97692,
                206: 0.99779, 230:-0.49039, 254:-0.19897, 278:-0.90393, 302: 0.99568, 326: 0.22941, 350:-0.21733, 374: 0.58466,
                398:-0.93574, 422: 0.60293, 446: 0.31915, 470: 0.16578, 494:-0.56753, 518: 0.43000, 542:-0.49085, 566:-0.95788
   615 |      |  15:-0.51712,  39: 0.13912,  63: 0.95201,  87: 0.21187, 111:-0.25638, 135:-0.56643, 159: 0.45049, 183: 0.44767,
                207:-0.18185, 231:-0.30692, 255:-0.70187, 279: 0.48005, 303: 0.29012, 327: 0.26780, 351: 0.33350, 375: 0.46813,
                399: 0.22997, 423:-0.15421, 447:-0.73389, 471: 0.14293, 495:-0.34466, 519:-0.77911, 543:-0.60191, 567:-0.15533
   616 |      |  16: 0.77558,  40: 0.70010,  64:-0.90692,  88: 0.89769, 112: 0.32152, 136:-0.89378, 160:-0.01638, 184:-0.59274,
                208:-0.14489, 232:-0.12325, 256:-0.85316, 280: 0.82993, 304:-0.40537, 328: 0.77143, 352: 0.65494, 376: 0.81290,
                400: 0.47827, 424:-0.71257, 448:-0.61047, 472: 0.78093, 496: 0.44363, 520:-0.10011, 544:-0.75573, 568: 0.89094
   617 |      |  17:-0.00604,  41: 0.84293,  65:-0.32681,  89:-0.64656, 113:-0.26394, 137: 0.89332, 161: 0.95006, 185:-0.96670,
                209: 0.58336, 233:-0.97585, 257:-0.43008, 281:-0.26940, 305: 0.40100, 329: 0.08851, 353:-0.05439, 377: 0.68453,
                401: 0.51868, 425:-0.94376, 449: 0.85159, 473: 0.33556, 497: 0.62625, 521: 0.31854, 545: 0.50977, 569:-0.16790
   618 |      |  18:-0.47954,  42:-0.12473,  66: 0.33831,  90:-0.11070, 114: 0.91947, 138:-0.99347, 162:-0.85987, 186:-0.26761,
                210: 0.20706, 234: 0.35066, 258:-0.45784, 282:-0.25341, 306:-0.83872, 330:-0.83131, 354:-0.10211, 378:-0.64577,
                402:-0.67476, 426: 0.73539, 450:-0.22820, 474: 0.33796, 498:-0.99661, 522:-0.46354, 546:-0.13766, 570:-0.24418
   619 |      |  19:-0.29228,  43:-0.18969,  67:-0.59847,  91:-0.24348, 115:-0.73344, 139:-0.01611, 163:-0.71663, 187:-0.23471,
                211: 0.21849, 235:-0.40414, 259: 0.69084, 283: 0.13701, 307: 0.91802, 331:-0.38428, 355: 0.67487, 379:-0.63023,
                403:-0.24538, 427:-0.34704, 451: 0.42624, 475:-0.11532, 499: 0.54544, 523: 0.78974, 547:-0.31892, 571:-0.41392
   620 |      |  20: 0.93356,  44: 0.34030,  68: 0.23869,  92: 0.84249, 116:-0.93797, 140: 0.73242, 164: 0.03080, 188:-0.29337,
                212: 0.38285, 236:-0.00778, 260: 0.12636, 284: 0.17830, 308:-0.71199, 332: 0.82990, 356:-0.74799, 380: 0.35752,
                404: 0.61992, 428:-0.67100, 452: 0.91786, 476:-0.84398, 500:-0.51735, 524: 0.48430, 548:-0.30198, 572: 0.93327
   621 |      |  21: 0.96120,  45:-0.96472,  69: 0.79810,  93: 0.65321, 117:-0.63788, 141:-0.31212, 165: 0.10070, 189:-0.62205,
                213: 0.29918, 237: 0.57768, 261: 0.62420, 285:-0.83784, 309: 0.31804, 333: 0.27088, 357: 0.24716, 381:-0.07591,
                405: 0.56059, 429:-0.56580, 453: 0.73805, 477: 0.78534, 501: 0.70295, 525:-0.35853, 549: 0.30300, 573: 0.88420
   622 |      |  22: 0.10535,  46:-0.42415,  70: 0.17501,  94: 0.23261, 118:-0.00717, 142:-0.95334, 166: 0.29616, 190:-0.34584,
                214: 0.63834, 238: 0.19421, 262:-0.07965, 286: 0.28654, 310:-0.65335, 334:-0.35986, 358: 0.09102, 382:-0.63411,
                406:-0.29510, 430: 0.88708, 454:-0.18239, 478: 0.27776, 502:-0.01158, 526: 0.14844, 550: 0.78828, 574:-0.61889
   623 |      |  23: 0.52120,  47:-0.68059,  71: 0.69324,  95:-0.33310, 119:-0.51004, 143: 0.67272, 167: 0.72091, 191: 0.92719,
                215:-0.73356, 239: 0.42804, 263:-0.44864, 287:-0.31687, 311:-0.35431, 335:-0.28323, 359:-0.56277, 383:-0.04245,
                407:-0.62793, 431: 0.52950, 455:-0.64342, 479:-0.60117, 503:-0.97672, 527: 0.96283, 551: 0.07997, 575:-0.54836
   624 |      |  24: 0.83545,  48:-0.84687,  72:-0.46445,  96: 0.62814, 120:-0.53073, 144:-0.22865, 168: 0.75738, 192:-0.10683,
                216: 0.20724, 240: 0.98839, 264: 0.91550, 288: 0.13691, 312:-0.75038, 336: 0.12287, 360:-0.32544, 384: 0.23263,
                408: 0.18143, 432:-0.00676, 456:-0.98834, 480:-0.90043, 504:-0.10173, 528: 0.97074, 552:-0.45274, 576:-0.31490
   625 |      | 577: 0.37050, 578:-0.17096, 579:-0.68519, 580: 0.79712, 581: 0.83322, 582:-0.34132, 583: 0.90025, 584: 0.35558,
                585:-0.14579, 586:-0.76918, 587:-0.07092, 588:-0.06364, 589: 0.10872, 590: 0.25191, 591: 0.74050, 592: 0.46487,
                593: 0.66142, 594:-0.14758, 595:-0.99673, 596: 0.45873, 597: 0.33594, 598: 0.49848, 599:-0.14905, 600: 0.78726,
                601:-0.39547, 602:-0.78679, 603: 0.17164, 604:-0.94990, 605: 0.32800, 606:-0.82814, 607:-0.93024, 608:-0.44800,
                609:-0.13348, 610:-0.45996, 611: 0.58603, 612: 0.25073, 613:-0.33023, 614:-0.34375, 615:-0.96100, 616: 0.83602,
                617:-0.03753, 618: 0.15844, 619: 0.59432, 620:-0.35013, 621:-0.06678, 622:-0.76847, 623: 0.22551, 624:-0.41245
   626 |      | 577:-0.91328, 578: 0.54539, 579: 0.75279, 580: 0.01816, 581:-0.67672, 582:-0.90124, 583: 0.52260, 584:-0.29153,
                585:-0.31509, 586:-0.25630, 587:-0.92713, 588: 0.26600, 589: 0.59231, 590: 0.43683, 591: 0.30524, 592:-0.07228,
                593: 0.86490, 594: 0.89505, 595: 0.70267, 596: 0.42192, 597: 0.36111, 598:-0.35581, 599:-0.15712, 600:-0.25538,
                601:-0.54027, 602: 0.39072, 603:-0.74363, 604:-0.86391, 605:-0.06448, 606: 0.56423, 607: 0.88470, 608:-0.98264,
                609: 0.87965, 610: 0.47088, 611: 0.65239, 612:-0.50281, 613:-0.12266, 614:-0.44309, 615: 0.40687, 616: 0.89959,
                617:-0.85121, 618:-0.31126, 619:-0.28151, 620: 0.08199, 621: 0.21988, 622:-0.41388, 623:-0.49995, 624: 0.94779
   627 |      | 577:-0.83467, 578: 0.05290, 579: 0.18205, 580:-0.00916, 581: 0.72391, 582: 0.64500, 583: 0.87746, 584:-0.88326,
                585:-0.11916, 586: 0.96365, 587:-0.76560, 588: 0.21804, 589:-0.17207, 590: 0.36941, 591:-0.87749, 592:-0.10494,
                593: 0.69149, 594: 0.63458, 595: 0.03521, 596: 0.84094, 597: 0.18579, 598:-0.67617, 599:-0.75103, 600:-0.19350,
                601:-0.10785, 602: 0.92991, 603:-0.94389, 604: 0.63712, 605:-0.35534, 606: 0.79737, 607:-0.64217, 608:-0.89200,
                609: 0.96281, 610: 0.45074, 611:-0.88961, 612: 0.39533, 613:-0.84363, 614:-0.38664, 615: 0.88353, 616:-0.77193,
                617:-0.35661, 618: 0.59533, 619:-0.26841, 620:-0.87232, 621: 0.76794, 622: 0.20278, 623:-0.34654, 624: 0.19205
   628 |      | 577: 0.45117, 578: 0.92960, 579:-0.88863, 580: 0.87482, 581:-0.55172, 582:-0.27955, 583:-0.51377, 584: 0.42128,
                585: 0.36063, 586: 0.47986, 587:-0.01401, 588:-0.97168, 589: 0.62383, 590:-0.68599, 591: 0.84375, 592: 0.17128,
                593: 0.95310, 594:-0.42118, 595:-0.99455, 596: 0.75107, 597:-0.57493, 598: 0.27786, 599: 0.77689, 600: 0.14203,
                601: 0.32519, 602: 0.56396, 603:-0.14581, 604: 0.66403, 605:-0.30713, 606:-0.43008, 607:-0.54027, 608: 0.19145,
                609: 0.87669, 610:-0.55029, 611: 0.18517, 612:-0.23457, 613: 0.97745, 614:-0.20225, 615: 0.78179, 616:-0.15644,
                617:-0.92620, 618:-0.72945, 619: 0.22310, 620:-0.07317, 621: 0.57295, 622:-0.65381, 623: 0.04794, 624:-0.43362
   629 |      | 577:-0.34954, 578:-0.60110, 579:-0.41646, 580:-0.92788, 581:-0.57448, 582: 0.89112, 583:-0.75732, 584:-0.90888,
                585:-0.36696, 586:-0.95767, 587:-0.80384, 588: 0.84834, 589:-0.67257, 590:-0.50578, 591: 0.46827, 592: 0.88608,
                593: 0.60950, 594: 0.65758, 595:-0.65264, 596:-0.83292, 597: 0.32256, 598: 0.18393, 599: 0.69294, 600: 0.42114,
                601: 0.17167, 602:-0.75771, 603: 0.31229, 604:-0.13877, 605: 0.96749, 606:-0.13616, 607:-0.71209, 608:-0.50684,
                609:-0.10466, 610:-0.51674, 611:-0.39665, 612:-0.32521, 613: 0.11019, 614:-0.40419, 615: 0.37919, 616:-0.31111,
                617: 0.42399, 618:-0.52697, 619:-0.66034, 620:-0.51322, 621: 0.59241, 622:-0.08215, 623: 0.72985, 624:-0.73792
   630 |      | 577:-0.16079, 578: 0.32855, 579: 0.67215, 580: 0.54353, 581: 0.20376, 582:-0.91517, 583:-0.89858, 584:-0.46079,
                585:-0.13573, 586: 0.47107, 587: 0.83875, 588: 0.24476, 589:-0.47620, 590: 0.21062, 591:-0.87879, 592: 0.54194,
                593: 0.29623, 594:-0.48429, 595:-0.90025, 596: 0.81362, 597:-0.94230, 598: 0.36752, 599:-0.45454, 600: 0.70982,
                601:-0.88837, 602: 0.28391, 603: 0.89776, 604: 0.41814, 605: 0.14051, 606:-0.85396, 607:-0.36777, 608:-0.88571,
                609:-0.51017, 610: 0.27832, 611: 0.19234, 612: 0.37625, 613:-0.51152, 614:-0.52050, 615:-0.60131, 616:-0.28609,
                617: 0.69349, 618:-0.94082, 619: 0.55459, 620:-0.66996, 621: 0.05674, 622:-0.78655, 623:-0.14147, 624:-0.03534
   631 |      | 577:-0.06361, 578: 0.38286, 579: 0.70605, 580: 0.32201, 581:-0.13171, 582: 0.17207, 583:-0.65833, 584:-0.47665,
                585:-0.62562, 586:-0.93949, 587: 0.88164, 588: 0.56319, 589:-0.82510, 590:-0.06437, 591: 0.86709, 592: 0.66938,
                593: 0.04411, 594: 0.42218, 595: 0.87409, 596:-0.07083, 597:-0.40617, 598:-0.39981, 599: 0.97946, 600:-0.15777,
                601:-0.31893, 602:-0.62311, 603: 0.95292, 604: 0.73778, 605:-0.65282, 606:-0.28914, 607:-0.49272, 608:-0.96899,
                609:-0.17985, 610: 0.95666, 611:-0.65241, 612: 0.54132, 613:-0.50214, 614: 0.29700, 615: 0.12495, 616: 0.65594,
                617: 0.07817, 618: 0.41636, 619:-0.81848, 620: 0.02373, 621: 0.30459, 622:-0.68063, 623: 0.47201, 624: 0.70622
   632 |      | 577: 0.30586, 578:-0.08993, 579:-0.23913, 580: 0.46161, 581:-0.40603, 582: 0.10664, 583: 0.52181, 584: 0.99184,
                585:-0.33245, 586: 0.87385, 587:-0.71989, 588:-0.09946, 589:-0.93622, 590:-0.35773, 591: 0.52148, 592:-0.83744,
                593:-0.31752, 594:-0.89952, 595:-0.30321, 596: 0.58772, 597:-0.32201, 598:-0.21859, 599: 0.98956, 600: 0.97295,
                601:-0.80423, 602:-0.80324, 603: 0.48475, 604: 0.19368, 605:-0.53539, 606: 0.51344, 607:-0.71755, 608:-0.28178,
                609: 0.59673, 610: 0.06961, 611:-0.34525, 612: 0.64218, 613: 0.64612, 614: 0.48333, 615:-0.49893, 616:-0.67704,
                617:-0.48831, 618:-0.70162, 619: 0.76895, 620:-0.63525, 621:-0.15136, 622: 0.46614, 623:-0.20136, 624: 0.97533
   633 |      | 577:-0.74765, 578:-0.18861, 579:-0.40755, 580: 0.59437, 581: 0.99723, 582: 0.05373, 583: 0.75936, 584:-0.69981,
                585:-0.49360, 586:-0.03622, 587:-0.79011, 588:-0.65757, 589: 0.51094, 590: 0.63655, 591: 0.29021, 592:-0.27847,
                593:-0.24580, 594: 0.80260, 595:-0.42246, 596: 0.35778, 597: 0.83059, 598:-0.56805, 599: 0.83133, 600: 0.50177,
                601: 0.25235, 602: 0.33779, 603: 0.29648, 604:-0.36178, 605:-0.46934, 606:-0.84421, 607:-0.46504, 608:-0.99442,
                609: 0.85036, 610:-0.34456, 611:-0.85399, 612: 0.01888, 613:-0.44305, 614: 0.31164, 615: 0.29682, 616:-0.26157,
                617: 0.87023, 618: 0.70553, 619: 0.36733, 620: 0.39927, 621:-0.45659, 622: 0.88309, 623:-0.74697, 624: 0.94921
   634 |      | 577:-0.00666, 578:-0.90207, 579:-0.19819, 580:-0.49546, 581: 0.04231, 582: 0.17183, 583: 0.57640, 584:-0.08200,
                585: 0.58682, 586:-0.92071, 587:-0.32797, 588: 0.01003, 589:-0.22135, 590:-0.09505, 591:-0.97517, 592:-0.75369,
                593:-0.05567, 594: 0.76655, 595:-0.53081, 596: 0.56337, 597:-0.58853, 598: 0.66283, 599: 0.61787, 600: 0.17034,
                601:-0.40361, 602:-0.33791, 603:-0.82789, 604: 0.70924, 605:-0.55029, 606: 0.16524, 607:-0.13542, 608:-0.51627,
                609: 0.68190, 610: 0.07583, 611:-0.16092, 612:-0.61572, 613:-0.80404, 614: 0.69335, 615: 0.91382, 616: 0.93106,
                617: 0.74346, 618:-0.41655, 619:-0.18862, 620: 0.20399, 621: 0.86594, 622:-0.26862, 623: 0.73717, 624:-0.64728
   635 |      | 577: 0.20959, 578:-0.46097, 579: 0.74345, 580:-0.19496, 581: 0.23562, 582: 0.69027, 583:-0.18630, 584:-0.17888,
                585:-0.19367, 586: 0.33335, 587: 0.42242, 588:-0.36873, 589:-0.39419, 590:-0.85348, 591: 0.29855, 592:-0.94989,
                593:-0.77165, 594:-0.38544, 595: 0.34568, 596: 0.81979, 597:-0.84183, 598:-0.11994, 599:-0.36131, 600: 0.56513,
                601:-0.27574, 602:-0.57598, 603:-0.62310, 604:-0.63291, 605: 0.31191, 606: 0.79466, 607: 0.60974, 608:-0.92519,
                609: 0.46968, 610: 0.10915, 611:-0.15997, 612: 0.73357, 613:-0.19965, 614:-0.54768, 615:-0.40446, 616: 0.76171,
                617: 0.36078, 618:-0.83465, 619:-0.45547, 620:-0.73886, 621: 0.00486, 622:-0.34909, 623: 0.86211, 624: 0.05990
   636 |      | 577: 0.23301, 578: 0.32113, 579: 0.69820, 580:-0.01519, 581:-0.96811, 582:-0.68154, 583:-0.01574, 584:-0.08125,
                585:-0.80140, 586: 0.93267, 587:-0.66283, 588:-0.06169, 589:-0.63041, 590: 0.66312, 591: 0.74225, 592:-0.56951,
                593:-0.76220, 594: 0.08962, 595:-0.41937, 596: 0.67863, 597: 0.80083, 598: 0.02386, 599:-0.86157, 600:-0.73431,
                601: 0.46466, 602:-0.64729, 603: 0.49973, 604: 0.24787, 605: 0.79835, 606:-0.40532, 607: 0.49867, 608: 0.00261,
                609: 0.61440, 610:-0.05474, 611:-0.86539, 612: 0.01436, 613: 0.17426, 614: 0.35821, 615:-0.50460, 616: 0.44086,
                617: 0.88868, 618:-0.07425, 619:-0.09100, 620: 0.51229, 621:-0.18050, 622: 0.75308, 623: 0.34690, 624:-0.83667
   637 |      | 577: 0.78600, 578:-0.40769, 579: 0.88159, 580:-0.75737, 581: 0.10467, 582: 0.39305, 583: 0.77022, 584: 0.87596,
                585:-0.65647, 586:-0.25980, 587:-0.94672, 588:-0.73364, 589: 0.78445, 590: 0.01678, 591:-0.41817, 592: 0.52897,
                593:-0.21345, 594:-0.51975, 595: 0.80022, 596: 0.47265, 597: 0.39685, 598: 0.28455, 599: 0.67504, 600:-0.01344,
                601:-0.09204, 602: 0.88242, 603: 0.43492, 604: 0.15684, 605:-0.18596, 606:-0.47869, 607:-0.12589, 608: 0.39268,
                609: 0.92985, 610: 0.96458, 611: 0.28628, 612:-0.34084, 613: 0.58832, 614:-0.68569, 615: 0.76023, 616:-0.34438,
                617:-0.12713, 618: 0.63134, 619: 0.12358, 620: 0.98651, 621: 0.16790, 622:-0.84270, 623:-0.10544, 624:-0.18791
   638 |      | 577:-0.46994, 578:-0.57879, 579: 0.61994, 580:-0.57390, 581:-0.89930, 582:-0.73174, 583: 0.32668, 584: 0.11127,
                585: 0.93080, 586: 0.76934, 587:-0.67670, 588: 0.28539, 589:-0.63480, 590:-0.50127, 591: 0.95383, 592: 0.96427,
                593: 0.29776, 594:-0.16441, 595:-0.37422, 596:-0.32329, 597: 0.90550, 598: 0.48458, 599: 0.86509, 600: 0.63163,
                601:-0.78236, 602: 0.06976, 603:-0.55398, 604:-0.27911, 605:-0.62206, 606: 0.11292, 607: 0.75864, 608:-0.44493,
                609: 0.78584, 610: 0.81824, 611:-0.94197, 612: 0.85319, 613: 0.86952, 614: 0.18055, 615:-0.38117, 616:-0.03341,
                617:-0.57530, 618:-0.32297, 619:-0.73113, 620: 0.63317, 621:-0.91161, 622:-0.05308, 623:-0.31767, 624: 0.59626
   639 |      | 577:-0.23840, 578:-0.71434, 579: 0.19143, 580: 0.49428, 581:-0.32021, 582:-0.00620, 583:-0.04250, 584: 0.19656,
                585: 0.10932, 586:-0.70580, 587: 0.66089, 588: 0.06509, 589:-0.81454, 590: 0.69724, 591:-0.42372, 592: 0.58652,
                593: 0.65435, 594:-0.74582, 595:-0.47553, 596: 0.04928, 597:-0.36615, 598: 0.91088, 599:-0.04161, 600: 0.87272,
                601: 0.12744, 602:-0.16442, 603:-0.41736, 604:-0.85394, 605: 0.99454, 606: 0.67165, 607:-0.29586, 608: 0.56770,
                609:-0.16772, 610:-0.22150, 611:-0.79713, 612: 0.08465, 613: 0.09318, 614: 0.01185, 615:-0.01745, 616:-0.70702,
                617: 0.53757, 618: 0.25351, 619:-0.34003, 620:-0.45981, 621:-0.32139, 622:-0.25596, 623: 0.56743, 624: 0.10573
   640 |      | 577:-0.96802, 578:-0.29003, 579:-0.27112, 580: 0.95937, 581: 0.98141, 582:-0.18463, 583: 0.97956, 584:-0.11891,
                585:-0.55412, 586:-0.93816, 587:-0.13387, 588: 0.82424, 589:-0.19035, 590:-0.66914, 591: 0.95845, 592: 0.62175,
                593:-0.77617, 594:-0.87981, 595:-0.04884, 596: 0.40446, 597:-0.14756, 598: 0.61682, 599: 0.75084, 600: 0.97249,
                601: 0.33532, 602:-0.73112, 603:-0.94187, 604:-0.23335, 605: 0.73630, 606:-0.25151, 607:-0.78360, 608: 0.73081,
                609: 0.95704, 610: 0.04891, 611:-0.53179, 612: 0.34343, 613: 0.66182, 614:-0.96305, 615:-0.67877, 616: 0.74612,
                617: 0.59577, 618: 0.85607, 619: 0.56876, 620: 0.21464, 621: 0.42690, 622:-0.23665, 623:-0.30248, 624: 0.80392
   641 |      | 577:-0.75762, 578: 0.47522, 579:-0.45430, 580: 0.32381, 581:-0.63212, 582: 0.94196, 583:-0.62702, 584:-0.63968,
                585:-0.44802, 586: 0.79794, 587: 0.37009, 588: 0.34557, 589:-0.03227, 590:-0.77731, 591: 0.97633, 592: 0.77734,
                593: 0.45610, 594: 0.88052, 595: 0.47162, 596: 0.08829, 597: 0.75580, 598:-0.36251, 599: 0.10822, 600:-0.84741,
                601:-0.02668, 602: 0.17819, 603:-0.62208, 604:-0.37521, 605: 0.69765, 606: 0.07666, 607:-0.53050, 608:-0.86789,
                609: 0.77007, 610:-0.77626, 611:-0.58018, 612: 0.45106, 613:-0.00375, 614:-0.90793, 615: 0.83051, 616:-0.21626,
                617:-0.06693, 618: 0.84565, 619: 0.44240, 620: 0.37063, 621:-0.96508, 622: 0.45905, 623:-0.94458, 624: 0.91830
   642 |      | 577:-0.04287, 578:-0.92850, 579:-0.11669, 580:-0.06373, 581: 0.74144, 582:-0.26595, 583: 0.45748, 584:-0.27940,
                585: 0.32663, 586: 0.44581, 587: 0.28326, 588: 0.49017, 589: 0.23017, 590: 0.46661, 591: 0.34898, 592: 0.27841,
                593: 0.26976, 594: 0.01743, 595:-0.75246, 596:-0.99322, 597: 0.12398, 598:-0.86573, 599:-0.17494, 600: 0.25232,
                601: 0.16931, 602:-0.59468, 603: 0.21006, 604:-0.35953, 605:-0.24359, 606:-0.53729, 607: 0.03254, 608: 0.67772,
                609:-0.86579, 610:-0.64629, 611:-0.73301, 612: 0.90869, 613:-0.95367, 614: 0.84810, 615:-0.76743, 616:-0.50875,
                617:-0.04960, 618: 0.60410, 619:-0.25176, 620:-0.50528, 621:-0.84035, 622:-0.23534, 623: 0.87566, 624: 0.65086
   643 |      | 577:-0.06781, 578:-0.08404, 579: 0.97603, 580: 0.61798, 581: 0.10975, 582:-0.09737, 583: 0.03392, 584: 0.58623,
                585:-0.26748, 586:-0.48546, 587: 0.86048, 588: 0.77569, 589:-0.43262, 590:-0.39570, 591: 0.31085, 592: 0.10185,
                593:-0.64853, 594: 0.09797, 595:-0.76023, 596:-0.29045, 597: 0.48297, 598: 0.29281, 599: 0.26314, 600: 0.37825,
                601: 0.87549, 602: 0.19878, 603: 0.48554, 604:-0.87391, 605: 0.84179, 606:-0.10501, 607: 0.47388, 608:-0.30269,
                609:-0.72549, 610:-0.52081, 611:-0.28449, 612: 0.88946, 613:-0.26931, 614:-0.62722, 615: 0.96488, 616: 0.72236,
                617: 0.68171, 618: 0.01882, 619: 0.24773, 620: 0.20837, 621: 0.13732, 622: 0.60851, 623:-0.81093, 624: 0.35524
   644 |      | 577:-0.15589, 578: 0.93874, 579:-0.60626, 580: 0.10304, 581:-0.93747, 582: 0.80791, 583:-0.08810, 584:-0.44904,
                585:-0.30616, 586:-0.83366, 587:-0.59095, 588:-0.90436, 589: 0.11813, 590: 0.89259, 591: 0.03318, 592:-0.01617,
                593: 0.84077, 594: 0.27086, 595: 0.18358, 596: 0.00457, 597: 0.57375, 598:-0.41544, 599: 0.96395, 600: 0.17519,
                601:-0.44665, 602:-0.49133, 603: 0.84433, 604: 0.38665, 605:-0.77530, 606:-0.16544, 607: 0.48807, 608:-0.93411,
                609: 0.48276, 610:-0.00041, 611:-0.35475, 612:-0.49828, 613: 0.89665, 614:-0.38902, 615: 0.89866, 616:-0.73049,
                617: 0.89886, 618:-0.23487, 619: 0.43309, 620: 0.27768, 621: 0.65068, 622: 0.92735, 623: 0.91206, 624: 0.53916
   645 |      | 577: 0.75706, 578:-0.01269, 579:-0.36856, 580:-0.82574, 581:-0.81464, 582: 0.40124, 583:-0.17113, 584:-0.76432,
                585: 0.76624, 586: 0.50683, 587: 0.54673, 588: 0.60538, 589: 0.66340, 590:-0.77188, 591:-0.40401, 592: 0.33085,
                593:-0.72084, 594:-0.11043, 595: 0.97193, 596: 0.20660, 597:-0.49734, 598: 0.29637, 599: 0.74643, 600: 0.49185,
                601: 0.71512, 602:-0.73866, 603:-0.04914, 604:-0.58649, 605: 0.25132, 606:-0.77440, 607: 0.06821, 608:-0.65298,
                609:-0.97054, 610: 0.45854, 611: 0.43627, 612:-0.17326, 613:-0.07588, 614: 0.76456, 615: 0.12965, 616: 0.84142,
                617: 0.40873, 618:-0.14530, 619: 0.96053, 620:-0.30069, 621: 0.61853, 622:-0.78498, 623: 0.43668, 624:-0.19546
   646 |      | 577:-0.95585, 578: 0.75022, 579: 0.39095, 580: 0.00011, 581: 0.73044, 582: 0.14985, 583: 0.24935, 584:-0.57852,
                585:-0.54369, 586: 0.97080, 587: 0.11834, 588: 0.42887, 589:-0.61795, 590: 0.85489, 591: 0.26198, 592:-0.80920,
                593: 0.97236, 594: 0.57468, 595: 0.12531, 596: 0.14466, 597: 0.35236, 598: 0.76134, 599:-0.64496, 600:-0.47550,
                601: 0.05171, 602: 0.70054, 603: 0.12932, 604:-0.23626, 605: 0.52023, 606:-0.72742, 607: 0.10862, 608: 0.85631,
                609: 0.74829, 610: 0.73419, 611:-0.42934, 612: 0.36025, 613:-0.95686, 614:-0.87406, 615: 0.81196, 616:-0.88593,
                617: 0.30780, 618:-0.00969, 619: 0.79789, 620:-0.38496, 621: 0.32222, 622: 0.24523, 623:-0.35534, 624: 0.93420
   647 |      | 577:-0.48790, 578:-0.13161, 579:-0.08889, 580: 0.95167, 581:-0.92107, 582:-0.29978, 583:-0.07731, 584:-0.69686,
                585: 0.71006, 586: 0.12487, 587: 0.83853, 588: 0.90914, 589:-0.48463, 590:-0.14438, 591:-0.21204, 592:-0.78978,
                593:-0.52656, 594:-0.87094, 595: 0.34363, 596:-0.66501, 597: 0.47233, 598:-0.87041, 599: 0.78611, 600: 0.42812,
                601:-0.01254, 602: 0.89081, 603:-0.28416, 604: 0.77782, 605: 0.95178, 606:-0.25183, 607: 0.72203, 608:-0.18725,
                609:-0.22353, 610: 0.62606, 611:-0.24776, 612: 0.75056, 613:-0.26865, 614: 0.64994, 615: 0.73987, 616:-0.74047,
                617: 0.46789, 618: 0.50933, 619: 0.77386, 620:-0.15451, 621:-0.06768, 622: 0.61452, 623:-0.68573, 624: 0.67144
   648 |      | 577: 0.05657, 578:-0.31079, 579:-0.50158, 580: 0.46014, 581: 0.58640, 582:-0.78124, 583: 0.71439, 584:-0.18302,
                585:-0.11873, 586:-0.99046, 587:-0.22818, 588: 0.75644, 589: 0.09263, 590:-0.19926, 591:-0.46672, 592: 0.48422,
                593: 0.61201, 594:-0.38324, 595: 0.24291, 596: 0.43262, 597: 0.91633, 598: 0.63255, 599: 0.28758, 600:-0.82344,
                601:-0.25814, 602:-0.83103, 603:-0.76223, 604:-0.82664, 605: 0.38928, 606: 0.53584, 607:-0.51183, 608:-0.46461,
                609: 0.09999, 610:-0.69992, 611: 0.24361, 612: 0.80435, 613: 0.80543, 614: 0.09164, 615:-0.32194, 616:-0.21481,
                617: 0.49321, 618:-0.77113, 619:-0.63891, 620: 0.61169, 621: 0.53346, 622: 0.05163, 623:-0.00265, 624:-0.36019
   649 |      | 577:-0.96054, 578: 0.12529, 579: 0.88150, 580: 0.42006, 581: 0.55574, 582: 0.60832, 583: 0.47390, 584:-0.98593,
                585: 0.72904, 586:-0.07195, 587: 0.19658, 588: 0.02692, 589: 0.73947, 590:-0.16997, 591:-0.03660, 592: 0.71657,
                593:-0.85983, 594:-0.38356, 595:-0.71735, 596: 0.13293, 597:-0.82064, 598: 0.14169, 599: 0.24834, 600:-0.56067,
                601: 0.10421, 602: 0.62121, 603: 0.14030, 604: 0.75938, 605: 0.67758, 606: 0.96269, 607: 0.20868, 608: 0.70663,
                609:-0.48159, 610: 0.18610, 611:-0.17045, 612:-0.26045, 613: 0.12733, 614: 0.30239, 615:-0.33190, 616: 0.40128,
                617: 0.66376, 618: 0.92280, 619:-0.40789, 620:-0.44463, 621:-0.37211, 622:-0.00410, 623: 0.25312, 624: 0.83273
   650 |      | 577: 0.00873, 578: 0.00268, 579:-0.19768, 580: 0.63386, 581: 0.30276, 582: 0.23431, 583: 0.72475, 584: 0.36763,
                585:-0.12656, 586:-0.46652, 587:-0.77996, 588: 0.72566, 589:-0.85679, 590: 0.96359, 591: 0.57464, 592: 0.10296,
                593: 0.18679, 594:-0.70243, 595: 0.73979, 596: 0.57854, 597:-0.81746, 598: 0.49620, 599:-0.93143, 600: 0.04698,
                601: 0.36598, 602: 0.80448, 603:-0.54900, 604: 0.88529, 605: 0.34696, 606:-0.35209, 607: 0.40747, 608:-0.97572,
                609: 0.66061, 610: 0.31778, 611: 0.77792, 612:-0.64719, 613: 0.16483, 614:-0.91213, 615: 0.50529, 616: 0.21796,
                617: 0.15391, 618: 0.84740, 619: 0.48345, 620: 0.44573, 621:-0.42445, 622:-0.89555, 623: 0.06640, 624:-0.80718
   651 |      | 577: 0.94058, 578:-0.61911, 579:-0.70981, 580:-0.46665, 581: 0.40598, 582: 0.53143, 583: 0.13712, 584:-0.74566,
                585: 0.25341, 586:-0.16420, 587: 0.07895, 588:-0.14308, 589: 0.73068, 590: 0.80051, 591:-0.67669, 592: 0.65506,
                593:-0.60888, 594: 0.27831, 595: 0.43387, 596: 0.33582, 597: 0.13932, 598: 0.50055, 599: 0.24673, 600: 0.92497,
                601:-0.30173, 602: 0.02294, 603: 0.48496, 604:-0.89703, 605:-0.34843, 606:-0.64197, 607:-0.45202, 608: 0.15223,
                609:-0.43883, 610:-0.29371, 611: 0.91496, 612: 0.71804, 613:-0.63863, 614:-0.02887, 615: 0.65866, 616: 0.89487,
                617:-0.64696, 618: 0.60430, 619:-0.10333, 620: 0.27946, 621:-0.67108, 622: 0.94503, 623:-0.86850, 624:-0.59529
   652 |      | 577: 0.97938, 578: 0.71492, 579: 0.19342, 580:-0.60347, 581: 0.96162, 582:-0.17493, 583:-0.97124, 584: 0.35570,
                585:-0.56601, 586:-0.08173, 587: 0.97632, 588: 0.61235, 589:-0.10021, 590:-0.49041, 591:-0.67243, 592: 0.77130,
                593: 0.01067, 594: 0.08558, 595: 0.65258, 596:-0.82880, 597: 0.60477, 598:-0.95553, 599:-0.89558, 600:-0.57041,
                601:-0.51988, 602:-0.27976, 603: 0.93279, 604:-0.30690, 605: 0.32516, 606:-0.95037, 607:-0.36924, 608: 0.43828,
                609:-0.10288, 610:-0.59980, 611: 0.41780, 612: 0.26047, 613: 0.19344, 614:-0.04844, 615:-0.11705, 616:-0.76534,
                617:-0.91943, 618: 0.11476, 619:-0.42773, 620: 0.92139, 621: 0.42088, 622:-0.56822, 623: 0.57191, 624:-0.19745
   653 |      | 577: 0.70897, 578:-0.85308, 579: 0.34146, 580: 0.11005, 581:-0.36083, 582: 0.15157, 583: 0.53745, 584:-0.99774,
                585: 0.53474, 586:-0.89850, 587:-0.05153, 588:-0.24181, 589:-0.95099, 590:-0.16591, 591:-0.05695, 592:-0.04999,
                593: 0.77244, 594: 0.89143, 595:-0.73581, 596:-0.36807, 597:-0.43900, 598:-0.08135, 599:-0.21426, 600:-0.82869,
                601:-0.56001, 602: 0.22869, 603: 0.15407, 604: 0.23896, 605: 0.32446, 606: 0.45801, 607: 0.46478, 608:-0.74350,
                609: 0.84630, 610: 0.11342, 611:-0.54903, 612: 0.10466, 613:-0.13669, 614:-0.55937, 615:-0.82624, 616:-0.55894,
                617: 0.17393, 618:-0.94451, 619: 0.82041, 620: 0.98136, 621:-0.65533, 622:-0.74139, 623:-0.06469, 624:-0.79880
   654 |      | 577: 0.96609, 578:-0.16482, 579:-0.52428, 580: 0.29415, 581:-0.73945, 582:-0.21603, 583: 0.26529, 584:-0.20570,
                585:-0.80280, 586:-0.98646, 587: 0.87438, 588:-0.29304, 589: 0.65543, 590:-0.74672, 591: 0.07031, 592: 0.17898,
                593:-0.35751, 594: 0.05047, 595:-0.31955, 596: 0.33859, 597:-0.06215, 598:-0.10868, 599: 0.64380, 600:-0.09861,
                601: 0.68619, 602: 0.63307, 603: 0.04343, 604:-0.02045, 605: 0.34677, 606: 0.78491, 607: 0.78026, 608: 0.97523,
                609:-0.90286, 610:-0.91880, 611:-0.12732, 612: 0.72832, 613:-0.35082, 614: 0.01593, 615: 0.20747, 616:-0.01301,
                617: 0.71299, 618:-0.40886, 619: 0.96902, 620:-0.32728, 621: 0.75704, 622:-0.39571, 623: 0.20141, 624:-0.93937
   655 |      | 577: 0.08518, 578:-0.00783, 579:-0.02599, 580:-0.66018, 581:-0.18993, 582:-0.18993, 583:-0.67221, 584: 0.75989,
                585:-0.41840, 586:-0.49907, 587: 0.11959, 588:-0.31279, 589: 0.67361, 590: 0.48474, 591:-0.62441, 592: 0.84487,
                593: 0.59956, 594: 0.66099, 595:-0.93096, 596: 0.60546, 597:-0.63453, 598: 0.49394, 599: 0.94645, 600: 0.18169,
                601: 0.40033, 602:-0.49012, 603: 0.16482, 604:-0.90214, 605:-0.70098, 606: 0.00836, 607: 0.15492, 608:-0.83581,
                609: 0.84081, 610: 0.90105, 611:-0.98714, 612: 0.98404, 613:-0.97312, 614: 0.19679, 615: 0.66392, 616:-0.21174,
                617: 0.27768, 618: 0.41903, 619: 0.05978, 620: 0.45468, 621:-0.30171, 622:-0.93866, 623:-0.37170, 624: 0.24310
   656 |      | 577: 0.66504, 578:-0.69748, 579: 0.83731, 580:-0.70228, 581:-0.93326, 582:-0.23372, 583: 0.48360, 584:-0.81608,
                585: 0.35734, 586: 0.46253, 587: 0.56601, 588: 0.01605, 589: 0.88183, 590:-0.34056, 591:-0.95094, 592: 0.41291,
                593: 0.67289, 594:-0.95923, 595:-0.49827, 596:-0.07610, 597:-0.24713, 598:-0.69021, 599:-0.48385, 600:-0.43140,
                601:-0.82284, 602: 0.94115, 603:-0.65790, 604:-0.37740, 605: 0.16676, 606:-0.90228, 607:-0.46502, 608: 0.30989,
                609:-0.45407, 610:-0.19085, 611:-0.11142, 612: 0.74163, 613: 0.53840, 614:-0.41272, 615: 0.39494, 616: 0.49489,
                617:-0.92190, 618:-0.12127, 619: 0.40589, 620: 0.03223, 621: 0.67033, 622:-0.88461, 623: 0.50252, 624: 0.69981
   657 |      | 577: 0.95461, 578: 0.21274, 579: 0.37524, 580: 0.68368, 581:-0.22039, 582: 0.02642, 583: 0.62969, 584: 0.07935,
                585:-0.82135, 586: 0.98481, 587: 0.27702, 588:-0.99168, 589: 0.30398, 590: 0.27595, 591:-0.24431, 592:-0.79333,
                593:-0.56211, 594:-0.96995, 595: 0.37089, 596: 0.84622, 597: 0.31541, 598: 0.12641, 599:-0.94944, 600:-0.91718,
                601: 0.66831, 602:-0.98649, 603:-0.92804, 604:-0.71436, 605: 0.80331, 606: 0.99107, 607: 0.91886, 608:-0.53629,
                609:-0.10762, 610:-0.73727, 611:-0.14786, 612: 0.94502, 613:-0.03730, 614:-0.53786, 615: 0.33027, 616: 0.76910,
                617: 0.60005, 618: 0.87700, 619:-0.39258, 620: 0.66414, 621: 0.23656, 622: 0.80390, 623:-0.23591, 624:-0.24790
   658 |      | 577: 0.39270, 578:-0.71668, 579:-0.66386, 580:-0.82430, 581: 0.97887, 582:-0.13983, 583: 0.06846, 584: 0.14748,
                585: 0.72403, 586: 0.30492, 587:-0.51212, 588:-0.27529, 589:-0.17608, 590: 0.64620, 591:-0.91336, 592: 0.12403,
                593:-0.49753, 594:-0.57340, 595: 0.66700, 596: 0.72037, 597:-0.63418, 598: 0.87295, 599:-0.55083, 600:-0.70427,
                601:-0.21964, 602: 0.37201, 603:-0.91686, 604:-0.24601, 605:-0.92353, 606:-0.66062, 607:-0.99652, 608: 0.47337,
                609:-0.65687, 610:-0.92128, 611:-0.72362, 612: 0.10206, 613: 0.11621, 614: 0.12603, 615:-0.23475, 616:-0.97593,
                617:-0.40849, 618: 0.49231, 619:-0.14972, 620:-0.83038, 621:-0.70106, 622:-0.62011, 623:-0.44037, 624: 0.90316
   659 |      | 577: 0.67338, 578: 0.50742, 579:-0.18129, 580: 0.63590, 581: 0.70641, 582: 0.90584, 583: 0.17935, 584: 0.62490,
                585: 0.48670, 586:-0.23537, 587: 0.06932, 588:-0.12437, 589:-0.67679, 590: 0.56775, 591:-0.95637, 592:-0.89883,
                593: 0.33508, 594:-0.19926, 595: 0.96307, 596:-0.54452, 597:-0.08209, 598:-0.01160, 599: 0.93866, 600:-0.83922,
                601:-0.71862, 602: 0.90369, 603: 0.87009, 604:-0.28426, 605:-0.37342, 606:-0.44166, 607: 0.27974, 608:-0.04867,
                609: 0.47051, 610: 0.93493, 611:-0.80267, 612:-0.89956, 613:-0.28833, 614: 0.33798, 615: 0.25961, 616: 0.90194,
                617: 0.01900, 618:-0.88234, 619:-0.67840, 620:-0.62062, 621:-0.63217, 622:-0.53850, 623:-0.56158, 624: 0.59967
   660 |      | 577: 0.28157, 578:-0.37634, 579:-0.32590, 580: 0.62107, 581:-0.00547, 582: 0.21679, 583:-0.76843, 584: 0.64856,
                585:-0.53929, 586: 0.73966, 587:-0.74395, 588: 0.51148, 589: 0.50056, 590:-0.12625, 591: 0.69230, 592: 0.69818,
                593:-0.55811, 594: 0.57403, 595:-0.29201, 596:-0.33831, 597:-0.00921, 598:-0.37724, 599:-0.45070, 600:-0.16976,
                601:-0.50003, 602: 0.23329, 603: 0.10063, 604: 0.93293, 605: 0.28960, 606:-0.90162, 607: 0.58653, 608: 0.08033,
                609: 0.13246, 610:-0.15721, 611: 0.33435, 612: 0.15758, 613: 0.14265, 614: 0.83199, 615: 0.61478, 616:-0.50909,
                617: 0.11955, 618:-0.80130, 619:-0.26885, 620: 0.91191, 621:-0.37277, 622:-0.39034, 623:-0.35928, 624:-0.16391
   661 |      | 577: 0.38543, 578: 0.33557, 579: 0.95449, 580:-0.40577, 581:-0.87377, 582:-0.67128, 583: 0.86632, 584: 0.93672,
                585:-0.14635, 586:-0.80665, 587:-0.69419, 588: 0.97859, 589:-0.94114, 590: 0.96885, 591: 0.48072, 592:-0.95941,
                593: 0.00699, 594:-0.87503, 595:-0.01882, 596: 0.86001, 597:-0.42021, 598: 0.88097, 599: 0.36605, 600: 0.94753,
                601:-0.91425, 602:-0.80342, 603:-0.88581, 604: 0.13809, 605:-0.58798, 606: 0.33957, 607:-0.54072, 608: 0.56672,
                609:-0.93650, 610: 0.21397, 611: 0.61968, 612:-0.39395, 613:-0.19696, 614:-0.30463, 615:-0.90318, 616: 0.51887,
                617: 0.38795, 618:-0.87424, 619:-0.35497, 620:-0.93535, 621: 0.25082, 622: 0.39927, 623:-0.09337, 624: 0.62878
   662 |      | 577:-0.77999, 578: 0.84547, 579:-0.08749, 580: 0.46270, 581: 0.10100, 582:-0.61946, 583: 0.34436, 584: 0.15478,
                585: 0.43403, 586:-0.00599, 587:-0.61794, 588: 0.86183, 589: 0.89895, 590: 0.63229, 591:-0.78120, 592:-0.35194,
                593:-0.02985, 594: 0.59842, 595: 0.25968, 596: 0.97726, 597:-0.84036, 598:-0.89739, 599: 0.48119, 600: 0.11275,
                601:-0.27912, 602: 0.04747, 603:-0.46368, 604:-0.73724, 605:-0.89542, 606: 0.91630, 607: 0.54724, 608:-0.89219,
                609:-0.24515, 610: 0.34563, 611: 0.97980, 612:-0.71395, 613:-0.42109, 614: 0.22671, 615: 0.08499, 616:-0.84165,
                617: 0.30037, 618: 0.72020, 619: 0.10231, 620:-0.18608, 621: 0.07063, 622:-0.79813, 623:-0.04781, 624: 0.73521
   663 |      | 577:-0.70317, 578:-0.58337, 579: 0.09034, 580: 0.14108, 581:-0.68813, 582:-0.03991, 583:-0.62295, 584: 0.56415,
                585: 0.63887, 586:-0.76805, 587: 0.56356, 588:-0.04359, 589: 0.27089, 590:-0.00504, 591: 0.26082, 592: 0.41937,
                593:-0.76645, 594: 0.53518, 595:-0.53513, 596: 0.57691, 597:-0.63217, 598:-0.45777, 599: 0.51678, 600: 0.94393,
                601:-0.01798, 602:-0.26401, 603: 0.97529, 604:-0.93504, 605: 0.98807, 606:-0.89081, 607: 0.76167, 608: 0.17926,
                609:-0.58718, 610: 0.22369, 611:-0.76158, 612:-0.68548, 613:-0.11546, 614:-0.56901, 615: 0.68935, 616: 0.77825,
                617:-0.31224, 618: 0.79171, 619: 0.18626, 620: 0.78418, 621: 0.19983, 622:-0.32914, 623:-0.88956, 624:-0.83162
   664 |      | 577: 0.03003, 578: 0.04161, 579: 0.03267, 580:-0.62815, 581: 0.08903, 582: 0.57317, 583:-0.11209, 584:-0.26023,
                585: 0.76863, 586:-0.55568, 587: 0.10985, 588:-0.12623, 589:-0.14384, 590: 0.62511, 591:-0.11069, 592:-0.96359,
                593:-0.42522, 594:-0.57944, 595: 0.44841, 596: 0.24522, 597: 0.82548, 598:-0.10926, 599:-0.83484, 600:-0.25713,
                601:-0.83556, 602:-0.12724, 603: 0.93023, 604: 0.06460, 605:-0.84544, 606:-0.55731, 607: 0.04916, 608:-0.73145,
                609: 0.38306, 610: 0.91483, 611: 0.26865, 612:-0.60650, 613: 0.68047, 614: 0.43444, 615:-0.01901, 616: 0.49892,
                617:-0.85666, 618: 0.21097, 619: 0.75198, 620:-0.20733, 621: 0.90421, 622:-0.35965, 623:-0.60348, 624:-0.97660
   665 |      | 577:-0.50210, 578: 0.73530, 579:-0.73546, 580: 0.32815, 581:-0.58616, 582:-0.28461, 583: 0.79395, 584:-0.33095,
                585: 0.67948, 586:-0.95294, 587:-0.57915, 588: 0.71688, 589:-0.37261, 590: 0.14623, 591:-0.63284, 592:-0.22583,
                593: 0.27889, 594:-0.30622, 595:-0.19516, 596:-0.38464, 597: 0.39825, 598: 0.21520, 599:-0.89232, 600:-0.27548,
                601: 0.61788, 602: 0.90022, 603:-0.38429, 604:-0.84045, 605:-0.16842, 606:-0.45350, 607:-0.35743, 608: 0.62428,
                609: 0.86376, 610:-0.38547, 611:-0.91113, 612: 0.85304, 613: 0.62770, 614:-0.51568, 615:-0.54397, 616: 0.61071,
                617:-0.95605, 618:-0.86309, 619:-0.52090, 620: 0.56001, 621:-0.79676, 622: 0.64331, 623: 0.80091, 624:-0.25698
   666 |      | 577:-0.50281, 578:-0.02575, 579:-0.52233, 580: 0.96591, 581: 0.41083, 582: 0.07796, 583:-0.18357, 584: 0.78248,
                585:-0.38882, 586:-0.06413, 587:-0.69656, 588:-0.43955, 589: 0.79650, 590:-0.50379, 591: 0.26846, 592: 0.82468,
                593:-0.91285, 594:-0.38142, 595:-0.80011, 596: 0.26868, 597:-0.16415, 598:-0.82287, 599:-0.54833, 600: 0.31233,
                601:-0.16665, 602:-0.03621, 603: 0.48736, 604: 0.29897, 605:-0.99752, 606:-0.09763, 607: 0.59230, 608: 0.85011,
                609:-0.66579, 610: 0.19388, 611: 0.25748, 612:-0.55887, 613: 0.76871, 614:-0.57021, 615:-0.26366, 616: 0.97992,
                617: 0.61702, 618: 0.75154, 619:-0.69804, 620:-0.50988, 621: 0.57810, 622:-0.28575, 623: 0.90474, 624:-0.30758
   667 |      | 577: 0.63467, 578: 0.88994, 579:-0.04280, 580: 0.05318, 581: 0.46938, 582:-0.46319, 583: 0.72789, 584:-0.07478,
                585: 0.37078, 586:-0.99686, 587: 0.89028, 588:-0.73956, 589: 0.29375, 590:-0.90430, 591:-0.16536, 592:-0.99548,
                593: 0.75548, 594:-0.34825, 595:-0.88514, 596:-0.71050, 597: 0.05919, 598:-0.55762, 599: 0.98705, 600:-0.40463,
                601:-0.95183, 602: 0.84537, 603:-0.11477, 604: 0.27715, 605: 0.42161, 606:-0.74547, 607: 0.58687, 608: 0.95969,
                609: 0.57385, 610:-0.31840, 611:-0.19951, 612: 0.31673, 613: 0.16364, 614: 0.37381, 615: 0.88039, 616:-0.87737,
