SNNS network definition file V1.4-3D
generated at Fri Oct  7 14:21:10 1994

network name : laser_untrained
source files :
no. of units : 34
no. of connections : 240
no. of unit types : 0
no. of site types : 0


learning function : JE_BP
update function   : JE_Order


unit default section :

act      | bias     | st | subnet | layer | act func     | out func
---------|----------|----|--------|-------|--------------|-------------
 0.00000 |  0.00000 | h  |      0 |     1 | Act_Logistic | Out_Identity 
---------|----------|----|--------|-------|--------------|-------------


unit definition section :

no. | typeName | unitName | act      | bias     | st | position | act func     | out func | sites
----|----------|----------|----------|----------|----|----------|--------------|----------|-------
  1 |          | inp1     |  0.05098 |  0.47413 | i  |  1, 1, 0 | Act_Identity |          | 
  2 |          | hid11    |  0.43251 |  0.79507 | h  |  7, 1, 0 |||
  3 |          | hid12    |  0.09244 | -0.73841 | h  |  7, 2, 0 |||
  4 |          | hid13    |  0.20295 | -0.99518 | h  |  7, 3, 0 |||
  5 |          | hid14    |  0.08199 |  0.58576 | h  |  7, 4, 0 |||
  6 |          | hid15    |  0.66998 |  0.56924 | h  |  7, 5, 0 |||
  7 |          | hid16    |  0.14904 | -0.11444 | h  |  7, 6, 0 |||
  8 |          | hid17    |  0.01383 | -0.25719 | h  |  7, 7, 0 |||
  9 |          | hid18    |  0.67319 | -0.26203 | h  |  7, 8, 0 |||
 10 |          | hid21    |  0.96251 | -0.13279 | h  | 13, 1, 0 |||
 11 |          | hid22    |  0.31735 | -0.34769 | h  | 13, 2, 0 |||
 12 |          | hid23    |  0.94043 | -0.11072 | h  | 13, 3, 0 |||
 13 |          | hid24    |  0.33929 | -0.35753 | h  | 13, 4, 0 |||
 14 |          | hid25    |  0.02975 |  0.89549 | h  | 13, 5, 0 |||
 15 |          | hid26    |  0.04106 |  0.46245 | h  | 13, 6, 0 |||
 16 |          | hid27    |  0.09955 |  0.13895 | h  | 13, 7, 0 |||
 17 |          | hid28    |  0.02967 |  0.50050 | h  | 13, 8, 0 |||
 18 |          | out1     |  0.00000 | -0.78373 | o  | 19, 1, 0 |||
 19 |          | con11    |  0.00000 |  0.50000 | sh  |  4,10, 0 | Act_Identity |          | 
 20 |          | con12    |  0.00000 |  0.50000 | sh  |  4,11, 0 | Act_Identity |          | 
 21 |          | con13    |  0.00000 |  0.50000 | sh  |  4,12, 0 | Act_Identity |          | 
 22 |          | con14    |  0.00000 |  0.50000 | sh  |  4,13, 0 | Act_Identity |          | 
 23 |          | con15    |  0.00000 |  0.50000 | sh  |  4,14, 0 | Act_Identity |          | 
 24 |          | con16    |  0.00000 |  0.50000 | sh  |  4,15, 0 | Act_Identity |          | 
 25 |          | con17    |  0.00000 |  0.50000 | sh  |  4,16, 0 | Act_Identity |          | 
 26 |          | con18    |  0.00000 |  0.50000 | sh  |  4,17, 0 | Act_Identity |          | 
 27 |          | con21    |  0.00000 |  0.50000 | sh  | 10,10, 0 | Act_Identity |          | 
 28 |          | con22    |  0.00000 |  0.50000 | sh  | 10,11, 0 | Act_Identity |          | 
 29 |          | con23    |  0.00000 |  0.50000 | sh  | 10,12, 0 | Act_Identity |          | 
 30 |          | con24    |  0.00000 |  0.50000 | sh  | 10,13, 0 | Act_Identity |          | 
 31 |          | con25    |  0.00000 |  0.50000 | sh  | 10,14, 0 | Act_Identity |          | 
 32 |          | con26    |  0.00000 |  0.50000 | sh  | 10,15, 0 | Act_Identity |          | 
 33 |          | con27    |  0.00000 |  0.50000 | sh  | 10,16, 0 | Act_Identity |          | 
 34 |          | con28    |  0.00000 |  0.50000 | sh  | 10,17, 0 | Act_Identity |          | 
----|----------|----------|----------|----------|----|----------|--------------|----------|-------


connection definition section :

target | site | source:weight
-------|------|---------------------------------------------------------------------------------------------------------------------
     2 |      |  1:-0.83429, 19: 0.16331, 20: 0.38804, 21:-0.51067, 22: 0.19179, 23: 0.46509, 24: 0.84349, 25:-0.61752, 26:-0.73851
     3 |      |  1:-0.14219, 19: 0.20373, 20:-0.07798, 21:-0.99175, 22: 0.22065, 23:-0.47722, 24: 0.94708, 25:-0.26641, 26: 0.51449
     4 |      |  1: 0.53015, 19:-0.31638, 20: 0.88192, 21:-0.24888, 22:-0.76183, 23: 0.55286, 24: 0.45265, 25:-0.88958, 26:-0.16075
     5 |      |  1:-0.05108, 19: 0.69243, 20:-0.24704, 21: 0.57440, 22: 0.83744, 23: 0.87470, 24: 0.11811, 25:-0.84833, 26:-0.19038
     6 |      |  1: 0.75685, 19: 0.40606, 20: 0.25889, 21:-0.17534, 22: 0.40861, 23: 0.81664, 24:-0.20672, 25:-0.37665, 26:-0.87337
     7 |      |  1: 0.26999, 19:-0.65309, 20:-0.36629, 21:-0.84061, 22: 0.06204, 23:-0.59543, 24:-0.47585, 25: 0.07834, 26: 0.55062
     8 |      |  1: 0.62289, 19:-0.76011, 20: 0.56253, 21: 0.89307, 22: 0.56024, 23:-0.85254, 24: 0.61405, 25: 0.10180, 26: 0.02599
     9 |      |  1: 0.44931, 19: 0.37351, 20: 0.40672, 21: 0.31955, 22:-0.86523, 23: 0.11310, 24:-0.89228, 25: 0.84215, 26: 0.64784
    10 |      |  2:-0.81983,  3:-0.51866,  4:-0.17392,  5:-0.45667,  6:-0.37573,  7:-0.38225,  8: 0.16793,  9:-0.24453, 27: 0.47361,
                28:-0.31046, 29: 0.33288, 30:-0.34768, 31:-0.62012, 32: 0.80001, 33:-0.59037, 34: 0.99010
    11 |      |  2: 0.06224,  3:-0.17000,  4:-0.69799,  5:-0.35490,  6: 0.61215,  7:-0.97825,  8: 0.98903,  9:-0.04197, 27:-0.85706,
                28:-0.07205, 29: 0.93312, 30:-0.60985, 31: 0.30038, 32: 0.87917, 33: 0.95315, 34:-0.91899
    12 |      |  2: 0.08834,  3:-0.05814,  4:-0.75442,  5: 0.60685,  6: 0.43827,  7: 0.91685,  8: 0.66175,  9: 0.93602, 27:-0.96246,
                28:-0.71635, 29:-0.75087, 30: 0.36848, 31:-0.88899, 32: 0.35828, 33:-0.82504, 34: 0.71787
    13 |      |  2:-0.63654,  3: 0.77136,  4:-0.16597,  5:-0.63387,  6: 0.64682,  7: 0.82577,  8:-0.58952,  9: 0.37393, 27:-0.55788,
                28: 0.53453, 29: 0.13322, 30: 0.02211, 31: 0.99345, 32:-0.54657, 33: 0.45862, 34:-0.16707
    14 |      |  2:-0.65225,  3: 0.61138,  4: 0.63981,  5:-0.10360,  6: 0.99058,  7: 0.70864,  8:-0.14771,  9: 0.70828, 27: 0.07826,
                28:-0.54032, 29: 0.05350, 30:-0.66236, 31: 0.76640, 32:-0.15238, 33:-0.58935, 34:-0.43333
    15 |      |  2: 0.22540,  3: 0.89739,  4:-0.81259,  5: 0.86949,  6:-0.02502,  7: 0.00780,  8: 0.83394,  9: 0.63185, 27:-0.62167,
                28:-0.50933, 29: 0.41229, 30:-0.09803, 31: 0.69273, 32:-0.74976, 33: 0.55050, 34: 0.68826
    16 |      |  2: 0.63738,  3:-0.24143,  4: 0.75846,  5: 0.09842,  6:-0.81731,  7: 0.39496,  8: 0.30859,  9:-0.75936, 27:-0.22168,
                28:-0.40338, 29:-0.44555, 30:-0.49930, 31:-0.62398, 32:-0.72506, 33: 0.19424, 34: 0.20245
    17 |      |  2: 0.56273,  3: 0.50582,  4:-0.44972,  5:-0.05587,  6: 0.88662,  7: 0.20085,  8:-0.96907,  9:-0.33437, 27:-0.47624,
                28:-0.57333, 29:-0.21041, 30: 0.51195, 31: 0.18911, 32:-0.80617, 33: 0.04864, 34:-0.63764
    18 |      | 10: 0.56550, 11: 0.37252, 12:-0.30617, 13:-0.71520, 14:-0.92900, 15: 0.76390, 16: 0.51790, 17: 0.67506
    19 |      |  2: 0.00000, 19: 0.00000
    20 |      |  3: 0.00000, 20: 0.00000
    21 |      |  4: 0.00000, 21: 0.00000
    22 |      |  5: 0.00000, 22: 0.00000
    23 |      |  6: 0.00000, 23: 0.00000
    24 |      |  7: 0.00000, 24: 0.00000
    25 |      |  8: 0.00000, 25: 0.00000
    26 |      |  9: 0.00000, 26: 0.00000
    27 |      | 10: 0.00000, 27: 0.00000
    28 |      | 11: 0.00000, 28: 0.00000
    29 |      | 12: 0.00000, 29: 0.00000
    30 |      | 13: 0.00000, 30: 0.00000
    31 |      | 14: 0.00000, 31: 0.00000
    32 |      | 15: 0.00000, 32: 0.00000
    33 |      | 16: 0.00000, 33: 0.00000
    34 |      | 17: 0.00000, 34: 0.00000
-------|------|---------------------------------------------------------------------------------------------------------------------
