SNNS network definition file V1.4-3D
generated at Fri Apr 22 18:09:05 1994

network name : letseq_h_elm
source files :
no. of units : 52
no. of connections : 460
no. of unit types : 0
no. of site types : 0


learning function : JE_Rprop
update function   : JE_Order


unit default section :

act      | bias     | st | subnet | layer | act func     | out func
---------|----------|----|--------|-------|--------------|-------------
 0.00000 |  0.00000 | h  |      0 |     1 | Act_Logistic | Out_Identity 
---------|----------|----|--------|-------|--------------|-------------


unit definition section :

no. | typeName | unitName | act      | bias     | st | position | act func     | out func | sites
----|----------|----------|----------|----------|----|----------|--------------|----------|-------
  1 |          | inp1     |  0.00000 |  0.17678 | i  |  1, 1, 0 | Act_Identity |          | 
  2 |          | inp2     |  1.00000 |  0.93974 | i  |  1, 2, 0 | Act_Identity |          | 
  3 |          | inp3     |  0.00000 | -0.88605 | i  |  1, 3, 0 | Act_Identity |          | 
  4 |          | inp4     |  1.00000 | -0.42117 | i  |  1, 4, 0 | Act_Identity |          | 
  5 |          | inp5     |  0.00000 | -0.51795 | i  |  1, 5, 0 | Act_Identity |          | 
  6 |          | inp6     |  1.00000 |  0.36395 | i  |  1, 6, 0 | Act_Identity |          | 
  7 |          | hid11    |  0.63680 | -0.16399 | h  |  7, 1, 0 |||
  8 |          | hid12    |  0.06194 |  0.59815 | h  |  7, 2, 0 |||
  9 |          | hid13    |  0.98991 |  0.92629 | h  |  7, 3, 0 |||
 10 |          | hid14    |  0.90886 |  1.31686 | h  |  7, 4, 0 |||
 11 |          | hid15    |  0.00001 | -0.87912 | h  |  7, 5, 0 |||
 12 |          | hid16    |  0.01316 |  0.40687 | h  |  7, 6, 0 |||
 13 |          | hid17    |  0.00000 |  0.54187 | h  |  7, 7, 0 |||
 14 |          | hid18    |  0.96132 |  0.78076 | h  |  7, 8, 0 |||
 15 |          | hid19    |  0.99896 |  0.48709 | h  |  7, 9, 0 |||
 16 |          | hid110   |  0.93804 | -1.10588 | h  |  7,10, 0 |||
 17 |          | hid21    |  0.00067 |  0.80955 | h  | 13, 1, 0 |||
 18 |          | hid22    |  0.00269 |  0.72476 | h  | 13, 2, 0 |||
 19 |          | hid23    |  0.99784 |  0.74024 | h  | 13, 3, 0 |||
 20 |          | hid24    |  0.02130 | -1.00168 | h  | 13, 4, 0 |||
 21 |          | hid25    |  0.67945 | -1.08592 | h  | 13, 5, 0 |||
 22 |          | hid26    |  0.00007 | -0.54114 | h  | 13, 6, 0 |||
 23 |          | hid27    |  0.02079 | -0.67423 | h  | 13, 7, 0 |||
 24 |          | hid28    |  0.12887 |  0.23256 | h  | 13, 8, 0 |||
 25 |          | hid29    |  0.00425 | -1.22648 | h  | 13, 9, 0 |||
 26 |          | hid210   |  0.00006 | -0.19926 | h  | 13,10, 0 |||
 27 |          | out1     |  0.99526 |  2.10906 | o  | 19, 1, 0 |||
 28 |          | out2     |  0.00327 | -2.40380 | o  | 19, 2, 0 |||
 29 |          | out3     |  0.99569 |  1.79982 | o  | 19, 3, 0 |||
 30 |          | out4     |  0.27979 | -0.92962 | o  | 19, 4, 0 |||
 31 |          | out5     |  0.35668 |  1.22795 | o  | 19, 5, 0 |||
 32 |          | out6     |  0.99998 |  5.59133 | o  | 19, 6, 0 |||
 33 |          | con11    |  0.84949 |  0.50000 | sh  |  4,12, 0 | Act_Identity |          | 
 34 |          | con12    |  0.17068 |  0.50000 | sh  |  4,13, 0 | Act_Identity |          | 
 35 |          | con13    |  1.98334 |  0.50000 | sh  |  4,14, 0 | Act_Identity |          | 
 36 |          | con14    |  1.18312 |  0.50000 | sh  |  4,15, 0 | Act_Identity |          | 
 37 |          | con15    |  0.28448 |  0.50000 | sh  |  4,16, 0 | Act_Identity |          | 
 38 |          | con16    |  0.02849 |  0.50000 | sh  |  4,17, 0 | Act_Identity |          | 
 39 |          | con17    |  0.00367 |  0.50000 | sh  |  4,18, 0 | Act_Identity |          | 
 40 |          | con18    |  1.23326 |  0.50000 | sh  |  4,19, 0 | Act_Identity |          | 
 41 |          | con19    |  1.99809 |  0.50000 | sh  |  4,20, 0 | Act_Identity |          | 
 42 |          | con110   |  1.89790 |  0.50000 | sh  |  4,21, 0 | Act_Identity |          | 
 43 |          | con21    |  0.79385 |  0.50000 | sh  | 10,12, 0 | Act_Identity |          | 
 44 |          | con22    |  0.03589 |  0.50000 | sh  | 10,13, 0 | Act_Identity |          | 
 45 |          | con23    |  1.89814 |  0.50000 | sh  | 10,14, 0 | Act_Identity |          | 
 46 |          | con24    |  0.06426 |  0.50000 | sh  | 10,15, 0 | Act_Identity |          | 
 47 |          | con25    |  1.03236 |  0.50000 | sh  | 10,16, 0 | Act_Identity |          | 
 48 |          | con26    |  0.00497 |  0.50000 | sh  | 10,17, 0 | Act_Identity |          | 
 49 |          | con27    |  0.86092 |  0.50000 | sh  | 10,18, 0 | Act_Identity |          | 
 50 |          | con28    |  0.32144 |  0.50000 | sh  | 10,19, 0 | Act_Identity |          | 
 51 |          | con29    |  0.68747 |  0.50000 | sh  | 10,20, 0 | Act_Identity |          | 
 52 |          | con210   |  0.00360 |  0.50000 | sh  | 10,21, 0 | Act_Identity |          | 
----|----------|----------|----------|----------|----|----------|--------------|----------|-------


connection definition section :

target | site | source:weight
-------|------|---------------------------------------------------------------------------------------------------------------------
     7 |      | 42: 0.18664, 41: 0.84866, 40:-0.96305, 39:-4.13565, 38: 0.94981, 37:-2.50368, 36:-0.10884, 35: 0.30701, 34: 2.98754,
                33:-2.08409,  6: 0.94791,  5: 5.97075,  4:-2.34051,  3:-2.27143,  2: 1.55832,  1:-1.04199
     8 |      | 42:-0.57908, 41: 0.14588, 40: 1.61509, 39: 8.86189, 38:-1.80543, 37: 1.38785, 36:-0.32671, 35:-0.45793, 34:-1.40859,
                33:-3.26003,  6: 0.75340,  5: 5.99766,  4:-2.46241,  3: 0.42046,  2: 0.09627,  1:-1.05770
     9 |      | 42: 0.65717, 41: 0.13663, 40: 0.46836, 39:-0.11643, 38: 0.59447, 37: 0.98791, 36: 0.58285, 35: 0.06901, 34: 0.65848,
                33: 0.89519,  6: 0.41005,  5: 0.61032,  4: 0.15057,  3: 0.05192,  2:-0.11922,  1:-0.31265
    10 |      | 42: 1.04996, 41: 2.82395, 40:-4.78342, 39:-8.78339, 38: 0.52883, 37:-4.64018, 36:-1.52473, 35: 1.66772, 34: 2.42210,
                33:-1.67568,  6: 0.44798,  5: 2.79799,  4:-10.86789,  3:-7.68932,  2: 6.84066,  1:-8.58613
    11 |      | 42:-2.87107, 41:-1.73295, 40: 1.91570, 39:13.03319, 38: 1.04700, 37:-0.99083, 36:-2.01107, 35:-1.24815, 34: 1.18876,
                33:-0.68190,  6:-1.63627,  5:-3.06910,  4: 9.87960,  3: 5.27953,  2:-6.66668,  1: 4.06321
    12 |      | 42: 0.62620, 41:-1.31741, 40:-0.05229, 39: 0.02981, 38: 2.58080, 37: 0.31468, 36:-1.30650, 35:-0.97991, 34: 0.26118,
                33: 0.47456,  6:-1.08395,  5:-1.03567,  4: 0.51345,  3: 0.26313,  2:-0.27639,  1: 0.60153
    13 |      | 42: 0.12778, 41:-0.18019, 40:-0.24496, 39:-0.28696, 38: 0.34063, 37:-0.42168, 36:-0.24698, 35:-1.14463, 34: 0.64223,
                33:-0.03201,  6:-0.08500,  5:-0.10616,  4:-7.23064,  3: 1.66343,  2:-3.50397,  1: 3.11255
    14 |      | 42: 0.29349, 41: 2.18037, 40:-3.79106, 39:-7.00534, 38:-0.22947, 37:-6.93797, 36: 2.02707, 35: 2.31336, 34: 1.67000,
                33:-1.31451,  6: 0.64954,  5: 2.16613,  4:-8.41708,  3:-6.61929,  2: 5.95157,  1:-8.07868
    15 |      | 42: 0.77332, 41: 0.82187, 40: 0.95707, 39:-0.91973, 38:-0.72991, 37: 0.29728, 36: 0.60547, 35: 0.55462, 34: 0.51165,
                33:-0.85735,  6: 0.91882,  5: 0.90533,  4: 0.17859,  3: 0.55350,  2: 0.45669,  1: 0.40133
    16 |      | 42:-1.44057, 41: 0.20193, 40:-0.74037, 39:-2.17631, 38: 0.49875, 37: 0.92510, 36: 0.81163, 35:-0.28422, 34:-1.94774,
                33: 0.11925,  6: 0.33298,  5:-5.27019,  4: 6.46809,  3: 0.80669,  2:-0.10122,  1:-0.54707
    17 |      | 52: 1.65659, 51: 2.84071, 50: 4.46495, 49:-4.05091, 48:-1.72812, 47:-0.68395, 46: 0.56154, 45: 0.59483, 44: 1.05932,
                43: 2.00826, 16:-1.13174, 15:-0.47870, 14:-4.28247, 13: 5.95584, 12:-0.70567, 11: 5.12799, 10:-5.27487,  9: 0.66683,
                 8: 2.50764,  7:-2.08408
    18 |      | 52:-0.62536, 51:-1.23115, 50:-0.81690, 49:-0.07054, 48: 0.51009, 47:-0.41529, 46:-0.39590, 45: 0.09306, 44:-1.32280,
                43: 0.41886, 16:-1.36649, 15:-0.66406, 14:-0.86739, 13: 1.17654, 12: 0.71123, 11: 0.36164, 10:-2.15798,  9:-0.57264,
                 8: 1.09017,  7: 0.15420
    19 |      | 52:-0.13442, 51:-0.61609, 50:-0.55360, 49: 2.15745, 48: 1.43643, 47: 0.08483, 46:-0.66394, 45:-1.50895, 44:-0.23179,
                43:-2.73970, 16: 4.11187, 15: 0.96889, 14: 1.50547, 13:-3.60063, 12: 1.03128, 11:-1.89154, 10: 2.71088,  9: 1.11451,
                 8:-2.89456,  7: 0.38075
    20 |      | 52: 0.20135, 51: 0.20118, 50:-0.98039, 49:-1.04516, 48:-1.07377, 47:-0.45407, 46:-0.77634, 45: 0.35560, 44:-0.22299,
                43:-0.83923, 16: 0.77692, 15: 0.50902, 14:-0.53978, 13: 0.44155, 12: 0.64575, 11:-0.42929, 10: 0.70923,  9:-1.10321,
                 8: 0.60049,  7:-0.66700
    21 |      | 52:-1.38338, 51: 0.86764, 50:-0.79975, 49: 0.28937, 48: 0.09641, 47: 0.98710, 46: 0.15264, 45:-0.40399, 44: 0.28450,
                43: 0.23395, 16: 0.35314, 15:-0.81490, 14: 0.86505, 13:-0.81371, 12: 0.28710, 11:-3.06406, 10:-0.06440,  9:-0.11209,
                 8:-0.29474,  7:-0.40906
    22 |      | 52:-0.07890, 51:-0.09957, 50:-0.36339, 49:-0.62392, 48:-0.44977, 47:-0.22972, 46: 0.34285, 45: 0.15564, 44:-0.49140,
                43: 0.57432, 16:-4.59091, 15:-0.39294, 14:-0.93722, 13: 2.68303, 12:-0.05367, 11: 1.04844, 10:-0.33940,  9: 0.78222,
                 8:-0.65167,  7:-4.55609
    23 |      | 52:-0.61179, 51: 0.56439, 50: 1.11508, 49:-1.96455, 48:-0.38935, 47:-1.35594, 46:-0.13150, 45:-0.48431, 44: 1.02450,
                43: 5.15761, 16: 1.81767, 15: 0.21901, 14:-4.24674, 13: 5.08512, 12:-1.29123, 11: 3.01867, 10:-3.68554,  9: 0.01822,
                 8: 1.81857,  7:-3.40596
    24 |      | 52:-2.47221, 51:-1.77109, 50:-1.51605, 49: 0.29229, 48: 0.05612, 47:-0.45490, 46: 0.69859, 45: 1.28241, 44:-0.24965,
                43:-0.52719, 16:-1.21479, 15:-0.00292, 14: 1.14553, 13: 1.69707, 12: 0.99012, 11: 0.26199, 10: 1.07609,  9: 0.48959,
                 8:-1.10314,  7:-3.15247
    25 |      | 52:-0.81879, 51:-2.97717, 50: 3.50100, 49:-1.34574, 48: 0.32251, 47:-1.39684, 46:-0.02821, 45: 0.72058, 44: 0.53445,
                43: 2.14869, 16: 6.62351, 15:-0.33200, 14:-3.33761, 13:-4.97956, 12:-0.52824, 11: 1.87287, 10:-1.90158,  9:-1.34377,
                 8:-2.09692,  7:-3.79949
    26 |      | 52:-0.54942, 51:-0.34795, 50: 0.18022, 49:-1.37758, 48:-1.44002, 47: 0.55424, 46: 0.76426, 45:-1.35875, 44:-0.00512,
                43: 1.23765, 16:-1.95179, 15:-0.88373, 14:-2.30549, 13: 0.62232, 12:-0.97820, 11: 0.97145, 10:-3.09216,  9:-1.12590,
                 8: 3.32949,  7: 2.86645
    27 |      | 26:-1.29282, 25:-5.16207, 24: 1.05255, 23:-3.40870, 22:-3.24227, 21: 1.25308, 20:-0.31691, 19: 2.50695, 18:-0.03041,
                17:-4.72815
    28 |      | 26: 1.94651, 25: 5.24658, 24:-0.56625, 23: 3.47467, 22: 3.20126, 21:-0.59300, 20:-0.63098, 19:-3.31498, 18:-0.05081,
                17: 6.03938
    29 |      | 26:-0.78094, 25:-5.71625, 24: 0.56731, 23:-3.32423, 22:-2.23860, 21: 1.34355, 20: 0.04075, 19: 2.88725, 18:-1.04102,
                17:-4.70574
    30 |      | 26: 3.15257, 25: 4.22526, 24:-2.83958, 23: 0.58788, 22:-6.09779, 21:-0.09396, 20: 0.09444, 19: 0.30859, 18: 0.31893,
                17: 2.62465
    31 |      | 26: 3.67298, 25:-5.89190, 24: 1.28787, 23:-0.19311, 22: 2.24644, 21: 0.45906, 20: 0.33594, 19:-2.33006, 18: 2.12419,
                17: 0.30136
    32 |      | 26: 5.11817, 25: 3.93516, 24: 4.31045, 23: 3.27860, 22: 2.63203, 21: 2.24192, 20: 2.02423, 19: 4.31822, 18: 2.16743,
                17: 3.75383
    33 |      | 33: 0.50000,  7: 1.00000
    34 |      | 34: 0.50000,  8: 1.00000
    35 |      | 35: 0.50000,  9: 1.00000
    36 |      | 36: 0.50000, 10: 1.00000
    37 |      | 37: 0.50000, 11: 1.00000
    38 |      | 38: 0.50000, 12: 1.00000
    39 |      | 39: 0.50000, 13: 1.00000
    40 |      | 40: 0.50000, 14: 1.00000
    41 |      | 41: 0.50000, 15: 1.00000
    42 |      | 42: 0.50000, 16: 1.00000
    43 |      | 43: 0.50000, 17: 1.00000
    44 |      | 44: 0.50000, 18: 1.00000
    45 |      | 45: 0.50000, 19: 1.00000
    46 |      | 46: 0.50000, 20: 1.00000
    47 |      | 47: 0.50000, 21: 1.00000
    48 |      | 48: 0.50000, 22: 1.00000
    49 |      | 49: 0.50000, 23: 1.00000
    50 |      | 50: 0.50000, 24: 1.00000
    51 |      | 51: 0.50000, 25: 1.00000
    52 |      | 52: 0.50000, 26: 1.00000
-------|------|---------------------------------------------------------------------------------------------------------------------
