SNNS network definition file V1.4-3D
generated at Fri Apr 22 17:55:49 1994

network name : letseq_elman
source files :
no. of units : 52
no. of connections : 680
no. of unit types : 0
no. of site types : 0


learning function : JE_Rprop
update function   : JE_Order


unit default section :

act      | bias     | st | subnet | layer | act func     | out func
---------|----------|----|--------|-------|--------------|-------------
 0.00000 |  0.00000 | h  |      0 |     1 | Act_Logistic | Out_Identity 
---------|----------|----|--------|-------|--------------|-------------


unit definition section :

no. | typeName | unitName    | act      | bias     | st | position | act func     | out func | sites
----|----------|-------------|----------|----------|----|----------|--------------|----------|-------
  1 |          | consonant   |  1.00000 | -0.78903 | i  |  1, 1, 0 | Act_Identity |          | 
  2 |          | vowel       |  0.00000 |  0.21633 | i  |  1, 2, 0 | Act_Identity |          | 
  3 |          | interrupted |  1.00000 |  0.65452 | i  |  1, 3, 0 | Act_Identity |          | 
  4 |          | high        |  0.00000 | -0.15268 | i  |  1, 4, 0 | Act_Identity |          | 
  5 |          | back        |  1.00000 | -0.85350 | i  |  1, 5, 0 | Act_Identity |          | 
  6 |          | voiced      |  1.00000 |  0.37466 | i  |  1, 6, 0 | Act_Identity |          | 
  7 |          | hid1        |  0.57036 | -0.22061 | h  | 10, 1, 0 |||
  8 |          | hid2        |  0.00369 |  0.71878 | h  | 11, 1, 0 |||
  9 |          | hid3        |  0.00062 | -0.30542 | h  | 12, 1, 0 |||
 10 |          | hid4        |  0.00152 |  0.24409 | h  | 13, 1, 0 |||
 11 |          | hid5        |  0.05810 | -0.67992 | h  | 10, 2, 0 |||
 12 |          | hid6        |  0.02593 | -0.09217 | h  | 11, 2, 0 |||
 13 |          | hid7        |  0.02745 |  0.02629 | h  | 12, 2, 0 |||
 14 |          | hid8        |  0.99894 |  2.25421 | h  | 13, 2, 0 |||
 15 |          | hid9        |  0.00392 | -0.37314 | h  | 10, 3, 0 |||
 16 |          | hid10       |  0.98341 | -0.22853 | h  | 11, 3, 0 |||
 17 |          | hid11       |  0.04472 | -0.40992 | h  | 12, 3, 0 |||
 18 |          | hid12       |  0.13218 | -0.31502 | h  | 13, 3, 0 |||
 19 |          | hid13       |  0.99918 | -0.50138 | h  | 10, 4, 0 |||
 20 |          | hid14       |  0.16120 | -0.79863 | h  | 11, 4, 0 |||
 21 |          | hid15       |  0.96272 | -1.05510 | h  | 12, 4, 0 |||
 22 |          | hid16       |  0.93516 | -0.54732 | h  | 13, 4, 0 |||
 23 |          | hid17       |  0.01479 | -1.01404 | h  | 10, 5, 0 |||
 24 |          | hid18       |  0.27040 |  0.11951 | h  | 11, 5, 0 |||
 25 |          | hid19       |  0.12593 | -1.68474 | h  | 12, 5, 0 |||
 26 |          | hid20       |  0.09606 | -0.37530 | h  | 13, 5, 0 |||
 27 |          | consonant   |  0.00002 | -0.04427 | o  | 19, 1, 0 |||
 28 |          | vowel       |  0.99993 |  0.09535 | o  | 19, 2, 0 |||
 29 |          | interrupted |  0.00005 |  0.19750 | o  | 19, 3, 0 |||
 30 |          | high        |  0.99484 |  2.00313 | o  | 19, 4, 0 |||
 31 |          | back        |  0.99785 | -2.39782 | o  | 19, 5, 0 |||
 32 |          | voiced      |  1.00000 |  3.76262 | o  | 19, 6, 0 |||
 33 |          | con1        |  0.57036 |  0.50000 | sh  |  4, 8, 0 | Act_Identity |          | 
 34 |          | con2        |  0.00369 |  0.50000 | sh  |  5, 8, 0 | Act_Identity |          | 
 35 |          | con3        |  0.00062 |  0.50000 | sh  |  6, 8, 0 | Act_Identity |          | 
 36 |          | con4        |  0.00152 |  0.50000 | sh  |  7, 8, 0 | Act_Identity |          | 
 37 |          | con5        |  0.05810 |  0.50000 | sh  |  4, 9, 0 | Act_Identity |          | 
 38 |          | con6        |  0.02593 |  0.50000 | sh  |  5, 9, 0 | Act_Identity |          | 
 39 |          | con7        |  0.02745 |  0.50000 | sh  |  6, 9, 0 | Act_Identity |          | 
 40 |          | con8        |  0.99894 |  0.50000 | sh  |  7, 9, 0 | Act_Identity |          | 
 41 |          | con9        |  0.00392 |  0.50000 | sh  |  4,10, 0 | Act_Identity |          | 
 42 |          | con10       |  0.98341 |  0.50000 | sh  |  5,10, 0 | Act_Identity |          | 
 43 |          | con11       |  0.04472 |  0.50000 | sh  |  6,10, 0 | Act_Identity |          | 
 44 |          | con12       |  0.13218 |  0.50000 | sh  |  7,10, 0 | Act_Identity |          | 
 45 |          | con13       |  0.99918 |  0.50000 | sh  |  4,11, 0 | Act_Identity |          | 
 46 |          | con14       |  0.16120 |  0.50000 | sh  |  5,11, 0 | Act_Identity |          | 
 47 |          | con15       |  0.96272 |  0.50000 | sh  |  6,11, 0 | Act_Identity |          | 
 48 |          | con16       |  0.93516 |  0.50000 | sh  |  7,11, 0 | Act_Identity |          | 
 49 |          | con17       |  0.01479 |  0.50000 | sh  |  4,12, 0 | Act_Identity |          | 
 50 |          | con18       |  0.27040 |  0.50000 | sh  |  5,12, 0 | Act_Identity |          | 
 51 |          | con19       |  0.12593 |  0.50000 | sh  |  6,12, 0 | Act_Identity |          | 
 52 |          | con20       |  0.09606 |  0.50000 | sh  |  7,12, 0 | Act_Identity |          | 
----|----------|-------------|----------|----------|----|----------|--------------|----------|-------


connection definition section :

target | site | source:weight
-------|------|---------------------------------------------------------------------------------------------------------------------
     7 |      | 52: 0.77810, 51:-0.07319, 50:-0.31069, 49:-0.10482, 48:-0.47876, 47:-0.63051, 46: 0.38226, 45:-0.28528, 44:-0.33008,
                43:-0.45136, 42: 0.33386, 41:-0.86157, 40: 0.11276, 39:-0.54276, 38: 0.30979, 37: 0.25311, 36:-0.33656, 35:-0.63733,
                34: 1.34792, 33: 1.77823,  6:-0.05488,  5:-1.59163,  4: 0.38786,  3: 1.30026,  2:-0.98349,  1: 1.71863
     8 |      | 52:-1.59432, 51: 1.55102, 50:-0.79863, 49:-0.17138, 48: 4.07133, 47:-1.05474, 46:-0.09091, 45:-0.87459, 44:-2.43921,
                43:-0.72604, 42:-2.52442, 41: 3.59394, 40: 0.80215, 39:-0.80286, 38: 0.75538, 37: 0.36409, 36:-2.59731, 35: 0.04141,
                34:-0.24971, 33:-3.11774,  6:-0.85997,  5:-3.27364,  4: 3.09945,  3: 0.27505,  2:-0.09023,  1:-0.74545
     9 |      | 52: 0.04139, 51:-0.39733, 50:-0.29667, 49: 0.36215, 48: 0.29707, 47: 0.63383, 46:-0.21865, 45: 0.56324, 44: 0.59769,
                43:-0.19843, 42: 0.19252, 41:-0.76871, 40:-0.58566, 39: 1.48981, 38:-0.87401, 37: 0.57460, 36:-1.17406, 35:-0.85070,
                34: 1.91040, 33: 0.07514,  6:-0.65121,  5:-0.86647,  4:-2.33819,  3:-2.64715,  2: 1.45879,  1:-0.99697
    10 |      | 52:-0.08873, 51: 0.64377, 50:-0.03676, 49: 0.73914, 48: 0.85656, 47:-1.37362, 46: 1.00525, 45: 3.02826, 44:-1.94745,
                43: 0.25603, 42:-2.97890, 41: 2.97381, 40: 1.04452, 39: 2.19246, 38: 1.03148, 37: 1.02293, 36:-3.37892, 35: 1.41847,
                34: 0.85631, 33:-2.60516,  6: 0.52975,  5:-2.35134,  4:-2.38722,  3:-2.93810,  2: 3.69482,  1:-4.39042
    11 |      | 52:-0.82315, 51:-0.30291, 50:-0.20089, 49: 0.61363, 48:-0.28475, 47:-1.08982, 46:-0.64039, 45:-0.40186, 44:-0.84909,
                43: 0.41420, 42: 0.18816, 41: 0.85671, 40: 1.11779, 39: 0.05661, 38:-0.36008, 37:-0.04419, 36:-0.91836, 35:-0.30610,
                34: 0.14184, 33:-0.13526,  6: 0.05003,  5:-0.15627,  4:-1.20605,  3:-0.33090,  2:-0.11758,  1:-1.46133
    12 |      | 52: 0.62773, 51:-0.29821, 50:-0.36490, 49:-0.67452, 48:-0.06384, 47:-0.20578, 46:-0.70630, 45: 0.82999, 44:-0.02825,
                43:-0.07034, 42:-1.64638, 41: 1.74574, 40: 0.14978, 39: 0.68523, 38: 0.29203, 37: 0.26309, 36:-0.86558, 35: 0.62709,
                34: 1.40562, 33:-2.56553,  6: 0.39554,  5:-0.62080,  4:-1.35485,  3:-1.42034,  2: 1.35681,  1:-2.46781
    13 |      | 52:-1.11056, 51: 0.61599, 50: 1.56664, 49:-0.25045, 48: 0.23094, 47:-0.61403, 46: 0.63484, 45: 0.11550, 44: 1.38364,
                43: 0.78976, 42: 0.56381, 41: 0.66322, 40:-0.42629, 39:-0.36779, 38:-0.35512, 37:-0.65521, 36: 0.01312, 35:-0.52145,
                34:-0.64714, 33:-1.18540,  6:-0.38795,  5:-4.09484,  4:-3.39550,  3: 0.99519,  2:-1.72766,  1: 0.65031
    14 |      | 52: 0.10411, 51: 0.83940, 50: 1.13347, 49:-0.65839, 48:-1.13790, 47: 0.43477, 46: 0.21495, 45: 0.42177, 44: 1.83181,
                43: 1.68414, 42:-1.23871, 41: 1.42476, 40: 1.09664, 39:-0.53137, 38: 0.20551, 37: 0.23500, 36: 1.20086, 35: 2.05227,
                34:-2.17158, 33:-2.80628,  6: 0.69608,  5: 3.22266,  4:-5.36565,  3:-1.31059,  2: 2.51719,  1:-2.26200
    15 |      | 52: 0.69801, 51: 0.12235, 50:-0.14350, 49:-0.55224, 48: 1.07249, 47:-1.53869, 46:-0.43344, 45: 0.35707, 44:-2.06655,
                43: 0.90160, 42:-0.71127, 41: 1.27648, 40:-0.44896, 39: 0.73829, 38: 1.19083, 37: 0.24185, 36:-2.20937, 35: 1.52838,
                34: 0.94563, 33:-2.16292,  6: 0.46136,  5:-0.46395,  4:-1.41082,  3:-2.18319,  2: 2.18712,  1:-2.49971
    16 |      | 52: 0.19728, 51:-1.47258, 50:-1.54002, 49:-0.21964, 48:-0.73170, 47: 0.82244, 46:-0.65622, 45:-2.65883, 44: 1.68707,
                43:-1.13823, 42: 1.25539, 41:-2.82126, 40:-0.26097, 39:-2.33347, 38:-1.62225, 37:-1.23811, 36: 2.72351, 35:-1.46925,
                34:-0.33297, 33: 3.19605,  6:-0.99437,  5: 2.27053,  4: 2.84338,  3: 2.75349,  2:-2.68171,  1: 2.48360
    17 |      | 52: 0.47701, 51: 1.18367, 50: 0.21024, 49:-0.14820, 48: 0.69733, 47: 0.52208, 46: 0.51747, 45:-0.09787, 44: 0.31946,
                43:-0.72482, 42:-0.12777, 41:-0.53605, 40: 0.19000, 39: 0.98575, 38: 1.06295, 37:-0.59273, 36:-0.12371, 35:-0.62900,
                34: 0.05555, 33:-0.65553,  6:-0.44304,  5:-1.75831,  4:-0.17163,  3: 0.16159,  2:-0.90155,  1:-0.08604
    18 |      | 52: 0.14584, 51:-1.37979, 50:-0.65549, 49: 0.33454, 48:-0.26147, 47:-0.69354, 46: 0.19182, 45: 0.12447, 44:-1.05711,
                43:-0.19382, 42: 0.00508, 41:-0.12818, 40:-1.04088, 39:-1.09123, 38:-0.96228, 37: 0.30130, 36: 0.32451, 35:-1.28786,
                34:-0.34545, 33: 0.77837,  6:-0.03338,  5:-0.04270,  4: 0.55580,  3: 0.12541,  2:-0.60850,  1: 0.44480
    19 |      | 52:-0.28733, 51: 0.20978, 50: 0.97278, 49:-0.65347, 48:-0.71516, 47: 0.59939, 46: 0.56737, 45:-0.68847, 44: 0.32014,
                43: 0.84517, 42:-0.19445, 41: 1.02616, 40: 0.81562, 39: 1.69672, 38: 0.82899, 37: 0.47715, 36:-0.33161, 35:-1.51349,
                34: 2.20136, 33:-0.23243,  6: 0.71279,  5: 0.49875,  4:-0.51482,  3: 2.87517,  2:-1.46701,  1: 4.32429
    20 |      | 52: 0.11450, 51:-0.62925, 50:-0.86890, 49: 0.83496, 48:-0.72848, 47:-1.20312, 46: 0.33186, 45:-0.13229, 44:-1.03518,
                43:-0.71881, 42:-0.97206, 41:-0.45605, 40:-0.28118, 39: 0.65893, 38:-0.00171, 37:-0.54722, 36: 0.38038, 35: 0.69436,
                34: 1.01688, 33: 0.71685,  6:-1.42728,  5:-0.35988,  4: 0.67866,  3: 0.45139,  2: 0.26952,  1: 0.37767
    21 |      | 52: 0.34122, 51: 0.14096, 50: 0.03911, 49:-0.12968, 48:-0.36985, 47: 0.33177, 46:-1.12952, 45:-3.11502, 44: 2.04477,
                43:-2.17433, 42: 1.69549, 41:-2.25098, 40:-0.75134, 39:-1.64518, 38:-0.91382, 37:-1.52128, 36: 2.01407, 35:-1.45191,
                34:-0.28654, 33: 2.69966,  6: 0.03101,  5: 1.68970,  4: 1.90413,  3: 2.88918,  2:-2.12170,  1: 3.15574
    22 |      | 52:-1.29788, 51:-2.18664, 50:-1.25389, 49:-0.22292, 48:-3.22039, 47: 0.34161, 46:-0.54789, 45:-2.76945, 44: 1.09670,
                43:-2.02587, 42: 2.55207, 41:-4.28658, 40:-0.28862, 39:-2.99863, 38:-1.37171, 37:-1.05554, 36: 2.45939, 35: 0.91565,
                34:-2.29471, 33: 1.20713,  6:-1.69400,  5: 5.83348,  4: 1.63822,  3:-0.13542,  2:-2.18908,  1: 0.39700
    23 |      | 52:-0.00177, 51:-0.62524, 50:-0.61888, 49: 0.02090, 48: 0.50126, 47: 0.61927, 46:-0.94393, 45:-1.22082, 44:-0.44001,
                43: 0.11669, 42:-0.13346, 41: 0.41650, 40:-0.54356, 39:-0.79319, 38:-0.73708, 37: 0.35598, 36: 0.05796, 35: 0.33168,
                34:-0.16732, 33:-0.62549,  6:-0.98983,  5:-0.71025,  4:-0.23016,  3: 0.47874,  2: 0.26709,  1:-0.62069
    24 |      | 52:-0.42232, 51: 0.20559, 50: 0.72993, 49: 0.35319, 48: 0.34556, 47:-1.13396, 46: 0.64491, 45:-0.27713, 44:-0.33266,
                43:-0.98510, 42:-0.84056, 41:-0.46312, 40:-1.23827, 39: 0.72300, 38:-0.19213, 37:-0.62934, 36: 0.91055, 35: 0.51673,
                34:-0.35121, 33: 0.25736,  6: 0.12923,  5:-0.79735,  4: 0.32953,  3: 0.01754,  2:-0.40795,  1: 0.25459
    25 |      | 52:-0.78371, 51:-0.97348, 50:-1.22223, 49: 0.05859, 48:-1.18342, 47: 1.55659, 46:-0.34341, 45:-2.38115, 44: 1.58358,
                43:-0.89256, 42: 2.99102, 41:-3.78450, 40:-0.75811, 39:-2.23269, 38:-1.24091, 37:-0.54378, 36: 1.08500, 35:-2.31940,
                34: 0.17174, 33: 2.86544,  6:-1.27939,  5: 2.17209,  4: 3.99426,  3: 1.93459,  2:-3.01931,  1: 1.22961
    26 |      | 52: 0.03942, 51: 0.14274, 50:-0.64382, 49: 0.44831, 48:-0.28547, 47:-0.50087, 46:-0.32311, 45:-0.54799, 44: 0.11958,
                43:-0.06837, 42:-0.93365, 41: 0.82422, 40: 0.14353, 39:-0.98005, 38:-0.28104, 37:-0.07729, 36:-0.49984, 35:-0.65447,
                34: 0.84464, 33: 0.08475,  6:-0.93422,  5:-3.03784,  4:-6.26112,  3: 1.76501,  2:-0.01236,  1: 1.61785
    27 |      | 26:-1.00828, 25:-3.42023, 24:-0.72854, 23:-0.50924, 22:-3.79309, 21:-2.71393, 20: 0.80376, 19:-0.99485, 18:-0.76821,
                17:-0.84421, 16:-4.07465, 15: 2.59243, 14: 2.03523, 13:-0.56863, 12: 1.09510, 11: 0.85309, 10: 4.02183,  9: 0.69252,
                 8: 2.85098,  7:-1.38766
    28 |      | 26: 2.07633, 25: 3.99122, 24: 0.03898, 23:-0.58228, 22: 3.94630, 21: 3.64050, 20:-0.62928, 19:-0.28051, 18: 0.25712,
                17: 0.14010, 16: 2.90027, 15:-1.94218, 14:-2.08443, 13: 0.09128, 12:-2.52403, 11:-0.47267, 10:-3.97383,  9:-0.18528,
                 8:-2.05725,  7: 2.17230
    29 |      | 26:-1.26986, 25:-4.03361, 24:-0.36941, 23: 0.60062, 22:-3.21041, 21:-3.79418, 20:-0.00144, 19:-0.94764, 18:-0.10225,
                17: 0.70213, 16:-3.36799, 15: 2.56724, 14: 2.07167, 13:-0.23673, 12: 2.58836, 11: 1.20106, 10: 3.27291,  9: 0.67515,
                 8: 2.67186,  7:-1.42519
    30 |      | 26:-2.27509, 25: 2.35018, 24:-0.61817, 23:-0.69616, 22: 3.62801, 21: 0.79331, 20: 0.49157, 19: 0.10383, 18: 0.61858,
                17:-0.93859, 16: 1.54472, 15:-0.21711, 14:-2.39283, 13:-5.84555, 12: 0.32744, 11: 0.26208, 10:-0.83022,  9:-0.32234,
                 8:-1.81235,  7:-0.00498
    31 |      | 26: 3.87088, 25: 0.66419, 24:-0.40278, 23: 0.41921, 22: 3.09173, 21: 0.66695, 20:-0.25301, 19:-1.03171, 18:-0.05659,
                17:-0.78138, 16: 1.15132, 15:-0.60346, 14: 5.32433, 13: 1.67892, 12:-0.13314, 11:-0.25507, 10:-1.71849,  9:-1.48270,
                 8:-3.05290,  7:-1.21654
    32 |      | 26: 2.23389, 25: 3.82105, 24: 3.48052, 23: 2.51401, 22: 2.50486, 21: 3.34012, 20: 3.47571, 19: 4.33840, 18: 3.10123,
                17: 4.23302, 16: 3.60245, 15: 4.02228, 14: 3.14045, 13: 3.53790, 12: 2.56533, 11: 3.47543, 10: 3.95698,  9: 2.91870,
                 8: 2.22724,  7: 3.34759
    33 |      | 33: 0.00000,  7: 1.00000
    34 |      | 34: 0.00000,  8: 1.00000
    35 |      | 35: 0.00000,  9: 1.00000
    36 |      | 36: 0.00000, 10: 1.00000
    37 |      | 37: 0.00000, 11: 1.00000
    38 |      | 38: 0.00000, 12: 1.00000
    39 |      | 39: 0.00000, 13: 1.00000
    40 |      | 40: 0.00000, 14: 1.00000
    41 |      | 41: 0.00000, 15: 1.00000
    42 |      | 42: 0.00000, 16: 1.00000
    43 |      | 43: 0.00000, 17: 1.00000
    44 |      | 44: 0.00000, 18: 1.00000
    45 |      | 45: 0.00000, 19: 1.00000
    46 |      | 46: 0.00000, 20: 1.00000
    47 |      | 47: 0.00000, 21: 1.00000
    48 |      | 48: 0.00000, 22: 1.00000
    49 |      | 49: 0.00000, 23: 1.00000
    50 |      | 50: 0.00000, 24: 1.00000
    51 |      | 51: 0.00000, 25: 1.00000
    52 |      | 52: 0.00000, 26: 1.00000
-------|------|---------------------------------------------------------------------------------------------------------------------
