SNNS network definition file V1.4-3D
generated at Thu Sep 22 15:57:03 1994

network name : letters_untrained
source files :
no. of units : 71
no. of connections : 610
no. of unit types : 0
no. of site types : 0


learning function : Std_Backpropagation
update function   : Topological_Order


unit default section :

act      | bias     | st | subnet | layer | act func     | out func
---------|----------|----|--------|-------|--------------|-------------
 0.00000 |  0.00000 | h  |      0 |     1 | Act_Logistic | Out_Identity 
---------|----------|----|--------|-------|--------------|-------------


unit definition section :

no. | typeName | unitName | act      | bias     | st | position | act func | out func | sites
----|----------|----------|----------|----------|----|----------|----------|----------|-------
  1 |          | u11      |  1.00000 | -0.83581 | i  |  1, 1, 0 |||
  2 |          | u12      |  1.00000 |  0.84081 | i  |  2, 1, 0 |||
  3 |          | u13      |  1.00000 |  0.90105 | i  |  3, 1, 0 |||
  4 |          | u14      |  1.00000 | -0.98714 | i  |  4, 1, 0 |||
  5 |          | u15      |  1.00000 |  0.98404 | i  |  5, 1, 0 |||
  6 |          | u21      |  0.00000 | -0.97312 | i  |  1, 2, 0 |||
  7 |          | u22      |  0.00000 |  0.19679 | i  |  2, 2, 0 |||
  8 |          | u23      |  0.00000 |  0.66392 | i  |  3, 2, 0 |||
  9 |          | u24      |  0.00000 | -0.21174 | i  |  4, 2, 0 |||
 10 |          | u25      |  1.00000 |  0.27768 | i  |  5, 2, 0 |||
 11 |          | u31      |  0.00000 |  0.41903 | i  |  1, 3, 0 |||
 12 |          | u32      |  0.00000 |  0.05978 | i  |  2, 3, 0 |||
 13 |          | u33      |  0.00000 |  0.45468 | i  |  3, 3, 0 |||
 14 |          | u34      |  1.00000 | -0.30171 | i  |  4, 3, 0 |||
 15 |          | u35      |  0.00000 | -0.93866 | i  |  5, 3, 0 |||
 16 |          | u41      |  0.00000 | -0.37170 | i  |  1, 4, 0 |||
 17 |          | u42      |  0.00000 |  0.24310 | i  |  2, 4, 0 |||
 18 |          | u43      |  1.00000 |  0.30981 | i  |  3, 4, 0 |||
 19 |          | u44      |  0.00000 |  0.66504 | i  |  4, 4, 0 |||
 20 |          | u45      |  0.00000 | -0.69748 | i  |  5, 4, 0 |||
 21 |          | u51      |  0.00000 |  0.83731 | i  |  1, 5, 0 |||
 22 |          | u52      |  1.00000 | -0.70228 | i  |  2, 5, 0 |||
 23 |          | u53      |  0.00000 | -0.93326 | i  |  3, 5, 0 |||
 24 |          | u54      |  0.00000 | -0.23372 | i  |  4, 5, 0 |||
 25 |          | u55      |  0.00000 |  0.48360 | i  |  5, 5, 0 |||
 26 |          | u61      |  1.00000 | -0.81608 | i  |  1, 6, 0 |||
 27 |          | u62      |  0.00000 |  0.35734 | i  |  2, 6, 0 |||
 28 |          | u63      |  0.00000 |  0.46253 | i  |  3, 6, 0 |||
 29 |          | u64      |  0.00000 |  0.56601 | i  |  4, 6, 0 |||
 30 |          | u65      |  0.00000 |  0.01605 | i  |  5, 6, 0 |||
 31 |          | u71      |  1.00000 |  0.88183 | i  |  1, 7, 0 |||
 32 |          | u72      |  1.00000 | -0.34056 | i  |  2, 7, 0 |||
 33 |          | u73      |  1.00000 | -0.95094 | i  |  3, 7, 0 |||
 34 |          | u74      |  1.00000 |  0.41291 | i  |  4, 7, 0 |||
 35 |          | u75      |  1.00000 |  0.67289 | i  |  5, 7, 0 |||
 36 |          | h1       |  0.87925 | -0.95923 | h  |  8, 0, 0 |||
 37 |          | h2       |  0.71711 | -0.22039 | h  |  8, 1, 0 |||
 38 |          | h3       |  0.12616 |  0.60005 | h  |  8, 2, 0 |||
 39 |          | h4       |  0.99395 | -0.24601 | h  |  8, 3, 0 |||
 40 |          | h5       |  0.16033 | -0.95637 | h  |  8, 4, 0 |||
 41 |          | h6       |  0.76189 | -0.37634 | h  |  8, 5, 0 |||
 42 |          | h7       |  0.23144 |  0.83199 | h  |  8, 6, 0 |||
 43 |          | h8       |  0.48964 | -0.91425 | h  |  8, 7, 0 |||
 44 |          | h9       |  0.88922 |  0.86183 | h  |  8, 8, 0 |||
 45 |          | h10      |  0.96848 |  0.73521 | h  |  8, 9, 0 |||
 46 |          | A        |  0.08145 | -0.76158 | o  | 11, 1, 0 |||
 47 |          | B        |  0.04925 | -0.32914 | o  | 12, 1, 0 |||
 48 |          | C        |  0.07680 | -0.26023 | o  | 13, 1, 0 |||
 49 |          | D        |  0.12517 |  0.44841 | o  | 14, 1, 0 |||
 50 |          | E        |  0.06778 | -0.55731 | o  | 11, 2, 0 |||
 51 |          | F        |  0.09597 | -0.85666 | o  | 12, 2, 0 |||
 52 |          | G        |  0.06354 | -0.73546 | o  | 13, 2, 0 |||
 53 |          | H        |  0.02603 |  0.14623 | o  | 14, 2, 0 |||
 54 |          | I        |  0.10494 |  0.61788 | o  | 11, 3, 0 |||
 55 |          | J        |  0.08283 |  0.85304 | o  | 12, 3, 0 |||
 56 |          | K        |  0.05764 |  0.80091 | o  | 13, 3, 0 |||
 57 |          | L        |  0.03130 | -0.38882 | o  | 14, 3, 0 |||
 58 |          | M        |  0.06788 |  0.26868 | o  | 11, 4, 0 |||
 59 |          | N        |  0.09803 |  0.59230 | o  | 12, 4, 0 |||
 60 |          | O        |  0.04239 |  0.75154 | o  | 13, 4, 0 |||
 61 |          | P        |  0.05306 |  0.05318 | o  | 14, 4, 0 |||
 62 |          | Q        |  0.05948 | -0.16536 | o  | 11, 5, 0 |||
 63 |          | R        |  0.06589 |  0.84537 | o  | 12, 5, 0 |||
 64 |          | S        |  0.04788 |  0.16364 | o  | 13, 5, 0 |||
 65 |          | T        |  0.05277 | -0.87748 | o  | 14, 5, 0 |||
 66 |          | U        |  0.05591 |  0.24786 | o  | 11, 6, 0 |||
 67 |          | V        |  0.07995 |  0.46807 | o  | 12, 6, 0 |||
 68 |          | W        |  0.07945 |  0.56397 | o  | 13, 6, 0 |||
 69 |          | X        |  0.24932 | -0.05777 | o  | 14, 6, 0 |||
 70 |          | Y        |  0.06743 | -0.58923 | o  | 11, 7, 0 |||
 71 |          | Z        |  0.36512 | -0.55967 | o  | 12, 7, 0 |||
----|----------|----------|----------|----------|----|----------|----------|----------|-------


connection definition section :

target | site | source:weight
-------|------|---------------------------------------------------------------------------------------------------------------------
    36 |      | 35:-0.49827, 30:-0.07610, 25:-0.24713, 20:-0.69021, 15:-0.48385, 10:-0.43140,  5:-0.82284, 34: 0.94115, 29:-0.65790,
                24:-0.37740, 19: 0.16676, 14:-0.90228,  9:-0.46502,  4: 0.30989, 33:-0.45407, 28:-0.19085, 23:-0.11142, 18: 0.74163,
                13: 0.53840,  8:-0.41272,  3: 0.39494, 32: 0.49489, 27:-0.92190, 22:-0.12127, 17: 0.40589, 12: 0.03223,  7: 0.67033,
                 2:-0.88461, 31: 0.50252, 26: 0.69981, 21:-0.26900, 16: 0.95461, 11: 0.21274,  6: 0.37524,  1: 0.68368
    37 |      | 35: 0.02642, 30: 0.62969, 25: 0.07935, 20:-0.82135, 15: 0.98481, 10: 0.27702,  5:-0.99168, 34: 0.30398, 29: 0.27595,
                24:-0.24431, 19:-0.79333, 14:-0.56211,  9:-0.96995,  4: 0.37089, 33: 0.84622, 28: 0.31541, 23: 0.12641, 18:-0.94944,
                13:-0.91718,  8: 0.66831,  3:-0.98649, 32:-0.92804, 27:-0.71436, 22: 0.80331, 17: 0.99107, 12: 0.91886,  7:-0.53629,
                 2:-0.10762, 31:-0.73727, 26:-0.14786, 21: 0.94502, 16:-0.03730, 11:-0.53786,  6: 0.33027,  1: 0.76910
    38 |      | 35: 0.87700, 30:-0.39258, 25: 0.66414, 20: 0.23656, 15: 0.80390, 10:-0.23591,  5:-0.24790, 34: 0.04161, 29: 0.39270,
                24:-0.71668, 19:-0.66386, 14:-0.82430,  9: 0.97887,  4:-0.13983, 33: 0.06846, 28: 0.14748, 23: 0.72403, 18: 0.30492,
                13:-0.51212,  8:-0.27529,  3:-0.17608, 32: 0.64620, 27:-0.91336, 22: 0.12403, 17:-0.49753, 12:-0.57340,  7: 0.66700,
                 2: 0.72037, 31:-0.63418, 26: 0.87295, 21:-0.55083, 16:-0.70427, 11:-0.21964,  6: 0.37201,  1:-0.91686
    39 |      | 35:-0.92353, 30:-0.66062, 25:-0.99652, 20: 0.47337, 15:-0.65687, 10:-0.92128,  5:-0.72362, 34: 0.10206, 29: 0.11621,
                24: 0.12603, 19:-0.23475, 14:-0.97593,  9:-0.40849,  4: 0.49231, 33:-0.14972, 28:-0.83038, 23:-0.70106, 18:-0.62011,
                13:-0.44037,  8: 0.90316,  3:-0.89060, 32: 0.67338, 27: 0.50742, 22:-0.18129, 17: 0.63590, 12: 0.70641,  7: 0.90584,
                 2: 0.17935, 31: 0.62490, 26: 0.48670, 21:-0.23537, 16: 0.06932, 11:-0.12437,  6:-0.67679,  1: 0.56775
    40 |      | 35:-0.89883, 30: 0.33508, 25:-0.19926, 20: 0.96307, 15:-0.54452, 10:-0.08209,  5:-0.01160, 34: 0.93866, 29:-0.83922,
                24:-0.71862, 19: 0.90369, 14: 0.87009,  9:-0.28426,  4:-0.37342, 33:-0.44166, 28: 0.27974, 23:-0.04867, 18: 0.47051,
                13: 0.93493,  8:-0.80267,  3:-0.89956, 32:-0.28833, 27: 0.33798, 22: 0.25961, 17: 0.90194, 12: 0.01900,  7:-0.88234,
                 2:-0.67840, 31:-0.62062, 26:-0.63217, 21:-0.53850, 16:-0.56158, 11: 0.59967,  6: 0.48330,  1: 0.28157
    41 |      | 35:-0.32590, 30: 0.62107, 25:-0.00547, 20: 0.21679, 15:-0.76843, 10: 0.64856,  5:-0.53929, 34: 0.73966, 29:-0.74395,
                24: 0.51148, 19: 0.50056, 14:-0.12625,  9: 0.69230,  4: 0.69818, 33:-0.55811, 28: 0.57403, 23:-0.29201, 18:-0.33831,
                13:-0.00921,  8:-0.37724,  3:-0.45070, 32:-0.16976, 27:-0.50003, 22: 0.23329, 17: 0.10063, 12: 0.93293,  7: 0.28960,
                 2:-0.90162, 31: 0.58653, 26: 0.08033, 21: 0.13246, 16:-0.15721, 11: 0.33435,  6: 0.15758,  1: 0.14265
    42 |      | 35: 0.61478, 30:-0.50909, 25: 0.11955, 20:-0.80130, 15:-0.26885, 10: 0.91191,  5:-0.37277, 34:-0.39034, 29:-0.35928,
                24:-0.16391, 19: 0.68684, 14: 0.38543,  9: 0.33557,  4: 0.95449, 33:-0.40577, 28:-0.87377, 23:-0.67128, 18: 0.86632,
                13: 0.93672,  8:-0.14635,  3:-0.80665, 32:-0.69419, 27: 0.97859, 22:-0.94114, 17: 0.96885, 12: 0.48072,  7:-0.95941,
                 2: 0.00699, 31:-0.87503, 26:-0.01882, 21: 0.86001, 16:-0.42021, 11: 0.88097,  6: 0.36605,  1: 0.94753
    43 |      | 35:-0.80342, 30:-0.88581, 25: 0.13809, 20:-0.58798, 15: 0.33957, 10:-0.54072,  5: 0.56672, 34:-0.93650, 29: 0.21397,
                24: 0.61968, 19:-0.39395, 14:-0.19696,  9:-0.30463,  4:-0.90318, 33: 0.51887, 28: 0.38795, 23:-0.87424, 18:-0.35497,
                13:-0.93535,  8: 0.25082,  3: 0.39927, 32:-0.09337, 27: 0.62878, 22:-0.30007, 17:-0.77999, 12: 0.84547,  7:-0.08749,
                 2: 0.46270, 31: 0.10100, 26:-0.61946, 21: 0.34436, 16: 0.15478, 11: 0.43403,  6:-0.00599,  1:-0.61794
    44 |      | 35: 0.89895, 30: 0.63229, 25:-0.78120, 20:-0.35194, 15:-0.02985, 10: 0.59842,  5: 0.25968, 34: 0.97726, 29:-0.84036,
                24:-0.89739, 19: 0.48119, 14: 0.11275,  9:-0.27912,  4: 0.04747, 33:-0.46368, 28:-0.73724, 23:-0.89542, 18: 0.91630,
                13: 0.54724,  8:-0.89219,  3:-0.24515, 32: 0.34563, 27: 0.97980, 22:-0.71395, 17:-0.42109, 12: 0.22671,  7: 0.08499,
                 2:-0.84165, 31: 0.30037, 26: 0.72020, 21: 0.10231, 16:-0.18608, 11: 0.07063,  6:-0.79813,  1:-0.04781
    45 |      | 35: 0.28682, 30:-0.70317, 25:-0.58337, 20: 0.09034, 15: 0.14108, 10:-0.68813,  5:-0.03991, 34:-0.62295, 29: 0.56415,
                24: 0.63887, 19:-0.76805, 14: 0.56356,  9:-0.04359,  4: 0.27089, 33:-0.00504, 28: 0.26082, 23: 0.41937, 18:-0.76645,
                13: 0.53518,  8:-0.53513,  3: 0.57691, 32:-0.63217, 27:-0.45777, 22: 0.51678, 17: 0.94393, 12:-0.01798,  7:-0.26401,
                 2: 0.97529, 31:-0.93504, 26: 0.98807, 21:-0.89081, 16: 0.76167, 11: 0.17926,  6:-0.58718,  1: 0.22369
    46 |      | 36:-0.68548, 37:-0.11546, 38:-0.56901, 39: 0.68935, 40: 0.77825, 41:-0.31224, 42: 0.79171, 43: 0.18626, 44: 0.78418,
                45: 0.19983
    47 |      | 36:-0.88956, 37:-0.83162, 38:-0.49361, 39: 0.03003, 40: 0.04161, 41: 0.03267, 42:-0.62815, 43: 0.08903, 44: 0.57317,
                45:-0.11209
    48 |      | 36: 0.76863, 37:-0.55568, 38: 0.10985, 39:-0.12623, 40:-0.14384, 41: 0.62511, 42:-0.11069, 43:-0.96359, 44:-0.42522,
                45:-0.57944
    49 |      | 36: 0.24522, 37: 0.82548, 38:-0.10926, 39:-0.83484, 40:-0.25713, 41:-0.83556, 42:-0.12724, 43: 0.93023, 44: 0.06460,
                45:-0.84544
    50 |      | 36: 0.04916, 37:-0.73145, 38: 0.38306, 39: 0.91483, 40: 0.26865, 41:-0.60650, 42: 0.68047, 43: 0.43444, 44:-0.01901,
                45: 0.49892
    51 |      | 36: 0.21097, 37: 0.75198, 38:-0.20733, 39: 0.90421, 40:-0.35965, 41:-0.60348, 42:-0.97660, 43: 0.37748, 44:-0.50210,
                45: 0.73530
    52 |      | 36: 0.32815, 37:-0.58616, 38:-0.28461, 39: 0.79395, 40:-0.33095, 41: 0.67948, 42:-0.95294, 43:-0.57915, 44: 0.71688,
                45:-0.37261
    53 |      | 36:-0.63284, 37:-0.22583, 38: 0.27889, 39:-0.30622, 40:-0.19516, 41:-0.38464, 42: 0.39825, 43: 0.21520, 44:-0.89232,
                45:-0.27548
    54 |      | 36: 0.90022, 37:-0.38429, 38:-0.84045, 39:-0.16842, 40:-0.45350, 41:-0.35743, 42: 0.62428, 43: 0.86376, 44:-0.38547,
                45:-0.91113
    55 |      | 36: 0.62770, 37:-0.51568, 38:-0.54397, 39: 0.61071, 40:-0.95605, 41:-0.86309, 42:-0.52090, 43: 0.56001, 44:-0.79676,
                45: 0.64331
    56 |      | 36:-0.25698, 37:-0.72553, 38:-0.50281, 39:-0.02575, 40:-0.52233, 41: 0.96591, 42: 0.41083, 43: 0.07796, 44:-0.18357,
                45: 0.78248
    57 |      | 36:-0.06413, 37:-0.69656, 38:-0.43955, 39: 0.79650, 40:-0.50379, 41: 0.26846, 42: 0.82468, 43:-0.91285, 44:-0.38142,
                45:-0.80011
    58 |      | 36:-0.16415, 37:-0.82287, 38:-0.54833, 39: 0.31233, 40:-0.16665, 41:-0.03621, 42: 0.48736, 43: 0.29897, 44:-0.99752,
                45:-0.09763
    59 |      | 36: 0.85011, 37:-0.66579, 38: 0.19388, 39: 0.25748, 40:-0.55887, 41: 0.76871, 42:-0.57021, 43:-0.26366, 44: 0.97992,
                45: 0.61702
    60 |      | 36:-0.69804, 37:-0.50988, 38: 0.57810, 39:-0.28575, 40: 0.90474, 41:-0.30758, 42: 0.52294, 43: 0.63467, 44: 0.88994,
                45:-0.04280
    61 |      | 36: 0.46938, 37:-0.46319, 38: 0.72789, 39:-0.07478, 40: 0.37078, 41:-0.99686, 42: 0.89028, 43:-0.73956, 44: 0.29375,
                45:-0.90430
    62 |      | 36:-0.99548, 37: 0.75548, 38:-0.34825, 39:-0.88514, 40:-0.71050, 41: 0.05919, 42:-0.55762, 43: 0.98705, 44:-0.40463,
                45:-0.95183
    63 |      | 36:-0.11477, 37: 0.27715, 38: 0.42161, 39:-0.74547, 40: 0.58687, 41: 0.95969, 42: 0.57385, 43:-0.31840, 44:-0.19951,
                45: 0.31673
    64 |      | 36: 0.37381, 37: 0.88039, 38:-0.87737, 39: 0.62330, 40: 0.84156, 41: 0.89288, 42:-0.55791, 43: 0.61608, 44:-0.48953,
                45:-0.77943
    65 |      | 36:-0.82528, 37:-0.45527, 38: 0.03590, 39: 0.06031, 40:-0.37053, 41: 0.21614, 42: 0.38726, 43: 0.18150, 44:-0.72152,
                45:-0.28282
    66 |      | 36: 0.83089, 37: 0.47921, 38:-0.54408, 39: 0.94989, 40:-0.10534, 41: 0.95209, 42: 0.76559, 43:-0.91876, 44:-0.95066,
                45: 0.68747
    67 |      | 36:-0.38356, 37:-0.93479, 38: 0.12633, 39:-0.07424, 40: 0.09132, 41:-0.90880, 42:-0.96814, 43: 0.89483, 44:-0.34154,
                45:-0.22017
    68 |      | 36:-0.33200, 37: 0.36758, 38:-0.59160, 39:-0.01406, 40: 0.39988, 41: 0.83632, 42:-0.27735, 43:-0.25895, 44:-0.90705,
                45: 0.28939
    69 |      | 36:-0.50174, 37:-0.84166, 38: 0.77013, 39:-0.43185, 40:-0.56346, 41: 0.63995, 42:-0.96781, 43:-0.37144, 44: 0.36661,
                45:-0.28769
    70 |      | 36:-0.42745, 37: 0.21943, 38: 0.75644, 39: 0.90384, 40:-0.08169, 41:-0.49892, 42:-0.27009, 43:-0.83792, 44: 0.20004,
                45: 0.15340
    71 |      | 36:-0.66968, 37: 0.92216, 38:-0.90589, 39: 0.18845, 40:-0.71091, 41:-0.22546, 42:-0.14265, 43: 0.76873, 44:-0.76174,
                45:-0.08879
-------|------|---------------------------------------------------------------------------------------------------------------------
