SNNS network definition file V1.4-3D
generated at Sun Jun  6 17:36:52 2021

network name : pyencoder
source files :
no. of units : 19
no. of connections : 48
no. of unit types : 0
no. of site types : 0


learning function : Std_Backpropagation
update function   : Topological_Order


unit default section :

act      | bias     | st | subnet | layer | act func     | out func
---------|----------|----|--------|-------|--------------|-------------
 1.00000 |  0.00000 | i  |      0 |     1 | Act_Logistic | Out_Identity 
---------|----------|----|--------|-------|--------------|-------------


unit definition section :

no. | typeName | unitName | act      | bias     | st | position | act func | out func | sites
----|----------|----------|----------|----------|----|----------|----------|----------|-------
  1 |          | Input_1  |  0.00000 | -0.63771 | i  | 1,0,0    |||
  2 |          | Input_2  |  0.00000 | -0.72931 | i  | 2,0,0    |||
  3 |          | Input_3  |  0.00000 |  0.76953 | i  | 3,0,0    |||
  4 |          | Input_4  |  0.00000 |  0.19477 | i  | 4,0,0    |||
  5 |          | Input_5  |  0.00000 |  0.00062 | i  | 5,0,0    |||
  6 |          | Input_6  |  0.00000 | -0.41047 | i  | 6,0,0    |||
  7 |          | Input_7  |  1.00000 |  0.66879 | i  | 7,0,0    |||
  8 |          | Input_8  |  0.00000 |  0.09051 | i  | 8,0,0    |||
  9 |          | Hidden_1 |  0.96666 | -0.02828 | h  | 4,2,0    |||
 10 |          | Hidden_2 |  0.02376 | -0.27542 | h  | 5,2,0    |||
 11 |          | Hidden_3 |  0.00877 | -0.56505 | h  | 6,2,0    |||
 12 |          | Output_1 |  0.00000 | -11.96288 | o  | 1,4,0    |||
 13 |          | Output_2 |  0.00742 |  4.50970 | o  | 2,4,0    |||
 14 |          | Output_3 |  0.00003 | -16.03111 | o  | 3,4,0    |||
 15 |          | Output_4 |  0.01364 | -8.30824 | o  | 4,4,0    |||
 16 |          | Output_5 |  0.01328 | -9.16504 | o  | 5,4,0    |||
 17 |          | Output_6 |  0.00000 | -8.04714 | o  | 6,4,0    |||
 18 |          | Output_7 |  0.98451 | -2.16259 | o  | 7,4,0    |||
 19 |          | Output_8 |  0.00026 |  1.87253 | o  | 8,4,0    |||
----|----------|----------|----------|----------|----|----------|----------|----------|-------


connection definition section :

target | site | source:weight
-------|------|---------------------------------------------------------------------------------------------------------------------
     9 |      |  8:-3.89833,  7: 3.39533,  6:-5.40192,  5: 3.80382,  4: 1.40033,  3: 5.18910,  2:-3.40984,  1:-2.23979
    10 |      |  8:-5.37618,  7:-3.44037,  6: 5.11840,  5:-4.90656,  4: 4.50896,  3: 5.23962,  2:-0.35490,  1: 0.46195
    11 |      |  8: 0.62635,  7:-4.16309,  6: 0.37819,  5: 3.12665,  4:-4.68657,  3: 3.55233,  2:-5.10208,  1: 6.65499
    12 |      | 11:16.08188, 10: 0.51416,  9:-8.25511
    13 |      | 11:-16.11392, 10:-1.55511,  9:-9.54618
    14 |      | 11: 6.94282, 10: 7.68985,  9: 5.54225
    15 |      | 11:-11.39574, 10: 9.27527,  9: 4.04164
    16 |      | 11: 8.89633, 10:-9.59107,  9: 5.17912
    17 |      | 11:-1.82540, 10:12.74720,  9:-11.85546
    18 |      | 11:-9.82173, 10:-7.95800,  9: 6.81733
    19 |      | 11: 3.78211, 10:-16.06641,  9:-10.10508
-------|------|---------------------------------------------------------------------------------------------------------------------
