SNNS network definition file V1.4-3D
generated at Mon Apr 25 17:45:37 1994

network name : som_cube
source files :
no. of units : 259
no. of connections : 768
no. of unit types : 0
no. of site types : 0


learning function : Kohonen
update function   : Kohonen_Order


unit default section :

act      | bias     | st | subnet | layer | act func     | out func
---------|----------|----|--------|-------|--------------|-------------
 0.00000 |  0.00000 | h  |      0 |     1 | Act_Logistic | Out_Identity 
---------|----------|----|--------|-------|--------------|-------------


unit definition section :

no. | typeName | unitName | act      | bias     | st | position | act func   | out func | sites
----|----------|----------|----------|----------|----|----------|------------|----------|-------
  1 |          |          |  0.57700 |  0.00000 | i  |  1, 7, 0 |||
  2 |          |          | -0.57700 |  0.00000 | i  |  1, 8, 0 |||
  3 |          |          | -0.57700 |  0.00000 | i  |  1, 9, 0 |||
  4 |          |          |  1.18921 | 388.00000 | h  |  5, 1, 0 | Act_Euclid |          | 
  5 |          |          |  1.22302 |  0.00000 | h  |  6, 1, 0 | Act_Euclid |          | 
  6 |          |          |  1.27629 |  4.00000 | h  |  7, 1, 0 | Act_Euclid |          | 
  7 |          |          |  1.33406 |  0.00000 | h  |  8, 1, 0 | Act_Euclid |          | 
  8 |          |          |  1.41902 |  1.00000 | h  |  9, 1, 0 | Act_Euclid |          | 
  9 |          |          |  1.48965 |  1.00000 | h  | 10, 1, 0 | Act_Euclid |          | 
 10 |          |          |  1.59634 |  1.00000 | h  | 11, 1, 0 | Act_Euclid |          | 
 11 |          |          |  1.67785 |  0.00000 | h  | 12, 1, 0 | Act_Euclid |          | 
 12 |          |          |  1.73760 | 122.00000 | h  | 13, 1, 0 | Act_Euclid |          | 
 13 |          |          |  1.78133 |  0.00000 | h  | 14, 1, 0 | Act_Euclid |          | 
 14 |          |          |  1.81666 |  0.00000 | h  | 15, 1, 0 | Act_Euclid |          | 
 15 |          |          |  1.85216 |  0.00000 | h  | 16, 1, 0 | Act_Euclid |          | 
 16 |          |          |  1.82833 |  0.00000 | h  | 17, 1, 0 | Act_Euclid |          | 
 17 |          |          |  1.78342 |  0.00000 | h  | 18, 1, 0 | Act_Euclid |          | 
 18 |          |          |  1.74550 |  0.00000 | h  | 19, 1, 0 | Act_Euclid |          | 
 19 |          |          |  1.70827 | 513.00000 | h  | 20, 1, 0 | Act_Euclid |          | 
 20 |          |          |  1.16526 |  2.00000 | h  |  5, 2, 0 | Act_Euclid |          | 
 21 |          |          |  1.19624 |  0.00000 | h  |  6, 2, 0 | Act_Euclid |          | 
 22 |          |          |  1.25043 |  0.00000 | h  |  7, 2, 0 | Act_Euclid |          | 
 23 |          |          |  1.30679 |  0.00000 | h  |  8, 2, 0 | Act_Euclid |          | 
 24 |          |          |  1.41599 |  0.00000 | h  |  9, 2, 0 | Act_Euclid |          | 
 25 |          |          |  1.48722 |  1.00000 | h  | 10, 2, 0 | Act_Euclid |          | 
 26 |          |          |  1.58644 |  0.00000 | h  | 11, 2, 0 | Act_Euclid |          | 
 27 |          |          |  1.65383 |  0.00000 | h  | 12, 2, 0 | Act_Euclid |          | 
 28 |          |          |  1.71473 |  0.00000 | h  | 13, 2, 0 | Act_Euclid |          | 
 29 |          |          |  1.76508 |  0.00000 | h  | 14, 2, 0 | Act_Euclid |          | 
 30 |          |          |  1.81919 |  0.00000 | h  | 15, 2, 0 | Act_Euclid |          | 
 31 |          |          |  1.87417 |  0.00000 | h  | 16, 2, 0 | Act_Euclid |          | 
 32 |          |          |  1.85596 |  0.00000 | h  | 17, 2, 0 | Act_Euclid |          | 
 33 |          |          |  1.81161 |  0.00000 | h  | 18, 2, 0 | Act_Euclid |          | 
 34 |          |          |  1.77397 |  2.00000 | h  | 19, 2, 0 | Act_Euclid |          | 
 35 |          |          |  1.74658 |  0.00000 | h  | 20, 2, 0 | Act_Euclid |          | 
 36 |          |          |  1.16173 |  0.00000 | h  |  5, 3, 0 | Act_Euclid |          | 
 37 |          |          |  1.20588 |  0.00000 | h  |  6, 3, 0 | Act_Euclid |          | 
 38 |          |          |  1.26767 |  0.00000 | h  |  7, 3, 0 | Act_Euclid |          | 
 39 |          |          |  1.32612 |  0.00000 | h  |  8, 3, 0 | Act_Euclid |          | 
 40 |          |          |  1.44520 |  0.00000 | h  |  9, 3, 0 | Act_Euclid |          | 
 41 |          |          |  1.51736 |  0.00000 | h  | 10, 3, 0 | Act_Euclid |          | 
 42 |          |          |  1.60632 |  0.00000 | h  | 11, 3, 0 | Act_Euclid |          | 
 43 |          |          |  1.66099 |  0.00000 | h  | 12, 3, 0 | Act_Euclid |          | 
 44 |          |          |  1.71462 |  0.00000 | h  | 13, 3, 0 | Act_Euclid |          | 
 45 |          |          |  1.78040 |  0.00000 | h  | 14, 3, 0 | Act_Euclid |          | 
 46 |          |          |  1.84725 |  0.00000 | h  | 15, 3, 0 | Act_Euclid |          | 
 47 |          |          |  1.91235 |  0.00000 | h  | 16, 3, 0 | Act_Euclid |          | 
 48 |          |          |  1.90593 |  0.00000 | h  | 17, 3, 0 | Act_Euclid |          | 
 49 |          |          |  1.87349 |  0.00000 | h  | 18, 3, 0 | Act_Euclid |          | 
 50 |          |          |  1.84697 |  0.00000 | h  | 19, 3, 0 | Act_Euclid |          | 
 51 |          |          |  1.82081 |  0.00000 | h  | 20, 3, 0 | Act_Euclid |          | 
 52 |          |          |  1.07206 |  0.00000 | h  |  5, 4, 0 | Act_Euclid |          | 
 53 |          |          |  1.14002 |  0.00000 | h  |  6, 4, 0 | Act_Euclid |          | 
 54 |          |          |  1.21943 |  0.00000 | h  |  7, 4, 0 | Act_Euclid |          | 
 55 |          |          |  1.28068 |  0.00000 | h  |  8, 4, 0 | Act_Euclid |          | 
 56 |          |          |  1.42054 |  0.00000 | h  |  9, 4, 0 | Act_Euclid |          | 
 57 |          |          |  1.50175 |  0.00000 | h  | 10, 4, 0 | Act_Euclid |          | 
 58 |          |          |  1.59631 |  0.00000 | h  | 11, 4, 0 | Act_Euclid |          | 
 59 |          |          |  1.64322 |  0.00000 | h  | 12, 4, 0 | Act_Euclid |          | 
 60 |          |          |  1.69391 |  0.00000 | h  | 13, 4, 0 | Act_Euclid |          | 
 61 |          |          |  1.78004 |  0.00000 | h  | 14, 4, 0 | Act_Euclid |          | 
 62 |          |          |  1.86857 |  0.00000 | h  | 15, 4, 0 | Act_Euclid |          | 
 63 |          |          |  1.94703 |  0.00000 | h  | 16, 4, 0 | Act_Euclid |          | 
 64 |          |          |  1.95365 |  0.00000 | h  | 17, 4, 0 | Act_Euclid |          | 
 65 |          |          |  1.94018 |  0.00000 | h  | 18, 4, 0 | Act_Euclid |          | 
 66 |          |          |  1.92552 |  0.00000 | h  | 19, 4, 0 | Act_Euclid |          | 
 67 |          |          |  1.90267 |  0.00000 | h  | 20, 4, 0 | Act_Euclid |          | 
 68 |          |          |  0.91220 |  0.00000 | h  |  5, 5, 0 | Act_Euclid |          | 
 69 |          |          |  1.00646 |  0.00000 | h  |  6, 5, 0 | Act_Euclid |          | 
 70 |          |          |  1.11853 |  0.00000 | h  |  7, 5, 0 | Act_Euclid |          | 
 71 |          |          |  1.19945 |  0.00000 | h  |  8, 5, 0 | Act_Euclid |          | 
 72 |          |          |  1.36883 |  0.00000 | h  |  9, 5, 0 | Act_Euclid |          | 
 73 |          |          |  1.46666 |  0.00000 | h  | 10, 5, 0 | Act_Euclid |          | 
 74 |          |          |  1.57569 |  0.00000 | h  | 11, 5, 0 | Act_Euclid |          | 
 75 |          |          |  1.63172 | 382.00000 | h  | 12, 5, 0 | Act_Euclid |          | 
 76 |          |          |  1.67810 |  0.00000 | h  | 13, 5, 0 | Act_Euclid |          | 
 77 |          |          |  1.77225 |  0.00000 | h  | 14, 5, 0 | Act_Euclid |          | 
 78 |          |          |  1.87126 |  0.00000 | h  | 15, 5, 0 | Act_Euclid |          | 
 79 |          |          |  1.96045 |  0.00000 | h  | 16, 5, 0 | Act_Euclid |          | 
 80 |          |          |  1.97661 |  0.00000 | h  | 17, 5, 0 | Act_Euclid |          | 
 81 |          |          |  1.97660 |  0.00000 | h  | 18, 5, 0 | Act_Euclid |          | 
 82 |          |          |  1.97183 |  0.00000 | h  | 19, 5, 0 | Act_Euclid |          | 
 83 |          |          |  1.95627 |  0.00000 | h  | 20, 5, 0 | Act_Euclid |          | 
 84 |          |          |  0.80318 |  0.00000 | h  |  5, 6, 0 | Act_Euclid |          | 
 85 |          |          |  0.92235 |  0.00000 | h  |  6, 6, 0 | Act_Euclid |          | 
 86 |          |          |  1.05691 |  0.00000 | h  |  7, 6, 0 | Act_Euclid |          | 
 87 |          |          |  1.15339 |  0.00000 | h  |  8, 6, 0 | Act_Euclid |          | 
 88 |          |          |  1.33715 |  1.00000 | h  |  9, 6, 0 | Act_Euclid |          | 
 89 |          |          |  1.43827 |  0.00000 | h  | 10, 6, 0 | Act_Euclid |          | 
 90 |          |          |  1.55648 |  0.00000 | h  | 11, 6, 0 | Act_Euclid |          | 
 91 |          |          |  1.62347 |  0.00000 | h  | 12, 6, 0 | Act_Euclid |          | 
 92 |          |          |  1.67433 |  0.00000 | h  | 13, 6, 0 | Act_Euclid |          | 
 93 |          |          |  1.77518 |  0.00000 | h  | 14, 6, 0 | Act_Euclid |          | 
 94 |          |          |  1.87730 |  0.00000 | h  | 15, 6, 0 | Act_Euclid |          | 
 95 |          |          |  1.96262 |  0.00000 | h  | 16, 6, 0 | Act_Euclid |          | 
 96 |          |          |  1.98493 |  0.00000 | h  | 17, 6, 0 | Act_Euclid |          | 
 97 |          |          |  1.99329 |  0.00000 | h  | 18, 6, 0 | Act_Euclid |          | 
 98 |          |          |  1.99350 |  0.00000 | h  | 19, 6, 0 | Act_Euclid |          | 
 99 |          |          |  1.98564 |  0.00000 | h  | 20, 6, 0 | Act_Euclid |          | 
100 |          |          |  0.57591 |  0.00000 | h  |  5, 7, 0 | Act_Euclid |          | 
101 |          |          |  0.71466 |  1.00000 | h  |  6, 7, 0 | Act_Euclid |          | 
102 |          |          |  0.88209 |  2.00000 | h  |  7, 7, 0 | Act_Euclid |          | 
103 |          |          |  1.01019 |  0.00000 | h  |  8, 7, 0 | Act_Euclid |          | 
104 |          |          |  1.22653 |  2.00000 | h  |  9, 7, 0 | Act_Euclid |          | 
105 |          |          |  1.37348 |  0.00000 | h  | 10, 7, 0 | Act_Euclid |          | 
106 |          |          |  1.49578 |  3.00000 | h  | 11, 7, 0 | Act_Euclid |          | 
107 |          |          |  1.58653 |  1.00000 | h  | 12, 7, 0 | Act_Euclid |          | 
108 |          |          |  1.65387 | 121.00000 | h  | 13, 7, 0 | Act_Euclid |          | 
109 |          |          |  1.76901 |  1.00000 | h  | 14, 7, 0 | Act_Euclid |          | 
110 |          |          |  1.86704 |  2.00000 | h  | 15, 7, 0 | Act_Euclid |          | 
111 |          |          |  1.95869 |  2.00000 | h  | 16, 7, 0 | Act_Euclid |          | 
112 |          |          |  1.98482 |  0.00000 | h  | 17, 7, 0 | Act_Euclid |          | 
113 |          |          |  1.99758 |  2.00000 | h  | 18, 7, 0 | Act_Euclid |          | 
114 |          |          |  1.99900 |  0.00000 | h  | 19, 7, 0 | Act_Euclid |          | 
115 |          |          |  1.99597 |  0.00000 | h  | 20, 7, 0 | Act_Euclid |          | 
116 |          |          |  0.43072 |  0.00000 | h  |  5, 8, 0 | Act_Euclid |          | 
117 |          |          |  0.55253 |  0.00000 | h  |  6, 8, 0 | Act_Euclid |          | 
118 |          |          |  0.73036 |  0.00000 | h  |  7, 8, 0 | Act_Euclid |          | 
119 |          |          |  0.89938 |  0.00000 | h  |  8, 8, 0 | Act_Euclid |          | 
120 |          |          |  1.15013 |  0.00000 | h  |  9, 8, 0 | Act_Euclid |          | 
121 |          |          |  1.29488 |  0.00000 | h  | 10, 8, 0 | Act_Euclid |          | 
122 |          |          |  1.42076 |  0.00000 | h  | 11, 8, 0 | Act_Euclid |          | 
123 |          |          |  1.52680 |  0.00000 | h  | 12, 8, 0 | Act_Euclid |          | 
124 |          |          |  1.60947 |  1.00000 | h  | 13, 8, 0 | Act_Euclid |          | 
125 |          |          |  1.75396 |  0.00000 | h  | 14, 8, 0 | Act_Euclid |          | 
126 |          |          |  1.86921 |  0.00000 | h  | 15, 8, 0 | Act_Euclid |          | 
127 |          |          |  1.95838 |  1.00000 | h  | 16, 8, 0 | Act_Euclid |          | 
128 |          |          |  1.98536 |  1.00000 | h  | 17, 8, 0 | Act_Euclid |          | 
129 |          |          |  1.99865 |  2.00000 | h  | 18, 8, 0 | Act_Euclid |          | 
130 |          |          |  1.99929 | 380.00000 | h  | 19, 8, 0 | Act_Euclid |          | 
131 |          |          |  1.99701 |  0.00000 | h  | 20, 8, 0 | Act_Euclid |          | 
132 |          |          |  0.28377 |  0.00000 | h  |  5, 9, 0 | Act_Euclid |          | 
133 |          |          |  0.38584 |  0.00000 | h  |  6, 9, 0 | Act_Euclid |          | 
134 |          |          |  0.56837 |  0.00000 | h  |  7, 9, 0 | Act_Euclid |          | 
135 |          |          |  0.79337 |  0.00000 | h  |  8, 9, 0 | Act_Euclid |          | 
136 |          |          |  1.03937 |  0.00000 | h  |  9, 9, 0 | Act_Euclid |          | 
137 |          |          |  1.18344 |  0.00000 | h  | 10, 9, 0 | Act_Euclid |          | 
138 |          |          |  1.30590 |  0.00000 | h  | 11, 9, 0 | Act_Euclid |          | 
139 |          |          |  1.42582 |  0.00000 | h  | 12, 9, 0 | Act_Euclid |          | 
140 |          |          |  1.52390 |  2.00000 | h  | 13, 9, 0 | Act_Euclid |          | 
141 |          |          |  1.71336 |  0.00000 | h  | 14, 9, 0 | Act_Euclid |          | 
142 |          |          |  1.84878 |  0.00000 | h  | 15, 9, 0 | Act_Euclid |          | 
143 |          |          |  1.94170 |  0.00000 | h  | 16, 9, 0 | Act_Euclid |          | 
144 |          |          |  1.97511 |  0.00000 | h  | 17, 9, 0 | Act_Euclid |          | 
145 |          |          |  1.99595 |  0.00000 | h  | 18, 9, 0 | Act_Euclid |          | 
146 |          |          |  1.99730 | 122.00000 | h  | 19, 9, 0 | Act_Euclid |          | 
147 |          |          |  1.99545 |  0.00000 | h  | 20, 9, 0 | Act_Euclid |          | 
148 |          |          |  0.21423 |  0.00000 | h  |  5,10, 0 | Act_Euclid |          | 
149 |          |          |  0.29960 |  0.00000 | h  |  6,10, 0 | Act_Euclid |          | 
150 |          |          |  0.50332 |  0.00000 | h  |  7,10, 0 | Act_Euclid |          | 
151 |          |          |  0.73621 |  2.00000 | h  |  8,10, 0 | Act_Euclid |          | 
152 |          |          |  1.01400 |  1.00000 | h  |  9,10, 0 | Act_Euclid |          | 
153 |          |          |  1.15271 |  0.00000 | h  | 10,10, 0 | Act_Euclid |          | 
154 |          |          |  1.24620 |  0.00000 | h  | 11,10, 0 | Act_Euclid |          | 
155 |          |          |  1.35356 |  0.00000 | h  | 12,10, 0 | Act_Euclid |          | 
156 |          |          |  1.46527 |  0.00000 | h  | 13,10, 0 | Act_Euclid |          | 
157 |          |          |  1.66802 |  0.00000 | h  | 14,10, 0 | Act_Euclid |          | 
158 |          |          |  1.81511 |  0.00000 | h  | 15,10, 0 | Act_Euclid |          | 
159 |          |          |  1.92169 |  0.00000 | h  | 16,10, 0 | Act_Euclid |          | 
160 |          |          |  1.95876 |  0.00000 | h  | 17,10, 0 | Act_Euclid |          | 
161 |          |          |  1.98686 |  0.00000 | h  | 18,10, 0 | Act_Euclid |          | 
162 |          |          |  1.98729 |  0.00000 | h  | 19,10, 0 | Act_Euclid |          | 
163 |          |          |  1.98340 |  0.00000 | h  | 20,10, 0 | Act_Euclid |          | 
164 |          |          |  0.14115 | 382.00000 | h  |  5,11, 0 | Act_Euclid |          | 
165 |          |          |  0.23302 |  0.00000 | h  |  6,11, 0 | Act_Euclid |          | 
166 |          |          |  0.41904 |  0.00000 | h  |  7,11, 0 | Act_Euclid |          | 
167 |          |          |  0.64638 |  1.00000 | h  |  8,11, 0 | Act_Euclid |          | 
168 |          |          |  0.93753 |  0.00000 | h  |  9,11, 0 | Act_Euclid |          | 
169 |          |          |  1.09475 | 127.00000 | h  | 10,11, 0 | Act_Euclid |          | 
170 |          |          |  1.18544 | 382.00000 | h  | 11,11, 0 | Act_Euclid |          | 
171 |          |          |  1.29285 |  0.00000 | h  | 12,11, 0 | Act_Euclid |          | 
172 |          |          |  1.40675 |  0.00000 | h  | 13,11, 0 | Act_Euclid |          | 
173 |          |          |  1.61443 |  0.00000 | h  | 14,11, 0 | Act_Euclid |          | 
174 |          |          |  1.76400 |  0.00000 | h  | 15,11, 0 | Act_Euclid |          | 
175 |          |          |  1.87849 |  0.00000 | h  | 16,11, 0 | Act_Euclid |          | 
176 |          |          |  1.91360 |  0.00000 | h  | 17,11, 0 | Act_Euclid |          | 
177 |          |          |  1.95356 |  0.00000 | h  | 18,11, 0 | Act_Euclid |          | 
178 |          |          |  1.95197 |  0.00000 | h  | 19,11, 0 | Act_Euclid |          | 
179 |          |          |  1.94590 |  0.00000 | h  | 20,11, 0 | Act_Euclid |          | 
180 |          |          |  0.22823 | 125.00000 | h  |  5,12, 0 | Act_Euclid |          | 
181 |          |          |  0.26751 |  0.00000 | h  |  6,12, 0 | Act_Euclid |          | 
182 |          |          |  0.39780 |  0.00000 | h  |  7,12, 0 | Act_Euclid |          | 
183 |          |          |  0.58961 |  0.00000 | h  |  8,12, 0 | Act_Euclid |          | 
184 |          |          |  0.86530 |  0.00000 | h  |  9,12, 0 | Act_Euclid |          | 
185 |          |          |  1.04088 |  0.00000 | h  | 10,12, 0 | Act_Euclid |          | 
186 |          |          |  1.15491 |  0.00000 | h  | 11,12, 0 | Act_Euclid |          | 
187 |          |          |  1.26524 |  0.00000 | h  | 12,12, 0 | Act_Euclid |          | 
188 |          |          |  1.37512 |  1.00000 | h  | 13,12, 0 | Act_Euclid |          | 
189 |          |          |  1.57612 |  0.00000 | h  | 14,12, 0 | Act_Euclid |          | 
190 |          |          |  1.71815 |  0.00000 | h  | 15,12, 0 | Act_Euclid |          | 
191 |          |          |  1.82350 |  0.00000 | h  | 16,12, 0 | Act_Euclid |          | 
192 |          |          |  1.85540 |  0.00000 | h  | 17,12, 0 | Act_Euclid |          | 
193 |          |          |  1.89835 |  0.00000 | h  | 18,12, 0 | Act_Euclid |          | 
194 |          |          |  1.89596 |  0.00000 | h  | 19,12, 0 | Act_Euclid |          | 
195 |          |          |  1.88767 |  0.00000 | h  | 20,12, 0 | Act_Euclid |          | 
196 |          |          |  0.40691 |  3.00000 | h  |  5,13, 0 | Act_Euclid |          | 
197 |          |          |  0.41684 |  0.00000 | h  |  6,13, 0 | Act_Euclid |          | 
198 |          |          |  0.46435 |  0.00000 | h  |  7,13, 0 | Act_Euclid |          | 
199 |          |          |  0.58991 |  0.00000 | h  |  8,13, 0 | Act_Euclid |          | 
200 |          |          |  0.81973 |  0.00000 | h  |  9,13, 0 | Act_Euclid |          | 
201 |          |          |  0.98938 |  0.00000 | h  | 10,13, 0 | Act_Euclid |          | 
202 |          |          |  1.12579 |  0.00000 | h  | 11,13, 0 | Act_Euclid |          | 
203 |          |          |  1.25848 |  0.00000 | h  | 12,13, 0 | Act_Euclid |          | 
204 |          |          |  1.36263 |  1.00000 | h  | 13,13, 0 | Act_Euclid |          | 
205 |          |          |  1.54853 |  1.00000 | h  | 14,13, 0 | Act_Euclid |          | 
206 |          |          |  1.66164 |  0.00000 | h  | 15,13, 0 | Act_Euclid |          | 
207 |          |          |  1.76134 |  0.00000 | h  | 16,13, 0 | Act_Euclid |          | 
208 |          |          |  1.78609 |  0.00000 | h  | 17,13, 0 | Act_Euclid |          | 
209 |          |          |  1.82519 |  0.00000 | h  | 18,13, 0 | Act_Euclid |          | 
210 |          |          |  1.82122 |  1.00000 | h  | 19,13, 0 | Act_Euclid |          | 
211 |          |          |  1.81278 |  0.00000 | h  | 20,13, 0 | Act_Euclid |          | 
212 |          |          |  0.62643 |  2.00000 | h  |  5,14, 0 | Act_Euclid |          | 
213 |          |          |  0.61129 |  0.00000 | h  |  6,14, 0 | Act_Euclid |          | 
214 |          |          |  0.58653 |  0.00000 | h  |  7,14, 0 | Act_Euclid |          | 
215 |          |          |  0.61335 |  0.00000 | h  |  8,14, 0 | Act_Euclid |          | 
216 |          |          |  0.76273 |  0.00000 | h  |  9,14, 0 | Act_Euclid |          | 
217 |          |          |  0.92375 |  0.00000 | h  | 10,14, 0 | Act_Euclid |          | 
218 |          |          |  1.08104 |  0.00000 | h  | 11,14, 0 | Act_Euclid |          | 
219 |          |          |  1.24424 |  0.00000 | h  | 12,14, 0 | Act_Euclid |          | 
220 |          |          |  1.35896 |  0.00000 | h  | 13,14, 0 | Act_Euclid |          | 
221 |          |          |  1.50398 |  0.00000 | h  | 14,14, 0 | Act_Euclid |          | 
222 |          |          |  1.60471 |  2.00000 | h  | 15,14, 0 | Act_Euclid |          | 
223 |          |          |  1.69607 |  0.00000 | h  | 16,14, 0 | Act_Euclid |          | 
224 |          |          |  1.71819 |  0.00000 | h  | 17,14, 0 | Act_Euclid |          | 
225 |          |          |  1.75045 |  0.00000 | h  | 18,14, 0 | Act_Euclid |          | 
226 |          |          |  1.74600 |  0.00000 | h  | 19,14, 0 | Act_Euclid |          | 
227 |          |          |  1.73969 |  0.00000 | h  | 20,14, 0 | Act_Euclid |          | 
228 |          |          |  0.84632 |  4.00000 | h  |  5,15, 0 | Act_Euclid |          | 
229 |          |          |  0.80938 |  0.00000 | h  |  6,15, 0 | Act_Euclid |          | 
230 |          |          |  0.73074 |  0.00000 | h  |  7,15, 0 | Act_Euclid |          | 
231 |          |          |  0.68904 |  0.00000 | h  |  8,15, 0 | Act_Euclid |          | 
232 |          |          |  0.74655 |  0.00000 | h  |  9,15, 0 | Act_Euclid |          | 
233 |          |          |  0.87838 |  0.00000 | h  | 10,15, 0 | Act_Euclid |          | 
234 |          |          |  1.03688 |  0.00000 | h  | 11,15, 0 | Act_Euclid |          | 
235 |          |          |  1.22110 |  0.00000 | h  | 12,15, 0 | Act_Euclid |          | 
236 |          |          |  1.34542 |  0.00000 | h  | 13,15, 0 | Act_Euclid |          | 
237 |          |          |  1.49622 |  1.00000 | h  | 14,15, 0 | Act_Euclid |          | 
238 |          |          |  1.58285 |  0.00000 | h  | 15,15, 0 | Act_Euclid |          | 
239 |          |          |  1.66696 |  0.00000 | h  | 16,15, 0 | Act_Euclid |          | 
240 |          |          |  1.68822 |  0.00000 | h  | 17,15, 0 | Act_Euclid |          | 
241 |          |          |  1.71242 |  0.00000 | h  | 18,15, 0 | Act_Euclid |          | 
242 |          |          |  1.70225 |  0.00000 | h  | 19,15, 0 | Act_Euclid |          | 
243 |          |          |  1.69527 |  1.00000 | h  | 20,15, 0 | Act_Euclid |          | 
244 |          |          |  0.98465 | 516.00000 | h  |  5,16, 0 | Act_Euclid |          | 
245 |          |          |  0.91696 |  0.00000 | h  |  6,16, 0 | Act_Euclid |          | 
246 |          |          |  0.84284 |  0.00000 | h  |  7,16, 0 | Act_Euclid |          | 
247 |          |          |  0.78208 |  0.00000 | h  |  8,16, 0 | Act_Euclid |          | 
248 |          |          |  0.79145 |  0.00000 | h  |  9,16, 0 | Act_Euclid |          | 
249 |          |          |  0.84748 |  0.00000 | h  | 10,16, 0 | Act_Euclid |          | 
250 |          |          |  0.95327 |  0.00000 | h  | 11,16, 0 | Act_Euclid |          | 
251 |          |          |  1.13954 |  0.00000 | h  | 12,16, 0 | Act_Euclid |          | 
252 |          |          |  1.26269 |  0.00000 | h  | 13,16, 0 | Act_Euclid |          | 
253 |          |          |  1.42928 |  1.00000 | h  | 14,16, 0 | Act_Euclid |          | 
254 |          |          |  1.52296 |  0.00000 | h  | 15,16, 0 | Act_Euclid |          | 
255 |          |          |  1.60039 | 121.00000 | h  | 16,16, 0 | Act_Euclid |          | 
256 |          |          |  1.63191 |  0.00000 | h  | 17,16, 0 | Act_Euclid |          | 
257 |          |          |  1.66102 |  2.00000 | h  | 18,16, 0 | Act_Euclid |          | 
258 |          |          |  1.66348 |  1.00000 | h  | 19,16, 0 | Act_Euclid |          | 
259 |          |          |  1.65947 | 386.00000 | h  | 20,16, 0 | Act_Euclid |          | 
----|----------|----------|----------|----------|----|----------|------------|----------|-------


connection definition section :

target | site | source:weight
-------|------|----------------------------------------------------------------------------------------------------------------
     4 |      |   1: 0.48250,   2: 0.60721,   3:-0.63126
     5 |      |   1: 0.41040,   2: 0.63195,   3:-0.65743
     6 |      |   1: 0.32043,   2: 0.66978,   3:-0.66986
     7 |      |   1: 0.20670,   2: 0.70022,   3:-0.68335
     8 |      |   1: 0.07222,   2: 0.74651,   3:-0.66144
     9 |      |   1:-0.05067,   2: 0.77281,   3:-0.63262
    10 |      |   1:-0.13663,   2: 0.84937,   3:-0.50981
    11 |      |   1:-0.22255,   2: 0.88778,   3:-0.40288
    12 |      |   1:-0.16828,   2: 0.95606,   3:-0.24005
    13 |      |   1:-0.14960,   2: 0.98214,   3:-0.11409
    14 |      |   1:-0.03949,   2: 0.99484,   3: 0.09345
    15 |      |   1: 0.03484,   2: 0.94217,   3: 0.33332
    16 |      |   1: 0.16564,   2: 0.87458,   3: 0.45571
    17 |      |   1: 0.30328,   2: 0.78002,   3: 0.54735
    18 |      |   1: 0.39093,   2: 0.69087,   3: 0.60818
    19 |      |   1: 0.45939,   2: 0.63409,   3: 0.62200
    20 |      |   1: 0.43679,   2: 0.57400,   3:-0.69263
    21 |      |   1: 0.37676,   2: 0.59483,   3:-0.71009
    22 |      |   1: 0.27310,   2: 0.62622,   3:-0.73026
    23 |      |   1: 0.14595,   2: 0.64437,   3:-0.75065
    24 |      |   1:-0.05138,   2: 0.68281,   3:-0.72879
    25 |      |   1:-0.19072,   2: 0.69106,   3:-0.69718
    26 |      |   1:-0.28789,   2: 0.75286,   3:-0.59188
    27 |      |   1:-0.36516,   2: 0.78044,   3:-0.50751
    28 |      |   1:-0.32469,   2: 0.86766,   3:-0.37648
    29 |      |   1:-0.30262,   2: 0.91874,   3:-0.25366
    30 |      |   1:-0.18921,   2: 0.98132,   3:-0.03478
    31 |      |   1:-0.07439,   2: 0.95702,   3: 0.28031
    32 |      |   1: 0.07551,   2: 0.90085,   3: 0.42752
    33 |      |   1: 0.23671,   2: 0.80580,   3: 0.54282
    34 |      |   1: 0.33447,   2: 0.71165,   3: 0.61780
    35 |      |   1: 0.39047,   2: 0.65796,   3: 0.64391
    36 |      |   1: 0.37128,   2: 0.55393,   3:-0.74519
    37 |      |   1: 0.29825,   2: 0.58246,   3:-0.75616
    38 |      |   1: 0.19247,   2: 0.61646,   3:-0.76350
    39 |      |   1: 0.06603,   2: 0.63092,   3:-0.77303
    40 |      |   1:-0.14581,   2: 0.66473,   3:-0.73271
    41 |      |   1:-0.28877,   2: 0.66402,   3:-0.68970
    42 |      |   1:-0.38468,   2: 0.70957,   3:-0.59036
    43 |      |   1:-0.45196,   2: 0.72560,   3:-0.51888
    44 |      |   1:-0.42644,   2: 0.80383,   3:-0.41474
    45 |      |   1:-0.42673,   2: 0.86191,   3:-0.27387
    46 |      |   1:-0.33593,   2: 0.94048,   3:-0.05151
    47 |      |   1:-0.22686,   2: 0.93395,   3: 0.27619
    48 |      |   1:-0.08657,   2: 0.89821,   3: 0.43097
    49 |      |   1: 0.07628,   2: 0.82325,   3: 0.56253
    50 |      |   1: 0.16724,   2: 0.74176,   3: 0.64948
    51 |      |   1: 0.23406,   2: 0.68649,   3: 0.68844
    52 |      |   1: 0.28788,   2: 0.41490,   3:-0.86312
    53 |      |   1: 0.19075,   2: 0.45482,   3:-0.86992
    54 |      |   1: 0.07351,   2: 0.49551,   3:-0.86549
    55 |      |   1:-0.04183,   2: 0.50783,   3:-0.86044
    56 |      |   1:-0.25477,   2: 0.55424,   3:-0.79241
    57 |      |   1:-0.38781,   2: 0.56371,   3:-0.72927
    58 |      |   1:-0.48699,   2: 0.61212,   3:-0.62301
    59 |      |   1:-0.54268,   2: 0.62559,   3:-0.56047
    60 |      |   1:-0.53404,   2: 0.69776,   3:-0.47743
    61 |      |   1:-0.55125,   2: 0.77398,   3:-0.31157
    62 |      |   1:-0.49969,   2: 0.86341,   3:-0.06953
    63 |      |   1:-0.41377,   2: 0.86952,   3: 0.26969
    64 |      |   1:-0.29069,   2: 0.85482,   3: 0.42986
    65 |      |   1:-0.15137,   2: 0.80527,   3: 0.57326
    66 |      |   1:-0.07171,   2: 0.73671,   3: 0.67239
    67 |      |   1: 0.00854,   2: 0.68595,   3: 0.72759
    68 |      |   1: 0.23837,   2: 0.18146,   3:-0.95407
    69 |      |   1: 0.12001,   2: 0.23122,   3:-0.96547
    70 |      |   1:-0.01111,   2: 0.29608,   3:-0.95510
    71 |      |   1:-0.13039,   2: 0.32197,   3:-0.93773
    72 |      |   1:-0.32661,   2: 0.41444,   3:-0.84945
    73 |      |   1:-0.44719,   2: 0.45490,   3:-0.77012
    74 |      |   1:-0.53871,   2: 0.53309,   3:-0.65238
    75 |      |   1:-0.58709,   2: 0.56641,   3:-0.57837
    76 |      |   1:-0.59347,   2: 0.62357,   3:-0.50888
    77 |      |   1:-0.63018,   2: 0.69852,   3:-0.33902
    78 |      |   1:-0.60660,   2: 0.78946,   3:-0.09379
    79 |      |   1:-0.54760,   2: 0.79746,   3: 0.25336
    80 |      |   1:-0.47024,   2: 0.79009,   3: 0.39323
    81 |      |   1:-0.34083,   2: 0.76182,   3: 0.55088
    82 |      |   1:-0.28112,   2: 0.70559,   3: 0.65048
    83 |      |   1:-0.19948,   2: 0.66539,   3: 0.71935
    84 |      |   1: 0.16149,   2:-0.02499,   3:-0.98656
    85 |      |   1: 0.03126,   2: 0.03529,   3:-0.99889
    86 |      |   1:-0.10243,   2: 0.12088,   3:-0.98737
    87 |      |   1:-0.21663,   2: 0.16612,   3:-0.96202
    88 |      |   1:-0.39337,   2: 0.29479,   3:-0.87084
    89 |      |   1:-0.48599,   2: 0.36748,   3:-0.79295
    90 |      |   1:-0.57165,   2: 0.46892,   3:-0.67330
    91 |      |   1:-0.62453,   2: 0.51473,   3:-0.58738
    92 |      |   1:-0.63872,   2: 0.57254,   3:-0.51403
    93 |      |   1:-0.68939,   2: 0.64296,   3:-0.33368
    94 |      |   1:-0.68312,   2: 0.72518,   3:-0.08642
    95 |      |   1:-0.65674,   2: 0.71778,   3: 0.23127
    96 |      |   1:-0.59418,   2: 0.71003,   3: 0.37791
    97 |      |   1:-0.48709,   2: 0.69509,   3: 0.52876
    98 |      |   1:-0.44755,   2: 0.65099,   3: 0.61312
    99 |      |   1:-0.37495,   2: 0.62403,   3: 0.68557
   100 |      |   1: 0.18145,   2:-0.34068,   3:-0.92250
   101 |      |   1: 0.04997,   2:-0.28113,   3:-0.95837
   102 |      |   1:-0.11621,   2:-0.20143,   3:-0.97258
   103 |      |   1:-0.24556,   2:-0.13312,   3:-0.96020
   104 |      |   1:-0.43427,   2: 0.03731,   3:-0.90001
   105 |      |   1:-0.55356,   2: 0.16533,   3:-0.81623
   106 |      |   1:-0.63139,   2: 0.29324,   3:-0.71788
   107 |      |   1:-0.69970,   2: 0.36411,   3:-0.61469
   108 |      |   1:-0.72619,   2: 0.44015,   3:-0.52812
   109 |      |   1:-0.78133,   2: 0.52922,   3:-0.33083
   110 |      |   1:-0.79227,   2: 0.60111,   3:-0.10476
   111 |      |   1:-0.74485,   2: 0.63116,   3: 0.21644
   112 |      |   1:-0.67814,   2: 0.63692,   3: 0.36669
   113 |      |   1:-0.57543,   2: 0.63529,   3: 0.51506
   114 |      |   1:-0.54678,   2: 0.60181,   3: 0.58211
   115 |      |   1:-0.48647,   2: 0.58317,   3: 0.65058
   116 |      |   1: 0.21692,   2:-0.54340,   3:-0.81096
   117 |      |   1: 0.10579,   2:-0.50525,   3:-0.85646
   118 |      |   1:-0.06668,   2:-0.44192,   3:-0.89457
   119 |      |   1:-0.23734,   2:-0.37043,   3:-0.89803
   120 |      |   1:-0.46895,   2:-0.19280,   3:-0.86193
   121 |      |   1:-0.59613,   2:-0.07593,   3:-0.79929
   122 |      |   1:-0.68986,   2: 0.04951,   3:-0.72225
   123 |      |   1:-0.76935,   2: 0.14157,   3:-0.62295
   124 |      |   1:-0.81720,   2: 0.22575,   3:-0.53031
   125 |      |   1:-0.88703,   2: 0.34902,   3:-0.30227
   126 |      |   1:-0.87687,   2: 0.47716,   3:-0.05840
   127 |      |   1:-0.80653,   2: 0.53652,   3: 0.24832
   128 |      |   1:-0.72710,   2: 0.56166,   3: 0.39481
   129 |      |   1:-0.61303,   2: 0.58065,   3: 0.53577
   130 |      |   1:-0.58445,   2: 0.56005,   3: 0.58717
   131 |      |   1:-0.53660,   2: 0.53294,   3: 0.65425
   132 |      |   1: 0.32722,   2:-0.63797,   3:-0.69708
   133 |      |   1: 0.23325,   2:-0.62399,   3:-0.74581
   134 |      |   1: 0.05421,   2:-0.59896,   3:-0.79894
   135 |      |   1:-0.17513,   2:-0.53568,   3:-0.82606
   136 |      |   1:-0.42896,   2:-0.43103,   3:-0.79385
   137 |      |   1:-0.57201,   2:-0.34737,   3:-0.74306
   138 |      |   1:-0.68452,   2:-0.25634,   3:-0.68244
   139 |      |   1:-0.79133,   2:-0.17630,   3:-0.58542
   140 |      |   1:-0.86267,   2:-0.08355,   3:-0.49881
   141 |      |   1:-0.95557,   2: 0.12375,   3:-0.26752
   142 |      |   1:-0.95110,   2: 0.30753,   3:-0.02881
   143 |      |   1:-0.87224,   2: 0.43030,   3: 0.23248
   144 |      |   1:-0.79234,   2: 0.48168,   3: 0.37441
   145 |      |   1:-0.66894,   2: 0.52894,   3: 0.52225
   146 |      |   1:-0.63859,   2: 0.50920,   3: 0.57700
   147 |      |   1:-0.58838,   2: 0.47742,   3: 0.65260
   148 |      |   1: 0.39378,   2:-0.67995,   3:-0.61855
   149 |      |   1: 0.31003,   2:-0.68612,   3:-0.65812
   150 |      |   1: 0.10658,   2:-0.69078,   3:-0.71516
   151 |      |   1:-0.13702,   2:-0.66758,   3:-0.73182
   152 |      |   1:-0.42935,   2:-0.56937,   3:-0.70105
   153 |      |   1:-0.57024,   2:-0.49614,   3:-0.65473
   154 |      |   1:-0.66135,   2:-0.44061,   3:-0.60703
   155 |      |   1:-0.75927,   2:-0.36475,   3:-0.53895
   156 |      |   1:-0.84668,   2:-0.24685,   3:-0.47137
   157 |      |   1:-0.97062,   2:-0.05822,   3:-0.23345
   158 |      |   1:-0.99143,   2: 0.13067,   3: 0.00081
   159 |      |   1:-0.92223,   2: 0.28939,   3: 0.25642
   160 |      |   1:-0.85117,   2: 0.35363,   3: 0.38789
   161 |      |   1:-0.72938,   2: 0.41737,   3: 0.54203
   162 |      |   1:-0.69579,   2: 0.39383,   3: 0.60064
   163 |      |   1:-0.63318,   2: 0.35680,   3: 0.68686
   164 |      |   1: 0.48471,   2:-0.68028,   3:-0.54979
   165 |      |   1: 0.39482,   2:-0.72202,   3:-0.56816
   166 |      |   1: 0.20419,   2:-0.76542,   3:-0.61027
   167 |      |   1:-0.03766,   2:-0.76640,   3:-0.64126
   168 |      |   1:-0.35142,   2:-0.69912,   3:-0.62268
   169 |      |   1:-0.51690,   2:-0.61694,   3:-0.59347
   170 |      |   1:-0.60813,   2:-0.55032,   3:-0.57212
   171 |      |   1:-0.71079,   2:-0.48429,   3:-0.51013
   172 |      |   1:-0.80988,   2:-0.38145,   3:-0.44564
   173 |      |   1:-0.95335,   2:-0.21771,   3:-0.20913
   174 |      |   1:-0.99817,   2:-0.05619,   3: 0.02241
   175 |      |   1:-0.95771,   2: 0.09724,   3: 0.27082
   176 |      |   1:-0.91255,   2: 0.14692,   3: 0.38166
   177 |      |   1:-0.81096,   2: 0.22328,   3: 0.54082
   178 |      |   1:-0.77548,   2: 0.19308,   3: 0.60112
   179 |      |   1:-0.70383,   2: 0.15128,   3: 0.69407
   180 |      |   1: 0.50016,   2:-0.74445,   3:-0.44230
   181 |      |   1: 0.44713,   2:-0.77320,   3:-0.44971
   182 |      |   1: 0.28398,   2:-0.82878,   3:-0.48216
   183 |      |   1: 0.05571,   2:-0.84795,   3:-0.52714
   184 |      |   1:-0.25750,   2:-0.80251,   3:-0.53821
   185 |      |   1:-0.45544,   2:-0.70498,   3:-0.54367
   186 |      |   1:-0.57626,   2:-0.61989,   3:-0.53260
   187 |      |   1:-0.68272,   2:-0.56835,   3:-0.45921
   188 |      |   1:-0.78249,   2:-0.48309,   3:-0.39284
   189 |      |   1:-0.92339,   2:-0.35375,   3:-0.14904
   190 |      |   1:-0.97411,   2:-0.21572,   3: 0.06765
   191 |      |   1:-0.94630,   2:-0.10326,   3: 0.30634
   192 |      |   1:-0.91120,   2:-0.06665,   3: 0.40653
   193 |      |   1:-0.82169,   2:-0.00085,   3: 0.56993
   194 |      |   1:-0.79445,   2:-0.01859,   3: 0.60705
   195 |      |   1:-0.71836,   2:-0.05605,   3: 0.69341
   196 |      |   1: 0.52558,   2:-0.81327,   3:-0.24973
   197 |      |   1: 0.47529,   2:-0.83794,   3:-0.26826
   198 |      |   1: 0.33503,   2:-0.88392,   3:-0.32625
   199 |      |   1: 0.12532,   2:-0.91003,   3:-0.39514
   200 |      |   1:-0.17679,   2:-0.87408,   3:-0.45247
   201 |      |   1:-0.38503,   2:-0.78735,   3:-0.48149
   202 |      |   1:-0.53932,   2:-0.68915,   3:-0.48395
   203 |      |   1:-0.66752,   2:-0.62954,   3:-0.39762
   204 |      |   1:-0.76569,   2:-0.54126,   3:-0.34750
   205 |      |   1:-0.89336,   2:-0.43505,   3:-0.11241
   206 |      |   1:-0.93668,   2:-0.34364,   3: 0.06748
   207 |      |   1:-0.91844,   2:-0.26014,   3: 0.29798
   208 |      |   1:-0.88271,   2:-0.24893,   3: 0.39857
   209 |      |   1:-0.80307,   2:-0.20713,   3: 0.55874
   210 |      |   1:-0.77303,   2:-0.22427,   3: 0.59340
   211 |      |   1:-0.70182,   2:-0.25237,   3: 0.66615
   212 |      |   1: 0.56392,   2:-0.82583,   3:-0.00226
   213 |      |   1: 0.51917,   2:-0.85395,   3:-0.03512
   214 |      |   1: 0.39688,   2:-0.90887,   3:-0.12818
   215 |      |   1: 0.20266,   2:-0.94437,   3:-0.25902
   216 |      |   1:-0.04759,   2:-0.94129,   3:-0.33424
   217 |      |   1:-0.27615,   2:-0.87817,   3:-0.39059
   218 |      |   1:-0.47277,   2:-0.77760,   3:-0.41452
   219 |      |   1:-0.63187,   2:-0.70881,   3:-0.31357
   220 |      |   1:-0.74791,   2:-0.60375,   3:-0.27589
   221 |      |   1:-0.84260,   2:-0.53222,   3:-0.08234
   222 |      |   1:-0.88483,   2:-0.45992,   3: 0.07449
   223 |      |   1:-0.86989,   2:-0.39906,   3: 0.28989
   224 |      |   1:-0.83439,   2:-0.39383,   3: 0.38561
   225 |      |   1:-0.75787,   2:-0.37124,   3: 0.53649
   226 |      |   1:-0.72608,   2:-0.38569,   3: 0.56925
   227 |      |   1:-0.66681,   2:-0.40306,   3: 0.62683
   228 |      |   1: 0.56770,   2:-0.78659,   3: 0.24290
   229 |      |   1: 0.53099,   2:-0.82535,   3: 0.19196
   230 |      |   1: 0.42471,   2:-0.90342,   3: 0.05880
   231 |      |   1: 0.27434,   2:-0.95753,   3:-0.08877
   232 |      |   1: 0.06985,   2:-0.97680,   3:-0.20244
   233 |      |   1:-0.16369,   2:-0.94543,   3:-0.28171
   234 |      |   1:-0.38965,   2:-0.85966,   3:-0.33040
   235 |      |   1:-0.57279,   2:-0.78840,   3:-0.22434
   236 |      |   1:-0.71201,   2:-0.67207,   3:-0.20340
   237 |      |   1:-0.80751,   2:-0.58977,   3:-0.00987
   238 |      |   1:-0.84814,   2:-0.51839,   3: 0.10926
   239 |      |   1:-0.83264,   2:-0.46206,   3: 0.30530
   240 |      |   1:-0.79989,   2:-0.45433,   3: 0.39213
   241 |      |   1:-0.72998,   2:-0.44216,   3: 0.52118
   242 |      |   1:-0.68976,   2:-0.46545,   3: 0.55461
   243 |      |   1:-0.64591,   2:-0.48064,   3: 0.59311
   244 |      |   1: 0.56725,   2:-0.72158,   3: 0.39693
   245 |      |   1: 0.53257,   2:-0.78567,   3: 0.31479
   246 |      |   1: 0.46471,   2:-0.86051,   3: 0.20874
   247 |      |   1: 0.35170,   2:-0.93250,   3: 0.08217
   248 |      |   1: 0.18732,   2:-0.98210,   3:-0.01983
   249 |      |   1: 0.00134,   2:-0.99337,   3:-0.11497
   250 |      |   1:-0.20590,   2:-0.95982,   3:-0.19068
   251 |      |   1:-0.39611,   2:-0.91388,   3:-0.08902
   252 |      |   1:-0.56177,   2:-0.82240,   3:-0.08980
   253 |      |   1:-0.67682,   2:-0.73041,   3: 0.09176
   254 |      |   1:-0.74162,   2:-0.64569,   3: 0.18191
   255 |      |   1:-0.74406,   2:-0.58299,   3: 0.32634
   256 |      |   1:-0.73105,   2:-0.55386,   3: 0.39850
   257 |      |   1:-0.67698,   2:-0.52946,   3: 0.51124
   258 |      |   1:-0.64878,   2:-0.52948,   3: 0.54656
   259 |      |   1:-0.61637,   2:-0.53753,   3: 0.57546
-------|------|----------------------------------------------------------------------------------------------------------------
