SNNS network definition file V1.4-3D
generated at Tue May  9 13:34:32 1995

network name : spirals_dda
source files :
no. of units : 49
no. of connections : 135
no. of unit types : 0
no. of site types : 0


learning function : RBF-DDA
update function   : Topological_Order


unit default section :

act      | bias     | st | subnet | layer | act func     | out func
---------|----------|----|--------|-------|--------------|-------------
 0.00000 |  0.00000 | h  |      0 |     1 | Act_Logistic | Out_Identity 
---------|----------|----|--------|-------|--------------|-------------


unit definition section :

no. | typeName | unitName | act      | bias     | st | position | act func         | out func | sites
----|----------|----------|----------|----------|----|----------|------------------|----------|-------
  1 |          |          | -4.84593 |  0.00000 | i  |  2, 2, 0 |||
  2 |          |          | -3.23795 |  0.00000 | i  |  2, 3, 0 |||
  3 |          |          |  0.63760 |  0.00000 | o  | 18, 2, 0 | Act_Identity     |          | 
  4 |          |          |  1.69398 |  0.00000 | o  | 18, 3, 0 | Act_Identity     |          | 
  5 |          |          |  0.00000 |  0.23288 | h  | 10, 4, 0 | Act_RBF_Gaussian |          | 
  6 |          |          |  0.00035 |  0.23288 | h  | 14, 6, 0 | Act_RBF_Gaussian |          | 
  7 |          |          |  0.00016 |  0.31901 | h  | 14, 5, 0 | Act_RBF_Gaussian |          | 
  8 |          |          |  0.00000 |  0.32967 | h  | 10, 3, 0 | Act_RBF_Gaussian |          | 
  9 |          |          |  0.00000 |  0.44889 | h  | 14, 4, 0 | Act_RBF_Gaussian |          | 
 10 |          |          |  0.20827 |  0.46526 | h  | 10, 2, 0 | Act_RBF_Gaussian |          | 
 11 |          |          |  0.00000 |  0.65210 | h  | 14, 3, 0 | Act_RBF_Gaussian |          | 
 12 |          |          |  0.00000 |  0.70574 | h  |  9, 6, 0 | Act_RBF_Gaussian |          | 
 13 |          |          |  0.00003 |  0.90342 | h  | 14, 2, 0 | Act_RBF_Gaussian |          | 
 14 |          |          |  0.00000 |  1.02825 | h  |  9, 5, 0 | Act_RBF_Gaussian |          | 
 15 |          |          |  0.00000 |  1.12357 | h  | 13, 6, 0 | Act_RBF_Gaussian |          | 
 16 |          |          |  0.00000 |  1.71890 | h  |  9, 4, 0 | Act_RBF_Gaussian |          | 
 17 |          |          |  0.00000 |  1.80727 | h  | 13, 5, 0 | Act_RBF_Gaussian |          | 
 18 |          |          |  0.00000 |  2.36060 | h  |  9, 3, 0 | Act_RBF_Gaussian |          | 
 19 |          |          |  0.00000 |  3.15274 | h  | 13, 4, 0 | Act_RBF_Gaussian |          | 
 20 |          |          |  0.00000 |  3.34818 | h  |  9, 2, 0 | Act_RBF_Gaussian |          | 
 21 |          |          |  0.00000 |  5.98697 | h  | 13, 3, 0 | Act_RBF_Gaussian |          | 
 22 |          |          |  0.00000 |  6.88789 | h  |  8, 6, 0 | Act_RBF_Gaussian |          | 
 23 |          |          |  0.00000 | 10.80066 | h  | 13, 2, 0 | Act_RBF_Gaussian |          | 
 24 |          |          |  0.00000 |  7.49572 | h  |  8, 5, 0 | Act_RBF_Gaussian |          | 
 25 |          |          |  0.00000 |  7.41988 | h  | 12, 6, 0 | Act_RBF_Gaussian |          | 
 26 |          |          |  0.00000 |  0.59706 | h  |  8, 4, 0 | Act_RBF_Gaussian |          | 
 27 |          |          |  0.24726 |  0.25528 | h  | 12, 5, 0 | Act_RBF_Gaussian |          | 
 28 |          |          |  0.00000 |  0.28044 | h  |  8, 3, 0 | Act_RBF_Gaussian |          | 
 29 |          |          |  0.23447 |  0.28951 | h  | 12, 4, 0 | Act_RBF_Gaussian |          | 
 30 |          |          |  0.00000 |  0.36445 | h  |  8, 2, 0 | Act_RBF_Gaussian |          | 
 31 |          |          |  0.00000 |  0.36445 | h  | 12, 3, 0 | Act_RBF_Gaussian |          | 
 32 |          |          |  0.00101 |  0.40393 | h  |  7, 6, 0 | Act_RBF_Gaussian |          | 
 33 |          |          |  0.00000 |  0.50030 | h  | 12, 2, 0 | Act_RBF_Gaussian |          | 
 34 |          |          |  0.00218 |  0.51905 | h  |  7, 5, 0 | Act_RBF_Gaussian |          | 
 35 |          |          |  0.00000 |  0.58084 | h  | 11, 6, 0 | Act_RBF_Gaussian |          | 
 36 |          |          |  0.00000 |  0.60346 | h  |  7, 4, 0 | Act_RBF_Gaussian |          | 
 37 |          |          |  0.00000 |  0.73462 | h  | 11, 5, 0 | Act_RBF_Gaussian |          | 
 38 |          |          |  0.00000 |  0.79696 | h  |  7, 3, 0 | Act_RBF_Gaussian |          | 
 39 |          |          |  0.00000 |  1.17537 | h  |  7, 2, 0 | Act_RBF_Gaussian |          | 
 40 |          |          |  0.00000 |  1.28824 | h  | 11, 4, 0 | Act_RBF_Gaussian |          | 
 41 |          |          |  0.00000 |  1.48423 | h  |  6, 6, 0 | Act_RBF_Gaussian |          | 
 42 |          |          |  0.00000 |  2.23261 | h  | 11, 3, 0 | Act_RBF_Gaussian |          | 
 43 |          |          |  0.00000 |  4.03045 | h  | 11, 2, 0 | Act_RBF_Gaussian |          | 
 44 |          |          |  0.00000 |  4.29481 | h  |  6, 5, 0 | Act_RBF_Gaussian |          | 
 45 |          |          |  0.00000 |  9.98756 | h  |  6, 4, 0 | Act_RBF_Gaussian |          | 
 46 |          |          |  0.00000 | 10.26853 | h  |  6, 3, 0 | Act_RBF_Gaussian |          | 
 47 |          |          |  0.00000 |  0.40393 | h  | 10, 6, 0 | Act_RBF_Gaussian |          | 
 48 |          |          |  0.00000 |  0.90342 | h  |  6, 2, 0 | Act_RBF_Gaussian |          | 
 49 |          |          |  0.00000 |  1.55771 | h  | 10, 5, 0 | Act_RBF_Gaussian |          | 
----|----------|----------|----------|----------|----|----------|------------------|----------|-------


connection definition section :

target | site | source:weight
-------|------|---------------------------------------------------------------------------------------------------------------------
     3 |      |  5: 2.00000,  8: 4.00000, 10: 3.00000, 12: 3.00000, 14: 3.00000, 16: 5.00000, 18: 6.00000, 20: 5.00000, 22: 6.00000,
                24: 8.00000, 26: 3.00000, 28: 4.00000, 30: 3.00000, 32: 4.00000, 34: 4.00000, 36: 4.00000, 38: 3.00000, 39: 4.00000,
                41: 4.00000, 44: 5.00000, 45: 5.00000, 46: 6.00000, 48: 3.00000
     4 |      |  6: 2.00000,  7: 4.00000,  9: 4.00000, 11: 3.00000, 13: 5.00000, 15: 4.00000, 17: 4.00000, 19: 5.00000, 21: 7.00000,
                23: 7.00000, 25:12.00000, 27: 4.00000, 29: 3.00000, 31: 2.00000, 33: 4.00000, 35: 3.00000, 37: 4.00000, 40: 4.00000,
                42: 5.00000, 43: 5.00000, 47: 3.00000, 49: 3.00000
     5 |      |  1: 0.00000,  2: 6.50000
     6 |      |  1:-0.00000,  2:-6.50000
     7 |      |  1:-4.80811,  2: 1.99159
     8 |      |  1: 4.22810,  2:-2.82512
     9 |      |  1: 2.89440,  2: 2.89440
    10 |      |  1:-3.31907,  2:-2.21773
    11 |      |  1: 1.20655,  2:-2.91288
    12 |      |  1: 0.00000,  2: 2.98401
    13 |      |  1:-2.32244,  2:-0.96199
    14 |      |  1: 2.25428,  2:-0.44840
    15 |      |  1:-1.79759,  2: 1.20111
    16 |      |  1:-1.14146,  2:-1.14146
    17 |      |  1: 1.29698,  2: 0.86661
    18 |      |  1:-1.20666,  2: 0.49982
    19 |      |  1: 0.21098,  2:-1.06066
    20 |      |  1: 0.00000,  2: 1.03985
    21 |      |  1:-0.69876,  2: 0.13899
    22 |      |  1: 0.54090,  2:-0.36142
    23 |      |  1: 0.09491,  2: 0.47715
    24 |      |  1:-0.34461,  2:-0.14274
    25 |      |  1: 0.23172,  2:-0.15483
    26 |      |  1: 3.38400,  2: 5.06451
    27 |      |  1:-3.38400,  2:-5.06451
    28 |      |  1: 5.26574,  2: 2.18114
    29 |      |  1:-5.46586,  2:-1.08723
    30 |      |  1: 1.81335,  2:-4.37780
    31 |      |  1:-1.81335,  2: 4.37780
    32 |      |  1:-0.85996,  2:-4.32333
    33 |      |  1: 3.72101,  2: 0.74015
    34 |      |  1:-3.69746,  2: 0.00000
    35 |      |  1: 2.84191,  2:-1.89891
    36 |      |  1:-2.35325,  2: 2.35325
    37 |      |  1:-0.56613,  2:-2.84613
    38 |      |  1: 1.52348,  2: 2.28005
    39 |      |  1: 1.48193,  2:-1.48193
    40 |      |  1:-0.75293,  2: 1.81772
    41 |      |  1:-0.34825,  2:-1.75076
    42 |      |  1: 1.32843,  2:-0.26424
    43 |      |  1:-0.51196,  2:-0.76620
    44 |      |  1: 0.62519,  2: 0.62519
    45 |      |  1: 0.00000,  2:-0.51166
    46 |      |  1:-0.04211,  2: 0.21171
    47 |      |  1: 0.85996,  2: 4.32333
    48 |      |  1: 2.32244,  2: 0.96199
    49 |      |  1: 0.66084,  2: 1.59541
-------|------|---------------------------------------------------------------------------------------------------------------------
