SNNS network definition file V1.4-3D
generated at Sun Jun 27 19:11:01 2021

network name : testnet
source files :
no. of units : 19
no. of connections : 48
no. of unit types : 0
no. of site types : 0


learning function : Std_Backpropagation
update function   : Topological_Order


unit default section :

act      | bias     | st | subnet | layer | act func | out func
---------|----------|----|--------|-------|----------|------------
 1.00000 |  0.00000 | i  |      0 |     1 | acttest  | outtestfunc 
---------|----------|----|--------|-------|----------|------------


unit definition section :

no. | typeName | unitName | act      | bias     | st | position | act func     | out func     | sites
----|----------|----------|----------|----------|----|----------|--------------|--------------|-------
  1 |          |          |  1.00000 |  0.00000 | i  | 2,0,0    | Act_Logistic |              | 
  2 |          |          |  0.00000 |  0.00000 | i  | 2,1,0    | Act_Logistic | outtestfunc2 | 
  3 |          |          |  0.00000 |  0.00000 | i  | 2,2,0    |              | Out_Identity | 
  4 |          |          |  0.00000 |  0.00000 | i  | 2,3,0    | Act_Logistic | Out_Identity | 
  5 |          |          |  0.00000 |  0.00000 | i  | 2,4,0    | Act_Logistic | Out_Identity | 
  6 |          |          |  0.00000 |  0.00000 | i  | 2,5,0    | Act_Logistic | Out_Identity | 
  7 |          |          |  0.00000 |  0.00000 | i  | 2,6,0    | Act_Logistic | Out_Identity | 
  8 |          |          |  0.00000 |  0.00000 | i  | 2,7,0    | Act_Logistic | Out_Identity | 
  9 |          |          | -377138496.00000 | -91337457637610468950409216.00000 | h  | 5,2,0    |              | Out_Identity | 
 10 |          |          |  0.56277 | -100158371054747648.00000 | h  | 5,3,0    | Act_Logistic |              | 
 11 |          |          |  0.94665 | 3518928982638592.00000 | h  | 5,4,0    | Act_Logistic | outtestfunc2 | 
 12 |          |          |  1.00000 | -12.79374 | o  | 8,0,0    | Act_Logistic | Out_Identity | 
 13 |          |          |  0.00000 | -10.63348 | o  | 8,1,0    | Act_Logistic | Out_Identity | 
 14 |          |          |  1.00000 |  0.41363 | o  | 8,2,0    | Act_Logistic | Out_Identity | 
 15 |          |          |  1.00000 | -1.16548 | o  | 8,3,0    | Act_Logistic | Out_Identity | 
 16 |          |          |  0.00000 | -0.91670 | o  | 8,4,0    | Act_Logistic | Out_Identity | 
 17 |          |          | -377138496.00000 | -28446689387872256.00000 | o  | 8,5,0    |              | Out_Identity | 
 18 |          |          |  0.00000 | -11.74220 | o  | 8,6,0    | Act_Logistic | outtestfunc2 | 
 19 |          |          |  1.00000 |  3.79386 | o  | 8,7,0    | Act_Logistic |              | 
----|----------|----------|----------|----------|----|----------|--------------|--------------|-------


connection definition section :

target | site | source:weight
-------|------|---------------------------------------------------------------------------------------------------------------------
     9 |      |  1:-45668728818805234475204608.00000,  2: 4.62573,  3:-0.68700,  4:-1.52321,  5: 1.33382,  6:-1.30123,  7: 4.98091,  8:-6.44664
    10 |      |  1:-50079185527373824.00000,  2:-1.71152,  3: 1.10610,  4:-5.01310,  5:-4.16404,  6: 6.04615,  7: 3.85704,  8: 0.15831
    11 |      |  1:1759464491319296.00000,  2: 2.78732,  3:-6.03946,  4: 1.53899,  5:-1.99191,  6:-0.19827,  7:-0.29825,  8:-0.74440
    12 |      |  9:-2.94135, 10: 5.37458, 11:12.61303
    13 |      |  9: 7.80819, 10:-4.58847, 11: 6.74181
    14 |      |  9:-2.01689, 10: 5.07597, 11:-18.73861
    15 |      |  9:-8.42485, 10:-11.43411, 11: 7.60365
    16 |      |  9: 5.92497, 10:-8.21582, 11:-8.39611
    17 |      |  9:10728341581657837328662528.00000, 10:-8004518201524224.00000, 11:-8976323808591872.00000
    18 |      |  9: 9.53244, 10: 6.59638, 11:-2.33821
    19 |      |  9:-18.56372, 10:-0.32327, 11:-3.16292
-------|------|---------------------------------------------------------------------------------------------------------------------
