SNNS network definition file V1.4-3D
generated at Sun May  2 16:54:01 2021

network name : pyencoder
source files :
no. of units : 19
no. of connections : 48
no. of unit types : 0
no. of site types : 0


learning function : Std_Backpropagation
update function   : Topological_Order


unit default section :

act      | bias     | st | subnet | layer | act func     | out func
---------|----------|----|--------|-------|--------------|-------------
 1.00000 |  0.00000 | i  |      0 |     1 | Act_Logistic | Out_Identity 
---------|----------|----|--------|-------|--------------|-------------


unit definition section :

no. | typeName | unitName | act      | bias     | st | position | act func | out func | sites
----|----------|----------|----------|----------|----|----------|----------|----------|-------
  1 |          | Input_1  |  0.00000 | -0.66599 | i  | 1,0,0    |||
  2 |          | Input_2  |  0.00000 | -0.86122 | i  | 2,0,0    |||
  3 |          | Input_3  |  0.00000 |  0.92018 | i  | 3,0,0    |||
  4 |          | Input_4  |  0.00000 |  0.66955 | i  | 4,0,0    |||
  5 |          | Input_5  |  0.00000 |  0.44507 | i  | 5,0,0    |||
  6 |          | Input_6  |  1.00000 |  0.71517 | i  | 6,0,0    |||
  7 |          | Input_7  |  0.00000 |  0.18713 | i  | 7,0,0    |||
  8 |          | Input_8  |  0.00000 |  0.55965 | i  | 8,0,0    |||
  9 |          | Hidden_1 |  0.00514 |  0.10310 | h  | 4,2,0    |||
 10 |          | Hidden_2 |  0.10461 | -0.62233 | h  | 5,2,0    |||
 11 |          | Hidden_3 |  0.02043 | -0.00665 | h  | 6,2,0    |||
 12 |          | Output_1 |  0.00007 | -10.41023 | o  | 1,4,0    |||
 13 |          | Output_2 |  0.01706 | -2.68676 | o  | 2,4,0    |||
 14 |          | Output_3 |  0.00000 | -11.52805 | o  | 3,4,0    |||
 15 |          | Output_4 |  0.01238 | -5.23396 | o  | 4,4,0    |||
 16 |          | Output_5 |  0.00000 | -17.43197 | o  | 5,4,0    |||
 17 |          | Output_6 |  0.97835 |  4.87943 | o  | 6,4,0    |||
 18 |          | Output_7 |  0.01312 | -3.34280 | o  | 7,4,0    |||
 19 |          | Output_8 |  0.00002 | -11.61234 | o  | 8,4,0    |||
----|----------|----------|----------|----------|----|----------|----------|----------|-------


connection definition section :

target | site | source:weight
-------|------|---------------------------------------------------------------------------------------------------------------------
     9 |      |  8: 4.61576,  7:-2.36237,  6:-5.36910,  5: 4.58417,  4:-2.26105,  3: 4.87065,  2: 1.29952,  1:-5.62246
    10 |      |  8: 2.60208,  7:-4.74081,  6:-1.52473,  5: 5.91109,  4: 5.06152,  3:-3.37421,  2:-4.78364,  1: 2.85772
    11 |      |  8:-5.42454,  7: 3.41726,  6:-3.86371,  5: 4.86490,  4:-4.13041,  3: 3.62977,  2:-4.14633,  1: 3.85875
    12 |      | 11: 7.68137, 10: 7.47272,  9:-10.99786
    13 |      | 11:-10.07482, 10:-11.51100,  9: 8.34447
    14 |      | 11: 6.69120, 10:-8.70535,  9: 9.09795
    15 |      | 11:-8.69838, 10:10.27167,  9:-8.21219
    16 |      | 11: 6.68419, 10: 7.68151,  9: 6.77202
    17 |      | 11:-8.53255, 10:-7.98564,  9:-11.45676
    18 |      | 11: 8.44874, 10:-10.54547,  9:-9.11698
    19 |      | 11:-9.32288, 10: 6.68807,  9: 9.64089
-------|------|---------------------------------------------------------------------------------------------------------------------
