SNNS network definition file V1.4-3D
generated at Wed Apr 20 19:35:47 1994

network name : art1_letters
source files :
no. of units : 159
no. of connections : 2299
no. of unit types : 0
no. of site types : 6


learning function : ART1
update function   : ART1_Stable


site definition section :

 site name            | site function
----------------------|------------------
 Art1_Site_Rho_RI     | Site_WeightedSum
 Art1_Site_Inp_RI     | Site_WeightedSum
 Art1_Site_Inp_G1     | Site_at_least_1
 Art1_Site_Rec_G1     | Site_at_most_0
 Art1_Site_Rst_Signal | Site_at_least_2
 Art1_Site_Rst_Self   | Site_WeightedSum
----------------------|------------------


unit default section :

act      | bias     | st | subnet | layer | act func     | out func
---------|----------|----|--------|-------|--------------|-------------
 0.00000 |  0.00000 | h  |      0 |     1 | Act_Logistic | Out_Identity 
---------|----------|----|--------|-------|--------------|-------------


unit definition section :

no. | typeName | unitName | act      | bias     | st | position | act func        | out func | sites
----|----------|----------|----------|----------|----|----------|-----------------|----------|----------------------
  1 |          | inp1     |  0.00000 |  1.00000 | i  |  2, 5,-2 | Act_Identity    |          | 
  2 |          | inp2     |  0.00000 |  1.00000 | i  |  3, 5,-2 | Act_Identity    |          | 
  3 |          | inp3     |  0.00000 |  1.00000 | i  |  4, 5,-2 | Act_Identity    |          | 
  4 |          | inp4     |  0.00000 |  1.00000 | i  |  5, 5,-2 | Act_Identity    |          | 
  5 |          | inp5     |  0.00000 |  1.00000 | i  |  6, 5,-2 | Act_Identity    |          | 
  6 |          | inp6     |  0.00000 |  1.00000 | i  |  2, 6,-2 | Act_Identity    |          | 
  7 |          | inp7     |  0.00000 |  1.00000 | i  |  3, 6,-2 | Act_Identity    |          | 
  8 |          | inp8     |  0.00000 |  1.00000 | i  |  4, 6,-2 | Act_Identity    |          | 
  9 |          | inp9     |  0.00000 |  1.00000 | i  |  5, 6,-2 | Act_Identity    |          | 
 10 |          | inp10    |  0.00000 |  1.00000 | i  |  6, 6,-2 | Act_Identity    |          | 
 11 |          | inp11    |  0.00000 |  1.00000 | i  |  2, 7,-2 | Act_Identity    |          | 
 12 |          | inp12    |  0.00000 |  1.00000 | i  |  3, 7,-2 | Act_Identity    |          | 
 13 |          | inp13    |  0.00000 |  1.00000 | i  |  4, 7,-2 | Act_Identity    |          | 
 14 |          | inp14    |  0.00000 |  1.00000 | i  |  5, 7,-2 | Act_Identity    |          | 
 15 |          | inp15    |  0.00000 |  1.00000 | i  |  6, 7,-2 | Act_Identity    |          | 
 16 |          | inp16    |  0.00000 |  1.00000 | i  |  2, 8,-2 | Act_Identity    |          | 
 17 |          | inp17    |  0.00000 |  1.00000 | i  |  3, 8,-2 | Act_Identity    |          | 
 18 |          | inp18    |  0.00000 |  1.00000 | i  |  4, 8,-2 | Act_Identity    |          | 
 19 |          | inp19    |  0.00000 |  1.00000 | i  |  5, 8,-2 | Act_Identity    |          | 
 20 |          | inp20    |  0.00000 |  1.00000 | i  |  6, 8,-2 | Act_Identity    |          | 
 21 |          | inp21    |  0.00000 |  1.00000 | i  |  2, 9,-2 | Act_Identity    |          | 
 22 |          | inp22    |  0.00000 |  1.00000 | i  |  3, 9,-2 | Act_Identity    |          | 
 23 |          | inp23    |  0.00000 |  1.00000 | i  |  4, 9,-2 | Act_Identity    |          | 
 24 |          | inp24    |  0.00000 |  1.00000 | i  |  5, 9,-2 | Act_Identity    |          | 
 25 |          | inp25    |  0.00000 |  1.00000 | i  |  6, 9,-2 | Act_Identity    |          | 
 26 |          | inp26    |  0.00000 |  1.00000 | i  |  2,10,-2 | Act_Identity    |          | 
 27 |          | inp27    |  0.00000 |  1.00000 | i  |  3,10,-2 | Act_Identity    |          | 
 28 |          | inp28    |  0.00000 |  1.00000 | i  |  4,10,-2 | Act_Identity    |          | 
 29 |          | inp29    |  0.00000 |  1.00000 | i  |  5,10,-2 | Act_Identity    |          | 
 30 |          | inp30    |  0.00000 |  1.00000 | i  |  6,10,-2 | Act_Identity    |          | 
 31 |          | inp31    |  0.00000 |  1.00000 | i  |  2,11,-2 | Act_Identity    |          | 
 32 |          | inp32    |  0.00000 |  1.00000 | i  |  3,11,-2 | Act_Identity    |          | 
 33 |          | inp33    |  0.00000 |  1.00000 | i  |  4,11,-2 | Act_Identity    |          | 
 34 |          | inp34    |  0.00000 |  1.00000 | i  |  5,11,-2 | Act_Identity    |          | 
 35 |          | inp35    |  0.00000 |  1.00000 | i  |  6,11,-2 | Act_Identity    |          | 
 36 |          | cmp1     |  0.00000 |  1.00000 | h  |  8, 5, 3 | Act_at_least_2  |          | 
 37 |          | cmp2     |  0.00000 |  1.00000 | h  |  9, 5, 3 | Act_at_least_2  |          | 
 38 |          | cmp3     |  0.00000 |  1.00000 | h  | 10, 5, 3 | Act_at_least_2  |          | 
 39 |          | cmp4     |  0.00000 |  1.00000 | h  | 11, 5, 3 | Act_at_least_2  |          | 
 40 |          | cmp5     |  0.00000 |  1.00000 | h  | 12, 5, 3 | Act_at_least_2  |          | 
 41 |          | cmp6     |  0.00000 |  1.00000 | h  |  8, 6, 3 | Act_at_least_2  |          | 
 42 |          | cmp7     |  0.00000 |  1.00000 | h  |  9, 6, 3 | Act_at_least_2  |          | 
 43 |          | cmp8     |  0.00000 |  1.00000 | h  | 10, 6, 3 | Act_at_least_2  |          | 
 44 |          | cmp9     |  0.00000 |  1.00000 | h  | 11, 6, 3 | Act_at_least_2  |          | 
 45 |          | cmp10    |  0.00000 |  1.00000 | h  | 12, 6, 3 | Act_at_least_2  |          | 
 46 |          | cmp11    |  0.00000 |  1.00000 | h  |  8, 7, 3 | Act_at_least_2  |          | 
 47 |          | cmp12    |  0.00000 |  1.00000 | h  |  9, 7, 3 | Act_at_least_2  |          | 
 48 |          | cmp13    |  0.00000 |  1.00000 | h  | 10, 7, 3 | Act_at_least_2  |          | 
 49 |          | cmp14    |  0.00000 |  1.00000 | h  | 11, 7, 3 | Act_at_least_2  |          | 
 50 |          | cmp15    |  0.00000 |  1.00000 | h  | 12, 7, 3 | Act_at_least_2  |          | 
 51 |          | cmp16    |  0.00000 |  1.00000 | h  |  8, 8, 3 | Act_at_least_2  |          | 
 52 |          | cmp17    |  0.00000 |  1.00000 | h  |  9, 8, 3 | Act_at_least_2  |          | 
 53 |          | cmp18    |  0.00000 |  1.00000 | h  | 10, 8, 3 | Act_at_least_2  |          | 
 54 |          | cmp19    |  0.00000 |  1.00000 | h  | 11, 8, 3 | Act_at_least_2  |          | 
 55 |          | cmp20    |  0.00000 |  1.00000 | h  | 12, 8, 3 | Act_at_least_2  |          | 
 56 |          | cmp21    |  0.00000 |  1.00000 | h  |  8, 9, 3 | Act_at_least_2  |          | 
 57 |          | cmp22    |  0.00000 |  1.00000 | h  |  9, 9, 3 | Act_at_least_2  |          | 
 58 |          | cmp23    |  0.00000 |  1.00000 | h  | 10, 9, 3 | Act_at_least_2  |          | 
 59 |          | cmp24    |  0.00000 |  1.00000 | h  | 11, 9, 3 | Act_at_least_2  |          | 
 60 |          | cmp25    |  0.00000 |  1.00000 | h  | 12, 9, 3 | Act_at_least_2  |          | 
 61 |          | cmp26    |  0.00000 |  1.00000 | h  |  8,10, 3 | Act_at_least_2  |          | 
 62 |          | cmp27    |  0.00000 |  1.00000 | h  |  9,10, 3 | Act_at_least_2  |          | 
 63 |          | cmp28    |  0.00000 |  1.00000 | h  | 10,10, 3 | Act_at_least_2  |          | 
 64 |          | cmp29    |  0.00000 |  1.00000 | h  | 11,10, 3 | Act_at_least_2  |          | 
 65 |          | cmp30    |  0.00000 |  1.00000 | h  | 12,10, 3 | Act_at_least_2  |          | 
 66 |          | cmp31    |  0.00000 |  1.00000 | h  |  8,11, 3 | Act_at_least_2  |          | 
 67 |          | cmp32    |  0.00000 |  1.00000 | h  |  9,11, 3 | Act_at_least_2  |          | 
 68 |          | cmp33    |  0.00000 |  1.00000 | h  | 10,11, 3 | Act_at_least_2  |          | 
 69 |          | cmp34    |  0.00000 |  1.00000 | h  | 11,11, 3 | Act_at_least_2  |          | 
 70 |          | cmp35    |  0.00000 |  1.00000 | h  | 12,11, 3 | Act_at_least_2  |          | 
 71 |          | rec1     |  0.00000 |  1.00000 | s  | 16, 5,11 | Act_Identity    |          | 
 72 |          | rec2     |  0.00000 |  1.00000 | s  | 17, 5,11 | Act_Identity    |          | 
 73 |          | rec3     |  0.00000 |  1.00000 | s  | 18, 5,11 | Act_Identity    |          | 
 74 |          | rec4     |  0.00000 |  1.00000 | s  | 19, 5,11 | Act_Identity    |          | 
 75 |          | rec5     |  0.00000 |  1.00000 | s  | 16, 6,11 | Act_Identity    |          | 
 76 |          | rec6     |  0.00000 |  1.00000 | s  | 17, 6,11 | Act_Identity    |          | 
 77 |          | rec7     |  0.00000 |  1.00000 | s  | 18, 6,11 | Act_Identity    |          | 
 78 |          | rec8     |  0.00000 |  1.00000 | s  | 19, 6,11 | Act_Identity    |          | 
 79 |          | rec9     |  0.00000 |  1.00000 | s  | 16, 7,11 | Act_Identity    |          | 
 80 |          | rec10    |  0.00000 |  1.00000 | s  | 17, 7,11 | Act_Identity    |          | 
 81 |          | rec11    |  0.00000 |  1.00000 | s  | 18, 7,11 | Act_Identity    |          | 
 82 |          | rec12    |  0.00000 |  1.00000 | s  | 19, 7,11 | Act_Identity    |          | 
 83 |          | rec13    |  0.00000 |  1.00000 | s  | 16, 8,11 | Act_Identity    |          | 
 84 |          | rec14    |  0.00000 |  1.00000 | s  | 17, 8,11 | Act_Identity    |          | 
 85 |          | rec15    |  0.00000 |  1.00000 | s  | 18, 8,11 | Act_Identity    |          | 
 86 |          | rec16    |  0.00000 |  1.00000 | s  | 19, 8,11 | Act_Identity    |          | 
 87 |          | rec17    |  0.00000 |  1.00000 | s  | 16, 9,11 | Act_Identity    |          | 
 88 |          | rec18    |  0.00000 |  1.00000 | s  | 17, 9,11 | Act_Identity    |          | 
 89 |          | rec19    |  0.00000 |  1.00000 | s  | 18, 9,11 | Act_Identity    |          | 
 90 |          | rec20    |  0.00000 |  1.00000 | s  | 19, 9,11 | Act_Identity    |          | 
 91 |          | rec21    |  0.00000 |  1.00000 | s  | 16,10,11 | Act_Identity    |          | 
 92 |          | rec22    |  0.00000 |  1.00000 | s  | 17,10,11 | Act_Identity    |          | 
 93 |          | rec23    |  0.00000 |  1.00000 | s  | 18,10,11 | Act_Identity    |          | 
 94 |          | rec24    |  0.00000 |  1.00000 | s  | 19,10,11 | Act_Identity    |          | 
 95 |          | rec25    |  0.00000 |  1.00000 | s  | 16,11,11 | Act_Identity    |          | 
 96 |          | rec26    |  0.00000 |  1.00000 | s  | 17,11,11 | Act_Identity    |          | 
 97 |          | del1     |  0.00000 |  1.00000 | h  | 21, 5,16 | Act_at_least_2  |          | 
 98 |          | del2     |  0.00000 |  1.00000 | h  | 22, 5,16 | Act_at_least_2  |          | 
 99 |          | del3     |  0.00000 |  1.00000 | h  | 23, 5,16 | Act_at_least_2  |          | 
100 |          | del4     |  0.00000 |  1.00000 | h  | 24, 5,16 | Act_at_least_2  |          | 
101 |          | del5     |  0.00000 |  1.00000 | h  | 21, 6,16 | Act_at_least_2  |          | 
102 |          | del6     |  0.00000 |  1.00000 | h  | 22, 6,16 | Act_at_least_2  |          | 
103 |          | del7     |  0.00000 |  1.00000 | h  | 23, 6,16 | Act_at_least_2  |          | 
104 |          | del8     |  0.00000 |  1.00000 | h  | 24, 6,16 | Act_at_least_2  |          | 
105 |          | del9     |  0.00000 |  1.00000 | h  | 21, 7,16 | Act_at_least_2  |          | 
106 |          | del10    |  0.00000 |  1.00000 | h  | 22, 7,16 | Act_at_least_2  |          | 
107 |          | del11    |  0.00000 |  1.00000 | h  | 23, 7,16 | Act_at_least_2  |          | 
108 |          | del12    |  0.00000 |  1.00000 | h  | 24, 7,16 | Act_at_least_2  |          | 
109 |          | del13    |  0.00000 |  1.00000 | h  | 21, 8,16 | Act_at_least_2  |          | 
110 |          | del14    |  0.00000 |  1.00000 | h  | 22, 8,16 | Act_at_least_2  |          | 
111 |          | del15    |  0.00000 |  1.00000 | h  | 23, 8,16 | Act_at_least_2  |          | 
112 |          | del16    |  0.00000 |  1.00000 | h  | 24, 8,16 | Act_at_least_2  |          | 
113 |          | del17    |  0.00000 |  1.00000 | h  | 21, 9,16 | Act_at_least_2  |          | 
114 |          | del18    |  0.00000 |  1.00000 | h  | 22, 9,16 | Act_at_least_2  |          | 
115 |          | del19    |  0.00000 |  1.00000 | h  | 23, 9,16 | Act_at_least_2  |          | 
116 |          | del20    |  0.00000 |  1.00000 | h  | 24, 9,16 | Act_at_least_2  |          | 
117 |          | del21    |  0.00000 |  1.00000 | h  | 21,10,16 | Act_at_least_2  |          | 
118 |          | del22    |  0.00000 |  1.00000 | h  | 22,10,16 | Act_at_least_2  |          | 
119 |          | del23    |  0.00000 |  1.00000 | h  | 23,10,16 | Act_at_least_2  |          | 
120 |          | del24    |  0.00000 |  1.00000 | h  | 24,10,16 | Act_at_least_2  |          | 
121 |          | del25    |  0.00000 |  1.00000 | h  | 21,11,16 | Act_at_least_2  |          | 
122 |          | del26    |  0.00000 |  1.00000 | h  | 22,11,16 | Act_at_least_2  |          | 
123 |          | d1       |  0.00000 |  1.00000 | h  | 21, 2,16 | Act_at_least_1  |          | 
124 |          | d2       |  0.00000 |  1.00000 | h  | 26, 2,21 | Act_at_least_1  |          | 
125 |          | d3       |  0.00000 |  1.00000 | h  | 32, 2,26 | Act_at_least_1  |          | 
126 |          | rst1     |  0.00000 |  1.00000 | h  | 26, 5,21 | Act_at_least_1  |          |  Art1_Site_Rst_Signal,
                                                                                               Art1_Site_Rst_Self
127 |          | rst2     |  0.00000 |  1.00000 | h  | 27, 5,21 | Act_at_least_1  |          |  Art1_Site_Rst_Signal,
                                                                                               Art1_Site_Rst_Self
128 |          | rst3     |  0.00000 |  1.00000 | h  | 28, 5,21 | Act_at_least_1  |          |  Art1_Site_Rst_Signal,
                                                                                               Art1_Site_Rst_Self
129 |          | rst4     |  0.00000 |  1.00000 | h  | 29, 5,21 | Act_at_least_1  |          |  Art1_Site_Rst_Signal,
                                                                                               Art1_Site_Rst_Self
130 |          | rst5     |  0.00000 |  1.00000 | h  | 26, 6,21 | Act_at_least_1  |          |  Art1_Site_Rst_Signal,
                                                                                               Art1_Site_Rst_Self
131 |          | rst6     |  0.00000 |  1.00000 | h  | 27, 6,21 | Act_at_least_1  |          |  Art1_Site_Rst_Signal,
                                                                                               Art1_Site_Rst_Self
132 |          | rst7     |  0.00000 |  1.00000 | h  | 28, 6,21 | Act_at_least_1  |          |  Art1_Site_Rst_Signal,
                                                                                               Art1_Site_Rst_Self
133 |          | rst8     |  0.00000 |  1.00000 | h  | 29, 6,21 | Act_at_least_1  |          |  Art1_Site_Rst_Signal,
                                                                                               Art1_Site_Rst_Self
134 |          | rst9     |  0.00000 |  1.00000 | h  | 26, 7,21 | Act_at_least_1  |          |  Art1_Site_Rst_Signal,
                                                                                               Art1_Site_Rst_Self
135 |          | rst10    |  0.00000 |  1.00000 | h  | 27, 7,21 | Act_at_least_1  |          |  Art1_Site_Rst_Signal,
                                                                                               Art1_Site_Rst_Self
136 |          | rst11    |  0.00000 |  1.00000 | h  | 28, 7,21 | Act_at_least_1  |          |  Art1_Site_Rst_Signal,
                                                                                               Art1_Site_Rst_Self
137 |          | rst12    |  0.00000 |  1.00000 | h  | 29, 7,21 | Act_at_least_1  |          |  Art1_Site_Rst_Signal,
                                                                                               Art1_Site_Rst_Self
138 |          | rst13    |  0.00000 |  1.00000 | h  | 26, 8,21 | Act_at_least_1  |          |  Art1_Site_Rst_Signal,
                                                                                               Art1_Site_Rst_Self
139 |          | rst14    |  0.00000 |  1.00000 | h  | 27, 8,21 | Act_at_least_1  |          |  Art1_Site_Rst_Signal,
                                                                                               Art1_Site_Rst_Self
140 |          | rst15    |  0.00000 |  1.00000 | h  | 28, 8,21 | Act_at_least_1  |          |  Art1_Site_Rst_Signal,
                                                                                               Art1_Site_Rst_Self
141 |          | rst16    |  0.00000 |  1.00000 | h  | 29, 8,21 | Act_at_least_1  |          |  Art1_Site_Rst_Signal,
                                                                                               Art1_Site_Rst_Self
142 |          | rst17    |  0.00000 |  1.00000 | h  | 26, 9,21 | Act_at_least_1  |          |  Art1_Site_Rst_Signal,
                                                                                               Art1_Site_Rst_Self
143 |          | rst18    |  0.00000 |  1.00000 | h  | 27, 9,21 | Act_at_least_1  |          |  Art1_Site_Rst_Signal,
                                                                                               Art1_Site_Rst_Self
144 |          | rst19    |  0.00000 |  1.00000 | h  | 28, 9,21 | Act_at_least_1  |          |  Art1_Site_Rst_Signal,
                                                                                               Art1_Site_Rst_Self
145 |          | rst20    |  0.00000 |  1.00000 | h  | 29, 9,21 | Act_at_least_1  |          |  Art1_Site_Rst_Signal,
                                                                                               Art1_Site_Rst_Self
146 |          | rst21    |  0.00000 |  1.00000 | h  | 26,10,21 | Act_at_least_1  |          |  Art1_Site_Rst_Signal,
                                                                                               Art1_Site_Rst_Self
147 |          | rst22    |  0.00000 |  1.00000 | h  | 27,10,21 | Act_at_least_1  |          |  Art1_Site_Rst_Signal,
                                                                                               Art1_Site_Rst_Self
148 |          | rst23    |  0.00000 |  1.00000 | h  | 28,10,21 | Act_at_least_1  |          |  Art1_Site_Rst_Signal,
                                                                                               Art1_Site_Rst_Self
149 |          | rst24    |  0.00000 |  1.00000 | h  | 29,10,21 | Act_at_least_1  |          |  Art1_Site_Rst_Signal,
                                                                                               Art1_Site_Rst_Self
150 |          | rst25    |  0.00000 |  1.00000 | h  | 26,11,21 | Act_at_least_1  |          |  Art1_Site_Rst_Signal,
                                                                                               Art1_Site_Rst_Self
151 |          | rst26    |  0.00000 |  1.00000 | h  | 27,11,21 | Act_at_least_1  |          |  Art1_Site_Rst_Signal,
                                                                                               Art1_Site_Rst_Self
152 |          | g1       |  0.00000 |  1.00000 | h  | 10, 2, 3 | Act_at_least_2  |          |  Art1_Site_Rec_G1,
                                                                                               Art1_Site_Inp_G1
153 |          | ri       |  0.00000 |  1.00000 | h  |  2,14,-2 | Act_Product     |          |  Art1_Site_Rho_RI,
                                                                                               Art1_Site_Inp_RI
154 |          | rc       |  0.00000 |  1.00000 | h  |  8,14, 3 | Act_Identity    |          | 
155 |          | rg       |  0.00000 |  1.00000 | h  | 16,14,11 | Act_less_than_0 |          | 
156 |          | cl       |  0.00000 |  1.00000 | h  | 32, 7,26 | Act_at_least_1  |          | 
157 |          | nc       |  0.00000 |  1.00000 | h  | 32, 9,26 | Act_ART1_NC     |          | 
158 |          | rho      |  0.00000 |  1.00000 | h  |  2,16,-2 | Act_Identity    |          | 
159 |          | g2       |  0.00000 |  1.00000 | h  | 16, 2,11 | Act_at_most_0   |          | 
----|----------|----------|----------|----------|----|----------|-----------------|----------|----------------------


connection definition section :

target | site                 | source:weight
-------|----------------------|--------------------------------------------------------------------------------------------------
    36 |                      | 152: 1.00000, 122: 1.00000, 121: 1.00000, 120: 1.00000, 119: 1.00000, 118: 1.00000, 117: 1.00000,
                                116: 1.00000, 115: 1.00000, 114: 1.00000, 113: 1.00000, 112: 1.00000, 111: 1.00000, 110: 1.00000,
                                109: 1.00000, 108: 1.00000, 107: 1.00000, 106: 1.00000, 105: 1.00000, 104: 1.00000, 103: 1.00000,
                                102: 1.00000, 101: 1.00000, 100: 1.00000,  99: 1.00000,  98: 1.00000,  97: 1.00000,   1: 1.00000
    37 |                      | 152: 1.00000, 122: 1.00000, 121: 1.00000, 120: 1.00000, 119: 1.00000, 118: 1.00000, 117: 1.00000,
                                116: 1.00000, 115: 1.00000, 114: 1.00000, 113: 1.00000, 112: 1.00000, 111: 1.00000, 110: 1.00000,
                                109: 1.00000, 108: 1.00000, 107: 1.00000, 106: 1.00000, 105: 1.00000, 104: 1.00000, 103: 1.00000,
                                102: 1.00000, 101: 1.00000, 100: 1.00000,  99: 1.00000,  98: 1.00000,  97: 1.00000,   2: 1.00000
    38 |                      | 152: 1.00000, 122: 1.00000, 121: 1.00000, 120: 1.00000, 119: 1.00000, 118: 1.00000, 117: 1.00000,
                                116: 1.00000, 115: 1.00000, 114: 1.00000, 113: 1.00000, 112: 1.00000, 111: 1.00000, 110: 1.00000,
                                109: 1.00000, 108: 1.00000, 107: 1.00000, 106: 1.00000, 105: 1.00000, 104: 1.00000, 103: 1.00000,
                                102: 1.00000, 101: 1.00000, 100: 1.00000,  99: 1.00000,  98: 1.00000,  97: 1.00000,   3: 1.00000
    39 |                      | 152: 1.00000, 122: 1.00000, 121: 1.00000, 120: 1.00000, 119: 1.00000, 118: 1.00000, 117: 1.00000,
                                116: 1.00000, 115: 1.00000, 114: 1.00000, 113: 1.00000, 112: 1.00000, 111: 1.00000, 110: 1.00000,
                                109: 1.00000, 108: 1.00000, 107: 1.00000, 106: 1.00000, 105: 1.00000, 104: 1.00000, 103: 1.00000,
                                102: 1.00000, 101: 1.00000, 100: 1.00000,  99: 1.00000,  98: 1.00000,  97: 1.00000,   4: 1.00000
    40 |                      | 152: 1.00000, 122: 1.00000, 121: 1.00000, 120: 1.00000, 119: 1.00000, 118: 1.00000, 117: 1.00000,
                                116: 1.00000, 115: 1.00000, 114: 1.00000, 113: 1.00000, 112: 1.00000, 111: 1.00000, 110: 1.00000,
                                109: 1.00000, 108: 1.00000, 107: 1.00000, 106: 1.00000, 105: 1.00000, 104: 1.00000, 103: 1.00000,
                                102: 1.00000, 101: 1.00000, 100: 1.00000,  99: 1.00000,  98: 1.00000,  97: 1.00000,   5: 1.00000
    41 |                      | 152: 1.00000, 122: 1.00000, 121: 1.00000, 120: 1.00000, 119: 1.00000, 118: 1.00000, 117: 1.00000,
                                116: 1.00000, 115: 1.00000, 114: 1.00000, 113: 1.00000, 112: 1.00000, 111: 1.00000, 110: 1.00000,
                                109: 1.00000, 108: 1.00000, 107: 1.00000, 106: 1.00000, 105: 1.00000, 104: 1.00000, 103: 1.00000,
                                102: 1.00000, 101: 1.00000, 100: 1.00000,  99: 1.00000,  98: 1.00000,  97: 1.00000,   6: 1.00000
    42 |                      | 152: 1.00000, 122: 1.00000, 121: 1.00000, 120: 1.00000, 119: 1.00000, 118: 1.00000, 117: 1.00000,
                                116: 1.00000, 115: 1.00000, 114: 1.00000, 113: 1.00000, 112: 1.00000, 111: 1.00000, 110: 1.00000,
                                109: 1.00000, 108: 1.00000, 107: 1.00000, 106: 1.00000, 105: 1.00000, 104: 1.00000, 103: 1.00000,
                                102: 1.00000, 101: 1.00000, 100: 1.00000,  99: 1.00000,  98: 1.00000,  97: 1.00000,   7: 1.00000
    43 |                      | 152: 1.00000, 122: 1.00000, 121: 1.00000, 120: 1.00000, 119: 1.00000, 118: 1.00000, 117: 1.00000,
                                116: 1.00000, 115: 1.00000, 114: 1.00000, 113: 1.00000, 112: 1.00000, 111: 1.00000, 110: 1.00000,
                                109: 1.00000, 108: 1.00000, 107: 1.00000, 106: 1.00000, 105: 1.00000, 104: 1.00000, 103: 1.00000,
                                102: 1.00000, 101: 1.00000, 100: 1.00000,  99: 1.00000,  98: 1.00000,  97: 1.00000,   8: 1.00000
    44 |                      | 152: 1.00000, 122: 1.00000, 121: 1.00000, 120: 1.00000, 119: 1.00000, 118: 1.00000, 117: 1.00000,
                                116: 1.00000, 115: 1.00000, 114: 1.00000, 113: 1.00000, 112: 1.00000, 111: 1.00000, 110: 1.00000,
                                109: 1.00000, 108: 1.00000, 107: 1.00000, 106: 1.00000, 105: 1.00000, 104: 1.00000, 103: 1.00000,
                                102: 1.00000, 101: 1.00000, 100: 1.00000,  99: 1.00000,  98: 1.00000,  97: 1.00000,   9: 1.00000
    45 |                      | 152: 1.00000, 122: 1.00000, 121: 1.00000, 120: 1.00000, 119: 1.00000, 118: 1.00000, 117: 1.00000,
                                116: 1.00000, 115: 1.00000, 114: 1.00000, 113: 1.00000, 112: 1.00000, 111: 1.00000, 110: 1.00000,
                                109: 1.00000, 108: 1.00000, 107: 1.00000, 106: 1.00000, 105: 1.00000, 104: 1.00000, 103: 1.00000,
                                102: 1.00000, 101: 1.00000, 100: 1.00000,  99: 1.00000,  98: 1.00000,  97: 1.00000,  10: 1.00000
    46 |                      | 152: 1.00000, 122: 1.00000, 121: 1.00000, 120: 1.00000, 119: 1.00000, 118: 1.00000, 117: 1.00000,
                                116: 1.00000, 115: 1.00000, 114: 1.00000, 113: 1.00000, 112: 1.00000, 111: 1.00000, 110: 1.00000,
                                109: 1.00000, 108: 1.00000, 107: 1.00000, 106: 1.00000, 105: 1.00000, 104: 1.00000, 103: 1.00000,
                                102: 1.00000, 101: 1.00000, 100: 1.00000,  99: 1.00000,  98: 1.00000,  97: 1.00000,  11: 1.00000
    47 |                      | 152: 1.00000, 122: 1.00000, 121: 1.00000, 120: 1.00000, 119: 1.00000, 118: 1.00000, 117: 1.00000,
                                116: 1.00000, 115: 1.00000, 114: 1.00000, 113: 1.00000, 112: 1.00000, 111: 1.00000, 110: 1.00000,
                                109: 1.00000, 108: 1.00000, 107: 1.00000, 106: 1.00000, 105: 1.00000, 104: 1.00000, 103: 1.00000,
                                102: 1.00000, 101: 1.00000, 100: 1.00000,  99: 1.00000,  98: 1.00000,  97: 1.00000,  12: 1.00000
    48 |                      | 152: 1.00000, 122: 1.00000, 121: 1.00000, 120: 1.00000, 119: 1.00000, 118: 1.00000, 117: 1.00000,
                                116: 1.00000, 115: 1.00000, 114: 1.00000, 113: 1.00000, 112: 1.00000, 111: 1.00000, 110: 1.00000,
                                109: 1.00000, 108: 1.00000, 107: 1.00000, 106: 1.00000, 105: 1.00000, 104: 1.00000, 103: 1.00000,
                                102: 1.00000, 101: 1.00000, 100: 1.00000,  99: 1.00000,  98: 1.00000,  97: 1.00000,  13: 1.00000
    49 |                      | 152: 1.00000, 122: 1.00000, 121: 1.00000, 120: 1.00000, 119: 1.00000, 118: 1.00000, 117: 1.00000,
                                116: 1.00000, 115: 1.00000, 114: 1.00000, 113: 1.00000, 112: 1.00000, 111: 1.00000, 110: 1.00000,
                                109: 1.00000, 108: 1.00000, 107: 1.00000, 106: 1.00000, 105: 1.00000, 104: 1.00000, 103: 1.00000,
                                102: 1.00000, 101: 1.00000, 100: 1.00000,  99: 1.00000,  98: 1.00000,  97: 1.00000,  14: 1.00000
    50 |                      | 152: 1.00000, 122: 1.00000, 121: 1.00000, 120: 1.00000, 119: 1.00000, 118: 1.00000, 117: 1.00000,
                                116: 1.00000, 115: 1.00000, 114: 1.00000, 113: 1.00000, 112: 1.00000, 111: 1.00000, 110: 1.00000,
                                109: 1.00000, 108: 1.00000, 107: 1.00000, 106: 1.00000, 105: 1.00000, 104: 1.00000, 103: 1.00000,
                                102: 1.00000, 101: 1.00000, 100: 1.00000,  99: 1.00000,  98: 1.00000,  97: 1.00000,  15: 1.00000
    51 |                      | 152: 1.00000, 122: 1.00000, 121: 1.00000, 120: 1.00000, 119: 1.00000, 118: 1.00000, 117: 1.00000,
                                116: 1.00000, 115: 1.00000, 114: 1.00000, 113: 1.00000, 112: 1.00000, 111: 1.00000, 110: 1.00000,
                                109: 1.00000, 108: 1.00000, 107: 1.00000, 106: 1.00000, 105: 1.00000, 104: 1.00000, 103: 1.00000,
                                102: 1.00000, 101: 1.00000, 100: 1.00000,  99: 1.00000,  98: 1.00000,  97: 1.00000,  16: 1.00000
    52 |                      | 152: 1.00000, 122: 1.00000, 121: 1.00000, 120: 1.00000, 119: 1.00000, 118: 1.00000, 117: 1.00000,
                                116: 1.00000, 115: 1.00000, 114: 1.00000, 113: 1.00000, 112: 1.00000, 111: 1.00000, 110: 1.00000,
                                109: 1.00000, 108: 1.00000, 107: 1.00000, 106: 1.00000, 105: 1.00000, 104: 1.00000, 103: 1.00000,
                                102: 1.00000, 101: 1.00000, 100: 1.00000,  99: 1.00000,  98: 1.00000,  97: 1.00000,  17: 1.00000
    53 |                      | 152: 1.00000, 122: 1.00000, 121: 1.00000, 120: 1.00000, 119: 1.00000, 118: 1.00000, 117: 1.00000,
                                116: 1.00000, 115: 1.00000, 114: 1.00000, 113: 1.00000, 112: 1.00000, 111: 1.00000, 110: 1.00000,
                                109: 1.00000, 108: 1.00000, 107: 1.00000, 106: 1.00000, 105: 1.00000, 104: 1.00000, 103: 1.00000,
                                102: 1.00000, 101: 1.00000, 100: 1.00000,  99: 1.00000,  98: 1.00000,  97: 1.00000,  18: 1.00000
    54 |                      | 152: 1.00000, 122: 1.00000, 121: 1.00000, 120: 1.00000, 119: 1.00000, 118: 1.00000, 117: 1.00000,
                                116: 1.00000, 115: 1.00000, 114: 1.00000, 113: 1.00000, 112: 1.00000, 111: 1.00000, 110: 1.00000,
                                109: 1.00000, 108: 1.00000, 107: 1.00000, 106: 1.00000, 105: 1.00000, 104: 1.00000, 103: 1.00000,
                                102: 1.00000, 101: 1.00000, 100: 1.00000,  99: 1.00000,  98: 1.00000,  97: 1.00000,  19: 1.00000
    55 |                      | 152: 1.00000, 122: 1.00000, 121: 1.00000, 120: 1.00000, 119: 1.00000, 118: 1.00000, 117: 1.00000,
                                116: 1.00000, 115: 1.00000, 114: 1.00000, 113: 1.00000, 112: 1.00000, 111: 1.00000, 110: 1.00000,
                                109: 1.00000, 108: 1.00000, 107: 1.00000, 106: 1.00000, 105: 1.00000, 104: 1.00000, 103: 1.00000,
                                102: 1.00000, 101: 1.00000, 100: 1.00000,  99: 1.00000,  98: 1.00000,  97: 1.00000,  20: 1.00000
    56 |                      | 152: 1.00000, 122: 1.00000, 121: 1.00000, 120: 1.00000, 119: 1.00000, 118: 1.00000, 117: 1.00000,
                                116: 1.00000, 115: 1.00000, 114: 1.00000, 113: 1.00000, 112: 1.00000, 111: 1.00000, 110: 1.00000,
                                109: 1.00000, 108: 1.00000, 107: 1.00000, 106: 1.00000, 105: 1.00000, 104: 1.00000, 103: 1.00000,
                                102: 1.00000, 101: 1.00000, 100: 1.00000,  99: 1.00000,  98: 1.00000,  97: 1.00000,  21: 1.00000
    57 |                      | 152: 1.00000, 122: 1.00000, 121: 1.00000, 120: 1.00000, 119: 1.00000, 118: 1.00000, 117: 1.00000,
                                116: 1.00000, 115: 1.00000, 114: 1.00000, 113: 1.00000, 112: 1.00000, 111: 1.00000, 110: 1.00000,
                                109: 1.00000, 108: 1.00000, 107: 1.00000, 106: 1.00000, 105: 1.00000, 104: 1.00000, 103: 1.00000,
                                102: 1.00000, 101: 1.00000, 100: 1.00000,  99: 1.00000,  98: 1.00000,  97: 1.00000,  22: 1.00000
    58 |                      | 152: 1.00000, 122: 1.00000, 121: 1.00000, 120: 1.00000, 119: 1.00000, 118: 1.00000, 117: 1.00000,
                                116: 1.00000, 115: 1.00000, 114: 1.00000, 113: 1.00000, 112: 1.00000, 111: 1.00000, 110: 1.00000,
                                109: 1.00000, 108: 1.00000, 107: 1.00000, 106: 1.00000, 105: 1.00000, 104: 1.00000, 103: 1.00000,
                                102: 1.00000, 101: 1.00000, 100: 1.00000,  99: 1.00000,  98: 1.00000,  97: 1.00000,  23: 1.00000
    59 |                      | 152: 1.00000, 122: 1.00000, 121: 1.00000, 120: 1.00000, 119: 1.00000, 118: 1.00000, 117: 1.00000,
                                116: 1.00000, 115: 1.00000, 114: 1.00000, 113: 1.00000, 112: 1.00000, 111: 1.00000, 110: 1.00000,
                                109: 1.00000, 108: 1.00000, 107: 1.00000, 106: 1.00000, 105: 1.00000, 104: 1.00000, 103: 1.00000,
                                102: 1.00000, 101: 1.00000, 100: 1.00000,  99: 1.00000,  98: 1.00000,  97: 1.00000,  24: 1.00000
    60 |                      | 152: 1.00000, 122: 1.00000, 121: 1.00000, 120: 1.00000, 119: 1.00000, 118: 1.00000, 117: 1.00000,
                                116: 1.00000, 115: 1.00000, 114: 1.00000, 113: 1.00000, 112: 1.00000, 111: 1.00000, 110: 1.00000,
                                109: 1.00000, 108: 1.00000, 107: 1.00000, 106: 1.00000, 105: 1.00000, 104: 1.00000, 103: 1.00000,
                                102: 1.00000, 101: 1.00000, 100: 1.00000,  99: 1.00000,  98: 1.00000,  97: 1.00000,  25: 1.00000
    61 |                      | 152: 1.00000, 122: 1.00000, 121: 1.00000, 120: 1.00000, 119: 1.00000, 118: 1.00000, 117: 1.00000,
                                116: 1.00000, 115: 1.00000, 114: 1.00000, 113: 1.00000, 112: 1.00000, 111: 1.00000, 110: 1.00000,
                                109: 1.00000, 108: 1.00000, 107: 1.00000, 106: 1.00000, 105: 1.00000, 104: 1.00000, 103: 1.00000,
                                102: 1.00000, 101: 1.00000, 100: 1.00000,  99: 1.00000,  98: 1.00000,  97: 1.00000,  26: 1.00000
    62 |                      | 152: 1.00000, 122: 1.00000, 121: 1.00000, 120: 1.00000, 119: 1.00000, 118: 1.00000, 117: 1.00000,
                                116: 1.00000, 115: 1.00000, 114: 1.00000, 113: 1.00000, 112: 1.00000, 111: 1.00000, 110: 1.00000,
                                109: 1.00000, 108: 1.00000, 107: 1.00000, 106: 1.00000, 105: 1.00000, 104: 1.00000, 103: 1.00000,
                                102: 1.00000, 101: 1.00000, 100: 1.00000,  99: 1.00000,  98: 1.00000,  97: 1.00000,  27: 1.00000
    63 |                      | 152: 1.00000, 122: 1.00000, 121: 1.00000, 120: 1.00000, 119: 1.00000, 118: 1.00000, 117: 1.00000,
                                116: 1.00000, 115: 1.00000, 114: 1.00000, 113: 1.00000, 112: 1.00000, 111: 1.00000, 110: 1.00000,
                                109: 1.00000, 108: 1.00000, 107: 1.00000, 106: 1.00000, 105: 1.00000, 104: 1.00000, 103: 1.00000,
                                102: 1.00000, 101: 1.00000, 100: 1.00000,  99: 1.00000,  98: 1.00000,  97: 1.00000,  28: 1.00000
    64 |                      | 152: 1.00000, 122: 1.00000, 121: 1.00000, 120: 1.00000, 119: 1.00000, 118: 1.00000, 117: 1.00000,
                                116: 1.00000, 115: 1.00000, 114: 1.00000, 113: 1.00000, 112: 1.00000, 111: 1.00000, 110: 1.00000,
                                109: 1.00000, 108: 1.00000, 107: 1.00000, 106: 1.00000, 105: 1.00000, 104: 1.00000, 103: 1.00000,
                                102: 1.00000, 101: 1.00000, 100: 1.00000,  99: 1.00000,  98: 1.00000,  97: 1.00000,  29: 1.00000
    65 |                      | 152: 1.00000, 122: 1.00000, 121: 1.00000, 120: 1.00000, 119: 1.00000, 118: 1.00000, 117: 1.00000,
                                116: 1.00000, 115: 1.00000, 114: 1.00000, 113: 1.00000, 112: 1.00000, 111: 1.00000, 110: 1.00000,
                                109: 1.00000, 108: 1.00000, 107: 1.00000, 106: 1.00000, 105: 1.00000, 104: 1.00000, 103: 1.00000,
                                102: 1.00000, 101: 1.00000, 100: 1.00000,  99: 1.00000,  98: 1.00000,  97: 1.00000,  30: 1.00000
    66 |                      | 152: 1.00000, 122: 1.00000, 121: 1.00000, 120: 1.00000, 119: 1.00000, 118: 1.00000, 117: 1.00000,
                                116: 1.00000, 115: 1.00000, 114: 1.00000, 113: 1.00000, 112: 1.00000, 111: 1.00000, 110: 1.00000,
                                109: 1.00000, 108: 1.00000, 107: 1.00000, 106: 1.00000, 105: 1.00000, 104: 1.00000, 103: 1.00000,
                                102: 1.00000, 101: 1.00000, 100: 1.00000,  99: 1.00000,  98: 1.00000,  97: 1.00000,  31: 1.00000
    67 |                      | 152: 1.00000, 122: 1.00000, 121: 1.00000, 120: 1.00000, 119: 1.00000, 118: 1.00000, 117: 1.00000,
                                116: 1.00000, 115: 1.00000, 114: 1.00000, 113: 1.00000, 112: 1.00000, 111: 1.00000, 110: 1.00000,
                                109: 1.00000, 108: 1.00000, 107: 1.00000, 106: 1.00000, 105: 1.00000, 104: 1.00000, 103: 1.00000,
                                102: 1.00000, 101: 1.00000, 100: 1.00000,  99: 1.00000,  98: 1.00000,  97: 1.00000,  32: 1.00000
    68 |                      | 152: 1.00000, 122: 1.00000, 121: 1.00000, 120: 1.00000, 119: 1.00000, 118: 1.00000, 117: 1.00000,
                                116: 1.00000, 115: 1.00000, 114: 1.00000, 113: 1.00000, 112: 1.00000, 111: 1.00000, 110: 1.00000,
                                109: 1.00000, 108: 1.00000, 107: 1.00000, 106: 1.00000, 105: 1.00000, 104: 1.00000, 103: 1.00000,
                                102: 1.00000, 101: 1.00000, 100: 1.00000,  99: 1.00000,  98: 1.00000,  97: 1.00000,  33: 1.00000
    69 |                      | 152: 1.00000, 122: 1.00000, 121: 1.00000, 120: 1.00000, 119: 1.00000, 118: 1.00000, 117: 1.00000,
                                116: 1.00000, 115: 1.00000, 114: 1.00000, 113: 1.00000, 112: 1.00000, 111: 1.00000, 110: 1.00000,
                                109: 1.00000, 108: 1.00000, 107: 1.00000, 106: 1.00000, 105: 1.00000, 104: 1.00000, 103: 1.00000,
                                102: 1.00000, 101: 1.00000, 100: 1.00000,  99: 1.00000,  98: 1.00000,  97: 1.00000,  34: 1.00000
    70 |                      | 152: 1.00000, 122: 1.00000, 121: 1.00000, 120: 1.00000, 119: 1.00000, 118: 1.00000, 117: 1.00000,
                                116: 1.00000, 115: 1.00000, 114: 1.00000, 113: 1.00000, 112: 1.00000, 111: 1.00000, 110: 1.00000,
                                109: 1.00000, 108: 1.00000, 107: 1.00000, 106: 1.00000, 105: 1.00000, 104: 1.00000, 103: 1.00000,
                                102: 1.00000, 101: 1.00000, 100: 1.00000,  99: 1.00000,  98: 1.00000,  97: 1.00000,  35: 1.00000
    71 |                      | 159:-2.00000, 155:-2.00000, 126:-2.00000,  70: 0.02678,  69: 0.02678,  68: 0.02678,  67: 0.02678,
                                 66: 0.02678,  65: 0.02678,  64: 0.02678,  63: 0.02678,  62: 0.02678,  61: 0.02678,  60: 0.02678,
                                 59: 0.02678,  58: 0.02678,  57: 0.02678,  56: 0.02678,  55: 0.02678,  54: 0.02678,  53: 0.02678,
                                 52: 0.02678,  51: 0.02678,  50: 0.02678,  49: 0.02678,  48: 0.02678,  47: 0.02678,  46: 0.02678,
                                 45: 0.02678,  44: 0.02678,  43: 0.02678,  42: 0.02678,  41: 0.02678,  40: 0.02678,  39: 0.02678,
                                 38: 0.02678,  37: 0.02678,  36: 0.02678
    72 |                      | 159:-2.00000, 155:-2.00000, 127:-2.00000,  70: 0.02584,  69: 0.02584,  68: 0.02584,  67: 0.02584,
                                 66: 0.02584,  65: 0.02584,  64: 0.02584,  63: 0.02584,  62: 0.02584,  61: 0.02584,  60: 0.02584,
                                 59: 0.02584,  58: 0.02584,  57: 0.02584,  56: 0.02584,  55: 0.02584,  54: 0.02584,  53: 0.02584,
                                 52: 0.02584,  51: 0.02584,  50: 0.02584,  49: 0.02584,  48: 0.02584,  47: 0.02584,  46: 0.02584,
                                 45: 0.02584,  44: 0.02584,  43: 0.02584,  42: 0.02584,  41: 0.02584,  40: 0.02584,  39: 0.02584,
                                 38: 0.02584,  37: 0.02584,  36: 0.02584
    73 |                      | 159:-2.00000, 155:-2.00000, 128:-2.00000,  70: 0.02498,  69: 0.02498,  68: 0.02498,  67: 0.02498,
                                 66: 0.02498,  65: 0.02498,  64: 0.02498,  63: 0.02498,  62: 0.02498,  61: 0.02498,  60: 0.02498,
                                 59: 0.02498,  58: 0.02498,  57: 0.02498,  56: 0.02498,  55: 0.02498,  54: 0.02498,  53: 0.02498,
                                 52: 0.02498,  51: 0.02498,  50: 0.02498,  49: 0.02498,  48: 0.02498,  47: 0.02498,  46: 0.02498,
                                 45: 0.02498,  44: 0.02498,  43: 0.02498,  42: 0.02498,  41: 0.02498,  40: 0.02498,  39: 0.02498,
                                 38: 0.02498,  37: 0.02498,  36: 0.02498
    74 |                      | 159:-2.00000, 155:-2.00000, 129:-2.00000,  70: 0.02416,  69: 0.02416,  68: 0.02416,  67: 0.02416,
                                 66: 0.02416,  65: 0.02416,  64: 0.02416,  63: 0.02416,  62: 0.02416,  61: 0.02416,  60: 0.02416,
                                 59: 0.02416,  58: 0.02416,  57: 0.02416,  56: 0.02416,  55: 0.02416,  54: 0.02416,  53: 0.02416,
                                 52: 0.02416,  51: 0.02416,  50: 0.02416,  49: 0.02416,  48: 0.02416,  47: 0.02416,  46: 0.02416,
                                 45: 0.02416,  44: 0.02416,  43: 0.02416,  42: 0.02416,  41: 0.02416,  40: 0.02416,  39: 0.02416,
                                 38: 0.02416,  37: 0.02416,  36: 0.02416
    75 |                      | 159:-2.00000, 155:-2.00000, 130:-2.00000,  70: 0.02340,  69: 0.02340,  68: 0.02340,  67: 0.02340,
                                 66: 0.02340,  65: 0.02340,  64: 0.02340,  63: 0.02340,  62: 0.02340,  61: 0.02340,  60: 0.02340,
                                 59: 0.02340,  58: 0.02340,  57: 0.02340,  56: 0.02340,  55: 0.02340,  54: 0.02340,  53: 0.02340,
                                 52: 0.02340,  51: 0.02340,  50: 0.02340,  49: 0.02340,  48: 0.02340,  47: 0.02340,  46: 0.02340,
                                 45: 0.02340,  44: 0.02340,  43: 0.02340,  42: 0.02340,  41: 0.02340,  40: 0.02340,  39: 0.02340,
                                 38: 0.02340,  37: 0.02340,  36: 0.02340
    76 |                      | 159:-2.00000, 155:-2.00000, 131:-2.00000,  70: 0.02269,  69: 0.02269,  68: 0.02269,  67: 0.02269,
                                 66: 0.02269,  65: 0.02269,  64: 0.02269,  63: 0.02269,  62: 0.02269,  61: 0.02269,  60: 0.02269,
                                 59: 0.02269,  58: 0.02269,  57: 0.02269,  56: 0.02269,  55: 0.02269,  54: 0.02269,  53: 0.02269,
                                 52: 0.02269,  51: 0.02269,  50: 0.02269,  49: 0.02269,  48: 0.02269,  47: 0.02269,  46: 0.02269,
                                 45: 0.02269,  44: 0.02269,  43: 0.02269,  42: 0.02269,  41: 0.02269,  40: 0.02269,  39: 0.02269,
                                 38: 0.02269,  37: 0.02269,  36: 0.02269
    77 |                      | 159:-2.00000, 155:-2.00000, 132:-2.00000,  70: 0.02202,  69: 0.02202,  68: 0.02202,  67: 0.02202,
                                 66: 0.02202,  65: 0.02202,  64: 0.02202,  63: 0.02202,  62: 0.02202,  61: 0.02202,  60: 0.02202,
                                 59: 0.02202,  58: 0.02202,  57: 0.02202,  56: 0.02202,  55: 0.02202,  54: 0.02202,  53: 0.02202,
                                 52: 0.02202,  51: 0.02202,  50: 0.02202,  49: 0.02202,  48: 0.02202,  47: 0.02202,  46: 0.02202,
                                 45: 0.02202,  44: 0.02202,  43: 0.02202,  42: 0.02202,  41: 0.02202,  40: 0.02202,  39: 0.02202,
                                 38: 0.02202,  37: 0.02202,  36: 0.02202
    78 |                      | 159:-2.00000, 155:-2.00000, 133:-2.00000,  70: 0.02138,  69: 0.02138,  68: 0.02138,  67: 0.02138,
                                 66: 0.02138,  65: 0.02138,  64: 0.02138,  63: 0.02138,  62: 0.02138,  61: 0.02138,  60: 0.02138,
                                 59: 0.02138,  58: 0.02138,  57: 0.02138,  56: 0.02138,  55: 0.02138,  54: 0.02138,  53: 0.02138,
                                 52: 0.02138,  51: 0.02138,  50: 0.02138,  49: 0.02138,  48: 0.02138,  47: 0.02138,  46: 0.02138,
                                 45: 0.02138,  44: 0.02138,  43: 0.02138,  42: 0.02138,  41: 0.02138,  40: 0.02138,  39: 0.02138,
                                 38: 0.02138,  37: 0.02138,  36: 0.02138
    79 |                      | 159:-2.00000, 155:-2.00000, 134:-2.00000,  70: 0.02078,  69: 0.02078,  68: 0.02078,  67: 0.02078,
                                 66: 0.02078,  65: 0.02078,  64: 0.02078,  63: 0.02078,  62: 0.02078,  61: 0.02078,  60: 0.02078,
                                 59: 0.02078,  58: 0.02078,  57: 0.02078,  56: 0.02078,  55: 0.02078,  54: 0.02078,  53: 0.02078,
                                 52: 0.02078,  51: 0.02078,  50: 0.02078,  49: 0.02078,  48: 0.02078,  47: 0.02078,  46: 0.02078,
                                 45: 0.02078,  44: 0.02078,  43: 0.02078,  42: 0.02078,  41: 0.02078,  40: 0.02078,  39: 0.02078,
                                 38: 0.02078,  37: 0.02078,  36: 0.02078
    80 |                      | 159:-2.00000, 155:-2.00000, 135:-2.00000,  70: 0.02022,  69: 0.02022,  68: 0.02022,  67: 0.02022,
                                 66: 0.02022,  65: 0.02022,  64: 0.02022,  63: 0.02022,  62: 0.02022,  61: 0.02022,  60: 0.02022,
                                 59: 0.02022,  58: 0.02022,  57: 0.02022,  56: 0.02022,  55: 0.02022,  54: 0.02022,  53: 0.02022,
                                 52: 0.02022,  51: 0.02022,  50: 0.02022,  49: 0.02022,  48: 0.02022,  47: 0.02022,  46: 0.02022,
                                 45: 0.02022,  44: 0.02022,  43: 0.02022,  42: 0.02022,  41: 0.02022,  40: 0.02022,  39: 0.02022,
                                 38: 0.02022,  37: 0.02022,  36: 0.02022
    81 |                      | 159:-2.00000, 155:-2.00000, 136:-2.00000,  70: 0.01968,  69: 0.01968,  68: 0.01968,  67: 0.01968,
                                 66: 0.01968,  65: 0.01968,  64: 0.01968,  63: 0.01968,  62: 0.01968,  61: 0.01968,  60: 0.01968,
                                 59: 0.01968,  58: 0.01968,  57: 0.01968,  56: 0.01968,  55: 0.01968,  54: 0.01968,  53: 0.01968,
                                 52: 0.01968,  51: 0.01968,  50: 0.01968,  49: 0.01968,  48: 0.01968,  47: 0.01968,  46: 0.01968,
                                 45: 0.01968,  44: 0.01968,  43: 0.01968,  42: 0.01968,  41: 0.01968,  40: 0.01968,  39: 0.01968,
                                 38: 0.01968,  37: 0.01968,  36: 0.01968
    82 |                      | 159:-2.00000, 155:-2.00000, 137:-2.00000,  70: 0.01917,  69: 0.01917,  68: 0.01917,  67: 0.01917,
                                 66: 0.01917,  65: 0.01917,  64: 0.01917,  63: 0.01917,  62: 0.01917,  61: 0.01917,  60: 0.01917,
                                 59: 0.01917,  58: 0.01917,  57: 0.01917,  56: 0.01917,  55: 0.01917,  54: 0.01917,  53: 0.01917,
                                 52: 0.01917,  51: 0.01917,  50: 0.01917,  49: 0.01917,  48: 0.01917,  47: 0.01917,  46: 0.01917,
                                 45: 0.01917,  44: 0.01917,  43: 0.01917,  42: 0.01917,  41: 0.01917,  40: 0.01917,  39: 0.01917,
                                 38: 0.01917,  37: 0.01917,  36: 0.01917
    83 |                      | 159:-2.00000, 155:-2.00000, 138:-2.00000,  70: 0.01869,  69: 0.01869,  68: 0.01869,  67: 0.01869,
                                 66: 0.01869,  65: 0.01869,  64: 0.01869,  63: 0.01869,  62: 0.01869,  61: 0.01869,  60: 0.01869,
                                 59: 0.01869,  58: 0.01869,  57: 0.01869,  56: 0.01869,  55: 0.01869,  54: 0.01869,  53: 0.01869,
                                 52: 0.01869,  51: 0.01869,  50: 0.01869,  49: 0.01869,  48: 0.01869,  47: 0.01869,  46: 0.01869,
                                 45: 0.01869,  44: 0.01869,  43: 0.01869,  42: 0.01869,  41: 0.01869,  40: 0.01869,  39: 0.01869,
                                 38: 0.01869,  37: 0.01869,  36: 0.01869
    84 |                      | 159:-2.00000, 155:-2.00000, 139:-2.00000,  70: 0.01823,  69: 0.01823,  68: 0.01823,  67: 0.01823,
                                 66: 0.01823,  65: 0.01823,  64: 0.01823,  63: 0.01823,  62: 0.01823,  61: 0.01823,  60: 0.01823,
                                 59: 0.01823,  58: 0.01823,  57: 0.01823,  56: 0.01823,  55: 0.01823,  54: 0.01823,  53: 0.01823,
                                 52: 0.01823,  51: 0.01823,  50: 0.01823,  49: 0.01823,  48: 0.01823,  47: 0.01823,  46: 0.01823,
                                 45: 0.01823,  44: 0.01823,  43: 0.01823,  42: 0.01823,  41: 0.01823,  40: 0.01823,  39: 0.01823,
                                 38: 0.01823,  37: 0.01823,  36: 0.01823
    85 |                      | 159:-2.00000, 155:-2.00000, 140:-2.00000,  70: 0.01780,  69: 0.01780,  68: 0.01780,  67: 0.01780,
                                 66: 0.01780,  65: 0.01780,  64: 0.01780,  63: 0.01780,  62: 0.01780,  61: 0.01780,  60: 0.01780,
                                 59: 0.01780,  58: 0.01780,  57: 0.01780,  56: 0.01780,  55: 0.01780,  54: 0.01780,  53: 0.01780,
                                 52: 0.01780,  51: 0.01780,  50: 0.01780,  49: 0.01780,  48: 0.01780,  47: 0.01780,  46: 0.01780,
                                 45: 0.01780,  44: 0.01780,  43: 0.01780,  42: 0.01780,  41: 0.01780,  40: 0.01780,  39: 0.01780,
                                 38: 0.01780,  37: 0.01780,  36: 0.01780
    86 |                      | 159:-2.00000, 155:-2.00000, 141:-2.00000,  70: 0.01738,  69: 0.01738,  68: 0.01738,  67: 0.01738,
                                 66: 0.01738,  65: 0.01738,  64: 0.01738,  63: 0.01738,  62: 0.01738,  61: 0.01738,  60: 0.01738,
                                 59: 0.01738,  58: 0.01738,  57: 0.01738,  56: 0.01738,  55: 0.01738,  54: 0.01738,  53: 0.01738,
                                 52: 0.01738,  51: 0.01738,  50: 0.01738,  49: 0.01738,  48: 0.01738,  47: 0.01738,  46: 0.01738,
                                 45: 0.01738,  44: 0.01738,  43: 0.01738,  42: 0.01738,  41: 0.01738,  40: 0.01738,  39: 0.01738,
                                 38: 0.01738,  37: 0.01738,  36: 0.01738
    87 |                      | 159:-2.00000, 155:-2.00000, 142:-2.00000,  70: 0.01698,  69: 0.01698,  68: 0.01698,  67: 0.01698,
                                 66: 0.01698,  65: 0.01698,  64: 0.01698,  63: 0.01698,  62: 0.01698,  61: 0.01698,  60: 0.01698,
                                 59: 0.01698,  58: 0.01698,  57: 0.01698,  56: 0.01698,  55: 0.01698,  54: 0.01698,  53: 0.01698,
                                 52: 0.01698,  51: 0.01698,  50: 0.01698,  49: 0.01698,  48: 0.01698,  47: 0.01698,  46: 0.01698,
                                 45: 0.01698,  44: 0.01698,  43: 0.01698,  42: 0.01698,  41: 0.01698,  40: 0.01698,  39: 0.01698,
                                 38: 0.01698,  37: 0.01698,  36: 0.01698
    88 |                      | 159:-2.00000, 155:-2.00000, 143:-2.00000,  70: 0.01660,  69: 0.01660,  68: 0.01660,  67: 0.01660,
                                 66: 0.01660,  65: 0.01660,  64: 0.01660,  63: 0.01660,  62: 0.01660,  61: 0.01660,  60: 0.01660,
                                 59: 0.01660,  58: 0.01660,  57: 0.01660,  56: 0.01660,  55: 0.01660,  54: 0.01660,  53: 0.01660,
                                 52: 0.01660,  51: 0.01660,  50: 0.01660,  49: 0.01660,  48: 0.01660,  47: 0.01660,  46: 0.01660,
                                 45: 0.01660,  44: 0.01660,  43: 0.01660,  42: 0.01660,  41: 0.01660,  40: 0.01660,  39: 0.01660,
                                 38: 0.01660,  37: 0.01660,  36: 0.01660
    89 |                      | 159:-2.00000, 155:-2.00000, 144:-2.00000,  70: 0.01624,  69: 0.01624,  68: 0.01624,  67: 0.01624,
                                 66: 0.01624,  65: 0.01624,  64: 0.01624,  63: 0.01624,  62: 0.01624,  61: 0.01624,  60: 0.01624,
                                 59: 0.01624,  58: 0.01624,  57: 0.01624,  56: 0.01624,  55: 0.01624,  54: 0.01624,  53: 0.01624,
                                 52: 0.01624,  51: 0.01624,  50: 0.01624,  49: 0.01624,  48: 0.01624,  47: 0.01624,  46: 0.01624,
                                 45: 0.01624,  44: 0.01624,  43: 0.01624,  42: 0.01624,  41: 0.01624,  40: 0.01624,  39: 0.01624,
                                 38: 0.01624,  37: 0.01624,  36: 0.01624
    90 |                      | 159:-2.00000, 155:-2.00000, 145:-2.00000,  70: 0.01589,  69: 0.01589,  68: 0.01589,  67: 0.01589,
                                 66: 0.01589,  65: 0.01589,  64: 0.01589,  63: 0.01589,  62: 0.01589,  61: 0.01589,  60: 0.01589,
                                 59: 0.01589,  58: 0.01589,  57: 0.01589,  56: 0.01589,  55: 0.01589,  54: 0.01589,  53: 0.01589,
                                 52: 0.01589,  51: 0.01589,  50: 0.01589,  49: 0.01589,  48: 0.01589,  47: 0.01589,  46: 0.01589,
                                 45: 0.01589,  44: 0.01589,  43: 0.01589,  42: 0.01589,  41: 0.01589,  40: 0.01589,  39: 0.01589,
                                 38: 0.01589,  37: 0.01589,  36: 0.01589
    91 |                      | 159:-2.00000, 155:-2.00000, 146:-2.00000,  70: 0.01556,  69: 0.01556,  68: 0.01556,  67: 0.01556,
                                 66: 0.01556,  65: 0.01556,  64: 0.01556,  63: 0.01556,  62: 0.01556,  61: 0.01556,  60: 0.01556,
                                 59: 0.01556,  58: 0.01556,  57: 0.01556,  56: 0.01556,  55: 0.01556,  54: 0.01556,  53: 0.01556,
                                 52: 0.01556,  51: 0.01556,  50: 0.01556,  49: 0.01556,  48: 0.01556,  47: 0.01556,  46: 0.01556,
                                 45: 0.01556,  44: 0.01556,  43: 0.01556,  42: 0.01556,  41: 0.01556,  40: 0.01556,  39: 0.01556,
                                 38: 0.01556,  37: 0.01556,  36: 0.01556
    92 |                      | 159:-2.00000, 155:-2.00000, 147:-2.00000,  70: 0.01524,  69: 0.01524,  68: 0.01524,  67: 0.01524,
                                 66: 0.01524,  65: 0.01524,  64: 0.01524,  63: 0.01524,  62: 0.01524,  61: 0.01524,  60: 0.01524,
                                 59: 0.01524,  58: 0.01524,  57: 0.01524,  56: 0.01524,  55: 0.01524,  54: 0.01524,  53: 0.01524,
                                 52: 0.01524,  51: 0.01524,  50: 0.01524,  49: 0.01524,  48: 0.01524,  47: 0.01524,  46: 0.01524,
                                 45: 0.01524,  44: 0.01524,  43: 0.01524,  42: 0.01524,  41: 0.01524,  40: 0.01524,  39: 0.01524,
                                 38: 0.01524,  37: 0.01524,  36: 0.01524
    93 |                      | 159:-2.00000, 155:-2.00000, 148:-2.00000,  70: 0.01493,  69: 0.01493,  68: 0.01493,  67: 0.01493,
                                 66: 0.01493,  65: 0.01493,  64: 0.01493,  63: 0.01493,  62: 0.01493,  61: 0.01493,  60: 0.01493,
                                 59: 0.01493,  58: 0.01493,  57: 0.01493,  56: 0.01493,  55: 0.01493,  54: 0.01493,  53: 0.01493,
                                 52: 0.01493,  51: 0.01493,  50: 0.01493,  49: 0.01493,  48: 0.01493,  47: 0.01493,  46: 0.01493,
                                 45: 0.01493,  44: 0.01493,  43: 0.01493,  42: 0.01493,  41: 0.01493,  40: 0.01493,  39: 0.01493,
                                 38: 0.01493,  37: 0.01493,  36: 0.01493
    94 |                      | 159:-2.00000, 155:-2.00000, 149:-2.00000,  70: 0.01464,  69: 0.01464,  68: 0.01464,  67: 0.01464,
                                 66: 0.01464,  65: 0.01464,  64: 0.01464,  63: 0.01464,  62: 0.01464,  61: 0.01464,  60: 0.01464,
                                 59: 0.01464,  58: 0.01464,  57: 0.01464,  56: 0.01464,  55: 0.01464,  54: 0.01464,  53: 0.01464,
                                 52: 0.01464,  51: 0.01464,  50: 0.01464,  49: 0.01464,  48: 0.01464,  47: 0.01464,  46: 0.01464,
                                 45: 0.01464,  44: 0.01464,  43: 0.01464,  42: 0.01464,  41: 0.01464,  40: 0.01464,  39: 0.01464,
                                 38: 0.01464,  37: 0.01464,  36: 0.01464
    95 |                      | 159:-2.00000, 155:-2.00000, 150:-2.00000,  70: 0.01436,  69: 0.01436,  68: 0.01436,  67: 0.01436,
                                 66: 0.01436,  65: 0.01436,  64: 0.01436,  63: 0.01436,  62: 0.01436,  61: 0.01436,  60: 0.01436,
                                 59: 0.01436,  58: 0.01436,  57: 0.01436,  56: 0.01436,  55: 0.01436,  54: 0.01436,  53: 0.01436,
                                 52: 0.01436,  51: 0.01436,  50: 0.01436,  49: 0.01436,  48: 0.01436,  47: 0.01436,  46: 0.01436,
                                 45: 0.01436,  44: 0.01436,  43: 0.01436,  42: 0.01436,  41: 0.01436,  40: 0.01436,  39: 0.01436,
                                 38: 0.01436,  37: 0.01436,  36: 0.01436
    96 |                      | 159:-2.00000, 155:-2.00000, 151:-2.00000,  70: 0.01408,  69: 0.01408,  68: 0.01408,  67: 0.01408,
                                 66: 0.01408,  65: 0.01408,  64: 0.01408,  63: 0.01408,  62: 0.01408,  61: 0.01408,  60: 0.01408,
                                 59: 0.01408,  58: 0.01408,  57: 0.01408,  56: 0.01408,  55: 0.01408,  54: 0.01408,  53: 0.01408,
                                 52: 0.01408,  51: 0.01408,  50: 0.01408,  49: 0.01408,  48: 0.01408,  47: 0.01408,  46: 0.01408,
                                 45: 0.01408,  44: 0.01408,  43: 0.01408,  42: 0.01408,  41: 0.01408,  40: 0.01408,  39: 0.01408,
                                 38: 0.01408,  37: 0.01408,  36: 0.01408
    97 |                      |  71: 2.00000
    98 |                      |  72: 2.00000
    99 |                      |  73: 2.00000
   100 |                      |  74: 2.00000
   101 |                      |  75: 2.00000
   102 |                      |  76: 2.00000
   103 |                      |  77: 2.00000
   104 |                      |  78: 2.00000
   105 |                      |  79: 2.00000
   106 |                      |  80: 2.00000
   107 |                      |  81: 2.00000
   108 |                      |  82: 2.00000
   109 |                      |  83: 2.00000
   110 |                      |  84: 2.00000
   111 |                      |  85: 2.00000
   112 |                      |  86: 2.00000
   113 |                      |  87: 2.00000
   114 |                      |  88: 2.00000
   115 |                      |  89: 2.00000
   116 |                      |  90: 2.00000
   117 |                      |  91: 2.00000
   118 |                      |  92: 2.00000
   119 |                      |  93: 2.00000
   120 |                      |  94: 2.00000
   121 |                      |  95: 2.00000
   122 |                      |  96: 2.00000
   123 |                      | 122: 1.00000, 121: 1.00000, 120: 1.00000, 119: 1.00000, 118: 1.00000, 117: 1.00000, 116: 1.00000,
                                115: 1.00000, 114: 1.00000, 113: 1.00000, 112: 1.00000, 111: 1.00000, 110: 1.00000, 109: 1.00000,
                                108: 1.00000, 107: 1.00000, 106: 1.00000, 105: 1.00000, 104: 1.00000, 103: 1.00000, 102: 1.00000,
                                101: 1.00000, 100: 1.00000,  99: 1.00000,  98: 1.00000,  97: 1.00000
   124 |                      | 123: 1.00000
   125 |                      | 124: 1.00000
   126 | Art1_Site_Rst_Signal | 155: 1.00000,  97: 1.00000
         Art1_Site_Rst_Self   | 126: 1.00000
   127 | Art1_Site_Rst_Signal | 155: 1.00000,  98: 1.00000
         Art1_Site_Rst_Self   | 127: 1.00000
   128 | Art1_Site_Rst_Signal | 155: 1.00000,  99: 1.00000
         Art1_Site_Rst_Self   | 128: 1.00000
   129 | Art1_Site_Rst_Signal | 155: 1.00000, 100: 1.00000
         Art1_Site_Rst_Self   | 129: 1.00000
   130 | Art1_Site_Rst_Signal | 155: 1.00000, 101: 1.00000
         Art1_Site_Rst_Self   | 130: 1.00000
   131 | Art1_Site_Rst_Signal | 155: 1.00000, 102: 1.00000
         Art1_Site_Rst_Self   | 131: 1.00000
   132 | Art1_Site_Rst_Signal | 155: 1.00000, 103: 1.00000
         Art1_Site_Rst_Self   | 132: 1.00000
   133 | Art1_Site_Rst_Signal | 155: 1.00000, 104: 1.00000
         Art1_Site_Rst_Self   | 133: 1.00000
   134 | Art1_Site_Rst_Signal | 155: 1.00000, 105: 1.00000
         Art1_Site_Rst_Self   | 134: 1.00000
   135 | Art1_Site_Rst_Signal | 155: 1.00000, 106: 1.00000
         Art1_Site_Rst_Self   | 135: 1.00000
   136 | Art1_Site_Rst_Signal | 155: 1.00000, 107: 1.00000
         Art1_Site_Rst_Self   | 136: 1.00000
   137 | Art1_Site_Rst_Signal | 155: 1.00000, 108: 1.00000
         Art1_Site_Rst_Self   | 137: 1.00000
   138 | Art1_Site_Rst_Signal | 155: 1.00000, 109: 1.00000
         Art1_Site_Rst_Self   | 138: 1.00000
   139 | Art1_Site_Rst_Signal | 155: 1.00000, 110: 1.00000
         Art1_Site_Rst_Self   | 139: 1.00000
   140 | Art1_Site_Rst_Signal | 155: 1.00000, 111: 1.00000
         Art1_Site_Rst_Self   | 140: 1.00000
   141 | Art1_Site_Rst_Signal | 155: 1.00000, 112: 1.00000
         Art1_Site_Rst_Self   | 141: 1.00000
   142 | Art1_Site_Rst_Signal | 155: 1.00000, 113: 1.00000
         Art1_Site_Rst_Self   | 142: 1.00000
   143 | Art1_Site_Rst_Signal | 155: 1.00000, 114: 1.00000
         Art1_Site_Rst_Self   | 143: 1.00000
   144 | Art1_Site_Rst_Signal | 155: 1.00000, 115: 1.00000
         Art1_Site_Rst_Self   | 144: 1.00000
   145 | Art1_Site_Rst_Signal | 155: 1.00000, 116: 1.00000
         Art1_Site_Rst_Self   | 145: 1.00000
   146 | Art1_Site_Rst_Signal | 155: 1.00000, 117: 1.00000
         Art1_Site_Rst_Self   | 146: 1.00000
   147 | Art1_Site_Rst_Signal | 155: 1.00000, 118: 1.00000
         Art1_Site_Rst_Self   | 147: 1.00000
   148 | Art1_Site_Rst_Signal | 155: 1.00000, 119: 1.00000
         Art1_Site_Rst_Self   | 148: 1.00000
   149 | Art1_Site_Rst_Signal | 155: 1.00000, 120: 1.00000
         Art1_Site_Rst_Self   | 149: 1.00000
   150 | Art1_Site_Rst_Signal | 155: 1.00000, 121: 1.00000
         Art1_Site_Rst_Self   | 150: 1.00000
   151 | Art1_Site_Rst_Signal | 155: 1.00000, 122: 1.00000
         Art1_Site_Rst_Self   | 151: 1.00000
   152 | Art1_Site_Rec_G1     |  96: 1.00000,  95: 1.00000,  94: 1.00000,  93: 1.00000,  92: 1.00000,  91: 1.00000,  90: 1.00000,
                                 89: 1.00000,  88: 1.00000,  87: 1.00000,  86: 1.00000,  85: 1.00000,  84: 1.00000,  83: 1.00000,
                                 82: 1.00000,  81: 1.00000,  80: 1.00000,  79: 1.00000,  78: 1.00000,  77: 1.00000,  76: 1.00000,
                                 75: 1.00000,  74: 1.00000,  73: 1.00000,  72: 1.00000,  71: 1.00000
         Art1_Site_Inp_G1     |  35: 1.00000,  34: 1.00000,  33: 1.00000,  32: 1.00000,  31: 1.00000,  30: 1.00000,  29: 1.00000,
                                 28: 1.00000,  27: 1.00000,  26: 1.00000,  25: 1.00000,  24: 1.00000,  23: 1.00000,  22: 1.00000,
                                 21: 1.00000,  20: 1.00000,  19: 1.00000,  18: 1.00000,  17: 1.00000,  16: 1.00000,  15: 1.00000,
                                 14: 1.00000,  13: 1.00000,  12: 1.00000,  11: 1.00000,  10: 1.00000,   9: 1.00000,   8: 1.00000,
                                  7: 1.00000,   6: 1.00000,   5: 1.00000,   4: 1.00000,   3: 1.00000,   2: 1.00000,   1: 1.00000
   153 | Art1_Site_Rho_RI     | 158: 1.00000
         Art1_Site_Inp_RI     |  35: 1.00000,  34: 1.00000,  33: 1.00000,  32: 1.00000,  31: 1.00000,  30: 1.00000,  29: 1.00000,
                                 28: 1.00000,  27: 1.00000,  26: 1.00000,  25: 1.00000,  24: 1.00000,  23: 1.00000,  22: 1.00000,
                                 21: 1.00000,  20: 1.00000,  19: 1.00000,  18: 1.00000,  17: 1.00000,  16: 1.00000,  15: 1.00000,
                                 14: 1.00000,  13: 1.00000,  12: 1.00000,  11: 1.00000,  10: 1.00000,   9: 1.00000,   8: 1.00000,
                                  7: 1.00000,   6: 1.00000,   5: 1.00000,   4: 1.00000,   3: 1.00000,   2: 1.00000,   1: 1.00000
   154 |                      |  70: 1.00000,  69: 1.00000,  68: 1.00000,  67: 1.00000,  66: 1.00000,  65: 1.00000,  64: 1.00000,
                                 63: 1.00000,  62: 1.00000,  61: 1.00000,  60: 1.00000,  59: 1.00000,  58: 1.00000,  57: 1.00000,
                                 56: 1.00000,  55: 1.00000,  54: 1.00000,  53: 1.00000,  52: 1.00000,  51: 1.00000,  50: 1.00000,
                                 49: 1.00000,  48: 1.00000,  47: 1.00000,  46: 1.00000,  45: 1.00000,  44: 1.00000,  43: 1.00000,
                                 42: 1.00000,  41: 1.00000,  40: 1.00000,  39: 1.00000,  38: 1.00000,  37: 1.00000,  36: 1.00000
   155 |                      | 154: 1.00000, 153:-1.00000
   156 |                      | 159: 1.00000, 155:-1.00000, 125: 1.00000
   157 |                      | 151: 1.00000, 150: 1.00000, 149: 1.00000, 148: 1.00000, 147: 1.00000, 146: 1.00000, 145: 1.00000,
                                144: 1.00000, 143: 1.00000, 142: 1.00000, 141: 1.00000, 140: 1.00000, 139: 1.00000, 138: 1.00000,
                                137: 1.00000, 136: 1.00000, 135: 1.00000, 134: 1.00000, 133: 1.00000, 132: 1.00000, 131: 1.00000,
                                130: 1.00000, 129: 1.00000, 128: 1.00000, 127: 1.00000, 126: 1.00000
   158 |                      | 158: 1.00000
   159 |                      |  35: 1.00000,  34: 1.00000,  33: 1.00000,  32: 1.00000,  31: 1.00000,  30: 1.00000,  29: 1.00000,
                                 28: 1.00000,  27: 1.00000,  26: 1.00000,  25: 1.00000,  24: 1.00000,  23: 1.00000,  22: 1.00000,
                                 21: 1.00000,  20: 1.00000,  19: 1.00000,  18: 1.00000,  17: 1.00000,  16: 1.00000,  15: 1.00000,
                                 14: 1.00000,  13: 1.00000,  12: 1.00000,  11: 1.00000,  10: 1.00000,   9: 1.00000,   8: 1.00000,
                                  7: 1.00000,   6: 1.00000,   5: 1.00000,   4: 1.00000,   3: 1.00000,   2: 1.00000,   1: 1.00000
-------|----------------------|--------------------------------------------------------------------------------------------------


3D translation section :

 delta x | delta y |    z    
---------|---------|---------
       6 |       0 |       3 
      14 |       0 |      11 
      19 |       0 |      16 
      24 |       0 |      21 
      28 |       0 |      26 
---------|---------|---------

