SNNS network definition file V1.4-3D
generated at Mon Apr 25 18:05:51 1994

network name : artmap
source files :
no. of units : 436
no. of connections : 10151
no. of unit types : 0
no. of site types : 18


learning function : Std_Backpropagation
update function   : Serial_Order


site definition section :

 site name               | site function
-------------------------|------------------
 ArtMap_Site_Rho_RIb     | Site_WeightedSum
 ArtMap_Site_Inp_RIb     | Site_WeightedSum
 ArtMap_Site_Inp_G1b     | Site_at_least_1
 ArtMap_Site_Rec_G1b     | Site_at_most_0
 ArtMap_Site_Rstb_Signal | Site_at_least_2
 ArtMap_Site_Rstb_Self   | Site_WeightedSum
 ArtMap_Site_Cmpa_QU     | Site_WeightedSum
 ArtMap_Site_Inpa_QU     | Site_Reciprocal
 ArtMap_Site_Rho_RB      | Site_WeightedSum
 ArtMap_Site_B_RB        | Site_WeightedSum
 ArtMap_Site_ARTb_G      | Site_at_least_1
 ArtMap_Site_ARTa_G      | Site_at_least_1
 ArtMap_Site_Rho_RIa     | Site_WeightedSum
 ArtMap_Site_Inp_RIa     | Site_WeightedSum
 ArtMap_Site_Inp_G1a     | Site_at_least_1
 ArtMap_Site_Rec_G1a     | Site_at_most_0
 ArtMap_Site_Rsta_Signal | Site_at_least_2
 ArtMap_Site_Rsta_Self   | Site_WeightedSum
-------------------------|------------------


unit default section :

act      | bias     | st | subnet | layer | act func     | out func
---------|----------|----|--------|-------|--------------|-------------
 0.00000 |  0.00000 | h  |      0 |     1 | Act_Logistic | Out_Identity 
---------|----------|----|--------|-------|--------------|-------------


unit definition section :

no. | typeName | unitName | act      | bias     | st | position | act func        | out func | sites
----|----------|----------|----------|----------|----|----------|-----------------|----------|-------------------------
  1 |          | inpa1    |  0.00000 |  0.00000 | i  |  1, 7,-8 | Act_Identity    |          | 
  2 |          | inpa2    |  1.00000 |  0.00000 | i  |  2, 7,-8 | Act_Identity    |          | 
  3 |          | inpa3    |  1.00000 |  0.00000 | i  |  3, 7,-8 | Act_Identity    |          | 
  4 |          | inpa4    |  1.00000 |  0.00000 | i  |  4, 7,-8 | Act_Identity    |          | 
  5 |          | inpa5    |  0.00000 |  0.00000 | i  |  5, 7,-8 | Act_Identity    |          | 
  6 |          | inpa6    |  1.00000 |  0.00000 | i  |  1, 8,-8 | Act_Identity    |          | 
  7 |          | inpa7    |  0.00000 |  0.00000 | i  |  2, 8,-8 | Act_Identity    |          | 
  8 |          | inpa8    |  0.00000 |  0.00000 | i  |  3, 8,-8 | Act_Identity    |          | 
  9 |          | inpa9    |  0.00000 |  0.00000 | i  |  4, 8,-8 | Act_Identity    |          | 
 10 |          | inpa10   |  1.00000 |  0.00000 | i  |  5, 8,-8 | Act_Identity    |          | 
 11 |          | inpa11   |  1.00000 |  0.00000 | i  |  1, 9,-8 | Act_Identity    |          | 
 12 |          | inpa12   |  0.00000 |  0.00000 | i  |  2, 9,-8 | Act_Identity    |          | 
 13 |          | inpa13   |  0.00000 |  0.00000 | i  |  3, 9,-8 | Act_Identity    |          | 
 14 |          | inpa14   |  0.00000 |  0.00000 | i  |  4, 9,-8 | Act_Identity    |          | 
 15 |          | inpa15   |  1.00000 |  0.00000 | i  |  5, 9,-8 | Act_Identity    |          | 
 16 |          | inpa16   |  1.00000 |  0.00000 | i  |  1,10,-8 | Act_Identity    |          | 
 17 |          | inpa17   |  1.00000 |  0.00000 | i  |  2,10,-8 | Act_Identity    |          | 
 18 |          | inpa18   |  1.00000 |  0.00000 | i  |  3,10,-8 | Act_Identity    |          | 
 19 |          | inpa19   |  1.00000 |  0.00000 | i  |  4,10,-8 | Act_Identity    |          | 
 20 |          | inpa20   |  1.00000 |  0.00000 | i  |  5,10,-8 | Act_Identity    |          | 
 21 |          | inpa21   |  1.00000 |  0.00000 | i  |  1,11,-8 | Act_Identity    |          | 
 22 |          | inpa22   |  0.00000 |  0.00000 | i  |  2,11,-8 | Act_Identity    |          | 
 23 |          | inpa23   |  0.00000 |  0.00000 | i  |  3,11,-8 | Act_Identity    |          | 
 24 |          | inpa24   |  0.00000 |  0.00000 | i  |  4,11,-8 | Act_Identity    |          | 
 25 |          | inpa25   |  1.00000 |  0.00000 | i  |  5,11,-8 | Act_Identity    |          | 
 26 |          | inpa26   |  1.00000 |  0.00000 | i  |  1,12,-8 | Act_Identity    |          | 
 27 |          | inpa27   |  0.00000 |  0.00000 | i  |  2,12,-8 | Act_Identity    |          | 
 28 |          | inpa28   |  0.00000 |  0.00000 | i  |  3,12,-8 | Act_Identity    |          | 
 29 |          | inpa29   |  0.00000 |  0.00000 | i  |  4,12,-8 | Act_Identity    |          | 
 30 |          | inpa30   |  1.00000 |  0.00000 | i  |  5,12,-8 | Act_Identity    |          | 
 31 |          | inpa31   |  1.00000 |  0.00000 | i  |  1,13,-8 | Act_Identity    |          | 
 32 |          | inpa32   |  0.00000 |  0.00000 | i  |  2,13,-8 | Act_Identity    |          | 
 33 |          | inpa33   |  0.00000 |  0.00000 | i  |  3,13,-8 | Act_Identity    |          | 
 34 |          | inpa34   |  0.00000 |  0.00000 | i  |  4,13,-8 | Act_Identity    |          | 
 35 |          | inpa35   |  1.00000 |  0.00000 | i  |  5,13,-8 | Act_Identity    |          | 
 36 |          | inpa36   |  1.00000 |  0.00000 | i  |  1,15,-8 | Act_Identity    |          | 
 37 |          | inpa37   |  0.00000 |  0.00000 | i  |  2,15,-8 | Act_Identity    |          | 
 38 |          | inpa38   |  0.00000 |  0.00000 | i  |  3,15,-8 | Act_Identity    |          | 
 39 |          | inpa39   |  0.00000 |  0.00000 | i  |  4,15,-8 | Act_Identity    |          | 
 40 |          | inpa40   |  1.00000 |  0.00000 | i  |  5,15,-8 | Act_Identity    |          | 
 41 |          | inpa41   |  0.00000 |  0.00000 | i  |  1,16,-8 | Act_Identity    |          | 
 42 |          | inpa42   |  1.00000 |  0.00000 | i  |  2,16,-8 | Act_Identity    |          | 
 43 |          | inpa43   |  1.00000 |  0.00000 | i  |  3,16,-8 | Act_Identity    |          | 
 44 |          | inpa44   |  1.00000 |  0.00000 | i  |  4,16,-8 | Act_Identity    |          | 
 45 |          | inpa45   |  0.00000 |  0.00000 | i  |  5,16,-8 | Act_Identity    |          | 
 46 |          | inpa46   |  0.00000 |  0.00000 | i  |  1,17,-8 | Act_Identity    |          | 
 47 |          | inpa47   |  1.00000 |  0.00000 | i  |  2,17,-8 | Act_Identity    |          | 
 48 |          | inpa48   |  1.00000 |  0.00000 | i  |  3,17,-8 | Act_Identity    |          | 
 49 |          | inpa49   |  1.00000 |  0.00000 | i  |  4,17,-8 | Act_Identity    |          | 
 50 |          | inpa50   |  0.00000 |  0.00000 | i  |  5,17,-8 | Act_Identity    |          | 
 51 |          | inpa51   |  0.00000 |  0.00000 | i  |  1,18,-8 | Act_Identity    |          | 
 52 |          | inpa52   |  0.00000 |  0.00000 | i  |  2,18,-8 | Act_Identity    |          | 
 53 |          | inpa53   |  0.00000 |  0.00000 | i  |  3,18,-8 | Act_Identity    |          | 
 54 |          | inpa54   |  0.00000 |  0.00000 | i  |  4,18,-8 | Act_Identity    |          | 
 55 |          | inpa55   |  0.00000 |  0.00000 | i  |  5,18,-8 | Act_Identity    |          | 
 56 |          | inpa56   |  0.00000 |  0.00000 | i  |  1,19,-8 | Act_Identity    |          | 
 57 |          | inpa57   |  1.00000 |  0.00000 | i  |  2,19,-8 | Act_Identity    |          | 
 58 |          | inpa58   |  1.00000 |  0.00000 | i  |  3,19,-8 | Act_Identity    |          | 
 59 |          | inpa59   |  1.00000 |  0.00000 | i  |  4,19,-8 | Act_Identity    |          | 
 60 |          | inpa60   |  0.00000 |  0.00000 | i  |  5,19,-8 | Act_Identity    |          | 
 61 |          | inpa61   |  0.00000 |  0.00000 | i  |  1,20,-8 | Act_Identity    |          | 
 62 |          | inpa62   |  1.00000 |  0.00000 | i  |  2,20,-8 | Act_Identity    |          | 
 63 |          | inpa63   |  1.00000 |  0.00000 | i  |  3,20,-8 | Act_Identity    |          | 
 64 |          | inpa64   |  1.00000 |  0.00000 | i  |  4,20,-8 | Act_Identity    |          | 
 65 |          | inpa65   |  0.00000 |  0.00000 | i  |  5,20,-8 | Act_Identity    |          | 
 66 |          | inpa66   |  0.00000 |  0.00000 | i  |  1,21,-8 | Act_Identity    |          | 
 67 |          | inpa67   |  1.00000 |  0.00000 | i  |  2,21,-8 | Act_Identity    |          | 
 68 |          | inpa68   |  1.00000 |  0.00000 | i  |  3,21,-8 | Act_Identity    |          | 
 69 |          | inpa69   |  1.00000 |  0.00000 | i  |  4,21,-8 | Act_Identity    |          | 
 70 |          | inpa70   |  0.00000 |  0.00000 | i  |  5,21,-8 | Act_Identity    |          | 
 71 |          | cmpa1    |  0.00000 |  0.00000 | h  |  7, 7,-4 | Act_at_least_2  |          | 
 72 |          | cmpa2    |  0.00000 |  0.00000 | h  |  8, 7,-4 | Act_at_least_2  |          | 
 73 |          | cmpa3    |  0.00000 |  0.00000 | h  |  9, 7,-4 | Act_at_least_2  |          | 
 74 |          | cmpa4    |  0.00000 |  0.00000 | h  | 10, 7,-4 | Act_at_least_2  |          | 
 75 |          | cmpa5    |  0.00000 |  0.00000 | h  | 11, 7,-4 | Act_at_least_2  |          | 
 76 |          | cmpa6    |  0.00000 |  0.00000 | h  |  7, 8,-4 | Act_at_least_2  |          | 
 77 |          | cmpa7    |  0.00000 |  0.00000 | h  |  8, 8,-4 | Act_at_least_2  |          | 
 78 |          | cmpa8    |  0.00000 |  0.00000 | h  |  9, 8,-4 | Act_at_least_2  |          | 
 79 |          | cmpa9    |  0.00000 |  0.00000 | h  | 10, 8,-4 | Act_at_least_2  |          | 
 80 |          | cmpa10   |  0.00000 |  0.00000 | h  | 11, 8,-4 | Act_at_least_2  |          | 
 81 |          | cmpa11   |  0.00000 |  0.00000 | h  |  7, 9,-4 | Act_at_least_2  |          | 
 82 |          | cmpa12   |  0.00000 |  0.00000 | h  |  8, 9,-4 | Act_at_least_2  |          | 
 83 |          | cmpa13   |  0.00000 |  0.00000 | h  |  9, 9,-4 | Act_at_least_2  |          | 
 84 |          | cmpa14   |  0.00000 |  0.00000 | h  | 10, 9,-4 | Act_at_least_2  |          | 
 85 |          | cmpa15   |  0.00000 |  0.00000 | h  | 11, 9,-4 | Act_at_least_2  |          | 
 86 |          | cmpa16   |  0.00000 |  0.00000 | h  |  7,10,-4 | Act_at_least_2  |          | 
 87 |          | cmpa17   |  0.00000 |  0.00000 | h  |  8,10,-4 | Act_at_least_2  |          | 
 88 |          | cmpa18   |  0.00000 |  0.00000 | h  |  9,10,-4 | Act_at_least_2  |          | 
 89 |          | cmpa19   |  0.00000 |  0.00000 | h  | 10,10,-4 | Act_at_least_2  |          | 
 90 |          | cmpa20   |  0.00000 |  0.00000 | h  | 11,10,-4 | Act_at_least_2  |          | 
 91 |          | cmpa21   |  0.00000 |  0.00000 | h  |  7,11,-4 | Act_at_least_2  |          | 
 92 |          | cmpa22   |  0.00000 |  0.00000 | h  |  8,11,-4 | Act_at_least_2  |          | 
 93 |          | cmpa23   |  0.00000 |  0.00000 | h  |  9,11,-4 | Act_at_least_2  |          | 
 94 |          | cmpa24   |  0.00000 |  0.00000 | h  | 10,11,-4 | Act_at_least_2  |          | 
 95 |          | cmpa25   |  0.00000 |  0.00000 | h  | 11,11,-4 | Act_at_least_2  |          | 
 96 |          | cmpa26   |  0.00000 |  0.00000 | h  |  7,12,-4 | Act_at_least_2  |          | 
 97 |          | cmpa27   |  0.00000 |  0.00000 | h  |  8,12,-4 | Act_at_least_2  |          | 
 98 |          | cmpa28   |  0.00000 |  0.00000 | h  |  9,12,-4 | Act_at_least_2  |          | 
 99 |          | cmpa29   |  0.00000 |  0.00000 | h  | 10,12,-4 | Act_at_least_2  |          | 
100 |          | cmpa30   |  0.00000 |  0.00000 | h  | 11,12,-4 | Act_at_least_2  |          | 
101 |          | cmpa31   |  0.00000 |  0.00000 | h  |  7,13,-4 | Act_at_least_2  |          | 
102 |          | cmpa32   |  0.00000 |  0.00000 | h  |  8,13,-4 | Act_at_least_2  |          | 
103 |          | cmpa33   |  0.00000 |  0.00000 | h  |  9,13,-4 | Act_at_least_2  |          | 
104 |          | cmpa34   |  0.00000 |  0.00000 | h  | 10,13,-4 | Act_at_least_2  |          | 
105 |          | cmpa35   |  0.00000 |  0.00000 | h  | 11,13,-4 | Act_at_least_2  |          | 
106 |          | cmpa36   |  0.00000 |  0.00000 | h  |  7,15,-4 | Act_at_least_2  |          | 
107 |          | cmpa37   |  0.00000 |  0.00000 | h  |  8,15,-4 | Act_at_least_2  |          | 
108 |          | cmpa38   |  0.00000 |  0.00000 | h  |  9,15,-4 | Act_at_least_2  |          | 
109 |          | cmpa39   |  0.00000 |  0.00000 | h  | 10,15,-4 | Act_at_least_2  |          | 
110 |          | cmpa40   |  0.00000 |  0.00000 | h  | 11,15,-4 | Act_at_least_2  |          | 
111 |          | cmpa41   |  0.00000 |  0.00000 | h  |  7,16,-4 | Act_at_least_2  |          | 
112 |          | cmpa42   |  0.00000 |  0.00000 | h  |  8,16,-4 | Act_at_least_2  |          | 
113 |          | cmpa43   |  0.00000 |  0.00000 | h  |  9,16,-4 | Act_at_least_2  |          | 
114 |          | cmpa44   |  0.00000 |  0.00000 | h  | 10,16,-4 | Act_at_least_2  |          | 
115 |          | cmpa45   |  0.00000 |  0.00000 | h  | 11,16,-4 | Act_at_least_2  |          | 
116 |          | cmpa46   |  0.00000 |  0.00000 | h  |  7,17,-4 | Act_at_least_2  |          | 
117 |          | cmpa47   |  0.00000 |  0.00000 | h  |  8,17,-4 | Act_at_least_2  |          | 
118 |          | cmpa48   |  0.00000 |  0.00000 | h  |  9,17,-4 | Act_at_least_2  |          | 
119 |          | cmpa49   |  0.00000 |  0.00000 | h  | 10,17,-4 | Act_at_least_2  |          | 
120 |          | cmpa50   |  0.00000 |  0.00000 | h  | 11,17,-4 | Act_at_least_2  |          | 
121 |          | cmpa51   |  0.00000 |  0.00000 | h  |  7,18,-4 | Act_at_least_2  |          | 
122 |          | cmpa52   |  0.00000 |  0.00000 | h  |  8,18,-4 | Act_at_least_2  |          | 
123 |          | cmpa53   |  0.00000 |  0.00000 | h  |  9,18,-4 | Act_at_least_2  |          | 
124 |          | cmpa54   |  0.00000 |  0.00000 | h  | 10,18,-4 | Act_at_least_2  |          | 
125 |          | cmpa55   |  0.00000 |  0.00000 | h  | 11,18,-4 | Act_at_least_2  |          | 
126 |          | cmpa56   |  0.00000 |  0.00000 | h  |  7,19,-4 | Act_at_least_2  |          | 
127 |          | cmpa57   |  0.00000 |  0.00000 | h  |  8,19,-4 | Act_at_least_2  |          | 
128 |          | cmpa58   |  0.00000 |  0.00000 | h  |  9,19,-4 | Act_at_least_2  |          | 
129 |          | cmpa59   |  0.00000 |  0.00000 | h  | 10,19,-4 | Act_at_least_2  |          | 
130 |          | cmpa60   |  0.00000 |  0.00000 | h  | 11,19,-4 | Act_at_least_2  |          | 
131 |          | cmpa61   |  0.00000 |  0.00000 | h  |  7,20,-4 | Act_at_least_2  |          | 
132 |          | cmpa62   |  0.00000 |  0.00000 | h  |  8,20,-4 | Act_at_least_2  |          | 
133 |          | cmpa63   |  0.00000 |  0.00000 | h  |  9,20,-4 | Act_at_least_2  |          | 
134 |          | cmpa64   |  0.00000 |  0.00000 | h  | 10,20,-4 | Act_at_least_2  |          | 
135 |          | cmpa65   |  0.00000 |  0.00000 | h  | 11,20,-4 | Act_at_least_2  |          | 
136 |          | cmpa66   |  0.00000 |  0.00000 | h  |  7,21,-4 | Act_at_least_2  |          | 
137 |          | cmpa67   |  0.00000 |  0.00000 | h  |  8,21,-4 | Act_at_least_2  |          | 
138 |          | cmpa68   |  0.00000 |  0.00000 | h  |  9,21,-4 | Act_at_least_2  |          | 
139 |          | cmpa69   |  0.00000 |  0.00000 | h  | 10,21,-4 | Act_at_least_2  |          | 
140 |          | cmpa70   |  0.00000 |  0.00000 | h  | 11,21,-4 | Act_at_least_2  |          | 
141 |          | reca1    |  0.00000 |  0.00000 | s  | 15, 8, 0 | Act_Identity    |          | 
142 |          | reca2    |  0.00000 |  0.00000 | s  | 16, 8, 0 | Act_Identity    |          | 
143 |          | reca3    |  0.00000 |  0.00000 | s  | 17, 8, 0 | Act_Identity    |          | 
144 |          | reca4    |  0.00000 |  0.00000 | s  | 18, 8, 0 | Act_Identity    |          | 
145 |          | reca5    |  0.00000 |  0.00000 | s  | 15, 9, 0 | Act_Identity    |          | 
146 |          | reca6    |  0.00000 |  0.00000 | s  | 16, 9, 0 | Act_Identity    |          | 
147 |          | reca7    |  0.00000 |  0.00000 | s  | 17, 9, 0 | Act_Identity    |          | 
148 |          | reca8    |  0.00000 |  0.00000 | s  | 18, 9, 0 | Act_Identity    |          | 
149 |          | reca9    |  0.00000 |  0.00000 | s  | 15,10, 0 | Act_Identity    |          | 
150 |          | reca10   |  0.00000 |  0.00000 | s  | 16,10, 0 | Act_Identity    |          | 
151 |          | reca11   |  0.00000 |  0.00000 | s  | 17,10, 0 | Act_Identity    |          | 
152 |          | reca12   |  0.00000 |  0.00000 | s  | 18,10, 0 | Act_Identity    |          | 
153 |          | reca13   |  0.00000 |  0.00000 | s  | 15,11, 0 | Act_Identity    |          | 
154 |          | reca14   |  0.00000 |  0.00000 | s  | 16,11, 0 | Act_Identity    |          | 
155 |          | reca15   |  0.00000 |  0.00000 | s  | 17,11, 0 | Act_Identity    |          | 
156 |          | reca16   |  0.00000 |  0.00000 | s  | 18,11, 0 | Act_Identity    |          | 
157 |          | reca17   |  0.00000 |  0.00000 | s  | 15,12, 0 | Act_Identity    |          | 
158 |          | reca18   |  0.00000 |  0.00000 | s  | 16,12, 0 | Act_Identity    |          | 
159 |          | reca19   |  0.00000 |  0.00000 | s  | 17,12, 0 | Act_Identity    |          | 
160 |          | reca20   |  0.00000 |  0.00000 | s  | 18,12, 0 | Act_Identity    |          | 
161 |          | reca21   |  0.00000 |  0.00000 | s  | 15,13, 0 | Act_Identity    |          | 
162 |          | reca22   |  0.00000 |  0.00000 | s  | 16,13, 0 | Act_Identity    |          | 
163 |          | reca23   |  0.00000 |  0.00000 | s  | 17,13, 0 | Act_Identity    |          | 
164 |          | reca24   |  0.00000 |  0.00000 | s  | 18,13, 0 | Act_Identity    |          | 
165 |          | reca25   |  0.00000 |  0.00000 | s  | 15,14, 0 | Act_Identity    |          | 
166 |          | reca26   |  0.00000 |  0.00000 | s  | 16,14, 0 | Act_Identity    |          | 
167 |          | reca27   |  0.00000 |  0.00000 | s  | 17,14, 0 | Act_Identity    |          | 
168 |          | reca28   |  0.00000 |  0.00000 | s  | 18,14, 0 | Act_Identity    |          | 
169 |          | reca29   |  0.00000 |  0.00000 | s  | 15,15, 0 | Act_Identity    |          | 
170 |          | reca30   |  0.00000 |  0.00000 | s  | 16,15, 0 | Act_Identity    |          | 
171 |          | reca31   |  0.00000 |  0.00000 | s  | 17,15, 0 | Act_Identity    |          | 
172 |          | reca32   |  0.00000 |  0.00000 | s  | 18,15, 0 | Act_Identity    |          | 
173 |          | reca33   |  0.00000 |  0.00000 | s  | 15,16, 0 | Act_Identity    |          | 
174 |          | reca34   |  0.00000 |  0.00000 | s  | 16,16, 0 | Act_Identity    |          | 
175 |          | reca35   |  0.00000 |  0.00000 | s  | 17,16, 0 | Act_Identity    |          | 
176 |          | reca36   |  0.00000 |  0.00000 | s  | 15,17, 0 | Act_Identity    |          | 
177 |          | reca37   |  0.00000 |  0.00000 | s  | 16,17, 0 | Act_Identity    |          | 
178 |          | reca38   |  0.00000 |  0.00000 | s  | 17,17, 0 | Act_Identity    |          | 
179 |          | reca39   |  0.00000 |  0.00000 | s  | 15,18, 0 | Act_Identity    |          | 
180 |          | reca40   |  0.00000 |  0.00000 | s  | 16,18, 0 | Act_Identity    |          | 
181 |          | reca41   |  0.00000 |  0.00000 | s  | 17,18, 0 | Act_Identity    |          | 
182 |          | reca42   |  0.00000 |  0.00000 | s  | 15,19, 0 | Act_Identity    |          | 
183 |          | reca43   |  0.00000 |  0.00000 | s  | 16,19, 0 | Act_Identity    |          | 
184 |          | reca44   |  0.00000 |  0.00000 | s  | 17,19, 0 | Act_Identity    |          | 
185 |          | reca45   |  0.00000 |  0.00000 | s  | 15,20, 0 | Act_Identity    |          | 
186 |          | reca46   |  0.00000 |  0.00000 | s  | 16,20, 0 | Act_Identity    |          | 
187 |          | reca47   |  0.00000 |  0.00000 | s  | 17,20, 0 | Act_Identity    |          | 
188 |          | reca48   |  0.00000 |  0.00000 | s  | 15,21, 0 | Act_Identity    |          | 
189 |          | reca49   |  0.00000 |  0.00000 | s  | 16,21, 0 | Act_Identity    |          | 
190 |          | reca50   |  0.00000 |  0.00000 | s  | 17,21, 0 | Act_Identity    |          | 
191 |          | dela1    |  0.00000 |  0.00000 | h  | 21, 8, 4 | Act_at_least_2  |          | 
192 |          | dela2    |  0.00000 |  0.00000 | h  | 22, 8, 4 | Act_at_least_2  |          | 
193 |          | dela3    |  0.00000 |  0.00000 | h  | 23, 8, 4 | Act_at_least_2  |          | 
194 |          | dela4    |  0.00000 |  0.00000 | h  | 24, 8, 4 | Act_at_least_2  |          | 
195 |          | dela5    |  0.00000 |  0.00000 | h  | 21, 9, 4 | Act_at_least_2  |          | 
196 |          | dela6    |  0.00000 |  0.00000 | h  | 22, 9, 4 | Act_at_least_2  |          | 
197 |          | dela7    |  0.00000 |  0.00000 | h  | 23, 9, 4 | Act_at_least_2  |          | 
198 |          | dela8    |  0.00000 |  0.00000 | h  | 24, 9, 4 | Act_at_least_2  |          | 
199 |          | dela9    |  0.00000 |  0.00000 | h  | 21,10, 4 | Act_at_least_2  |          | 
200 |          | dela10   |  0.00000 |  0.00000 | h  | 22,10, 4 | Act_at_least_2  |          | 
201 |          | dela11   |  0.00000 |  0.00000 | h  | 23,10, 4 | Act_at_least_2  |          | 
202 |          | dela12   |  0.00000 |  0.00000 | h  | 24,10, 4 | Act_at_least_2  |          | 
203 |          | dela13   |  0.00000 |  0.00000 | h  | 21,11, 4 | Act_at_least_2  |          | 
204 |          | dela14   |  0.00000 |  0.00000 | h  | 22,11, 4 | Act_at_least_2  |          | 
205 |          | dela15   |  0.00000 |  0.00000 | h  | 23,11, 4 | Act_at_least_2  |          | 
206 |          | dela16   |  0.00000 |  0.00000 | h  | 24,11, 4 | Act_at_least_2  |          | 
207 |          | dela17   |  0.00000 |  0.00000 | h  | 21,12, 4 | Act_at_least_2  |          | 
208 |          | dela18   |  0.00000 |  0.00000 | h  | 22,12, 4 | Act_at_least_2  |          | 
209 |          | dela19   |  0.00000 |  0.00000 | h  | 23,12, 4 | Act_at_least_2  |          | 
210 |          | dela20   |  0.00000 |  0.00000 | h  | 24,12, 4 | Act_at_least_2  |          | 
211 |          | dela21   |  0.00000 |  0.00000 | h  | 21,13, 4 | Act_at_least_2  |          | 
212 |          | dela22   |  0.00000 |  0.00000 | h  | 22,13, 4 | Act_at_least_2  |          | 
213 |          | dela23   |  0.00000 |  0.00000 | h  | 23,13, 4 | Act_at_least_2  |          | 
214 |          | dela24   |  0.00000 |  0.00000 | h  | 24,13, 4 | Act_at_least_2  |          | 
215 |          | dela25   |  0.00000 |  0.00000 | h  | 21,14, 4 | Act_at_least_2  |          | 
216 |          | dela26   |  0.00000 |  0.00000 | h  | 22,14, 4 | Act_at_least_2  |          | 
217 |          | dela27   |  0.00000 |  0.00000 | h  | 23,14, 4 | Act_at_least_2  |          | 
218 |          | dela28   |  0.00000 |  0.00000 | h  | 24,14, 4 | Act_at_least_2  |          | 
219 |          | dela29   |  0.00000 |  0.00000 | h  | 21,15, 4 | Act_at_least_2  |          | 
220 |          | dela30   |  0.00000 |  0.00000 | h  | 22,15, 4 | Act_at_least_2  |          | 
221 |          | dela31   |  0.00000 |  0.00000 | h  | 23,15, 4 | Act_at_least_2  |          | 
222 |          | dela32   |  0.00000 |  0.00000 | h  | 24,15, 4 | Act_at_least_2  |          | 
223 |          | dela33   |  0.00000 |  0.00000 | h  | 21,16, 4 | Act_at_least_2  |          | 
224 |          | dela34   |  0.00000 |  0.00000 | h  | 22,16, 4 | Act_at_least_2  |          | 
225 |          | dela35   |  0.00000 |  0.00000 | h  | 23,16, 4 | Act_at_least_2  |          | 
226 |          | dela36   |  0.00000 |  0.00000 | h  | 21,17, 4 | Act_at_least_2  |          | 
227 |          | dela37   |  0.00000 |  0.00000 | h  | 22,17, 4 | Act_at_least_2  |          | 
228 |          | dela38   |  0.00000 |  0.00000 | h  | 23,17, 4 | Act_at_least_2  |          | 
229 |          | dela39   |  0.00000 |  0.00000 | h  | 21,18, 4 | Act_at_least_2  |          | 
230 |          | dela40   |  0.00000 |  0.00000 | h  | 22,18, 4 | Act_at_least_2  |          | 
231 |          | dela41   |  0.00000 |  0.00000 | h  | 23,18, 4 | Act_at_least_2  |          | 
232 |          | dela42   |  0.00000 |  0.00000 | h  | 21,19, 4 | Act_at_least_2  |          | 
233 |          | dela43   |  0.00000 |  0.00000 | h  | 22,19, 4 | Act_at_least_2  |          | 
234 |          | dela44   |  0.00000 |  0.00000 | h  | 23,19, 4 | Act_at_least_2  |          | 
235 |          | dela45   |  0.00000 |  0.00000 | h  | 21,20, 4 | Act_at_least_2  |          | 
236 |          | dela46   |  0.00000 |  0.00000 | h  | 22,20, 4 | Act_at_least_2  |          | 
237 |          | dela47   |  0.00000 |  0.00000 | h  | 23,20, 4 | Act_at_least_2  |          | 
238 |          | dela48   |  0.00000 |  0.00000 | h  | 21,21, 4 | Act_at_least_2  |          | 
239 |          | dela49   |  0.00000 |  0.00000 | h  | 22,21, 4 | Act_at_least_2  |          | 
240 |          | dela50   |  0.00000 |  0.00000 | h  | 23,21, 4 | Act_at_least_2  |          | 
241 |          | d1a      |  0.00000 |  0.00000 | h  | 21,23, 4 | Act_at_least_1  |          | 
242 |          | d2a      |  0.00000 |  0.00000 | h  | 24,23, 4 | Act_at_least_1  |          | 
243 |          | d3a      |  0.00000 |  0.00000 | h  | 27,23, 8 | Act_at_least_1  |          | 
244 |          | rsta1    |  0.00000 |  0.00000 | h  | 27, 8, 8 | Act_at_least_1  |          |  ArtMap_Site_Rsta_Signal,
                                                                                               ArtMap_Site_Rsta_Self
245 |          | rsta2    |  0.00000 |  0.00000 | h  | 28, 8, 8 | Act_at_least_1  |          |  ArtMap_Site_Rsta_Signal,
                                                                                               ArtMap_Site_Rsta_Self
246 |          | rsta3    |  0.00000 |  0.00000 | h  | 29, 8, 8 | Act_at_least_1  |          |  ArtMap_Site_Rsta_Signal,
                                                                                               ArtMap_Site_Rsta_Self
247 |          | rsta4    |  0.00000 |  0.00000 | h  | 30, 8, 8 | Act_at_least_1  |          |  ArtMap_Site_Rsta_Signal,
                                                                                               ArtMap_Site_Rsta_Self
248 |          | rsta5    |  0.00000 |  0.00000 | h  | 27, 9, 8 | Act_at_least_1  |          |  ArtMap_Site_Rsta_Signal,
                                                                                               ArtMap_Site_Rsta_Self
249 |          | rsta6    |  0.00000 |  0.00000 | h  | 28, 9, 8 | Act_at_least_1  |          |  ArtMap_Site_Rsta_Signal,
                                                                                               ArtMap_Site_Rsta_Self
250 |          | rsta7    |  0.00000 |  0.00000 | h  | 29, 9, 8 | Act_at_least_1  |          |  ArtMap_Site_Rsta_Signal,
                                                                                               ArtMap_Site_Rsta_Self
251 |          | rsta8    |  0.00000 |  0.00000 | h  | 30, 9, 8 | Act_at_least_1  |          |  ArtMap_Site_Rsta_Signal,
                                                                                               ArtMap_Site_Rsta_Self
252 |          | rsta9    |  0.00000 |  0.00000 | h  | 27,10, 8 | Act_at_least_1  |          |  ArtMap_Site_Rsta_Signal,
                                                                                               ArtMap_Site_Rsta_Self
253 |          | rsta10   |  0.00000 |  0.00000 | h  | 28,10, 8 | Act_at_least_1  |          |  ArtMap_Site_Rsta_Signal,
                                                                                               ArtMap_Site_Rsta_Self
254 |          | rsta11   |  0.00000 |  0.00000 | h  | 29,10, 8 | Act_at_least_1  |          |  ArtMap_Site_Rsta_Signal,
                                                                                               ArtMap_Site_Rsta_Self
255 |          | rsta12   |  0.00000 |  0.00000 | h  | 30,10, 8 | Act_at_least_1  |          |  ArtMap_Site_Rsta_Signal,
                                                                                               ArtMap_Site_Rsta_Self
256 |          | rsta13   |  0.00000 |  0.00000 | h  | 27,11, 8 | Act_at_least_1  |          |  ArtMap_Site_Rsta_Signal,
                                                                                               ArtMap_Site_Rsta_Self
257 |          | rsta14   |  0.00000 |  0.00000 | h  | 28,11, 8 | Act_at_least_1  |          |  ArtMap_Site_Rsta_Signal,
                                                                                               ArtMap_Site_Rsta_Self
258 |          | rsta15   |  0.00000 |  0.00000 | h  | 29,11, 8 | Act_at_least_1  |          |  ArtMap_Site_Rsta_Signal,
                                                                                               ArtMap_Site_Rsta_Self
259 |          | rsta16   |  0.00000 |  0.00000 | h  | 30,11, 8 | Act_at_least_1  |          |  ArtMap_Site_Rsta_Signal,
                                                                                               ArtMap_Site_Rsta_Self
260 |          | rsta17   |  0.00000 |  0.00000 | h  | 27,12, 8 | Act_at_least_1  |          |  ArtMap_Site_Rsta_Signal,
                                                                                               ArtMap_Site_Rsta_Self
261 |          | rsta18   |  0.00000 |  0.00000 | h  | 28,12, 8 | Act_at_least_1  |          |  ArtMap_Site_Rsta_Signal,
                                                                                               ArtMap_Site_Rsta_Self
262 |          | rsta19   |  0.00000 |  0.00000 | h  | 29,12, 8 | Act_at_least_1  |          |  ArtMap_Site_Rsta_Signal,
                                                                                               ArtMap_Site_Rsta_Self
263 |          | rsta20   |  0.00000 |  0.00000 | h  | 30,12, 8 | Act_at_least_1  |          |  ArtMap_Site_Rsta_Signal,
                                                                                               ArtMap_Site_Rsta_Self
264 |          | rsta21   |  0.00000 |  0.00000 | h  | 27,13, 8 | Act_at_least_1  |          |  ArtMap_Site_Rsta_Signal,
                                                                                               ArtMap_Site_Rsta_Self
265 |          | rsta22   |  0.00000 |  0.00000 | h  | 28,13, 8 | Act_at_least_1  |          |  ArtMap_Site_Rsta_Signal,
                                                                                               ArtMap_Site_Rsta_Self
266 |          | rsta23   |  0.00000 |  0.00000 | h  | 29,13, 8 | Act_at_least_1  |          |  ArtMap_Site_Rsta_Signal,
                                                                                               ArtMap_Site_Rsta_Self
267 |          | rsta24   |  0.00000 |  0.00000 | h  | 30,13, 8 | Act_at_least_1  |          |  ArtMap_Site_Rsta_Signal,
                                                                                               ArtMap_Site_Rsta_Self
268 |          | rsta25   |  0.00000 |  0.00000 | h  | 27,14, 8 | Act_at_least_1  |          |  ArtMap_Site_Rsta_Signal,
                                                                                               ArtMap_Site_Rsta_Self
269 |          | rsta26   |  0.00000 |  0.00000 | h  | 28,14, 8 | Act_at_least_1  |          |  ArtMap_Site_Rsta_Signal,
                                                                                               ArtMap_Site_Rsta_Self
270 |          | rsta27   |  0.00000 |  0.00000 | h  | 29,14, 8 | Act_at_least_1  |          |  ArtMap_Site_Rsta_Signal,
                                                                                               ArtMap_Site_Rsta_Self
271 |          | rsta28   |  0.00000 |  0.00000 | h  | 30,14, 8 | Act_at_least_1  |          |  ArtMap_Site_Rsta_Signal,
                                                                                               ArtMap_Site_Rsta_Self
272 |          | rsta29   |  0.00000 |  0.00000 | h  | 27,15, 8 | Act_at_least_1  |          |  ArtMap_Site_Rsta_Signal,
                                                                                               ArtMap_Site_Rsta_Self
273 |          | rsta30   |  0.00000 |  0.00000 | h  | 28,15, 8 | Act_at_least_1  |          |  ArtMap_Site_Rsta_Signal,
                                                                                               ArtMap_Site_Rsta_Self
274 |          | rsta31   |  0.00000 |  0.00000 | h  | 29,15, 8 | Act_at_least_1  |          |  ArtMap_Site_Rsta_Signal,
                                                                                               ArtMap_Site_Rsta_Self
275 |          | rsta32   |  0.00000 |  0.00000 | h  | 30,15, 8 | Act_at_least_1  |          |  ArtMap_Site_Rsta_Signal,
                                                                                               ArtMap_Site_Rsta_Self
276 |          | rsta33   |  0.00000 |  0.00000 | h  | 27,16, 8 | Act_at_least_1  |          |  ArtMap_Site_Rsta_Signal,
                                                                                               ArtMap_Site_Rsta_Self
277 |          | rsta34   |  0.00000 |  0.00000 | h  | 28,16, 8 | Act_at_least_1  |          |  ArtMap_Site_Rsta_Signal,
                                                                                               ArtMap_Site_Rsta_Self
278 |          | rsta35   |  0.00000 |  0.00000 | h  | 29,16, 8 | Act_at_least_1  |          |  ArtMap_Site_Rsta_Signal,
                                                                                               ArtMap_Site_Rsta_Self
279 |          | rsta36   |  0.00000 |  0.00000 | h  | 27,17, 8 | Act_at_least_1  |          |  ArtMap_Site_Rsta_Signal,
                                                                                               ArtMap_Site_Rsta_Self
280 |          | rsta37   |  0.00000 |  0.00000 | h  | 28,17, 8 | Act_at_least_1  |          |  ArtMap_Site_Rsta_Signal,
                                                                                               ArtMap_Site_Rsta_Self
281 |          | rsta38   |  0.00000 |  0.00000 | h  | 29,17, 8 | Act_at_least_1  |          |  ArtMap_Site_Rsta_Signal,
                                                                                               ArtMap_Site_Rsta_Self
282 |          | rsta39   |  0.00000 |  0.00000 | h  | 27,18, 8 | Act_at_least_1  |          |  ArtMap_Site_Rsta_Signal,
                                                                                               ArtMap_Site_Rsta_Self
283 |          | rsta40   |  0.00000 |  0.00000 | h  | 28,18, 8 | Act_at_least_1  |          |  ArtMap_Site_Rsta_Signal,
                                                                                               ArtMap_Site_Rsta_Self
284 |          | rsta41   |  0.00000 |  0.00000 | h  | 29,18, 8 | Act_at_least_1  |          |  ArtMap_Site_Rsta_Signal,
                                                                                               ArtMap_Site_Rsta_Self
285 |          | rsta42   |  0.00000 |  0.00000 | h  | 27,19, 8 | Act_at_least_1  |          |  ArtMap_Site_Rsta_Signal,
                                                                                               ArtMap_Site_Rsta_Self
286 |          | rsta43   |  0.00000 |  0.00000 | h  | 28,19, 8 | Act_at_least_1  |          |  ArtMap_Site_Rsta_Signal,
                                                                                               ArtMap_Site_Rsta_Self
287 |          | rsta44   |  0.00000 |  0.00000 | h  | 29,19, 8 | Act_at_least_1  |          |  ArtMap_Site_Rsta_Signal,
                                                                                               ArtMap_Site_Rsta_Self
288 |          | rsta45   |  0.00000 |  0.00000 | h  | 27,20, 8 | Act_at_least_1  |          |  ArtMap_Site_Rsta_Signal,
                                                                                               ArtMap_Site_Rsta_Self
289 |          | rsta46   |  0.00000 |  0.00000 | h  | 28,20, 8 | Act_at_least_1  |          |  ArtMap_Site_Rsta_Signal,
                                                                                               ArtMap_Site_Rsta_Self
290 |          | rsta47   |  0.00000 |  0.00000 | h  | 29,20, 8 | Act_at_least_1  |          |  ArtMap_Site_Rsta_Signal,
                                                                                               ArtMap_Site_Rsta_Self
291 |          | rsta48   |  0.00000 |  0.00000 | h  | 27,21, 8 | Act_at_least_1  |          |  ArtMap_Site_Rsta_Signal,
                                                                                               ArtMap_Site_Rsta_Self
292 |          | rsta49   |  0.00000 |  0.00000 | h  | 28,21, 8 | Act_at_least_1  |          |  ArtMap_Site_Rsta_Signal,
                                                                                               ArtMap_Site_Rsta_Self
293 |          | rsta50   |  0.00000 |  0.00000 | h  | 29,21, 8 | Act_at_least_1  |          |  ArtMap_Site_Rsta_Signal,
                                                                                               ArtMap_Site_Rsta_Self
294 |          | g1a      |  0.00000 |  0.00000 | h  |  7,23,-4 | Act_at_least_2  |          |  ArtMap_Site_Inp_G1a,
                                                                                               ArtMap_Site_Rec_G1a
295 |          | ria      |  0.00000 |  0.00000 | h  |  1, 5,-8 | Act_Product     |          |  ArtMap_Site_Rho_RIa,
                                                                                               ArtMap_Site_Inp_RIa
296 |          | rca      |  0.00000 |  0.00000 | h  |  7, 5,-4 | Act_Identity    |          | 
297 |          | rga      |  0.00000 |  0.00000 | h  |  7, 3,-4 | Act_less_than_0 |          | 
298 |          | cla      |  0.00000 |  0.00000 | h  | 33,23,12 | Act_at_least_1  |          | 
299 |          | nca      |  0.00000 |  0.00000 | h  | 33,21,12 | Act_ARTMAP_NCa  |          | 
300 |          | rhoa     |  0.00000 |  0.00000 | h  |  1, 3,-8 | Act_Identity    |          | 
301 |          | g2a      |  0.00000 |  0.00000 | h  | 15,23, 0 | Act_at_most_0   |          | 
302 |          | map1     |  0.00000 |  0.00000 | h  | 41,18,16 | Act_at_least_2  |          | 
303 |          | map2     |  0.00000 |  0.00000 | h  | 42,18,16 | Act_at_least_2  |          | 
304 |          | map3     |  0.00000 |  0.00000 | h  | 43,18,16 | Act_at_least_2  |          | 
305 |          | map4     |  0.00000 |  0.00000 | h  | 44,18,16 | Act_at_least_2  |          | 
306 |          | map5     |  0.00000 |  0.00000 | h  | 45,18,16 | Act_at_least_2  |          | 
307 |          | map6     |  0.00000 |  0.00000 | h  | 41,19,16 | Act_at_least_2  |          | 
308 |          | map7     |  0.00000 |  0.00000 | h  | 42,19,16 | Act_at_least_2  |          | 
309 |          | map8     |  0.00000 |  0.00000 | h  | 43,19,16 | Act_at_least_2  |          | 
310 |          | map9     |  0.00000 |  0.00000 | h  | 44,19,16 | Act_at_least_2  |          | 
311 |          | map10    |  0.00000 |  0.00000 | h  | 45,19,16 | Act_at_least_2  |          | 
312 |          | map11    |  0.00000 |  0.00000 | h  | 41,20,16 | Act_at_least_2  |          | 
313 |          | map12    |  0.00000 |  0.00000 | h  | 42,20,16 | Act_at_least_2  |          | 
314 |          | map13    |  0.00000 |  0.00000 | h  | 43,20,16 | Act_at_least_2  |          | 
315 |          | map14    |  0.00000 |  0.00000 | h  | 44,20,16 | Act_at_least_2  |          | 
316 |          | map15    |  0.00000 |  0.00000 | h  | 41,21,16 | Act_at_least_2  |          | 
317 |          | map16    |  0.00000 |  0.00000 | h  | 42,21,16 | Act_at_least_2  |          | 
318 |          | map17    |  0.00000 |  0.00000 | h  | 43,21,16 | Act_at_least_2  |          | 
319 |          | map18    |  0.00000 |  0.00000 | h  | 44,21,16 | Act_at_least_2  |          | 
320 |          | map19    |  0.00000 |  0.00000 | h  | 41,22,16 | Act_at_least_2  |          | 
321 |          | map20    |  0.00000 |  0.00000 | h  | 42,22,16 | Act_at_least_2  |          | 
322 |          | map21    |  0.00000 |  0.00000 | h  | 43,22,16 | Act_at_least_2  |          | 
323 |          | map22    |  0.00000 |  0.00000 | h  | 44,22,16 | Act_at_least_2  |          | 
324 |          | map23    |  0.00000 |  0.00000 | h  | 41,23,16 | Act_at_least_2  |          | 
325 |          | map24    |  0.00000 |  0.00000 | h  | 42,23,16 | Act_at_least_2  |          | 
326 |          | map25    |  0.00000 |  0.00000 | h  | 43,23,16 | Act_at_least_2  |          | 
327 |          | map26    |  0.00000 |  0.00000 | h  | 44,23,16 | Act_at_least_2  |          | 
328 |          | d1       |  0.00000 |  0.00000 | h  | 39,32,16 | Act_Identity    |          | 
329 |          | G        |  0.00000 |  0.00000 | h  | 41,25,16 | Act_exactly_1   |          |  ArtMap_Site_ARTb_G,
                                                                                               ArtMap_Site_ARTa_G
330 |          | rb       |  0.00000 |  0.00000 | h  | 39,16,16 | Act_Product     |          |  ArtMap_Site_Rho_RB,
                                                                                               ArtMap_Site_B_RB
331 |          | rm       |  0.00000 |  0.00000 | h  | 41,16,16 | Act_Identity    |          | 
332 |          | rg       |  0.00000 |  0.00000 | h  | 41, 4,16 | Act_less_than_0 |          | 
333 |          | cl       |  0.00000 |  0.00000 | h  | 35,24,16 | Act_at_least_2  |          | 
334 |          | nc       |  0.00000 |  0.00000 | h  | 37,24,16 | Act_at_least_1  |          | 
335 |          | rho      |  0.00000 |  0.00000 | h  | 39,14,16 | Act_Identity    |          | 
336 |          | qu       |  0.00000 |  0.00000 | h  | 15, 5, 0 | Act_Product     |          |  ArtMap_Site_Cmpa_QU,
                                                                                               ArtMap_Site_Inpa_QU
337 |          | drho     |  0.00000 |  0.00000 | h  | 15, 3, 0 | Act_ARTMAP_DRho |          | 
338 |          | inpb1    |  0.00000 |  0.00000 | i  |  1,27,-8 | Act_Identity    |          | 
339 |          | inpb2    |  0.00000 |  0.00000 | i  |  2,27,-8 | Act_Identity    |          | 
340 |          | inpb3    |  0.00000 |  0.00000 | i  |  3,27,-8 | Act_Identity    |          | 
341 |          | inpb4    |  0.00000 |  0.00000 | i  |  4,27,-8 | Act_Identity    |          | 
342 |          | inpb5    |  1.00000 |  0.00000 | i  |  5,27,-8 | Act_Identity    |          | 
343 |          | cmpb1    |  0.00000 |  0.00000 | h  |  7,27,-4 | Act_at_least_2  |          | 
344 |          | cmpb2    |  0.00000 |  0.00000 | h  |  8,27,-4 | Act_at_least_2  |          | 
345 |          | cmpb3    |  0.00000 |  0.00000 | h  |  9,27,-4 | Act_at_least_2  |          | 
346 |          | cmpb4    |  0.00000 |  0.00000 | h  | 10,27,-4 | Act_at_least_2  |          | 
347 |          | cmpb5    |  0.00000 |  0.00000 | h  | 11,27,-4 | Act_at_least_2  |          | 
348 |          | recb1    |  0.00000 |  0.00000 | s  | 15,27, 0 | Act_Identity    |          | 
349 |          | recb2    |  0.00000 |  0.00000 | s  | 16,27, 0 | Act_Identity    |          | 
350 |          | recb3    |  0.00000 |  0.00000 | s  | 17,27, 0 | Act_Identity    |          | 
351 |          | recb4    |  0.00000 |  0.00000 | s  | 18,27, 0 | Act_Identity    |          | 
352 |          | recb5    |  0.00000 |  0.00000 | s  | 19,27, 0 | Act_Identity    |          | 
353 |          | recb6    |  0.00000 |  0.00000 | s  | 15,28, 0 | Act_Identity    |          | 
354 |          | recb7    |  0.00000 |  0.00000 | s  | 16,28, 0 | Act_Identity    |          | 
355 |          | recb8    |  0.00000 |  0.00000 | s  | 17,28, 0 | Act_Identity    |          | 
356 |          | recb9    |  0.00000 |  0.00000 | s  | 18,28, 0 | Act_Identity    |          | 
357 |          | recb10   |  0.00000 |  0.00000 | s  | 19,28, 0 | Act_Identity    |          | 
358 |          | recb11   |  0.00000 |  0.00000 | s  | 15,29, 0 | Act_Identity    |          | 
359 |          | recb12   |  0.00000 |  0.00000 | s  | 16,29, 0 | Act_Identity    |          | 
360 |          | recb13   |  0.00000 |  0.00000 | s  | 17,29, 0 | Act_Identity    |          | 
361 |          | recb14   |  0.00000 |  0.00000 | s  | 18,29, 0 | Act_Identity    |          | 
362 |          | recb15   |  0.00000 |  0.00000 | s  | 15,30, 0 | Act_Identity    |          | 
363 |          | recb16   |  0.00000 |  0.00000 | s  | 16,30, 0 | Act_Identity    |          | 
364 |          | recb17   |  0.00000 |  0.00000 | s  | 17,30, 0 | Act_Identity    |          | 
365 |          | recb18   |  0.00000 |  0.00000 | s  | 18,30, 0 | Act_Identity    |          | 
366 |          | recb19   |  0.00000 |  0.00000 | s  | 15,31, 0 | Act_Identity    |          | 
367 |          | recb20   |  0.00000 |  0.00000 | s  | 16,31, 0 | Act_Identity    |          | 
368 |          | recb21   |  0.00000 |  0.00000 | s  | 17,31, 0 | Act_Identity    |          | 
369 |          | recb22   |  0.00000 |  0.00000 | s  | 18,31, 0 | Act_Identity    |          | 
370 |          | recb23   |  0.00000 |  0.00000 | s  | 15,32, 0 | Act_Identity    |          | 
371 |          | recb24   |  0.00000 |  0.00000 | s  | 16,32, 0 | Act_Identity    |          | 
372 |          | recb25   |  0.00000 |  0.00000 | s  | 17,32, 0 | Act_Identity    |          | 
373 |          | recb26   |  0.00000 |  0.00000 | s  | 18,32, 0 | Act_Identity    |          | 
374 |          | delb1    |  0.00000 |  0.00000 | h  | 21,27, 4 | Act_at_least_2  |          | 
375 |          | delb2    |  0.00000 |  0.00000 | h  | 22,27, 4 | Act_at_least_2  |          | 
376 |          | delb3    |  0.00000 |  0.00000 | h  | 23,27, 4 | Act_at_least_2  |          | 
377 |          | delb4    |  0.00000 |  0.00000 | h  | 24,27, 4 | Act_at_least_2  |          | 
378 |          | delb5    |  0.00000 |  0.00000 | h  | 25,27, 4 | Act_at_least_2  |          | 
379 |          | delb6    |  0.00000 |  0.00000 | h  | 21,28, 4 | Act_at_least_2  |          | 
380 |          | delb7    |  0.00000 |  0.00000 | h  | 22,28, 4 | Act_at_least_2  |          | 
381 |          | delb8    |  0.00000 |  0.00000 | h  | 23,28, 4 | Act_at_least_2  |          | 
382 |          | delb9    |  0.00000 |  0.00000 | h  | 24,28, 4 | Act_at_least_2  |          | 
383 |          | delb10   |  0.00000 |  0.00000 | h  | 25,28, 4 | Act_at_least_2  |          | 
384 |          | delb11   |  0.00000 |  0.00000 | h  | 21,29, 4 | Act_at_least_2  |          | 
385 |          | delb12   |  0.00000 |  0.00000 | h  | 22,29, 4 | Act_at_least_2  |          | 
386 |          | delb13   |  0.00000 |  0.00000 | h  | 23,29, 4 | Act_at_least_2  |          | 
387 |          | delb14   |  0.00000 |  0.00000 | h  | 24,29, 4 | Act_at_least_2  |          | 
388 |          | delb15   |  0.00000 |  0.00000 | h  | 21,30, 4 | Act_at_least_2  |          | 
389 |          | delb16   |  0.00000 |  0.00000 | h  | 22,30, 4 | Act_at_least_2  |          | 
390 |          | delb17   |  0.00000 |  0.00000 | h  | 23,30, 4 | Act_at_least_2  |          | 
391 |          | delb18   |  0.00000 |  0.00000 | h  | 24,30, 4 | Act_at_least_2  |          | 
392 |          | delb19   |  0.00000 |  0.00000 | h  | 21,31, 4 | Act_at_least_2  |          | 
393 |          | delb20   |  0.00000 |  0.00000 | h  | 22,31, 4 | Act_at_least_2  |          | 
394 |          | delb21   |  0.00000 |  0.00000 | h  | 23,31, 4 | Act_at_least_2  |          | 
395 |          | delb22   |  0.00000 |  0.00000 | h  | 24,31, 4 | Act_at_least_2  |          | 
396 |          | delb23   |  0.00000 |  0.00000 | h  | 21,32, 4 | Act_at_least_2  |          | 
397 |          | delb24   |  0.00000 |  0.00000 | h  | 22,32, 4 | Act_at_least_2  |          | 
398 |          | delb25   |  0.00000 |  0.00000 | h  | 23,32, 4 | Act_at_least_2  |          | 
399 |          | delb26   |  0.00000 |  0.00000 | h  | 24,32, 4 | Act_at_least_2  |          | 
400 |          | d1b      |  0.00000 |  0.00000 | h  | 21,25, 4 | Act_at_least_1  |          | 
401 |          | d2b      |  0.00000 |  0.00000 | h  | 24,25, 4 | Act_at_least_1  |          | 
402 |          | d3b      |  0.00000 |  0.00000 | h  | 27,25, 8 | Act_at_least_1  |          | 
403 |          | rstb1    |  0.00000 |  0.00000 | h  | 27,27, 8 | Act_at_least_1  |          |  ArtMap_Site_Rstb_Signal,
                                                                                               ArtMap_Site_Rstb_Self
404 |          | rstb2    |  0.00000 |  0.00000 | h  | 28,27, 8 | Act_at_least_1  |          |  ArtMap_Site_Rstb_Signal,
                                                                                               ArtMap_Site_Rstb_Self
405 |          | rstb3    |  0.00000 |  0.00000 | h  | 29,27, 8 | Act_at_least_1  |          |  ArtMap_Site_Rstb_Signal,
                                                                                               ArtMap_Site_Rstb_Self
406 |          | rstb4    |  0.00000 |  0.00000 | h  | 30,27, 8 | Act_at_least_1  |          |  ArtMap_Site_Rstb_Signal,
                                                                                               ArtMap_Site_Rstb_Self
407 |          | rstb5    |  0.00000 |  0.00000 | h  | 31,27, 8 | Act_at_least_1  |          |  ArtMap_Site_Rstb_Signal,
                                                                                               ArtMap_Site_Rstb_Self
408 |          | rstb6    |  0.00000 |  0.00000 | h  | 27,28, 8 | Act_at_least_1  |          |  ArtMap_Site_Rstb_Signal,
                                                                                               ArtMap_Site_Rstb_Self
409 |          | rstb7    |  0.00000 |  0.00000 | h  | 28,28, 8 | Act_at_least_1  |          |  ArtMap_Site_Rstb_Signal,
                                                                                               ArtMap_Site_Rstb_Self
410 |          | rstb8    |  0.00000 |  0.00000 | h  | 29,28, 8 | Act_at_least_1  |          |  ArtMap_Site_Rstb_Signal,
                                                                                               ArtMap_Site_Rstb_Self
411 |          | rstb9    |  0.00000 |  0.00000 | h  | 30,28, 8 | Act_at_least_1  |          |  ArtMap_Site_Rstb_Signal,
                                                                                               ArtMap_Site_Rstb_Self
412 |          | rstb10   |  0.00000 |  0.00000 | h  | 31,28, 8 | Act_at_least_1  |          |  ArtMap_Site_Rstb_Signal,
                                                                                               ArtMap_Site_Rstb_Self
413 |          | rstb11   |  0.00000 |  0.00000 | h  | 27,29, 8 | Act_at_least_1  |          |  ArtMap_Site_Rstb_Signal,
                                                                                               ArtMap_Site_Rstb_Self
414 |          | rstb12   |  0.00000 |  0.00000 | h  | 28,29, 8 | Act_at_least_1  |          |  ArtMap_Site_Rstb_Signal,
                                                                                               ArtMap_Site_Rstb_Self
415 |          | rstb13   |  0.00000 |  0.00000 | h  | 29,29, 8 | Act_at_least_1  |          |  ArtMap_Site_Rstb_Signal,
                                                                                               ArtMap_Site_Rstb_Self
416 |          | rstb14   |  0.00000 |  0.00000 | h  | 30,29, 8 | Act_at_least_1  |          |  ArtMap_Site_Rstb_Signal,
                                                                                               ArtMap_Site_Rstb_Self
417 |          | rstb15   |  0.00000 |  0.00000 | h  | 27,30, 8 | Act_at_least_1  |          |  ArtMap_Site_Rstb_Signal,
                                                                                               ArtMap_Site_Rstb_Self
418 |          | rstb16   |  0.00000 |  0.00000 | h  | 28,30, 8 | Act_at_least_1  |          |  ArtMap_Site_Rstb_Signal,
                                                                                               ArtMap_Site_Rstb_Self
419 |          | rstb17   |  0.00000 |  0.00000 | h  | 29,30, 8 | Act_at_least_1  |          |  ArtMap_Site_Rstb_Signal,
                                                                                               ArtMap_Site_Rstb_Self
420 |          | rstb18   |  0.00000 |  0.00000 | h  | 30,30, 8 | Act_at_least_1  |          |  ArtMap_Site_Rstb_Signal,
                                                                                               ArtMap_Site_Rstb_Self
421 |          | rstb19   |  0.00000 |  0.00000 | h  | 27,31, 8 | Act_at_least_1  |          |  ArtMap_Site_Rstb_Signal,
                                                                                               ArtMap_Site_Rstb_Self
422 |          | rstb20   |  0.00000 |  0.00000 | h  | 28,31, 8 | Act_at_least_1  |          |  ArtMap_Site_Rstb_Signal,
                                                                                               ArtMap_Site_Rstb_Self
423 |          | rstb21   |  0.00000 |  0.00000 | h  | 29,31, 8 | Act_at_least_1  |          |  ArtMap_Site_Rstb_Signal,
                                                                                               ArtMap_Site_Rstb_Self
424 |          | rstb22   |  0.00000 |  0.00000 | h  | 30,31, 8 | Act_at_least_1  |          |  ArtMap_Site_Rstb_Signal,
                                                                                               ArtMap_Site_Rstb_Self
425 |          | rstb23   |  0.00000 |  0.00000 | h  | 27,32, 8 | Act_at_least_1  |          |  ArtMap_Site_Rstb_Signal,
                                                                                               ArtMap_Site_Rstb_Self
426 |          | rstb24   |  0.00000 |  0.00000 | h  | 28,32, 8 | Act_at_least_1  |          |  ArtMap_Site_Rstb_Signal,
                                                                                               ArtMap_Site_Rstb_Self
427 |          | rstb25   |  0.00000 |  0.00000 | h  | 29,32, 8 | Act_at_least_1  |          |  ArtMap_Site_Rstb_Signal,
                                                                                               ArtMap_Site_Rstb_Self
428 |          | rstb26   |  0.00000 |  0.00000 | h  | 30,32, 8 | Act_at_least_1  |          |  ArtMap_Site_Rstb_Signal,
                                                                                               ArtMap_Site_Rstb_Self
429 |          | g1b      |  0.00000 |  0.00000 | h  |  7,25,-4 | Act_at_least_2  |          |  ArtMap_Site_Inp_G1b,
                                                                                               ArtMap_Site_Rec_G1b
430 |          | rib      |  0.00000 |  0.00000 | h  |  1,34,-8 | Act_Product     |          |  ArtMap_Site_Rho_RIb,
                                                                                               ArtMap_Site_Inp_RIb
431 |          | rcb      |  0.00000 |  0.00000 | h  |  7,34,-4 | Act_Identity    |          | 
432 |          | rgb      |  0.00000 |  0.00000 | h  |  7,36,-4 | Act_less_than_0 |          | 
433 |          | clb      |  0.00000 |  0.00000 | h  | 33,25,12 | Act_at_least_1  |          | 
434 |          | ncb      |  0.00000 |  0.00000 | h  | 33,27,12 | Act_ARTMAP_NCb  |          | 
435 |          | rhob     |  0.00000 |  0.00000 | h  |  1,36,-8 | Act_Identity    |          | 
436 |          | g2b      |  0.00000 |  0.00000 | h  | 15,25, 0 | Act_at_most_0   |          | 
----|----------|----------|----------|----------|----|----------|-----------------|----------|-------------------------


connection definition section :

target | site                    | source:weight
-------|-------------------------|--------------------------------------------------------------------------------------------------
    71 |                         | 240: 0.00000, 239: 0.00000, 238: 0.00000, 237: 0.00000, 236: 0.00000, 235: 0.00000, 234: 0.00000,
                                   233: 0.00000, 232: 0.00000, 231: 0.00000, 230: 0.00000, 229: 0.00000, 228: 0.00000, 227: 0.00000,
                                   226: 0.00000, 225: 0.00000, 224: 0.00000, 223: 0.00000, 222: 0.00000, 221: 0.00000, 220: 0.00000,
                                   219: 0.00000, 218: 0.00000, 217: 0.00000, 216: 0.00000, 215: 0.00000, 214: 0.00000, 213: 0.00000,
                                   212: 0.00000, 211: 0.00000, 210: 0.00000, 209: 0.00000, 208: 0.00000, 207: 0.00000, 206: 0.00000,
                                   205: 0.00000, 204: 0.00000, 203: 0.00000, 202: 0.00000, 201: 0.00000, 200: 0.00000, 199: 0.00000,
                                   198: 0.00000, 197: 0.00000, 196: 0.00000, 195: 0.00000, 194: 0.00000, 193: 0.00000, 192: 0.00000,
                                   191: 0.00000, 294: 0.00000,   1: 0.00000
    72 |                         | 240: 0.00000, 239: 0.00000, 238: 0.00000, 237: 0.00000, 236: 0.00000, 235: 0.00000, 234: 0.00000,
                                   233: 0.00000, 232: 0.00000, 231: 0.00000, 230: 0.00000, 229: 0.00000, 228: 0.00000, 227: 0.00000,
                                   226: 0.00000, 225: 0.00000, 224: 0.00000, 223: 0.00000, 222: 0.00000, 221: 0.00000, 220: 0.00000,
                                   219: 0.00000, 218: 0.00000, 217: 0.00000, 216: 0.00000, 215: 0.00000, 214: 0.00000, 213: 0.00000,
                                   212: 0.00000, 211: 0.00000, 210: 0.00000, 209: 0.00000, 208: 0.00000, 207: 0.00000, 206: 0.00000,
                                   205: 0.00000, 204: 0.00000, 203: 0.00000, 202: 0.00000, 201: 0.00000, 200: 0.00000, 199: 0.00000,
                                   198: 0.00000, 197: 0.00000, 196: 0.00000, 195: 0.00000, 194: 0.00000, 193: 0.00000, 192: 0.00000,
                                   191: 0.00000, 294: 0.00000,   2: 0.00000
    73 |                         | 240: 0.00000, 239: 0.00000, 238: 0.00000, 237: 0.00000, 236: 0.00000, 235: 0.00000, 234: 0.00000,
                                   233: 0.00000, 232: 0.00000, 231: 0.00000, 230: 0.00000, 229: 0.00000, 228: 0.00000, 227: 0.00000,
                                   226: 0.00000, 225: 0.00000, 224: 0.00000, 223: 0.00000, 222: 0.00000, 221: 0.00000, 220: 0.00000,
                                   219: 0.00000, 218: 0.00000, 217: 0.00000, 216: 0.00000, 215: 0.00000, 214: 0.00000, 213: 0.00000,
                                   212: 0.00000, 211: 0.00000, 210: 0.00000, 209: 0.00000, 208: 0.00000, 207: 0.00000, 206: 0.00000,
                                   205: 0.00000, 204: 0.00000, 203: 0.00000, 202: 0.00000, 201: 0.00000, 200: 0.00000, 199: 0.00000,
                                   198: 0.00000, 197: 0.00000, 196: 0.00000, 195: 0.00000, 194: 0.00000, 193: 0.00000, 192: 0.00000,
                                   191: 0.00000, 294: 0.00000,   3: 0.00000
    74 |                         | 240: 0.00000, 239: 0.00000, 238: 0.00000, 237: 0.00000, 236: 0.00000, 235: 0.00000, 234: 0.00000,
                                   233: 0.00000, 232: 0.00000, 231: 0.00000, 230: 0.00000, 229: 0.00000, 228: 0.00000, 227: 0.00000,
                                   226: 0.00000, 225: 0.00000, 224: 0.00000, 223: 0.00000, 222: 0.00000, 221: 0.00000, 220: 0.00000,
                                   219: 0.00000, 218: 0.00000, 217: 0.00000, 216: 0.00000, 215: 0.00000, 214: 0.00000, 213: 0.00000,
                                   212: 0.00000, 211: 0.00000, 210: 0.00000, 209: 0.00000, 208: 0.00000, 207: 0.00000, 206: 0.00000,
                                   205: 0.00000, 204: 0.00000, 203: 0.00000, 202: 0.00000, 201: 0.00000, 200: 0.00000, 199: 0.00000,
                                   198: 0.00000, 197: 0.00000, 196: 0.00000, 195: 0.00000, 194: 0.00000, 193: 0.00000, 192: 0.00000,
                                   191: 0.00000, 294: 0.00000,   4: 0.00000
    75 |                         | 240: 0.00000, 239: 0.00000, 238: 0.00000, 237: 0.00000, 236: 0.00000, 235: 0.00000, 234: 0.00000,
                                   233: 0.00000, 232: 0.00000, 231: 0.00000, 230: 0.00000, 229: 0.00000, 228: 0.00000, 227: 0.00000,
                                   226: 0.00000, 225: 0.00000, 224: 0.00000, 223: 0.00000, 222: 0.00000, 221: 0.00000, 220: 0.00000,
                                   219: 0.00000, 218: 0.00000, 217: 0.00000, 216: 0.00000, 215: 0.00000, 214: 0.00000, 213: 0.00000,
                                   212: 0.00000, 211: 0.00000, 210: 0.00000, 209: 0.00000, 208: 0.00000, 207: 0.00000, 206: 0.00000,
                                   205: 0.00000, 204: 0.00000, 203: 0.00000, 202: 0.00000, 201: 0.00000, 200: 0.00000, 199: 0.00000,
                                   198: 0.00000, 197: 0.00000, 196: 0.00000, 195: 0.00000, 194: 0.00000, 193: 0.00000, 192: 0.00000,
                                   191: 0.00000, 294: 0.00000,   5: 0.00000
    76 |                         | 240: 0.00000, 239: 0.00000, 238: 0.00000, 237: 0.00000, 236: 0.00000, 235: 0.00000, 234: 0.00000,
                                   233: 0.00000, 232: 0.00000, 231: 0.00000, 230: 0.00000, 229: 0.00000, 228: 0.00000, 227: 0.00000,
                                   226: 0.00000, 225: 0.00000, 224: 0.00000, 223: 0.00000, 222: 0.00000, 221: 0.00000, 220: 0.00000,
                                   219: 0.00000, 218: 0.00000, 217: 0.00000, 216: 0.00000, 215: 0.00000, 214: 0.00000, 213: 0.00000,
                                   212: 0.00000, 211: 0.00000, 210: 0.00000, 209: 0.00000, 208: 0.00000, 207: 0.00000, 206: 0.00000,
                                   205: 0.00000, 204: 0.00000, 203: 0.00000, 202: 0.00000, 201: 0.00000, 200: 0.00000, 199: 0.00000,
                                   198: 0.00000, 197: 0.00000, 196: 0.00000, 195: 0.00000, 194: 0.00000, 193: 0.00000, 192: 0.00000,
                                   191: 0.00000, 294: 0.00000,   6: 0.00000
    77 |                         | 240: 0.00000, 239: 0.00000, 238: 0.00000, 237: 0.00000, 236: 0.00000, 235: 0.00000, 234: 0.00000,
                                   233: 0.00000, 232: 0.00000, 231: 0.00000, 230: 0.00000, 229: 0.00000, 228: 0.00000, 227: 0.00000,
                                   226: 0.00000, 225: 0.00000, 224: 0.00000, 223: 0.00000, 222: 0.00000, 221: 0.00000, 220: 0.00000,
                                   219: 0.00000, 218: 0.00000, 217: 0.00000, 216: 0.00000, 215: 0.00000, 214: 0.00000, 213: 0.00000,
                                   212: 0.00000, 211: 0.00000, 210: 0.00000, 209: 0.00000, 208: 0.00000, 207: 0.00000, 206: 0.00000,
                                   205: 0.00000, 204: 0.00000, 203: 0.00000, 202: 0.00000, 201: 0.00000, 200: 0.00000, 199: 0.00000,
                                   198: 0.00000, 197: 0.00000, 196: 0.00000, 195: 0.00000, 194: 0.00000, 193: 0.00000, 192: 0.00000,
                                   191: 0.00000, 294: 0.00000,   7: 0.00000
    78 |                         | 240: 0.00000, 239: 0.00000, 238: 0.00000, 237: 0.00000, 236: 0.00000, 235: 0.00000, 234: 0.00000,
                                   233: 0.00000, 232: 0.00000, 231: 0.00000, 230: 0.00000, 229: 0.00000, 228: 0.00000, 227: 0.00000,
                                   226: 0.00000, 225: 0.00000, 224: 0.00000, 223: 0.00000, 222: 0.00000, 221: 0.00000, 220: 0.00000,
                                   219: 0.00000, 218: 0.00000, 217: 0.00000, 216: 0.00000, 215: 0.00000, 214: 0.00000, 213: 0.00000,
                                   212: 0.00000, 211: 0.00000, 210: 0.00000, 209: 0.00000, 208: 0.00000, 207: 0.00000, 206: 0.00000,
                                   205: 0.00000, 204: 0.00000, 203: 0.00000, 202: 0.00000, 201: 0.00000, 200: 0.00000, 199: 0.00000,
                                   198: 0.00000, 197: 0.00000, 196: 0.00000, 195: 0.00000, 194: 0.00000, 193: 0.00000, 192: 0.00000,
                                   191: 0.00000, 294: 0.00000,   8: 0.00000
    79 |                         | 240: 0.00000, 239: 0.00000, 238: 0.00000, 237: 0.00000, 236: 0.00000, 235: 0.00000, 234: 0.00000,
                                   233: 0.00000, 232: 0.00000, 231: 0.00000, 230: 0.00000, 229: 0.00000, 228: 0.00000, 227: 0.00000,
                                   226: 0.00000, 225: 0.00000, 224: 0.00000, 223: 0.00000, 222: 0.00000, 221: 0.00000, 220: 0.00000,
                                   219: 0.00000, 218: 0.00000, 217: 0.00000, 216: 0.00000, 215: 0.00000, 214: 0.00000, 213: 0.00000,
                                   212: 0.00000, 211: 0.00000, 210: 0.00000, 209: 0.00000, 208: 0.00000, 207: 0.00000, 206: 0.00000,
                                   205: 0.00000, 204: 0.00000, 203: 0.00000, 202: 0.00000, 201: 0.00000, 200: 0.00000, 199: 0.00000,
                                   198: 0.00000, 197: 0.00000, 196: 0.00000, 195: 0.00000, 194: 0.00000, 193: 0.00000, 192: 0.00000,
                                   191: 0.00000, 294: 0.00000,   9: 0.00000
    80 |                         | 240: 0.00000, 239: 0.00000, 238: 0.00000, 237: 0.00000, 236: 0.00000, 235: 0.00000, 234: 0.00000,
                                   233: 0.00000, 232: 0.00000, 231: 0.00000, 230: 0.00000, 229: 0.00000, 228: 0.00000, 227: 0.00000,
                                   226: 0.00000, 225: 0.00000, 224: 0.00000, 223: 0.00000, 222: 0.00000, 221: 0.00000, 220: 0.00000,
                                   219: 0.00000, 218: 0.00000, 217: 0.00000, 216: 0.00000, 215: 0.00000, 214: 0.00000, 213: 0.00000,
                                   212: 0.00000, 211: 0.00000, 210: 0.00000, 209: 0.00000, 208: 0.00000, 207: 0.00000, 206: 0.00000,
                                   205: 0.00000, 204: 0.00000, 203: 0.00000, 202: 0.00000, 201: 0.00000, 200: 0.00000, 199: 0.00000,
                                   198: 0.00000, 197: 0.00000, 196: 0.00000, 195: 0.00000, 194: 0.00000, 193: 0.00000, 192: 0.00000,
                                   191: 0.00000, 294: 0.00000,  10: 0.00000
    81 |                         | 240: 0.00000, 239: 0.00000, 238: 0.00000, 237: 0.00000, 236: 0.00000, 235: 0.00000, 234: 0.00000,
                                   233: 0.00000, 232: 0.00000, 231: 0.00000, 230: 0.00000, 229: 0.00000, 228: 0.00000, 227: 0.00000,
                                   226: 0.00000, 225: 0.00000, 224: 0.00000, 223: 0.00000, 222: 0.00000, 221: 0.00000, 220: 0.00000,
                                   219: 0.00000, 218: 0.00000, 217: 0.00000, 216: 0.00000, 215: 0.00000, 214: 0.00000, 213: 0.00000,
                                   212: 0.00000, 211: 0.00000, 210: 0.00000, 209: 0.00000, 208: 0.00000, 207: 0.00000, 206: 0.00000,
                                   205: 0.00000, 204: 0.00000, 203: 0.00000, 202: 0.00000, 201: 0.00000, 200: 0.00000, 199: 0.00000,
                                   198: 0.00000, 197: 0.00000, 196: 0.00000, 195: 0.00000, 194: 0.00000, 193: 0.00000, 192: 0.00000,
                                   191: 0.00000, 294: 0.00000,  11: 0.00000
    82 |                         | 240: 0.00000, 239: 0.00000, 238: 0.00000, 237: 0.00000, 236: 0.00000, 235: 0.00000, 234: 0.00000,
                                   233: 0.00000, 232: 0.00000, 231: 0.00000, 230: 0.00000, 229: 0.00000, 228: 0.00000, 227: 0.00000,
                                   226: 0.00000, 225: 0.00000, 224: 0.00000, 223: 0.00000, 222: 0.00000, 221: 0.00000, 220: 0.00000,
                                   219: 0.00000, 218: 0.00000, 217: 0.00000, 216: 0.00000, 215: 0.00000, 214: 0.00000, 213: 0.00000,
                                   212: 0.00000, 211: 0.00000, 210: 0.00000, 209: 0.00000, 208: 0.00000, 207: 0.00000, 206: 0.00000,
                                   205: 0.00000, 204: 0.00000, 203: 0.00000, 202: 0.00000, 201: 0.00000, 200: 0.00000, 199: 0.00000,
                                   198: 0.00000, 197: 0.00000, 196: 0.00000, 195: 0.00000, 194: 0.00000, 193: 0.00000, 192: 0.00000,
                                   191: 0.00000, 294: 0.00000,  12: 0.00000
    83 |                         | 240: 0.00000, 239: 0.00000, 238: 0.00000, 237: 0.00000, 236: 0.00000, 235: 0.00000, 234: 0.00000,
                                   233: 0.00000, 232: 0.00000, 231: 0.00000, 230: 0.00000, 229: 0.00000, 228: 0.00000, 227: 0.00000,
                                   226: 0.00000, 225: 0.00000, 224: 0.00000, 223: 0.00000, 222: 0.00000, 221: 0.00000, 220: 0.00000,
                                   219: 0.00000, 218: 0.00000, 217: 0.00000, 216: 0.00000, 215: 0.00000, 214: 0.00000, 213: 0.00000,
                                   212: 0.00000, 211: 0.00000, 210: 0.00000, 209: 0.00000, 208: 0.00000, 207: 0.00000, 206: 0.00000,
                                   205: 0.00000, 204: 0.00000, 203: 0.00000, 202: 0.00000, 201: 0.00000, 200: 0.00000, 199: 0.00000,
                                   198: 0.00000, 197: 0.00000, 196: 0.00000, 195: 0.00000, 194: 0.00000, 193: 0.00000, 192: 0.00000,
                                   191: 0.00000, 294: 0.00000,  13: 0.00000
    84 |                         | 240: 0.00000, 239: 0.00000, 238: 0.00000, 237: 0.00000, 236: 0.00000, 235: 0.00000, 234: 0.00000,
                                   233: 0.00000, 232: 0.00000, 231: 0.00000, 230: 0.00000, 229: 0.00000, 228: 0.00000, 227: 0.00000,
                                   226: 0.00000, 225: 0.00000, 224: 0.00000, 223: 0.00000, 222: 0.00000, 221: 0.00000, 220: 0.00000,
                                   219: 0.00000, 218: 0.00000, 217: 0.00000, 216: 0.00000, 215: 0.00000, 214: 0.00000, 213: 0.00000,
                                   212: 0.00000, 211: 0.00000, 210: 0.00000, 209: 0.00000, 208: 0.00000, 207: 0.00000, 206: 0.00000,
                                   205: 0.00000, 204: 0.00000, 203: 0.00000, 202: 0.00000, 201: 0.00000, 200: 0.00000, 199: 0.00000,
                                   198: 0.00000, 197: 0.00000, 196: 0.00000, 195: 0.00000, 194: 0.00000, 193: 0.00000, 192: 0.00000,
                                   191: 0.00000, 294: 0.00000,  14: 0.00000
    85 |                         | 240: 0.00000, 239: 0.00000, 238: 0.00000, 237: 0.00000, 236: 0.00000, 235: 0.00000, 234: 0.00000,
                                   233: 0.00000, 232: 0.00000, 231: 0.00000, 230: 0.00000, 229: 0.00000, 228: 0.00000, 227: 0.00000,
                                   226: 0.00000, 225: 0.00000, 224: 0.00000, 223: 0.00000, 222: 0.00000, 221: 0.00000, 220: 0.00000,
                                   219: 0.00000, 218: 0.00000, 217: 0.00000, 216: 0.00000, 215: 0.00000, 214: 0.00000, 213: 0.00000,
                                   212: 0.00000, 211: 0.00000, 210: 0.00000, 209: 0.00000, 208: 0.00000, 207: 0.00000, 206: 0.00000,
                                   205: 0.00000, 204: 0.00000, 203: 0.00000, 202: 0.00000, 201: 0.00000, 200: 0.00000, 199: 0.00000,
                                   198: 0.00000, 197: 0.00000, 196: 0.00000, 195: 0.00000, 194: 0.00000, 193: 0.00000, 192: 0.00000,
                                   191: 0.00000, 294: 0.00000,  15: 0.00000
    86 |                         | 240: 0.00000, 239: 0.00000, 238: 0.00000, 237: 0.00000, 236: 0.00000, 235: 0.00000, 234: 0.00000,
                                   233: 0.00000, 232: 0.00000, 231: 0.00000, 230: 0.00000, 229: 0.00000, 228: 0.00000, 227: 0.00000,
                                   226: 0.00000, 225: 0.00000, 224: 0.00000, 223: 0.00000, 222: 0.00000, 221: 0.00000, 220: 0.00000,
                                   219: 0.00000, 218: 0.00000, 217: 0.00000, 216: 0.00000, 215: 0.00000, 214: 0.00000, 213: 0.00000,
                                   212: 0.00000, 211: 0.00000, 210: 0.00000, 209: 0.00000, 208: 0.00000, 207: 0.00000, 206: 0.00000,
                                   205: 0.00000, 204: 0.00000, 203: 0.00000, 202: 0.00000, 201: 0.00000, 200: 0.00000, 199: 0.00000,
                                   198: 0.00000, 197: 0.00000, 196: 0.00000, 195: 0.00000, 194: 0.00000, 193: 0.00000, 192: 0.00000,
                                   191: 0.00000, 294: 0.00000,  16: 0.00000
    87 |                         | 240: 0.00000, 239: 0.00000, 238: 0.00000, 237: 0.00000, 236: 0.00000, 235: 0.00000, 234: 0.00000,
                                   233: 0.00000, 232: 0.00000, 231: 0.00000, 230: 0.00000, 229: 0.00000, 228: 0.00000, 227: 0.00000,
                                   226: 0.00000, 225: 0.00000, 224: 0.00000, 223: 0.00000, 222: 0.00000, 221: 0.00000, 220: 0.00000,
                                   219: 0.00000, 218: 0.00000, 217: 0.00000, 216: 0.00000, 215: 0.00000, 214: 0.00000, 213: 0.00000,
                                   212: 0.00000, 211: 0.00000, 210: 0.00000, 209: 0.00000, 208: 0.00000, 207: 0.00000, 206: 0.00000,
                                   205: 0.00000, 204: 0.00000, 203: 0.00000, 202: 0.00000, 201: 0.00000, 200: 0.00000, 199: 0.00000,
                                   198: 0.00000, 197: 0.00000, 196: 0.00000, 195: 0.00000, 194: 0.00000, 193: 0.00000, 192: 0.00000,
                                   191: 0.00000, 294: 0.00000,  17: 0.00000
    88 |                         | 240: 0.00000, 239: 0.00000, 238: 0.00000, 237: 0.00000, 236: 0.00000, 235: 0.00000, 234: 0.00000,
                                   233: 0.00000, 232: 0.00000, 231: 0.00000, 230: 0.00000, 229: 0.00000, 228: 0.00000, 227: 0.00000,
                                   226: 0.00000, 225: 0.00000, 224: 0.00000, 223: 0.00000, 222: 0.00000, 221: 0.00000, 220: 0.00000,
                                   219: 0.00000, 218: 0.00000, 217: 0.00000, 216: 0.00000, 215: 0.00000, 214: 0.00000, 213: 0.00000,
                                   212: 0.00000, 211: 0.00000, 210: 0.00000, 209: 0.00000, 208: 0.00000, 207: 0.00000, 206: 0.00000,
                                   205: 0.00000, 204: 0.00000, 203: 0.00000, 202: 0.00000, 201: 0.00000, 200: 0.00000, 199: 0.00000,
                                   198: 0.00000, 197: 0.00000, 196: 0.00000, 195: 0.00000, 194: 0.00000, 193: 0.00000, 192: 0.00000,
                                   191: 0.00000, 294: 0.00000,  18: 0.00000
    89 |                         | 240: 0.00000, 239: 0.00000, 238: 0.00000, 237: 0.00000, 236: 0.00000, 235: 0.00000, 234: 0.00000,
                                   233: 0.00000, 232: 0.00000, 231: 0.00000, 230: 0.00000, 229: 0.00000, 228: 0.00000, 227: 0.00000,
                                   226: 0.00000, 225: 0.00000, 224: 0.00000, 223: 0.00000, 222: 0.00000, 221: 0.00000, 220: 0.00000,
                                   219: 0.00000, 218: 0.00000, 217: 0.00000, 216: 0.00000, 215: 0.00000, 214: 0.00000, 213: 0.00000,
                                   212: 0.00000, 211: 0.00000, 210: 0.00000, 209: 0.00000, 208: 0.00000, 207: 0.00000, 206: 0.00000,
                                   205: 0.00000, 204: 0.00000, 203: 0.00000, 202: 0.00000, 201: 0.00000, 200: 0.00000, 199: 0.00000,
                                   198: 0.00000, 197: 0.00000, 196: 0.00000, 195: 0.00000, 194: 0.00000, 193: 0.00000, 192: 0.00000,
                                   191: 0.00000, 294: 0.00000,  19: 0.00000
    90 |                         | 240: 0.00000, 239: 0.00000, 238: 0.00000, 237: 0.00000, 236: 0.00000, 235: 0.00000, 234: 0.00000,
                                   233: 0.00000, 232: 0.00000, 231: 0.00000, 230: 0.00000, 229: 0.00000, 228: 0.00000, 227: 0.00000,
                                   226: 0.00000, 225: 0.00000, 224: 0.00000, 223: 0.00000, 222: 0.00000, 221: 0.00000, 220: 0.00000,
                                   219: 0.00000, 218: 0.00000, 217: 0.00000, 216: 0.00000, 215: 0.00000, 214: 0.00000, 213: 0.00000,
                                   212: 0.00000, 211: 0.00000, 210: 0.00000, 209: 0.00000, 208: 0.00000, 207: 0.00000, 206: 0.00000,
                                   205: 0.00000, 204: 0.00000, 203: 0.00000, 202: 0.00000, 201: 0.00000, 200: 0.00000, 199: 0.00000,
                                   198: 0.00000, 197: 0.00000, 196: 0.00000, 195: 0.00000, 194: 0.00000, 193: 0.00000, 192: 0.00000,
                                   191: 0.00000, 294: 0.00000,  20: 0.00000
    91 |                         | 240: 0.00000, 239: 0.00000, 238: 0.00000, 237: 0.00000, 236: 0.00000, 235: 0.00000, 234: 0.00000,
                                   233: 0.00000, 232: 0.00000, 231: 0.00000, 230: 0.00000, 229: 0.00000, 228: 0.00000, 227: 0.00000,
                                   226: 0.00000, 225: 0.00000, 224: 0.00000, 223: 0.00000, 222: 0.00000, 221: 0.00000, 220: 0.00000,
                                   219: 0.00000, 218: 0.00000, 217: 0.00000, 216: 0.00000, 215: 0.00000, 214: 0.00000, 213: 0.00000,
                                   212: 0.00000, 211: 0.00000, 210: 0.00000, 209: 0.00000, 208: 0.00000, 207: 0.00000, 206: 0.00000,
                                   205: 0.00000, 204: 0.00000, 203: 0.00000, 202: 0.00000, 201: 0.00000, 200: 0.00000, 199: 0.00000,
                                   198: 0.00000, 197: 0.00000, 196: 0.00000, 195: 0.00000, 194: 0.00000, 193: 0.00000, 192: 0.00000,
                                   191: 0.00000, 294: 0.00000,  21: 0.00000
    92 |                         | 240: 0.00000, 239: 0.00000, 238: 0.00000, 237: 0.00000, 236: 0.00000, 235: 0.00000, 234: 0.00000,
                                   233: 0.00000, 232: 0.00000, 231: 0.00000, 230: 0.00000, 229: 0.00000, 228: 0.00000, 227: 0.00000,
                                   226: 0.00000, 225: 0.00000, 224: 0.00000, 223: 0.00000, 222: 0.00000, 221: 0.00000, 220: 0.00000,
                                   219: 0.00000, 218: 0.00000, 217: 0.00000, 216: 0.00000, 215: 0.00000, 214: 0.00000, 213: 0.00000,
                                   212: 0.00000, 211: 0.00000, 210: 0.00000, 209: 0.00000, 208: 0.00000, 207: 0.00000, 206: 0.00000,
                                   205: 0.00000, 204: 0.00000, 203: 0.00000, 202: 0.00000, 201: 0.00000, 200: 0.00000, 199: 0.00000,
                                   198: 0.00000, 197: 0.00000, 196: 0.00000, 195: 0.00000, 194: 0.00000, 193: 0.00000, 192: 0.00000,
                                   191: 0.00000, 294: 0.00000,  22: 0.00000
    93 |                         | 240: 0.00000, 239: 0.00000, 238: 0.00000, 237: 0.00000, 236: 0.00000, 235: 0.00000, 234: 0.00000,
                                   233: 0.00000, 232: 0.00000, 231: 0.00000, 230: 0.00000, 229: 0.00000, 228: 0.00000, 227: 0.00000,
                                   226: 0.00000, 225: 0.00000, 224: 0.00000, 223: 0.00000, 222: 0.00000, 221: 0.00000, 220: 0.00000,
                                   219: 0.00000, 218: 0.00000, 217: 0.00000, 216: 0.00000, 215: 0.00000, 214: 0.00000, 213: 0.00000,
                                   212: 0.00000, 211: 0.00000, 210: 0.00000, 209: 0.00000, 208: 0.00000, 207: 0.00000, 206: 0.00000,
                                   205: 0.00000, 204: 0.00000, 203: 0.00000, 202: 0.00000, 201: 0.00000, 200: 0.00000, 199: 0.00000,
                                   198: 0.00000, 197: 0.00000, 196: 0.00000, 195: 0.00000, 194: 0.00000, 193: 0.00000, 192: 0.00000,
                                   191: 0.00000, 294: 0.00000,  23: 0.00000
    94 |                         | 240: 0.00000, 239: 0.00000, 238: 0.00000, 237: 0.00000, 236: 0.00000, 235: 0.00000, 234: 0.00000,
                                   233: 0.00000, 232: 0.00000, 231: 0.00000, 230: 0.00000, 229: 0.00000, 228: 0.00000, 227: 0.00000,
                                   226: 0.00000, 225: 0.00000, 224: 0.00000, 223: 0.00000, 222: 0.00000, 221: 0.00000, 220: 0.00000,
                                   219: 0.00000, 218: 0.00000, 217: 0.00000, 216: 0.00000, 215: 0.00000, 214: 0.00000, 213: 0.00000,
                                   212: 0.00000, 211: 0.00000, 210: 0.00000, 209: 0.00000, 208: 0.00000, 207: 0.00000, 206: 0.00000,
                                   205: 0.00000, 204: 0.00000, 203: 0.00000, 202: 0.00000, 201: 0.00000, 200: 0.00000, 199: 0.00000,
                                   198: 0.00000, 197: 0.00000, 196: 0.00000, 195: 0.00000, 194: 0.00000, 193: 0.00000, 192: 0.00000,
                                   191: 0.00000, 294: 0.00000,  24: 0.00000
    95 |                         | 240: 0.00000, 239: 0.00000, 238: 0.00000, 237: 0.00000, 236: 0.00000, 235: 0.00000, 234: 0.00000,
                                   233: 0.00000, 232: 0.00000, 231: 0.00000, 230: 0.00000, 229: 0.00000, 228: 0.00000, 227: 0.00000,
                                   226: 0.00000, 225: 0.00000, 224: 0.00000, 223: 0.00000, 222: 0.00000, 221: 0.00000, 220: 0.00000,
                                   219: 0.00000, 218: 0.00000, 217: 0.00000, 216: 0.00000, 215: 0.00000, 214: 0.00000, 213: 0.00000,
                                   212: 0.00000, 211: 0.00000, 210: 0.00000, 209: 0.00000, 208: 0.00000, 207: 0.00000, 206: 0.00000,
                                   205: 0.00000, 204: 0.00000, 203: 0.00000, 202: 0.00000, 201: 0.00000, 200: 0.00000, 199: 0.00000,
                                   198: 0.00000, 197: 0.00000, 196: 0.00000, 195: 0.00000, 194: 0.00000, 193: 0.00000, 192: 0.00000,
                                   191: 0.00000, 294: 0.00000,  25: 0.00000
    96 |                         | 240: 0.00000, 239: 0.00000, 238: 0.00000, 237: 0.00000, 236: 0.00000, 235: 0.00000, 234: 0.00000,
                                   233: 0.00000, 232: 0.00000, 231: 0.00000, 230: 0.00000, 229: 0.00000, 228: 0.00000, 227: 0.00000,
                                   226: 0.00000, 225: 0.00000, 224: 0.00000, 223: 0.00000, 222: 0.00000, 221: 0.00000, 220: 0.00000,
                                   219: 0.00000, 218: 0.00000, 217: 0.00000, 216: 0.00000, 215: 0.00000, 214: 0.00000, 213: 0.00000,
                                   212: 0.00000, 211: 0.00000, 210: 0.00000, 209: 0.00000, 208: 0.00000, 207: 0.00000, 206: 0.00000,
                                   205: 0.00000, 204: 0.00000, 203: 0.00000, 202: 0.00000, 201: 0.00000, 200: 0.00000, 199: 0.00000,
                                   198: 0.00000, 197: 0.00000, 196: 0.00000, 195: 0.00000, 194: 0.00000, 193: 0.00000, 192: 0.00000,
                                   191: 0.00000, 294: 0.00000,  26: 0.00000
    97 |                         | 240: 0.00000, 239: 0.00000, 238: 0.00000, 237: 0.00000, 236: 0.00000, 235: 0.00000, 234: 0.00000,
                                   233: 0.00000, 232: 0.00000, 231: 0.00000, 230: 0.00000, 229: 0.00000, 228: 0.00000, 227: 0.00000,
                                   226: 0.00000, 225: 0.00000, 224: 0.00000, 223: 0.00000, 222: 0.00000, 221: 0.00000, 220: 0.00000,
                                   219: 0.00000, 218: 0.00000, 217: 0.00000, 216: 0.00000, 215: 0.00000, 214: 0.00000, 213: 0.00000,
                                   212: 0.00000, 211: 0.00000, 210: 0.00000, 209: 0.00000, 208: 0.00000, 207: 0.00000, 206: 0.00000,
                                   205: 0.00000, 204: 0.00000, 203: 0.00000, 202: 0.00000, 201: 0.00000, 200: 0.00000, 199: 0.00000,
                                   198: 0.00000, 197: 0.00000, 196: 0.00000, 195: 0.00000, 194: 0.00000, 193: 0.00000, 192: 0.00000,
                                   191: 0.00000, 294: 0.00000,  27: 0.00000
    98 |                         | 240: 0.00000, 239: 0.00000, 238: 0.00000, 237: 0.00000, 236: 0.00000, 235: 0.00000, 234: 0.00000,
                                   233: 0.00000, 232: 0.00000, 231: 0.00000, 230: 0.00000, 229: 0.00000, 228: 0.00000, 227: 0.00000,
                                   226: 0.00000, 225: 0.00000, 224: 0.00000, 223: 0.00000, 222: 0.00000, 221: 0.00000, 220: 0.00000,
                                   219: 0.00000, 218: 0.00000, 217: 0.00000, 216: 0.00000, 215: 0.00000, 214: 0.00000, 213: 0.00000,
                                   212: 0.00000, 211: 0.00000, 210: 0.00000, 209: 0.00000, 208: 0.00000, 207: 0.00000, 206: 0.00000,
                                   205: 0.00000, 204: 0.00000, 203: 0.00000, 202: 0.00000, 201: 0.00000, 200: 0.00000, 199: 0.00000,
                                   198: 0.00000, 197: 0.00000, 196: 0.00000, 195: 0.00000, 194: 0.00000, 193: 0.00000, 192: 0.00000,
                                   191: 0.00000, 294: 0.00000,  28: 0.00000
    99 |                         | 240: 0.00000, 239: 0.00000, 238: 0.00000, 237: 0.00000, 236: 0.00000, 235: 0.00000, 234: 0.00000,
                                   233: 0.00000, 232: 0.00000, 231: 0.00000, 230: 0.00000, 229: 0.00000, 228: 0.00000, 227: 0.00000,
                                   226: 0.00000, 225: 0.00000, 224: 0.00000, 223: 0.00000, 222: 0.00000, 221: 0.00000, 220: 0.00000,
                                   219: 0.00000, 218: 0.00000, 217: 0.00000, 216: 0.00000, 215: 0.00000, 214: 0.00000, 213: 0.00000,
                                   212: 0.00000, 211: 0.00000, 210: 0.00000, 209: 0.00000, 208: 0.00000, 207: 0.00000, 206: 0.00000,
                                   205: 0.00000, 204: 0.00000, 203: 0.00000, 202: 0.00000, 201: 0.00000, 200: 0.00000, 199: 0.00000,
                                   198: 0.00000, 197: 0.00000, 196: 0.00000, 195: 0.00000, 194: 0.00000, 193: 0.00000, 192: 0.00000,
                                   191: 0.00000, 294: 0.00000,  29: 0.00000
   100 |                         | 240: 0.00000, 239: 0.00000, 238: 0.00000, 237: 0.00000, 236: 0.00000, 235: 0.00000, 234: 0.00000,
                                   233: 0.00000, 232: 0.00000, 231: 0.00000, 230: 0.00000, 229: 0.00000, 228: 0.00000, 227: 0.00000,
                                   226: 0.00000, 225: 0.00000, 224: 0.00000, 223: 0.00000, 222: 0.00000, 221: 0.00000, 220: 0.00000,
                                   219: 0.00000, 218: 0.00000, 217: 0.00000, 216: 0.00000, 215: 0.00000, 214: 0.00000, 213: 0.00000,
                                   212: 0.00000, 211: 0.00000, 210: 0.00000, 209: 0.00000, 208: 0.00000, 207: 0.00000, 206: 0.00000,
                                   205: 0.00000, 204: 0.00000, 203: 0.00000, 202: 0.00000, 201: 0.00000, 200: 0.00000, 199: 0.00000,
                                   198: 0.00000, 197: 0.00000, 196: 0.00000, 195: 0.00000, 194: 0.00000, 193: 0.00000, 192: 0.00000,
                                   191: 0.00000, 294: 0.00000,  30: 0.00000
   101 |                         | 240: 0.00000, 239: 0.00000, 238: 0.00000, 237: 0.00000, 236: 0.00000, 235: 0.00000, 234: 0.00000,
                                   233: 0.00000, 232: 0.00000, 231: 0.00000, 230: 0.00000, 229: 0.00000, 228: 0.00000, 227: 0.00000,
                                   226: 0.00000, 225: 0.00000, 224: 0.00000, 223: 0.00000, 222: 0.00000, 221: 0.00000, 220: 0.00000,
                                   219: 0.00000, 218: 0.00000, 217: 0.00000, 216: 0.00000, 215: 0.00000, 214: 0.00000, 213: 0.00000,
                                   212: 0.00000, 211: 0.00000, 210: 0.00000, 209: 0.00000, 208: 0.00000, 207: 0.00000, 206: 0.00000,
                                   205: 0.00000, 204: 0.00000, 203: 0.00000, 202: 0.00000, 201: 0.00000, 200: 0.00000, 199: 0.00000,
                                   198: 0.00000, 197: 0.00000, 196: 0.00000, 195: 0.00000, 194: 0.00000, 193: 0.00000, 192: 0.00000,
                                   191: 0.00000, 294: 0.00000,  31: 0.00000
   102 |                         | 240: 0.00000, 239: 0.00000, 238: 0.00000, 237: 0.00000, 236: 0.00000, 235: 0.00000, 234: 0.00000,
                                   233: 0.00000, 232: 0.00000, 231: 0.00000, 230: 0.00000, 229: 0.00000, 228: 0.00000, 227: 0.00000,
                                   226: 0.00000, 225: 0.00000, 224: 0.00000, 223: 0.00000, 222: 0.00000, 221: 0.00000, 220: 0.00000,
                                   219: 0.00000, 218: 0.00000, 217: 0.00000, 216: 0.00000, 215: 0.00000, 214: 0.00000, 213: 0.00000,
                                   212: 0.00000, 211: 0.00000, 210: 0.00000, 209: 0.00000, 208: 0.00000, 207: 0.00000, 206: 0.00000,
                                   205: 0.00000, 204: 0.00000, 203: 0.00000, 202: 0.00000, 201: 0.00000, 200: 0.00000, 199: 0.00000,
                                   198: 0.00000, 197: 0.00000, 196: 0.00000, 195: 0.00000, 194: 0.00000, 193: 0.00000, 192: 0.00000,
                                   191: 0.00000, 294: 0.00000,  32: 0.00000
   103 |                         | 240: 0.00000, 239: 0.00000, 238: 0.00000, 237: 0.00000, 236: 0.00000, 235: 0.00000, 234: 0.00000,
                                   233: 0.00000, 232: 0.00000, 231: 0.00000, 230: 0.00000, 229: 0.00000, 228: 0.00000, 227: 0.00000,
                                   226: 0.00000, 225: 0.00000, 224: 0.00000, 223: 0.00000, 222: 0.00000, 221: 0.00000, 220: 0.00000,
                                   219: 0.00000, 218: 0.00000, 217: 0.00000, 216: 0.00000, 215: 0.00000, 214: 0.00000, 213: 0.00000,
                                   212: 0.00000, 211: 0.00000, 210: 0.00000, 209: 0.00000, 208: 0.00000, 207: 0.00000, 206: 0.00000,
                                   205: 0.00000, 204: 0.00000, 203: 0.00000, 202: 0.00000, 201: 0.00000, 200: 0.00000, 199: 0.00000,
                                   198: 0.00000, 197: 0.00000, 196: 0.00000, 195: 0.00000, 194: 0.00000, 193: 0.00000, 192: 0.00000,
                                   191: 0.00000, 294: 0.00000,  33: 0.00000
   104 |                         | 240: 0.00000, 239: 0.00000, 238: 0.00000, 237: 0.00000, 236: 0.00000, 235: 0.00000, 234: 0.00000,
                                   233: 0.00000, 232: 0.00000, 231: 0.00000, 230: 0.00000, 229: 0.00000, 228: 0.00000, 227: 0.00000,
                                   226: 0.00000, 225: 0.00000, 224: 0.00000, 223: 0.00000, 222: 0.00000, 221: 0.00000, 220: 0.00000,
                                   219: 0.00000, 218: 0.00000, 217: 0.00000, 216: 0.00000, 215: 0.00000, 214: 0.00000, 213: 0.00000,
                                   212: 0.00000, 211: 0.00000, 210: 0.00000, 209: 0.00000, 208: 0.00000, 207: 0.00000, 206: 0.00000,
                                   205: 0.00000, 204: 0.00000, 203: 0.00000, 202: 0.00000, 201: 0.00000, 200: 0.00000, 199: 0.00000,
                                   198: 0.00000, 197: 0.00000, 196: 0.00000, 195: 0.00000, 194: 0.00000, 193: 0.00000, 192: 0.00000,
                                   191: 0.00000, 294: 0.00000,  34: 0.00000
   105 |                         | 240: 0.00000, 239: 0.00000, 238: 0.00000, 237: 0.00000, 236: 0.00000, 235: 0.00000, 234: 0.00000,
                                   233: 0.00000, 232: 0.00000, 231: 0.00000, 230: 0.00000, 229: 0.00000, 228: 0.00000, 227: 0.00000,
                                   226: 0.00000, 225: 0.00000, 224: 0.00000, 223: 0.00000, 222: 0.00000, 221: 0.00000, 220: 0.00000,
                                   219: 0.00000, 218: 0.00000, 217: 0.00000, 216: 0.00000, 215: 0.00000, 214: 0.00000, 213: 0.00000,
                                   212: 0.00000, 211: 0.00000, 210: 0.00000, 209: 0.00000, 208: 0.00000, 207: 0.00000, 206: 0.00000,
                                   205: 0.00000, 204: 0.00000, 203: 0.00000, 202: 0.00000, 201: 0.00000, 200: 0.00000, 199: 0.00000,
                                   198: 0.00000, 197: 0.00000, 196: 0.00000, 195: 0.00000, 194: 0.00000, 193: 0.00000, 192: 0.00000,
                                   191: 0.00000, 294: 0.00000,  35: 0.00000
   106 |                         | 240: 0.00000, 239: 0.00000, 238: 0.00000, 237: 0.00000, 236: 0.00000, 235: 0.00000, 234: 0.00000,
                                   233: 0.00000, 232: 0.00000, 231: 0.00000, 230: 0.00000, 229: 0.00000, 228: 0.00000, 227: 0.00000,
                                   226: 0.00000, 225: 0.00000, 224: 0.00000, 223: 0.00000, 222: 0.00000, 221: 0.00000, 220: 0.00000,
                                   219: 0.00000, 218: 0.00000, 217: 0.00000, 216: 0.00000, 215: 0.00000, 214: 0.00000, 213: 0.00000,
                                   212: 0.00000, 211: 0.00000, 210: 0.00000, 209: 0.00000, 208: 0.00000, 207: 0.00000, 206: 0.00000,
                                   205: 0.00000, 204: 0.00000, 203: 0.00000, 202: 0.00000, 201: 0.00000, 200: 0.00000, 199: 0.00000,
                                   198: 0.00000, 197: 0.00000, 196: 0.00000, 195: 0.00000, 194: 0.00000, 193: 0.00000, 192: 0.00000,
                                   191: 0.00000, 294: 0.00000,  36: 0.00000
   107 |                         | 240: 0.00000, 239: 0.00000, 238: 0.00000, 237: 0.00000, 236: 0.00000, 235: 0.00000, 234: 0.00000,
                                   233: 0.00000, 232: 0.00000, 231: 0.00000, 230: 0.00000, 229: 0.00000, 228: 0.00000, 227: 0.00000,
                                   226: 0.00000, 225: 0.00000, 224: 0.00000, 223: 0.00000, 222: 0.00000, 221: 0.00000, 220: 0.00000,
                                   219: 0.00000, 218: 0.00000, 217: 0.00000, 216: 0.00000, 215: 0.00000, 214: 0.00000, 213: 0.00000,
                                   212: 0.00000, 211: 0.00000, 210: 0.00000, 209: 0.00000, 208: 0.00000, 207: 0.00000, 206: 0.00000,
                                   205: 0.00000, 204: 0.00000, 203: 0.00000, 202: 0.00000, 201: 0.00000, 200: 0.00000, 199: 0.00000,
                                   198: 0.00000, 197: 0.00000, 196: 0.00000, 195: 0.00000, 194: 0.00000, 193: 0.00000, 192: 0.00000,
                                   191: 0.00000, 294: 0.00000,  37: 0.00000
   108 |                         | 240: 0.00000, 239: 0.00000, 238: 0.00000, 237: 0.00000, 236: 0.00000, 235: 0.00000, 234: 0.00000,
                                   233: 0.00000, 232: 0.00000, 231: 0.00000, 230: 0.00000, 229: 0.00000, 228: 0.00000, 227: 0.00000,
                                   226: 0.00000, 225: 0.00000, 224: 0.00000, 223: 0.00000, 222: 0.00000, 221: 0.00000, 220: 0.00000,
                                   219: 0.00000, 218: 0.00000, 217: 0.00000, 216: 0.00000, 215: 0.00000, 214: 0.00000, 213: 0.00000,
                                   212: 0.00000, 211: 0.00000, 210: 0.00000, 209: 0.00000, 208: 0.00000, 207: 0.00000, 206: 0.00000,
                                   205: 0.00000, 204: 0.00000, 203: 0.00000, 202: 0.00000, 201: 0.00000, 200: 0.00000, 199: 0.00000,
                                   198: 0.00000, 197: 0.00000, 196: 0.00000, 195: 0.00000, 194: 0.00000, 193: 0.00000, 192: 0.00000,
                                   191: 0.00000, 294: 0.00000,  38: 0.00000
   109 |                         | 240: 0.00000, 239: 0.00000, 238: 0.00000, 237: 0.00000, 236: 0.00000, 235: 0.00000, 234: 0.00000,
                                   233: 0.00000, 232: 0.00000, 231: 0.00000, 230: 0.00000, 229: 0.00000, 228: 0.00000, 227: 0.00000,
                                   226: 0.00000, 225: 0.00000, 224: 0.00000, 223: 0.00000, 222: 0.00000, 221: 0.00000, 220: 0.00000,
                                   219: 0.00000, 218: 0.00000, 217: 0.00000, 216: 0.00000, 215: 0.00000, 214: 0.00000, 213: 0.00000,
                                   212: 0.00000, 211: 0.00000, 210: 0.00000, 209: 0.00000, 208: 0.00000, 207: 0.00000, 206: 0.00000,
                                   205: 0.00000, 204: 0.00000, 203: 0.00000, 202: 0.00000, 201: 0.00000, 200: 0.00000, 199: 0.00000,
                                   198: 0.00000, 197: 0.00000, 196: 0.00000, 195: 0.00000, 194: 0.00000, 193: 0.00000, 192: 0.00000,
                                   191: 0.00000, 294: 0.00000,  39: 0.00000
   110 |                         | 240: 0.00000, 239: 0.00000, 238: 0.00000, 237: 0.00000, 236: 0.00000, 235: 0.00000, 234: 0.00000,
                                   233: 0.00000, 232: 0.00000, 231: 0.00000, 230: 0.00000, 229: 0.00000, 228: 0.00000, 227: 0.00000,
                                   226: 0.00000, 225: 0.00000, 224: 0.00000, 223: 0.00000, 222: 0.00000, 221: 0.00000, 220: 0.00000,
                                   219: 0.00000, 218: 0.00000, 217: 0.00000, 216: 0.00000, 215: 0.00000, 214: 0.00000, 213: 0.00000,
                                   212: 0.00000, 211: 0.00000, 210: 0.00000, 209: 0.00000, 208: 0.00000, 207: 0.00000, 206: 0.00000,
                                   205: 0.00000, 204: 0.00000, 203: 0.00000, 202: 0.00000, 201: 0.00000, 200: 0.00000, 199: 0.00000,
                                   198: 0.00000, 197: 0.00000, 196: 0.00000, 195: 0.00000, 194: 0.00000, 193: 0.00000, 192: 0.00000,
                                   191: 0.00000, 294: 0.00000,  40: 0.00000
   111 |                         | 240: 0.00000, 239: 0.00000, 238: 0.00000, 237: 0.00000, 236: 0.00000, 235: 0.00000, 234: 0.00000,
                                   233: 0.00000, 232: 0.00000, 231: 0.00000, 230: 0.00000, 229: 0.00000, 228: 0.00000, 227: 0.00000,
                                   226: 0.00000, 225: 0.00000, 224: 0.00000, 223: 0.00000, 222: 0.00000, 221: 0.00000, 220: 0.00000,
                                   219: 0.00000, 218: 0.00000, 217: 0.00000, 216: 0.00000, 215: 0.00000, 214: 0.00000, 213: 0.00000,
                                   212: 0.00000, 211: 0.00000, 210: 0.00000, 209: 0.00000, 208: 0.00000, 207: 0.00000, 206: 0.00000,
                                   205: 0.00000, 204: 0.00000, 203: 0.00000, 202: 0.00000, 201: 0.00000, 200: 0.00000, 199: 0.00000,
                                   198: 0.00000, 197: 0.00000, 196: 0.00000, 195: 0.00000, 194: 0.00000, 193: 0.00000, 192: 0.00000,
                                   191: 0.00000, 294: 0.00000,  41: 0.00000
   112 |                         | 240: 0.00000, 239: 0.00000, 238: 0.00000, 237: 0.00000, 236: 0.00000, 235: 0.00000, 234: 0.00000,
                                   233: 0.00000, 232: 0.00000, 231: 0.00000, 230: 0.00000, 229: 0.00000, 228: 0.00000, 227: 0.00000,
                                   226: 0.00000, 225: 0.00000, 224: 0.00000, 223: 0.00000, 222: 0.00000, 221: 0.00000, 220: 0.00000,
                                   219: 0.00000, 218: 0.00000, 217: 0.00000, 216: 0.00000, 215: 0.00000, 214: 0.00000, 213: 0.00000,
                                   212: 0.00000, 211: 0.00000, 210: 0.00000, 209: 0.00000, 208: 0.00000, 207: 0.00000, 206: 0.00000,
                                   205: 0.00000, 204: 0.00000, 203: 0.00000, 202: 0.00000, 201: 0.00000, 200: 0.00000, 199: 0.00000,
                                   198: 0.00000, 197: 0.00000, 196: 0.00000, 195: 0.00000, 194: 0.00000, 193: 0.00000, 192: 0.00000,
                                   191: 0.00000, 294: 0.00000,  42: 0.00000
   113 |                         | 240: 0.00000, 239: 0.00000, 238: 0.00000, 237: 0.00000, 236: 0.00000, 235: 0.00000, 234: 0.00000,
                                   233: 0.00000, 232: 0.00000, 231: 0.00000, 230: 0.00000, 229: 0.00000, 228: 0.00000, 227: 0.00000,
                                   226: 0.00000, 225: 0.00000, 224: 0.00000, 223: 0.00000, 222: 0.00000, 221: 0.00000, 220: 0.00000,
                                   219: 0.00000, 218: 0.00000, 217: 0.00000, 216: 0.00000, 215: 0.00000, 214: 0.00000, 213: 0.00000,
                                   212: 0.00000, 211: 0.00000, 210: 0.00000, 209: 0.00000, 208: 0.00000, 207: 0.00000, 206: 0.00000,
                                   205: 0.00000, 204: 0.00000, 203: 0.00000, 202: 0.00000, 201: 0.00000, 200: 0.00000, 199: 0.00000,
                                   198: 0.00000, 197: 0.00000, 196: 0.00000, 195: 0.00000, 194: 0.00000, 193: 0.00000, 192: 0.00000,
                                   191: 0.00000, 294: 0.00000,  43: 0.00000
   114 |                         | 240: 0.00000, 239: 0.00000, 238: 0.00000, 237: 0.00000, 236: 0.00000, 235: 0.00000, 234: 0.00000,
                                   233: 0.00000, 232: 0.00000, 231: 0.00000, 230: 0.00000, 229: 0.00000, 228: 0.00000, 227: 0.00000,
                                   226: 0.00000, 225: 0.00000, 224: 0.00000, 223: 0.00000, 222: 0.00000, 221: 0.00000, 220: 0.00000,
                                   219: 0.00000, 218: 0.00000, 217: 0.00000, 216: 0.00000, 215: 0.00000, 214: 0.00000, 213: 0.00000,
                                   212: 0.00000, 211: 0.00000, 210: 0.00000, 209: 0.00000, 208: 0.00000, 207: 0.00000, 206: 0.00000,
                                   205: 0.00000, 204: 0.00000, 203: 0.00000, 202: 0.00000, 201: 0.00000, 200: 0.00000, 199: 0.00000,
                                   198: 0.00000, 197: 0.00000, 196: 0.00000, 195: 0.00000, 194: 0.00000, 193: 0.00000, 192: 0.00000,
