SNNS network definition file V1.4-3D
generated at Mon Apr 25 17:10:48 1994

network name : bdg_TDNN
source files :
no. of units : 155
no. of connections : 504
no. of unit types : 0
no. of site types : 0


learning function : TimeDelayBackprop
update function   : TimeDelay_Order


unit default section :

act      | bias     | st | subnet | layer | act func     | out func
---------|----------|----|--------|-------|--------------|-------------
 0.00000 |  0.00000 | h  |      0 |     1 | Act_Logistic | Out_Identity 
---------|----------|----|--------|-------|--------------|-------------


unit definition section :

no. | typeName | unitName | act      | bias     | st | position | act func        | out func | sites
----|----------|----------|----------|----------|----|----------|-----------------|----------|-------
  1 |          |          |  0.31711 |  0.20287 | i  |  2, 2, 0 |||
  2 |          |          |  0.71300 | -0.78661 | i  |  3, 2, 0 |||
  3 |          |          |  0.61747 | -0.38709 | i  |  4, 2, 0 |||
  4 |          |          | -0.03214 | -0.67747 | i  |  5, 2, 0 |||
  5 |          |          |  0.05296 | -0.47940 | i  |  6, 2, 0 |||
  6 |          |          |  0.02270 | -0.30254 | i  |  7, 2, 0 |||
  7 |          |          | -0.31288 | -0.35631 | i  |  8, 2, 0 |||
  8 |          |          | -0.40517 | -0.15442 | i  |  9, 2, 0 |||
  9 |          |          | -0.53280 |  0.45376 | i  | 10, 2, 0 |||
 10 |          |          | -0.34525 | -0.87078 | i  | 11, 2, 0 |||
 11 |          |          | -0.37073 | -0.32388 | i  | 12, 2, 0 |||
 12 |          |          |  0.09999 |  0.90517 | i  | 13, 2, 0 |||
 13 |          |          |  0.06870 |  0.25392 | i  | 14, 2, 0 |||
 14 |          |          | -0.06717 | -0.23639 | i  | 15, 2, 0 |||
 15 |          |          | -0.37582 |  0.70274 | i  | 16, 2, 0 |||
 16 |          |          | -0.27710 |  0.24539 | i  | 17, 2, 0 |||
 17 |          |          |  0.29748 | -0.28918 | i  |  2, 3, 0 |||
 18 |          |          |  0.61847 |  0.94862 | i  |  3, 3, 0 |||
 19 |          |          |  0.45336 | -0.68276 | i  |  4, 3, 0 |||
 20 |          |          | -0.13996 |  0.84596 | i  |  5, 3, 0 |||
 21 |          |          | -0.04787 | -0.48527 | i  |  6, 3, 0 |||
 22 |          |          | -0.13150 |  0.48803 | i  |  7, 3, 0 |||
 23 |          |          | -0.43343 | -0.80369 | i  |  8, 3, 0 |||
 24 |          |          | -0.51003 |  0.24470 | i  |  9, 3, 0 |||
 25 |          |          | -0.52510 |  0.36094 | i  | 10, 3, 0 |||
 26 |          |          | -0.48097 |  0.57713 | i  | 11, 3, 0 |||
 27 |          |          | -0.51076 | -0.29707 | i  | 12, 3, 0 |||
 28 |          |          | -0.08132 |  0.49737 | i  | 13, 3, 0 |||
 29 |          |          | -0.06651 |  0.54271 | i  | 14, 3, 0 |||
 30 |          |          | -0.29215 |  0.49816 | i  | 15, 3, 0 |||
 31 |          |          | -0.54001 | -0.88644 | i  | 16, 3, 0 |||
 32 |          |          | -0.42424 |  0.72657 | i  | 17, 3, 0 |||
 33 |          |          |  0.26350 |  0.45988 | i  |  2, 4, 0 |||
 34 |          |          |  0.55134 | -0.09741 | i  |  3, 4, 0 |||
 35 |          |          |  0.32453 |  0.35196 | i  |  4, 4, 0 |||
 36 |          |          | -0.15410 | -0.73016 | i  |  5, 4, 0 |||
 37 |          |          | -0.09647 |  0.40659 | i  |  6, 4, 0 |||
 38 |          |          | -0.14213 | -0.36012 | i  |  7, 4, 0 |||
 39 |          |          | -0.48909 | -0.66629 | i  |  8, 4, 0 |||
 40 |          |          | -0.66367 | -0.75261 | i  |  9, 4, 0 |||
 41 |          |          | -0.81975 | -0.29933 | i  | 10, 4, 0 |||
 42 |          |          | -0.67091 |  0.85377 | i  | 11, 4, 0 |||
 43 |          |          | -0.66179 | -0.79709 | i  | 12, 4, 0 |||
 44 |          |          | -0.25242 |  0.49284 | i  | 13, 4, 0 |||
 45 |          |          | -0.25132 | -0.22264 | i  | 14, 4, 0 |||
 46 |          |          | -0.62445 | -0.68378 | i  | 15, 4, 0 |||
 47 |          |          | -0.77999 | -0.66404 | i  | 16, 4, 0 |||
 48 |          |          | -0.65322 |  0.25483 | i  | 17, 4, 0 |||
 49 |          |          |  0.23418 | -0.51410 | i  |  2, 5, 0 |||
 50 |          |          |  0.51809 |  0.78157 | i  |  3, 5, 0 |||
 51 |          |          |  0.27526 | -0.70162 | i  |  4, 5, 0 |||
 52 |          |          | -0.18383 | -0.11866 | i  |  5, 5, 0 |||
 53 |          |          | -0.09135 | -0.71516 | i  |  6, 5, 0 |||
 54 |          |          | -0.16364 |  0.31381 | i  |  7, 5, 0 |||
 55 |          |          | -0.61629 | -0.38354 | i  |  8, 5, 0 |||
 56 |          |          | -0.68647 |  0.30961 | i  |  9, 5, 0 |||
 57 |          |          | -0.77385 | -0.78717 | i  | 10, 5, 0 |||
 58 |          |          | -0.79614 | -0.91742 | i  | 11, 5, 0 |||
 59 |          |          | -0.69937 |  0.75653 | i  | 12, 5, 0 |||
 60 |          |          | -0.43633 | -0.96309 | i  | 13, 5, 0 |||
 61 |          |          | -0.47639 |  0.88995 | i  | 14, 5, 0 |||
 62 |          |          | -0.62801 | -0.22955 | i  | 15, 5, 0 |||
 63 |          |          | -0.71237 |  0.92375 | i  | 16, 5, 0 |||
 64 |          |          | -0.74102 |  0.24705 | i  | 17, 5, 0 |||
 65 |          |          |  0.20614 | -0.05121 | i  |  2, 6, 0 |||
 66 |          |          |  0.49128 |  0.43615 | i  |  3, 6, 0 |||
 67 |          |          |  0.21659 | -0.12108 | i  |  4, 6, 0 |||
 68 |          |          | -0.21527 | -0.21449 | i  |  5, 6, 0 |||
 69 |          |          | -0.07648 | -0.63288 | i  |  6, 6, 0 |||
 70 |          |          | -0.24813 |  0.10693 | i  |  7, 6, 0 |||
 71 |          |          | -0.62811 |  0.94578 | i  |  8, 6, 0 |||
 72 |          |          | -0.67263 |  0.05629 | i  |  9, 6, 0 |||
 73 |          |          | -0.91938 |  0.43020 | i  | 10, 6, 0 |||
 74 |          |          | -0.82660 |  0.41455 | i  | 11, 6, 0 |||
 75 |          |          | -0.78900 |  0.60864 | i  | 12, 6, 0 |||
 76 |          |          | -0.52395 |  0.96484 | i  | 13, 6, 0 |||
 77 |          |          | -0.59214 | -0.65920 | i  | 14, 6, 0 |||
 78 |          |          | -0.68491 | -0.14633 | i  | 15, 6, 0 |||
 79 |          |          | -0.77163 |  0.79044 | i  | 16, 6, 0 |||
 80 |          |          | -0.74475 | -0.46595 | i  | 17, 6, 0 |||
 81 |          |          |  0.19100 |  0.76180 | i  |  2, 7, 0 |||
 82 |          |          |  0.48466 |  0.55222 | i  |  3, 7, 0 |||
 83 |          |          |  0.22340 | -0.89451 | i  |  4, 7, 0 |||
 84 |          |          | -0.26047 | -0.47810 | i  |  5, 7, 0 |||
 85 |          |          | -0.08584 | -0.64271 | i  |  6, 7, 0 |||
 86 |          |          | -0.30850 | -0.65226 | i  |  7, 7, 0 |||
 87 |          |          | -0.50710 |  0.49804 | i  |  8, 7, 0 |||
 88 |          |          | -0.67435 |  0.48701 | i  |  9, 7, 0 |||
 89 |          |          | -0.62418 |  0.32361 | i  | 10, 7, 0 |||
 90 |          |          | -0.65029 |  0.22356 | i  | 11, 7, 0 |||
 91 |          |          | -0.70213 | -0.05464 | i  | 12, 7, 0 |||
 92 |          |          | -0.53731 |  0.46718 | i  | 13, 7, 0 |||
 93 |          |          | -0.50505 |  0.19756 | i  | 14, 7, 0 |||
 94 |          |          | -0.63439 | -0.74179 | i  | 15, 7, 0 |||
 95 |          |          | -0.72298 |  0.90822 | i  | 16, 7, 0 |||
 96 |          |          | -0.72419 |  0.41085 | i  | 17, 7, 0 |||
 97 |          |          |  0.21469 |  0.21151 | i  |  2, 8, 0 |||
 98 |          |          |  0.51082 | -0.12000 | i  |  3, 8, 0 |||
 99 |          |          |  0.47132 |  0.37836 | i  |  4, 8, 0 |||
100 |          |          |  0.14802 | -0.64515 | i  |  5, 8, 0 |||
101 |          |          |  0.23400 |  0.04904 | i  |  6, 8, 0 |||
102 |          |          |  0.13895 |  0.81771 | i  |  7, 8, 0 |||
103 |          |          | -0.06986 |  0.47520 | i  |  8, 8, 0 |||
104 |          |          | -0.34241 | -0.83409 | i  |  9, 8, 0 |||
105 |          |          | -0.18893 | -0.95687 | i  | 10, 8, 0 |||
106 |          |          | -0.34690 |  0.33581 | i  | 11, 8, 0 |||
107 |          |          | -0.30321 | -0.80415 | i  | 12, 8, 0 |||
108 |          |          | -0.15985 |  0.51873 | i  | 13, 8, 0 |||
109 |          |          | -0.02387 |  0.25367 | i  | 14, 8, 0 |||
110 |          |          | -0.05778 | -0.50457 | i  | 15, 8, 0 |||
111 |          |          | -0.46807 |  0.08435 | i  | 16, 8, 0 |||
112 |          |          | -0.37507 | -0.80126 | i  | 17, 8, 0 |||
113 |          |          |  0.51585 |  0.28361 | h  | 20, 2, 0 | Act_TD_Logistic |          | 
114 |          |          |  0.43817 | -0.93769 | h  | 21, 2, 0 | Act_TD_Logistic |          | 
115 |          |          |  0.43243 |  0.46791 | h  | 22, 2, 0 | Act_TD_Logistic |          | 
116 |          |          |  0.87627 | -0.18486 | h  | 23, 2, 0 | Act_TD_Logistic |          | 
117 |          |          |  0.16215 |  1.08313 | h  | 24, 2, 0 | Act_TD_Logistic |          | 
118 |          |          |  0.83975 | -0.96937 | h  | 25, 2, 0 | Act_TD_Logistic |          | 
119 |          |          |  0.53814 |  0.84972 | h  | 26, 2, 0 | Act_TD_Logistic |          | 
120 |          |          |  0.05004 | -0.47865 | h  | 27, 2, 0 | Act_TD_Logistic |          | 
121 |          |          |  0.54161 | -0.26114 | h  | 20, 3, 0 | Act_TD_Logistic |          | 
122 |          |          |  0.38509 |  0.68725 | h  | 21, 3, 0 | Act_TD_Logistic |          | 
123 |          |          |  0.23841 | -0.22247 | h  | 22, 3, 0 | Act_TD_Logistic |          | 
124 |          |          |  0.85306 | -0.11104 | h  | 23, 3, 0 | Act_TD_Logistic |          | 
125 |          |          |  0.23922 | -0.77573 | h  | 24, 3, 0 | Act_TD_Logistic |          | 
126 |          |          |  0.86333 |  0.03317 | h  | 25, 3, 0 | Act_TD_Logistic |          | 
127 |          |          |  0.61613 |  0.32589 | h  | 26, 3, 0 | Act_TD_Logistic |          | 
128 |          |          |  0.06173 |  0.76817 | h  | 27, 3, 0 | Act_TD_Logistic |          | 
129 |          |          |  0.46793 |  0.83886 | h  | 20, 4, 0 | Act_TD_Logistic |          | 
130 |          |          |  0.26960 |  0.04557 | h  | 21, 4, 0 | Act_TD_Logistic |          | 
131 |          |          |  0.09873 |  0.73800 | h  | 22, 4, 0 | Act_TD_Logistic |          | 
132 |          |          |  0.84917 | -0.33605 | h  | 23, 4, 0 | Act_TD_Logistic |          | 
133 |          |          |  0.28915 | -0.37883 | h  | 24, 4, 0 | Act_TD_Logistic |          | 
134 |          |          |  0.88968 |  0.99628 | h  | 25, 4, 0 | Act_TD_Logistic |          | 
135 |          |          |  0.69485 |  0.43912 | h  | 26, 4, 0 | Act_TD_Logistic |          | 
136 |          |          |  0.06121 |  0.42607 | h  | 27, 4, 0 | Act_TD_Logistic |          | 
137 |          |          |  0.41712 | -0.56223 | h  | 20, 5, 0 | Act_TD_Logistic |          | 
138 |          |          |  0.28269 | -0.94708 | h  | 21, 5, 0 | Act_TD_Logistic |          | 
139 |          |          |  0.09213 |  0.70482 | h  | 22, 5, 0 | Act_TD_Logistic |          | 
140 |          |          |  0.83451 |  0.30250 | h  | 23, 5, 0 | Act_TD_Logistic |          | 
141 |          |          |  0.29949 |  0.06656 | h  | 24, 5, 0 | Act_TD_Logistic |          | 
142 |          |          |  0.85118 |  0.30149 | h  | 25, 5, 0 | Act_TD_Logistic |          | 
143 |          |          |  0.81069 | -0.78903 | h  | 26, 5, 0 | Act_TD_Logistic |          | 
144 |          |          |  0.05869 |  0.21633 | h  | 27, 5, 0 | Act_TD_Logistic |          | 
145 |          |          |  0.28851 |  0.65452 | h  | 20, 6, 0 | Act_TD_Logistic |          | 
146 |          |          |  0.17131 | -0.15268 | h  | 21, 6, 0 | Act_TD_Logistic |          | 
147 |          |          |  0.21126 | -0.85350 | h  | 22, 6, 0 | Act_TD_Logistic |          | 
148 |          |          |  0.74540 |  0.37466 | h  | 23, 6, 0 | Act_TD_Logistic |          | 
149 |          |          |  0.29127 |  0.00411 | h  | 24, 6, 0 | Act_TD_Logistic |          | 
150 |          |          |  0.77408 |  0.55117 | h  | 25, 6, 0 | Act_TD_Logistic |          | 
151 |          |          |  0.65242 |  0.13437 | h  | 26, 6, 0 | Act_TD_Logistic |          | 
152 |          |          |  0.19179 | -0.43596 | h  | 27, 6, 0 | Act_TD_Logistic |          | 
153 |          | B        |  0.89559 | -0.63583 | o  | 30, 2, 0 | Act_TD_Logistic |          | 
154 |          | D        |  0.04264 |  0.43472 | o  | 31, 2, 0 | Act_TD_Logistic |          | 
155 |          | G        |  0.03322 | -0.23868 | o  | 32, 2, 0 | Act_TD_Logistic |          | 
----|----------|----------|----------|----------|----|----------|-----------------|----------|-------


connection definition section :

target | site | source:weight
-------|------|----------------------------------------------------------------------------------------------------------------
   113 |      |  48:-0.05840,  47: 0.81922,  46: 1.24667,  45:-0.44501,  44:-0.08357,  43:-0.87096,  42:-0.45829,  41:-1.14474,
                 40:-0.13729,  39: 0.27308,  38: 1.01035,  37:-0.04607,  36:-0.57221,  35: 0.49902,  34: 0.35372,  33:-0.79750,
                 32: 0.16232,  31:-0.15801,  30: 1.13105,  29:-0.16925,  28: 0.65993,  27:-0.24097,  26:-0.16593,  25:-1.12051,
                 24:-0.56788,  23:-0.84891,  22:-0.34309,  21:-0.10371,  20: 0.76668,  19:-0.57632,  18:-0.47259,  17:-0.92505,
                 16: 0.74794,  15:-0.06917,  14: 0.51747,  13: 0.30775,  12:-0.45980,  11: 0.65860,  10:-0.60914,   9: 0.65170,
                  8:-0.28359,   7: 0.05285,   6: 0.52132,   5: 0.77308,   4: 0.07914,   3: 0.24669,   2:-0.97356,   1:-0.12878
   114 |      |  48:-0.94833,  47: 0.26149,  46:-0.04957,  45:-0.79211,  44: 0.25643,  43:-0.60236,  42: 0.50773,  41: 0.21899,
                 40:-0.31717,  39:-0.40672,  38: 0.59069,  37:-0.38102,  36: 0.46267,  35: 0.30183,  34: 0.82553,  33:-0.47451,
                 32: 0.91410,  31:-0.26802,  30: 0.79869,  29: 0.01210,  28:-0.83359,  27: 0.48615,  26:-0.49724,  25:-0.73637,
                 24: 0.42515,  23: 0.92282,  22:-0.40677,  21:-0.66370,  20:-0.44659,  19: 0.57907,  18:-0.35286,  17:-0.02415,
                 16: 0.92456,  15: 0.13067,  14: 0.26525,  13:-0.04750,  12: 0.30225,  11:-0.43156,  10:-0.60373,   9: 0.82648,
                  8:-0.36568,   7: 0.02808,   6: 0.99722,   5: 0.46230,   4:-0.65239,   3: 0.24751,   2: 0.30968,   1:-0.75160
   115 |      |  48:-0.00783,  47:-0.74875,  46: 0.48722,  45: 0.02367,  44:-0.61708,  43: 0.86194,  42:-0.71617,  41: 0.41668,
                 40: 0.67159,  39: 0.87514,  38: 0.67677,  37:-1.21500,  36:-0.22352,  35: 1.09878,  34: 0.69005,  33: 0.96776,
                 32:-0.23686,  31:-0.07725,  30: 0.34158,  29:-0.38086,  28: 0.24883,  27:-0.33087,  26: 0.62907,  25: 0.63690,
                 24: 0.38272,  23:-0.58366,  22:-1.09740,  21:-0.18233,  20: 0.36727,  19:-0.37360,  18:-0.54847,  17: 0.76523,
                 16: 0.79218,  15: 0.49327,  14: 0.42042,  13:-0.15649,  12: 0.93642,  11: 0.70572,  10: 0.99470,   9:-0.13748,
                  8: 0.74875,   7:-0.81728,   6:-0.39425,   5:-0.38757,   4:-0.78570,   3: 0.22134,   2: 0.40703,   1: 0.41706
   116 |      |  48:-0.65555,  47:-0.40668,  46: 0.84198,  45:-0.29606,  44:-0.09034,  43: 0.24662,  42:-0.89104,  41: 0.36623,
                 40:-0.26394,  39:-0.09917,  38:-0.33040,  37: 0.85450,  36:-0.14801,  35:-0.35926,  34:-0.26833,  33:-0.39407,
                 32: 0.81246,  31: 0.30367,  30: 0.94501,  29:-0.49315,  28:-0.04709,  27: 0.88985,  26: 0.84106,  25:-0.81106,
                 24:-0.98292,  23:-0.52942,  22: 0.47335,  21:-0.78426,  20: 0.24971,  19: 0.72503,  18: 0.74763,  17: 0.78228,
                 16:-0.56128,  15:-0.30701,  14: 0.35575,  13: 0.44100,  12:-0.36901,  11: 0.23997,  10:-0.96523,   9: 0.67808,
                  8:-1.01039,   7: 0.09791,   6: 0.67347,   5:-0.47572,   4: 0.27467,   3: 0.78170,   2: 0.63946,   1:-0.27480
   117 |      |  48: 0.64106,  47:-0.25710,  46:-0.20099,  45: 0.44939,  44:-0.94020,  43: 0.08608,  42:-0.77447,  41: 0.03706,
                 40: 0.56203,  39: 0.80064,  38: 0.37999,  37:-0.15567,  36:-0.36949,  35:-0.31230,  34:-0.62600,  33: 0.09176,
                 32: 0.32601,  31: 1.01486,  30:-0.16492,  29: 0.08933,  28:-0.44691,  27:-0.82601,  26: 0.83444,  25:-0.63299,
                 24: 0.83719,  23:-0.47382,  22:-0.15566,  21: 0.26903,  20: 0.63637,  19:-1.10458,  18:-0.21921,  17:-0.96992,
                 16:-0.14856,  15:-0.77425,  14:-0.45846,  13: 0.53441,  12:-0.21839,  11:-0.83548,  10: 1.05866,   9: 1.24842,
                  8:-0.70776,   7: 0.57999,   6:-0.69819,   5:-0.49872,   4: 0.44008,   3:-1.08714,   2: 0.30879,   1: 0.65506
   118 |      |  48: 0.59204,  47:-0.41710,  46:-0.70540,  45: 0.71174,  44:-0.33789,  43:-0.11201,  42:-0.63268,  41:-0.68083,
                 40: 0.03853,  39: 0.21027,  38: 0.07914,  37: 0.28509,  36: 0.70579,  35:-0.35466,  34: 0.79756,  33:-0.29989,
                 32:-0.37737,  31:-0.96860,  30:-0.56246,  29:-0.56279,  28:-0.77376,  27:-0.87099,  26:-0.29564,  25: 0.51460,
                 24: 0.64023,  23:-0.52956,  22: 0.63286,  21:-0.43706,  20:-0.49753,  19: 0.72427,  18:-0.30007,  17:-0.80602,
                 16: 0.80053,  15: 0.14498,  14:-0.63601,  13: 0.13791,  12: 0.70023,  11:-0.16398,  10:-0.82395,   9: 0.61874,
                  8:-0.16473,   7: 0.74401,   6: 0.34468,   5: 0.50248,   4: 0.70093,   3:-0.00250,   2: 0.73157,   1: 0.02667
   119 |      |  48: 0.21760,  47: 0.96490,  46:-0.92752,  45:-0.84042,  44:-0.29628,  43: 0.29190,  42: 0.58062,  41: 0.32794,
                 40:-0.82108,  39:-0.25463,  38:-0.49982,  37: 0.94601,  36:-0.68776,  35:-0.58027,  34: 0.32445,  33:-0.15319,
                 32:-0.67432,  31: 0.99751,  30:-0.22949,  29:-0.69275,  28: 0.24821,  27:-0.94410,  26: 0.99837,  25:-0.25380,
                 24:-0.11172,  23: 0.84515,  22:-0.53307,  21: 0.79147,  20:-0.90820,  19:-0.43438,  18: 0.12003,  17:-0.01284,
                 16:-0.39625,  15: 0.75203,  14: 0.33686,  13: 0.09515,  12:-0.61454,  11: 0.16634,  10:-0.34672,   9:-0.86638,
                  8: 0.72450,   7:-0.82609,   6: 0.80423,   5:-0.05655,   4: 0.35824,   3: 0.23431,   2:-0.85519,   1: 0.02148
   120 |      |  48:-0.70177,  47: 0.83624,  46:-0.06156,  45: 0.58035,  44:-0.47235,  43: 0.86819,  42:-0.07541,  41: 0.90657,
                 40: 0.91029,  39:-0.00551,  38:-0.64499,  37: 0.78988,  36: 0.15444,  35:-0.80646,  34: 0.83700,  33:-0.80115,
                 32:-0.81494,  31:-0.55580,  30:-0.42394,  29: 0.71125,  28:-0.15270,  27: 0.08156,  26: 0.38130,  25: 0.75287,
                 24: 0.35293,  23: 0.70181,  22: 0.19766,  21: 0.81401,  20:-0.67304,  19: 0.34367,  18:-0.54904,  17: 0.79102,
                 16:-0.83498,  15:-0.96701,  14:-0.16109,  13: 0.66656,  12: 1.14838,  11:-0.54361,  10: 0.23725,   9:-0.38977,
                  8: 0.61225,   7:-0.02643,   6:-0.13843,   5:-0.19498,   4:-0.06479,   3:-0.55765,   2:-0.69740,   1:-0.33606
   153 |      | 152:-1.00445, 151:-0.33534, 150:-1.14524, 149:-1.26201, 148: 0.40472, 147:-1.44434, 146: 0.25140, 145: 2.19173,
                144:-1.15659, 143: 0.38125, 142:-0.50578, 141:-0.63799, 140: 1.29985, 139:-1.97045, 138: 0.12153, 137: 1.95895,
                136:-0.27722, 135: 1.30079, 134: 0.39466, 133: 0.11238, 132: 0.99543, 131:-1.23584, 130:-0.59246, 129: 1.08611,
                128: 0.08535, 127: 0.44144, 126:-0.02083, 125: 0.03128, 124: 0.89476, 123:-0.09956, 122:-0.98302, 121: 0.98811,
                120:-1.68638, 119:-0.06151, 118:-0.44493, 117:-0.51892, 116: 0.66736, 115:-0.06672, 114:-0.81372, 113:-1.40559
   154 |      | 152: 1.13440, 151: 0.95481, 150:-0.78942, 149: 0.86178, 148:-1.65297, 147: 0.32691, 146: 0.27085, 145:-1.28302,
                144:-0.08134, 143: 0.01258, 142:-0.26333, 141: 1.00488, 140:-0.50812, 139:-0.66640, 138:-0.44887, 137: 0.18822,
                136: 0.11770, 135: 0.70579, 134:-0.02290, 133: 0.31522, 132:-0.88116, 131:-0.27490, 130: 0.60465, 129: 0.93264,
                128: 0.60329, 127: 0.72432, 126: 0.88238, 125: 1.14294, 124:-1.02290, 123:-0.35414, 122:-0.97225, 121: 0.37391,
                120: 0.24912, 119:-0.12943, 118:-0.15327, 117: 1.64940, 116:-2.23167, 115:-0.83613, 114:-0.96198, 113:-0.41367
   155 |      | 152:-0.42953, 151:-0.72469, 150:-0.00392, 149:-0.79271, 148: 0.00251, 147: 2.20329, 146:-0.02665, 145:-0.89659,
                144: 0.17899, 143:-1.19513, 142:-0.66558, 141:-1.28754, 140:-0.68147, 139: 0.61323, 138: 0.08235, 137:-1.73350,
                136:-0.10404, 135:-1.06085, 134:-0.31630, 133:-1.59818, 132: 1.14423, 131: 0.83646, 130: 0.36627, 129:-1.00536,
                128: 0.00737, 127: 0.46773, 126: 0.90716, 125:-1.33008, 124: 0.48547, 123: 0.25169, 122:-0.04393, 121:-0.92381,
                120: 0.58349, 119:-0.28818, 118: 0.30864, 117:-1.85902, 116: 0.32826, 115: 1.11358, 114: 1.27477, 113:-0.95026
-------|------|----------------------------------------------------------------------------------------------------------------


time delay section :

 no. | LLN | LUN | Toff | Soff | Ctype
-----|-----|-----|------|------|-------
   1 |   1 |   1 |    0 |    0 |     0
   2 |   1 |   2 |    0 |    0 |     0
   3 |   1 |   3 |    0 |    0 |     0
   4 |   1 |   4 |    0 |    0 |     0
   5 |   1 |   5 |    0 |    0 |     0
   6 |   1 |   6 |    0 |    0 |     0
   7 |   1 |   7 |    0 |    0 |     0
   8 |   1 |   8 |    0 |    0 |     0
   9 |   1 |   9 |    0 |    0 |     0
  10 |   1 |  10 |    0 |    0 |     0
  11 |   1 |  11 |    0 |    0 |     0
  12 |   1 |  12 |    0 |    0 |     0
  13 |   1 |  13 |    0 |    0 |     0
  14 |   1 |  14 |    0 |    0 |     0
  15 |   1 |  15 |    0 |    0 |     0
  16 |   1 |  16 |    0 |    0 |     0
  17 |   1 |  17 |  -16 |    0 |     0
  18 |   1 |  18 |  -16 |    0 |     0
  19 |   1 |  19 |  -16 |    0 |     0
  20 |   1 |  20 |  -16 |    0 |     0
  21 |   1 |  21 |  -16 |    0 |     0
  22 |   1 |  22 |  -16 |    0 |     0
  23 |   1 |  23 |  -16 |    0 |     0
  24 |   1 |  24 |  -16 |    0 |     0
  25 |   1 |  25 |  -16 |    0 |     0
  26 |   1 |  26 |  -16 |    0 |     0
  27 |   1 |  27 |  -16 |    0 |     0
  28 |   1 |  28 |  -16 |    0 |     0
  29 |   1 |  29 |  -16 |    0 |     0
  30 |   1 |  30 |  -16 |    0 |     0
  31 |   1 |  31 |  -16 |    0 |     0
  32 |   1 |  32 |  -16 |    0 |     0
  33 |   1 |  33 |  -32 |    0 |     0
  34 |   1 |  34 |  -32 |    0 |     0
  35 |   1 |  35 |  -32 |    0 |     0
  36 |   1 |  36 |  -32 |    0 |     0
  37 |   1 |  37 |  -32 |    0 |     0
  38 |   1 |  38 |  -32 |    0 |     0
  39 |   1 |  39 |  -32 |    0 |     0
  40 |   1 |  40 |  -32 |    0 |     0
  41 |   1 |  41 |  -32 |    0 |     0
  42 |   1 |  42 |  -32 |    0 |     0
  43 |   1 |  43 |  -32 |    0 |     0
  44 |   1 |  44 |  -32 |    0 |     0
  45 |   1 |  45 |  -32 |    0 |     0
  46 |   1 |  46 |  -32 |    0 |     0
  47 |   1 |  47 |  -32 |    0 |     0
  48 |   1 |  48 |  -32 |    0 |     0
  49 |   1 |  49 |  -48 |    0 |     0
  50 |   1 |  50 |  -48 |    0 |     0
  51 |   1 |  51 |  -48 |    0 |     0
  52 |   1 |  52 |  -48 |    0 |     0
  53 |   1 |  53 |  -48 |    0 |     0
  54 |   1 |  54 |  -48 |    0 |     0
  55 |   1 |  55 |  -48 |    0 |     0
  56 |   1 |  56 |  -48 |    0 |     0
  57 |   1 |  57 |  -48 |    0 |     0
  58 |   1 |  58 |  -48 |    0 |     0
  59 |   1 |  59 |  -48 |    0 |     0
  60 |   1 |  60 |  -48 |    0 |     0
  61 |   1 |  61 |  -48 |    0 |     0
  62 |   1 |  62 |  -48 |    0 |     0
  63 |   1 |  63 |  -48 |    0 |     0
  64 |   1 |  64 |  -48 |    0 |     0
  65 |   1 |  65 |  -64 |    0 |     0
  66 |   1 |  66 |  -64 |    0 |     0
  67 |   1 |  67 |  -64 |    0 |     0
  68 |   1 |  68 |  -64 |    0 |     0
  69 |   1 |  69 |  -64 |    0 |     0
  70 |   1 |  70 |  -64 |    0 |     0
  71 |   1 |  71 |  -64 |    0 |     0
  72 |   1 |  72 |  -64 |    0 |     0
  73 |   1 |  73 |  -64 |    0 |     0
  74 |   1 |  74 |  -64 |    0 |     0
  75 |   1 |  75 |  -64 |    0 |     0
  76 |   1 |  76 |  -64 |    0 |     0
  77 |   1 |  77 |  -64 |    0 |     0
  78 |   1 |  78 |  -64 |    0 |     0
  79 |   1 |  79 |  -64 |    0 |     0
  80 |   1 |  80 |  -64 |    0 |     0
  81 |   1 |  81 |  -80 |    0 |     0
  82 |   1 |  82 |  -80 |    0 |     0
  83 |   1 |  83 |  -80 |    0 |     0
  84 |   1 |  84 |  -80 |    0 |     0
  85 |   1 |  85 |  -80 |    0 |     0
  86 |   1 |  86 |  -80 |    0 |     0
  87 |   1 |  87 |  -80 |    0 |     0
  88 |   1 |  88 |  -80 |    0 |     0
  89 |   1 |  89 |  -80 |    0 |     0
  90 |   1 |  90 |  -80 |    0 |     0
  91 |   1 |  91 |  -80 |    0 |     0
  92 |   1 |  92 |  -80 |    0 |     0
  93 |   1 |  93 |  -80 |    0 |     0
  94 |   1 |  94 |  -80 |    0 |     0
  95 |   1 |  95 |  -80 |    0 |     0
  96 |   1 |  96 |  -80 |    0 |     0
  97 |   1 |  97 |  -96 |    0 |     0
  98 |   1 |  98 |  -96 |    0 |     0
  99 |   1 |  99 |  -96 |    0 |     0
 100 |   1 | 100 |  -96 |    0 |     0
 101 |   1 | 101 |  -96 |    0 |     0
 102 |   1 | 102 |  -96 |    0 |     0
 103 |   1 | 103 |  -96 |    0 |     0
 104 |   1 | 104 |  -96 |    0 |     0
 105 |   1 | 105 |  -96 |    0 |     0
 106 |   1 | 106 |  -96 |    0 |     0
 107 |   1 | 107 |  -96 |    0 |     0
 108 |   1 | 108 |  -96 |    0 |     0
 109 |   1 | 109 |  -96 |    0 |     0
 110 |   1 | 110 |  -96 |    0 |     0
 111 |   1 | 111 |  -96 |    0 |     0
 112 |   1 | 112 |  -96 |    0 |     0
 113 |   2 |   1 |    0 |    0 |     1
 114 |   2 |   2 |    0 |    0 |     1
 115 |   2 |   3 |    0 |    0 |     1
 116 |   2 |   4 |    0 |    0 |     1
 117 |   2 |   5 |    0 |    0 |     1
 118 |   2 |   6 |    0 |    0 |     1
 119 |   2 |   7 |    0 |    0 |     1
 120 |   2 |   8 |    0 |    0 |     1
 121 |   2 |   9 |   -8 |   16 |     1
 122 |   2 |  10 |   -8 |   16 |     1
 123 |   2 |  11 |   -8 |   16 |     1
 124 |   2 |  12 |   -8 |   16 |     1
 125 |   2 |  13 |   -8 |   16 |     1
 126 |   2 |  14 |   -8 |   16 |     1
 127 |   2 |  15 |   -8 |   16 |     1
 128 |   2 |  16 |   -8 |   16 |     1
 129 |   2 |  17 |  -16 |   32 |     1
 130 |   2 |  18 |  -16 |   32 |     1
 131 |   2 |  19 |  -16 |   32 |     1
 132 |   2 |  20 |  -16 |   32 |     1
 133 |   2 |  21 |  -16 |   32 |     1
 134 |   2 |  22 |  -16 |   32 |     1
 135 |   2 |  23 |  -16 |   32 |     1
 136 |   2 |  24 |  -16 |   32 |     1
 137 |   2 |  25 |  -24 |   48 |     1
 138 |   2 |  26 |  -24 |   48 |     1
 139 |   2 |  27 |  -24 |   48 |     1
 140 |   2 |  28 |  -24 |   48 |     1
 141 |   2 |  29 |  -24 |   48 |     1
 142 |   2 |  30 |  -24 |   48 |     1
 143 |   2 |  31 |  -24 |   48 |     1
 144 |   2 |  32 |  -24 |   48 |     1
 145 |   2 |  33 |  -32 |   64 |     1
 146 |   2 |  34 |  -32 |   64 |     1
 147 |   2 |  35 |  -32 |   64 |     1
 148 |   2 |  36 |  -32 |   64 |     1
 149 |   2 |  37 |  -32 |   64 |     1
 150 |   2 |  38 |  -32 |   64 |     1
 151 |   2 |  39 |  -32 |   64 |     1
 152 |   2 |  40 |  -32 |   64 |     1
 153 |   3 |   1 |    0 |    0 |     1
 154 |   3 |   2 |    0 |    0 |     1
 155 |   3 |   3 |    0 |    0 |     1
-----|-----|-----|------|------|-------
