SNNS network definition file V1.4-3D
generated at Fri Jun 10 13:45:33 1994

network name : dlvq_ziff
source files :
no. of units : 257
no. of connections : 0
no. of unit types : 0
no. of site types : 0


learning function : Dynamic_LVQ
update function   : Dynamic_LVQ


unit default section :

act      | bias     | st | subnet | layer | act func     | out func
---------|----------|----|--------|-------|--------------|-------------
 0.00000 |  0.00000 | h  |      0 |     1 | Act_Logistic | Out_Identity 
---------|----------|----|--------|-------|--------------|-------------


unit definition section :

no. | typeName | unitName | act      | bias     | st | position | act func | out func | sites
----|----------|----------|----------|----------|----|----------|----------|----------|-------
  1 |          |          |  0.00000 |  0.00000 | i  |  2, 2, 0 |||
  2 |          |          |  0.00000 |  0.00000 | i  |  3, 2, 0 |||
  3 |          |          |  0.00000 |  0.00000 | i  |  4, 2, 0 |||
  4 |          |          |  0.00000 |  0.00000 | i  |  5, 2, 0 |||
  5 |          |          |  0.00000 |  0.00000 | i  |  6, 2, 0 |||
  6 |          |          |  0.00000 |  0.00000 | i  |  7, 2, 0 |||
  7 |          |          |  0.00000 |  0.00000 | i  |  8, 2, 0 |||
  8 |          |          |  0.00000 |  0.00000 | i  |  9, 2, 0 |||
  9 |          |          |  0.00000 |  0.00000 | i  | 10, 2, 0 |||
 10 |          |          |  0.00000 |  0.00000 | i  | 11, 2, 0 |||
 11 |          |          |  0.00000 |  0.00000 | i  | 12, 2, 0 |||
 12 |          |          |  0.00000 |  0.00000 | i  | 13, 2, 0 |||
 13 |          |          |  0.00000 |  0.00000 | i  | 14, 2, 0 |||
 14 |          |          |  0.00000 |  0.00000 | i  | 15, 2, 0 |||
 15 |          |          |  0.00000 |  0.00000 | i  | 16, 2, 0 |||
 16 |          |          |  0.00000 |  0.00000 | i  | 17, 2, 0 |||
 17 |          |          |  0.00000 |  0.00000 | i  |  2, 3, 0 |||
 18 |          |          |  0.00000 |  0.00000 | i  |  3, 3, 0 |||
 19 |          |          |  0.00000 |  0.00000 | i  |  4, 3, 0 |||
 20 |          |          |  0.00000 |  0.00000 | i  |  5, 3, 0 |||
 21 |          |          |  0.00000 |  0.00000 | i  |  6, 3, 0 |||
 22 |          |          |  0.00000 |  0.00000 | i  |  7, 3, 0 |||
 23 |          |          |  0.00000 |  0.00000 | i  |  8, 3, 0 |||
 24 |          |          |  0.00000 |  0.00000 | i  |  9, 3, 0 |||
 25 |          |          |  0.00000 |  0.00000 | i  | 10, 3, 0 |||
 26 |          |          |  0.00000 |  0.00000 | i  | 11, 3, 0 |||
 27 |          |          |  0.00000 |  0.00000 | i  | 12, 3, 0 |||
 28 |          |          |  0.00000 |  0.00000 | i  | 13, 3, 0 |||
 29 |          |          |  0.00000 |  0.00000 | i  | 14, 3, 0 |||
 30 |          |          |  0.00000 |  0.00000 | i  | 15, 3, 0 |||
 31 |          |          |  0.00000 |  0.00000 | i  | 16, 3, 0 |||
 32 |          |          |  0.00000 |  0.00000 | i  | 17, 3, 0 |||
 33 |          |          |  0.00000 |  0.00000 | i  |  2, 4, 0 |||
 34 |          |          |  0.00000 |  0.00000 | i  |  3, 4, 0 |||
 35 |          |          |  0.00000 |  0.00000 | i  |  4, 4, 0 |||
 36 |          |          |  0.00000 |  0.00000 | i  |  5, 4, 0 |||
 37 |          |          |  0.00000 |  0.00000 | i  |  6, 4, 0 |||
 38 |          |          |  0.00000 |  0.00000 | i  |  7, 4, 0 |||
 39 |          |          |  0.00000 |  0.00000 | i  |  8, 4, 0 |||
 40 |          |          |  0.00000 |  0.00000 | i  |  9, 4, 0 |||
 41 |          |          |  0.00000 |  0.00000 | i  | 10, 4, 0 |||
 42 |          |          |  0.00000 |  0.00000 | i  | 11, 4, 0 |||
 43 |          |          |  0.00000 |  0.00000 | i  | 12, 4, 0 |||
 44 |          |          |  0.00000 |  0.00000 | i  | 13, 4, 0 |||
 45 |          |          |  0.00000 |  0.00000 | i  | 14, 4, 0 |||
 46 |          |          |  0.00000 |  0.00000 | i  | 15, 4, 0 |||
 47 |          |          |  0.00000 |  0.00000 | i  | 16, 4, 0 |||
 48 |          |          |  0.00000 |  0.00000 | i  | 17, 4, 0 |||
 49 |          |          |  0.00000 |  0.00000 | i  |  2, 5, 0 |||
 50 |          |          |  0.00000 |  0.00000 | i  |  3, 5, 0 |||
 51 |          |          |  0.00000 |  0.00000 | i  |  4, 5, 0 |||
 52 |          |          |  0.00000 |  0.00000 | i  |  5, 5, 0 |||
 53 |          |          |  0.00000 |  0.00000 | i  |  6, 5, 0 |||
 54 |          |          |  0.00000 |  0.00000 | i  |  7, 5, 0 |||
 55 |          |          |  0.00000 |  0.00000 | i  |  8, 5, 0 |||
 56 |          |          |  0.00000 |  0.00000 | i  |  9, 5, 0 |||
 57 |          |          |  0.00000 |  0.00000 | i  | 10, 5, 0 |||
 58 |          |          |  0.00000 |  0.00000 | i  | 11, 5, 0 |||
 59 |          |          |  0.00000 |  0.00000 | i  | 12, 5, 0 |||
 60 |          |          |  0.00000 |  0.00000 | i  | 13, 5, 0 |||
 61 |          |          |  0.00000 |  0.00000 | i  | 14, 5, 0 |||
 62 |          |          |  0.00000 |  0.00000 | i  | 15, 5, 0 |||
 63 |          |          |  0.00000 |  0.00000 | i  | 16, 5, 0 |||
 64 |          |          |  0.00000 |  0.00000 | i  | 17, 5, 0 |||
 65 |          |          |  0.00000 |  0.00000 | i  |  2, 6, 0 |||
 66 |          |          |  0.00000 |  0.00000 | i  |  3, 6, 0 |||
 67 |          |          |  0.00000 |  0.00000 | i  |  4, 6, 0 |||
 68 |          |          |  0.00000 |  0.00000 | i  |  5, 6, 0 |||
 69 |          |          |  0.00000 |  0.00000 | i  |  6, 6, 0 |||
 70 |          |          |  0.00000 |  0.00000 | i  |  7, 6, 0 |||
 71 |          |          |  0.00000 |  0.00000 | i  |  8, 6, 0 |||
 72 |          |          |  0.00000 |  0.00000 | i  |  9, 6, 0 |||
 73 |          |          |  0.00000 |  0.00000 | i  | 10, 6, 0 |||
 74 |          |          |  0.00000 |  0.00000 | i  | 11, 6, 0 |||
 75 |          |          |  0.00000 |  0.00000 | i  | 12, 6, 0 |||
 76 |          |          |  0.00000 |  0.00000 | i  | 13, 6, 0 |||
 77 |          |          |  0.00000 |  0.00000 | i  | 14, 6, 0 |||
 78 |          |          |  0.00000 |  0.00000 | i  | 15, 6, 0 |||
 79 |          |          |  0.00000 |  0.00000 | i  | 16, 6, 0 |||
 80 |          |          |  0.00000 |  0.00000 | i  | 17, 6, 0 |||
 81 |          |          |  0.00000 |  0.00000 | i  |  2, 7, 0 |||
 82 |          |          |  0.00000 |  0.00000 | i  |  3, 7, 0 |||
 83 |          |          |  0.00000 |  0.00000 | i  |  4, 7, 0 |||
 84 |          |          |  0.00000 |  0.00000 | i  |  5, 7, 0 |||
 85 |          |          |  0.00000 |  0.00000 | i  |  6, 7, 0 |||
 86 |          |          |  0.00000 |  0.00000 | i  |  7, 7, 0 |||
 87 |          |          |  0.00000 |  0.00000 | i  |  8, 7, 0 |||
 88 |          |          |  0.00000 |  0.00000 | i  |  9, 7, 0 |||
 89 |          |          |  0.00000 |  0.00000 | i  | 10, 7, 0 |||
 90 |          |          |  0.00000 |  0.00000 | i  | 11, 7, 0 |||
 91 |          |          |  0.00000 |  0.00000 | i  | 12, 7, 0 |||
 92 |          |          |  0.00000 |  0.00000 | i  | 13, 7, 0 |||
 93 |          |          |  0.00000 |  0.00000 | i  | 14, 7, 0 |||
 94 |          |          |  0.00000 |  0.00000 | i  | 15, 7, 0 |||
 95 |          |          |  0.00000 |  0.00000 | i  | 16, 7, 0 |||
 96 |          |          |  0.00000 |  0.00000 | i  | 17, 7, 0 |||
 97 |          |          |  0.00000 |  0.00000 | i  |  2, 8, 0 |||
 98 |          |          |  0.00000 |  0.00000 | i  |  3, 8, 0 |||
 99 |          |          |  0.00000 |  0.00000 | i  |  4, 8, 0 |||
100 |          |          |  0.00000 |  0.00000 | i  |  5, 8, 0 |||
101 |          |          |  0.00000 |  0.00000 | i  |  6, 8, 0 |||
102 |          |          |  0.00000 |  0.00000 | i  |  7, 8, 0 |||
103 |          |          |  0.00000 |  0.00000 | i  |  8, 8, 0 |||
104 |          |          |  0.00000 |  0.00000 | i  |  9, 8, 0 |||
105 |          |          |  0.00000 |  0.00000 | i  | 10, 8, 0 |||
106 |          |          |  0.00000 |  0.00000 | i  | 11, 8, 0 |||
107 |          |          |  0.00000 |  0.00000 | i  | 12, 8, 0 |||
108 |          |          |  0.00000 |  0.00000 | i  | 13, 8, 0 |||
109 |          |          |  0.00000 |  0.00000 | i  | 14, 8, 0 |||
110 |          |          |  0.00000 |  0.00000 | i  | 15, 8, 0 |||
111 |          |          |  0.00000 |  0.00000 | i  | 16, 8, 0 |||
112 |          |          |  0.00000 |  0.00000 | i  | 17, 8, 0 |||
113 |          |          |  0.00000 |  0.00000 | i  |  2, 9, 0 |||
114 |          |          |  0.00000 |  0.00000 | i  |  3, 9, 0 |||
115 |          |          |  0.00000 |  0.00000 | i  |  4, 9, 0 |||
116 |          |          |  0.00000 |  0.00000 | i  |  5, 9, 0 |||
117 |          |          |  0.00000 |  0.00000 | i  |  6, 9, 0 |||
118 |          |          |  0.00000 |  0.00000 | i  |  7, 9, 0 |||
119 |          |          |  0.00000 |  0.00000 | i  |  8, 9, 0 |||
120 |          |          |  0.00000 |  0.00000 | i  |  9, 9, 0 |||
121 |          |          |  0.00000 |  0.00000 | i  | 10, 9, 0 |||
122 |          |          |  0.00000 |  0.00000 | i  | 11, 9, 0 |||
123 |          |          |  0.00000 |  0.00000 | i  | 12, 9, 0 |||
124 |          |          |  0.00000 |  0.00000 | i  | 13, 9, 0 |||
125 |          |          |  0.00000 |  0.00000 | i  | 14, 9, 0 |||
126 |          |          |  0.00000 |  0.00000 | i  | 15, 9, 0 |||
127 |          |          |  0.00000 |  0.00000 | i  | 16, 9, 0 |||
128 |          |          |  0.00000 |  0.00000 | i  | 17, 9, 0 |||
129 |          |          |  0.00000 |  0.00000 | i  |  2,10, 0 |||
130 |          |          |  0.00000 |  0.00000 | i  |  3,10, 0 |||
131 |          |          |  0.00000 |  0.00000 | i  |  4,10, 0 |||
132 |          |          |  0.00000 |  0.00000 | i  |  5,10, 0 |||
133 |          |          |  0.00000 |  0.00000 | i  |  6,10, 0 |||
134 |          |          |  0.00000 |  0.00000 | i  |  7,10, 0 |||
135 |          |          |  0.00000 |  0.00000 | i  |  8,10, 0 |||
136 |          |          |  0.00000 |  0.00000 | i  |  9,10, 0 |||
137 |          |          |  0.00000 |  0.00000 | i  | 10,10, 0 |||
138 |          |          |  0.00000 |  0.00000 | i  | 11,10, 0 |||
139 |          |          |  0.00000 |  0.00000 | i  | 12,10, 0 |||
140 |          |          |  0.00000 |  0.00000 | i  | 13,10, 0 |||
141 |          |          |  0.00000 |  0.00000 | i  | 14,10, 0 |||
142 |          |          |  0.00000 |  0.00000 | i  | 15,10, 0 |||
143 |          |          |  0.00000 |  0.00000 | i  | 16,10, 0 |||
144 |          |          |  0.00000 |  0.00000 | i  | 17,10, 0 |||
145 |          |          |  0.00000 |  0.00000 | i  |  2,11, 0 |||
146 |          |          |  0.00000 |  0.00000 | i  |  3,11, 0 |||
147 |          |          |  0.00000 |  0.00000 | i  |  4,11, 0 |||
148 |          |          |  0.00000 |  0.00000 | i  |  5,11, 0 |||
149 |          |          |  0.00000 |  0.00000 | i  |  6,11, 0 |||
150 |          |          |  0.00000 |  0.00000 | i  |  7,11, 0 |||
151 |          |          |  0.00000 |  0.00000 | i  |  8,11, 0 |||
152 |          |          |  0.00000 |  0.00000 | i  |  9,11, 0 |||
153 |          |          |  0.00000 |  0.00000 | i  | 10,11, 0 |||
154 |          |          |  0.00000 |  0.00000 | i  | 11,11, 0 |||
155 |          |          |  0.00000 |  0.00000 | i  | 12,11, 0 |||
156 |          |          |  0.00000 |  0.00000 | i  | 13,11, 0 |||
157 |          |          |  0.00000 |  0.00000 | i  | 14,11, 0 |||
158 |          |          |  0.00000 |  0.00000 | i  | 15,11, 0 |||
159 |          |          |  0.00000 |  0.00000 | i  | 16,11, 0 |||
160 |          |          |  0.00000 |  0.00000 | i  | 17,11, 0 |||
161 |          |          |  0.00000 |  0.00000 | i  |  2,12, 0 |||
162 |          |          |  0.00000 |  0.00000 | i  |  3,12, 0 |||
163 |          |          |  0.00000 |  0.00000 | i  |  4,12, 0 |||
164 |          |          |  0.00000 |  0.00000 | i  |  5,12, 0 |||
165 |          |          |  0.00000 |  0.00000 | i  |  6,12, 0 |||
166 |          |          |  0.00000 |  0.00000 | i  |  7,12, 0 |||
167 |          |          |  0.00000 |  0.00000 | i  |  8,12, 0 |||
168 |          |          |  0.00000 |  0.00000 | i  |  9,12, 0 |||
169 |          |          |  0.00000 |  0.00000 | i  | 10,12, 0 |||
170 |          |          |  0.00000 |  0.00000 | i  | 11,12, 0 |||
171 |          |          |  0.00000 |  0.00000 | i  | 12,12, 0 |||
172 |          |          |  0.00000 |  0.00000 | i  | 13,12, 0 |||
173 |          |          |  0.00000 |  0.00000 | i  | 14,12, 0 |||
174 |          |          |  0.00000 |  0.00000 | i  | 15,12, 0 |||
175 |          |          |  0.00000 |  0.00000 | i  | 16,12, 0 |||
176 |          |          |  0.00000 |  0.00000 | i  | 17,12, 0 |||
177 |          |          |  0.00000 |  0.00000 | i  |  2,13, 0 |||
178 |          |          |  0.00000 |  0.00000 | i  |  3,13, 0 |||
179 |          |          |  0.00000 |  0.00000 | i  |  4,13, 0 |||
180 |          |          |  0.00000 |  0.00000 | i  |  5,13, 0 |||
181 |          |          |  0.00000 |  0.00000 | i  |  6,13, 0 |||
182 |          |          |  0.00000 |  0.00000 | i  |  7,13, 0 |||
183 |          |          |  0.00000 |  0.00000 | i  |  8,13, 0 |||
184 |          |          |  0.00000 |  0.00000 | i  |  9,13, 0 |||
185 |          |          |  0.00000 |  0.00000 | i  | 10,13, 0 |||
186 |          |          |  0.00000 |  0.00000 | i  | 11,13, 0 |||
187 |          |          |  0.00000 |  0.00000 | i  | 12,13, 0 |||
188 |          |          |  0.00000 |  0.00000 | i  | 13,13, 0 |||
189 |          |          |  0.00000 |  0.00000 | i  | 14,13, 0 |||
190 |          |          |  0.00000 |  0.00000 | i  | 15,13, 0 |||
191 |          |          |  0.00000 |  0.00000 | i  | 16,13, 0 |||
192 |          |          |  0.00000 |  0.00000 | i  | 17,13, 0 |||
193 |          |          |  0.00000 |  0.00000 | i  |  2,14, 0 |||
194 |          |          |  0.00000 |  0.00000 | i  |  3,14, 0 |||
195 |          |          |  0.00000 |  0.00000 | i  |  4,14, 0 |||
196 |          |          |  0.00000 |  0.00000 | i  |  5,14, 0 |||
197 |          |          |  0.00000 |  0.00000 | i  |  6,14, 0 |||
198 |          |          |  0.00000 |  0.00000 | i  |  7,14, 0 |||
199 |          |          |  0.00000 |  0.00000 | i  |  8,14, 0 |||
200 |          |          |  0.00000 |  0.00000 | i  |  9,14, 0 |||
201 |          |          |  0.00000 |  0.00000 | i  | 10,14, 0 |||
202 |          |          |  0.00000 |  0.00000 | i  | 11,14, 0 |||
203 |          |          |  0.00000 |  0.00000 | i  | 12,14, 0 |||
204 |          |          |  0.00000 |  0.00000 | i  | 13,14, 0 |||
205 |          |          |  0.00000 |  0.00000 | i  | 14,14, 0 |||
206 |          |          |  0.00000 |  0.00000 | i  | 15,14, 0 |||
207 |          |          |  0.00000 |  0.00000 | i  | 16,14, 0 |||
208 |          |          |  0.00000 |  0.00000 | i  | 17,14, 0 |||
209 |          |          |  0.00000 |  0.00000 | i  |  2,15, 0 |||
210 |          |          |  0.00000 |  0.00000 | i  |  3,15, 0 |||
211 |          |          |  0.00000 |  0.00000 | i  |  4,15, 0 |||
212 |          |          |  0.00000 |  0.00000 | i  |  5,15, 0 |||
213 |          |          |  0.00000 |  0.00000 | i  |  6,15, 0 |||
214 |          |          |  0.00000 |  0.00000 | i  |  7,15, 0 |||
215 |          |          |  0.00000 |  0.00000 | i  |  8,15, 0 |||
216 |          |          |  0.00000 |  0.00000 | i  |  9,15, 0 |||
217 |          |          |  0.00000 |  0.00000 | i  | 10,15, 0 |||
218 |          |          |  0.00000 |  0.00000 | i  | 11,15, 0 |||
219 |          |          |  0.00000 |  0.00000 | i  | 12,15, 0 |||
220 |          |          |  0.00000 |  0.00000 | i  | 13,15, 0 |||
221 |          |          |  0.00000 |  0.00000 | i  | 14,15, 0 |||
222 |          |          |  0.00000 |  0.00000 | i  | 15,15, 0 |||
223 |          |          |  0.00000 |  0.00000 | i  | 16,15, 0 |||
224 |          |          |  0.00000 |  0.00000 | i  | 17,15, 0 |||
225 |          |          |  0.00000 |  0.00000 | i  |  2,16, 0 |||
226 |          |          |  0.00000 |  0.00000 | i  |  3,16, 0 |||
227 |          |          |  0.00000 |  0.00000 | i  |  4,16, 0 |||
228 |          |          |  0.00000 |  0.00000 | i  |  5,16, 0 |||
229 |          |          |  0.00000 |  0.00000 | i  |  6,16, 0 |||
230 |          |          |  0.00000 |  0.00000 | i  |  7,16, 0 |||
231 |          |          |  0.00000 |  0.00000 | i  |  8,16, 0 |||
232 |          |          |  0.00000 |  0.00000 | i  |  9,16, 0 |||
233 |          |          |  0.00000 |  0.00000 | i  | 10,16, 0 |||
234 |          |          |  0.00000 |  0.00000 | i  | 11,16, 0 |||
235 |          |          |  0.00000 |  0.00000 | i  | 12,16, 0 |||
236 |          |          |  0.00000 |  0.00000 | i  | 13,16, 0 |||
237 |          |          |  0.00000 |  0.00000 | i  | 14,16, 0 |||
238 |          |          |  0.00000 |  0.00000 | i  | 15,16, 0 |||
239 |          |          |  0.00000 |  0.00000 | i  | 16,16, 0 |||
240 |          |          |  0.00000 |  0.00000 | i  | 17,16, 0 |||
241 |          |          |  0.00000 |  0.00000 | i  |  2,17, 0 |||
242 |          |          |  0.00000 |  0.00000 | i  |  3,17, 0 |||
243 |          |          |  0.00000 |  0.00000 | i  |  4,17, 0 |||
244 |          |          |  0.00000 |  0.00000 | i  |  5,17, 0 |||
245 |          |          |  0.00000 |  0.00000 | i  |  6,17, 0 |||
246 |          |          |  0.00000 |  0.00000 | i  |  7,17, 0 |||
247 |          |          |  0.00000 |  0.00000 | i  |  8,17, 0 |||
248 |          |          |  0.00000 |  0.00000 | i  |  9,17, 0 |||
249 |          |          |  0.00000 |  0.00000 | i  | 10,17, 0 |||
250 |          |          |  0.00000 |  0.00000 | i  | 11,17, 0 |||
251 |          |          |  0.00000 |  0.00000 | i  | 12,17, 0 |||
252 |          |          |  0.00000 |  0.00000 | i  | 13,17, 0 |||
253 |          |          |  0.00000 |  0.00000 | i  | 14,17, 0 |||
254 |          |          |  0.00000 |  0.00000 | i  | 15,17, 0 |||
255 |          |          |  0.00000 |  0.00000 | i  | 16,17, 0 |||
256 |          |          |  0.00000 |  0.00000 | i  | 17,17, 0 |||
257 |          |          |  0.00000 |  0.00000 | o  | 20, 2, 0 |||
----|----------|----------|----------|----------|----|----------|----------|----------|-------
