SNNS network definition file V1.4-3D
generated at Thu Oct  6 14:45:20 1994

network name : dlvq_ziff_untrained
source files :
no. of units : 257
no. of connections : 0
no. of unit types : 0
no. of site types : 0


learning function : Dynamic_LVQ
update function   : Dynamic_LVQ


unit default section :

act      | bias     | st | subnet | layer | act func     | out func
---------|----------|----|--------|-------|--------------|-------------
 0.00000 |  0.00000 | h  |      0 |     1 | Act_Logistic | Out_Identity 
---------|----------|----|--------|-------|--------------|-------------


unit definition section :

no. | typeName | unitName | act      | bias     | st | position | act func | out func | sites
----|----------|----------|----------|----------|----|----------|----------|----------|-------
  1 |          |          |  0.00000 |  0.20707 | i  |  2, 2, 0 |||
  2 |          |          |  0.00000 | -0.68097 | i  |  3, 2, 0 |||
  3 |          |          |  0.00000 |  0.29333 | i  |  4, 2, 0 |||
  4 |          |          |  0.00000 |  0.10683 | i  |  5, 2, 0 |||
  5 |          |          |  0.00000 |  0.36261 | i  |  6, 2, 0 |||
  6 |          |          |  0.00000 | -0.77286 | i  |  7, 2, 0 |||
  7 |          |          |  0.00000 |  0.96883 | i  |  8, 2, 0 |||
  8 |          |          |  0.00000 | -0.16818 | i  |  9, 2, 0 |||
  9 |          |          |  0.00000 |  0.68126 | i  | 10, 2, 0 |||
 10 |          |          |  0.00000 |  0.23257 | i  | 11, 2, 0 |||
 11 |          |          |  0.00000 | -0.38201 | i  | 12, 2, 0 |||
 12 |          |          |  0.00000 |  0.88228 | i  | 13, 2, 0 |||
 13 |          |          |  0.00000 | -0.79971 | i  | 14, 2, 0 |||
 14 |          |          |  0.00000 |  0.67291 | i  | 15, 2, 0 |||
 15 |          |          |  0.00000 |  0.68186 | i  | 16, 2, 0 |||
 16 |          |          |  0.00000 | -0.06613 | i  | 17, 2, 0 |||
 17 |          |          |  0.00000 | -0.20829 | i  |  2, 3, 0 |||
 18 |          |          |  0.00000 | -0.16540 | i  |  3, 3, 0 |||
 19 |          |          |  0.00000 |  0.46006 | i  |  4, 3, 0 |||
 20 |          |          |  0.00000 |  0.21904 | i  |  5, 3, 0 |||
 21 |          |          |  0.00000 |  0.41320 | i  |  6, 3, 0 |||
 22 |          |          |  0.00000 | -0.48475 | i  |  7, 3, 0 |||
 23 |          |          |  0.00000 |  0.40295 | i  |  8, 3, 0 |||
 24 |          |          |  0.00000 |  0.84892 | i  |  9, 3, 0 |||
 25 |          |          |  0.00000 |  0.19003 | i  | 10, 3, 0 |||
 26 |          |          |  0.00000 | -0.71476 | i  | 11, 3, 0 |||
 27 |          |          |  0.00000 | -0.88394 | i  | 12, 3, 0 |||
 28 |          |          |  0.00000 | -0.32566 | i  | 13, 3, 0 |||
 29 |          |          |  0.00000 | -0.69295 | i  | 14, 3, 0 |||
 30 |          |          |  0.00000 |  0.99449 | i  | 15, 3, 0 |||
 31 |          |          |  0.00000 |  0.07524 | i  | 16, 3, 0 |||
 32 |          |          |  0.00000 | -0.06519 | i  | 17, 3, 0 |||
 33 |          |          |  0.00000 | -0.57575 | i  |  2, 4, 0 |||
 34 |          |          |  0.00000 |  0.46878 | i  |  3, 4, 0 |||
 35 |          |          |  0.00000 | -0.96550 | i  |  4, 4, 0 |||
 36 |          |          |  0.00000 |  0.38643 | i  |  5, 4, 0 |||
 37 |          |          |  0.00000 | -0.20171 | i  |  6, 4, 0 |||
 38 |          |          |  0.00000 | -0.21743 | i  |  7, 4, 0 |||
 39 |          |          |  0.00000 |  0.57512 | i  |  8, 4, 0 |||
 40 |          |          |  0.00000 | -0.77179 | i  |  9, 4, 0 |||
 41 |          |          |  0.00000 |  0.39069 | i  | 10, 4, 0 |||
 42 |          |          |  0.00000 |  0.69628 | i  | 11, 4, 0 |||
 43 |          |          |  0.00000 |  0.32468 | i  | 12, 4, 0 |||
 44 |          |          |  0.00000 |  0.22505 | i  | 13, 4, 0 |||
 45 |          |          |  0.00000 | -0.28722 | i  | 14, 4, 0 |||
 46 |          |          |  0.00000 | -0.50711 | i  | 15, 4, 0 |||
 47 |          |          |  0.00000 | -0.20723 | i  | 16, 4, 0 |||
 48 |          |          |  0.00000 | -0.06326 | i  | 17, 4, 0 |||
 49 |          |          |  0.00000 |  0.08128 | i  |  2, 5, 0 |||
 50 |          |          |  0.00000 | -0.30498 | i  |  3, 5, 0 |||
 51 |          |          |  0.00000 |  0.34564 | i  |  4, 5, 0 |||
 52 |          |          |  0.00000 | -0.89274 | i  |  5, 5, 0 |||
 53 |          |          |  0.00000 |  0.26392 | i  |  6, 5, 0 |||
 54 |          |          |  0.00000 | -0.88778 | i  |  7, 5, 0 |||
 55 |          |          |  0.00000 |  0.98514 | i  |  8, 5, 0 |||
 56 |          |          |  0.00000 | -0.03320 | i  |  9, 5, 0 |||
 57 |          |          |  0.00000 |  0.45446 | i  | 10, 5, 0 |||
 58 |          |          |  0.00000 |  0.95140 | i  | 11, 5, 0 |||
 59 |          |          |  0.00000 | -0.18391 | i  | 12, 5, 0 |||
 60 |          |          |  0.00000 |  0.59007 | i  | 13, 5, 0 |||
 61 |          |          |  0.00000 | -0.75539 | i  | 14, 5, 0 |||
 62 |          |          |  0.00000 |  0.88126 | i  | 15, 5, 0 |||
 63 |          |          |  0.00000 |  0.47831 | i  | 16, 5, 0 |||
 64 |          |          |  0.00000 |  0.39434 | i  | 17, 5, 0 |||
 65 |          |          |  0.00000 | -0.78299 | i  |  2, 6, 0 |||
 66 |          |          |  0.00000 |  0.00360 | i  |  3, 6, 0 |||
 67 |          |          |  0.00000 | -0.42005 | i  |  4, 6, 0 |||
 68 |          |          |  0.00000 |  0.42717 | i  |  5, 6, 0 |||
 69 |          |          |  0.00000 | -0.72985 | i  |  6, 6, 0 |||
 70 |          |          |  0.00000 | -0.35108 | i  |  7, 6, 0 |||
 71 |          |          |  0.00000 |  0.08302 | i  |  8, 6, 0 |||
 72 |          |          |  0.00000 | -0.91927 | i  |  9, 6, 0 |||
 73 |          |          |  0.00000 | -0.54935 | i  | 10, 6, 0 |||
 74 |          |          |  0.00000 |  0.24690 | i  | 11, 6, 0 |||
 75 |          |          |  0.00000 |  0.54272 | i  | 12, 6, 0 |||
 76 |          |          |  0.00000 |  0.29093 | i  | 13, 6, 0 |||
 77 |          |          |  0.00000 |  0.39936 | i  | 14, 6, 0 |||
 78 |          |          |  0.00000 | -0.33953 | i  | 15, 6, 0 |||
 79 |          |          |  0.00000 | -0.43793 | i  | 16, 6, 0 |||
 80 |          |          |  0.00000 | -0.13191 | i  | 17, 6, 0 |||
 81 |          |          |  0.00000 | -0.64893 | i  |  2, 7, 0 |||
 82 |          |          |  0.00000 |  0.21878 | i  |  3, 7, 0 |||
 83 |          |          |  0.00000 | -0.63753 | i  |  4, 7, 0 |||
 84 |          |          |  0.00000 | -0.68802 | i  |  5, 7, 0 |||
 85 |          |          |  0.00000 |  0.63906 | i  |  6, 7, 0 |||
 86 |          |          |  0.00000 | -0.88679 | i  |  7, 7, 0 |||
 87 |          |          |  0.00000 |  0.15023 | i  |  8, 7, 0 |||
 88 |          |          |  0.00000 | -0.04133 | i  |  9, 7, 0 |||
 89 |          |          |  0.00000 |  0.86871 | i  | 10, 7, 0 |||
 90 |          |          |  0.00000 | -0.82702 | i  | 11, 7, 0 |||
 91 |          |          |  0.00000 | -0.76517 | i  | 12, 7, 0 |||
 92 |          |          |  0.00000 | -0.52273 | i  | 13, 7, 0 |||
 93 |          |          |  0.00000 |  0.20215 | i  | 14, 7, 0 |||
 94 |          |          |  0.00000 | -0.37651 | i  | 15, 7, 0 |||
 95 |          |          |  0.00000 | -0.52310 | i  | 16, 7, 0 |||
 96 |          |          |  0.00000 |  0.18998 | i  | 17, 7, 0 |||
 97 |          |          |  0.00000 |  0.74950 | i  |  2, 8, 0 |||
 98 |          |          |  0.00000 |  0.03073 | i  |  3, 8, 0 |||
 99 |          |          |  0.00000 |  0.55507 | i  |  4, 8, 0 |||
100 |          |          |  0.00000 | -0.74624 | i  |  5, 8, 0 |||
101 |          |          |  0.00000 | -0.05764 | i  |  6, 8, 0 |||
102 |          |          |  0.00000 |  0.99717 | i  |  7, 8, 0 |||
103 |          |          |  0.00000 | -0.72103 | i  |  8, 8, 0 |||
104 |          |          |  0.00000 |  0.96261 | i  |  9, 8, 0 |||
105 |          |          |  0.00000 | -0.62978 | i  | 10, 8, 0 |||
106 |          |          |  0.00000 |  0.51423 | i  | 11, 8, 0 |||
107 |          |          |  0.00000 |  0.37086 | i  | 12, 8, 0 |||
108 |          |          |  0.00000 | -0.93147 | i  | 13, 8, 0 |||
109 |          |          |  0.00000 | -0.87112 | i  | 14, 8, 0 |||
110 |          |          |  0.00000 | -0.61886 | i  | 15, 8, 0 |||
111 |          |          |  0.00000 |  0.01578 | i  | 16, 8, 0 |||
112 |          |          |  0.00000 |  0.55973 | i  | 17, 8, 0 |||
113 |          |          |  0.00000 | -0.15271 | i  |  2, 9, 0 |||
114 |          |          |  0.00000 |  0.42194 | i  |  3, 9, 0 |||
115 |          |          |  0.00000 |  0.35787 | i  |  4, 9, 0 |||
116 |          |          |  0.00000 |  0.47735 | i  |  5, 9, 0 |||
117 |          |          |  0.00000 |  0.65202 | i  |  6, 9, 0 |||
118 |          |          |  0.00000 |  0.99637 | i  |  7, 9, 0 |||
119 |          |          |  0.00000 |  0.91043 | i  |  8, 9, 0 |||
120 |          |          |  0.00000 |  0.51765 | i  |  9, 9, 0 |||
121 |          |          |  0.00000 |  0.16910 | i  | 10, 9, 0 |||
122 |          |          |  0.00000 | -0.40325 | i  | 11, 9, 0 |||
123 |          |          |  0.00000 |  0.55631 | i  | 12, 9, 0 |||
124 |          |          |  0.00000 | -0.00782 | i  | 13, 9, 0 |||
125 |          |          |  0.00000 |  0.86594 | i  | 14, 9, 0 |||
126 |          |          |  0.00000 |  0.21387 | i  | 15, 9, 0 |||
127 |          |          |  0.00000 |  0.04105 | i  | 16, 9, 0 |||
128 |          |          |  0.00000 |  0.56372 | i  | 17, 9, 0 |||
129 |          |          |  0.00000 |  0.56098 | i  |  2,10, 0 |||
130 |          |          |  0.00000 | -0.83241 | i  |  3,10, 0 |||
131 |          |          |  0.00000 |  0.29956 | i  |  4,10, 0 |||
132 |          |          |  0.00000 |  0.61461 | i  |  5,10, 0 |||
133 |          |          |  0.00000 |  0.57753 | i  |  6,10, 0 |||
134 |          |          |  0.00000 | -0.26736 | i  |  7,10, 0 |||
135 |          |          |  0.00000 |  0.89287 | i  |  8,10, 0 |||
136 |          |          |  0.00000 | -0.56682 | i  |  9,10, 0 |||
137 |          |          |  0.00000 |  0.93865 | i  | 10,10, 0 |||
138 |          |          |  0.00000 |  0.11181 | i  | 11,10, 0 |||
139 |          |          |  0.00000 |  0.64717 | i  | 12,10, 0 |||
140 |          |          |  0.00000 | -0.86436 | i  | 13,10, 0 |||
141 |          |          |  0.00000 | -0.81930 | i  | 14,10, 0 |||
142 |          |          |  0.00000 |  0.05431 | i  | 15,10, 0 |||
143 |          |          |  0.00000 | -0.74339 | i  | 16,10, 0 |||
144 |          |          |  0.00000 | -0.39113 | i  | 17,10, 0 |||
145 |          |          |  0.00000 | -0.86038 | i  |  2,11, 0 |||
146 |          |          |  0.00000 |  0.08982 | i  |  3,11, 0 |||
147 |          |          |  0.00000 |  0.20287 | i  |  4,11, 0 |||
148 |          |          |  0.00000 | -0.78661 | i  |  5,11, 0 |||
149 |          |          |  0.00000 | -0.38709 | i  |  6,11, 0 |||
150 |          |          |  0.00000 | -0.67747 | i  |  7,11, 0 |||
151 |          |          |  0.00000 | -0.47940 | i  |  8,11, 0 |||
152 |          |          |  0.00000 | -0.30254 | i  |  9,11, 0 |||
153 |          |          |  0.00000 | -0.35631 | i  | 10,11, 0 |||
154 |          |          |  0.00000 | -0.15442 | i  | 11,11, 0 |||
155 |          |          |  0.00000 |  0.45376 | i  | 12,11, 0 |||
156 |          |          |  0.00000 | -0.87078 | i  | 13,11, 0 |||
157 |          |          |  0.00000 | -0.32388 | i  | 14,11, 0 |||
158 |          |          |  0.00000 |  0.90517 | i  | 15,11, 0 |||
159 |          |          |  0.00000 |  0.25392 | i  | 16,11, 0 |||
160 |          |          |  0.00000 | -0.23639 | i  | 17,11, 0 |||
161 |          |          |  0.00000 |  0.70274 | i  |  2,12, 0 |||
162 |          |          |  0.00000 |  0.24539 | i  |  3,12, 0 |||
163 |          |          |  0.00000 | -0.28918 | i  |  4,12, 0 |||
164 |          |          |  0.00000 |  0.94862 | i  |  5,12, 0 |||
165 |          |          |  0.00000 | -0.68276 | i  |  6,12, 0 |||
166 |          |          |  0.00000 |  0.84596 | i  |  7,12, 0 |||
167 |          |          |  0.00000 | -0.48527 | i  |  8,12, 0 |||
168 |          |          |  0.00000 |  0.48803 | i  |  9,12, 0 |||
169 |          |          |  0.00000 | -0.80369 | i  | 10,12, 0 |||
170 |          |          |  0.00000 |  0.24470 | i  | 11,12, 0 |||
171 |          |          |  0.00000 |  0.36094 | i  | 12,12, 0 |||
172 |          |          |  0.00000 |  0.57713 | i  | 13,12, 0 |||
173 |          |          |  0.00000 | -0.29707 | i  | 14,12, 0 |||
174 |          |          |  0.00000 |  0.49737 | i  | 15,12, 0 |||
175 |          |          |  0.00000 |  0.54271 | i  | 16,12, 0 |||
176 |          |          |  0.00000 |  0.49816 | i  | 17,12, 0 |||
177 |          |          |  0.00000 | -0.88644 | i  |  2,13, 0 |||
178 |          |          |  0.00000 |  0.72657 | i  |  3,13, 0 |||
179 |          |          |  0.00000 |  0.45988 | i  |  4,13, 0 |||
180 |          |          |  0.00000 | -0.09741 | i  |  5,13, 0 |||
181 |          |          |  0.00000 |  0.35196 | i  |  6,13, 0 |||
182 |          |          |  0.00000 | -0.73016 | i  |  7,13, 0 |||
183 |          |          |  0.00000 |  0.40659 | i  |  8,13, 0 |||
184 |          |          |  0.00000 | -0.36012 | i  |  9,13, 0 |||
185 |          |          |  0.00000 | -0.66629 | i  | 10,13, 0 |||
186 |          |          |  0.00000 | -0.75261 | i  | 11,13, 0 |||
187 |          |          |  0.00000 | -0.29933 | i  | 12,13, 0 |||
188 |          |          |  0.00000 |  0.85377 | i  | 13,13, 0 |||
189 |          |          |  0.00000 | -0.79709 | i  | 14,13, 0 |||
190 |          |          |  0.00000 |  0.49284 | i  | 15,13, 0 |||
191 |          |          |  0.00000 | -0.22264 | i  | 16,13, 0 |||
192 |          |          |  0.00000 | -0.68378 | i  | 17,13, 0 |||
193 |          |          |  0.00000 | -0.66404 | i  |  2,14, 0 |||
194 |          |          |  0.00000 |  0.25483 | i  |  3,14, 0 |||
195 |          |          |  0.00000 | -0.51410 | i  |  4,14, 0 |||
196 |          |          |  0.00000 |  0.78157 | i  |  5,14, 0 |||
197 |          |          |  0.00000 | -0.70162 | i  |  6,14, 0 |||
198 |          |          |  0.00000 | -0.11866 | i  |  7,14, 0 |||
199 |          |          |  0.00000 | -0.71516 | i  |  8,14, 0 |||
200 |          |          |  0.00000 |  0.31381 | i  |  9,14, 0 |||
201 |          |          |  0.00000 | -0.38354 | i  | 10,14, 0 |||
202 |          |          |  0.00000 |  0.30961 | i  | 11,14, 0 |||
203 |          |          |  0.00000 | -0.78717 | i  | 12,14, 0 |||
204 |          |          |  0.00000 | -0.91742 | i  | 13,14, 0 |||
205 |          |          |  0.00000 |  0.75653 | i  | 14,14, 0 |||
206 |          |          |  0.00000 | -0.96309 | i  | 15,14, 0 |||
207 |          |          |  0.00000 |  0.88995 | i  | 16,14, 0 |||
208 |          |          |  0.00000 | -0.22955 | i  | 17,14, 0 |||
209 |          |          |  0.00000 |  0.92375 | i  |  2,15, 0 |||
210 |          |          |  0.00000 |  0.24705 | i  |  3,15, 0 |||
211 |          |          |  0.00000 | -0.05121 | i  |  4,15, 0 |||
212 |          |          |  0.00000 |  0.43615 | i  |  5,15, 0 |||
213 |          |          |  0.00000 | -0.12108 | i  |  6,15, 0 |||
214 |          |          |  0.00000 | -0.21449 | i  |  7,15, 0 |||
215 |          |          |  0.00000 | -0.63288 | i  |  8,15, 0 |||
216 |          |          |  0.00000 |  0.10693 | i  |  9,15, 0 |||
217 |          |          |  0.00000 |  0.94578 | i  | 10,15, 0 |||
218 |          |          |  0.00000 |  0.05629 | i  | 11,15, 0 |||
219 |          |          |  0.00000 |  0.43020 | i  | 12,15, 0 |||
220 |          |          |  0.00000 |  0.41455 | i  | 13,15, 0 |||
221 |          |          |  0.00000 |  0.60864 | i  | 14,15, 0 |||
222 |          |          |  0.00000 |  0.96484 | i  | 15,15, 0 |||
223 |          |          |  0.00000 | -0.65920 | i  | 16,15, 0 |||
224 |          |          |  0.00000 | -0.14633 | i  | 17,15, 0 |||
225 |          |          |  0.00000 |  0.79044 | i  |  2,16, 0 |||
226 |          |          |  0.00000 | -0.46595 | i  |  3,16, 0 |||
227 |          |          |  0.00000 |  0.76180 | i  |  4,16, 0 |||
228 |          |          |  0.00000 |  0.55222 | i  |  5,16, 0 |||
229 |          |          |  0.00000 | -0.89451 | i  |  6,16, 0 |||
230 |          |          |  0.00000 | -0.47810 | i  |  7,16, 0 |||
231 |          |          |  0.00000 | -0.64271 | i  |  8,16, 0 |||
232 |          |          |  0.00000 | -0.65226 | i  |  9,16, 0 |||
233 |          |          |  0.00000 |  0.49804 | i  | 10,16, 0 |||
234 |          |          |  0.00000 |  0.48701 | i  | 11,16, 0 |||
235 |          |          |  0.00000 |  0.32361 | i  | 12,16, 0 |||
236 |          |          |  0.00000 |  0.22356 | i  | 13,16, 0 |||
237 |          |          |  0.00000 | -0.05464 | i  | 14,16, 0 |||
238 |          |          |  0.00000 |  0.46718 | i  | 15,16, 0 |||
239 |          |          |  0.00000 |  0.19756 | i  | 16,16, 0 |||
240 |          |          |  0.00000 | -0.74179 | i  | 17,16, 0 |||
241 |          |          |  0.00000 |  0.90822 | i  |  2,17, 0 |||
242 |          |          |  0.00000 |  0.41085 | i  |  3,17, 0 |||
243 |          |          |  0.00000 |  0.21151 | i  |  4,17, 0 |||
244 |          |          |  0.00000 | -0.12000 | i  |  5,17, 0 |||
245 |          |          |  0.00000 |  0.37836 | i  |  6,17, 0 |||
246 |          |          |  0.00000 | -0.64515 | i  |  7,17, 0 |||
247 |          |          |  0.00000 |  0.04904 | i  |  8,17, 0 |||
248 |          |          |  0.00000 |  0.81771 | i  |  9,17, 0 |||
249 |          |          |  0.00000 |  0.47520 | i  | 10,17, 0 |||
250 |          |          |  0.00000 | -0.83409 | i  | 11,17, 0 |||
251 |          |          |  0.00000 | -0.95687 | i  | 12,17, 0 |||
252 |          |          |  0.00000 |  0.33581 | i  | 13,17, 0 |||
253 |          |          |  0.00000 | -0.80415 | i  | 14,17, 0 |||
254 |          |          |  0.00000 |  0.51873 | i  | 15,17, 0 |||
255 |          |          |  0.00000 |  0.25367 | i  | 16,17, 0 |||
256 |          |          |  0.00000 | -0.50457 | i  | 17,17, 0 |||
257 |          |          |  0.00000 |  0.08435 | o  | 20, 2, 0 |||
----|----------|----------|----------|----------|----|----------|----------|----------|-------
