SNNS network definition file V1.4-3D
generated at Fri Jun 17 13:31:02 1994

network name : dlvq_ziff_trained
source files :
no. of units : 267
no. of connections : 2570
no. of unit types : 0
no. of site types : 0


learning function : Dynamic_LVQ
update function   : Dynamic_LVQ


unit default section :

act      | bias     | st | subnet | layer | act func     | out func
---------|----------|----|--------|-------|--------------|-------------
 0.00000 |  0.00000 | i  |      0 |     1 | Act_Logistic | Out_Identity 
---------|----------|----|--------|-------|--------------|-------------


unit definition section :

no. | typeName | unitName | act      | bias     | st | position | act func     | out func | sites
----|----------|----------|----------|----------|----|----------|--------------|----------|-------
  1 |          |          |  0.00000 |  0.20707 | i  |  2, 2, 0 |||
  2 |          |          |  0.00000 | -0.68097 | i  |  3, 2, 0 |||
  3 |          |          |  0.00000 |  0.29333 | i  |  4, 2, 0 |||
  4 |          |          |  0.00000 |  0.10683 | i  |  5, 2, 0 |||
  5 |          |          |  0.00000 |  0.36261 | i  |  6, 2, 0 |||
  6 |          |          |  0.00000 | -0.77286 | i  |  7, 2, 0 |||
  7 |          |          |  0.00000 |  0.96883 | i  |  8, 2, 0 |||
  8 |          |          |  0.00000 | -0.16818 | i  |  9, 2, 0 |||
  9 |          |          |  0.00000 |  0.68126 | i  | 10, 2, 0 |||
 10 |          |          |  0.00000 |  0.23257 | i  | 11, 2, 0 |||
 11 |          |          |  0.00000 | -0.38201 | i  | 12, 2, 0 |||
 12 |          |          |  0.45000 |  0.88228 | i  | 13, 2, 0 |||
 13 |          |          |  1.00000 | -0.79971 | i  | 14, 2, 0 |||
 14 |          |          |  0.82000 |  0.67291 | i  | 15, 2, 0 |||
 15 |          |          |  0.11000 |  0.68186 | i  | 16, 2, 0 |||
 16 |          |          |  0.00000 | -0.06613 | i  | 17, 2, 0 |||
 17 |          |          |  0.00000 | -0.20829 | i  |  2, 3, 0 |||
 18 |          |          |  0.00000 | -0.16540 | i  |  3, 3, 0 |||
 19 |          |          |  0.00000 |  0.46006 | i  |  4, 3, 0 |||
 20 |          |          |  0.00000 |  0.21904 | i  |  5, 3, 0 |||
 21 |          |          |  0.00000 |  0.41320 | i  |  6, 3, 0 |||
 22 |          |          |  0.00000 | -0.48475 | i  |  7, 3, 0 |||
 23 |          |          |  0.00000 |  0.40295 | i  |  8, 3, 0 |||
 24 |          |          |  0.00000 |  0.84892 | i  |  9, 3, 0 |||
 25 |          |          |  0.00000 |  0.19003 | i  | 10, 3, 0 |||
 26 |          |          |  0.00000 | -0.71476 | i  | 11, 3, 0 |||
 27 |          |          |  0.25000 | -0.88394 | i  | 12, 3, 0 |||
 28 |          |          |  0.94000 | -0.32566 | i  | 13, 3, 0 |||
 29 |          |          |  1.00000 | -0.69295 | i  | 14, 3, 0 |||
 30 |          |          |  0.61000 |  0.99449 | i  | 15, 3, 0 |||
 31 |          |          |  0.00000 |  0.07524 | i  | 16, 3, 0 |||
 32 |          |          |  0.00000 | -0.06519 | i  | 17, 3, 0 |||
 33 |          |          |  0.00000 | -0.57575 | i  |  2, 4, 0 |||
 34 |          |          |  0.00000 |  0.46878 | i  |  3, 4, 0 |||
 35 |          |          |  0.00000 | -0.96550 | i  |  4, 4, 0 |||
 36 |          |          |  0.00000 |  0.38643 | i  |  5, 4, 0 |||
 37 |          |          |  0.00000 | -0.20171 | i  |  6, 4, 0 |||
 38 |          |          |  0.00000 | -0.21743 | i  |  7, 4, 0 |||
 39 |          |          |  0.00000 |  0.57512 | i  |  8, 4, 0 |||
 40 |          |          |  0.00000 | -0.77179 | i  |  9, 4, 0 |||
 41 |          |          |  0.00000 |  0.39069 | i  | 10, 4, 0 |||
 42 |          |          |  0.00000 |  0.69628 | i  | 11, 4, 0 |||
 43 |          |          |  0.65000 |  0.32468 | i  | 12, 4, 0 |||
 44 |          |          |  1.00000 |  0.22505 | i  | 13, 4, 0 |||
 45 |          |          |  0.84000 | -0.28722 | i  | 14, 4, 0 |||
 46 |          |          |  0.02000 | -0.50711 | i  | 15, 4, 0 |||
 47 |          |          |  0.00000 | -0.20723 | i  | 16, 4, 0 |||
 48 |          |          |  0.00000 | -0.06326 | i  | 17, 4, 0 |||
 49 |          |          |  0.00000 |  0.08128 | i  |  2, 5, 0 |||
 50 |          |          |  0.00000 | -0.30498 | i  |  3, 5, 0 |||
 51 |          |          |  0.00000 |  0.34564 | i  |  4, 5, 0 |||
 52 |          |          |  0.00000 | -0.89274 | i  |  5, 5, 0 |||
 53 |          |          |  0.00000 |  0.26392 | i  |  6, 5, 0 |||
 54 |          |          |  0.00000 | -0.88778 | i  |  7, 5, 0 |||
 55 |          |          |  0.00000 |  0.98514 | i  |  8, 5, 0 |||
 56 |          |          |  0.05000 | -0.03320 | i  |  9, 5, 0 |||
 57 |          |          |  0.06000 |  0.45446 | i  | 10, 5, 0 |||
 58 |          |          |  0.31000 |  0.95140 | i  | 11, 5, 0 |||
 59 |          |          |  0.97000 | -0.18391 | i  | 12, 5, 0 |||
 60 |          |          |  0.99000 |  0.59007 | i  | 13, 5, 0 |||
 61 |          |          |  0.42000 | -0.75539 | i  | 14, 5, 0 |||
 62 |          |          |  0.00000 |  0.88126 | i  | 15, 5, 0 |||
 63 |          |          |  0.00000 |  0.47831 | i  | 16, 5, 0 |||
 64 |          |          |  0.00000 |  0.39434 | i  | 17, 5, 0 |||
 65 |          |          |  0.00000 | -0.78299 | i  |  2, 6, 0 |||
 66 |          |          |  0.00000 |  0.00360 | i  |  3, 6, 0 |||
 67 |          |          |  0.00000 | -0.42005 | i  |  4, 6, 0 |||
 68 |          |          |  0.03000 |  0.42717 | i  |  5, 6, 0 |||
 69 |          |          |  0.35000 | -0.72985 | i  |  6, 6, 0 |||
 70 |          |          |  0.59000 | -0.35108 | i  |  7, 6, 0 |||
 71 |          |          |  0.82000 |  0.08302 | i  |  8, 6, 0 |||
 72 |          |          |  0.98000 | -0.91927 | i  |  9, 6, 0 |||
 73 |          |          |  1.00000 | -0.54935 | i  | 10, 6, 0 |||
 74 |          |          |  1.00000 |  0.24690 | i  | 11, 6, 0 |||
 75 |          |          |  1.00000 |  0.54272 | i  | 12, 6, 0 |||
 76 |          |          |  0.86000 |  0.29093 | i  | 13, 6, 0 |||
 77 |          |          |  0.03000 |  0.39936 | i  | 14, 6, 0 |||
 78 |          |          |  0.07000 | -0.33953 | i  | 15, 6, 0 |||
 79 |          |          |  0.02000 | -0.43793 | i  | 16, 6, 0 |||
 80 |          |          |  0.00000 | -0.13191 | i  | 17, 6, 0 |||
 81 |          |          |  0.00000 | -0.64893 | i  |  2, 7, 0 |||
 82 |          |          |  0.00000 |  0.21878 | i  |  3, 7, 0 |||
 83 |          |          |  0.07000 | -0.63753 | i  |  4, 7, 0 |||
 84 |          |          |  0.77000 | -0.68802 | i  |  5, 7, 0 |||
 85 |          |          |  1.00000 |  0.63906 | i  |  6, 7, 0 |||
 86 |          |          |  1.00000 | -0.88679 | i  |  7, 7, 0 |||
 87 |          |          |  0.79000 |  0.15023 | i  |  8, 7, 0 |||
 88 |          |          |  0.52000 | -0.04133 | i  |  9, 7, 0 |||
 89 |          |          |  0.90000 |  0.86871 | i  | 10, 7, 0 |||
 90 |          |          |  1.00000 | -0.82702 | i  | 11, 7, 0 |||
 91 |          |          |  0.97000 | -0.76517 | i  | 12, 7, 0 |||
 92 |          |          |  0.87000 | -0.52273 | i  | 13, 7, 0 |||
 93 |          |          |  0.57000 |  0.20215 | i  | 14, 7, 0 |||
 94 |          |          |  0.98000 | -0.37651 | i  | 15, 7, 0 |||
 95 |          |          |  0.78000 | -0.52310 | i  | 16, 7, 0 |||
 96 |          |          |  0.19000 |  0.18998 | i  | 17, 7, 0 |||
 97 |          |          |  0.00000 |  0.74950 | i  |  2, 8, 0 |||
 98 |          |          |  0.20000 |  0.03073 | i  |  3, 8, 0 |||
 99 |          |          |  0.85000 |  0.55507 | i  |  4, 8, 0 |||
100 |          |          |  1.00000 | -0.74624 | i  |  5, 8, 0 |||
101 |          |          |  0.97000 | -0.05764 | i  |  6, 8, 0 |||
102 |          |          |  0.39000 |  0.99717 | i  |  7, 8, 0 |||
103 |          |          |  0.00000 | -0.72103 | i  |  8, 8, 0 |||
104 |          |          |  0.18000 |  0.96261 | i  |  9, 8, 0 |||
105 |          |          |  0.88000 | -0.62978 | i  | 10, 8, 0 |||
106 |          |          |  1.00000 |  0.51423 | i  | 11, 8, 0 |||
107 |          |          |  0.31000 |  0.37086 | i  | 12, 8, 0 |||
108 |          |          |  0.00000 | -0.93147 | i  | 13, 8, 0 |||
109 |          |          |  0.00000 | -0.87112 | i  | 14, 8, 0 |||
110 |          |          |  0.82000 | -0.61886 | i  | 15, 8, 0 |||
111 |          |          |  1.00000 |  0.01578 | i  | 16, 8, 0 |||
112 |          |          |  1.00000 |  0.55973 | i  | 17, 8, 0 |||
113 |          |          |  0.05000 | -0.15271 | i  |  2, 9, 0 |||
114 |          |          |  0.84000 |  0.42194 | i  |  3, 9, 0 |||
115 |          |          |  1.00000 |  0.35787 | i  |  4, 9, 0 |||
116 |          |          |  1.00000 |  0.47735 | i  |  5, 9, 0 |||
117 |          |          |  0.37000 |  0.65202 | i  |  6, 9, 0 |||
118 |          |          |  0.00000 |  0.99637 | i  |  7, 9, 0 |||
119 |          |          |  0.00000 |  0.91043 | i  |  8, 9, 0 |||
120 |          |          |  0.81000 |  0.51765 | i  |  9, 9, 0 |||
121 |          |          |  1.00000 |  0.16910 | i  | 10, 9, 0 |||
122 |          |          |  0.68000 | -0.40325 | i  | 11, 9, 0 |||
123 |          |          |  0.02000 |  0.55631 | i  | 12, 9, 0 |||
124 |          |          |  0.00000 | -0.00782 | i  | 13, 9, 0 |||
125 |          |          |  0.00000 |  0.86594 | i  | 14, 9, 0 |||
126 |          |          |  0.96000 |  0.21387 | i  | 15, 9, 0 |||
127 |          |          |  1.00000 |  0.04105 | i  | 16, 9, 0 |||
128 |          |          |  1.00000 |  0.56372 | i  | 17, 9, 0 |||
129 |          |          |  0.64000 |  0.56098 | i  |  2,10, 0 |||
130 |          |          |  1.00000 | -0.83241 | i  |  3,10, 0 |||
131 |          |          |  1.00000 |  0.29956 | i  |  4,10, 0 |||
132 |          |          |  0.53000 |  0.61461 | i  |  5,10, 0 |||
133 |          |          |  0.02000 |  0.57753 | i  |  6,10, 0 |||
134 |          |          |  0.00000 | -0.26736 | i  |  7,10, 0 |||
135 |          |          |  0.30000 |  0.89287 | i  |  8,10, 0 |||
136 |          |          |  0.96000 | -0.56682 | i  |  9,10, 0 |||
137 |          |          |  0.93000 |  0.93865 | i  | 10,10, 0 |||
138 |          |          |  0.18000 |  0.11181 | i  | 11,10, 0 |||
139 |          |          |  0.00000 |  0.64717 | i  | 12,10, 0 |||
140 |          |          |  0.00000 | -0.86436 | i  | 13,10, 0 |||
141 |          |          |  0.07000 | -0.81930 | i  | 14,10, 0 |||
142 |          |          |  0.97000 |  0.05431 | i  | 15,10, 0 |||
143 |          |          |  1.00000 | -0.74339 | i  | 16,10, 0 |||
144 |          |          |  0.63000 | -0.39113 | i  | 17,10, 0 |||
145 |          |          |  1.00000 | -0.86038 | i  |  2,11, 0 |||
146 |          |          |  1.00000 |  0.08982 | i  |  3,11, 0 |||
147 |          |          |  0.97000 |  0.20287 | i  |  4,11, 0 |||
148 |          |          |  0.08000 | -0.78661 | i  |  5,11, 0 |||
149 |          |          |  0.00000 | -0.38709 | i  |  6,11, 0 |||
150 |          |          |  0.15000 | -0.67747 | i  |  7,11, 0 |||
151 |          |          |  0.95000 | -0.47940 | i  |  8,11, 0 |||
152 |          |          |  1.00000 | -0.30254 | i  |  9,11, 0 |||
153 |          |          |  0.36000 | -0.35631 | i  | 10,11, 0 |||
154 |          |          |  0.00000 | -0.15442 | i  | 11,11, 0 |||
155 |          |          |  0.00000 |  0.45376 | i  | 12,11, 0 |||
156 |          |          |  0.05000 | -0.87078 | i  | 13,11, 0 |||
157 |          |          |  0.73000 | -0.32388 | i  | 14,11, 0 |||
158 |          |          |  1.00000 |  0.90517 | i  | 15,11, 0 |||
159 |          |          |  0.84000 |  0.25392 | i  | 16,11, 0 |||
160 |          |          |  0.04000 | -0.23639 | i  | 17,11, 0 |||
161 |          |          |  0.54000 |  0.70274 | i  |  2,12, 0 |||
162 |          |          |  0.97000 |  0.24539 | i  |  3,12, 0 |||
163 |          |          |  1.00000 | -0.28918 | i  |  4,12, 0 |||
164 |          |          |  0.85000 |  0.94862 | i  |  5,12, 0 |||
165 |          |          |  0.24000 | -0.68276 | i  |  6,12, 0 |||
166 |          |          |  0.73000 |  0.84596 | i  |  7,12, 0 |||
167 |          |          |  1.00000 | -0.48527 | i  |  8,12, 0 |||
168 |          |          |  0.63000 |  0.48803 | i  |  9,12, 0 |||
169 |          |          |  0.02000 | -0.80369 | i  | 10,12, 0 |||
170 |          |          |  0.09000 |  0.24470 | i  | 11,12, 0 |||
171 |          |          |  0.48000 |  0.36094 | i  | 12,12, 0 |||
172 |          |          |  0.86000 |  0.57713 | i  | 13,12, 0 |||
173 |          |          |  0.91000 | -0.29707 | i  | 14,12, 0 |||
174 |          |          |  0.65000 |  0.49737 | i  | 15,12, 0 |||
175 |          |          |  0.13000 |  0.54271 | i  | 16,12, 0 |||
176 |          |          |  0.00000 |  0.49816 | i  | 17,12, 0 |||
177 |          |          |  0.00000 | -0.88644 | i  |  2,13, 0 |||
178 |          |          |  0.37000 |  0.72657 | i  |  3,13, 0 |||
179 |          |          |  0.93000 |  0.45988 | i  |  4,13, 0 |||
180 |          |          |  1.00000 | -0.09741 | i  |  5,13, 0 |||
181 |          |          |  1.00000 |  0.35196 | i  |  6,13, 0 |||
182 |          |          |  1.00000 | -0.73016 | i  |  7,13, 0 |||
183 |          |          |  1.00000 |  0.40659 | i  |  8,13, 0 |||
184 |          |          |  0.86000 | -0.36012 | i  |  9,13, 0 |||
185 |          |          |  0.85000 | -0.66629 | i  | 10,13, 0 |||
186 |          |          |  0.96000 | -0.75261 | i  | 11,13, 0 |||
187 |          |          |  0.83000 | -0.29933 | i  | 12,13, 0 |||
188 |          |          |  0.60000 |  0.85377 | i  | 13,13, 0 |||
189 |          |          |  0.14000 | -0.79709 | i  | 14,13, 0 |||
190 |          |          |  0.00000 |  0.49284 | i  | 15,13, 0 |||
191 |          |          |  0.00000 | -0.22264 | i  | 16,13, 0 |||
192 |          |          |  0.00000 | -0.68378 | i  | 17,13, 0 |||
193 |          |          |  0.00000 | -0.66404 | i  |  2,14, 0 |||
194 |          |          |  0.00000 |  0.25483 | i  |  3,14, 0 |||
195 |          |          |  0.05000 | -0.51410 | i  |  4,14, 0 |||
196 |          |          |  0.62000 |  0.78157 | i  |  5,14, 0 |||
197 |          |          |  1.00000 | -0.70162 | i  |  6,14, 0 |||
198 |          |          |  1.00000 | -0.11866 | i  |  7,14, 0 |||
199 |          |          |  0.91000 | -0.71516 | i  |  8,14, 0 |||
200 |          |          |  0.51000 |  0.31381 | i  |  9,14, 0 |||
201 |          |          |  0.28000 | -0.38354 | i  | 10,14, 0 |||
202 |          |          |  0.06000 |  0.30961 | i  | 11,14, 0 |||
203 |          |          |  0.00000 | -0.78717 | i  | 12,14, 0 |||
204 |          |          |  0.00000 | -0.91742 | i  | 13,14, 0 |||
205 |          |          |  0.00000 |  0.75653 | i  | 14,14, 0 |||
206 |          |          |  0.00000 | -0.96309 | i  | 15,14, 0 |||
207 |          |          |  0.00000 |  0.88995 | i  | 16,14, 0 |||
208 |          |          |  0.00000 | -0.22955 | i  | 17,14, 0 |||
209 |          |          |  0.00000 |  0.92375 | i  |  2,15, 0 |||
210 |          |          |  0.00000 |  0.24705 | i  |  3,15, 0 |||
211 |          |          |  0.15000 | -0.05121 | i  |  4,15, 0 |||
212 |          |          |  0.84000 |  0.43615 | i  |  5,15, 0 |||
213 |          |          |  1.00000 | -0.12108 | i  |  6,15, 0 |||
214 |          |          |  0.97000 | -0.21449 | i  |  7,15, 0 |||
215 |          |          |  0.28000 | -0.63288 | i  |  8,15, 0 |||
216 |          |          |  0.00000 |  0.10693 | i  |  9,15, 0 |||
217 |          |          |  0.00000 |  0.94578 | i  | 10,15, 0 |||
218 |          |          |  0.00000 |  0.05629 | i  | 11,15, 0 |||
219 |          |          |  0.00000 |  0.43020 | i  | 12,15, 0 |||
220 |          |          |  0.00000 |  0.41455 | i  | 13,15, 0 |||
221 |          |          |  0.00000 |  0.60864 | i  | 14,15, 0 |||
222 |          |          |  0.00000 |  0.96484 | i  | 15,15, 0 |||
223 |          |          |  0.00000 | -0.65920 | i  | 16,15, 0 |||
224 |          |          |  0.00000 | -0.14633 | i  | 17,15, 0 |||
225 |          |          |  0.00000 |  0.79044 | i  |  2,16, 0 |||
226 |          |          |  0.00000 | -0.46595 | i  |  3,16, 0 |||
227 |          |          |  0.63000 |  0.76180 | i  |  4,16, 0 |||
228 |          |          |  1.00000 |  0.55222 | i  |  5,16, 0 |||
229 |          |          |  1.00000 | -0.89451 | i  |  6,16, 0 |||
230 |          |          |  0.50000 | -0.47810 | i  |  7,16, 0 |||
231 |          |          |  0.00000 | -0.64271 | i  |  8,16, 0 |||
232 |          |          |  0.00000 | -0.65226 | i  |  9,16, 0 |||
233 |          |          |  0.00000 |  0.49804 | i  | 10,16, 0 |||
234 |          |          |  0.00000 |  0.48701 | i  | 11,16, 0 |||
235 |          |          |  0.00000 |  0.32361 | i  | 12,16, 0 |||
236 |          |          |  0.00000 |  0.22356 | i  | 13,16, 0 |||
237 |          |          |  0.00000 | -0.05464 | i  | 14,16, 0 |||
238 |          |          |  0.00000 |  0.46718 | i  | 15,16, 0 |||
239 |          |          |  0.00000 |  0.19756 | i  | 16,16, 0 |||
240 |          |          |  0.00000 | -0.74179 | i  | 17,16, 0 |||
241 |          |          |  0.00000 |  0.90822 | i  |  2,17, 0 |||
242 |          |          |  0.16000 |  0.41085 | i  |  3,17, 0 |||
243 |          |          |  0.91000 |  0.21151 | i  |  4,17, 0 |||
244 |          |          |  1.00000 | -0.12000 | i  |  5,17, 0 |||
245 |          |          |  0.87000 |  0.37836 | i  |  6,17, 0 |||
246 |          |          |  0.17000 | -0.64515 | i  |  7,17, 0 |||
247 |          |          |  0.00000 |  0.04904 | i  |  8,17, 0 |||
248 |          |          |  0.00000 |  0.81771 | i  |  9,17, 0 |||
249 |          |          |  0.00000 |  0.47520 | i  | 10,17, 0 |||
250 |          |          |  0.00000 | -0.83409 | i  | 11,17, 0 |||
251 |          |          |  0.00000 | -0.95687 | i  | 12,17, 0 |||
252 |          |          |  0.00000 |  0.33581 | i  | 13,17, 0 |||
253 |          |          |  0.00000 | -0.80415 | i  | 14,17, 0 |||
254 |          |          |  0.00000 |  0.51873 | i  | 15,17, 0 |||
255 |          |          |  0.00000 |  0.25367 | i  | 16,17, 0 |||
256 |          |          |  0.00000 | -0.50457 | i  | 17,17, 0 |||
257 |          |          |  0.00000 |  0.08435 | o  | 32, 2, 0 |||
258 |          | Z0       |  1.00000 |  0.00000 | h  | 20, 2, 0 | Act_Identity |          | 
259 |          | Z1       |  0.00000 |  1.00000 | h  | 21, 2, 0 | Act_Identity |          | 
260 |          | Z2       |  0.00000 |  2.00000 | h  | 22, 2, 0 | Act_Identity |          | 
261 |          | Z3       |  0.00000 |  3.00000 | h  | 23, 2, 0 | Act_Identity |          | 
262 |          | Z5       |  0.00000 |  4.00000 | h  | 25, 2, 0 | Act_Identity |          | 
263 |          | Z8       |  0.00000 |  5.00000 | h  | 28, 2, 0 | Act_Identity |          | 
264 |          | Z9       |  0.00000 |  6.00000 | h  | 29, 2, 0 | Act_Identity |          | 
265 |          | Z4       |  0.00000 |  7.00000 | h  | 24, 2, 0 | Act_Identity |          | 
266 |          | Z6       |  0.00000 |  8.00000 | h  | 26, 2, 0 | Act_Identity |          | 
267 |          | Z7       |  0.00000 |  9.00000 | h  | 27, 2, 0 | Act_Identity |          | 
----|----------|----------|----------|----------|----|----------|--------------|----------|-------


connection definition section :

target | site | source:weight
-------|------|----------------------------------------------------------------------------------------------------------------
   257 |      | 267: 1.00000, 266: 1.00000, 265: 1.00000, 264: 1.00000, 263: 1.00000, 262: 1.00000, 261: 1.00000, 260: 1.00000,
                259: 1.00000, 258: 1.00000
   258 |      | 256: 0.00000, 255: 0.00000, 254: 0.00000, 253: 0.00000, 252:-0.02840, 251:-0.01737, 250:-0.03223, 249:-0.05137,
                248:-0.04581, 247:-0.01169, 246:-0.01029, 245:-0.01252, 244: 0.00424, 243: 0.06454, 242: 0.07462, 241: 0.08575,
                240: 0.00000, 239: 0.00000, 238: 0.00000, 237:-0.00681, 236:-0.04292, 235:-0.04652, 234:-0.05675, 233:-0.05986,
                232:-0.03455, 231:-0.03569, 230:-0.03538, 229:-0.03132, 228: 0.05810, 227: 0.05250, 226: 0.06056, 225: 0.06660,
                224: 0.00000, 223: 0.00000, 222:-0.00057, 221:-0.02084, 220:-0.06424, 219:-0.05211, 218:-0.05582, 217:-0.04442,
                216: 0.00460, 215: 0.02440, 214:-0.01301, 213:-0.00854, 212: 0.03097, 211: 0.01760, 210: 0.04765, 209: 0.01757,
                208: 0.00000, 207:-0.01071, 206:-0.01079, 205:-0.02410, 204:-0.03940, 203:-0.01426, 202: 0.00538, 201: 0.01997,
                200: 0.01722, 199: 0.04492, 198: 0.06273, 197: 0.08759, 196: 0.07113, 195: 0.06046, 194:-0.01226, 193:-0.02781,
                192: 0.00190, 191:-0.00001, 190:-0.00156, 189:-0.03575, 188:-0.04424, 187: 0.03989, 186: 0.07228, 185: 0.08886,
                184: 0.12466, 183: 0.11676, 182: 0.10402, 181: 0.12616, 180: 0.14171, 179: 0.07566, 178:-0.03640, 177:-0.05544,
                176: 0.00145, 175: 0.00060, 174:-0.02517, 173:-0.02909, 172: 0.10336, 171: 0.15863, 170: 0.11756, 169: 0.11225,
                168: 0.06975, 167: 0.04905, 166: 0.05246, 165: 0.09512, 164: 0.11839, 163: 0.12336, 162: 0.06215, 161:-0.02501,
                160: 0.00541, 159: 0.01407, 158: 0.04582, 157: 0.06878, 156: 0.12328, 155: 0.02771, 154: 0.00398, 153:-0.00709,
                152: 0.00581, 151: 0.02298, 150: 0.05147, 149:-0.00487, 148: 0.01866, 147: 0.11685, 146: 0.11354, 145: 0.13775,
                144: 0.05854, 143: 0.10644, 142: 0.05640, 141: 0.06875, 140: 0.02175, 139:-0.01505, 138: 0.00599, 137: 0.05282,
                136: 0.04013, 135: 0.01863, 134:-0.03899, 133:-0.05370, 132: 0.01838, 131: 0.14406, 130: 0.14352, 129: 0.15021,
                128: 0.07270, 127: 0.12897, 126: 0.08193, 125: 0.02302, 124: 0.02770, 123: 0.01721, 122: 0.07202, 121: 0.09413,
                120: 0.03863, 119:-0.00444, 118:-0.04073, 117:-0.00237, 116: 0.05795, 115: 0.15895, 114: 0.16071, 113: 0.12359,
                112: 0.08931, 111: 0.10908, 110: 0.10307, 109: 0.03829, 108: 0.04720, 107: 0.05949, 106: 0.10181, 105: 0.08542,
                104: 0.05203, 103:-0.02750, 102:-0.01387, 101: 0.06649, 100: 0.14036,  99: 0.13918,  98: 0.12105,  97: 0.04671,
                 96: 0.02002,  95: 0.07329,  94: 0.09058,  93: 0.08088,  92: 0.02981,  91: 0.05188,  90: 0.10505,  89: 0.11446,
                 88: 0.06531,  87: 0.06387,  86: 0.09214,  85: 0.13339,  84: 0.12308,  83: 0.06461,  82: 0.04115,  81: 0.00000,
                 80:-0.00360,  79:-0.01951,  78: 0.07088,  77: 0.09544,  76: 0.09802,  75: 0.12890,  74: 0.11820,  73: 0.06096,
                 72: 0.01095,  71: 0.02318,  70: 0.06860,  69: 0.08943,  68: 0.05765,  67: 0.00000,  66: 0.00000,  65: 0.00000,
                 64:-0.00934,  63:-0.04120,  62:-0.02018,  61: 0.07064,  60: 0.11833,  59: 0.11905,  58: 0.02443,  57:-0.02702,
                 56:-0.03803,  55:-0.03336,  54:-0.03475,  53:-0.00993,  52:-0.00085,  51: 0.00000,  50: 0.00000,  49: 0.00000,
                 48:-0.03203,  47:-0.03888,  46: 0.00870,  45: 0.10139,  44: 0.09793,  43: 0.03419,  42:-0.02438,  41:-0.03578,
                 40:-0.02582,  39:-0.01577,  38:-0.01346,  37: 0.00000,  36: 0.00000,  35: 0.00000,  34: 0.00000,  33: 0.00000,
                 32:-0.05343,  31:-0.02497,  30: 0.05733,  29: 0.07906,  28: 0.03807,  27:-0.03479,  26:-0.05986,  25:-0.04976,
                 24:-0.02547,  23:-0.00537,  22: 0.00000,  21: 0.00000,  20: 0.00000,  19: 0.00000,  18: 0.00000,  17: 0.00000,
                 16:-0.00409,  15: 0.01843,  14: 0.05413,  13: 0.02743,  12:-0.02553,  11:-0.04051,  10:-0.03081,   9:-0.01301,
                  8:-0.00141,   7: 0.00000,   6: 0.00000,   5: 0.00000,   4: 0.00000,   3: 0.00000,   2: 0.00000,   1: 0.00000
   259 |      | 256: 0.00536, 255: 0.02423, 254: 0.01713, 253:-0.01014, 252: 0.02805, 251: 0.00984, 250: 0.06281, 249: 0.08967,
                248: 0.07719, 247:-0.02623, 246:-0.04467, 245:-0.01905, 244: 0.00531, 243: 0.02504, 242: 0.03586, 241: 0.02327,
                240: 0.01148, 239: 0.02550, 238: 0.02172, 237: 0.02385, 236: 0.06070, 235: 0.01761, 234: 0.07305, 233: 0.06205,
                232: 0.06271, 231: 0.00074, 230:-0.07183, 229:-0.05581, 228:-0.03176, 227: 0.02963, 226: 0.06558, 225: 0.06399,
                224: 0.00536, 223: 0.02423, 222: 0.02550, 221: 0.03793, 220: 0.08549, 219: 0.00493, 218: 0.05260, 217: 0.04717,
                216: 0.09069, 215:-0.03525, 214:-0.05674, 213:-0.05394, 212:-0.03010, 211:-0.00054, 210: 0.01662, 209: 0.00101,
                208: 0.00230, 207: 0.02151, 206: 0.01436, 205: 0.03298, 204: 0.07015, 203: 0.04556, 202: 0.03607, 201: 0.03442,
                200: 0.01548, 199:-0.05193, 198:-0.05024, 197:-0.01456, 196:-0.01685, 195:-0.04933, 194:-0.05950, 193:-0.02915,
                192:-0.00948, 191:-0.00269, 190: 0.00021, 189: 0.05157, 188: 0.05910, 187: 0.07196, 186: 0.06951, 185: 0.03953,
                184:-0.08777, 183:-0.06632, 182:-0.01912, 181:-0.01972, 180:-0.03120, 179:-0.04519, 178:-0.04911, 177:-0.04382,
                176:-0.02022, 175:-0.00313, 174: 0.02470, 173: 0.07968, 172: 0.03552, 171: 0.08625, 170: 0.10162, 169:-0.01788,
                168:-0.05287, 167: 0.00257, 166: 0.05150, 165: 0.02150, 164:-0.01088, 163:-0.03276, 162:-0.03568, 161:-0.01984,
                160:-0.01639, 159: 0.00181, 158: 0.05137, 157: 0.06775, 156: 0.06619, 155: 0.08928, 154: 0.06410, 153:-0.02831,
                152:-0.00392, 151: 0.03951, 150: 0.03652, 149:-0.00027, 148: 0.02706, 147: 0.04189, 146: 0.05193, 145: 0.00925,
                144:-0.01639, 143: 0.00181, 142: 0.07449, 141: 0.06506, 140: 0.07230, 139: 0.07627, 138: 0.01871, 137: 0.01154,
                136: 0.03738, 135: 0.02693, 134: 0.00120, 133: 0.03625, 132: 0.04951, 131: 0.07065, 130: 0.08523, 129: 0.04255,
                128: 0.00055, 127: 0.01598, 126: 0.08706, 125: 0.09411, 124: 0.07353, 123: 0.05847, 122: 0.01335, 121: 0.05739,
                120: 0.02261, 119: 0.02627, 118: 0.05080, 117: 0.05344, 116: 0.05295, 115: 0.06405, 114: 0.01830, 113:-0.00667,
                112: 0.02411, 111: 0.04165, 110: 0.11087, 109: 0.11990, 108: 0.10916, 107: 0.02347, 106: 0.01252, 105: 0.00656,
                104: 0.06414, 103: 0.06461, 102: 0.05750, 101: 0.05141, 100: 0.00399,  99:-0.00269,  98: 0.01410,  97: 0.02561,
                 96: 0.02550,  95: 0.06485,  94: 0.18071,  93: 0.14192,  92: 0.08082,  91: 0.04847,  90: 0.04285,  89: 0.08488,
                 88: 0.09455,  87: 0.09058,  86: 0.02449,  85:-0.02702,  84: 0.00092,  83: 0.02321,  82: 0.01200,  81: 0.00160,
                 80: 0.01372,  79: 0.14607,  78: 0.17241,  77: 0.15442,  76: 0.15580,  75: 0.13527,  74: 0.14728,  73: 0.15422,
                 72: 0.09185,  71:-0.00245,  70:-0.03755,  69:-0.01327,  68:-0.00184,  67: 0.00027,  66: 0.00000,  65: 0.00000,
                 64: 0.05221,  63: 0.15010,  62: 0.13069,  61: 0.15021,  60: 0.13071,  59: 0.14005,  58: 0.13522,  57: 0.03912,
                 56:-0.04056,  55:-0.04338,  54:-0.04852,  53:-0.03626,  52:-0.01011,  51: 0.00000,  50: 0.00000,  49: 0.00000,
                 48: 0.10893,  47: 0.14300,  46: 0.14133,  45: 0.14062,  44: 0.11951,  43: 0.06238,  42:-0.00889,  41:-0.04816,
                 40:-0.05175,  39:-0.02601,  38:-0.03219,  37:-0.02942,  36:-0.00153,  35: 0.00000,  34: 0.00000,  33: 0.00000,
                 32: 0.17784,  31: 0.16797,  30: 0.14953,  29: 0.06751,  28:-0.00551,  27:-0.03734,  26:-0.04663,  25:-0.03990,
                 24:-0.00791,  23:-0.00950,  22:-0.03064,  21:-0.01961,  20: 0.00000,  19: 0.00000,  18: 0.00000,  17: 0.00000,
                 16: 0.12414,  15: 0.14546,  14: 0.06754,  13:-0.01252,  12:-0.05086,  11:-0.03429,  10:-0.00733,   9: 0.00000,
                  8: 0.00000,   7: 0.00000,   6:-0.02329,   5:-0.00644,   4: 0.00000,   3: 0.00000,   2: 0.00000,   1: 0.00000
   260 |      | 256: 0.08253, 255: 0.09479, 254: 0.04285, 253: 0.04065, 252: 0.00300, 251: 0.03960, 250: 0.03899, 249: 0.00971,
                248: 0.02145, 247:-0.00156, 246: 0.02018, 245: 0.06131, 244: 0.09497, 243: 0.11647, 242: 0.07184, 241: 0.01309,
                240: 0.13628, 239: 0.11474, 238: 0.08166, 237: 0.07533, 236: 0.10908, 235: 0.12510, 234: 0.12902, 233: 0.10948,
                232: 0.07953, 231: 0.08646, 230: 0.07808, 229: 0.04836, 228: 0.04368, 227: 0.08137, 226: 0.15274, 225: 0.06902,
                224: 0.03542, 223: 0.00735, 222: 0.03407, 221: 0.06084, 220: 0.08729, 219: 0.11766, 218: 0.11525, 217: 0.11004,
                216: 0.13371, 215: 0.11348, 214: 0.08144, 213: 0.06906, 212: 0.09457, 211: 0.10411, 210: 0.09776, 209: 0.08084,
                208:-0.06418, 207:-0.05235, 206:-0.04706, 205:-0.03580, 204:-0.04125, 203:-0.02721, 202: 0.01500, 201:-0.01151,
                200: 0.06501, 199: 0.09661, 198: 0.09715, 197: 0.11631, 196: 0.05333, 195: 0.03986, 194: 0.02345, 193: 0.01505,
                192:-0.04091, 191:-0.03491, 190:-0.09052, 189:-0.09597, 188:-0.09167, 187:-0.06094, 186:-0.00716, 185: 0.08701,
                184: 0.10462, 183: 0.13930, 182: 0.16607, 181: 0.07751, 180: 0.04246, 179: 0.02155, 178:-0.02603, 177:-0.01880,
                176: 0.01007, 175:-0.04775, 174:-0.12484, 173:-0.14850, 172:-0.11770, 171:-0.06031, 170: 0.04974, 169: 0.11056,
                168: 0.12985, 167: 0.10057, 166: 0.06825, 165: 0.02902, 164: 0.03255, 163: 0.02739, 162: 0.01118, 161:-0.00926,
                160: 0.00000, 159:-0.02576, 158:-0.08909, 157:-0.13865, 156:-0.11527, 155:-0.03745, 154: 0.03945, 153: 0.10250,
                152: 0.05482, 151: 0.02918, 150: 0.03095, 149: 0.01195, 148: 0.00553, 147: 0.01228, 146: 0.04661, 145: 0.03091,
                144: 0.00000, 143: 0.00000, 142:-0.02445, 141:-0.03470, 140: 0.01422, 139: 0.00828, 138: 0.01771, 137:-0.01311,
                136: 0.00414, 135: 0.01538, 134:-0.01280, 133:-0.05300, 132:-0.06946, 131:-0.04006, 130:-0.01656, 129:-0.00093,
                128: 0.00000, 127: 0.00000, 126: 0.03668, 125: 0.10407, 124: 0.04135, 123: 0.00732, 122:-0.02411, 121:-0.01259,
                120:-0.02256, 119:-0.03461, 118:-0.04766, 117:-0.08305, 116:-0.00600, 115: 0.01843, 114: 0.01393, 113:-0.02448,
                112:-0.00113, 111:-0.00712, 110: 0.08206, 109: 0.08553, 108: 0.08486, 107: 0.02848, 106:-0.01519, 105: 0.01309,
                104:-0.03888, 103:-0.09676, 102:-0.06523, 101:-0.05765, 100:-0.01426,  99: 0.01672,  98: 0.02530,  97:-0.01401,
                 96:-0.03783,  95:-0.01133,  94: 0.09167,  93: 0.07272,  92: 0.06995,  91: 0.00437,  90: 0.03238,  89:-0.01249,
                 88:-0.05310,  87:-0.04941,  86:-0.05512,  85:-0.04084,  84:-0.02345,  83: 0.02853,  82: 0.00072,  81:-0.00987,
                 80:-0.05995,  79:-0.01018,  78: 0.06889,  77: 0.08929,  76: 0.11242,  75: 0.03234,  74: 0.01588,  73:-0.04573,
                 72:-0.02683,  71:-0.00099,  70:-0.00489,  69: 0.00340,  68: 0.03643,  67: 0.07749,  66: 0.00773,  65: 0.03886,
                 64:-0.07354,  63:-0.03496,  62: 0.01037,  61: 0.08795,  60: 0.11143,  59: 0.10511,  58: 0.03443,  57:-0.02565,
                 56:-0.01186,  55: 0.01359,  54: 0.02341,  53: 0.05659,  52: 0.05830,  51: 0.05775,  50: 0.01812,  49: 0.03807,
                 48:-0.03651,  47:-0.07904,  46:-0.04573,  45:-0.00932,  44: 0.10777,  43: 0.10211,  42: 0.05448,  41: 0.00840,
                 40: 0.02850,  39: 0.06166,  38: 0.04028,  37: 0.04925,  36: 0.01418,  35:-0.02912,  34: 0.00229,  33: 0.01441,
                 32:-0.03403,  31:-0.03315,  30:-0.03885,  29:-0.00976,  28: 0.05814,  27: 0.10217,  26: 0.10630,  25: 0.10126,
                 24: 0.07482,  23: 0.05923,  22: 0.05203,  21:-0.00966,  20:-0.04176,  19:-0.04285,  18:-0.01392,  17: 0.00014,
                 16: 0.00021,  15: 0.00831,  14: 0.00479,  13: 0.01863,  12: 0.03494,  11: 0.05092,  10: 0.06437,   9: 0.05834,
                  8: 0.03317,   7: 0.02050,   6: 0.01345,   5:-0.00384,   4: 0.00846,   3: 0.01635,   2:-0.01688,   1:-0.02266
   261 |      | 256: 0.00000, 255: 0.00865, 254: 0.03602, 253: 0.03986, 252: 0.01713, 251:-0.03425, 250:-0.05940, 249:-0.06246,
                248:-0.02004, 247: 0.08159, 246: 0.10227, 245: 0.07244, 244: 0.06534, 243: 0.05840, 242: 0.04083, 241: 0.00564,
                240: 0.01454, 239: 0.02357, 238: 0.02677, 237: 0.01787, 236: 0.03737, 235: 0.05557, 234: 0.07599, 233: 0.04437,
                232: 0.04100, 231: 0.04428, 230: 0.02370, 229: 0.04557, 228: 0.03445, 227: 0.04684, 226: 0.05360, 225: 0.08567,
                224: 0.02154, 223: 0.04795, 222: 0.05544, 221: 0.08093, 220: 0.08761, 219: 0.06370, 218: 0.04885, 217: 0.04560,
                216: 0.03855, 215: 0.03366, 214: 0.04851, 213: 0.05563, 212:-0.00521, 211:-0.00111, 210: 0.00328, 209: 0.01242,
                208: 0.09282, 207: 0.07434, 206: 0.12064, 205: 0.11422, 204: 0.03797, 203: 0.00536, 202: 0.03636, 201: 0.01313,
                200: 0.00961, 199: 0.02490, 198: 0.04464, 197: 0.01793, 196:-0.00934, 195:-0.05229, 194:-0.05036, 193:-0.05083,
                192: 0.13019, 191: 0.11976, 190: 0.14090, 189: 0.13158, 188: 0.03483, 187:-0.02939, 186:-0.04354, 185:-0.03072,
                184:-0.00536, 183:-0.00068, 182:-0.00560, 181:-0.00433, 180:-0.03765, 179:-0.05595, 178:-0.04575, 177:-0.04111,
                176: 0.05826, 175: 0.11175, 174: 0.14341, 173: 0.15650, 172: 0.05895, 171: 0.00420, 170:-0.04318, 169:-0.03135,
                168:-0.03482, 167:-0.03797, 166:-0.05758, 165:-0.05019, 164:-0.05323, 163:-0.07151, 162:-0.03038, 161: 0.01414,
                160:-0.00176, 159: 0.02314, 158: 0.08813, 157: 0.11188, 156: 0.09450, 155: 0.13082, 154: 0.11072, 153: 0.03407,
                152: 0.00471, 151:-0.05434, 150:-0.05957, 149:-0.05017, 148:-0.04717, 147:-0.02203, 146:-0.03385, 145:-0.00814,
                144:-0.01990, 143:-0.03101, 142:-0.01066, 141: 0.03870, 140: 0.01725, 139: 0.07241, 138: 0.08856, 137: 0.08530,
                136: 0.05120, 135: 0.04368, 134: 0.10030, 133: 0.12697, 132: 0.07611, 131:-0.01279, 130:-0.04088, 129:-0.01568,
                128:-0.01843, 127:-0.04793, 126:-0.02362, 125:-0.04397, 124: 0.01736, 123: 0.04925, 122: 0.06793, 121: 0.06896,
                120: 0.07333, 119: 0.08239, 118: 0.07681, 117: 0.07700, 116: 0.03140, 115:-0.00116, 114:-0.03774, 113:-0.01381,
                112:-0.02281, 111:-0.04191, 110:-0.03545, 109:-0.02910, 108: 0.04885, 107: 0.07239, 106: 0.09272, 105: 0.07858,
                104: 0.03955, 103: 0.06499, 102: 0.00055, 101:-0.08201, 100:-0.09558,  99:-0.06506,  98:-0.03495,  97:-0.03756,
                 96:-0.01988,  95:-0.02972,  94:-0.00852,  93: 0.07788,  92: 0.12732,  91: 0.11584,  90: 0.11658,  89: 0.06025,
                 88: 0.00377,  87:-0.00663,  86:-0.07961,  85:-0.12403,  84:-0.10235,  83:-0.04946,  82:-0.01960,  81: 0.00378,
                 80: 0.01154,  79: 0.01505,  78: 0.02499,  77: 0.11435,  76: 0.07362,  75: 0.12098,  74: 0.09686,  73: 0.04071,
                 72:-0.00906,  71:-0.07416,  70:-0.06631,  69:-0.10152,  68:-0.10349,  67:-0.03889,  66:-0.00462,  65: 0.00917,
                 64: 0.03532,  63: 0.04227,  62: 0.03448,  61:-0.00295,  60: 0.01607,  59: 0.06258,  58: 0.11210,  57: 0.03408,
                 56:-0.02811,  55:-0.06232,  54:-0.05557,  53:-0.06057,  52:-0.01376,  51: 0.04002,  50: 0.04847,  49: 0.01196,
                 48: 0.00534,  47: 0.02456,  46: 0.01651,  45:-0.02165,  44:-0.05797,  43:-0.01910,  42: 0.04193,  41: 0.06606,
                 40: 0.06101,  39: 0.03840,  38: 0.04931,  37: 0.04389,  36: 0.12352,  35: 0.14953,  34: 0.09493,  33: 0.08901,
                 32: 0.01094,  31:-0.02541,  30:-0.01826,  29:-0.02233,  28:-0.02547,  27:-0.02928,  26:-0.01025,  25: 0.06354,
                 24: 0.11344,  23: 0.12641,  22: 0.11013,  21: 0.15507,  20: 0.14202,  19: 0.11035,  18: 0.07024,  17: 0.02014,
                 16: 0.00251,  15:-0.00414,  14:-0.04359,  13:-0.06453,  12:-0.05725,  11:-0.05981,  10:-0.02578,   9: 0.02665,
                  8: 0.06000,   7: 0.07627,   6: 0.06950,   5: 0.05691,   4: 0.05096,   3: 0.04375,   2: 0.04173,   1: 0.00752
   262 |      | 256: 0.00000, 255: 0.00000, 254:-0.00428, 253:-0.01722, 252:-0.01344, 251: 0.01375, 250: 0.02925, 249: 0.07916,
                248: 0.09210, 247: 0.05726, 246: 0.01816, 245:-0.02439, 244:-0.02572, 243:-0.02889, 242:-0.00922, 241:-0.00074,
                240: 0.00000, 239:-0.01293, 238:-0.03353, 237: 0.00241, 236: 0.00464, 235: 0.06363, 234: 0.09767, 233: 0.10738,
                232: 0.11777, 231: 0.10902, 230: 0.10769, 229: 0.09516, 228: 0.06924, 227: 0.04663, 226: 0.01828, 225: 0.00492,
                224: 0.00000, 223:-0.02134, 222:-0.02477, 221: 0.01973, 220: 0.04185, 219: 0.08795, 218: 0.05228, 217: 0.05236,
                216: 0.05320, 215: 0.04646, 214: 0.06663, 213: 0.05599, 212: 0.09970, 211: 0.11823, 210: 0.11404, 209: 0.11145,
                208:-0.00630, 207: 0.02072, 206: 0.01531, 205: 0.04713, 204: 0.02754, 203: 0.08019, 202: 0.01509, 201: 0.02404,
                200: 0.01469, 199:-0.00881, 198:-0.03258, 197:-0.01846, 196:-0.00141, 195: 0.04250, 194: 0.09574, 193: 0.08827,
                192: 0.01214, 191: 0.05247, 190: 0.02834, 189: 0.05472, 188: 0.06544, 187: 0.04615, 186:-0.01583, 185: 0.00823,
                184: 0.01448, 183:-0.01071, 182:-0.03726, 181:-0.06160, 180:-0.05167, 179:-0.06459, 178:-0.02983, 177:-0.01238,
                176:-0.00466, 175: 0.03479, 174:-0.00154, 173: 0.05939, 172: 0.10443, 171: 0.05778, 170: 0.03455, 169: 0.02875,
                168: 0.02427, 167: 0.01024, 166:-0.02951, 165:-0.06048, 164:-0.10178, 163:-0.11181, 162:-0.07652, 161:-0.03343,
                160: 0.01569, 159: 0.01627, 158:-0.01003, 157: 0.03994, 156: 0.05835, 155: 0.05844, 154: 0.02677, 153: 0.00955,
                152: 0.01975, 151: 0.02012, 150: 0.02461, 149: 0.01268, 148:-0.03825, 147:-0.04219, 146:-0.03927, 145:-0.04267,
                144: 0.02115, 143: 0.02011, 142: 0.00208, 141:-0.00744, 140:-0.00192, 139:-0.01139, 138:-0.02519, 137:-0.03194,
                136:-0.02280, 135:-0.01410, 134:-0.00848, 133:-0.00813, 132: 0.05617, 131: 0.07110, 130: 0.07210, 129:-0.02129,
                128: 0.00469, 127: 0.01153, 126: 0.00264, 125:-0.02120, 124:-0.01938, 123:-0.02808, 122:-0.03679, 121:-0.01830,
                120: 0.03135, 119: 0.05635, 118: 0.01975, 117:-0.00420, 116: 0.04423, 115: 0.05452, 114: 0.07537, 113: 0.02033,
                112:-0.01422, 111:-0.06932, 110:-0.09877, 109:-0.06883, 108:-0.02431, 107: 0.01939, 106: 0.05947, 105: 0.08497,
                104: 0.11233, 103: 0.09188, 102: 0.06506, 101: 0.05891, 100: 0.06723,  99: 0.02070,  98: 0.09354,  97: 0.08952,
                 96:-0.07326,  95:-0.11540,  94:-0.12313,  93:-0.11892,  92:-0.08179,  91:-0.00638,  90: 0.06033,  89: 0.06049,
                 88: 0.05514,  87: 0.05244,  86: 0.06466,  85: 0.06002,  84: 0.08009,  83: 0.02769,  82: 0.08565,  81: 0.06190,
                 80:-0.09984,  79:-0.11963,  78:-0.11728,  77:-0.09368,  76:-0.03800,  75:-0.03670,  74:-0.01882,  73:-0.03005,
                 72: 0.00656,  71: 0.00528,  70: 0.05029,  69: 0.04454,  68: 0.07774,  67: 0.06479,  66: 0.07102,  65:-0.00771,
                 64:-0.08070,  63:-0.10000,  62:-0.08774,  61:-0.02570,  60: 0.00454,  59: 0.02500,  58: 0.03384,  57: 0.06775,
                 56: 0.08047,  55: 0.07091,  54: 0.06567,  53: 0.09639,  52: 0.07343,  51: 0.06377,  50: 0.03968,  49: 0.00040,
                 48: 0.05485,  47:-0.01042,  46: 0.01592,  45: 0.06338,  44: 0.11842,  43: 0.10942,  42: 0.10870,  41: 0.09200,
                 40: 0.08513,  39: 0.10140,  38: 0.14255,  37: 0.13832,  36: 0.07141,  35: 0.06621,  34: 0.03826,  33: 0.01766,
                 32: 0.10416,  31: 0.15974,  30: 0.13870,  29: 0.11044,  28: 0.06931,  27: 0.05217,  26: 0.04605,  25: 0.04256,
                 24: 0.03250,  23: 0.07186,  22: 0.13829,  21: 0.12652,  20: 0.08859,  19: 0.05651,  18: 0.04544,  17: 0.01481,
                 16: 0.11502,  15: 0.12352,  14: 0.13709,  13: 0.07293,  12: 0.02452,  11:-0.01255,  10:-0.01188,   9: 0.00006,
                  8: 0.02489,   7: 0.03157,   6: 0.07723,   5: 0.07661,   4: 0.08790,   3: 0.07931,   2: 0.00688,   1: 0.00000
   263 |      | 256:-0.01417, 255:-0.03455, 254:-0.06340, 253:-0.04881, 252:-0.00574, 251: 0.00716, 250: 0.08519, 249: 0.10431,
                248: 0.10990, 247: 0.06835, 246: 0.03656, 245:-0.02499, 244:-0.05166, 243:-0.09428, 242:-0.04990, 241:-0.02240,
                240:-0.05463, 239:-0.07234, 238:-0.03293, 237: 0.00495, 236: 0.03738, 235: 0.02976, 234: 0.04094, 233: 0.03782,
                232: 0.01928, 231: 0.02347, 230: 0.04136, 229: 0.02284, 228:-0.03441, 227:-0.04577, 226:-0.14202, 225:-0.08693,
                224:-0.03107, 223: 0.03708, 222: 0.09215, 221: 0.07189, 220: 0.03094, 219: 0.03284, 218: 0.00147, 217:-0.02546,
                216:-0.06926, 215:-0.07372, 214: 0.02570, 213: 0.06345, 212: 0.01404, 211: 0.01254, 210:-0.03741, 209:-0.04998,
                208: 0.02892, 207: 0.07124, 206: 0.08452, 205: 0.02354, 204: 0.05983, 203: 0.00082, 202:-0.01732, 201: 0.02199,
                200: 0.03565, 199: 0.02269, 198: 0.09568, 197: 0.08434, 196: 0.08202, 195: 0.13982, 194: 0.13302, 193: 0.11638,
                192: 0.01714, 191:-0.00202, 190:-0.00018, 189:-0.01238, 188: 0.02083, 187: 0.04180, 186: 0.02805, 185: 0.05100,
                184: 0.06336, 183: 0.05061, 182: 0.07034, 181: 0.07092, 180: 0.09269, 179: 0.16801, 178: 0.19073, 177: 0.13675,
                176:-0.00693, 175:-0.01930, 174: 0.01432, 173:-0.03994, 172:-0.02744, 171: 0.04048, 170: 0.06121, 169: 0.04821,
                168: 0.04880, 167: 0.07357, 166: 0.09601, 165: 0.10811, 164: 0.17233, 163: 0.18316, 162: 0.14776, 161: 0.06730,
                160:-0.02693, 159:-0.04438, 158:-0.03088, 157:-0.00876, 156: 0.00077, 155: 0.01363, 154:-0.00114, 153: 0.02738,
                152: 0.07759, 151: 0.10827, 150: 0.07487, 149: 0.12105, 148: 0.12356, 147: 0.07622, 146: 0.05598, 145: 0.00057,
                144:-0.01291, 143:-0.08066, 142:-0.12565, 141:-0.11109, 140:-0.02869, 139: 0.04403, 138: 0.02711, 137: 0.02780,
                136: 0.06594, 135: 0.10054, 134: 0.07892, 133: 0.05080, 132:-0.02498, 131:-0.04431, 130:-0.07205, 129:-0.02199,
                128:-0.00913, 127:-0.07066, 126:-0.12921, 125:-0.04983, 124: 0.03218, 123: 0.09915, 122: 0.07420, 121: 0.05338,
                120: 0.11471, 119: 0.08934, 118: 0.08149, 117: 0.08399, 116: 0.01656, 115:-0.04151, 114:-0.03932, 113:-0.06316,
                112:-0.01898, 111:-0.06346, 110: 0.01649, 109: 0.04087, 108: 0.05868, 107: 0.03894, 106: 0.06081, 105: 0.07016,
                104: 0.14140, 103: 0.09663, 102: 0.06827, 101: 0.05971, 100: 0.07019,  99: 0.04669,  98: 0.02435,  97:-0.03748,
                 96: 0.02430,  95: 0.05983,  94: 0.05725,  93: 0.04167,  92:-0.00734,  91:-0.00106,  90:-0.02487,  89: 0.00532,
                 88: 0.08737,  87: 0.09634,  86: 0.12046,  85: 0.04021,  84: 0.02347,  83: 0.05298,  82: 0.07992,  81: 0.02885,
                 80: 0.06967,  79: 0.06812,  78: 0.09347,  77: 0.00078,  76:-0.02109,  75:-0.04295,  74:-0.02023,  73: 0.01327,
                 72: 0.06681,  71: 0.11835,  70: 0.02943,  69:-0.00755,  68:-0.00100,  67: 0.04586,  66: 0.06938,  65: 0.03811,
                 64: 0.10306,  63: 0.08228,  62: 0.06764,  61: 0.00977,  60:-0.05863,  59:-0.06367,  58:-0.06155,  57:-0.00483,
                 56: 0.04462,  55: 0.08986,  54: 0.00804,  53:-0.00581,  52: 0.05752,  51: 0.05610,  50: 0.06876,  49: 0.04831,
                 48: 0.02344,  47: 0.05984,  46: 0.02594,  45:-0.04162,  44:-0.05547,  43:-0.00061,  42: 0.07725,  41: 0.09167,
                 40: 0.08177,  39: 0.00281,  38: 0.01077,  37: 0.03095,  36: 0.05386,  35: 0.04124,  34: 0.03403,  33: 0.02710,
                 32:-0.01626,  31: 0.03464,  30: 0.05848,  29: 0.05237,  28: 0.03047,  27: 0.01816,  26: 0.03633,  25: 0.02205,
                 24:-0.02056,  23:-0.01966,  22: 0.01967,  21: 0.02370,  20: 0.02668,  19: 0.02022,  18:-0.01513,  17:-0.02114,
                 16:-0.04615,  15:-0.01069,  14: 0.02969,  13: 0.04736,  12: 0.04760,  11: 0.04572,  10:-0.01472,   9:-0.04002,
                  8: 0.02349,   7: 0.01744,   6: 0.02486,   5: 0.03641,   4: 0.01098,   3:-0.02149,   2:-0.01575,   1:-0.00337
   264 |      | 256:-0.00490, 255:-0.01494, 254: 0.03371, 253: 0.12390, 252: 0.09673, 251: 0.08450, 250: 0.08672, 249: 0.07797,
                248: 0.05907, 247: 0.01718, 246: 0.01261, 245: 0.03809, 244: 0.04505, 243: 0.05374, 242: 0.00506, 241:-0.00856,
                240:-0.00447, 239: 0.02162, 238: 0.05482, 237: 0.10880, 236: 0.10159, 235: 0.06079, 234: 0.03273, 233: 0.03901,
                232: 0.04948, 231: 0.04441, 230: 0.03218, 229: 0.02161, 228: 0.03436, 227: 0.05168, 226: 0.09043, 225: 0.00037,
                224: 0.02647, 223: 0.02075, 222:-0.00513, 221: 0.04412, 220: 0.03505, 219:-0.01353, 218: 0.01708, 217: 0.00222,
                216:-0.01834, 215:-0.02602, 214:-0.01801, 213:-0.02808, 212: 0.00211, 211: 0.01370, 210: 0.03220, 209: 0.03458,
                208: 0.00864, 207:-0.01582, 206:-0.04773, 205: 0.03858, 204: 0.05176, 203: 0.01259, 202: 0.03301, 201: 0.00245,
                200: 0.00000, 199:-0.02477, 198:-0.05845, 197:-0.07660, 196:-0.06018, 195:-0.05896, 194:-0.05440, 193:-0.06681,
                192:-0.02474, 191:-0.03641, 190: 0.00370, 189: 0.06921, 188: 0.05210, 187: 0.04158, 186: 0.04796, 185: 0.01539,
                184:-0.01303, 183:-0.03436, 182:-0.05721, 181:-0.07043, 180:-0.07024, 179:-0.07571, 178:-0.06472, 177:-0.02950,
                176:-0.04306, 175:-0.00664, 174: 0.07535, 173: 0.08906, 172: 0.05469, 171: 0.03875, 170: 0.04914, 169: 0.04012,
                168:-0.00176, 167:-0.03592, 166:-0.06268, 165:-0.07582, 164:-0.09520, 163:-0.06878, 162:-0.06096, 161:-0.04073,
                160:-0.05615, 159: 0.03833, 158: 0.12537, 157: 0.09825, 156: 0.05910, 155: 0.00396, 154: 0.01978, 153: 0.03844,
                152: 0.02176, 151:-0.01350, 150: 0.02905, 149: 0.05243, 148: 0.03529, 147: 0.02910, 146: 0.02410, 145:-0.01363,
                144:-0.03172, 143: 0.06988, 142: 0.14190, 141: 0.09447, 140: 0.11654, 139: 0.04199, 138: 0.04852, 137: 0.04407,
                136: 0.02691, 135:-0.00966, 134: 0.00300, 133: 0.02361, 132: 0.07056, 131: 0.08442, 130: 0.11290, 129: 0.07255,
                128: 0.01018, 127: 0.13917, 126: 0.13124, 125: 0.06759, 124: 0.02885, 123:-0.00542, 122: 0.00950, 121: 0.03008,
                120: 0.03537, 119:-0.02026, 118:-0.01394, 117: 0.01623, 116: 0.07537, 115: 0.07013, 114: 0.13838, 113: 0.15002,
                112: 0.07246, 111: 0.20912, 110: 0.08766, 109: 0.06363, 108: 0.02331, 107: 0.00510, 106:-0.03446, 105:-0.07361,
                104:-0.10564, 103:-0.08692, 102: 0.00924, 101: 0.05048, 100: 0.08124,  99: 0.12186,  98: 0.14204,  97: 0.15657,
                 96: 0.13198,  95: 0.15087,  94: 0.12269,  93: 0.09946,  92: 0.05613,  91:-0.02042,  90:-0.03721,  89:-0.04487,
                 88:-0.01712,  87: 0.00251,  86:-0.00730,  85: 0.06332,  84: 0.07352,  83: 0.11645,  82: 0.13126,  81: 0.10538,
                 80: 0.13642,  79: 0.13063,  78: 0.10515,  77: 0.03894,  76:-0.03414,  75: 0.03109,  74:-0.01628,  73:-0.01820,
                 72: 0.01323,  71: 0.04271,  70: 0.03207,  69: 0.06230,  68: 0.10142,  67: 0.13342,  66: 0.12358,  65: 0.03855,
                 64: 0.02823,  63: 0.05105,  62: 0.03163,  61: 0.02654,  60: 0.04880,  59: 0.05298,  58:-0.01259,  57: 0.00218,
                 56: 0.03446,  55: 0.03396,  54: 0.06143,  53: 0.07366,  52: 0.08769,  51: 0.08114,  50:-0.00432,  49:-0.01510,
                 48: 0.00763,  47: 0.01561,  46: 0.03590,  45: 0.04500,  44: 0.01004,  43: 0.04501,  42: 0.02678,  41: 0.00282,
                 40: 0.01502,  39: 0.04870,  38: 0.03196,  37: 0.07567,  36: 0.07383,  35:-0.01710,  34:-0.04465,  33:-0.01432,
                 32:-0.03894,  31:-0.06071,  30:-0.00669,  29:-0.00373,  28: 0.00340,  27: 0.02759,  26: 0.10741,  25: 0.10294,
                 24: 0.09098,  23: 0.09460,  22: 0.07317,  21: 0.04027,  20:-0.06322,  19:-0.04300,  18:-0.00727,  17:-0.00050,
                 16:-0.02540,  15:-0.04469,  14:-0.03505,  13:-0.03611,  12: 0.01529,  11: 0.05260,  10: 0.06157,   9: 0.09258,
                  8: 0.08561,   7: 0.03379,   6:-0.00469,   5:-0.02790,   4:-0.03278,   3:-0.02274,   2:-0.00091,   1: 0.00000
   265 |      | 256: 0.00000, 255: 0.00000, 254: 0.00124, 253: 0.01890, 252: 0.02427, 251: 0.00214, 250: 0.08320, 249: 0.07753,
                248:-0.04655, 247:-0.04790, 246:-0.03777, 245:-0.03777, 244:-0.03777, 243:-0.02569, 242:-0.01322, 241: 0.00000,
                240: 0.00000, 239: 0.00000, 238: 0.00682, 237: 0.01996, 236:-0.01107, 235:-0.02741, 234: 0.04113, 233: 0.04419,
                232: 0.00657, 231:-0.09649, 230:-0.05262, 229:-0.03777, 228:-0.03777, 227:-0.03777, 226:-0.03551, 225:-0.01020,
                224: 0.00000, 223: 0.00000, 222:-0.00425, 221:-0.03143, 220:-0.05374, 219:-0.05527, 218: 0.02849, 217: 0.05814,
                216: 0.02055, 215:-0.01472, 214:-0.05107, 213:-0.02442, 212:-0.02104, 211:-0.03096, 210:-0.03560, 209:-0.03022,
                208: 0.00000, 207:-0.03920, 206:-0.07935, 205:-0.06408, 204:-0.05616, 203:-0.01146, 202: 0.07247, 201: 0.11887,
                200: 0.06988, 199: 0.06127, 198:-0.02253, 197:-0.02167, 196:-0.01018, 195:-0.00679, 194:-0.01020, 193:-0.01546,
                192:-0.02547, 191:-0.07623, 190:-0.08020, 189:-0.04230, 188:-0.00436, 187: 0.02408, 186: 0.07455, 185: 0.12655,
                184: 0.11482, 183: 0.09514, 182: 0.07042, 181: 0.06967, 180: 0.07433, 179: 0.09936, 178: 0.05095, 177:-0.00679,
                176:-0.05048, 175:-0.03585, 174:-0.01200, 173: 0.05421, 172: 0.05288, 171: 0.11539, 170: 0.14933, 169: 0.13913,
                168: 0.13422, 167: 0.14707, 166: 0.10762, 165: 0.10465, 164: 0.10465, 163: 0.10465, 162: 0.10719, 161: 0.04841,
                160: 0.03021, 159: 0.03083, 158: 0.06571, 157: 0.12936, 156: 0.13950, 155: 0.09083, 154: 0.12402, 153: 0.11233,
                152: 0.11986, 151: 0.00567, 150:-0.01649, 149: 0.00448, 148: 0.06805, 147: 0.10728, 146: 0.10728, 145: 0.12767,
                144: 0.01049, 143: 0.05789, 142: 0.07025, 141: 0.01713, 140:-0.03814, 139:-0.01369, 138: 0.07279, 137: 0.07130,
                136: 0.05240, 135:-0.03267, 134:-0.02662, 133:-0.01260, 132: 0.10282, 131: 0.13952, 130: 0.13952, 129: 0.10901,
                128: 0.03923, 127:-0.00264, 126:-0.02491, 125:-0.01925, 124:-0.02303, 123: 0.01077, 122: 0.09452, 121: 0.09233,
                120: 0.01701, 119:-0.03733, 118:-0.01188, 117: 0.00389, 116: 0.11608, 115: 0.14168, 114: 0.13688, 113: 0.03269,
                112: 0.00000, 111: 0.00000, 110:-0.01245, 109:-0.00112, 108:-0.00621, 107:-0.01220, 106: 0.09772, 105: 0.11149,
                104:-0.00675, 103:-0.00875, 102:-0.01700, 101: 0.01120, 100: 0.08750,  99: 0.11760,  98: 0.08441,  97:-0.00774,
                 96: 0.00000,  95:-0.00417,  94:-0.01662,  93:-0.00112,  92:-0.02997,  91:-0.00407,  90: 0.10649,  89: 0.06071,
                 88:-0.02408,  87:-0.03211,  86:-0.02555,  85: 0.07037,  84: 0.08750,  83: 0.12177,  82: 0.05468,  81: 0.00737,
                 80: 0.00000,  79:-0.01284,  78:-0.02529,  77:-0.01173,  76:-0.04100,  75:-0.01935,  74: 0.02215,  73: 0.00551,
                 72:-0.03211,  71:-0.03853,  70: 0.01165,  69: 0.08269,  68: 0.10966,  67: 0.13490,  66: 0.06030,  65: 0.00930,
                 64:-0.00353,  63:-0.02344,  62:-0.02529,  61:-0.01979,  60:-0.04354,  59: 0.03676,  58:-0.00077,  57:-0.00691,
                 56:-0.03475,  55:-0.01755,  54: 0.06103,  53: 0.08947,  52: 0.11876,  51: 0.05991,  50: 0.06597,  49: 0.00930,
                 48:-0.01894,  47:-0.03211,  46:-0.02870,  45:-0.02753,  44:-0.05718,  43:-0.07151,  42:-0.05852,  41:-0.04949,
                 40:-0.05281,  39: 0.03108,  38: 0.06382,  37: 0.07093,  36: 0.04812,  35: 0.06860,  34: 0.06535,  33: 0.00899,
                 32:-0.03211,  31:-0.03211,  30:-0.03211,  29:-0.04102,  28:-0.06774,  27:-0.07172,  26:-0.09176,  25:-0.07936,
                 24:-0.08020,  23: 0.04488,  22: 0.07284,  21: 0.12138,  20: 0.05261,  19: 0.06798,  18: 0.05218,  17: 0.01655,
                 16:-0.01156,  15:-0.02055,  14:-0.02761,  13:-0.02312,  12:-0.01186,  11:-0.02700,  10:-0.05245,   9:-0.07113,
                  8:-0.07113,   7: 0.06643,   6: 0.10383,   5: 0.08702,   4: 0.03550,   3: 0.05225,   2: 0.03686,   1: 0.01053
   266 |      | 256: 0.00000, 255: 0.00000, 254:-0.00093, 253:-0.01412, 252:-0.02010, 251:-0.03801, 250:-0.00621, 249: 0.01626,
                248: 0.08038, 247: 0.10770, 246: 0.10917, 245: 0.08277, 244: 0.02459, 243:-0.00308, 242: 0.00663, 241: 0.00000,
                240: 0.00000, 239: 0.00000, 238: 0.00586, 237:-0.01516, 236: 0.01224, 235: 0.02996, 234: 0.05731, 233: 0.06023,
                232: 0.06379, 231: 0.06609, 230: 0.08433, 229: 0.08454, 228: 0.08922, 227: 0.03849, 226:-0.03181, 225:-0.00624,
                224: 0.00000, 223: 0.02426, 222: 0.07639, 221: 0.05262, 220: 0.05427, 219: 0.00981, 218: 0.06738, 217: 0.07272,
                216: 0.05781, 215: 0.03905, 214: 0.03973, 213: 0.08194, 212: 0.08407, 211: 0.06578, 210: 0.02506, 209:-0.04258,
                208: 0.05886, 207: 0.13948, 206: 0.09443, 205: 0.02027, 204:-0.01298, 203: 0.01803, 202: 0.00362, 201:-0.00869,
                200:-0.00191, 199: 0.03926, 198: 0.06060, 197: 0.04232, 196: 0.06981, 195: 0.05451, 194: 0.04588, 193:-0.00773,
                192: 0.14806, 191: 0.14417, 190: 0.05851, 189: 0.00463, 188:-0.04437, 187:-0.02821, 186: 0.05097, 185: 0.03117,
                184:-0.01204, 183: 0.02565, 182: 0.04346, 181: 0.03080, 180: 0.07040, 179: 0.09488, 178: 0.09328, 177: 0.11455,
                176: 0.14436, 175: 0.14802, 174: 0.06407, 173:-0.01270, 172:-0.03518, 171:-0.04838, 170: 0.02958, 169: 0.05787,
                168: 0.06795, 167: 0.03705, 166: 0.02131, 165: 0.01316, 164: 0.05187, 163: 0.14076, 162: 0.14980, 161: 0.14957,
                160: 0.06882, 159: 0.11941, 158: 0.10258, 157: 0.00741, 156: 0.02843, 155: 0.04453, 154: 0.07953, 153: 0.11240,
                152: 0.10785, 151: 0.01517, 150:-0.00126, 149: 0.00943, 148: 0.05849, 147: 0.15728, 146: 0.16829, 145: 0.14586,
                144: 0.01089, 143: 0.06008, 142: 0.09371, 141: 0.06779, 140: 0.06794, 139: 0.07179, 138: 0.10596, 137: 0.12974,
                136: 0.09203, 135:-0.00010, 134: 0.01470, 133: 0.04769, 132: 0.02953, 131: 0.13194, 130: 0.16506, 129: 0.11546,
                128:-0.00735, 127:-0.00057, 126:-0.01390, 125:-0.05034, 124:-0.03446, 123:-0.01101, 122: 0.01613, 121: 0.01041,
                120:-0.05034, 119:-0.04063, 118:-0.01931, 117:-0.00392, 116: 0.02122, 115: 0.14275, 114: 0.11491, 113: 0.09254,
                112: 0.00000, 111:-0.00403, 110:-0.05822, 109:-0.09794, 108:-0.11660, 107:-0.09139, 106:-0.06540, 105:-0.05676,
                104:-0.03923, 103: 0.00262, 102:-0.01420, 101:-0.00430, 100: 0.04482,  99: 0.12247,  98: 0.06476,  97: 0.00815,
                 96:-0.01034,  95:-0.06123,  94:-0.07838,  93:-0.06895,  92:-0.05402,  91:-0.04533,  90:-0.02517,  89:-0.00358,
                 88: 0.04412,  87: 0.02255,  86: 0.00387,  85: 0.00948,  84: 0.06066,  83: 0.05704,  82: 0.04010,  81:-0.00326,
                 80:-0.05222,  79:-0.07654,  78:-0.06290,  77:-0.05150,  76:-0.03125,  75:-0.00413,  74: 0.01278,  73: 0.07246,
                 72: 0.02791,  71: 0.03779,  70: 0.04538,  69: 0.07748,  68: 0.07067,  67: 0.00738,  66: 0.00373,  65:-0.01842,
                 64:-0.06776,  63:-0.06247,  62:-0.04436,  61:-0.05064,  60:-0.02518,  59: 0.00731,  58: 0.04760,  57: 0.05459,
                 56: 0.04668,  55: 0.05247,  54: 0.08941,  53: 0.07230,  52: 0.01796,  51:-0.01144,  50:-0.04063,  49:-0.01796,
                 48:-0.07146,  47:-0.07934,  46:-0.08038,  45:-0.06790,  44:-0.02686,  43:-0.00692,  42: 0.00698,  41: 0.03390,
                 40: 0.03267,  39: 0.05949,  38: 0.05135,  37: 0.00878,  36:-0.02518,  35:-0.07111,  34:-0.05607,  33:-0.01773,
                 32:-0.04041,  31:-0.09461,  30:-0.10512,  29:-0.04080,  28:-0.02755,  27:-0.02161,  26: 0.03149,  25: 0.08371,
                 24: 0.06685,  23: 0.02791,  22:-0.01107,  21:-0.02911,  20:-0.07034,  19:-0.05607,  18:-0.04093,  17:-0.00768,
                 16:-0.01327,  15:-0.02030,  14:-0.04580,  13:-0.01184,  12: 0.00742,  11:-0.00132,  10: 0.03673,   9: 0.04520,
                  8: 0.03234,   7: 0.00995,   6:-0.03095,   5:-0.07238,   4:-0.05865,   3:-0.03829,   2:-0.00300,   1: 0.00000
   267 |      | 256: 0.00000, 255:-0.00891, 254:-0.03077, 253:-0.06673, 252:-0.09225, 251:-0.10040, 250:-0.02476, 249: 0.08563,
                248: 0.06095, 247:-0.01250, 246: 0.02974, 245: 0.06346, 244: 0.05341, 243: 0.01154, 242: 0.00000, 241: 0.00000,
                240:-0.03503, 239:-0.05442, 238:-0.09963, 237:-0.12587, 236:-0.12806, 235:-0.11496, 234: 0.00814, 233: 0.04504,
                232: 0.07270, 231:-0.02066, 230: 0.01613, 229: 0.02923, 228: 0.05354, 227: 0.00878, 226:-0.00533, 225:-0.00267,
                224:-0.04168, 223:-0.08394, 222:-0.08681, 221:-0.08159, 220:-0.08605, 219:-0.05965, 218: 0.05473, 217: 0.05152,
                216: 0.04791, 215: 0.00227, 214:-0.01291, 213:-0.02290, 212:-0.02297, 211:-0.03901, 210:-0.03808, 209:-0.02742,
                208:-0.08987, 207:-0.10002, 206:-0.09197, 205:-0.05091, 204:-0.03122, 203: 0.05209, 202: 0.09658, 201: 0.10102,
                200: 0.06865, 199:-0.00877, 198:-0.05199, 197:-0.04242, 196:-0.05225, 195:-0.05989, 194:-0.04853, 193:-0.03808,
                192:-0.07708, 191:-0.09377, 190:-0.06441, 189:-0.05918, 188:-0.01357, 187: 0.12595, 186: 0.14315, 185: 0.08990,
                184: 0.09475, 183: 0.02949, 182:-0.00390, 181:-0.00814, 180:-0.06182, 179:-0.04377, 178:-0.03693, 177:-0.02839,
                176:-0.01413, 175:-0.02722, 174:-0.04242, 173:-0.04728, 172:-0.02131, 171: 0.09192, 170: 0.09972, 169: 0.05505,
                168: 0.07965, 167: 0.07316, 166: 0.07815, 165: 0.06141, 164: 0.03493, 163: 0.04472, 162: 0.05866, 161:-0.00235,
                160: 0.09194, 159: 0.11579, 158: 0.09835, 157: 0.08446, 156: 0.09982, 155: 0.09241, 154: 0.08165, 153: 0.09180,
                152: 0.13125, 151: 0.14855, 150: 0.11375, 149: 0.09162, 148: 0.10720, 147: 0.10485, 146: 0.06423, 145: 0.00126,
                144: 0.03627, 143: 0.04412, 142: 0.05283, 141: 0.06049, 140: 0.04107, 139: 0.06797, 138: 0.10111, 137: 0.11527,
                136: 0.11865, 135: 0.04787, 134: 0.04692, 133: 0.02909, 132: 0.04174, 131:-0.00288, 130:-0.00288, 129: 0.00494,
                128: 0.02059, 127: 0.02964, 126: 0.02826, 125: 0.03844, 124: 0.04213, 123: 0.01849, 122: 0.08560, 121: 0.07768,
                120: 0.01362, 119: 0.03441, 118: 0.02474, 117: 0.03207, 116: 0.02443, 115:-0.01513, 114:-0.00366, 113:-0.00349,
                112: 0.00000, 111:-0.00127, 110:-0.03433, 109:-0.00278, 108:-0.00306, 107: 0.05248, 106: 0.05987, 105: 0.04631,
                104: 0.02114, 103: 0.01744, 102: 0.00476, 101: 0.00119, 100:-0.00821,  99:-0.03617,  98:-0.02289,  97: 0.01031,
                 96: 0.00000,  95:-0.00536,  94:-0.02890,  93:-0.02254,  92:-0.02474,  91: 0.10555,  90: 0.07286,  89: 0.03280,
                 88: 0.02791,  87: 0.00210,  86: 0.00000,  85: 0.00000,  84:-0.01745,  83:-0.05412,  82:-0.04024,  81: 0.00275,
                 80: 0.00000,  79:-0.02524,  78:-0.02567,  77:-0.02895,  76: 0.01444,  75: 0.09435,  74: 0.08864,  73: 0.01716,
                 72: 0.01504,  71: 0.00000,  70:-0.00096,  69:-0.01466,  68:-0.05085,  67:-0.07949,  66:-0.04367,  65: 0.00051,
                 64:-0.01137,  63:-0.03592,  62:-0.01502,  61:-0.02619,  60: 0.05691,  59: 0.11198,  58: 0.05569,  57:-0.00918,
                 56:-0.01612,  55:-0.03608,  54:-0.04806,  53:-0.07156,  52:-0.05657,  51: 0.01343,  50: 0.01490,  49: 0.01268,
                 48:-0.01562,  47: 0.02509,  46: 0.01203,  45:-0.00492,  44: 0.08596,  43: 0.11319,  42: 0.04348,  41: 0.00873,
                 40:-0.01075,  39:-0.02112,  38:-0.03272,  37:-0.02946,  36:-0.00644,  35: 0.02880,  34: 0.11342,  33: 0.09512,
                 32: 0.00704,  31: 0.03320,  30: 0.02308,  29: 0.00778,  28:-0.01532,  27: 0.06000,  26: 0.08396,  25: 0.08118,
                 24: 0.13738,  23: 0.11927,  22: 0.10225,  21: 0.13353,  20: 0.14552,  19: 0.11755,  18: 0.14942,  17: 0.18716,
                 16: 0.00813,  15: 0.01516,  14: 0.02744,  13: 0.02610,  12: 0.01205,  11:-0.00507,  10:-0.01123,   9:-0.03363,
                  8:-0.00511,   7: 0.05492,   6: 0.06560,   5: 0.08690,   4: 0.07918,   3: 0.08177,   2: 0.13572,   1: 0.09932
-------|------|----------------------------------------------------------------------------------------------------------------
