SNNS network definition file V1.4-3D
generated at Thu Oct  6 15:56:36 1994

network name : eight_elman_untrained
source files :
no. of units : 20
no. of connections : 112
no. of unit types : 0
no. of site types : 0


learning function : JE_BP
update function   : JE_Order


unit default section :

act      | bias     | st | subnet | layer | act func     | out func
---------|----------|----|--------|-------|--------------|-------------
 0.00000 |  0.00000 | h  |      0 |     1 | Act_Logistic | Out_Identity 
---------|----------|----|--------|-------|--------------|-------------


unit definition section :

no. | typeName | unitName | act      | bias     | st | position | act func     | out func | sites
----|----------|----------|----------|----------|----|----------|--------------|----------|-------
  1 |          | inp1     |  1.00000 |  0.80613 | i  |  1, 1, 0 |||
  2 |          | inp2     |  0.50000 |  0.04949 | i  |  1, 2, 0 | Act_Identity |          | 
  3 |          | hid1     |  0.63341 | -0.03665 | h  |  8, 1, 0 |||
  4 |          | hid2     |  0.64055 |  0.67164 | h  |  9, 1, 0 |||
  5 |          | hid3     |  0.06321 | -0.78726 | h  |  8, 2, 0 |||
  6 |          | hid4     |  0.09149 | -0.38302 | h  |  9, 2, 0 |||
  7 |          | hid5     |  0.60316 | -0.60761 | h  |  8, 3, 0 |||
  8 |          | hid6     |  0.99395 |  0.39511 | h  |  9, 3, 0 |||
  9 |          | hid7     |  0.00567 |  0.62451 | h  |  8, 4, 0 |||
 10 |          | hid8     |  0.11044 |  0.06139 | h  |  9, 4, 0 |||
 11 |          | out1     |  0.97786 | -0.67751 | o  | 15, 1, 0 |||
 12 |          | out2     |  0.85669 | -0.03424 | o  | 15, 2, 0 |||
 13 |          | con1     |  0.50000 |  0.50000 | sh  |  4, 6, 0 | Act_Identity |          | 
 14 |          | con2     |  0.50000 |  0.50000 | sh  |  5, 6, 0 | Act_Identity |          | 
 15 |          | con3     |  0.50000 |  0.50000 | sh  |  4, 7, 0 | Act_Identity |          | 
 16 |          | con4     |  0.50000 |  0.50000 | sh  |  5, 7, 0 | Act_Identity |          | 
 17 |          | con5     |  0.50000 |  0.50000 | sh  |  4, 8, 0 | Act_Identity |          | 
 18 |          | con6     |  0.50000 |  0.50000 | sh  |  5, 8, 0 | Act_Identity |          | 
 19 |          | con7     |  0.50000 |  0.50000 | sh  |  4, 9, 0 | Act_Identity |          | 
 20 |          | con8     |  0.50000 |  0.50000 | sh  |  5, 9, 0 | Act_Identity |          | 
----|----------|----------|----------|----------|----|----------|--------------|----------|-------


connection definition section :

target | site | source:weight
-------|------|---------------------------------------------------------------------------------------------------------------------
     3 |      | 20:-0.42124, 19:-0.21072, 18:-0.39546, 17:-0.59283, 16: 0.70017, 15:-0.19896, 14:-0.15164, 13:-0.65387,  2:-0.05310,
                 1: 0.63206
     4 |      | 20:-0.08228, 19: 0.93758, 18: 0.13764, 17: 0.92589, 16:-0.69879, 15: 0.66389, 14:-0.50735, 13: 0.66742,  2: 0.67289,
                 1: 0.03242
     5 |      | 20: 0.23092, 19: 0.73501, 18:-0.39924, 17: 0.87222, 16: 0.48319, 15: 0.55375, 14:-0.25322, 13:-0.20648,  2:-0.56944,
                 1:-0.77660
     6 |      | 20:-0.76199, 19:-0.01428, 18:-0.80300, 17:-0.51369, 16:-0.73200, 15: 0.87432, 14:-0.17557, 13: 0.53179,  2: 0.04324,
                 1: 0.32844
     7 |      | 20:-0.65032, 19: 0.02432, 18:-0.95510, 17:-0.20919, 16:-0.82839, 15:-0.36382, 14: 0.76768, 13: 0.70063,  2: 0.97031,
                 1: 0.24633
     8 |      | 20:-0.88211, 19: 0.26914, 18: 0.77854, 17:-0.46152, 16: 0.15224, 15:-0.77011, 14:-0.54938, 13: 0.51500,  2: 0.75938,
                 1: 0.70698
     9 |      | 20:-0.39165, 19: 0.62810, 18:-0.39122, 17:-0.18565, 16:-0.44379, 15:-0.57305, 14: 0.75251, 13: 0.83023,  2: 0.32839,
                 1: 0.45025
    10 |      | 20: 0.75554, 19: 0.75977, 18: 0.16147, 17: 0.52282, 16: 0.96879, 15:-0.86006, 14: 0.82661, 13: 0.86522,  2: 0.32698,
                 1: 0.79174
    11 |      | 10:-0.05222,  9: 0.62009,  8:-0.42892,  7:-0.90377,  6: 0.89032,  5: 0.77220,  4: 0.38544,  3:-0.71089
    12 |      | 10: 0.38473,  9: 0.77091,  8:-0.78843,  7: 0.17132,  6:-0.93367,  5:-0.47829,  4:-0.00056,  3:-0.40848
    13 |      | 13: 0.30000,  3: 1.00000
    14 |      | 14: 0.30000,  4: 1.00000
    15 |      | 15: 0.30000,  5: 1.00000
    16 |      | 16: 0.30000,  6: 1.00000
    17 |      | 17: 0.30000,  7: 1.00000
    18 |      | 18: 0.30000,  8: 1.00000
    19 |      | 19: 0.30000,  9: 1.00000
    20 |      | 20: 0.30000, 10: 1.00000
-------|------|---------------------------------------------------------------------------------------------------------------------
