SNNS network definition file V1.4-3D
generated at Fri Oct  7 13:30:44 1994

network name : eight_jordan_untrained
source files :
no. of units : 14
no. of connections : 52
no. of unit types : 0
no. of site types : 0


learning function : JE_BP
update function   : JE_Order


unit default section :

act      | bias     | st | subnet | layer | act func     | out func
---------|----------|----|--------|-------|--------------|-------------
 0.00000 |  0.00000 | h  |      0 |     1 | Act_Logistic | Out_Identity 
---------|----------|----|--------|-------|--------------|-------------


unit definition section :

no. | typeName | unitName | act      | bias     | st | position | act func     | out func | sites
----|----------|----------|----------|----------|----|----------|--------------|----------|-------
  1 |          | inp1     |  0.00000 |  0.20707 | i  |  1, 1,13 | Act_Identity |          | 
  2 |          | inp2     |  0.00000 | -0.68097 | i  |  1, 2,13 | Act_Identity |          | 
  3 |          | hid1     |  0.00000 |  0.29333 | h  |  7, 1,13 |||
  4 |          | hid2     |  0.00000 | -0.16818 | h  |  8, 1,13 |||
  5 |          | hid3     |  0.00000 | -0.79971 | h  |  7, 2,13 |||
  6 |          | hid4     |  0.00000 | -0.16540 | h  |  8, 2,13 |||
  7 |          | hid5     |  0.00000 |  0.40295 | h  |  7, 3,13 |||
  8 |          | hid6     |  0.00000 | -0.32566 | h  |  8, 3,13 |||
  9 |          | hid7     |  0.00000 | -0.57575 | h  |  7, 4,13 |||
 10 |          | hid8     |  0.00000 | -0.21743 | h  |  8, 4,13 |||
 11 |          | out1     |  0.00000 |  0.32468 | o  | 13, 1,13 |||
 12 |          | out2     |  0.00000 | -0.89274 | o  | 13, 2,13 |||
 13 |          | sta1     |  0.50000 |  0.50000 | sh  |  4, 5,13 | Act_Identity |          | 
 14 |          | sta2     |  0.50000 |  0.50000 | sh  |  4, 6,13 | Act_Identity |          | 
----|----------|----------|----------|----------|----|----------|--------------|----------|-------


connection definition section :

target | site | source:weight
-------|------|---------------------------------------------------------------------------------------------------------------------
     3 |      |  1: 0.10683,  2: 0.36261, 13:-0.77286, 14: 0.96883
     4 |      |  1: 0.68126,  2: 0.23257, 13:-0.38201, 14: 0.88228
     5 |      |  1: 0.67291,  2: 0.68186, 13:-0.06613, 14:-0.20829
     6 |      |  1: 0.46006,  2: 0.21904, 13: 0.41320, 14:-0.48475
     7 |      |  1: 0.84892,  2: 0.19003, 13:-0.71476, 14:-0.88394
     8 |      |  1:-0.69295,  2: 0.99449, 13: 0.07524, 14:-0.06519
     9 |      |  1: 0.46878,  2:-0.96550, 13: 0.38643, 14:-0.20171
    10 |      |  1: 0.57512,  2:-0.77179, 13: 0.39069, 14: 0.69628
    11 |      |  3: 0.22505,  4:-0.28722,  5:-0.50711,  6:-0.20723,  7:-0.06326,  8: 0.08128,  9:-0.30498, 10: 0.34564
    12 |      |  3: 0.26392,  4:-0.88778,  5: 0.98514,  6:-0.03320,  7: 0.45446,  8: 0.95140,  9:-0.18391, 10: 0.59007
    13 |      | 11: 1.00000, 13: 0.30000
    14 |      | 12: 1.00000, 14: 0.30000
-------|------|---------------------------------------------------------------------------------------------------------------------
