SNNS network definition file V1.4-3D
generated at Wed May 18 11:58:33 1994

network name : encoder
source files :
no. of units : 19
no. of connections : 48
no. of unit types : 0
no. of site types : 0


learning function : Std_Backpropagation
update function   : Topological_Order


unit default section :

act      | bias     | st | subnet | layer | act func     | out func
---------|----------|----|--------|-------|--------------|-------------
 1.00000 |  0.00000 | i  |      0 |     1 | Act_Logistic | Out_Identity 
---------|----------|----|--------|-------|--------------|-------------


unit definition section :

no. | typeName | unitName | act      | bias     | st | position | act func | out func | sites
----|----------|----------|----------|----------|----|----------|----------|----------|-------
  1 |          |          |  1.00000 |  0.00000 | i  | 2,0,0    |||
  2 |          |          |  0.00000 |  0.00000 | i  | 2,1,0    |||
  3 |          |          |  0.00000 |  0.00000 | i  | 2,2,0    |||
  4 |          |          |  0.00000 |  0.00000 | i  | 2,3,0    |||
  5 |          |          |  0.00000 |  0.00000 | i  | 2,4,0    |||
  6 |          |          |  0.00000 |  0.00000 | i  | 2,5,0    |||
  7 |          |          |  0.00000 |  0.00000 | i  | 2,6,0    |||
  8 |          |          |  0.00000 |  0.00000 | i  | 2,7,0    |||
  9 |          |          |  0.41542 |  0.37039 | h  | 5,2,0    |||
 10 |          |          |  0.76499 | -0.67541 | h  | 5,3,0    |||
 11 |          |          |  0.99714 | -0.10133 | h  | 5,4,0    |||
 12 |          |          |  0.93540 | -12.79374 | o  | 8,0,0    |||
 13 |          |          |  0.01511 | -10.63348 | o  | 8,1,0    |||
 14 |          |          |  0.00000 |  0.41363 | o  | 8,2,0    |||
 15 |          |          |  0.00293 | -1.16548 | o  | 8,3,0    |||
 16 |          |          |  0.00000 | -0.91670 | o  | 8,4,0    |||
 17 |          |          |  0.04022 | -8.13967 | o  | 8,5,0    |||
 18 |          |          |  0.00626 | -11.74220 | o  | 8,6,0    |||
 19 |          |          |  0.00066 |  3.79386 | o  | 8,7,0    |||
----|----------|----------|----------|----------|----|----------|----------|----------|-------


connection definition section :

target | site | source:weight
-------|------|---------------------------------------------------------------------------------------------------------------------
     9 |      |  8:-6.44664,  7: 4.98091,  6:-1.30123,  5: 1.33382,  4:-1.52321,  3:-0.68700,  2: 4.62573,  1:-0.71199
    10 |      |  8: 0.15831,  7: 3.85704,  6: 6.04615,  5:-4.16404,  4:-5.01310,  3: 1.10610,  2:-1.71152,  1: 1.85567
    11 |      |  8:-0.74440,  7:-0.29825,  6:-0.19827,  5:-1.99191,  4: 1.53899,  3:-6.03946,  2: 2.78732,  1: 5.95465
    12 |      | 11:12.61303, 10: 5.37458,  9:-2.94135
    13 |      | 11: 6.74181, 10:-4.58847,  9: 7.80819
    14 |      | 11:-18.73861, 10: 5.07597,  9:-2.01689
    15 |      | 11: 7.60365, 10:-11.43411,  9:-8.42485
    16 |      | 11:-8.39611, 10:-8.21582,  9: 5.92497
    17 |      | 11:-2.44924, 10:14.30920,  9:-8.51366
    18 |      | 11:-2.33821, 10: 6.59638,  9: 9.53244
    19 |      | 11:-3.16292, 10:-0.32327,  9:-18.56372
-------|------|---------------------------------------------------------------------------------------------------------------------
