SNNS network definition file V1.4-3D
generated at Fri Apr 22 15:24:46 1994

network name : font
source files :
no. of units : 699
no. of connections : 4752
no. of unit types : 0
no. of site types : 0


learning function : Std_Backpropagation
update function   : Topological_Order


unit default section :

act      | bias     | st | subnet | layer | act func     | out func
---------|----------|----|--------|-------|--------------|-------------
 0.00000 |  0.00000 | h  |      0 |     1 | Act_Logistic | Out_Identity 
---------|----------|----|--------|-------|--------------|-------------


unit definition section :

no. | typeName | unitName | act      | bias     | st | position | act func | out func | sites
----|----------|----------|----------|----------|----|----------|----------|----------|-------
  1 |          | in       |  0.00000 |  0.06405 | i  |  1, 1, 0 |||
  2 |          | in       |  0.00000 |  0.02526 | i  |  2, 1, 0 |||
  3 |          | in       |  0.00000 |  0.12200 | i  |  3, 1, 0 |||
  4 |          | in       |  1.00000 |  0.18155 | i  |  4, 1, 0 |||
  5 |          | in       |  1.00000 |  0.05085 | i  |  5, 1, 0 |||
  6 |          | in       |  1.00000 |  0.40405 | i  |  6, 1, 0 |||
  7 |          | in       |  1.00000 |  0.06743 | i  |  7, 1, 0 |||
  8 |          | in       |  1.00000 | -0.07016 | i  |  8, 1, 0 |||
  9 |          | in       |  1.00000 | -0.28285 | i  |  9, 1, 0 |||
 10 |          | in       |  1.00000 | -0.10069 | i  | 10, 1, 0 |||
 11 |          | in       |  1.00000 | -0.21037 | i  | 11, 1, 0 |||
 12 |          | in       |  1.00000 | -0.26543 | i  | 12, 1, 0 |||
 13 |          | in       |  1.00000 | -0.18910 | i  | 13, 1, 0 |||
 14 |          | in       |  1.00000 | -0.19350 | i  | 14, 1, 0 |||
 15 |          | in       |  1.00000 | -0.04462 | i  | 15, 1, 0 |||
 16 |          | in       |  1.00000 | -0.25978 | i  | 16, 1, 0 |||
 17 |          | in       |  1.00000 |  0.32149 | i  | 17, 1, 0 |||
 18 |          | in       |  1.00000 |  0.24777 | i  | 18, 1, 0 |||
 19 |          | in       |  1.00000 |  0.19679 | i  | 19, 1, 0 |||
 20 |          | in       |  1.00000 |  0.40888 | i  | 20, 1, 0 |||
 21 |          | in       |  0.00000 |  0.36006 | i  | 21, 1, 0 |||
 22 |          | in       |  0.00000 |  0.14347 | i  | 22, 1, 0 |||
 23 |          | in       |  0.00000 |  0.18857 | i  | 23, 1, 0 |||
 24 |          | in       |  0.00000 |  0.00804 | i  | 24, 1, 0 |||
 25 |          | in       |  0.00000 |  0.01334 | i  |  1, 2, 0 |||
 26 |          | in       |  0.00000 | -0.05393 | i  |  2, 2, 0 |||
 27 |          | in       |  0.00000 |  0.00189 | i  |  3, 2, 0 |||
 28 |          | in       |  1.00000 | -0.01282 | i  |  4, 2, 0 |||
 29 |          | in       |  1.00000 |  0.02176 | i  |  5, 2, 0 |||
 30 |          | in       |  1.00000 | -0.12638 | i  |  6, 2, 0 |||
 31 |          | in       |  1.00000 | -0.02150 | i  |  7, 2, 0 |||
 32 |          | in       |  1.00000 |  0.23967 | i  |  8, 2, 0 |||
 33 |          | in       |  1.00000 |  0.10394 | i  |  9, 2, 0 |||
 34 |          | in       |  1.00000 | -0.00647 | i  | 10, 2, 0 |||
 35 |          | in       |  1.00000 | -0.02786 | i  | 11, 2, 0 |||
 36 |          | in       |  1.00000 |  0.06514 | i  | 12, 2, 0 |||
 37 |          | in       |  1.00000 | -0.19989 | i  | 13, 2, 0 |||
 38 |          | in       |  1.00000 |  0.08155 | i  | 14, 2, 0 |||
 39 |          | in       |  1.00000 | -0.03798 | i  | 15, 2, 0 |||
 40 |          | in       |  1.00000 | -0.01960 | i  | 16, 2, 0 |||
 41 |          | in       |  1.00000 | -0.24997 | i  | 17, 2, 0 |||
 42 |          | in       |  1.00000 |  0.09858 | i  | 18, 2, 0 |||
 43 |          | in       |  1.00000 |  0.08742 | i  | 19, 2, 0 |||
 44 |          | in       |  1.00000 | -0.05180 | i  | 20, 2, 0 |||
 45 |          | in       |  0.00000 |  0.05351 | i  | 21, 2, 0 |||
 46 |          | in       |  0.00000 | -0.07588 | i  | 22, 2, 0 |||
 47 |          | in       |  0.00000 | -0.07822 | i  | 23, 2, 0 |||
 48 |          | in       |  0.00000 | -0.13265 | i  | 24, 2, 0 |||
 49 |          | in       |  0.00000 | -0.01378 | i  |  1, 3, 0 |||
 50 |          | in       |  0.00000 |  0.00842 | i  |  2, 3, 0 |||
 51 |          | in       |  0.00000 | -0.05069 | i  |  3, 3, 0 |||
 52 |          | in       |  1.00000 | -0.00412 | i  |  4, 3, 0 |||
 53 |          | in       |  1.00000 |  0.20697 | i  |  5, 3, 0 |||
 54 |          | in       |  1.00000 |  0.07152 | i  |  6, 3, 0 |||
 55 |          | in       |  1.00000 |  0.21220 | i  |  7, 3, 0 |||
 56 |          | in       |  1.00000 |  0.18831 | i  |  8, 3, 0 |||
 57 |          | in       |  0.00000 | -0.04842 | i  |  9, 3, 0 |||
 58 |          | in       |  0.00000 | -0.08140 | i  | 10, 3, 0 |||
 59 |          | in       |  0.00000 |  0.00698 | i  | 11, 3, 0 |||
 60 |          | in       |  0.00000 | -0.20597 | i  | 12, 3, 0 |||
 61 |          | in       |  0.00000 | -0.22614 | i  | 13, 3, 0 |||
 62 |          | in       |  0.00000 | -0.15780 | i  | 14, 3, 0 |||
 63 |          | in       |  0.00000 | -0.17848 | i  | 15, 3, 0 |||
 64 |          | in       |  0.00000 | -0.05669 | i  | 16, 3, 0 |||
 65 |          | in       |  1.00000 | -0.13753 | i  | 17, 3, 0 |||
 66 |          | in       |  1.00000 | -0.00127 | i  | 18, 3, 0 |||
 67 |          | in       |  1.00000 |  0.08959 | i  | 19, 3, 0 |||
 68 |          | in       |  1.00000 | -0.04405 | i  | 20, 3, 0 |||
 69 |          | in       |  0.00000 |  0.13528 | i  | 21, 3, 0 |||
 70 |          | in       |  0.00000 | -0.02521 | i  | 22, 3, 0 |||
 71 |          | in       |  0.00000 | -0.05151 | i  | 23, 3, 0 |||
 72 |          | in       |  0.00000 | -0.05748 | i  | 24, 3, 0 |||
 73 |          | in       |  0.00000 |  0.01862 | i  |  1, 4, 0 |||
 74 |          | in       |  0.00000 | -0.00847 | i  |  2, 4, 0 |||
 75 |          | in       |  0.00000 |  0.01239 | i  |  3, 4, 0 |||
 76 |          | in       |  1.00000 |  0.01006 | i  |  4, 4, 0 |||
 77 |          | in       |  1.00000 |  0.09276 | i  |  5, 4, 0 |||
 78 |          | in       |  1.00000 | -0.15845 | i  |  6, 4, 0 |||
 79 |          | in       |  1.00000 | -0.00440 | i  |  7, 4, 0 |||
 80 |          | in       |  1.00000 |  0.01361 | i  |  8, 4, 0 |||
 81 |          | in       |  0.00000 | -0.10369 | i  |  9, 4, 0 |||
 82 |          | in       |  0.00000 | -0.08821 | i  | 10, 4, 0 |||
 83 |          | in       |  0.00000 |  0.01469 | i  | 11, 4, 0 |||
 84 |          | in       |  0.00000 | -0.10207 | i  | 12, 4, 0 |||
 85 |          | in       |  0.00000 |  0.00141 | i  | 13, 4, 0 |||
 86 |          | in       |  0.00000 |  0.01565 | i  | 14, 4, 0 |||
 87 |          | in       |  0.00000 | -0.01703 | i  | 15, 4, 0 |||
 88 |          | in       |  0.00000 | -0.17065 | i  | 16, 4, 0 |||
 89 |          | in       |  1.00000 | -0.05288 | i  | 17, 4, 0 |||
 90 |          | in       |  1.00000 | -0.10426 | i  | 18, 4, 0 |||
 91 |          | in       |  1.00000 | -0.00412 | i  | 19, 4, 0 |||
 92 |          | in       |  1.00000 | -0.19807 | i  | 20, 4, 0 |||
 93 |          | in       |  0.00000 |  0.04364 | i  | 21, 4, 0 |||
 94 |          | in       |  0.00000 | -0.00327 | i  | 22, 4, 0 |||
 95 |          | in       |  0.00000 |  0.01692 | i  | 23, 4, 0 |||
 96 |          | in       |  0.00000 | -0.02999 | i  | 24, 4, 0 |||
 97 |          | in       |  0.00000 |  0.02257 | i  |  1, 5, 0 |||
 98 |          | in       |  0.00000 | -0.01794 | i  |  2, 5, 0 |||
 99 |          | in       |  0.00000 | -0.11065 | i  |  3, 5, 0 |||
100 |          | in       |  1.00000 |  0.01022 | i  |  4, 5, 0 |||
101 |          | in       |  1.00000 |  0.26706 | i  |  5, 5, 0 |||
102 |          | in       |  1.00000 |  0.07024 | i  |  6, 5, 0 |||
103 |          | in       |  0.00000 | -0.29299 | i  |  7, 5, 0 |||
104 |          | in       |  0.00000 | -0.50717 | i  |  8, 5, 0 |||
105 |          | in       |  0.00000 | -0.63901 | i  |  9, 5, 0 |||
106 |          | in       |  0.00000 | -0.51697 | i  | 10, 5, 0 |||
107 |          | in       |  0.00000 | -0.19542 | i  | 11, 5, 0 |||
108 |          | in       |  0.00000 |  0.02932 | i  | 12, 5, 0 |||
109 |          | in       |  0.00000 |  0.16856 | i  | 13, 5, 0 |||
110 |          | in       |  0.00000 |  0.11062 | i  | 14, 5, 0 |||
111 |          | in       |  1.00000 |  0.01523 | i  | 15, 5, 0 |||
112 |          | in       |  1.00000 |  0.09927 | i  | 16, 5, 0 |||
113 |          | in       |  1.00000 | -0.10082 | i  | 17, 5, 0 |||
114 |          | in       |  1.00000 | -0.29035 | i  | 18, 5, 0 |||
115 |          | in       |  0.00000 |  0.08490 | i  | 19, 5, 0 |||
116 |          | in       |  0.00000 |  0.00860 | i  | 20, 5, 0 |||
117 |          | in       |  0.00000 |  0.12964 | i  | 21, 5, 0 |||
118 |          | in       |  0.00000 | -0.14755 | i  | 22, 5, 0 |||
119 |          | in       |  0.00000 |  0.04333 | i  | 23, 5, 0 |||
120 |          | in       |  0.00000 |  0.06635 | i  | 24, 5, 0 |||
121 |          | in       |  0.00000 |  0.01030 | i  |  1, 6, 0 |||
122 |          | in       |  0.00000 | -0.03285 | i  |  2, 6, 0 |||
123 |          | in       |  0.00000 | -0.18573 | i  |  3, 6, 0 |||
124 |          | in       |  1.00000 | -0.29039 | i  |  4, 6, 0 |||
125 |          | in       |  1.00000 |  0.10803 | i  |  5, 6, 0 |||
126 |          | in       |  1.00000 | -0.08051 | i  |  6, 6, 0 |||
127 |          | in       |  0.00000 | -0.04427 | i  |  7, 6, 0 |||
128 |          | in       |  0.00000 | -0.16040 | i  |  8, 6, 0 |||
129 |          | in       |  0.00000 |  0.11560 | i  |  9, 6, 0 |||
130 |          | in       |  0.00000 | -0.23524 | i  | 10, 6, 0 |||
131 |          | in       |  0.00000 | -0.14136 | i  | 11, 6, 0 |||
132 |          | in       |  0.00000 | -0.35509 | i  | 12, 6, 0 |||
133 |          | in       |  0.00000 | -1.07313 | i  | 13, 6, 0 |||
134 |          | in       |  0.00000 | -1.37229 | i  | 14, 6, 0 |||
135 |          | in       |  1.00000 | -1.34627 | i  | 15, 6, 0 |||
136 |          | in       |  1.00000 | -0.81664 | i  | 16, 6, 0 |||
137 |          | in       |  1.00000 |  0.17583 | i  | 17, 6, 0 |||
138 |          | in       |  1.00000 |  0.05216 | i  | 18, 6, 0 |||
139 |          | in       |  0.00000 | -0.34842 | i  | 19, 6, 0 |||
140 |          | in       |  0.00000 |  0.12066 | i  | 20, 6, 0 |||
141 |          | in       |  0.00000 | -0.25993 | i  | 21, 6, 0 |||
142 |          | in       |  0.00000 | -0.27827 | i  | 22, 6, 0 |||
143 |          | in       |  0.00000 |  0.10442 | i  | 23, 6, 0 |||
144 |          | in       |  0.00000 |  0.06331 | i  | 24, 6, 0 |||
145 |          | in       |  0.00000 |  0.00918 | i  |  1, 7, 0 |||
146 |          | in       |  0.00000 | -0.01755 | i  |  2, 7, 0 |||
147 |          | in       |  0.00000 | -0.01313 | i  |  3, 7, 0 |||
148 |          | in       |  0.00000 | -0.02913 | i  |  4, 7, 0 |||
149 |          | in       |  0.00000 |  0.01458 | i  |  5, 7, 0 |||
150 |          | in       |  0.00000 | -0.01399 | i  |  6, 7, 0 |||
151 |          | in       |  0.00000 | -0.01290 | i  |  7, 7, 0 |||
152 |          | in       |  0.00000 |  0.56430 | i  |  8, 7, 0 |||
153 |          | in       |  0.00000 |  0.11034 | i  |  9, 7, 0 |||
154 |          | in       |  0.00000 | -0.19683 | i  | 10, 7, 0 |||
155 |          | in       |  0.00000 |  0.00029 | i  | 11, 7, 0 |||
156 |          | in       |  0.00000 | -0.11039 | i  | 12, 7, 0 |||
157 |          | in       |  1.00000 |  0.01398 | i  | 13, 7, 0 |||
158 |          | in       |  1.00000 | -0.01941 | i  | 14, 7, 0 |||
159 |          | in       |  1.00000 |  0.03360 | i  | 15, 7, 0 |||
160 |          | in       |  1.00000 | -0.03883 | i  | 16, 7, 0 |||
161 |          | in       |  1.00000 |  0.04720 | i  | 17, 7, 0 |||
162 |          | in       |  1.00000 |  0.00538 | i  | 18, 7, 0 |||
163 |          | in       |  0.00000 | -0.00234 | i  | 19, 7, 0 |||
164 |          | in       |  0.00000 |  0.03463 | i  | 20, 7, 0 |||
165 |          | in       |  0.00000 | -0.00962 | i  | 21, 7, 0 |||
166 |          | in       |  0.00000 |  0.00564 | i  | 22, 7, 0 |||
167 |          | in       |  0.00000 |  0.03004 | i  | 23, 7, 0 |||
168 |          | in       |  0.00000 |  0.03211 | i  | 24, 7, 0 |||
169 |          | in       |  0.00000 |  0.04442 | i  |  1, 8, 0 |||
170 |          | in       |  0.00000 |  0.17304 | i  |  2, 8, 0 |||
171 |          | in       |  0.00000 |  0.03656 | i  |  3, 8, 0 |||
172 |          | in       |  0.00000 | -0.12233 | i  |  4, 8, 0 |||
173 |          | in       |  0.00000 |  0.08750 | i  |  5, 8, 0 |||
174 |          | in       |  0.00000 | -0.11266 | i  |  6, 8, 0 |||
175 |          | in       |  0.00000 | -0.03500 | i  |  7, 8, 0 |||
176 |          | in       |  0.00000 |  0.58121 | i  |  8, 8, 0 |||
177 |          | in       |  0.00000 |  0.24858 | i  |  9, 8, 0 |||
178 |          | in       |  0.00000 | -0.08344 | i  | 10, 8, 0 |||
179 |          | in       |  0.00000 |  0.07954 | i  | 11, 8, 0 |||
180 |          | in       |  0.00000 | -0.12166 | i  | 12, 8, 0 |||
181 |          | in       |  1.00000 |  0.05651 | i  | 13, 8, 0 |||
182 |          | in       |  1.00000 |  0.20438 | i  | 14, 8, 0 |||
183 |          | in       |  1.00000 |  0.14483 | i  | 15, 8, 0 |||
184 |          | in       |  1.00000 | -0.25104 | i  | 16, 8, 0 |||
185 |          | in       |  1.00000 |  0.11331 | i  | 17, 8, 0 |||
186 |          | in       |  1.00000 | -0.11264 | i  | 18, 8, 0 |||
187 |          | in       |  0.00000 | -0.13540 | i  | 19, 8, 0 |||
188 |          | in       |  0.00000 | -0.12459 | i  | 20, 8, 0 |||
189 |          | in       |  0.00000 | -0.22884 | i  | 21, 8, 0 |||
190 |          | in       |  0.00000 | -0.09927 | i  | 22, 8, 0 |||
191 |          | in       |  0.00000 | -0.03854 | i  | 23, 8, 0 |||
192 |          | in       |  0.00000 | -0.03400 | i  | 24, 8, 0 |||
193 |          | in       |  0.00000 | -0.01213 | i  |  1, 9, 0 |||
194 |          | in       |  0.00000 | -0.00911 | i  |  2, 9, 0 |||
195 |          | in       |  0.00000 | -0.05747 | i  |  3, 9, 0 |||
196 |          | in       |  0.00000 | -0.10259 | i  |  4, 9, 0 |||
197 |          | in       |  0.00000 | -0.04425 | i  |  5, 9, 0 |||
198 |          | in       |  0.00000 | -0.10581 | i  |  6, 9, 0 |||
199 |          | in       |  0.00000 | -0.01328 | i  |  7, 9, 0 |||
200 |          | in       |  0.00000 |  0.75374 | i  |  8, 9, 0 |||
201 |          | in       |  0.00000 |  0.18911 | i  |  9, 9, 0 |||
202 |          | in       |  0.00000 | -0.12174 | i  | 10, 9, 0 |||
203 |          | in       |  1.00000 |  0.07247 | i  | 11, 9, 0 |||
204 |          | in       |  1.00000 | -0.12697 | i  | 12, 9, 0 |||
205 |          | in       |  1.00000 |  0.09916 | i  | 13, 9, 0 |||
206 |          | in       |  1.00000 |  0.06335 | i  | 14, 9, 0 |||
207 |          | in       |  1.00000 |  0.00297 | i  | 15, 9, 0 |||
208 |          | in       |  1.00000 | -0.20992 | i  | 16, 9, 0 |||
209 |          | in       |  0.00000 |  0.33801 | i  | 17, 9, 0 |||
210 |          | in       |  0.00000 | -0.04088 | i  | 18, 9, 0 |||
211 |          | in       |  0.00000 | -0.06906 | i  | 19, 9, 0 |||
212 |          | in       |  0.00000 | -0.14337 | i  | 20, 9, 0 |||
213 |          | in       |  0.00000 | -0.09401 | i  | 21, 9, 0 |||
214 |          | in       |  0.00000 | -0.06185 | i  | 22, 9, 0 |||
215 |          | in       |  0.00000 |  0.04154 | i  | 23, 9, 0 |||
216 |          | in       |  0.00000 |  0.02850 | i  | 24, 9, 0 |||
217 |          | in       |  0.00000 |  0.04587 | i  |  1,10, 0 |||
218 |          | in       |  0.00000 |  0.03764 | i  |  2,10, 0 |||
219 |          | in       |  0.00000 | -0.03842 | i  |  3,10, 0 |||
220 |          | in       |  0.00000 | -0.06052 | i  |  4,10, 0 |||
221 |          | in       |  0.00000 |  0.01075 | i  |  5,10, 0 |||
222 |          | in       |  0.00000 | -0.19214 | i  |  6,10, 0 |||
223 |          | in       |  0.00000 | -0.04182 | i  |  7,10, 0 |||
224 |          | in       |  0.00000 |  0.75018 | i  |  8,10, 0 |||
225 |          | in       |  0.00000 |  0.07693 | i  |  9,10, 0 |||
226 |          | in       |  0.00000 |  0.09953 | i  | 10,10, 0 |||
227 |          | in       |  1.00000 |  0.13608 | i  | 11,10, 0 |||
228 |          | in       |  1.00000 | -0.03641 | i  | 12,10, 0 |||
229 |          | in       |  1.00000 | -0.07192 | i  | 13,10, 0 |||
230 |          | in       |  1.00000 |  0.07192 | i  | 14,10, 0 |||
231 |          | in       |  1.00000 | -0.02253 | i  | 15,10, 0 |||
232 |          | in       |  1.00000 | -0.55696 | i  | 16,10, 0 |||
233 |          | in       |  0.00000 | -0.20098 | i  | 17,10, 0 |||
234 |          | in       |  0.00000 | -0.12174 | i  | 18,10, 0 |||
235 |          | in       |  0.00000 |  0.08091 | i  | 19,10, 0 |||
236 |          | in       |  0.00000 |  0.07111 | i  | 20,10, 0 |||
237 |          | in       |  0.00000 |  0.08985 | i  | 21,10, 0 |||
238 |          | in       |  0.00000 |  0.10568 | i  | 22,10, 0 |||
239 |          | in       |  0.00000 |  0.11460 | i  | 23,10, 0 |||
240 |          | in       |  0.00000 |  0.03518 | i  | 24,10, 0 |||
241 |          | in       |  0.00000 |  0.04332 | i  |  1,11, 0 |||
242 |          | in       |  0.00000 | -0.02689 | i  |  2,11, 0 |||
243 |          | in       |  0.00000 |  0.05089 | i  |  3,11, 0 |||
244 |          | in       |  0.00000 |  0.07285 | i  |  4,11, 0 |||
245 |          | in       |  0.00000 |  0.12657 | i  |  5,11, 0 |||
246 |          | in       |  0.00000 | -0.21123 | i  |  6,11, 0 |||
247 |          | in       |  0.00000 | -0.06279 | i  |  7,11, 0 |||
248 |          | in       |  0.00000 |  0.63606 | i  |  8,11, 0 |||
249 |          | in       |  0.00000 |  0.00284 | i  |  9,11, 0 |||
250 |          | in       |  0.00000 |  0.03794 | i  | 10,11, 0 |||
251 |          | in       |  1.00000 | -0.03057 | i  | 11,11, 0 |||
252 |          | in       |  1.00000 | -0.10162 | i  | 12,11, 0 |||
253 |          | in       |  1.00000 |  0.03995 | i  | 13,11, 0 |||
254 |          | in       |  1.00000 | -0.06534 | i  | 14,11, 0 |||
255 |          | in       |  0.00000 |  0.04544 | i  | 15,11, 0 |||
256 |          | in       |  0.00000 | -0.14397 | i  | 16,11, 0 |||
257 |          | in       |  0.00000 | -0.11657 | i  | 17,11, 0 |||
258 |          | in       |  0.00000 |  0.04149 | i  | 18,11, 0 |||
259 |          | in       |  0.00000 |  0.03836 | i  | 19,11, 0 |||
260 |          | in       |  0.00000 | -0.05263 | i  | 20,11, 0 |||
261 |          | in       |  0.00000 |  0.06643 | i  | 21,11, 0 |||
262 |          | in       |  0.00000 |  0.04469 | i  | 22,11, 0 |||
263 |          | in       |  0.00000 |  0.04943 | i  | 23,11, 0 |||
264 |          | in       |  0.00000 | -0.04035 | i  | 24,11, 0 |||
265 |          | in       |  0.00000 |  0.01145 | i  |  1,12, 0 |||
266 |          | in       |  0.00000 | -0.01703 | i  |  2,12, 0 |||
267 |          | in       |  0.00000 | -0.07597 | i  |  3,12, 0 |||
268 |          | in       |  0.00000 | -0.04834 | i  |  4,12, 0 |||
269 |          | in       |  0.00000 |  0.05304 | i  |  5,12, 0 |||
270 |          | in       |  0.00000 | -0.20580 | i  |  6,12, 0 |||
271 |          | in       |  0.00000 | -0.07608 | i  |  7,12, 0 |||
272 |          | in       |  0.00000 |  0.48265 | i  |  8,12, 0 |||
273 |          | in       |  0.00000 |  0.00784 | i  |  9,12, 0 |||
274 |          | in       |  0.00000 |  0.06961 | i  | 10,12, 0 |||
275 |          | in       |  1.00000 | -0.05726 | i  | 11,12, 0 |||
276 |          | in       |  1.00000 | -0.31024 | i  | 12,12, 0 |||
277 |          | in       |  1.00000 |  0.04373 | i  | 13,12, 0 |||
278 |          | in       |  1.00000 | -0.03134 | i  | 14,12, 0 |||
279 |          | in       |  0.00000 |  0.09874 | i  | 15,12, 0 |||
280 |          | in       |  0.00000 | -0.39291 | i  | 16,12, 0 |||
281 |          | in       |  0.00000 | -0.77839 | i  | 17,12, 0 |||
282 |          | in       |  0.00000 |  0.02603 | i  | 18,12, 0 |||
283 |          | in       |  0.00000 | -0.06890 | i  | 19,12, 0 |||
284 |          | in       |  0.00000 |  0.01894 | i  | 20,12, 0 |||
285 |          | in       |  0.00000 |  0.04518 | i  | 21,12, 0 |||
286 |          | in       |  0.00000 |  0.04167 | i  | 22,12, 0 |||
287 |          | in       |  0.00000 |  0.05254 | i  | 23,12, 0 |||
288 |          | in       |  0.00000 |  0.01539 | i  | 24,12, 0 |||
289 |          | in       |  0.00000 | -0.01386 | i  |  1,13, 0 |||
290 |          | in       |  0.00000 | -0.09171 | i  |  2,13, 0 |||
291 |          | in       |  0.00000 |  0.02806 | i  |  3,13, 0 |||
292 |          | in       |  0.00000 |  0.04115 | i  |  4,13, 0 |||
293 |          | in       |  0.00000 | -0.02994 | i  |  5,13, 0 |||
294 |          | in       |  0.00000 | -0.24787 | i  |  6,13, 0 |||
295 |          | in       |  0.00000 | -0.29400 | i  |  7,13, 0 |||
296 |          | in       |  0.00000 |  0.04653 | i  |  8,13, 0 |||
297 |          | in       |  1.00000 | -0.27107 | i  |  9,13, 0 |||
298 |          | in       |  1.00000 | -0.19507 | i  | 10,13, 0 |||
299 |          | in       |  1.00000 | -0.30072 | i  | 11,13, 0 |||
300 |          | in       |  1.00000 | -0.16175 | i  | 12,13, 0 |||
301 |          | in       |  1.00000 |  0.03690 | i  | 13,13, 0 |||
302 |          | in       |  1.00000 |  0.04888 | i  | 14,13, 0 |||
303 |          | in       |  0.00000 |  0.03537 | i  | 15,13, 0 |||
304 |          | in       |  0.00000 | -0.32228 | i  | 16,13, 0 |||
305 |          | in       |  0.00000 | -0.90817 | i  | 17,13, 0 |||
306 |          | in       |  0.00000 |  0.14386 | i  | 18,13, 0 |||
307 |          | in       |  0.00000 | -0.12345 | i  | 19,13, 0 |||
308 |          | in       |  0.00000 | -0.19135 | i  | 20,13, 0 |||
309 |          | in       |  0.00000 |  0.09364 | i  | 21,13, 0 |||
310 |          | in       |  0.00000 |  0.09682 | i  | 22,13, 0 |||
311 |          | in       |  0.00000 |  0.08028 | i  | 23,13, 0 |||
312 |          | in       |  0.00000 | -0.07174 | i  | 24,13, 0 |||
313 |          | in       |  0.00000 |  0.01181 | i  |  1,14, 0 |||
314 |          | in       |  0.00000 |  0.05137 | i  |  2,14, 0 |||
315 |          | in       |  0.00000 |  0.00194 | i  |  3,14, 0 |||
316 |          | in       |  0.00000 | -0.00917 | i  |  4,14, 0 |||
317 |          | in       |  0.00000 |  0.09351 | i  |  5,14, 0 |||
318 |          | in       |  0.00000 | -0.20841 | i  |  6,14, 0 |||
319 |          | in       |  0.00000 |  0.00283 | i  |  7,14, 0 |||
320 |          | in       |  0.00000 |  0.17143 | i  |  8,14, 0 |||
321 |          | in       |  1.00000 |  0.06008 | i  |  9,14, 0 |||
322 |          | in       |  1.00000 |  0.04159 | i  | 10,14, 0 |||
323 |          | in       |  1.00000 | -0.01385 | i  | 11,14, 0 |||
324 |          | in       |  1.00000 |  0.08814 | i  | 12,14, 0 |||
325 |          | in       |  1.00000 |  0.00838 | i  | 13,14, 0 |||
326 |          | in       |  1.00000 |  0.01537 | i  | 14,14, 0 |||
327 |          | in       |  0.00000 |  0.00291 | i  | 15,14, 0 |||
328 |          | in       |  0.00000 | -0.06369 | i  | 16,14, 0 |||
329 |          | in       |  0.00000 | -0.85078 | i  | 17,14, 0 |||
330 |          | in       |  0.00000 |  0.09237 | i  | 18,14, 0 |||
331 |          | in       |  0.00000 | -0.04068 | i  | 19,14, 0 |||
332 |          | in       |  0.00000 | -0.01087 | i  | 20,14, 0 |||
333 |          | in       |  0.00000 |  0.02087 | i  | 21,14, 0 |||
334 |          | in       |  0.00000 | -0.01496 | i  | 22,14, 0 |||
335 |          | in       |  0.00000 |  0.01995 | i  | 23,14, 0 |||
336 |          | in       |  0.00000 | -0.01657 | i  | 24,14, 0 |||
337 |          | in       |  0.00000 | -0.01633 | i  |  1,15, 0 |||
338 |          | in       |  0.00000 |  0.08220 | i  |  2,15, 0 |||
339 |          | in       |  0.00000 |  0.09269 | i  |  3,15, 0 |||
340 |          | in       |  0.00000 |  0.01044 | i  |  4,15, 0 |||
341 |          | in       |  0.00000 |  0.07496 | i  |  5,15, 0 |||
342 |          | in       |  0.00000 | -0.22529 | i  |  6,15, 0 |||
343 |          | in       |  0.00000 |  0.37520 | i  |  7,15, 0 |||
344 |          | in       |  0.00000 |  0.59621 | i  |  8,15, 0 |||
345 |          | in       |  1.00000 |  0.29019 | i  |  9,15, 0 |||
346 |          | in       |  1.00000 |  0.19608 | i  | 10,15, 0 |||
347 |          | in       |  1.00000 |  0.16532 | i  | 11,15, 0 |||
348 |          | in       |  1.00000 | -0.37218 | i  | 12,15, 0 |||
349 |          | in       |  0.00000 | -0.59175 | i  | 13,15, 0 |||
350 |          | in       |  0.00000 | -0.75469 | i  | 14,15, 0 |||
351 |          | in       |  0.00000 | -0.51113 | i  | 15,15, 0 |||
352 |          | in       |  0.00000 | -0.22048 | i  | 16,15, 0 |||
353 |          | in       |  0.00000 | -0.84949 | i  | 17,15, 0 |||
354 |          | in       |  0.00000 |  0.24394 | i  | 18,15, 0 |||
355 |          | in       |  0.00000 |  0.10916 | i  | 19,15, 0 |||
356 |          | in       |  0.00000 |  0.18287 | i  | 20,15, 0 |||
357 |          | in       |  0.00000 | -0.01020 | i  | 21,15, 0 |||
358 |          | in       |  0.00000 |  0.06664 | i  | 22,15, 0 |||
359 |          | in       |  0.00000 |  0.03049 | i  | 23,15, 0 |||
360 |          | in       |  0.00000 |  0.05900 | i  | 24,15, 0 |||
361 |          | in       |  0.00000 |  0.02246 | i  |  1,16, 0 |||
362 |          | in       |  0.00000 |  0.00915 | i  |  2,16, 0 |||
363 |          | in       |  0.00000 | -0.01110 | i  |  3,16, 0 |||
364 |          | in       |  0.00000 | -0.01002 | i  |  4,16, 0 |||
365 |          | in       |  0.00000 | -0.00078 | i  |  5,16, 0 |||
366 |          | in       |  0.00000 | -0.37970 | i  |  6,16, 0 |||
367 |          | in       |  0.00000 |  0.00045 | i  |  7,16, 0 |||
368 |          | in       |  0.00000 |  0.38844 | i  |  8,16, 0 |||
369 |          | in       |  1.00000 |  0.00414 | i  |  9,16, 0 |||
370 |          | in       |  1.00000 | -0.01462 | i  | 10,16, 0 |||
371 |          | in       |  1.00000 | -0.00964 | i  | 11,16, 0 |||
372 |          | in       |  1.00000 |  0.22223 | i  | 12,16, 0 |||
373 |          | in       |  0.00000 |  0.12831 | i  | 13,16, 0 |||
374 |          | in       |  0.00000 |  0.00447 | i  | 14,16, 0 |||
375 |          | in       |  0.00000 | -0.00914 | i  | 15,16, 0 |||
376 |          | in       |  0.00000 | -0.13058 | i  | 16,16, 0 |||
377 |          | in       |  0.00000 | -0.38698 | i  | 17,16, 0 |||
378 |          | in       |  0.00000 | -0.02547 | i  | 18,16, 0 |||
379 |          | in       |  0.00000 | -0.02184 | i  | 19,16, 0 |||
380 |          | in       |  0.00000 |  0.03069 | i  | 20,16, 0 |||
381 |          | in       |  0.00000 |  0.04885 | i  | 21,16, 0 |||
382 |          | in       |  0.00000 |  0.01181 | i  | 22,16, 0 |||
383 |          | in       |  0.00000 | -0.00851 | i  | 23,16, 0 |||
384 |          | in       |  0.00000 | -0.00164 | i  | 24,16, 0 |||
385 |          | in       |  0.00000 |  0.04609 | i  |  1,17, 0 |||
386 |          | in       |  0.00000 |  0.08100 | i  |  2,17, 0 |||
387 |          | in       |  0.00000 |  0.03543 | i  |  3,17, 0 |||
388 |          | in       |  0.00000 |  0.03606 | i  |  4,17, 0 |||
389 |          | in       |  0.00000 |  0.05368 | i  |  5,17, 0 |||
390 |          | in       |  0.00000 | -0.42534 | i  |  6,17, 0 |||
391 |          | in       |  1.00000 | -0.17680 | i  |  7,17, 0 |||
392 |          | in       |  1.00000 |  0.14950 | i  |  8,17, 0 |||
393 |          | in       |  1.00000 | -0.02503 | i  |  9,17, 0 |||
394 |          | in       |  1.00000 |  0.00964 | i  | 10,17, 0 |||
395 |          | in       |  1.00000 |  0.05352 | i  | 11,17, 0 |||
396 |          | in       |  1.00000 |  0.07438 | i  | 12,17, 0 |||
397 |          | in       |  0.00000 |  0.15995 | i  | 13,17, 0 |||
398 |          | in       |  0.00000 |  0.01520 | i  | 14,17, 0 |||
399 |          | in       |  0.00000 | -0.10679 | i  | 15,17, 0 |||
400 |          | in       |  0.00000 | -0.21092 | i  | 16,17, 0 |||
401 |          | in       |  0.00000 | -0.43494 | i  | 17,17, 0 |||
402 |          | in       |  0.00000 |  0.03585 | i  | 18,17, 0 |||
403 |          | in       |  0.00000 |  0.04328 | i  | 19,17, 0 |||
404 |          | in       |  0.00000 |  0.18495 | i  | 20,17, 0 |||
405 |          | in       |  0.00000 |  0.08301 | i  | 21,17, 0 |||
406 |          | in       |  0.00000 |  0.04243 | i  | 22,17, 0 |||
407 |          | in       |  0.00000 | -0.02350 | i  | 23,17, 0 |||
408 |          | in       |  0.00000 | -0.01822 | i  | 24,17, 0 |||
409 |          | in       |  0.00000 |  0.06022 | i  |  1,18, 0 |||
410 |          | in       |  0.00000 |  0.07801 | i  |  2,18, 0 |||
411 |          | in       |  0.00000 |  0.01340 | i  |  3,18, 0 |||
412 |          | in       |  0.00000 |  0.01175 | i  |  4,18, 0 |||
413 |          | in       |  0.00000 |  0.03441 | i  |  5,18, 0 |||
414 |          | in       |  0.00000 | -0.38996 | i  |  6,18, 0 |||
415 |          | in       |  1.00000 | -0.00520 | i  |  7,18, 0 |||
416 |          | in       |  1.00000 |  0.14136 | i  |  8,18, 0 |||
417 |          | in       |  1.00000 |  0.01510 | i  |  9,18, 0 |||
418 |          | in       |  1.00000 |  0.05615 | i  | 10,18, 0 |||
419 |          | in       |  1.00000 |  0.00656 | i  | 11,18, 0 |||
420 |          | in       |  1.00000 |  0.20023 | i  | 12,18, 0 |||
421 |          | in       |  0.00000 |  0.15547 | i  | 13,18, 0 |||
422 |          | in       |  0.00000 |  0.04103 | i  | 14,18, 0 |||
423 |          | in       |  0.00000 |  0.02040 | i  | 15,18, 0 |||
424 |          | in       |  0.00000 | -0.15568 | i  | 16,18, 0 |||
425 |          | in       |  0.00000 | -0.40907 | i  | 17,18, 0 |||
426 |          | in       |  0.00000 | -0.02083 | i  | 18,18, 0 |||
427 |          | in       |  0.00000 |  0.00886 | i  | 19,18, 0 |||
428 |          | in       |  0.00000 |  0.20775 | i  | 20,18, 0 |||
429 |          | in       |  0.00000 |  0.04439 | i  | 21,18, 0 |||
430 |          | in       |  0.00000 |  0.02382 | i  | 22,18, 0 |||
431 |          | in       |  0.00000 | -0.01456 | i  | 23,18, 0 |||
432 |          | in       |  0.00000 |  0.02335 | i  | 24,18, 0 |||
433 |          | in       |  0.00000 |  0.04992 | i  |  1,19, 0 |||
434 |          | in       |  0.00000 |  0.06016 | i  |  2,19, 0 |||
435 |          | in       |  0.00000 |  0.04359 | i  |  3,19, 0 |||
436 |          | in       |  0.00000 |  0.06771 | i  |  4,19, 0 |||
437 |          | in       |  0.00000 |  0.02036 | i  |  5,19, 0 |||
438 |          | in       |  0.00000 | -0.30248 | i  |  6,19, 0 |||
439 |          | in       |  1.00000 |  0.07071 | i  |  7,19, 0 |||
440 |          | in       |  1.00000 | -0.06794 | i  |  8,19, 0 |||
441 |          | in       |  1.00000 | -0.02240 | i  |  9,19, 0 |||
442 |          | in       |  1.00000 |  0.00987 | i  | 10,19, 0 |||
443 |          | in       |  0.00000 |  0.02375 | i  | 11,19, 0 |||
444 |          | in       |  0.00000 |  0.06300 | i  | 12,19, 0 |||
445 |          | in       |  0.00000 |  0.07920 | i  | 13,19, 0 |||
446 |          | in       |  0.00000 |  0.03468 | i  | 14,19, 0 |||
447 |          | in       |  0.00000 | -0.05092 | i  | 15,19, 0 |||
448 |          | in       |  0.00000 |  0.05189 | i  | 16,19, 0 |||
449 |          | in       |  0.00000 | -0.21359 | i  | 17,19, 0 |||
450 |          | in       |  0.00000 |  0.01467 | i  | 18,19, 0 |||
451 |          | in       |  1.00000 |  0.07207 | i  | 19,19, 0 |||
452 |          | in       |  1.00000 |  0.15370 | i  | 20,19, 0 |||
453 |          | in       |  0.00000 | -0.00338 | i  | 21,19, 0 |||
454 |          | in       |  0.00000 | -0.03141 | i  | 22,19, 0 |||
455 |          | in       |  0.00000 |  0.03741 | i  | 23,19, 0 |||
456 |          | in       |  0.00000 | -0.05609 | i  | 24,19, 0 |||
457 |          | in       |  0.00000 |  0.00912 | i  |  1,20, 0 |||
458 |          | in       |  0.00000 | -0.06566 | i  |  2,20, 0 |||
459 |          | in       |  0.00000 | -0.01195 | i  |  3,20, 0 |||
460 |          | in       |  0.00000 |  0.00194 | i  |  4,20, 0 |||
461 |          | in       |  0.00000 | -0.02088 | i  |  5,20, 0 |||
462 |          | in       |  0.00000 | -0.03165 | i  |  6,20, 0 |||
463 |          | in       |  1.00000 |  0.04008 | i  |  7,20, 0 |||
464 |          | in       |  1.00000 |  0.09057 | i  |  8,20, 0 |||
465 |          | in       |  1.00000 |  0.20689 | i  |  9,20, 0 |||
466 |          | in       |  1.00000 |  0.03381 | i  | 10,20, 0 |||
467 |          | in       |  0.00000 | -0.01849 | i  | 11,20, 0 |||
468 |          | in       |  0.00000 | -0.08265 | i  | 12,20, 0 |||
469 |          | in       |  0.00000 | -0.18557 | i  | 13,20, 0 |||
470 |          | in       |  0.00000 | -0.33221 | i  | 14,20, 0 |||
471 |          | in       |  0.00000 | -0.39211 | i  | 15,20, 0 |||
472 |          | in       |  0.00000 | -0.43757 | i  | 16,20, 0 |||
473 |          | in       |  0.00000 | -0.21164 | i  | 17,20, 0 |||
474 |          | in       |  0.00000 | -0.06000 | i  | 18,20, 0 |||
475 |          | in       |  1.00000 |  0.13399 | i  | 19,20, 0 |||
476 |          | in       |  1.00000 |  0.10295 | i  | 20,20, 0 |||
477 |          | in       |  0.00000 |  0.05219 | i  | 21,20, 0 |||
478 |          | in       |  0.00000 |  0.03614 | i  | 22,20, 0 |||
479 |          | in       |  0.00000 |  0.02213 | i  | 23,20, 0 |||
480 |          | in       |  0.00000 | -0.04747 | i  | 24,20, 0 |||
481 |          | in       |  0.00000 |  0.02131 | i  |  1,21, 0 |||
482 |          | in       |  0.00000 | -0.00386 | i  |  2,21, 0 |||
483 |          | in       |  0.00000 | -0.00106 | i  |  3,21, 0 |||
484 |          | in       |  1.00000 | -0.01389 | i  |  4,21, 0 |||
485 |          | in       |  1.00000 | -0.08298 | i  |  5,21, 0 |||
486 |          | in       |  1.00000 | -0.41503 | i  |  6,21, 0 |||
487 |          | in       |  1.00000 |  0.06197 | i  |  7,21, 0 |||
488 |          | in       |  1.00000 | -0.65662 | i  |  8,21, 0 |||
489 |          | in       |  0.00000 |  0.14005 | i  |  9,21, 0 |||
490 |          | in       |  0.00000 |  0.01445 | i  | 10,21, 0 |||
491 |          | in       |  0.00000 |  0.00495 | i  | 11,21, 0 |||
492 |          | in       |  0.00000 | -0.03880 | i  | 12,21, 0 |||
493 |          | in       |  0.00000 | -0.15883 | i  | 13,21, 0 |||
494 |          | in       |  0.00000 | -0.03382 | i  | 14,21, 0 |||
495 |          | in       |  0.00000 | -0.02431 | i  | 15,21, 0 |||
496 |          | in       |  0.00000 |  0.13673 | i  | 16,21, 0 |||
497 |          | in       |  1.00000 | -0.02567 | i  | 17,21, 0 |||
498 |          | in       |  1.00000 | -0.00413 | i  | 18,21, 0 |||
499 |          | in       |  1.00000 |  0.02241 | i  | 19,21, 0 |||
500 |          | in       |  1.00000 | -0.12769 | i  | 20,21, 0 |||
501 |          | in       |  0.00000 |  0.03559 | i  | 21,21, 0 |||
502 |          | in       |  0.00000 | -0.01346 | i  | 22,21, 0 |||
503 |          | in       |  0.00000 |  0.00939 | i  | 23,21, 0 |||
504 |          | in       |  0.00000 | -0.00007 | i  | 24,21, 0 |||
505 |          | in       |  0.00000 | -0.00193 | i  |  1,22, 0 |||
506 |          | in       |  0.00000 | -0.03808 | i  |  2,22, 0 |||
507 |          | in       |  0.00000 |  0.01620 | i  |  3,22, 0 |||
508 |          | in       |  1.00000 | -0.04533 | i  |  4,22, 0 |||
509 |          | in       |  1.00000 | -0.17811 | i  |  5,22, 0 |||
510 |          | in       |  1.00000 | -0.17461 | i  |  6,22, 0 |||
511 |          | in       |  1.00000 |  0.02852 | i  |  7,22, 0 |||
512 |          | in       |  1.00000 | -0.57303 | i  |  8,22, 0 |||
513 |          | in       |  0.00000 |  0.22178 | i  |  9,22, 0 |||
514 |          | in       |  0.00000 |  0.15933 | i  | 10,22, 0 |||
515 |          | in       |  0.00000 |  0.10289 | i  | 11,22, 0 |||
516 |          | in       |  0.00000 | -0.01451 | i  | 12,22, 0 |||
517 |          | in       |  0.00000 | -0.03229 | i  | 13,22, 0 |||
518 |          | in       |  0.00000 |  0.04471 | i  | 14,22, 0 |||
519 |          | in       |  0.00000 |  0.02231 | i  | 15,22, 0 |||
520 |          | in       |  0.00000 |  0.15920 | i  | 16,22, 0 |||
521 |          | in       |  1.00000 | -0.19577 | i  | 17,22, 0 |||
522 |          | in       |  1.00000 |  0.00421 | i  | 18,22, 0 |||
523 |          | in       |  1.00000 |  0.03881 | i  | 19,22, 0 |||
524 |          | in       |  1.00000 | -0.14818 | i  | 20,22, 0 |||
525 |          | in       |  0.00000 |  0.00447 | i  | 21,22, 0 |||
526 |          | in       |  0.00000 | -0.00024 | i  | 22,22, 0 |||
527 |          | in       |  0.00000 |  0.04337 | i  | 23,22, 0 |||
528 |          | in       |  0.00000 |  0.04704 | i  | 24,22, 0 |||
529 |          | in       |  0.00000 | -0.01623 | i  |  1,23, 0 |||
530 |          | in       |  0.00000 | -0.02169 | i  |  2,23, 0 |||
531 |          | in       |  0.00000 | -0.00557 | i  |  3,23, 0 |||
532 |          | in       |  1.00000 | -0.00207 | i  |  4,23, 0 |||
533 |          | in       |  1.00000 | -0.20932 | i  |  5,23, 0 |||
534 |          | in       |  1.00000 | -0.00351 | i  |  6,23, 0 |||
535 |          | in       |  1.00000 | -0.00127 | i  |  7,23, 0 |||
536 |          | in       |  1.00000 | -0.35139 | i  |  8,23, 0 |||
537 |          | in       |  1.00000 |  0.03850 | i  |  9,23, 0 |||
538 |          | in       |  1.00000 |  0.20453 | i  | 10,23, 0 |||
539 |          | in       |  1.00000 | -0.00519 | i  | 11,23, 0 |||
540 |          | in       |  1.00000 | -0.04716 | i  | 12,23, 0 |||
541 |          | in       |  1.00000 |  0.00874 | i  | 13,23, 0 |||
542 |          | in       |  1.00000 |  0.02416 | i  | 14,23, 0 |||
543 |          | in       |  1.00000 | -0.00067 | i  | 15,23, 0 |||
544 |          | in       |  1.00000 | -0.14552 | i  | 16,23, 0 |||
545 |          | in       |  1.00000 | -0.04169 | i  | 17,23, 0 |||
546 |          | in       |  1.00000 |  0.07414 | i  | 18,23, 0 |||
547 |          | in       |  1.00000 |  0.01036 | i  | 19,23, 0 |||
548 |          | in       |  1.00000 | -0.33282 | i  | 20,23, 0 |||
549 |          | in       |  0.00000 |  0.00779 | i  | 21,23, 0 |||
550 |          | in       |  0.00000 | -0.00198 | i  | 22,23, 0 |||
551 |          | in       |  0.00000 | -0.00673 | i  | 23,23, 0 |||
552 |          | in       |  0.00000 |  0.00704 | i  | 24,23, 0 |||
553 |          | in       |  0.00000 |  0.14614 | i  |  1,24, 0 |||
554 |          | in       |  0.00000 |  0.11425 | i  |  2,24, 0 |||
555 |          | in       |  0.00000 |  0.09597 | i  |  3,24, 0 |||
556 |          | in       |  1.00000 |  0.05459 | i  |  4,24, 0 |||
557 |          | in       |  1.00000 | -0.34084 | i  |  5,24, 0 |||
558 |          | in       |  1.00000 |  0.59935 | i  |  6,24, 0 |||
559 |          | in       |  1.00000 | -0.11756 | i  |  7,24, 0 |||
560 |          | in       |  1.00000 | -0.33041 | i  |  8,24, 0 |||
561 |          | in       |  1.00000 | -0.30016 | i  |  9,24, 0 |||
562 |          | in       |  1.00000 | -0.16174 | i  | 10,24, 0 |||
563 |          | in       |  1.00000 | -0.16672 | i  | 11,24, 0 |||
564 |          | in       |  1.00000 | -0.01071 | i  | 12,24, 0 |||
565 |          | in       |  1.00000 | -0.05945 | i  | 13,24, 0 |||
566 |          | in       |  1.00000 | -0.15771 | i  | 14,24, 0 |||
567 |          | in       |  1.00000 | -0.09036 | i  | 15,24, 0 |||
568 |          | in       |  1.00000 | -0.42638 | i  | 16,24, 0 |||
569 |          | in       |  1.00000 |  0.28374 | i  | 17,24, 0 |||
570 |          | in       |  1.00000 |  0.14629 | i  | 18,24, 0 |||
571 |          | in       |  1.00000 |  0.17737 | i  | 19,24, 0 |||
572 |          | in       |  1.00000 | -0.12110 | i  | 20,24, 0 |||
573 |          | in       |  0.00000 |  0.13497 | i  | 21,24, 0 |||
574 |          | in       |  0.00000 |  0.10015 | i  | 22,24, 0 |||
575 |          | in       |  0.00000 |  0.12957 | i  | 23,24, 0 |||
576 |          | in       |  0.00000 |  0.12958 | i  | 24,24, 0 |||
577 |          | h1       |  0.95448 |  0.37245 | h  | 27, 1, 0 |||
578 |          | h1       |  0.95862 |  1.44511 | h  | 28, 1, 0 |||
579 |          | h1       |  0.00000 | -0.27605 | h  | 29, 1, 0 |||
580 |          | h1       |  1.00000 | -0.27407 | h  | 30, 1, 0 |||
581 |          | h1       |  0.00417 | -2.57757 | h  | 27, 2, 0 |||
582 |          | h1       |  0.00000 |  3.31113 | h  | 28, 2, 0 |||
583 |          | h1       |  0.00000 | -0.68201 | h  | 29, 2, 0 |||
584 |          | h1       |  0.99954 |  1.16922 | h  | 30, 2, 0 |||
585 |          | h1       |  1.00000 |  0.75146 | h  | 27, 3, 0 |||
586 |          | h1       |  0.08206 |  1.01233 | h  | 28, 3, 0 |||
587 |          | h1       |  0.01614 |  0.37768 | h  | 29, 3, 0 |||
588 |          | h1       |  0.99220 | -0.48801 | h  | 30, 3, 0 |||
589 |          | h1       |  0.00002 |  1.47125 | h  | 27, 4, 0 |||
590 |          | h1       |  0.99999 |  0.11013 | h  | 28, 4, 0 |||
591 |          | h1       |  0.88493 |  1.50425 | h  | 29, 4, 0 |||
592 |          | h1       |  0.19557 | -0.25238 | h  | 30, 4, 0 |||
593 |          | h1       |  1.00000 | -1.86792 | h  | 27, 5, 0 |||
594 |          | h1       |  0.99120 |  0.51648 | h  | 28, 5, 0 |||
595 |          | h1       |  0.89122 |  0.49968 | h  | 29, 5, 0 |||
596 |          | h1       |  0.99998 |  1.36268 | h  | 30, 5, 0 |||
597 |          | h1       |  0.75398 |  0.59098 | h  | 27, 6, 0 |||
598 |          | h1       |  0.01766 |  0.80717 | h  | 28, 6, 0 |||
599 |          | h1       |  0.00000 | -0.08898 | h  | 29, 6, 0 |||
600 |          | h1       |  0.00000 |  0.13227 | h  | 30, 6, 0 |||
601 |          | h2       |  0.77718 |  1.24641 | h  | 27,10, 0 |||
602 |          | h2       |  0.83533 |  1.62226 | h  | 28,10, 0 |||
603 |          | h2       |  0.44642 | -0.21352 | h  | 29,10, 0 |||
604 |          | h2       |  1.00000 | -1.25057 | h  | 30,10, 0 |||
605 |          | h2       |  0.98914 | -1.50365 | h  | 27,11, 0 |||
606 |          | h2       |  0.94806 | -0.58866 | h  | 28,11, 0 |||
607 |          | h2       |  0.99996 |  0.67059 | h  | 29,11, 0 |||
608 |          | h2       |  0.00000 |  0.60193 | h  | 30,11, 0 |||
609 |          | h2       |  0.09482 | -1.40947 | h  | 27,12, 0 |||
610 |          | h2       |  1.00000 |  1.21912 | h  | 28,12, 0 |||
611 |          | h2       |  0.00000 | -0.59020 | h  | 29,12, 0 |||
612 |          | h2       |  0.00753 | -0.89002 | h  | 30,12, 0 |||
613 |          | h2       |  0.99997 |  0.57848 | h  | 27,13, 0 |||
614 |          | h2       |  1.00000 | -0.02362 | h  | 28,13, 0 |||
615 |          | h2       |  0.99965 |  0.66407 | h  | 29,13, 0 |||
616 |          | h2       |  1.00000 | -1.27512 | h  | 30,13, 0 |||
617 |          | h2       |  0.92949 | -1.91183 | h  | 27,14, 0 |||
618 |          | h2       |  0.00041 | -0.56276 | h  | 28,14, 0 |||
619 |          | h2       |  0.00000 | -1.49341 | h  | 29,14, 0 |||
620 |          | h2       |  1.00000 | -1.19771 | h  | 30,14, 0 |||
621 |          | h2       |  0.83286 |  1.60396 | h  | 27,15, 0 |||
622 |          | h2       |  0.28387 | -0.92617 | h  | 28,15, 0 |||
623 |          | h2       |  0.80003 |  1.38353 | h  | 29,15, 0 |||
624 |          | h2       |  0.84178 |  1.66953 | h  | 30,15, 0 |||
625 |          | s0       |  0.00000 | -0.27540 | o  | 33, 1, 0 |||
626 |          | s1       |  0.00000 | -0.28602 | o  | 34, 1, 0 |||
627 |          | s2       |  0.00000 | -0.24238 | o  | 35, 1, 0 |||
628 |          | s3       |  0.00051 | -0.21652 | o  | 36, 1, 0 |||
629 |          | s4       |  0.00050 | -0.15787 | o  | 37, 1, 0 |||
630 |          | s5       |  0.00000 | -0.31438 | o  | 33, 2, 0 |||
631 |          | s6       |  0.00000 | -0.23140 | o  | 34, 2, 0 |||
632 |          | s7       |  0.00062 | -0.11593 | o  | 35, 2, 0 |||
633 |          | s8       |  0.00161 | -0.13558 | o  | 36, 2, 0 |||
634 |          | s9       |  0.00000 | -0.18361 | o  | 37, 2, 0 |||
635 |          | s:       |  0.00000 |  0.09397 | o  | 33, 3, 0 |||
636 |          | s;       |  0.00000 |  0.03400 | o  | 34, 3, 0 |||
637 |          | s<       |  0.00008 | -0.22637 | o  | 35, 3, 0 |||
638 |          | s=       |  0.00014 | -0.18065 | o  | 36, 3, 0 |||
639 |          | s>       |  0.00140 | -0.23320 | o  | 37, 3, 0 |||
640 |          | s?       |  0.00001 | -0.05257 | o  | 33, 4, 0 |||
641 |          | s@       |  0.00001 | -0.19276 | o  | 34, 4, 0 |||
642 |          | A        |  0.00021 | -0.28405 | o  | 35, 4, 0 |||
643 |          | B        |  0.00019 | -0.52866 | o  | 36, 4, 0 |||
644 |          | C        |  0.00000 | -0.28650 | o  | 37, 4, 0 |||
645 |          | D        |  0.00001 | -0.25368 | o  | 33, 5, 0 |||
646 |          | E        |  0.00025 | -0.53388 | o  | 34, 5, 0 |||
647 |          | F        |  0.00000 | -0.41305 | o  | 35, 5, 0 |||
648 |          | G        |  0.00000 | -0.21448 | o  | 36, 5, 0 |||
649 |          | H        |  0.00000 | -0.32489 | o  | 37, 5, 0 |||
650 |          | I        |  0.00000 | -0.42801 | o  | 33, 6, 0 |||
651 |          | J        |  0.00286 | -0.23990 | o  | 34, 6, 0 |||
652 |          | K        |  0.00002 | -0.41251 | o  | 35, 6, 0 |||
653 |          | L        |  0.00001 | -0.21714 | o  | 36, 6, 0 |||
654 |          | M        |  0.00001 | -0.08130 | o  | 37, 6, 0 |||
655 |          | N        |  0.00000 | -0.18869 | o  | 33, 7, 0 |||
656 |          | O        |  0.00022 |  0.12978 | o  | 34, 7, 0 |||
657 |          | P        |  0.00000 | -0.26756 | o  | 35, 7, 0 |||
658 |          | Q        |  0.00000 | -0.22664 | o  | 36, 7, 0 |||
659 |          | R        |  0.00000 | -0.35791 | o  | 37, 7, 0 |||
660 |          | S        |  0.00002 | -0.37563 | o  | 33, 8, 0 |||
661 |          | T        |  0.00000 | -0.19110 | o  | 34, 8, 0 |||
662 |          | U        |  0.00008 | -0.20038 | o  | 35, 8, 0 |||
663 |          | V        |  0.00020 | -0.45429 | o  | 36, 8, 0 |||
664 |          | W        |  0.00000 | -0.27336 | o  | 37, 8, 0 |||
665 |          | X        |  0.00000 | -0.29366 | o  | 33, 9, 0 |||
666 |          | Y        |  0.00056 | -0.20075 | o  | 34, 9, 0 |||
667 |          | Z        |  0.02493 | -0.44465 | o  | 35, 9, 0 |||
668 |          | s[       |  0.00000 | -0.10258 | o  | 36, 9, 0 |||
669 |          | s\       |  0.00000 | -0.05156 | o  | 37, 9, 0 |||
670 |          | s]       |  0.00000 | -0.05851 | o  | 33,10, 0 |||
671 |          | s^       |  0.00000 | -0.11698 | o  | 34,10, 0 |||
672 |          | s-       |  0.00001 | -0.23841 | o  | 35,10, 0 |||
673 |          | s`       |  0.00019 | -0.52263 | o  | 36,10, 0 |||
674 |          | a        |  0.00000 | -0.46580 | o  | 37,10, 0 |||
675 |          | b        |  0.00000 | -0.35300 | o  | 33,11, 0 |||
676 |          | c        |  0.00134 | -0.11364 | o  | 34,11, 0 |||
677 |          | d        |  0.00893 | -0.14351 | o  | 35,11, 0 |||
678 |          | e        |  0.00000 | -0.24192 | o  | 36,11, 0 |||
679 |          | f        |  0.00003 | -0.15103 | o  | 37,11, 0 |||
680 |          | g        |  0.00021 | -0.33164 | o  | 33,12, 0 |||
681 |          | h        |  0.00002 | -0.36386 | o  | 34,12, 0 |||
682 |          | i        |  0.00000 |  0.06846 | o  | 35,12, 0 |||
683 |          | j        |  0.00052 | -0.03879 | o  | 36,12, 0 |||
684 |          | k        |  0.00000 | -0.17410 | o  | 37,12, 0 |||
685 |          | l        |  0.00001 | -0.06472 | o  | 33,13, 0 |||
686 |          | m        |  0.00000 | -0.20244 | o  | 34,13, 0 |||
687 |          | n        |  0.00000 | -0.33511 | o  | 35,13, 0 |||
688 |          | o        |  0.00000 | -0.23330 | o  | 36,13, 0 |||
689 |          | p        |  0.00000 | -0.39924 | o  | 37,13, 0 |||
690 |          | q        |  0.00001 | -0.28100 | o  | 33,14, 0 |||
691 |          | r        |  0.00001 | -0.40093 | o  | 34,14, 0 |||
692 |          | s        |  0.00007 | -0.06835 | o  | 35,14, 0 |||
693 |          | t        |  0.00000 | -0.29345 | o  | 36,14, 0 |||
694 |          | u        |  0.00001 | -0.24904 | o  | 37,14, 0 |||
695 |          | v        |  0.00007 | -0.28538 | o  | 33,15, 0 |||
696 |          | w        |  0.00005 | -0.07229 | o  | 34,15, 0 |||
697 |          | x        |  0.00797 | -0.31931 | o  | 35,15, 0 |||
698 |          | y        |  0.00000 | -0.10815 | o  | 36,15, 0 |||
699 |          | z        |  0.89079 | -0.17768 | o  | 37,15, 0 |||
----|----------|----------|----------|----------|----|----------|----------|----------|-------


connection definition section :

target | site | source:weight
-------|------|----------------------------------------------------------------------------------------------------------------
   577 |      |  24: 1.22116,  23: 6.24615,  22: 7.13234,  21: 9.45952,  20:10.93069,  19: 8.86662,  18:10.56469,  17: 6.19431,
                 16:-1.68281,  15:-2.29885,  14:-8.39634,  13:-8.41352,  12:-10.04778,  11:-8.93550,  10:-4.06229,   9:-7.66541,
                  8: 1.10505,   7: 2.61588,   6: 3.73648,   5: 2.81834,   4: 7.35650,   3: 4.85463,   2: 2.68353,   1: 1.88365
   578 |      |  48:-1.72790,  47:-2.30971,  46:-0.99309,  45: 0.79982,  44: 0.33135,  43: 1.39934,  42: 0.80389,  41: 0.62313,
                 40:-1.04120,  39:-1.13665,  38: 1.10333,  37:-0.28768,  36: 1.97337,  35:-0.82945,  34:-0.17979,  33: 1.52331,
                 32: 0.08040,  31:-0.48436,  30:-0.53138,  29:-1.36808,  28:-0.28115,  27:-0.05192,  26:-2.10350,  25:-0.88267
   579 |      |  72: 1.40223,  71: 3.00228,  70: 0.83104,  69:-4.91063,  68:-4.33027,  67:-3.67861,  66:-2.69004,  65: 3.13242,
                 64: 2.05132,  63: 7.28542,  62: 6.87265,  61: 7.06234,  60: 6.83000,  59: 0.70242,  58: 1.87335,  57: 0.19178,
                 56:-3.38687,  55:-7.60924,  54:-5.97352,  53:-5.19851,  52: 0.45423,  51: 2.14638,  50: 1.87776,  49: 1.65109
   580 |      |  96: 0.14168,  95: 1.21374,  94:-0.94126,  93:-1.72577,  92: 0.14754,  91: 2.22225,  90: 3.94775,  89: 2.59680,
                 88: 2.16766,  87: 1.81007,  86:-0.53583,  85: 0.72978,  84:-0.41313,  83: 1.02018,  82:-2.12251,  81:-2.78055,
                 80: 0.25449,  79: 2.12975,  78: 2.81366,  77: 1.08863,  76:-0.44025,  75:-1.05282,  74: 0.67159,  73: 1.03297
   581 |      | 120:-1.40429, 119:-0.19607, 118: 2.80535, 117:-1.88342, 116:-1.25064, 115:-1.48404, 114: 4.74666, 113: 1.70193,
                112:-3.56510, 111:-0.46226, 110:-2.20860, 109:-1.36934, 108:-0.86040, 107: 3.96017, 106: 9.51907, 105:12.86846,
                104: 9.54493, 103: 6.43436, 102:-2.54523, 101:-2.59225, 100:-0.18450,  99: 2.20286,  98: 0.78760,  97:-0.67163
   582 |      | 144: 0.58458, 143: 0.55661, 142:-2.52593, 141:-2.40558, 140: 0.70844, 139:-3.13343, 138: 0.49370, 137: 2.01774,
                136:-4.57899, 135:-12.94037, 134:-13.27588, 133:-11.03256, 132:-2.81470, 131:-1.17589, 130:-1.18336, 129: 1.50188,
                128:-0.86693, 127:-0.25539, 126: 0.23188, 125: 0.13397, 124:-2.84576, 123:-1.64715, 122:-0.55339, 121: 0.32931
   583 |      | 168: 1.07740, 167: 2.50653, 166: 0.27921, 165: 2.55233, 164:-0.75987, 163:-2.68127, 162:-6.14670, 161:-11.80938,
                160:-9.81236, 159:-8.26903, 158: 5.73711, 157: 6.42089, 156: 3.70544, 155: 0.04271, 154: 1.52149, 153: 1.59740,
                152: 1.66759, 151: 1.54746, 150: 2.30930, 149: 8.15725, 148: 6.25632, 147: 2.79386, 146: 1.37038, 145:-0.16834
   584 |      | 192:-0.85116, 191:-1.23863, 190:-2.14318, 189:-4.59228, 188:-2.21333, 187:-2.23732, 186:-1.17879, 185: 0.26058,
                184: 0.88705, 183: 2.63195, 182: 3.30143, 181: 0.59717, 180:-0.18414, 179: 1.45597, 178: 1.43460, 177: 1.97585,
                176: 0.21181, 175:-0.55030, 174:-2.54918, 173: 1.21077, 172:-2.19673, 171: 0.65364, 170: 1.12760, 169: 0.83746
   585 |      | 216: 0.39225, 215:-0.12972, 214:-3.35124, 213:-4.88648, 212:-5.07566, 211:-2.43379, 210: 0.04938, 209: 5.16346,
                208: 2.83171, 207:-0.05614, 206: 2.35218, 205: 3.55059, 204: 3.26892, 203: 3.45211, 202: 1.25618, 201: 1.44437,
                200: 0.69144, 199:-1.42475, 198:-3.61422, 197:-3.84345, 196:-4.77434, 195:-2.73357, 194: 0.42518, 193: 0.31330
   586 |      | 240: 1.19730, 239: 2.89382, 238: 3.53859, 237: 2.04265, 236: 2.71016, 235: 3.77444, 234:-4.21050, 233:-8.51907,
                232:-4.17536, 231:-1.07506, 230: 1.62462, 229:-4.56028, 228:-0.61642, 227: 5.35932, 226: 6.03273, 225: 1.95351,
                224: 1.37373, 223:-0.50994, 222: 0.23262, 221:-2.16604, 220:-2.05587, 219:-1.22964, 218: 0.09598, 217: 0.88279
   587 |      | 264:-0.96829, 263: 0.91242, 262: 0.93360, 261: 0.55894, 260: 0.05044, 259: 1.85960, 258: 1.25094, 257: 0.79422,
                256:-0.16957, 255: 1.25450, 254:-1.53587, 253:-1.25648, 252:-1.24109, 251:-0.46031, 250:-1.09192, 249:-0.04279,
                248: 2.73888, 247:-0.81800, 246:-0.32744, 245: 0.59594, 244: 1.89261, 243: 1.42275, 242: 0.54348, 241: 1.28367
   588 |      | 288: 0.02828, 287:-0.46889, 286:-0.85891, 285: 0.12486, 284:-0.35407, 283: 0.56498, 282:-0.92366, 281: 1.47467,
                280: 0.61109, 279:-2.30234, 278: 0.60989, 277: 1.69679, 276: 2.32406, 275: 0.71117, 274:-0.80046, 273:-1.92776,
                272:-0.14814, 271: 1.19415, 270: 2.16411, 269: 0.85160, 268: 0.73034, 267: 1.42770, 266:-0.94076, 265: 0.17196
   589 |      | 312:-1.05257, 311: 0.99455, 310: 1.65531, 309: 0.74956, 308:-1.94543, 307:-1.36166, 306: 2.36553, 305: 0.06798,
                304:-1.93068, 303: 0.42614, 302: 1.02669, 301:-0.82244, 300:-0.68920, 299:-4.77525, 298:-4.33536, 297:-2.80615,
                296:-4.84861, 295:-4.52614, 294:-2.24184, 293:-1.73441, 292: 0.94549, 291: 0.64268, 290:-0.24422, 289:-0.70061
   590 |      | 336: 0.63640, 335:-1.14904, 334:-2.57160, 333:-1.18353, 332:-0.34733, 331:-2.17818, 330: 0.46545, 329: 2.41445,
                328: 3.08772, 327: 0.84469, 326: 2.10828, 325:-0.02125, 324: 1.06377, 323: 0.65502, 322: 3.12500, 321: 4.35388,
                320: 2.34553, 319: 1.78571, 318:-0.19957, 317: 1.16273, 316:-0.11481, 315: 0.73460, 314: 0.42913, 313:-0.10575
   591 |      | 360: 0.85117, 359:-0.13197, 358: 1.17378, 357:-0.60887, 356: 1.85170, 355: 2.30181, 354: 4.28449, 353: 0.40506,
                352:-4.62459, 351:-9.80152, 350:-14.81564, 349:-11.80543, 348:-9.59124, 347: 3.58610, 346: 2.39647, 345: 4.14650,
                344: 3.71113, 343: 6.98433, 342: 1.67180, 341: 0.87319, 340: 0.46659, 339: 1.79538, 338: 0.34909, 337:-0.84842
   592 |      | 384:-0.67846, 383:-0.67525, 382: 0.10214, 381: 1.48398, 380: 0.93274, 379:-3.22744, 378:-1.42166, 377:-3.08999,
                376:-2.33536, 375:-1.38329, 374: 1.04652, 373:-0.44063, 372: 1.44118, 371: 0.93053, 370:-2.89985, 369:-0.63859,
                368: 0.66839, 367: 2.21755, 366:-1.56483, 365: 0.44088, 364:-0.66028, 363:-1.49156, 362: 0.58044, 361:-0.15137
   593 |      | 408: 0.23936, 407: 1.28852, 406:-2.44573, 405:-2.80657, 404:-0.50394, 403:-3.06298, 402:-3.38526, 401:-0.87755,
                400: 6.33890, 399: 7.56251, 398:-1.02749, 397:-1.89984, 396: 2.85737, 395:-4.72907, 394: 0.91233, 393: 4.68264,
                392:11.22972, 391:12.41971, 390: 4.46008, 389:-0.37060, 388:-3.12881, 387:-2.57032, 386:-3.09694, 385:-2.55759
   594 |      | 432:-0.02095, 431: 0.70156, 430: 1.56502, 429: 1.96652, 428: 2.13354, 427: 1.49206, 426:-2.04115, 425:-0.96428,
                424:-2.28413, 423: 3.39119, 422: 4.82342, 421: 3.69742, 420: 3.17424, 419: 3.43333, 418:-0.69387, 417: 0.08475,
                416:-1.08069, 415:-0.69963, 414:-1.08109, 413:-0.92729, 412: 1.78593, 411: 1.43486, 410: 1.45717, 409: 1.18418
   595 |      | 456:-1.35222, 455:-0.53603, 454:-0.93605, 453: 0.58214, 452: 2.08606, 451: 1.75493, 450: 1.27358, 449: 2.04563,
                448: 3.19042, 447:-1.59832, 446: 0.50798, 445: 0.75454, 444: 0.10048, 443: 0.06260, 442:-1.02373, 441:-1.32266,
                440:-0.47408, 439: 0.59350, 438: 0.80315, 437: 1.06057, 436: 2.14362, 435: 1.28720, 434:-0.44814, 433:-0.16016
   596 |      | 480:-0.93326, 479:-0.05063, 478: 0.72490, 477: 0.97489, 476: 2.24935, 475: 2.55288, 474:-0.58741, 473:-3.73256,
                472:-9.32576, 471:-9.98593, 470:-8.80382, 469:-3.93494, 468:-4.14583, 467:-0.80855, 466: 0.81551, 465: 1.56760,
                464: 1.49256, 463: 0.98660, 462: 0.93877, 461:-0.40424, 460: 0.22924, 459:-0.38008, 458:-1.23449, 457:-0.83519
   597 |      | 504:-0.87447, 503:-0.33498, 502: 0.13458, 501:-0.84737, 500: 0.72360, 499: 1.18471, 498: 0.58467, 497:-2.22260,
                496:-0.55045, 495: 2.11877, 494: 3.72076, 493: 2.45369, 492: 2.79889, 491: 0.69218, 490: 1.53972, 489:-0.30656,
                488:-0.48202, 487:-0.88901, 486: 0.78990, 485:-1.05807, 484: 1.91167, 483:-0.28147, 482: 2.14708, 481: 0.61427
   598 |      | 528: 1.13551, 527: 0.49255, 526: 0.56664, 525:-0.67540, 524:-0.45334, 523: 0.11658, 522: 0.52936, 521:-0.93224,
                520:-0.65317, 519: 1.14448, 518: 1.87727, 517: 2.85708, 516: 1.12564, 515: 4.15502, 514: 3.21496, 513: 2.36932,
                512: 1.18827, 511:-0.15871, 510:-0.35428, 509:-2.98160, 508:-1.78575, 507: 0.94013, 506: 1.03012, 505: 0.62608
   599 |      | 552: 0.41699, 551:-0.72670, 550: 0.95628, 549:-2.75387, 548:-5.22332, 547:-5.33885, 546:-4.97954, 545:-1.80632,
                544:-2.18073, 543: 0.25449, 542:-0.09178, 541:-0.07532, 540: 2.23689, 539:-0.73300, 538:-2.71268, 537:-2.55819,
                536:-2.45519, 535:-2.32617, 534:-2.42930, 533:-2.34998, 532:-1.46088, 531:-2.98206, 530: 0.26317, 529:-1.31707
   600 |      | 576: 4.03388, 575: 6.12536, 574: 6.97714, 573: 8.22285, 572:10.40048, 571: 9.36408, 570: 6.21025, 569: 8.23820,
                568: 4.34870, 567:-5.64730, 566:-9.17598, 565:-7.23419, 564:-7.07161, 563:-10.41104, 562:-13.41082, 561:-7.61102,
                560:-4.84884, 559:-3.54561, 558:-1.43815, 557:-1.24009, 556: 3.04996, 555: 6.19003, 554: 9.71991, 553:11.60974
   601 |      | 553:-1.16280, 529:-0.37518, 505:-0.46234, 481: 0.91110, 457: 1.26065, 433: 1.78138, 409: 1.63988, 385: 0.34316,
                361: 0.77425, 337: 1.13934, 313: 0.40148, 289: 0.93247, 265: 0.56083, 241:-0.34740, 217: 0.67579, 193:-0.59853,
                169:-0.09981, 145: 0.27460, 121:-0.69722,  97:-0.34842,  73: 0.90093,  49: 0.93830,  25: 1.69592,   1: 0.69150
   602 |      | 554:-0.44490, 530:-0.57037, 506:-1.11987, 482: 0.17554, 458:-0.55216, 434: 1.21048, 410: 0.94576, 386: 0.46796,
                362:-0.11910, 338: 0.90451, 314: 0.53956, 290:-1.73594, 266:-1.44056, 242:-0.89697, 218: 0.57941, 194:-0.37895,
                170: 1.77270, 146:-0.26289, 122: 0.57139,  98: 0.43688,  74:-0.00227,  50: 1.02415,  26: 1.03351,   2:-0.59906
   603 |      | 555: 3.78168, 531: 2.54392, 507: 1.09469, 483: 0.14256, 459: 0.38823, 435: 1.38648, 411: 4.83435, 387: 4.27990,
                363: 2.81838, 339: 2.33669, 315:-0.74079, 291:-0.62521, 267:-0.70246, 243:-2.41509, 219:-0.87171, 195:-1.67416,
                171:-0.42108, 147: 0.89256, 123:-3.61684,  99:-1.18424,  75: 0.54102,  51:-0.27036,  27: 2.52347,   3: 1.22876
   604 |      | 556: 6.33284, 532: 0.75746, 508:-0.99939, 484: 1.10864, 460:-5.27786, 436:-5.31038, 412:-5.56303, 388:-6.14696,
                364:-4.61841, 340:-6.18058, 316:-5.28780, 292:-4.18760, 268:-3.16525, 244:-2.74882, 220:-2.84025, 196:-4.24537,
                172:-3.70512, 148:-2.76845, 124: 1.91365, 100: 3.58055,  76: 4.80602,  52: 4.86184,  28: 4.85747,   4: 7.23739
   605 |      | 557:11.01101, 533: 7.13689, 509: 3.58151, 485: 3.16952, 461: 0.08279, 437: 0.40142, 413:-1.25750, 389:-1.57735,
                365: 0.14323, 341:-1.07875, 317:-2.92348, 293:-2.57112, 269:-3.31553, 245:-3.53027, 221:-2.38472, 197:-1.12602,
                173:-0.77665, 149:-1.56101, 125:-4.36732, 101:-5.12951,  77:-3.57484,  53:-2.69720,  29:-3.54559,   5: 0.43365
   606 |      | 558:-13.65091, 534:-0.10110, 510: 3.63638, 486: 8.77095, 462: 1.50114, 438: 7.53647, 414: 8.45893, 390: 7.92976,
                366: 8.06330, 342: 6.80899, 318: 4.42842, 294: 2.75454, 270: 2.30263, 246: 4.00899, 222: 4.16558, 198: 0.59570,
                174:-0.43694, 150: 0.12706, 126: 3.01169, 102: 1.74204,  78: 3.08806,  54: 1.86423,  30: 2.11360,   6:-6.94990
   607 |      | 559:-4.45569, 535: 0.35605, 511: 2.29445, 487: 3.93197, 463: 0.16434, 439: 3.31995, 415:-0.02516, 391:-0.33325,
                367:-0.96759, 343: 0.36735, 319:-0.84011, 295:-2.93809, 271:-1.75795, 247:-2.34899, 223:-2.00299, 199: 0.91111,
                175: 0.59447, 151:-0.48846, 127:-1.09778, 103: 1.19837,  79: 0.99681,  55: 1.56360,  31: 1.14097,   7: 0.45853
   608 |      | 560:-4.05130, 536:-4.28981, 512:-7.56427, 488:-8.39009, 464: 0.79078, 440:-0.70266, 416: 1.87002, 392: 3.91737,
                368: 5.17140, 344: 5.25804, 320: 2.13829, 296: 4.50965, 272: 6.52256, 248: 7.10215, 224: 9.66364, 200: 9.86755,
                176: 7.60537, 152: 7.55532, 128:-0.91613, 104:-0.56373,  80:-0.02953,  56: 1.03792,  32: 2.89978,   8:-1.99927
   609 |      | 561: 7.71713, 537:-2.23607, 513:-7.19215, 489:-5.90224, 465:-6.68140, 441:-0.99274, 417:-0.71230, 393:-1.81121,
                369:-0.37319, 345:-3.17783, 321:-1.15308, 297: 4.84998, 273: 3.44332, 249: 0.08549, 225:-0.83445, 201:-6.75434,
                177:-5.77726, 153:-5.02178, 129: 1.73019, 105: 0.59716,  81: 5.33171,  57: 1.83642,  33:-0.63816,   9: 4.32804
   610 |      | 562: 1.54922, 538: 6.09951, 514: 2.42090, 490: 0.80981, 466: 0.33861, 442: 1.33744, 418: 1.87276, 394: 0.72398,
                370: 0.16286, 346: 2.03788, 322: 0.61347, 298: 1.29203, 274: 0.95854, 250: 2.13112, 226:-2.08124, 202:-4.54929,
                178:-4.95588, 154:-5.91822, 130:-2.99450, 106:-1.30396,  82:-2.93336,  58:-0.93711,  34: 0.16956,  10: 0.08507
   611 |      | 563:-1.87931, 539:-0.66017, 515: 0.20733, 491: 2.33290, 467: 5.40074, 443: 5.29752, 419:-5.21949, 395:-4.60214,
                371:-4.36237, 347:-6.33105, 323:-5.59190, 299:-10.18957, 275:-6.44575, 251:-3.63607, 227:-3.39723, 203:-0.30253,
                179: 0.65248, 155: 0.16433, 131: 0.17240, 107: 1.24683,  83: 5.60146,  59: 5.57259,  35: 1.66968,  11: 0.45616
   612 |      | 564:-2.92230, 540: 1.31655, 516: 0.93388, 492: 0.06497, 468:-1.95004, 444:-1.72653, 420:-5.42218, 396:-3.61418,
                372:-6.49825, 348:-4.46391, 324:-2.28326, 300: 3.58110, 276: 6.17828, 252: 1.51505, 228: 0.81888, 204: 5.75308,
                180: 3.22654, 156: 2.96377, 132: 2.31249, 108: 0.36461,  84: 3.11059,  60: 1.16631,  36: 1.19748,  12: 0.83447
   613 |      | 565: 1.56381, 541: 0.04915, 517:-2.83174, 493:-3.71171, 469:-0.71223, 445: 1.71087, 421: 3.66049, 397: 3.81040,
                373: 3.76853, 349: 1.02309, 325: 0.25937, 301: 2.47916, 277: 3.40143, 253: 2.51293, 229: 1.61893, 205: 0.90959,
                181: 0.61183, 157: 1.07477, 133: 1.65273, 109: 2.95317,  85: 0.18328,  61:-1.46075,  37:-4.92922,  13: 0.35155
   614 |      | 566:-1.84066, 542: 3.32679, 518:-0.11290, 494: 0.31505, 470: 0.70180, 446: 1.87060, 422: 0.52983, 398: 0.36705,
                374:-0.42571, 350: 2.72873, 326:-0.28649, 302:-0.53044, 278:-0.93994, 254:-0.16904, 230: 3.25870, 206: 2.28382,
                182: 2.43453, 158: 0.58427, 134: 0.56635, 110: 0.50438,  86: 1.23046,  62: 0.65717,  38: 2.90774,  14: 1.38447
   615 |      | 567:-1.51016, 543:-0.17085, 519:-1.71188, 495:-1.53917, 471:-1.95676, 447:-0.72595, 423:-1.57127, 399:-0.67657,
                375: 0.01820, 351:-0.80671, 327:-0.21016, 303: 1.19374, 279: 1.25949, 255:-0.46026, 231: 2.64149, 207: 1.97192,
                183: 0.56777, 159:-0.04342, 135:-0.04334, 111:-2.46750,  87:-0.72520,  63: 0.07387,  39: 2.26205,  15: 4.08230
   616 |      | 568: 4.80531, 544: 1.27246, 520:-1.39579, 496:-1.02468, 472: 0.63827, 448: 0.61021, 424: 1.09842, 400: 0.96860,
                376: 0.83476, 352:-0.20805, 328: 0.71591, 304: 1.74477, 280: 2.95060, 256: 1.15364, 232: 3.69350, 208: 2.18235,
                184: 2.37306, 160: 0.85857, 136: 2.70250, 112: 0.81944,  88: 0.44773,  64:-0.50186,  40:-0.84841,  16: 1.86147
   617 |      | 569:-2.33987, 545: 0.70742, 521: 2.98688, 497: 1.02777, 473: 0.75206, 449: 4.25194, 425: 6.27408, 401: 6.93906,
                377: 5.72849, 353:13.61118, 329:13.65685, 305:14.45177, 281:11.17864, 257: 2.57899, 233:-0.93348, 209:-4.17348,
                185:-1.34771, 161: 0.18379, 137: 0.20006, 113: 0.20449,  89: 0.57270,  65: 0.96868,  41: 4.21840,  17:-2.87111
   618 |      | 570: 3.43097, 546: 5.32236, 522:-0.70877, 498:-0.31500, 474:-2.28390, 450:-1.80382, 426:-0.26044, 402:-0.60968,
                378:-0.83723, 354: 1.26560, 330: 5.69090, 306: 0.98605, 282:-0.07470, 258:-0.93213, 234:-0.00927, 210:-2.28762,
                186:-2.55072, 162:-1.21055, 138:-1.14484, 114:-3.71616,  90:-4.64966,  66:-4.40919,  42: 3.26387,  18:-0.57638
   619 |      | 571:-7.55288, 547:-5.05336, 523:-8.98134, 499:-7.67570, 475:-6.96697, 451:-1.87686, 427: 1.97957, 403: 0.10363,
                379: 1.01840, 355: 4.06537, 331: 5.52382, 307:10.32538, 283:10.79043, 259: 8.86371, 235: 6.01087, 211: 4.79541,
                187: 3.42371, 163: 3.41550, 139: 1.30356, 115:-0.46783,  91:-2.91312,  67: 0.61670,  43:-3.87700,  19: 3.96911
   620 |      | 572: 8.27968, 548: 9.35130, 524: 3.95956, 500: 3.55149, 476:-0.60442, 452:-2.06565, 428:-5.61728, 404:-5.29444,
                380:-0.78796, 356:-2.34123, 332: 0.17468, 308: 2.20409, 284: 0.04061, 260: 1.56134, 236:-0.12397, 212: 0.89005,
                188:-0.36937, 164:-1.24801, 140:-0.87326, 116: 1.54586,  92: 6.06505,  68: 4.89974,  44: 1.85990,  20:-4.57072
   621 |      | 573: 0.43040, 549: 0.48257, 525: 0.60734, 501: 0.73540, 477: 0.60154, 453:-0.42676, 429: 0.71979, 405: 1.05856,
                381: 0.96855, 357: 0.60376, 333: 0.85659, 309: 1.47158, 285: 1.33704, 261: 1.11795, 237: 0.74872, 213: 0.07855,
                189: 0.41273, 165:-0.10687, 141:-0.51331, 117: 0.90901,  93: 0.94665,  69: 0.52127,  45: 0.40379,  21: 3.38736
   622 |      | 574: 1.89198, 550: 1.53345, 526: 4.01299, 502: 4.13269, 478:-1.38437, 454:-2.48382, 430:-4.18619, 406:-3.76271,
                382:-4.19291, 358:-2.26786, 334:-2.83526, 310:-3.28705, 286:-2.62034, 262:-3.44123, 238:-2.56325, 214:-3.10791,
                190:-2.77973, 166:-2.77513, 142:-0.21886, 118:-0.33345,  94: 3.86859,  70: 2.68296,  46: 6.85449,  22: 8.88761
   623 |      | 575: 1.46399, 551:-0.00112, 527: 1.20299, 503: 0.28484, 479: 0.81052, 455: 2.10172, 431:-0.74968, 407:-0.25294,
                383:-0.20201, 359: 1.28719, 335: 1.17717, 311: 0.87942, 287: 1.13124, 263: 0.49688, 239: 1.01197, 215: 1.52965,
                191: 0.92587, 167: 1.35220, 143: 1.29628, 119: 1.22385,  95: 0.93725,  71: 0.84061,  47: 1.48586,  23: 1.71502
   624 |      | 576: 2.20067, 552: 0.22533, 528: 0.72353, 504:-0.21794, 480:-0.32681, 456:-0.09705, 432: 0.76196, 408:-0.46977,
                384: 0.08674, 360: 0.38610, 336:-0.61736, 312:-0.36055, 288: 0.44283, 264: 0.03021, 240: 0.10574, 216: 0.71417,
                192: 0.37060, 168: 1.22700, 144: 0.63257, 120:-0.01907,  96:-0.92904,  72:-0.71623,  48:-1.24483,  24:-0.54555
   625 |      | 624: 0.18677, 623: 0.10230, 622:-2.33777, 621:-0.37643, 620: 0.68038, 619: 4.13008, 618:-3.13536, 617:-2.20940,
                616:-1.61332, 615: 0.14870, 614:-1.13058, 613:-0.96712, 612:-1.63038, 611:-0.79395, 610:-0.98291, 609:-1.70282,
                608: 2.50104, 607: 2.26862, 606: 3.33550, 605:-3.02716, 604:-2.45705, 603:-3.07242, 602:-0.27550, 601:-0.69260,
                600:-4.00031, 599: 0.29256, 598:-1.81047, 597:-2.30271, 596:-1.39673, 595: 0.08637, 594:-1.35055, 593:-1.40725,
                592: 0.02460, 591: 1.85761, 590:-0.09948, 589:-0.14432, 588:-0.97783, 587:-0.07971, 586: 1.91900, 585:-4.61954,
                584:-0.69269, 583:-0.36938, 582:-0.17432, 581: 2.43135, 580:-0.12249, 579:-3.88293, 578:-0.34960, 577:-2.00881
   626 |      | 624:-0.78955, 623:-0.78887, 622:-1.43238, 621:-0.16570, 620:-1.50457, 619:-0.58090, 618: 0.50912, 617: 0.58031,
                616: 0.33838, 615: 0.23982, 614:-1.69423, 613: 0.69364, 612: 1.34189, 611: 4.58676, 610: 0.45644, 609: 2.46205,
                608:-1.86154, 607:-1.15308, 606:-2.91138, 605:-0.92128, 604:-1.60752, 603:-1.36909, 602:-0.73615, 601:-0.59873,
                600:-0.15167, 599:-0.26015, 598:-0.75532, 597: 0.35957, 596: 0.65293, 595:-1.47685, 594:-0.27760, 593: 0.72210,
                592:-1.23641, 591:-3.15542, 590: 0.09725, 589:-0.87966, 588:-0.17636, 587: 0.14668, 586:-3.22497, 585: 1.03588,
                584:-1.10063, 583: 1.30863, 582: 0.67849, 581:-1.13383, 580:-0.55256, 579: 1.73558, 578:-0.55857, 577: 1.70596
   627 |      | 624: 0.22950, 623:-0.95091, 622:-0.54311, 621:-0.19109, 620:-0.61739, 619:-0.74629, 618:-0.07314, 617: 2.12782,
                616: 0.58659, 615:-0.00938, 614: 0.34205, 613: 0.73524, 612:-1.00904, 611:-0.57929, 610: 1.12947, 609:-1.82567,
                608:-2.08856, 607: 0.23447, 606:-3.67488, 605: 0.03265, 604:-2.26353, 603:-0.19153, 602:-0.96463, 601:-0.02785,
                600:-0.65349, 599:-1.00966, 598:-0.28034, 597:-0.67625, 596: 0.98885, 595: 0.21669, 594: 0.20446, 593:-2.50801,
                592: 0.47477, 591:-2.19866, 590: 0.63324, 589: 0.36243, 588:-0.57515, 587: 0.99029, 586:-2.99862, 585:-1.22967,
                584:-0.98251, 583:-0.67223, 582: 1.19638, 581:-0.53792, 580: 0.58651, 579:-1.50854, 578:-1.04764, 577:-2.52061
   628 |      | 624:-1.39329, 623:-0.71690, 622:-0.25665, 621:-0.62226, 620: 0.25546, 619: 2.22248, 618:-0.90879, 617: 1.36008,
                616:-0.30996, 615: 0.03381, 614:-1.63188, 613:-0.11971, 612:-2.00850, 611:-1.27195, 610:-0.02434, 609: 1.65272,
                608:-2.69521, 607: 0.35419, 606: 1.65619, 605: 0.44156, 604:-1.06772, 603:-1.28722, 602:-0.44023, 601: 0.10119,
                600:-1.54784, 599: 0.36844, 598:-1.20709, 597:-1.06335, 596: 0.89780, 595:-0.87182, 594:-1.02246, 593:-3.32759,
                592: 0.56578, 591: 2.01940, 590: 0.57541, 589: 0.49824, 588:-0.88492, 587:-0.42012, 586:-1.61817, 585: 1.15069,
                584: 0.15963, 583:-3.45119, 582: 0.50233, 581: 0.71880, 580: 0.19631, 579: 1.65484, 578:-1.35673, 577:-1.76986
   629 |      | 624: 0.09627, 623:-1.78695, 622:-2.12054, 621:-0.00120, 620:-2.49511, 619:-0.13770, 618:-0.69065, 617: 1.51961,
                616: 0.08842, 615:-0.86701, 614:-0.76753, 613: 0.02575, 612:-0.53948, 611:-1.02122, 610:-1.66216, 609: 3.19960,
                608: 1.05452, 607: 0.07092, 606: 0.41608, 605:-1.67592, 604:-1.34642, 603:-0.56431, 602: 0.10196, 601:-0.32364,
                600: 0.50333, 599: 0.56908, 598:-1.18984, 597:-0.14869, 596:-2.41655, 595:-0.33928, 594: 0.22228, 593: 1.29771,
                592:-0.70553, 591: 1.01789, 590:-0.62108, 589:-1.29836, 588:-0.60829, 587:-0.89849, 586:-1.95325, 585: 0.68645,
                584: 0.52246, 583:-2.35828, 582:-3.27507, 581:-2.51007, 580: 0.79262, 579:-0.64070, 578: 0.03562, 577: 1.44852
   630 |      | 624:-0.70832, 623:-0.86462, 622:-1.28591, 621:-0.51295, 620:-1.19198, 619: 1.02677, 618: 2.99809, 617: 1.40174,
                616:-0.30709, 615:-0.28449, 614:-0.50768, 613:-0.02908, 612: 1.48054, 611: 0.05619, 610:-3.33583, 609:-2.10388,
                608: 0.75601, 607:-0.22030, 606:-0.68972, 605:-1.34266, 604: 1.07188, 603:-0.79642, 602:-0.42876, 601:-0.29131,
                600:-1.82467, 599:-0.53819, 598:-1.54090, 597:-0.98362, 596:-0.20725, 595:-1.50528, 594:-0.43627, 593:-4.20253,
                592:-0.24915, 591: 0.65942, 590:-0.97391, 589: 1.39767, 588: 0.07318, 587:-0.52507, 586:-0.89846, 585: 1.24448,
                584:-0.48420, 583: 2.05259, 582: 1.04154, 581: 0.40742, 580: 0.14035, 579: 0.46596, 578:-0.74654, 577:-1.06862
   631 |      | 624:-0.89694, 623:-1.74173, 622:-2.05866, 621:-0.86306, 620:-2.71419, 619: 0.96213, 618: 1.71688, 617: 1.08083,
                616:-0.11823, 615:-1.79655, 614:-1.51366, 613:-0.51026, 612:-1.62127, 611: 0.80534, 610: 0.81433, 609:-2.25472,
                608: 1.14328, 607: 0.50782, 606: 1.32473, 605:-2.22832, 604:-0.95178, 603:-1.59807, 602:-1.78821, 601:-0.47957,
                600:-1.10911, 599: 0.44248, 598:-0.36334, 597:-2.13573, 596: 0.39238, 595:-1.40425, 594:-1.18789, 593: 1.02176,
                592:-1.07661, 591: 1.10140, 590:-1.02097, 589:-0.71369, 588:-0.33288, 587: 0.13326, 586: 1.70160, 585: 0.86969,
                584: 0.09483, 583: 0.69469, 582: 0.89873, 581:-1.08431, 580:-0.50028, 579: 3.22659, 578:-0.99841, 577: 3.07108
   632 |      | 624:-0.52795, 623:-0.55067, 622:-2.32193, 621: 0.03256, 620: 1.27723, 619:-0.77427, 618: 0.60799, 617:-2.26818,
                616:-0.64844, 615: 1.09899, 614: 0.62429, 613:-2.89333, 612: 0.04671, 611: 1.68224, 610: 0.47700, 609:-0.50576,
                608: 0.68436, 607: 1.39470, 606:-0.76534, 605: 0.99193, 604: 2.82890, 603:-1.41156, 602:-0.40705, 601: 0.84073,
                600:-0.97933, 599: 0.64307, 598: 0.05374, 597:-0.60034, 596:-0.92102, 595:-0.68786, 594:-0.56810, 593:-2.64830,
                592:-0.22584, 591:-1.96143, 590:-1.01170, 589: 1.25546, 588: 0.24243, 587:-0.63183, 586:-2.21988, 585: 1.58668,
                584: 0.13539, 583:-2.53502, 582: 1.62337, 581:-2.78687, 580: 0.32699, 579:-3.03359, 578:-0.65365, 577:-1.21915
   633 |      | 624:-0.98252, 623:-0.27072, 622:-0.98277, 621:-1.19710, 620:-2.59982, 619:-2.71134, 618:-0.12581, 617: 2.47115,
                616:-1.12160, 615: 0.15694, 614: 0.15997, 613:-0.77462, 612:-0.19526, 611:-1.97272, 610:-2.47589, 609:-1.81207,
                608:-2.99081, 607:-0.03226, 606: 1.86882, 605:-0.18243, 604:-1.30802, 603: 0.17593, 602: 0.01851, 601:-1.13177,
                600:-1.27405, 599: 0.66367, 598:-1.36597, 597: 0.30128, 596: 0.34823, 595:-0.50888, 594:-0.44158, 593: 2.22633,
                592:-0.83330, 591: 2.24794, 590: 0.77293, 589:-0.04540, 588:-0.98404, 587:-0.46675, 586: 0.37823, 585: 0.74618,
                584:-0.09459, 583:-1.95073, 582: 0.77002, 581: 1.92911, 580:-0.86896, 579:-1.85163, 578:-0.80543, 577:-1.53192
   634 |      | 624:-0.88994, 623:-0.75610, 622:-0.88895, 621: 0.29135, 620:-0.06213, 619: 2.34716, 618:-0.70588, 617: 1.63942,
                616: 0.43665, 615:-0.17112, 614: 0.23516, 613:-1.34860, 612:-0.65173, 611:-0.19306, 610: 0.48014, 609: 1.79914,
                608: 1.25210, 607:-1.93711, 606:-2.50258, 605: 0.35934, 604:-0.23658, 603:-1.16266, 602:-1.38890, 601:-0.17265,
                600:-1.57785, 599:-0.31703, 598:-0.46628, 597: 0.04337, 596:-2.16181, 595: 0.46517, 594:-1.38400, 593:-0.25336,
                592:-0.37237, 591:-3.40873, 590:-1.00408, 589: 0.04875, 588:-0.98806, 587:-0.52524, 586: 0.94859, 585:-1.08733,
                584:-1.36848, 583:-1.12091, 582: 0.04076, 581: 1.78211, 580: 0.75814, 579:-1.11971, 578:-0.03744, 577:-1.17318
   635 |      | 624:-0.33729, 623:-1.04176, 622:-0.26310, 621:-1.06647, 620:-1.97971, 619:-0.92974, 618:-0.56547, 617:-1.21562,
                616: 0.16257, 615:-0.18664, 614:-0.94377, 613:-2.10765, 612: 0.33393, 611: 5.07001, 610: 0.49392, 609:-2.61117,
                608:-1.81654, 607: 0.99430, 606:-1.27727, 605: 0.57313, 604:-1.51806, 603: 0.19823, 602:-0.63279, 601:-0.28266,
                600:-2.01988, 599:-0.59755, 598:-0.03024, 597: 0.46583, 596: 0.18537, 595:-0.43228, 594:-0.47187, 593:-2.49826,
                592:-0.15128, 591: 3.10767, 590:-0.95138, 589: 0.37511, 588: 0.00106, 587:-0.83730, 586: 0.25129, 585: 0.24187,
                584:-0.13696, 583:-1.31897, 582: 0.18889, 581:-2.54259, 580: 0.46425, 579: 2.32864, 578:-0.07420, 577:-2.05021
   636 |      | 624:-1.43461, 623:-0.52999, 622:-0.39344, 621:-0.03420, 620:-1.88689, 619:-1.27480, 618:-0.91030, 617:-1.68705,
                616:-1.00056, 615:-0.07789, 614:-0.07974, 613: 0.84869, 612:-2.46068, 611:-3.19039, 610: 1.21918, 609: 2.07184,
                608:-0.09405, 607:-0.06940, 606:-1.28782, 605:-0.53571, 604:-0.40198, 603: 0.19044, 602:-0.30431, 601:-1.49966,
                600:-0.81884, 599:-0.84593, 598:-1.17014, 597:-0.09944, 596: 0.13530, 595: 0.16326, 594: 0.21309, 593:-2.22375,
                592:-0.35770, 591: 1.49899, 590:-0.89308, 589: 0.09160, 588:-0.12784, 587:-0.14050, 586: 0.84135, 585: 0.22008,
                584:-0.86811, 583:-1.35078, 582: 4.46004, 581:-2.95489, 580:-0.84202, 579: 3.26966, 578:-0.28300, 577:-3.41781
   637 |      | 624: 0.30741, 623:-1.19061, 622: 2.27087, 621: 0.28075, 620: 0.48657, 619:-1.85006, 618:-0.76894, 617:-0.41627,
                616:-1.45540, 615:-1.17711, 614:-0.33614, 613: 0.52594, 612:-0.56015, 611:-1.16935, 610:-1.60898, 609:-0.85446,
                608: 0.59025, 607:-0.08947, 606: 0.28622, 605:-1.52949, 604:-1.50533, 603:-2.39372, 602:-1.19048, 601:-1.07923,
                600: 1.00535, 599: 0.68869, 598:-0.28777, 597:-1.26895, 596:-1.33207, 595:-0.55449, 594:-0.97242, 593: 1.07050,
                592: 0.00992, 591: 1.80113, 590: 0.61467, 589: 0.41459, 588:-0.50627, 587: 0.42375, 586:-0.50189, 585:-0.28563,
                584: 0.20081, 583: 0.75708, 582:-2.35557, 581:-1.49806, 580: 0.65931, 579:-1.87661, 578:-0.60531, 577: 1.47394
   638 |      | 624: 0.26645, 623: 0.08597, 622: 0.80139, 621:-1.30915, 620: 1.71772, 619:-1.39452, 618: 0.12651, 617: 0.03117,
                616:-1.55444, 615:-1.08424, 614:-0.91465, 613:-0.95200, 612: 0.47938, 611: 2.37968, 610: 0.24163, 609:-0.97952,
                608:-1.16554, 607: 0.25117, 606: 0.96109, 605:-1.14261, 604: 2.65184, 603:-3.07341, 602: 0.23981, 601:-0.48145,
                600:-0.07294, 599: 0.20768, 598:-1.42567, 597:-0.90434, 596:-1.17994, 595:-0.98531, 594:-0.49822, 593:-1.60846,
                592: 0.95353, 591: 0.21642, 590:-0.80187, 589: 0.62705, 588: 0.13475, 587: 0.28866, 586: 0.00299, 585: 0.53603,
                584:-0.59684, 583:-1.17755, 582:-1.67803, 581: 1.37321, 580: 0.62978, 579: 1.77825, 578:-1.40348, 577:-0.76885
   639 |      | 624:-1.37181, 623:-1.60194, 622:-2.08035, 621:-1.39928, 620: 0.40137, 619: 2.31103, 618: 0.23306, 617: 0.05228,
                616:-0.84545, 615:-0.88344, 614:-1.52338, 613:-0.62501, 612:-0.30039, 611: 2.28224, 610:-0.28208, 609:-1.58627,
                608:-2.89200, 607: 0.54393, 606: 1.67709, 605: 0.14598, 604: 0.23755, 603:-0.24158, 602:-0.08480, 601:-0.48519,
                600: 2.32727, 599:-0.61395, 598:-0.44763, 597:-0.47238, 596: 0.09960, 595:-1.40110, 594:-1.03760, 593: 1.00145,
                592:-0.55710, 591:-1.15560, 590:-0.75103, 589: 0.44491, 588: 0.14365, 587: 0.81822, 586:-0.46484, 585: 1.43720,
                584: 1.08589, 583:-2.21847, 582:-2.08209, 581: 1.23791, 580: 0.70001, 579:-2.17240, 578:-1.07552, 577: 0.90566
   640 |      | 624: 0.47625, 623: 0.36282, 622:-1.10458, 621:-0.38038, 620:-1.85593, 619:-1.67728, 618:-0.01400, 617:-3.56968,
                616:-0.08163, 615: 0.05629, 614:-0.14571, 613: 0.42600, 612:-1.15662, 611:-0.92628, 610: 0.51114, 609: 1.18594,
                608:-0.65616, 607:-0.65986, 606:-1.62667, 605:-1.89054, 604:-1.38348, 603:-0.41373, 602: 0.67803, 601:-0.98150,
                600:-1.02954, 599:-0.10432, 598:-0.28042, 597:-0.90629, 596: 1.82046, 595:-0.57120, 594:-0.62235, 593: 0.98618,
                592:-0.02283, 591:-1.24325, 590: 0.23694, 589:-0.00543, 588: 0.72682, 587:-1.02489, 586:-2.44195, 585: 1.36404,
                584:-0.28620, 583:-3.15752, 582: 0.15206, 581: 3.77671, 580:-0.48308, 579:-1.69486, 578:-0.32553, 577:-2.59858
   641 |      | 624: 0.53119, 623:-0.01330, 622:-0.62964, 621:-1.29877, 620:-3.08595, 619: 3.30123, 618:-0.92067, 617: 1.53544,
                616:-1.42841, 615:-0.40633, 614:-0.86822, 613:-0.91938, 612: 0.27841, 611:-0.34824, 610:-0.16168, 609:-1.03904,
                608:-0.75966, 607:-0.93573, 606: 0.95674, 605:-2.81705, 604: 0.38119, 603:-3.07681, 602:-0.14350, 601: 0.21398,
                600:-0.81376, 599:-0.87004, 598:-0.44962, 597:-0.44015, 596: 0.78275, 595:-1.07570, 594: 0.45329, 593:-0.08967,
                592:-0.10142, 591: 0.20496, 590: 0.20560, 589:-0.54356, 588:-0.79660, 587: 0.85680, 586:-0.14276, 585: 1.81205,
                584: 0.65596, 583: 2.01308, 582:-1.72999, 581:-2.09209, 580: 0.30519, 579:-3.16430, 578:-0.28723, 577:-2.92440
   642 |      | 624: 0.35192, 623:-0.52589, 622: 1.03866, 621:-0.31027, 620:-1.16039, 619: 2.19536, 618: 0.47259, 617: 0.65953,
                616:-1.19641, 615: 0.43907, 614: 0.22843, 613:-0.77882, 612:-0.98883, 611: 0.31796, 610:-0.99036, 609: 0.50739,
                608:-0.67506, 607:-1.24730, 606:-1.15590, 605: 1.96862, 604: 1.07390, 603: 0.94325, 602:-1.16888, 601:-0.46654,
                600: 3.22841, 599: 0.65587, 598:-1.23949, 597:-0.24745, 596: 1.25180, 595: 0.19788, 594:-0.43502, 593: 0.35115,
                592: 0.15130, 591:-2.62767, 590:-1.02937, 589: 0.05746, 588: 0.16431, 587: 0.57962, 586:-0.95231, 585:-2.07420,
                584:-0.13161, 583:-3.01886, 582:-2.31094, 581:-3.23481, 580: 0.54331, 579: 0.02481, 578:-0.76185, 577:-0.59869
   643 |      | 624:-0.47581, 623:-1.69342, 622:-2.68461, 621:-1.39124, 620: 1.18849, 619:-1.39813, 618: 3.48924, 617: 2.06608,
                616: 0.24504, 615:-0.70101, 614:-0.42598, 613: 0.39143, 612: 1.37307, 611:-2.04873, 610:-0.83926, 609: 1.73015,
                608:-1.43386, 607:-0.07809, 606: 0.35706, 605: 1.53885, 604: 1.35296, 603: 0.37486, 602:-1.12013, 601:-0.68564,
                600:-2.14895, 599:-0.12790, 598: 0.06271, 597:-0.83648, 596: 0.19833, 595:-0.38999, 594: 0.29739, 593: 0.67951,
                592: 1.22029, 591:-0.03968, 590:-0.83034, 589:-1.34640, 588:-0.03990, 587:-1.15155, 586: 0.04927, 585:-2.01040,
                584:-2.96821, 583:-0.30368, 582:-1.61884, 581:-1.39486, 580:-0.25039, 579: 0.06322, 578:-0.49452, 577:-2.04686
   644 |      | 624:-0.09878, 623:-0.19659, 622: 1.40122, 621:-1.40886, 620: 2.20132, 619:-3.24902, 618: 0.57571, 617:-2.28905,
                616:-0.26741, 615:-1.27064, 614:-1.74247, 613:-2.06143, 612:-1.18655, 611: 0.69921, 610:-0.42796, 609:-2.36963,
                608:-3.77811, 607: 0.08543, 606: 2.42103, 605:-1.44242, 604:-2.17064, 603: 0.86044, 602:-0.58715, 601:-1.00868,
                600:-2.80360, 599:-0.12874, 598:-0.85380, 597:-0.38319, 596: 0.65250, 595:-0.81947, 594:-0.78823, 593:-1.78896,
                592: 0.36846, 591: 0.71912, 590:-0.30677, 589: 0.24799, 588: 0.44963, 587: 0.24407, 586:-1.24564, 585:-2.61868,
                584: 1.54834, 583: 1.65307, 582: 2.61764, 581: 1.58749, 580:-1.16155, 579:-0.12629, 578:-1.23754, 577: 0.50533
   645 |      | 624:-1.02153, 623:-1.03306, 622:-1.78219, 621:-0.93182, 620:-1.17709, 619:-2.36979, 618:-1.07715, 617:-3.19560,
                616:-1.85016, 615:-1.46117, 614:-0.22855, 613: 0.35469, 612:-1.90829, 611: 0.84403, 610:-1.88823, 609: 0.70753,
                608: 1.13863, 607:-0.88166, 606: 3.54079, 605: 1.91643, 604: 1.36065, 603: 1.24789, 602:-1.59293, 601:-0.42653,
                600:-0.67007, 599: 0.99030, 598:-0.79527, 597:-0.17744, 596: 0.21570, 595:-1.29063, 594:-0.44248, 593: 1.57544,
                592:-0.41493, 591: 1.06717, 590:-0.91399, 589: 0.92510, 588: 0.27326, 587: 0.66271, 586: 1.38393, 585:-2.06620,
                584:-0.12201, 583: 0.13633, 582:-0.80067, 581: 1.50867, 580: 0.74863, 579:-1.29246, 578:-0.14945, 577:-3.34684
   646 |      | 624:-1.71928, 623:-1.20244, 622: 1.03185, 621:-1.14495, 620: 4.32386, 619:-1.27406, 618: 2.10289, 617: 1.97260,
                616:-1.17955, 615:-0.67942, 614:-2.61656, 613:-0.41277, 612: 0.71651, 611:-1.30804, 610:-1.03987, 609: 0.30986,
                608: 0.99131, 607:-1.88262, 606:-0.96655, 605: 1.33067, 604: 1.65684, 603:-1.32779, 602:-0.95827, 601:-0.79633,
                600:-2.20877, 599:-0.60817, 598:-0.69110, 597:-0.97608, 596: 0.32927, 595:-1.30260, 594:-1.82074, 593: 0.90758,
                592: 1.04536, 591: 0.73173, 590:-0.59000, 589:-2.90189, 588:-0.86174, 587: 0.38675, 586:-3.41563, 585:-0.01018,
                584: 0.48951, 583:-0.91752, 582: 0.53658, 581: 0.51608, 580: 0.01720, 579: 1.28069, 578:-2.21536, 577: 1.94721
   647 |      | 624:-0.98351, 623:-1.42591, 622:-0.08285, 621:-0.45187, 620:-5.44067, 619: 2.73778, 618:-1.53507, 617: 1.24491,
                616:-1.53396, 615:-0.01847, 614:-1.60397, 613:-0.68176, 612: 0.01912, 611:-0.11755, 610:-1.79204, 609:-1.61347,
                608: 1.44284, 607:-1.82072, 606:-1.22436, 605: 1.38915, 604: 1.73282, 603:-0.66055, 602:-1.55088, 601:-1.16321,
                600:-1.91853, 599: 0.66893, 598:-1.33837, 597:-1.03268, 596: 1.07672, 595:-0.81848, 594:-1.32884, 593: 1.45067,
                592: 0.18586, 591: 0.17025, 590: 0.16073, 589:-2.15510, 588:-0.19480, 587: 0.69788, 586: 1.33552, 585: 0.77088,
                584:-0.17079, 583:-0.73827, 582: 1.63995, 581: 0.79285, 580:-1.11865, 579:-1.17226, 578:-1.37326, 577: 2.10978
   648 |      | 624:-0.48533, 623:-0.19947, 622:-2.37847, 621:-0.29383, 620:-2.68703, 619:-1.23074, 618: 2.44461, 617: 1.34542,
                616:-0.10288, 615:-0.78331, 614:-0.66288, 613: 0.29670, 612:-1.82974, 611:-1.21015, 610:-0.42847, 609: 1.52388,
                608:-0.12982, 607:-0.29477, 606:-1.58942, 605:-1.52203, 604:-1.92416, 603:-0.16957, 602:-0.64670, 601: 0.10121,
                600:-1.30146, 599:-0.97375, 598:-0.96161, 597: 0.47592, 596: 0.84104, 595: 0.54838, 594:-0.28331, 593:-1.95431,
                592: 0.54440, 591: 1.15128, 590:-0.42736, 589: 0.38548, 588:-1.03274, 587: 0.02905, 586:-3.87102, 585:-2.01948,
                584: 0.19605, 583: 1.67802, 582:-0.05804, 581: 0.06270, 580: 0.66155, 579:-1.39881, 578:-0.16414, 577: 0.46641
   649 |      | 624:-0.19397, 623:-1.02581, 622: 0.23399, 621:-1.06947, 620: 0.19375, 619: 2.24142, 618:-0.65841, 617: 0.20658,
                616:-1.68745, 615:-1.12293, 614:-1.73685, 613: 0.20429, 612: 1.01036, 611:-1.97418, 610: 0.69391, 609: 1.12223,
                608: 0.55674, 607:-1.57262, 606:-0.24073, 605: 0.82168, 604:-0.68371, 603: 0.78738, 602:-0.18975, 601:-0.66801,
                600: 2.90796, 599:-0.39727, 598:-1.36788, 597:-1.16619, 596:-0.16899, 595:-0.56339, 594:-1.32983, 593:-2.11535,
                592: 0.46446, 591: 1.95252, 590:-1.03831, 589:-2.93964, 588: 0.46032, 587:-0.06231, 586: 0.07576, 585:-2.01434,
                584:-1.21608, 583: 0.63306, 582:-1.09775, 581:-1.06298, 580:-0.82426, 579:-0.90009, 578:-0.47161, 577: 1.12471
   650 |      | 624:-0.88812, 623:-1.05219, 622:-2.09468, 621:-0.46466, 620:-0.92016, 619: 1.74330, 618:-0.52810, 617:-0.33105,
                616: 1.91047, 615: 2.75507, 614:-0.39177, 613: 0.02810, 612: 0.97792, 611:-3.48740, 610: 2.33261, 609:-0.31393,
                608:-3.73870, 607:-0.97580, 606:-1.97174, 605:-0.50842, 604:-2.42314, 603:-0.87509, 602:-1.08212, 601:-1.08924,
                600:-0.55638, 599: 0.69318, 598:-0.55964, 597:-0.69255, 596:-3.35654, 595: 0.42589, 594:-0.11518, 593:-4.16706,
                592:-0.21306, 591:-3.74138, 590:-0.05689, 589:-0.46100, 588: 0.07812, 587:-0.68205, 586: 1.47064, 585: 0.85360,
                584:-0.28441, 583: 1.93015, 582:-3.56804, 581:-4.28036, 580:-0.67219, 579: 1.40542, 578: 0.76658, 577:-4.08090
   651 |      | 624:-0.01755, 623:-1.22586, 622:-0.26046, 621:-0.01834, 620:-4.21245, 619:-0.09722, 618:-1.23184, 617: 1.73090,
                616:-0.33933, 615:-0.25833, 614:-0.55301, 613: 0.60338, 612:-0.65263, 611:-1.20739, 610: 0.53716, 609: 0.52686,
                608:-2.99056, 607: 0.83818, 606: 3.78438, 605: 2.70115, 604: 0.39868, 603:-1.28907, 602:-0.75415, 601:-1.20269,
                600:-1.39351, 599: 0.59005, 598:-0.28382, 597:-0.52913, 596:-3.10173, 595:-1.54251, 594: 0.32805, 593: 1.68995,
                592:-0.42539, 591:-3.42208, 590:-0.50638, 589:-1.07885, 588: 0.20208, 587: 0.20240, 586:-2.77427, 585: 0.86161,
                584: 0.10758, 583:-2.95174, 582: 1.56711, 581:-1.66965, 580: 0.68928, 579: 0.40477, 578:-0.69211, 577:-1.88843
   652 |      | 624:-0.74196, 623:-1.55631, 622: 1.68731, 621:-0.21429, 620:-0.90846, 619:-2.46429, 618: 0.08242, 617:-1.73282,
                616:-1.02779, 615:-1.14509, 614:-1.31618, 613:-1.34475, 612:-0.73604, 611:-1.14015, 610:-0.07552, 609: 1.52103,
                608: 0.77302, 607:-2.91415, 606: 2.51776, 605:-0.47080, 604: 0.64853, 603:-0.25878, 602: 0.03057, 601:-0.52744,
                600: 1.41664, 599: 0.28157, 598:-1.45995, 597:-1.33664, 596:-0.13874, 595:-0.53328, 594:-0.35109, 593: 1.11109,
                592: 0.30913, 591:-3.91719, 590: 0.61025, 589:-1.95088, 588: 0.09858, 587:-0.47880, 586: 1.02804, 585: 1.65307,
                584: 0.11196, 583: 2.32309, 582:-1.09851, 581:-0.25952, 580: 0.29102, 579:-1.30780, 578: 0.04921, 577: 0.58499
   653 |      | 624:-0.81262, 623:-0.32810, 622: 1.41296, 621:-1.41267, 620: 1.53058, 619:-2.65403, 618:-0.50440, 617:-3.38879,
                616:-1.49681, 615:-0.96493, 614:-1.26757, 613:-1.02317, 612:-1.30962, 611:-0.16388, 610:-1.71174, 609: 1.93716,
                608: 0.02270, 607:-0.29241, 606:-3.09331, 605: 1.62112, 604: 2.11727, 603:-0.82719, 602: 0.08034, 601:-1.37553,
                600:-1.86095, 599:-0.66882, 598:-1.35722, 597:-1.07342, 596: 0.99586, 595:-0.77038, 594:-0.31845, 593: 0.56585,
                592: 0.31419, 591: 1.83754, 590: 0.34216, 589:-0.66294, 588:-1.06870, 587: 0.51153, 586: 0.03507, 585: 1.34749,
                584: 1.28471, 583: 0.89441, 582: 1.19456, 581:-0.16492, 580: 0.55312, 579: 0.40827, 578:-0.21489, 577:-4.76681
   654 |      | 624: 0.33449, 623:-0.58534, 622: 0.30027, 621:-0.06925, 620: 0.25518, 619:-1.36124, 618:-0.94522, 617:-1.82059,
                616: 0.59669, 615:-1.29868, 614:-1.30441, 613: 0.56823, 612:-1.25028, 611: 2.06525, 610: 1.69326, 609:-0.97225,
                608: 1.22368, 607:-0.26824, 606:-1.91762, 605:-0.54959, 604: 0.35891, 603: 0.22629, 602: 0.07206, 601:-1.40944,
                600: 2.92439, 599: 0.02161, 598: 0.51480, 597: 0.05528, 596: 0.23018, 595:-0.85853, 594:-0.79261, 593:-1.86845,
                592:-0.52725, 591: 1.51381, 590:-0.41180, 589: 0.00939, 588:-0.29546, 587:-0.06438, 586:-0.65924, 585:-1.72924,
                584:-1.79762, 583:-3.19098, 582: 0.38808, 581:-0.25199, 580:-0.90903, 579:-0.75877, 578:-0.80286, 577: 1.38441
   655 |      | 624:-0.36057, 623: 0.41541, 622: 1.03758, 621:-0.14560, 620: 0.89907, 619: 0.98571, 618:-0.18439, 617:-0.27402,
                616:-1.56118, 615:-0.39908, 614:-0.59063, 613:-0.46645, 612:-0.14076, 611:-1.91786, 610:-1.92541, 609:-2.13755,
                608:-0.73427, 607: 0.45043, 606:-2.43695, 605:-2.35525, 604:-0.58195, 603: 0.76189, 602:-1.46997, 601:-0.52846,
                600: 2.83992, 599: 0.96231, 598:-0.97473, 597:-1.47806, 596:-0.63053, 595: 0.13312, 594: 0.25628, 593:-0.41796,
                592: 0.45691, 591:-3.52992, 590:-0.47598, 589:-0.77571, 588:-0.73023, 587: 0.43937, 586:-0.00249, 585:-2.28844,
                584:-0.05193, 583: 2.36632, 582: 1.92874, 581: 0.79603, 580: 0.20484, 579:-1.14333, 578:-0.07229, 577: 0.77606
   656 |      | 624:-0.92275, 623:-0.98957, 622:-1.45106, 621:-1.22382, 620: 1.39739, 619:-1.86360, 618:-0.91270, 617:-1.16003,
                616:-1.33103, 615: 0.23168, 614: 0.60566, 613:-0.79260, 612:-0.40646, 611:-0.56001, 610:-0.16472, 609: 0.69876,
                608:-0.40560, 607:-0.12027, 606: 0.05181, 605:-1.66505, 604:-0.04471, 603: 0.91919, 602: 0.36793, 601: 0.39006,
                600:-0.84826, 599: 0.40263, 598:-2.22678, 597:-1.15349, 596:-0.28352, 595: 0.11349, 594: 0.52648, 593:-0.58257,
                592:-0.89003, 591: 0.68072, 590:-2.13686, 589: 0.80978, 588:-0.92916, 587: 0.75613, 586: 1.89045, 585:-0.06371,
                584:-0.58657, 583: 1.05714, 582:-1.23301, 581:-1.08377, 580:-0.55139, 579:-0.62473, 578: 0.86652, 577: 0.23971
   657 |      | 624:-1.51658, 623:-0.24320, 622:-1.40662, 621:-1.35366, 620: 1.45624, 619: 2.61375, 618:-2.38053, 617: 0.28401,
                616:-0.12050, 615:-0.50827, 614:-0.96805, 613:-1.09116, 612: 2.23544, 611:-2.20456, 610:-1.14015, 609:-0.50522,
                608: 1.71718, 607:-1.38948, 606:-0.93187, 605: 0.69120, 604: 1.52895, 603:-0.53884, 602:-0.47235, 601:-0.41344,
                600:-1.32527, 599: 0.30400, 598:-0.68673, 597:-0.77652, 596: 0.41838, 595:-1.23466, 594:-1.63706, 593: 0.64432,
                592: 1.09444, 591: 1.77988, 590: 0.67074, 589:-1.25046, 588: 0.13481, 587:-1.14065, 586:-0.08601, 585:-2.61534,
                584:-1.73076, 583: 1.39431, 582: 0.95546, 581: 0.12911, 580:-0.49414, 579: 0.48605, 578:-1.24855, 577:-3.41740
   658 |      | 624:-0.84907, 623:-0.27468, 622:-1.58870, 621:-0.93852, 620: 1.89382, 619:-0.15368, 618: 2.51385, 617: 1.03026,
                616:-1.11688, 615:-0.24145, 614: 0.16303, 613:-0.60763, 612:-1.54442, 611: 1.55439, 610: 1.02428, 609:-1.92068,
                608: 0.44624, 607:-1.46752, 606: 0.44048, 605: 0.70936, 604:-2.15508, 603:-1.61525, 602:-0.15120, 601: 0.17210,
                600: 1.69246, 599:-0.28971, 598:-0.78884, 597:-0.78605, 596:-0.71376, 595:-1.83208, 594:-1.36525, 593: 2.63995,
                592: 0.43685, 591: 0.34937, 590: 0.03094, 589: 0.82009, 588: 0.51934, 587:-1.06830, 586: 1.19067, 585:-2.29587,
                584:-1.66458, 583: 0.13885, 582: 0.31667, 581:-0.36093, 580:-1.18360, 579:-1.34333, 578:-0.59920, 577:-3.19673
   659 |      | 624:-0.22280, 623:-0.89681, 622: 0.96968, 621:-0.43952, 620: 0.34319, 619:-3.25566, 618:-1.78786, 617: 1.94131,
                616:-0.46655, 615:-1.12505, 614:-0.02900, 613:-1.53579, 612: 0.81675, 611:-0.92270, 610:-0.22436, 609: 2.61890,
                608:-1.32044, 607: 0.09482, 606:-0.00843, 605: 1.13991, 604: 0.98323, 603:-0.38966, 602:-1.31904, 601: 0.02351,
                600: 3.93147, 599:-0.80051, 598:-0.14819, 597:-1.43592, 596:-0.31137, 595:-0.47410, 594:-1.73487, 593: 0.86295,
                592: 0.60814, 591:-1.70550, 590:-0.58329, 589:-0.42509, 588:-0.53702, 587: 0.22510, 586:-0.00208, 585:-2.07213,
                584:-1.62266, 583:-0.18328, 582:-0.63754, 581: 1.24614, 580:-0.37752, 579: 0.35632, 578:-0.28995, 577:-3.36575
   660 |      | 624:-0.12124, 623:-0.31596, 622:-1.55366, 621:-0.80548, 620:-1.23851, 619:-4.93888, 618: 0.23890, 617: 3.78939,
                616:-0.27372, 615:-1.29577, 614:-2.34472, 613:-1.70963, 612: 2.54209, 611: 0.91028, 610:-0.44774, 609:-2.27618,
                608:-1.38487, 607: 0.46759, 606:-1.53691, 605: 3.45832, 604:-0.22919, 603:-1.59457, 602:-0.59121, 601:-1.60914,
                600:-2.63744, 599:-0.20132, 598:-1.52801, 597:-0.65326, 596:-0.70981, 595:-1.25158, 594:-1.23201, 593:-1.73136,
                592:-0.82923, 591: 0.51364, 590:-0.60294, 589: 0.13301, 588: 0.63085, 587: 0.10969, 586: 2.65224, 585:-0.50647,
                584: 0.60534, 583: 3.30030, 582: 1.50015, 581:-1.57496, 580: 0.28546, 579:-2.90639, 578:-0.29114, 577:-0.00484
   661 |      | 624:-1.51125, 623:-1.42934, 622: 2.28425, 621:-0.88287, 620:-3.77264, 619: 0.26090, 618:-0.76252, 617:-1.35514,
                616: 0.20083, 615:-0.21629, 614:-0.95468, 613:-1.41765, 612: 0.63515, 611:-1.18794, 610:-0.37852, 609: 1.16435,
                608:-1.57584, 607:-0.09175, 606:-2.79353, 605: 0.59277, 604: 2.34581, 603: 0.94556, 602:-0.98819, 601:-1.66295,
                600:-0.69894, 599: 0.20569, 598: 0.37042, 597:-0.83907, 596:-0.24874, 595:-1.56300, 594: 0.04551, 593:-0.97101,
                592: 0.12703, 591:-0.50487, 590:-0.61255, 589:-0.15067, 588: 0.32215, 587:-1.14628, 586:-0.71274, 585: 1.58139,
                584:-0.59831, 583: 1.40926, 582:-0.33517, 581:-0.32728, 580: 0.15010, 579: 2.33065, 578:-0.26258, 577: 2.35909
   662 |      | 624:-1.19541, 623: 0.23318, 622: 1.94160, 621: 0.23030, 620: 0.13457, 619:-0.66812, 618:-0.05463, 617: 0.18002,
                616:-0.70139, 615:-1.07989, 614:-1.42026, 613:-0.19191, 612:-0.59846, 611:-1.16327, 610:-0.12637, 609: 1.94470,
                608:-3.31714, 607: 0.47193, 606:-1.31031, 605:-0.69597, 604: 1.27932, 603:-2.99075, 602:-1.11184, 601: 0.17783,
                600:-1.74125, 599:-0.10537, 598:-0.22986, 597: 0.11351, 596: 0.54149, 595:-0.78380, 594:-0.99030, 593:-1.75329,
                592:-0.32927, 591: 0.06083, 590: 0.58709, 589:-0.91592, 588: 0.41291, 587:-0.06578, 586: 1.65390, 585:-2.32865,
                584:-0.83694, 583: 1.04248, 582: 2.36756, 581:-3.21852, 580:-0.23816, 579:-2.04283, 578:-0.98806, 577: 2.29621
   663 |      | 624:-1.13505, 623:-1.39524, 622: 1.20721, 621:-1.71710, 620: 0.82493, 619: 1.38170, 618: 0.71252, 617: 0.57390,
                616:-1.13022, 615: 0.61383, 614:-1.20458, 613:-0.54488, 612:-1.56706, 611:-1.55371, 610:-0.38588, 609:-1.26702,
                608: 2.05653, 607:-1.12223, 606: 0.01520, 605:-3.09294, 604: 4.38239, 603:-0.05830, 602: 0.09318, 601:-1.02394,
                600:-1.75286, 599: 0.18041, 598:-0.22729, 597:-1.10549, 596: 0.22147, 595:-0.34413, 594: 0.20394, 593:-0.96355,
                592: 0.49680, 591: 1.82049, 590: 0.34112, 589:-1.39890, 588:-0.81073, 587:-0.68289, 586:-3.42792, 585:-2.53665,
                584:-0.34894, 583: 0.43915, 582: 0.73095, 581:-2.39040, 580: 0.04055, 579:-2.58057, 578:-0.66067, 577: 1.31412
   664 |      | 624:-0.87378, 623: 0.02122, 622: 0.89287, 621: 0.18296, 620:-2.88871, 619: 1.46025, 618:-0.93403, 617:-0.29505,
                616:-0.15139, 615: 0.77458, 614:-1.53904, 613:-1.10593, 612: 0.77931, 611:-1.39174, 610:-2.31882, 609: 0.74976,
                608:-1.49614, 607:-0.95847, 606: 1.06895, 605:-2.36623, 604:-0.57968, 603: 0.21518, 602:-1.12607, 601:-0.61931,
                600:-0.86078, 599:-0.55847, 598:-1.02437, 597:-1.24231, 596:-1.67432, 595:-1.07193, 594:-0.54839, 593: 2.57561,
                592:-0.04330, 591:-0.85555, 590:-0.78437, 589:-0.41387, 588: 0.12123, 587: 0.04666, 586: 1.26287, 585:-3.90890,
                584:-0.28446, 583: 1.59923, 582:-2.32177, 581:-1.17756, 580:-1.88468, 579: 1.90245, 578: 0.85231, 577: 1.56641
   665 |      | 624:-1.34367, 623:-0.36055, 622: 2.66924, 621:-0.50142, 620: 0.49984, 619:-1.43672, 618:-0.64975, 617: 0.20111,
                616:-0.69320, 615:-1.45913, 614:-1.90594, 613:-0.55590, 612: 1.74600, 611:-0.71295, 610:-2.05645, 609:-1.73983,
                608: 2.52933, 607: 0.31280, 606:-3.97308, 605: 0.87433, 604: 1.70017, 603: 0.24269, 602:-0.11218, 601:-2.06803,
                600: 3.34729, 599:-0.45223, 598:-1.74598, 597:-1.32076, 596:-0.23887, 595:-2.16258, 594:-1.88617, 593: 0.22937,
                592:-0.61684, 591:-0.76028, 590:-1.10060, 589: 0.44790, 588:-1.03114, 587:-0.65894, 586: 1.39888, 585: 1.48139,
                584:-0.47981, 583:-4.37983, 582:-0.21813, 581: 0.54733, 580:-1.17877, 579:-0.21400, 578:-0.55284, 577: 0.79894
   666 |      | 624:-0.76512, 623:-1.63102, 622: 1.84580, 621:-0.19403, 620:-0.57411, 619:-1.59255, 618:-0.69421, 617:-2.92823,
                616:-0.48387, 615:-0.18290, 614:-1.14829, 613:-0.19038, 612:-1.41014, 611:-0.90599, 610: 1.31082, 609:-1.72278,
                608: 2.18944, 607: 0.72320, 606:-1.27396, 605:-1.04479, 604: 2.97232, 603: 0.14492, 602:-0.63616, 601:-1.32053,
                600:-3.00230, 599: 0.48986, 598:-0.06154, 597: 0.17704, 596:-0.03394, 595:-0.82953, 594:-0.93801, 593:-1.38954,
                592: 0.69995, 591: 0.56466, 590:-0.28044, 589: 0.64203, 588:-1.53652, 587:-1.00761, 586:-0.15671, 585: 1.27825,
                584: 0.01031, 583:-2.09727, 582:-1.17223, 581: 2.49754, 580: 0.48154, 579:-1.61768, 578:-0.90058, 577: 1.81252
   667 |      | 624: 0.11050, 623:-1.62411, 622: 1.34827, 621:-0.04437, 620: 1.59048, 619:-2.75883, 618:-0.28169, 617:-2.61763,
                616:-0.92130, 615:-0.09950, 614:-0.34942, 613:-0.01452, 612: 1.53616, 611:-0.60791, 610: 0.29928, 609: 0.58889,
                608:-3.01593, 607:-0.70107, 606:-1.43403, 605: 1.36031, 604: 2.55994, 603:-0.75402, 602:-0.54189, 601:-1.37910,
                600:-2.06754, 599:-0.37180, 598:-0.89594, 597:-0.85864, 596:-0.10914, 595:-1.59234, 594:-1.96819, 593: 4.07924,
                592:-0.02145, 591: 0.38406, 590:-0.14546, 589:-0.40553, 588:-0.80862, 587: 0.48133, 586:-2.10334, 585: 0.14972,
