SNNS network definition file V1.4-3D
generated at Fri Oct  7 14:47:38 1994

network name : letseq_elman_untrained
source files :
no. of units : 52
no. of connections : 680
no. of unit types : 0
no. of site types : 0


learning function : JE_BP
update function   : JE_Order


unit default section :

act      | bias     | st | subnet | layer | act func     | out func
---------|----------|----|--------|-------|--------------|-------------
 0.00000 |  0.00000 | h  |      0 |     1 | Act_Logistic | Out_Identity 
---------|----------|----|--------|-------|--------------|-------------


unit definition section :

no. | typeName | unitName    | act      | bias     | st | position | act func     | out func | sites
----|----------|-------------|----------|----------|----|----------|--------------|----------|-------
  1 |          | consonant   |  1.00000 | -0.26021 | i  |  1, 1, 0 | Act_Identity |          | 
  2 |          | vowel       |  0.00000 | -0.10861 | i  |  1, 2, 0 | Act_Identity |          | 
  3 |          | interrupted |  1.00000 | -0.13379 | i  |  1, 3, 0 | Act_Identity |          | 
  4 |          | high        |  0.00000 |  0.67939 | i  |  1, 4, 0 | Act_Identity |          | 
  5 |          | back        |  1.00000 | -0.02184 | i  |  1, 5, 0 | Act_Identity |          | 
  6 |          | voiced      |  1.00000 | -0.64955 | i  |  1, 6, 0 | Act_Identity |          | 
  7 |          | hid1        |  0.57036 | -0.67694 | h  | 10, 1, 0 |||
  8 |          | hid2        |  0.00369 |  0.11524 | h  | 11, 1, 0 |||
  9 |          | hid3        |  0.00062 |  0.21526 | h  | 12, 1, 0 |||
 10 |          | hid4        |  0.00152 |  0.47650 | h  | 13, 1, 0 |||
 11 |          | hid5        |  0.05810 |  0.50720 | h  | 10, 2, 0 |||
 12 |          | hid6        |  0.02593 | -0.79119 | h  | 11, 2, 0 |||
 13 |          | hid7        |  0.02745 |  0.83955 | h  | 12, 2, 0 |||
 14 |          | hid8        |  0.99894 |  0.75571 | h  | 13, 2, 0 |||
 15 |          | hid9        |  0.00392 | -0.05318 | h  | 10, 3, 0 |||
 16 |          | hid10       |  0.98341 |  0.69228 | h  | 11, 3, 0 |||
 17 |          | hid11       |  0.04472 | -0.87300 | h  | 12, 3, 0 |||
 18 |          | hid12       |  0.13218 | -0.73443 | h  | 13, 3, 0 |||
 19 |          | hid13       |  0.99918 |  0.01412 | h  | 10, 4, 0 |||
 20 |          | hid14       |  0.16120 |  0.97110 | h  | 11, 4, 0 |||
 21 |          | hid15       |  0.96272 | -0.65825 | h  | 12, 4, 0 |||
 22 |          | hid16       |  0.93516 | -0.57478 | h  | 13, 4, 0 |||
 23 |          | hid17       |  0.01479 | -0.16312 | h  | 10, 5, 0 |||
 24 |          | hid18       |  0.27040 |  0.63554 | h  | 11, 5, 0 |||
 25 |          | hid19       |  0.12593 |  0.46591 | h  | 12, 5, 0 |||
 26 |          | hid20       |  0.09606 | -0.46401 | h  | 13, 5, 0 |||
 27 |          | consonant   |  0.00002 | -0.43798 | o  | 19, 1, 0 |||
 28 |          | vowel       |  0.99993 | -0.45021 | o  | 19, 2, 0 |||
 29 |          | interrupted |  0.00005 | -0.89494 | o  | 19, 3, 0 |||
 30 |          | high        |  0.99484 | -0.31409 | o  | 19, 4, 0 |||
 31 |          | back        |  0.99785 | -0.89800 | o  | 19, 5, 0 |||
 32 |          | voiced      |  1.00000 |  0.87071 | o  | 19, 6, 0 |||
 33 |          | con1        |  0.00000 |  0.50000 | sh  |  4, 8, 0 | Act_Identity |          | 
 34 |          | con2        |  0.00000 |  0.50000 | sh  |  5, 8, 0 | Act_Identity |          | 
 35 |          | con3        |  0.00000 |  0.50000 | sh  |  6, 8, 0 | Act_Identity |          | 
 36 |          | con4        |  0.00000 |  0.50000 | sh  |  7, 8, 0 | Act_Identity |          | 
 37 |          | con5        |  0.00000 |  0.50000 | sh  |  4, 9, 0 | Act_Identity |          | 
 38 |          | con6        |  0.00000 |  0.50000 | sh  |  5, 9, 0 | Act_Identity |          | 
 39 |          | con7        |  0.00000 |  0.50000 | sh  |  6, 9, 0 | Act_Identity |          | 
 40 |          | con8        |  0.00000 |  0.50000 | sh  |  7, 9, 0 | Act_Identity |          | 
 41 |          | con9        |  0.00000 |  0.50000 | sh  |  4,10, 0 | Act_Identity |          | 
 42 |          | con10       |  0.00000 |  0.50000 | sh  |  5,10, 0 | Act_Identity |          | 
 43 |          | con11       |  0.00000 |  0.50000 | sh  |  6,10, 0 | Act_Identity |          | 
 44 |          | con12       |  0.00000 |  0.50000 | sh  |  7,10, 0 | Act_Identity |          | 
 45 |          | con13       |  0.00000 |  0.50000 | sh  |  4,11, 0 | Act_Identity |          | 
 46 |          | con14       |  0.00000 |  0.50000 | sh  |  5,11, 0 | Act_Identity |          | 
 47 |          | con15       |  0.00000 |  0.50000 | sh  |  6,11, 0 | Act_Identity |          | 
 48 |          | con16       |  0.00000 |  0.50000 | sh  |  7,11, 0 | Act_Identity |          | 
 49 |          | con17       |  0.00000 |  0.50000 | sh  |  4,12, 0 | Act_Identity |          | 
 50 |          | con18       |  0.00000 |  0.50000 | sh  |  5,12, 0 | Act_Identity |          | 
 51 |          | con19       |  0.00000 |  0.50000 | sh  |  6,12, 0 | Act_Identity |          | 
 52 |          | con20       |  0.00000 |  0.50000 | sh  |  7,12, 0 | Act_Identity |          | 
----|----------|-------------|----------|----------|----|----------|--------------|----------|-------


connection definition section :

target | site | source:weight
-------|------|---------------------------------------------------------------------------------------------------------------------
     7 |      |  1:-0.73235,  2:-0.84313,  3: 0.87083,  4:-0.06956,  5:-0.68507,  6:-0.48562, 33: 0.39775, 34: 0.63052, 35:-0.21033,
                36:-0.07578, 37: 0.54943, 38: 0.36156, 39: 0.12691, 40:-0.31671, 41: 0.12172, 42: 0.17951, 43:-0.34768, 44:-0.94498,
                45:-0.93250, 46: 0.12550, 47:-0.82887, 48:-0.50725, 49:-0.80749, 50:-0.11886, 51:-0.29329, 52: 0.76501
     8 |      |  1: 0.02222,  2:-0.40126,  3: 0.43950,  4:-0.25948,  5:-0.53351,  6:-0.29869, 33:-0.96541, 34: 0.46849, 35:-0.32596,
                36: 0.92750, 37: 0.63668, 38: 0.94315, 39:-0.44388, 40:-0.24304, 41:-0.22494, 42: 0.64962, 43:-0.27165, 44:-0.83506,
                45:-0.94866, 46: 0.87459, 47:-0.34764, 48: 0.57052, 49: 0.49083, 50:-0.80036, 51: 0.88070, 52: 0.38396
     9 |      |  1:-0.98266,  2:-0.31296,  3:-0.67842,  4:-0.93024,  5:-0.26746,  6:-0.95093, 33:-0.66632, 34:-0.14333, 35:-0.01125,
                36:-0.42454, 37:-0.54197, 38:-0.73888, 39:-0.93351, 40:-0.55774, 41:-0.41134, 42:-0.82836, 43: 0.62743, 44:-0.26666,
                45: 0.67481, 46: 0.51640, 47: 0.28663, 48:-0.63524, 49: 0.59649, 50:-0.08674, 51:-0.38610, 52: 0.70690
    10 |      |  1: 0.17055,  2: 0.59256,  3: 0.38766,  4:-0.22078,  5: 0.12279,  6:-0.73361, 33:-0.05312, 34: 0.72788, 35: 0.43171,
                36: 0.21889, 37: 0.98993, 38: 0.57605, 39:-0.83864, 40:-0.94269, 41: 0.32596, 42:-0.45203, 43:-0.67504, 44:-0.40935,
                45: 0.93622, 46:-0.01498, 47: 0.72194, 48:-0.26265, 49: 0.25457, 50: 0.79148, 51:-0.39880, 52:-0.81470
    11 |      |  1:-0.23148,  2:-0.28942,  3:-0.26616,  4:-0.80619,  5: 0.18816,  6: 0.67476, 33: 0.32196, 34:-0.76471, 35: 0.03264,
                36:-0.71791, 37:-0.29354, 38: 0.99473, 39: 0.97369, 40:-0.10652, 41:-0.71692, 42: 0.02366, 43: 0.37263, 44:-0.10031,
                45: 0.79790, 46: 0.81166, 47: 0.54746, 48: 0.87318, 49:-0.20232, 50:-0.56204, 51: 0.19669, 52:-0.94084
    12 |      |  1:-0.65658,  2:-0.66918,  3: 0.24312,  4:-0.02478,  5:-0.43967,  6: 0.19783, 33: 0.27763, 34: 0.25565, 35: 0.84910,
                36:-0.42413, 37:-0.04783, 38:-0.72239, 39:-0.91796, 40:-0.76171, 41:-0.90702, 42:-0.96309, 43: 0.76643, 44:-0.61174,
                45: 0.27555, 46:-0.94797, 47:-0.71421, 48:-0.85642, 49: 0.15425, 50: 0.23733, 51: 0.82878, 52:-0.32100
    13 |      |  1: 0.52077,  2: 0.23104,  3: 0.07317,  4:-0.99516,  5: 0.44174,  6: 0.33297, 33:-0.85157, 34:-0.65272, 35: 0.93433,
                36:-0.19520, 37:-0.75807, 38: 0.86914, 39: 0.60927, 40:-0.34685, 41: 0.73233, 42: 0.24073, 43:-0.15758, 44:-0.66179,
                45:-0.18813, 46: 0.64983, 47: 0.07564, 48: 0.22707, 49: 0.20314, 50: 0.27505, 51:-0.87700, 52: 0.21297
    14 |      |  1:-0.57290,  2: 0.60528,  3: 0.05938,  4:-0.17902,  5: 0.90855,  6: 0.53231, 33: 0.29456, 34: 0.41396, 35:-0.97756,
                36:-0.39283, 37:-0.70759, 38:-0.93246, 39: 0.52714, 40:-0.90033, 41:-0.87168, 42: 0.32448, 43:-0.35139, 44:-0.34278,
                45: 0.58825, 46: 0.57210, 47: 0.82459, 48:-0.31117, 49: 0.62172, 50:-0.30135, 51: 0.31403, 52: 0.93724
    15 |      |  1: 0.35278,  2:-0.84947,  3:-0.51703,  4:-0.58924,  5: 0.65029,  6:-0.51629, 33: 0.10426, 34:-0.84693, 35:-0.55291,
                36: 0.31539, 37:-0.97623, 38: 0.27067, 39:-0.04612, 40: 0.52027, 41:-0.55353, 42:-0.69791, 43: 0.89460, 44:-0.79286,
                45: 0.74539, 46: 0.78029, 47: 0.71562, 48: 0.63780, 49:-0.03933, 50:-0.20550, 51:-0.13914, 52:-0.37289
    16 |      |  1:-0.01274,  2: 0.88610,  3:-0.50261,  4:-0.79665,  5: 0.82524,  6:-0.54495, 33: 0.99265, 34: 0.29516, 35: 0.04502,
                36:-0.97440, 37: 0.15779, 38:-0.57825, 39:-0.29281, 40: 0.49535, 41: 0.98192, 42: 0.70286, 43:-0.29459, 44:-0.84700,
                45: 0.86533, 46:-0.43718, 47: 0.37708, 48: 0.11451, 49: 0.81142, 50: 0.22790, 51: 0.14979, 52:-0.13326
    17 |      |  1: 0.28762,  2:-0.87575,  3:-0.32568,  4: 0.63972,  5:-0.03805,  6: 0.92895, 33: 0.22122, 34:-0.34355, 35: 0.08520,
                36:-0.03597, 37: 0.97125, 38:-0.41920, 39:-0.44716, 40: 0.75654, 41: 0.07423, 42:-0.88282, 43: 0.98454, 44: 0.14542,
                45:-0.83308, 46:-0.01151, 47: 0.50782, 48: 0.56310, 49:-0.20864, 50:-0.89188, 51: 0.20481, 52: 0.03913
    18 |      |  1:-0.96160,  2: 0.19817,  3: 0.56705,  4:-0.69981,  5: 0.54635,  6:-0.63659, 33: 0.09489, 34: 0.28683, 35: 0.18677,
                36:-0.01140, 37:-0.84361, 38:-0.46748, 39:-0.50228, 40:-0.42168, 41: 0.68819, 42:-0.45407, 43: 0.82567, 44:-0.39977,
                45:-0.90068, 46: 0.27494, 47: 0.59051, 48: 0.95527, 49: 0.49477, 50: 0.65454, 51: 0.38176, 52: 0.93887
    19 |      |  1:-0.63172,  2:-0.58164,  3: 0.54226,  4:-0.46296,  5: 0.99407,  6:-0.77872, 33: 0.18129, 34:-0.87168, 35:-0.94653,
                36:-0.20195, 37:-0.13672, 38: 0.24008, 39:-0.51033, 40:-0.97370, 41: 0.90971, 42:-0.85584, 43: 0.05676, 44:-0.60608,
                45:-0.39052, 46:-0.28432, 47:-0.47362, 48:-0.20226, 49:-0.47942, 50: 0.50210, 51: 0.73934, 52: 0.05494
    20 |      |  1:-0.93887,  2: 0.80067,  3:-0.68157,  4:-0.99313,  5:-0.50389,  6:-0.69358, 33:-0.76834, 34: 0.43427, 35: 0.71552,
                36:-0.21132, 37:-0.22542, 38: 0.52319, 39:-0.45579, 40:-0.32178, 41: 0.04948, 42:-0.35284, 43: 0.85949, 44:-0.66095,
                45:-0.71328, 46:-0.10834, 47: 0.45473, 48: 0.17031, 49: 0.01107, 50: 0.17576, 51: 0.47541, 52:-0.33827
    21 |      |  1: 0.39159,  2:-0.24659,  3: 0.61315,  4:-0.11525,  5: 0.62463,  6: 0.00312, 33:-0.31468, 34: 0.54494, 35:-0.20075,
                36:-0.95139, 37:-0.03950, 38:-0.89288, 39: 0.68935, 40: 0.53247, 41:-0.60563, 42: 0.72647, 43: 0.70452, 44:-0.98853,
                45: 0.79387, 46:-0.01266, 47:-0.76328, 48:-0.83307, 49: 0.33381, 50:-0.76051, 51: 0.62926, 52: 0.83490
    22 |      |  1: 0.14662,  2:-0.52417,  3:-0.42622,  4: 0.98185,  5:-0.72295,  6: 0.40779, 33: 0.01012, 34: 0.53222, 35: 0.96090,
                36:-0.31300, 37: 0.80447, 38: 0.14359, 39: 0.21302, 40:-0.33702, 41:-0.07878, 42:-0.56929, 43:-0.70411, 44: 0.81784,
                45: 0.22466, 46: 0.90616, 47: 0.33718, 48:-0.97822, 49: 0.10814, 50:-0.80401, 51: 0.53264, 52: 0.53450
    23 |      |  1: 0.02270,  2: 0.90767,  3:-0.03767,  4:-0.91446,  5:-0.11001,  6: 0.77840, 33:-0.96654, 34:-0.59039, 35: 0.85586,
                36:-0.81605, 37: 0.87030, 38: 0.32929, 39:-0.86678, 40:-0.75844, 41:-0.92688, 42: 0.64481, 43: 0.21281, 44:-0.96867,
                45: 0.00483, 46: 0.45504, 47:-0.81916, 48: 0.02062, 49:-0.72353, 50: 0.12189, 51: 0.54244, 52: 0.80328
    24 |      |  1: 0.71227,  2:-0.48070,  3: 0.01665,  4:-0.21473,  5: 0.94953,  6:-0.95848, 33:-0.48952, 34: 0.60958, 35: 0.70487,
                36:-0.20499, 37: 0.32463, 38: 0.81315, 39:-0.06252, 40: 0.23036, 41:-0.22407, 42: 0.04367, 43: 0.72355, 44:-0.38104,
                45: 0.29349, 46:-0.45085, 47: 0.66888, 48: 0.50952, 49:-0.24712, 50: 0.70879, 51: 0.23772, 52:-0.53895
    25 |      |  1:-0.79489,  2:-0.89041,  3: 0.09810,  4: 0.04784,  5: 0.98597,  6: 0.94393, 33: 0.45538, 34: 0.81785, 35:-0.22038,
                36:-0.66578, 37:-0.42020, 38:-0.25630, 39:-0.98043, 40:-0.69482, 41: 0.48270, 42: 0.11474, 43:-0.67200, 44: 0.57953,
                45:-0.95270, 46:-0.14214, 47:-0.12003, 48:-0.26008, 49:-0.62148, 50: 0.78447, 51:-0.81785, 52:-0.84579
    26 |      |  1: 0.99846,  2: 0.17068,  3:-0.46818,  4:-0.46466,  5:-0.52037,  6: 0.65571, 33:-0.26016, 34:-0.92278, 35: 0.59668,
                36:-0.42454, 37: 0.13075, 38:-0.47494, 39: 0.45975, 40: 0.29966, 41: 0.31133, 42:-0.72277, 43:-0.10388, 44:-0.66106,
                45: 0.80289, 46:-0.33768, 47:-0.92875, 48:-0.26026, 49:-0.71425, 50: 0.84164, 51:-0.12988, 52: 0.60998
    27 |      |  7:-0.33809,  8:-0.06346,  9: 0.53190, 10: 0.57721, 11:-0.08351, 12: 0.41603, 13: 0.94993, 14: 0.97664, 15:-0.28627,
                16: 0.98525, 17: 0.31346, 18:-0.00919, 19:-0.49445, 20: 0.54039, 21:-0.88155, 22: 0.79687, 23:-0.59444, 24: 0.16963,
                25:-0.19301, 26: 0.83256
    28 |      |  7: 0.80183,  8: 0.49778,  9:-0.61785, 10:-0.03052, 11: 0.60251, 12: 0.95094, 13:-0.25739, 14:-0.48142, 15:-0.98133,
                16: 0.20170, 17:-0.36427, 18: 0.30958, 19:-0.05970, 20: 0.58495, 21:-0.42228, 22: 0.56327, 23: 0.17603, 24: 0.03858,
                25: 0.56357, 26: 0.18911
    29 |      |  7:-0.28995,  8: 0.67467,  9: 0.42261, 10:-0.41758, 11:-0.94150, 12: 0.67534, 13: 0.81220, 14:-0.10167, 15:-0.62723,
                16:-0.98026, 17:-0.65447, 18: 0.62851, 19:-0.58775, 20: 0.23185, 21:-0.16964, 22: 0.70639, 23: 0.68944, 24:-0.26980,
                25:-0.68945, 26: 0.99103
    30 |      |  7:-0.18166,  8: 0.53648,  9: 0.33008, 10: 0.43080, 11: 0.82197, 12:-0.22780, 13:-0.19744, 14: 0.74744, 15: 0.88473,
                16:-0.32121, 17:-0.00570, 18: 0.92924, 19:-0.50607, 20:-0.94646, 21:-0.82699, 22: 0.45246, 23:-0.25606, 24: 0.93490,
                25: 0.80083, 26:-0.14994
    31 |      |  7:-0.66992,  8: 0.50164,  9:-0.69572, 10: 0.05603, 11:-0.36942, 12: 0.28493, 13:-0.41505, 14:-0.37224, 15: 0.91387,
                16:-0.74172, 17:-0.65098, 18: 0.05106, 19: 0.77090, 20:-0.67996, 21:-0.31972, 22:-0.23598, 23: 0.24806, 24:-0.65939,
                25:-0.79055, 26:-0.34483
    32 |      |  7:-0.61369,  8: 0.80450,  9: 0.74621, 10:-0.33944, 11:-0.27088, 12:-0.77810, 13:-0.71557, 14: 0.42930, 15: 0.17785,
                16:-0.71174, 17: 0.75140, 18:-0.49821, 19:-0.03539, 20: 0.13856, 21: 0.35777, 22: 0.18874, 23: 0.66991, 24:-0.76218,
                25: 0.06771, 26: 0.80508
    33 |      |  7: 0.00000, 33: 0.00000
    34 |      |  8: 0.00000, 34: 0.00000
    35 |      |  9: 0.00000, 35: 0.00000
    36 |      | 10: 0.00000, 36: 0.00000
    37 |      | 11: 0.00000, 37: 0.00000
    38 |      | 12: 0.00000, 38: 0.00000
    39 |      | 13: 0.00000, 39: 0.00000
    40 |      | 14: 0.00000, 40: 0.00000
    41 |      | 15: 0.00000, 41: 0.00000
    42 |      | 16: 0.00000, 42: 0.00000
    43 |      | 17: 0.00000, 43: 0.00000
    44 |      | 18: 0.00000, 44: 0.00000
    45 |      | 19: 0.00000, 45: 0.00000
    46 |      | 20: 0.00000, 46: 0.00000
    47 |      | 21: 0.00000, 47: 0.00000
    48 |      | 22: 0.00000, 48: 0.00000
    49 |      | 23: 0.00000, 49: 0.00000
    50 |      | 24: 0.00000, 50: 0.00000
    51 |      | 25: 0.00000, 51: 0.00000
    52 |      | 26: 0.00000, 52: 0.00000
-------|------|---------------------------------------------------------------------------------------------------------------------
