SNNS network definition file V1.4-3D
generated at Fri Apr 22 20:18:33 1994

network name : nettalk
source files :
no. of units : 349
no. of connections : 27480
no. of unit types : 0
no. of site types : 0


learning function : Std_Backpropagation
update function   : Topological_Order


unit default section :

act      | bias     | st | subnet | layer | act func        | out func
---------|----------|----|--------|-------|-----------------|-------------
 0.00000 |  0.00000 | h  |      0 |     1 | Act_LogisticTbl | Out_Identity 
---------|----------|----|--------|-------|-----------------|-------------


unit definition section :

no. | typeName | unitName | act      | bias     | st | position | act func | out func | sites
----|----------|----------|----------|----------|----|----------|----------|----------|-------
  1 |          |          |  1.00000 |  0.00000 | i  |  1, 1, 0 |||
  2 |          |          |  0.00000 |  0.00000 | i  |  2, 1, 0 |||
  3 |          |          |  0.00000 |  0.00000 | i  |  3, 1, 0 |||
  4 |          |          |  0.00000 |  0.00000 | i  |  4, 1, 0 |||
  5 |          |          |  0.00000 |  0.00000 | i  |  5, 1, 0 |||
  6 |          |          |  0.00000 |  0.00000 | i  |  6, 1, 0 |||
  7 |          |          |  0.00000 |  0.00000 | i  |  7, 1, 0 |||
  8 |          |          |  0.00000 |  0.00000 | i  |  1, 2, 0 |||
  9 |          |          |  0.00000 |  0.00000 | i  |  2, 2, 0 |||
 10 |          |          |  0.00000 |  0.00000 | i  |  3, 2, 0 |||
 11 |          |          |  0.00000 |  0.00000 | i  |  4, 2, 0 |||
 12 |          |          |  0.00000 |  0.00000 | i  |  5, 2, 0 |||
 13 |          |          |  0.00000 |  0.00000 | i  |  6, 2, 0 |||
 14 |          |          |  0.00000 |  0.00000 | i  |  7, 2, 0 |||
 15 |          |          |  0.00000 |  0.00000 | i  |  1, 3, 0 |||
 16 |          |          |  0.00000 |  0.00000 | i  |  2, 3, 0 |||
 17 |          |          |  0.00000 |  0.00000 | i  |  3, 3, 0 |||
 18 |          |          |  0.00000 |  0.00000 | i  |  4, 3, 0 |||
 19 |          |          |  0.00000 |  0.00000 | i  |  5, 3, 0 |||
 20 |          |          |  0.00000 |  0.00000 | i  |  6, 3, 0 |||
 21 |          |          |  0.00000 |  0.00000 | i  |  7, 3, 0 |||
 22 |          |          |  0.00000 |  0.00000 | i  |  1, 4, 0 |||
 23 |          |          |  0.00000 |  0.00000 | i  |  2, 4, 0 |||
 24 |          |          |  0.00000 |  0.00000 | i  |  3, 4, 0 |||
 25 |          |          |  0.00000 |  0.00000 | i  |  4, 4, 0 |||
 26 |          |          |  0.00000 |  0.00000 | i  |  5, 4, 0 |||
 27 |          |          |  1.00000 |  0.00000 | i  |  6, 4, 0 |||
 28 |          |          |  0.00000 |  0.00000 | i  |  7, 4, 0 |||
 29 |          |          |  0.00000 |  0.00000 | i  |  1, 5, 0 |||
 30 |          |          |  0.00000 |  0.00000 | i  |  2, 5, 0 |||
 31 |          |          |  0.00000 |  0.00000 | i  |  3, 5, 0 |||
 32 |          |          |  0.00000 |  0.00000 | i  |  4, 5, 0 |||
 33 |          |          |  0.00000 |  0.00000 | i  |  5, 5, 0 |||
 34 |          |          |  0.00000 |  0.00000 | i  |  6, 5, 0 |||
 35 |          |          |  0.00000 |  0.00000 | i  |  7, 5, 0 |||
 36 |          |          |  0.00000 |  0.00000 | i  |  1, 6, 0 |||
 37 |          |          |  0.00000 |  0.00000 | i  |  2, 6, 0 |||
 38 |          |          |  0.00000 |  0.00000 | i  |  3, 6, 0 |||
 39 |          |          |  0.00000 |  0.00000 | i  |  4, 6, 0 |||
 40 |          |          |  0.00000 |  0.00000 | i  |  5, 6, 0 |||
 41 |          |          |  0.00000 |  0.00000 | i  |  6, 6, 0 |||
 42 |          |          |  0.00000 |  0.00000 | i  |  7, 6, 0 |||
 43 |          |          |  0.00000 |  0.00000 | i  |  1, 7, 0 |||
 44 |          |          |  0.00000 |  0.00000 | i  |  2, 7, 0 |||
 45 |          |          |  0.00000 |  0.00000 | i  |  3, 7, 0 |||
 46 |          |          |  0.00000 |  0.00000 | i  |  4, 7, 0 |||
 47 |          |          |  0.00000 |  0.00000 | i  |  5, 7, 0 |||
 48 |          |          |  0.00000 |  0.00000 | i  |  6, 7, 0 |||
 49 |          |          |  0.00000 |  0.00000 | i  |  7, 7, 0 |||
 50 |          |          |  0.00000 |  0.00000 | i  |  1, 8, 0 |||
 51 |          |          |  0.00000 |  0.00000 | i  |  2, 8, 0 |||
 52 |          |          |  1.00000 |  0.00000 | i  |  3, 8, 0 |||
 53 |          |          |  0.00000 |  0.00000 | i  |  4, 8, 0 |||
 54 |          |          |  0.00000 |  0.00000 | i  |  5, 8, 0 |||
 55 |          |          |  0.00000 |  0.00000 | i  |  6, 8, 0 |||
 56 |          |          |  0.00000 |  0.00000 | i  |  7, 8, 0 |||
 57 |          |          |  1.00000 |  0.00000 | i  |  1, 9, 0 |||
 58 |          |          |  0.00000 |  0.00000 | i  |  2, 9, 0 |||
 59 |          |          |  0.00000 |  0.00000 | i  |  3, 9, 0 |||
 60 |          |          |  0.00000 |  0.00000 | i  |  4, 9, 0 |||
 61 |          |          |  0.00000 |  0.00000 | i  |  5, 9, 0 |||
 62 |          |          |  0.00000 |  0.00000 | i  |  6, 9, 0 |||
 63 |          |          |  0.00000 |  0.00000 | i  |  7, 9, 0 |||
 64 |          |          |  0.00000 |  0.00000 | i  |  1,10, 0 |||
 65 |          |          |  0.00000 |  0.00000 | i  |  2,10, 0 |||
 66 |          |          |  0.00000 |  0.00000 | i  |  3,10, 0 |||
 67 |          |          |  0.00000 |  0.00000 | i  |  4,10, 0 |||
 68 |          |          |  0.00000 |  0.00000 | i  |  5,10, 0 |||
 69 |          |          |  1.00000 |  0.00000 | i  |  6,10, 0 |||
 70 |          |          |  0.00000 |  0.00000 | i  |  7,10, 0 |||
 71 |          |          |  0.00000 |  0.00000 | i  |  1,11, 0 |||
 72 |          |          |  0.00000 |  0.00000 | i  |  2,11, 0 |||
 73 |          |          |  0.00000 |  0.00000 | i  |  3,11, 0 |||
 74 |          |          |  0.00000 |  0.00000 | i  |  4,11, 0 |||
 75 |          |          |  0.00000 |  0.00000 | i  |  5,11, 0 |||
 76 |          |          |  0.00000 |  0.00000 | i  |  6,11, 0 |||
 77 |          |          |  0.00000 |  0.00000 | i  |  7,11, 0 |||
 78 |          |          |  0.00000 |  0.00000 | i  |  1,12, 0 |||
 79 |          |          |  0.00000 |  0.00000 | i  |  2,12, 0 |||
 80 |          |          |  0.00000 |  0.00000 | i  |  3,12, 0 |||
 81 |          |          |  0.00000 |  0.00000 | i  |  4,12, 0 |||
 82 |          |          |  0.00000 |  0.00000 | i  |  5,12, 0 |||
 83 |          |          |  0.00000 |  0.00000 | i  |  6,12, 0 |||
 84 |          |          |  0.00000 |  0.00000 | i  |  7,12, 0 |||
 85 |          |          |  0.00000 |  0.00000 | i  |  1,13, 0 |||
 86 |          |          |  1.00000 |  0.00000 | i  |  2,13, 0 |||
 87 |          |          |  0.00000 |  0.00000 | i  |  3,13, 0 |||
 88 |          |          |  0.00000 |  0.00000 | i  |  4,13, 0 |||
 89 |          |          |  0.00000 |  0.00000 | i  |  5,13, 0 |||
 90 |          |          |  0.00000 |  0.00000 | i  |  6,13, 0 |||
 91 |          |          |  0.00000 |  0.00000 | i  |  7,13, 0 |||
 92 |          |          |  0.00000 |  0.00000 | i  |  1,14, 0 |||
 93 |          |          |  0.00000 |  0.00000 | i  |  2,14, 0 |||
 94 |          |          |  0.00000 |  0.00000 | i  |  3,14, 0 |||
 95 |          |          |  0.00000 |  0.00000 | i  |  4,14, 0 |||
 96 |          |          |  0.00000 |  0.00000 | i  |  5,14, 0 |||
 97 |          |          |  0.00000 |  0.00000 | i  |  6,14, 0 |||
 98 |          |          |  0.00000 |  0.00000 | i  |  7,14, 0 |||
 99 |          |          |  0.00000 |  0.00000 | i  |  1,15, 0 |||
100 |          |          |  0.00000 |  0.00000 | i  |  2,15, 0 |||
101 |          |          |  0.00000 |  0.00000 | i  |  3,15, 0 |||
102 |          |          |  0.00000 |  0.00000 | i  |  4,15, 0 |||
103 |          |          |  0.00000 |  0.00000 | i  |  5,15, 0 |||
104 |          |          |  0.00000 |  0.00000 | i  |  6,15, 0 |||
105 |          |          |  0.00000 |  0.00000 | i  |  7,15, 0 |||
106 |          |          |  1.00000 |  0.00000 | i  |  1,16, 0 |||
107 |          |          |  0.00000 |  0.00000 | i  |  2,16, 0 |||
108 |          |          |  0.00000 |  0.00000 | i  |  3,16, 0 |||
109 |          |          |  0.00000 |  0.00000 | i  |  4,16, 0 |||
110 |          |          |  0.00000 |  0.00000 | i  |  5,16, 0 |||
111 |          |          |  0.00000 |  0.00000 | i  |  6,16, 0 |||
112 |          |          |  0.00000 |  0.00000 | i  |  7,16, 0 |||
113 |          |          |  0.00000 |  0.00000 | i  |  1,17, 0 |||
114 |          |          |  1.00000 |  0.00000 | i  |  2,17, 0 |||
115 |          |          |  0.00000 |  0.00000 | i  |  3,17, 0 |||
116 |          |          |  0.00000 |  0.00000 | i  |  4,17, 0 |||
117 |          |          |  0.00000 |  0.00000 | i  |  5,17, 0 |||
118 |          |          |  0.00000 |  0.00000 | i  |  6,17, 0 |||
119 |          |          |  0.00000 |  0.00000 | i  |  7,17, 0 |||
120 |          |          |  0.00000 |  0.00000 | i  |  1,18, 0 |||
121 |          |          |  1.00000 |  0.00000 | i  |  2,18, 0 |||
122 |          |          |  0.00000 |  0.00000 | i  |  3,18, 0 |||
123 |          |          |  0.00000 |  0.00000 | i  |  4,18, 0 |||
124 |          |          |  0.00000 |  0.00000 | i  |  5,18, 0 |||
125 |          |          |  0.00000 |  0.00000 | i  |  6,18, 0 |||
126 |          |          |  0.00000 |  0.00000 | i  |  7,18, 0 |||
127 |          |          |  0.00000 |  0.00000 | i  |  1,19, 0 |||
128 |          |          |  0.00000 |  0.00000 | i  |  2,19, 0 |||
129 |          |          |  0.00000 |  0.00000 | i  |  3,19, 0 |||
130 |          |          |  0.00000 |  0.00000 | i  |  4,19, 0 |||
131 |          |          |  0.00000 |  0.00000 | i  |  5,19, 0 |||
132 |          |          |  0.00000 |  0.00000 | i  |  6,19, 0 |||
133 |          |          |  0.00000 |  0.00000 | i  |  7,19, 0 |||
134 |          |          |  0.00000 |  0.00000 | i  |  1,20, 0 |||
135 |          |          |  0.00000 |  0.00000 | i  |  2,20, 0 |||
136 |          |          |  0.00000 |  0.00000 | i  |  3,20, 0 |||
137 |          |          |  0.00000 |  0.00000 | i  |  4,20, 0 |||
138 |          |          |  0.00000 |  0.00000 | i  |  5,20, 0 |||
139 |          |          |  0.00000 |  0.00000 | i  |  6,20, 0 |||
140 |          |          |  0.00000 |  0.00000 | i  |  7,20, 0 |||
141 |          |          |  0.00000 |  0.00000 | i  |  1,21, 0 |||
142 |          |          |  0.00000 |  0.00000 | i  |  2,21, 0 |||
143 |          |          |  1.00000 |  0.00000 | i  |  3,21, 0 |||
144 |          |          |  0.00000 |  0.00000 | i  |  4,21, 0 |||
145 |          |          |  0.00000 |  0.00000 | i  |  5,21, 0 |||
146 |          |          |  0.00000 |  0.00000 | i  |  6,21, 0 |||
147 |          |          |  0.00000 |  0.00000 | i  |  7,21, 0 |||
148 |          |          |  0.00000 |  0.00000 | i  |  1,22, 0 |||
149 |          |          |  0.00000 |  0.00000 | i  |  2,22, 0 |||
150 |          |          |  0.00000 |  0.00000 | i  |  3,22, 0 |||
151 |          |          |  0.00000 |  0.00000 | i  |  4,22, 0 |||
152 |          |          |  0.00000 |  0.00000 | i  |  5,22, 0 |||
153 |          |          |  0.00000 |  0.00000 | i  |  6,22, 0 |||
154 |          |          |  0.00000 |  0.00000 | i  |  7,22, 0 |||
155 |          |          |  0.00000 |  0.00000 | i  |  1,23, 0 |||
156 |          |          |  0.00000 |  0.00000 | i  |  2,23, 0 |||
157 |          |          |  0.00000 |  0.00000 | i  |  3,23, 0 |||
158 |          |          |  0.00000 |  0.00000 | i  |  4,23, 0 |||
159 |          |          |  0.00000 |  0.00000 | i  |  5,23, 0 |||
160 |          |          |  0.00000 |  0.00000 | i  |  6,23, 0 |||
161 |          |          |  0.00000 |  0.00000 | i  |  7,23, 0 |||
162 |          |          |  1.00000 |  0.00000 | i  |  1,24, 0 |||
163 |          |          |  0.00000 |  0.00000 | i  |  2,24, 0 |||
164 |          |          |  0.00000 |  0.00000 | i  |  3,24, 0 |||
165 |          |          |  0.00000 |  0.00000 | i  |  4,24, 0 |||
166 |          |          |  0.00000 |  0.00000 | i  |  5,24, 0 |||
167 |          |          |  0.00000 |  0.00000 | i  |  6,24, 0 |||
168 |          |          |  0.00000 |  0.00000 | i  |  7,24, 0 |||
169 |          |          |  0.00000 |  0.00000 | i  |  1,25, 0 |||
170 |          |          |  0.00000 |  0.00000 | i  |  2,25, 0 |||
171 |          |          |  0.00000 |  0.00000 | i  |  3,25, 0 |||
172 |          |          |  1.00000 |  0.00000 | i  |  4,25, 0 |||
173 |          |          |  0.00000 |  0.00000 | i  |  5,25, 0 |||
174 |          |          |  0.00000 |  0.00000 | i  |  6,25, 0 |||
175 |          |          |  0.00000 |  0.00000 | i  |  7,25, 0 |||
176 |          |          |  0.00000 |  0.00000 | i  |  1,26, 0 |||
177 |          |          |  0.00000 |  0.00000 | i  |  2,26, 0 |||
178 |          |          |  0.00000 |  0.00000 | i  |  3,26, 0 |||
179 |          |          |  0.00000 |  0.00000 | i  |  4,26, 0 |||
180 |          |          |  0.00000 |  0.00000 | i  |  5,26, 0 |||
181 |          |          |  0.00000 |  0.00000 | i  |  6,26, 0 |||
182 |          |          |  0.00000 |  0.00000 | i  |  7,26, 0 |||
183 |          |          |  1.00000 |  0.00000 | i  |  1,27, 0 |||
184 |          |          |  0.00000 |  0.00000 | i  |  2,27, 0 |||
185 |          |          |  0.00000 |  0.00000 | i  |  3,27, 0 |||
186 |          |          |  0.00000 |  0.00000 | i  |  4,27, 0 |||
187 |          |          |  0.00000 |  0.00000 | i  |  5,27, 0 |||
188 |          |          |  0.00000 |  0.00000 | i  |  6,27, 0 |||
189 |          |          |  0.00000 |  0.00000 | i  |  7,27, 0 |||
190 |          |          |  0.00000 |  0.00000 | i  |  1,28, 0 |||
191 |          |          |  0.00000 |  0.00000 | i  |  2,28, 0 |||
192 |          |          |  0.00000 |  0.00000 | i  |  3,28, 0 |||
193 |          |          |  0.00000 |  0.00000 | i  |  4,28, 0 |||
194 |          |          |  0.00000 |  0.00000 | i  |  5,28, 0 |||
195 |          |          |  0.00000 |  0.00000 | i  |  6,28, 0 |||
196 |          |          |  0.00000 |  0.00000 | i  |  7,28, 0 |||
197 |          |          |  0.00000 |  0.00000 | i  |  1,29, 0 |||
198 |          |          |  0.00000 |  0.00000 | i  |  2,29, 0 |||
199 |          |          |  0.00000 |  0.00000 | i  |  3,29, 0 |||
200 |          |          |  0.00000 |  0.00000 | i  |  4,29, 0 |||
201 |          |          |  0.00000 |  0.00000 | i  |  5,29, 0 |||
202 |          |          |  0.00000 |  0.00000 | i  |  6,29, 0 |||
203 |          |          |  1.00000 |  0.00000 | i  |  7,29, 0 |||
204 |          |          |  0.30537 |  0.00000 | h  | 10, 1, 0 |||
205 |          |          |  0.83361 |  0.00000 | h  | 11, 1, 0 |||
206 |          |          |  0.05458 |  0.00000 | h  | 12, 1, 0 |||
207 |          |          |  0.23066 |  0.00000 | h  | 13, 1, 0 |||
208 |          |          |  0.46955 |  0.00000 | h  | 14, 1, 0 |||
209 |          |          |  0.03308 |  0.00000 | h  | 15, 1, 0 |||
210 |          |          |  0.91306 |  0.00000 | h  | 16, 1, 0 |||
211 |          |          |  0.22171 |  0.00000 | h  | 17, 1, 0 |||
212 |          |          |  0.14277 |  0.00000 | h  | 18, 1, 0 |||
213 |          |          |  0.73673 |  0.00000 | h  | 19, 1, 0 |||
214 |          |          |  0.02566 |  0.00000 | h  | 10, 2, 0 |||
215 |          |          |  0.43328 |  0.00000 | h  | 11, 2, 0 |||
216 |          |          |  0.60742 |  0.00000 | h  | 12, 2, 0 |||
217 |          |          |  0.21220 |  0.00000 | h  | 13, 2, 0 |||
218 |          |          |  0.93428 |  0.00000 | h  | 14, 2, 0 |||
219 |          |          |  0.99161 |  0.00000 | h  | 15, 2, 0 |||
220 |          |          |  0.17108 |  0.00000 | h  | 16, 2, 0 |||
221 |          |          |  0.82394 |  0.00000 | h  | 17, 2, 0 |||
222 |          |          |  0.80659 |  0.00000 | h  | 18, 2, 0 |||
223 |          |          |  0.85375 |  0.00000 | h  | 19, 2, 0 |||
224 |          |          |  0.46289 |  0.00000 | h  | 10, 3, 0 |||
225 |          |          |  0.97535 |  0.00000 | h  | 11, 3, 0 |||
226 |          |          |  0.45158 |  0.00000 | h  | 12, 3, 0 |||
227 |          |          |  0.89744 |  0.00000 | h  | 13, 3, 0 |||
228 |          |          |  0.83917 |  0.00000 | h  | 14, 3, 0 |||
229 |          |          |  0.63807 |  0.00000 | h  | 15, 3, 0 |||
230 |          |          |  0.93562 |  0.00000 | h  | 16, 3, 0 |||
231 |          |          |  0.98981 |  0.00000 | h  | 17, 3, 0 |||
232 |          |          |  0.52272 |  0.00000 | h  | 18, 3, 0 |||
233 |          |          |  0.36796 |  0.00000 | h  | 19, 3, 0 |||
234 |          |          |  0.76580 |  0.00000 | h  | 10, 4, 0 |||
235 |          |          |  0.41108 |  0.00000 | h  | 11, 4, 0 |||
236 |          |          |  0.08241 |  0.00000 | h  | 12, 4, 0 |||
237 |          |          |  0.16526 |  0.00000 | h  | 13, 4, 0 |||
238 |          |          |  0.15597 |  0.00000 | h  | 14, 4, 0 |||
239 |          |          |  0.23277 |  0.00000 | h  | 15, 4, 0 |||
240 |          |          |  0.12232 |  0.00000 | h  | 16, 4, 0 |||
241 |          |          |  0.05713 |  0.00000 | h  | 17, 4, 0 |||
242 |          |          |  0.81711 |  0.00000 | h  | 18, 4, 0 |||
243 |          |          |  0.50574 |  0.00000 | h  | 19, 4, 0 |||
244 |          |          |  0.06337 |  0.00000 | h  | 10, 5, 0 |||
245 |          |          |  0.05737 |  0.00000 | h  | 11, 5, 0 |||
246 |          |          |  0.32018 |  0.00000 | h  | 12, 5, 0 |||
247 |          |          |  0.09675 |  0.00000 | h  | 13, 5, 0 |||
248 |          |          |  0.78050 |  0.00000 | h  | 14, 5, 0 |||
249 |          |          |  0.80965 |  0.00000 | h  | 15, 5, 0 |||
250 |          |          |  0.98568 |  0.00000 | h  | 16, 5, 0 |||
251 |          |          |  0.13439 |  0.00000 | h  | 17, 5, 0 |||
252 |          |          |  0.14698 |  0.00000 | h  | 18, 5, 0 |||
253 |          |          |  0.50943 |  0.00000 | h  | 19, 5, 0 |||
254 |          |          |  0.59165 |  0.00000 | h  | 10, 6, 0 |||
255 |          |          |  0.24575 |  0.00000 | h  | 11, 6, 0 |||
256 |          |          |  0.99144 |  0.00000 | h  | 12, 6, 0 |||
257 |          |          |  0.96498 |  0.00000 | h  | 13, 6, 0 |||
258 |          |          |  0.58062 |  0.00000 | h  | 14, 6, 0 |||
259 |          |          |  0.69621 |  0.00000 | h  | 15, 6, 0 |||
260 |          |          |  0.79917 |  0.00000 | h  | 16, 6, 0 |||
261 |          |          |  0.10409 |  0.00000 | h  | 17, 6, 0 |||
262 |          |          |  0.45281 |  0.00000 | h  | 18, 6, 0 |||
263 |          |          |  0.09730 |  0.00000 | h  | 19, 6, 0 |||
264 |          |          |  0.04566 |  0.00000 | h  | 10, 7, 0 |||
265 |          |          |  0.61750 |  0.00000 | h  | 11, 7, 0 |||
266 |          |          |  0.05613 |  0.00000 | h  | 12, 7, 0 |||
267 |          |          |  0.82740 |  0.00000 | h  | 13, 7, 0 |||
268 |          |          |  0.39648 |  0.00000 | h  | 14, 7, 0 |||
269 |          |          |  0.12846 |  0.00000 | h  | 15, 7, 0 |||
270 |          |          |  0.56299 |  0.00000 | h  | 16, 7, 0 |||
271 |          |          |  0.74253 |  0.00000 | h  | 17, 7, 0 |||
272 |          |          |  0.35564 |  0.00000 | h  | 18, 7, 0 |||
273 |          |          |  0.04453 |  0.00000 | h  | 19, 7, 0 |||
274 |          |          |  0.23478 |  0.00000 | h  | 10, 8, 0 |||
275 |          |          |  0.98338 |  0.00000 | h  | 11, 8, 0 |||
276 |          |          |  0.93198 |  0.00000 | h  | 12, 8, 0 |||
277 |          |          |  0.55223 |  0.00000 | h  | 13, 8, 0 |||
278 |          |          |  0.90142 |  0.00000 | h  | 14, 8, 0 |||
279 |          |          |  0.48290 |  0.00000 | h  | 15, 8, 0 |||
280 |          |          |  0.18019 |  0.00000 | h  | 16, 8, 0 |||
281 |          |          |  0.90042 |  0.00000 | h  | 17, 8, 0 |||
282 |          |          |  0.05069 |  0.00000 | h  | 18, 8, 0 |||
283 |          |          |  0.92465 |  0.00000 | h  | 19, 8, 0 |||
284 |          |          |  0.01191 |  0.00000 | h  | 10, 9, 0 |||
285 |          |          |  0.12128 |  0.00000 | h  | 11, 9, 0 |||
286 |          |          |  0.16452 |  0.00000 | h  | 12, 9, 0 |||
287 |          |          |  0.08473 |  0.00000 | h  | 13, 9, 0 |||
288 |          |          |  0.02694 |  0.00000 | h  | 14, 9, 0 |||
289 |          |          |  0.92296 |  0.00000 | h  | 15, 9, 0 |||
290 |          |          |  0.11377 |  0.00000 | h  | 16, 9, 0 |||
291 |          |          |  0.35130 |  0.00000 | h  | 17, 9, 0 |||
292 |          |          |  0.63376 |  0.00000 | h  | 18, 9, 0 |||
293 |          |          |  0.00621 |  0.00000 | h  | 19, 9, 0 |||
294 |          |          |  0.67462 |  0.00000 | h  | 10,10, 0 |||
295 |          |          |  0.38975 |  0.00000 | h  | 11,10, 0 |||
296 |          |          |  0.88583 |  0.00000 | h  | 12,10, 0 |||
297 |          |          |  0.71641 |  0.00000 | h  | 13,10, 0 |||
298 |          |          |  0.99519 |  0.00000 | h  | 14,10, 0 |||
299 |          |          |  0.82774 |  0.00000 | h  | 15,10, 0 |||
300 |          |          |  0.06265 |  0.00000 | h  | 16,10, 0 |||
301 |          |          |  0.02442 |  0.00000 | h  | 17,10, 0 |||
302 |          |          |  0.89918 |  0.00000 | h  | 18,10, 0 |||
303 |          |          |  0.84920 |  0.00000 | h  | 19,10, 0 |||
304 |          |          |  0.24007 |  0.00000 | h  | 10,11, 0 |||
305 |          |          |  0.03458 |  0.00000 | h  | 11,11, 0 |||
306 |          |          |  0.95780 |  0.00000 | h  | 12,11, 0 |||
307 |          |          |  0.43243 |  0.00000 | h  | 13,11, 0 |||
308 |          |          |  0.70718 |  0.00000 | h  | 14,11, 0 |||
309 |          |          |  0.30195 |  0.00000 | h  | 15,11, 0 |||
310 |          |          |  0.43274 |  0.00000 | h  | 16,11, 0 |||
311 |          |          |  0.59888 |  0.00000 | h  | 17,11, 0 |||
312 |          |          |  0.98224 |  0.00000 | h  | 18,11, 0 |||
313 |          |          |  0.67402 |  0.00000 | h  | 19,11, 0 |||
314 |          |          |  0.39170 |  0.00000 | h  | 10,12, 0 |||
315 |          |          |  0.08647 |  0.00000 | h  | 11,12, 0 |||
316 |          |          |  0.61864 |  0.00000 | h  | 12,12, 0 |||
317 |          |          |  0.04087 |  0.00000 | h  | 13,12, 0 |||
318 |          |          |  0.23510 |  0.00000 | h  | 14,12, 0 |||
319 |          |          |  0.18641 |  0.00000 | h  | 15,12, 0 |||
320 |          |          |  0.52084 |  0.00000 | h  | 16,12, 0 |||
321 |          |          |  0.73744 |  0.00000 | h  | 17,12, 0 |||
322 |          |          |  0.80501 |  0.00000 | h  | 18,12, 0 |||
323 |          |          |  0.69011 |  0.00000 | h  | 19,12, 0 |||
324 |          |          |  0.68305 |  0.00000 | o  | 22, 1, 0 |||
325 |          |          |  0.97717 |  0.00000 | o  | 23, 1, 0 |||
326 |          |          |  0.66336 |  0.00000 | o  | 22, 2, 0 |||
327 |          |          |  0.00667 |  0.00000 | o  | 23, 2, 0 |||
328 |          |          |  0.05697 |  0.00000 | o  | 22, 3, 0 |||
329 |          |          |  0.99908 |  0.00000 | o  | 23, 3, 0 |||
330 |          |          |  0.63132 |  0.00000 | o  | 22, 4, 0 |||
331 |          |          |  0.90095 |  0.00000 | o  | 23, 4, 0 |||
332 |          |          |  0.46596 |  0.00000 | o  | 22, 5, 0 |||
333 |          |          |  0.25200 |  0.00000 | o  | 23, 5, 0 |||
334 |          |          |  0.26520 |  0.00000 | o  | 22, 6, 0 |||
335 |          |          |  0.03610 |  0.00000 | o  | 23, 6, 0 |||
336 |          |          |  0.19814 |  0.00000 | o  | 22, 7, 0 |||
337 |          |          |  0.44747 |  0.00000 | o  | 23, 7, 0 |||
338 |          |          |  0.02772 |  0.00000 | o  | 22, 8, 0 |||
339 |          |          |  0.06477 |  0.00000 | o  | 23, 8, 0 |||
340 |          |          |  0.14046 |  0.00000 | o  | 22, 9, 0 |||
341 |          |          |  0.27002 |  0.00000 | o  | 23, 9, 0 |||
342 |          |          |  0.00531 |  0.00000 | o  | 22,10, 0 |||
343 |          |          |  0.65311 |  0.00000 | o  | 23,10, 0 |||
344 |          |          |  0.01843 |  0.00000 | o  | 22,11, 0 |||
345 |          |          |  0.73065 |  0.00000 | o  | 23,11, 0 |||
346 |          |          |  0.99983 |  0.00000 | o  | 22,12, 0 |||
347 |          |          |  0.00041 |  0.00000 | o  | 23,12, 0 |||
348 |          |          |  0.74447 |  0.00000 | o  | 22,13, 0 |||
349 |          |          |  0.11547 |  0.00000 | o  | 23,13, 0 |||
----|----------|----------|----------|----------|----|----------|----------|----------|-------


connection definition section :

target | site | source:weight
-------|------|----------------------------------------------------------------------------------------------------------------
   204 |      |   1:-0.78717,   2: 0.30961,   3:-0.38354,   4: 0.31381,   5:-0.71516,   6:-0.11866,   7:-0.70162,   8: 0.78157,
                  9:-0.51410,  10: 0.25483,  11:-0.66404,  12:-0.68378,  13:-0.22264,  14: 0.49284,  15:-0.79709,  16: 0.85377,
                 17:-0.29933,  18:-0.75262,  19:-0.66629,  20:-0.36012,  21: 0.40659,  22:-0.73016,  23: 0.35196,  24:-0.09741,
                 25: 0.45988,  26: 0.72657,  27:-0.88644,  28: 0.49816,  29: 0.54271,  30: 0.49737,  31:-0.29706,  32: 0.57713,
                 33: 0.36094,  34: 0.24470,  35:-0.80369,  36: 0.48803,  37:-0.48527,  38: 0.84596,  39:-0.68276,  40: 0.94862,
                 41:-0.28918,  42: 0.24539,  43: 0.70274,  44:-0.23639,  45: 0.25392,  46: 0.90517,  47:-0.32388,  48:-0.87078,
                 49: 0.45376,  50:-0.15442,  51:-0.35631,  52:-0.30254,  53:-0.47940,  54:-0.67747,  55:-0.38709,  56:-0.78661,
                 57: 0.20287,  58: 0.08982,  59:-0.86038,  60:-0.39113,  61:-0.74339,  62: 0.05431,  63:-0.81930,  64:-0.86436,
                 65: 0.64717,  66: 0.11181,  67: 0.93865,  68:-0.56682,  69: 0.89287,  70:-0.26736,  71: 0.57753,  72: 0.61461,
                 73: 0.29956,  74:-0.83241,  75: 0.56098,  76: 0.56372,  77: 0.04105,  78: 0.21387,  79: 0.86594,  80:-0.00782,
                 81: 0.55631,  82:-0.40325,  83: 0.16910,  84: 0.51765,  85: 0.91043,  86: 0.99637,  87: 0.65202,  88: 0.47735,
                 89: 0.35787,  90: 0.42194,  91:-0.15271,  92: 0.55973,  93: 0.01578,  94:-0.61886,  95:-0.87112,  96:-0.93147,
                 97: 0.37086,  98: 0.51423,  99:-0.62978, 100: 0.96261, 101:-0.72103, 102: 0.99717, 103:-0.05764, 104:-0.74624,
                105: 0.55507, 106: 0.03073, 107: 0.74950, 108: 0.18998, 109:-0.52310, 110:-0.37651, 111: 0.20215, 112:-0.52273,
                113:-0.76517, 114:-0.82702, 115: 0.86871, 116:-0.04133, 117: 0.15023, 118:-0.88679, 119: 0.63906, 120:-0.68802,
                121:-0.63753, 122: 0.21878, 123:-0.64893, 124:-0.13191, 125:-0.43793, 126:-0.33953, 127: 0.39936, 128: 0.29093,
                129: 0.54272, 130: 0.24690, 131:-0.54935, 132:-0.91927, 133: 0.08302, 134:-0.35108, 135:-0.72985, 136: 0.42717,
                137:-0.42005, 138: 0.00360, 139:-0.78299, 140: 0.39434, 141: 0.47831, 142: 0.88126, 143:-0.75539, 144: 0.59007,
                145:-0.18391, 146: 0.95140, 147: 0.45446, 148:-0.03320, 149: 0.98514, 150:-0.88778, 151: 0.26392, 152:-0.89274,
                153: 0.34564, 154:-0.30498, 155: 0.08128, 156:-0.06326, 157:-0.20723, 158:-0.50711, 159:-0.28722, 160: 0.22505,
                161: 0.32468, 162: 0.69628, 163: 0.39069, 164:-0.77179, 165: 0.57512, 166:-0.21743, 167:-0.20171, 168: 0.38643,
                169:-0.96550, 170: 0.46878, 171:-0.57575, 172:-0.06519, 173: 0.07524, 174: 0.99449, 175:-0.69295, 176:-0.32566,
                177:-0.88394, 178:-0.71476, 179: 0.19003, 180: 0.84892, 181: 0.40295, 182:-0.48475, 183: 0.41320, 184: 0.21904,
                185: 0.46006, 186:-0.16540, 187:-0.20829, 188:-0.06613, 189: 0.68186, 190: 0.67291, 191:-0.79971, 192: 0.88228,
                193:-0.38201, 194: 0.23257, 195: 0.68126, 196:-0.16818, 197: 0.96883, 198:-0.77286, 199: 0.36261, 200: 0.10683,
                201: 0.29333, 202:-0.68097, 203: 0.20707
   205 |      |   1: 0.15764,   2: 0.11266,   3:-0.56733,   4: 0.84375,   5: 0.14109,   6:-0.89542,   7: 0.73185,   8:-0.79328,
                  9: 0.38587,  10: 0.49339,  11: 0.87596,  12: 0.85962,  13:-0.77388,  14:-0.12777,  15: 0.96538,  16: 0.44595,
                 17: 0.80507,  18:-0.13299,  19: 0.06235,  20: 0.59634,  21:-0.32947,  22:-0.06701,  23:-0.47477,  24: 0.55054,
                 25: 0.63612,  26: 0.22506,  27:-0.59424,  28:-0.97905,  29: 0.15598,  30: 0.39482,  31:-0.56410,  32:-0.80304,
                 33: 0.61381,  34: 0.86541,  35: 0.57743,  36: 0.59202,  37:-0.09519,  38: 0.68447,  39: 0.59208,  40: 0.94067,
                 41:-0.13561,  42: 0.63526,  43:-0.93552,  44:-0.37100,  45:-0.12633,  46:-0.77059,  47: 0.00589,  48: 0.16426,
                 49: 0.28641,  50: 0.50225,  51:-0.90174,  52: 0.33801,  53: 0.13951,  54:-0.67002,  55: 0.09998,  56:-0.70044,
                 57: 0.42946,  58: 0.08933,  59:-0.49674,  60:-0.57404,  61: 0.58867,  62:-0.15559,  63: 0.56501,  64: 0.25087,
                 65: 0.73864,  66:-0.51345,  67: 0.96881,  68:-0.19665,  69: 0.92437,  70: 0.14379,  71:-0.96732,  72: 0.42084,
                 73:-0.53201,  74:-0.85650,  75: 0.25896,  76: 0.75687,  77:-0.52550,  78:-0.55990,  79:-0.38973,  80: 0.52795,
                 81:-0.43578,  82:-0.05162,  83: 0.95270,  84: 0.16640,  85: 0.31108,  86: 0.04977,  87: 0.17995,  88:-0.49619,
                 89:-0.61735,  90: 0.71550,  91:-0.55520,  92:-0.15335,  93: 0.78449,  94: 0.42648,  95:-0.71373,  96: 0.17088,
                 97: 0.22021,  98:-0.76980,  99:-0.86090, 100:-0.08765, 101: 0.72973, 102: 0.88108, 103:-0.58245, 104: 0.12576,
                105:-0.66392, 106:-0.25919, 107:-0.97033, 108: 0.19652, 109: 0.31908, 110: 0.80275, 111:-0.46830, 112:-0.70989,
                113: 0.37833, 114: 0.33974, 115:-0.80879, 116: 0.19471, 117:-0.18554, 118: 0.90486, 119:-0.21522, 120: 0.94123,
                121:-0.05417, 122: 0.04122, 123:-0.91090, 124:-0.23586, 125:-0.68513, 126:-0.45991, 127:-0.41004, 128: 0.69605,
                129:-0.61263, 130:-0.45915, 131:-0.92965, 132: 0.87493, 133:-0.00153, 134: 0.46356, 135: 0.36766, 136:-0.10275,
                137: 0.87570, 138:-0.36776, 139: 0.91055, 140: 0.09126, 141: 0.32565, 142: 0.56936, 143: 0.64182, 144: 0.13699,
                145: 0.29226, 146:-0.94092, 147:-0.13185, 148: 0.15421, 149:-0.80126, 150: 0.08435, 151:-0.50457, 152: 0.25367,
                153: 0.51873, 154:-0.80415, 155: 0.33581, 156:-0.95687, 157:-0.83409, 158: 0.47520, 159: 0.81771, 160: 0.04904,
                161:-0.64515, 162: 0.37836, 163:-0.12000, 164: 0.21151, 165: 0.41085, 166: 0.90822, 167:-0.74179, 168: 0.19756,
                169: 0.46718, 170:-0.05464, 171: 0.22356, 172: 0.32361, 173: 0.48701, 174: 0.49804, 175:-0.65226, 176:-0.64271,
                177:-0.47810, 178:-0.89451, 179: 0.55222, 180: 0.76180, 181:-0.46595, 182: 0.79044, 183:-0.14633, 184:-0.65920,
                185: 0.96484, 186: 0.60864, 187: 0.41455, 188: 0.43020, 189: 0.05629, 190: 0.94578, 191: 0.10693, 192:-0.63288,
                193:-0.21449, 194:-0.12108, 195: 0.43615, 196:-0.05121, 197: 0.24705, 198: 0.92375, 199:-0.22955, 200: 0.88995,
                201:-0.96309, 202: 0.75653, 203:-0.91742
   206 |      |   1:-0.14623,   2:-0.15114,   3:-0.17416,   4:-0.13809,   5:-0.58811,   6:-0.73703,   7:-0.32392,   8:-0.53363,
                  9: 0.18923,  10: 0.93927,  11:-0.89626,  12:-0.74884,  13:-0.11230,  14: 0.34880,  15: 0.59299,  16: 0.27645,
                 17:-0.84805,  18:-0.23714,  19:-0.52088,  20: 0.87945,  21:-0.60428,  22:-0.34089,  23: 0.53108,  24:-0.02240,
                 25:-0.70460,  26: 0.97530,  27:-0.22356,  28:-0.68919,  29: 0.32747,  30:-0.93361,  31: 0.98019,  32:-0.31503,
                 33:-0.17328,  34: 0.91039,  35:-0.51735,  36: 0.72423,  37:-0.88301,  38:-0.23667,  39: 0.29942,  40: 0.10218,
                 41:-0.47444,  42: 0.69281,  43: 0.33785,  44: 0.00922,  45:-0.59855,  46: 0.10997,  47:-0.45504,  48:-0.92953,
                 49: 0.63711,  50:-0.75738,  51: 0.93415,  52:-0.07485,  53: 0.32188,  54: 0.39797,  55:-0.68995,  56: 0.12156,
                 57: 0.86609,  58: 0.58490,  59:-0.40250,  60:-0.69465,  61: 0.71912,  62:-0.38396,  63:-0.13758,  64:-0.64980,
                 65:-0.69255,  66:-0.01493,  67: 0.17687,  68: 0.09756,  69: 0.34463,  70: 0.68921,  71:-0.37939,  72: 0.76427,
                 73:-0.32904,  74:-0.39978,  75:-0.97290,  76:-0.59469,  77:-0.61601,  78:-0.88417,  79:-0.92123,  80:-0.32572,
                 81: 0.49099,  82: 0.56962,  83:-0.55347,  84: 0.63036,  85:-0.41905,  86:-0.56005,  87: 0.67056,  88:-0.34853,
                 89:-0.84084,  90: 0.76196,  91: 0.11763,  92:-0.68545,  93: 0.05265,  94: 0.57265,  95:-0.24402,  96:-0.88765,
                 97: 0.57655,  98:-0.24517,  99: 0.69824, 100: 0.33962, 101: 0.50187, 102: 0.61488, 103:-0.07907, 104: 0.67988,
                105:-0.00639, 106:-0.95851, 107: 0.62345, 108:-0.23307, 109:-0.04000, 110: 0.53531, 111:-0.90234, 112: 0.12538,
                113:-0.81003, 114:-0.05754, 115: 0.40253, 116: 0.78435, 117: 0.43447, 118:-0.17953, 119:-0.35511, 120:-0.08761,
                121:-0.45710, 122: 0.24467, 123: 0.23253, 124: 0.97582, 125:-0.11275, 126: 0.04052, 127:-0.52973, 128:-0.85733,
                129: 0.74173, 130:-0.80210, 131: 0.59966, 132:-0.56059, 133:-0.16376, 134: 0.16288, 135: 0.53305, 136:-0.95336,
                137:-0.07224, 138:-0.83154, 139:-0.29803, 140:-0.84717, 141:-0.45085, 142: 0.39689, 143:-0.36632, 144:-0.93539,
                145: 0.87243, 146: 0.98248, 147:-0.99897, 148: 0.42117, 149:-0.71052, 150:-0.63360, 151: 0.27775, 152:-0.96797,
                153: 0.45350, 154: 0.78580, 155: 0.99774, 156:-0.76087, 157:-0.62274, 158: 0.48355, 159:-0.40495, 160: 0.01141,
                161: 0.14773, 162:-0.89464, 163: 0.42700, 164:-0.03895, 165:-0.05766, 166:-0.46465, 167: 0.80024, 168:-0.09483,
                169:-0.46982, 170:-0.28357, 171:-0.52225, 172: 0.79497, 173: 0.17547, 174: 0.69609, 175:-0.49965, 176: 0.13804,
                177: 0.85412, 178: 0.90277, 179:-0.62995, 180:-0.67778, 181:-0.37685, 182: 0.44225, 183:-0.71519, 184: 0.41448,
                185: 0.68202, 186: 0.74159, 187: 0.65734, 188:-0.50744, 189:-0.37539, 190: 0.17258, 191: 0.47725, 192:-0.16414,
                193: 0.24729, 194:-0.84741, 195: 0.97232, 196:-0.64503, 197: 0.35445, 198: 0.72499, 199:-0.31586, 200: 0.50388,
                201: 0.74756, 202: 0.62036, 203:-0.40377
   207 |      |   1:-0.48617,   2: 0.18743,   3:-0.16377,   4: 0.20118,   5: 0.08977,   6: 0.37068,   7: 0.13726,   8:-0.40658,
                  9:-0.26794,  10:-0.15424,  11:-0.45117,  12:-0.18081,  13: 0.95987,  14: 0.52258,  15: 0.70013,  16: 0.27982,
                 17:-0.75639,  18:-0.85523,  19:-0.76477,  20:-0.90761,  21:-0.13209,  22: 0.52498,  23:-0.33376,  24: 0.07288,
                 25:-0.80468,  26:-0.64018,  27:-0.95604,  28: 0.77465,  29: 0.49629,  30: 0.18108,  31: 0.11322,  32: 0.21900,
                 33: 0.31671,  34: 0.46325,  35:-0.51423,  36: 0.12313,  37: 0.08390,  38:-0.36890,  39:-0.15554,  40: 0.84530,
                 41:-0.42901,  42:-0.17211,  43:-0.99442,  44:-0.17869,  45: 0.99206,  46: 0.85067,  47:-0.94035,  48:-0.48410,
                 49: 0.21181,  50: 0.07716,  51:-0.93661,  52:-0.43566,  53:-0.06666,  54: 0.84997,  55: 0.67900,  56:-0.80023,
                 57:-0.83813,  58:-0.59741,  59:-0.40902,  60:-0.22856,  61: 0.90322,  62:-0.32935,  63:-0.14925,  64: 0.33650,
                 65:-0.60692,  66: 0.30010,  67:-0.09217,  68:-0.71365,  69: 0.39990,  70:-0.18537,  71: 0.91993,  72: 0.73887,
                 73:-0.18579,  74: 0.61991,  75: 0.95923,  76: 0.13616,  77: 0.12435,  78:-0.41140,  79:-0.55309,  80:-0.06323,
                 81:-0.93935,  82: 0.08079,  83: 0.08115,  84: 0.43999,  85:-0.97672,  86:-0.99024,  87:-0.26292,  88:-0.75558,
                 89: 0.53195,  90:-0.03231,  91:-0.59914,  92:-0.60686,  93:-0.73037,  94:-0.60646,  95: 0.77880,  96:-0.67696,
                 97: 0.03669,  98:-0.38733,  99:-0.55094, 100:-0.10114, 101:-0.42964, 102: 0.53061, 103:-0.51532, 104:-0.68576,
                105: 0.48028, 106: 0.45242, 107: 0.58851, 108: 0.87874, 109: 0.04862, 110: 0.46037, 111:-0.30831, 112:-0.26588,
                113: 0.16984, 114: 0.96146, 115: 0.45601, 116: 0.56427, 117:-0.13257, 118: 0.26024, 119: 0.49905, 120:-0.75376,
                121: 0.51175, 122:-0.42141, 123:-0.23110, 124: 0.15615, 125:-0.25569, 126:-0.00542, 127: 0.20782, 128:-0.82842,
                129:-0.85904, 130:-0.12521, 131:-0.43596, 132: 0.13437, 133: 0.55117, 134: 0.00411, 135: 0.37466, 136:-0.85350,
                137:-0.15268, 138: 0.65452, 139: 0.21633, 140:-0.78903, 141: 0.30149, 142: 0.06656, 143: 0.30250, 144: 0.70482,
                145:-0.94708, 146:-0.56223, 147: 0.42607, 148: 0.43912, 149: 0.99628, 150:-0.37883, 151:-0.33605, 152: 0.73800,
                153: 0.04557, 154: 0.83886, 155: 0.76817, 156: 0.32589, 157: 0.03317, 158:-0.77573, 159:-0.11104, 160:-0.22247,
                161: 0.68725, 162:-0.26114, 163:-0.63636, 164: 0.94262, 165: 0.17762, 166: 0.69049, 167:-0.55392, 168: 0.84642,
                169:-0.10748, 170: 0.84165, 171: 0.76249, 172:-0.01395, 173:-0.54720, 174: 0.97350, 175: 0.20740, 176:-0.75803,
                177: 0.81048, 178:-0.79023, 179:-0.78047, 180:-0.48568, 181:-0.27547, 182: 0.75243, 183:-0.28988, 184: 0.03959,
                185: 0.34517, 186: 0.69423, 187: 0.19830, 188: 0.66655, 189: 0.24018, 190: 0.91476, 191:-0.68648, 192: 0.34781,
                193:-0.58706, 194: 0.80374, 195:-0.84434, 196:-0.92927, 197:-0.07475, 198: 0.66346, 199: 0.99777, 200:-0.60272,
                201: 0.16134, 202:-0.49820, 203: 0.43857
   208 |      |   1: 0.35092,   2:-0.04001,   3: 0.86000,   4: 0.87706,   5:-0.36159,   6: 0.53866,   7: 0.69709,   8:-0.94177,
                  9:-0.87989,  10: 0.73166,  11: 0.29202,  12:-0.50512,  13:-0.98106,  14: 0.54035,  15: 0.00560,  16: 0.22096,
                 17: 0.11421,  18:-0.83925,  19: 0.71627,  20: 0.61095,  21:-0.78926,  22:-0.78709,  23: 0.42704,  24: 0.30966,
                 25:-0.58040,  26:-0.85743,  27:-0.76890,  28: 0.34019,  29: 0.20901,  30: 0.43981,  31:-0.63229,  32: 0.95890,
                 33: 0.52533,  34:-0.28791,  35:-0.28735,  36: 0.44139,  37:-0.10030,  38:-0.46217,  39: 0.37142,  40: 0.43463,
                 41:-0.74080,  42: 0.03468,  43:-0.49317,  44: 0.49681,  45:-0.53002,  46:-0.14157,  47:-0.28074,  48: 0.45222,
                 49:-0.32152,  50: 0.08882,  51:-0.55230,  52: 0.97644,  53: 0.91667,  54: 0.37570,  55:-0.62976,  56:-0.05797,
                 57:-0.26519,  58: 0.55896,  59: 0.70503,  60: 0.32379,  61: 0.76451,  62: 0.51998,  63:-0.14242,  64: 0.49201,
                 65: 0.94520,  66: 0.57959,  67:-0.10845,  68: 0.40104,  69:-0.07602,  70: 0.67094,  71: 0.84002,  72:-0.82075,
                 73: 0.02524,  74: 0.65741,  75:-0.39941,  76: 0.89523,  77: 0.74972,  78:-0.55946,  79:-0.09669,  80:-0.45257,
                 81: 0.47822,  82: 0.34617,  83:-0.90249,  84: 0.61332,  85: 0.80368,  86: 0.15552,  87:-0.08332,  88: 0.59447,
                 89: 0.48311,  90: 0.05973,  91:-0.74633,  92:-0.01744,  93: 0.58313,  94: 0.79108,  95:-0.22989,  96: 0.80465,
                 97: 0.08663,  98:-0.21857,  99: 0.98931, 100: 0.52375, 101:-0.45814, 102: 0.01139, 103: 0.65245, 104:-0.50818,
                105:-0.32082, 106: 0.36395, 107:-0.51795, 108:-0.42117, 109:-0.88605, 110: 0.93974, 111: 0.17678, 112:-0.98472,
                113:-0.97838, 114:-0.38863, 115:-0.79965, 116: 0.15013, 117:-0.85730, 118:-0.18989, 119:-0.38149, 120: 0.78744,
                121:-0.31075, 122:-0.60384, 123:-0.56347, 124: 0.34759, 125:-0.87666, 126: 0.74393, 127:-0.69680, 128:-0.58797,
                129:-0.28816, 130:-0.31356, 131: 0.44179, 132: 0.64114, 133:-0.01384, 134: 0.55001, 135:-0.23523, 136: 0.77429,
                137:-0.58730, 138: 0.54477, 139: 0.50571, 140:-0.12068, 141:-0.22190, 142: 0.66257, 143:-0.30812, 144:-0.55051,
                145:-0.01263, 146:-0.09249, 147: 0.37572, 148: 0.86131, 149:-0.45646, 150:-0.88882, 151:-0.11158, 152: 0.40330,
                153:-0.78832, 154:-0.73548, 155:-0.72315, 156:-0.86186, 157:-0.03841, 158:-0.24107, 159:-0.50357, 160:-0.37223,
                161:-0.16860, 162:-0.76816, 163: 0.47032, 164: 0.67019, 165: 0.86484, 166: 0.94863, 167: 0.56284, 168: 0.08891,
                169:-0.33995, 170: 0.44572, 171:-0.22072, 172: 0.98163, 173: 0.64605, 174:-0.83575, 175:-0.32124, 176:-0.84318,
                177: 0.19870, 178: 0.20427, 179:-0.18682, 180: 0.52858, 181: 0.75205, 182:-0.65607, 183: 0.87836, 184:-0.45327,
                185: 0.69113, 186:-0.15628, 187:-0.26300, 188: 0.13666, 189:-0.02961, 190: 0.07243, 191: 0.25632, 192:-0.28069,
                193: 0.93989, 194:-0.04100, 195:-0.64019, 196: 0.56453, 197: 0.03242, 198:-0.96436, 199:-0.15351, 200:-0.32901,
                201: 0.93331, 202: 0.26433, 203:-0.94300
   209 |      |   1: 0.60435,   2: 0.98491,   3: 0.75151,   4:-0.23021,   5:-0.18985,   6:-0.84044,   7: 0.01493,   8: 0.85791,
                  9:-0.87850,  10:-0.83429,  11: 0.22168,  12:-0.30160,  13:-0.83031,  14: 0.42891,  15: 0.92912,  16:-0.85321,
                 17:-0.13723,  18:-0.12745,  19:-0.34098,  20:-0.64191,  21:-0.32771,  22:-0.03468,  23: 0.50317,  24:-0.77818,
                 25: 0.32046,  26: 0.29778,  27:-0.28152,  28:-0.39748,  29:-0.67848,  30: 0.30750,  31: 0.74972,  32:-0.50836,
                 33:-0.48606,  34:-0.54117,  35:-0.16439,  36: 0.08055,  37:-0.43834,  38:-0.04484,  39: 0.08461,  40:-0.69292,
                 41: 0.43214,  42:-0.62375,  43: 0.50733,  44: 0.70842,  45: 0.63558,  46:-0.39282,  47: 0.10253,  48: 0.93727,
                 49: 0.12786,  50: 0.32967,  51:-0.36828,  52: 0.47849,  53:-0.64075,  54:-0.89140,  55:-0.61383,  56: 0.75731,
                 57:-0.85088,  58: 0.81063,  59: 0.03115,  60: 0.68407,  61: 0.56719,  62:-0.52140,  63: 0.76887,  64: 0.86254,
                 65:-0.47820,  66:-0.24978,  67: 0.64013,  68:-0.76077,  69:-0.45608,  70:-0.99369,  71:-0.89045,  72:-0.66942,
                 73: 0.58998,  74: 0.37106,  75:-0.74068,  76: 0.68480,  77: 0.37945,  78: 0.82944,  79: 0.33958,  80:-0.32964,
                 81: 0.67435,  82:-0.40316,  83: 0.25960,  84: 0.69627,  85: 0.37241,  86:-0.34908,  87:-0.69479,  88:-0.37156,
                 89:-0.27398,  90: 0.34953,  91: 0.16485,  92: 0.44641,  93:-0.64757,  94:-0.69888,  95:-0.24486,  96: 0.46618,
                 97:-0.06758,  98: 0.27296,  99:-0.35013, 100:-0.97488, 101:-0.89594, 102: 0.71894, 103: 0.71168, 104: 0.07725,
                105:-0.42647, 106:-0.55678, 107: 0.15926, 108:-0.71900, 109:-0.05270, 110:-0.39755, 111:-0.58512, 112: 0.88320,
                113: 0.33133, 114:-0.53975, 115:-0.91397, 116:-0.07611, 117: 0.96569, 118: 0.47014, 119: 0.04297, 120: 0.32588,
                121:-0.27817, 122: 0.96137, 123:-0.75671, 124: 0.51458, 125:-0.62929, 126:-0.82347, 127:-0.51171, 128:-0.03142,
                129: 0.34844, 130: 0.05664, 131: 0.21994, 132: 0.06766, 133:-0.94815, 134:-0.95882, 135: 0.60692, 136: 0.72390,
                137: 0.26748, 138: 0.45734, 139:-0.86891, 140: 0.40547, 141: 0.48484, 142: 0.67770, 143:-0.43891, 144: 0.54456,
                145:-0.08955, 146:-0.84719, 147: 0.25661, 148: 0.12574, 149:-0.14410, 150: 0.34994, 151:-0.86271, 152:-0.95579,
                153: 0.72493, 154:-0.61254, 155:-0.89430, 156: 0.08269, 157: 0.50822, 158: 0.23486, 159: 0.24907, 160: 0.95871,
                161: 0.97495, 162:-0.60127, 163: 0.55330, 164: 0.63087, 165: 0.62702, 166: 0.33711, 167:-0.77759, 168:-0.88571,
                169: 0.98384, 170: 0.89812, 171: 0.86368, 172: 0.54322, 173:-0.54711, 174:-0.02200, 175: 0.91228, 176:-0.36284,
                177:-0.49376, 178:-0.38828, 179:-0.35086, 180:-0.51064, 181: 0.24869, 182: 0.77166, 183:-0.78677, 184:-0.47991,
                185: 0.88360, 186:-0.65729, 187: 0.10672, 188: 0.24732, 189:-0.25706, 190: 0.80421, 191:-0.89746, 192:-0.64491,
                193:-0.83405, 194: 0.97770, 195: 0.23311, 196:-0.57865, 197: 0.83378, 198:-0.65337, 199:-0.00653, 200: 0.04655,
                201: 0.47512, 202: 0.63002, 203: 0.13797
   210 |      |   1:-0.78843,   2: 0.77091,   3: 0.38473,   4:-0.03424,   5:-0.71089,   6: 0.38544,   7: 0.77220,   8: 0.89032,
                  9:-0.90377,  10:-0.42892,  11: 0.62009,  12:-0.05222,  13:-0.67751,  14: 0.79174,  15: 0.32698,  16: 0.86522,
                 17: 0.82661,  18:-0.86006,  19: 0.96879,  20: 0.52282,  21: 0.16147,  22: 0.75977,  23: 0.75554,  24: 0.06139,
                 25: 0.45025,  26: 0.32839,  27: 0.83023,  28: 0.75251,  29:-0.57305,  30:-0.44379,  31:-0.18565,  32:-0.39122,
                 33: 0.62810,  34:-0.39165,  35: 0.62451,  36: 0.70698,  37: 0.75938,  38: 0.51500,  39:-0.54938,  40:-0.77011,
                 41: 0.15224,  42:-0.46152,  43: 0.77854,  44: 0.26914,  45:-0.88211,  46: 0.39511,  47: 0.24633,  48: 0.97031,
                 49: 0.70063,  50: 0.76768,  51:-0.36382,  52:-0.82839,  53:-0.20919,  54:-0.95510,  55: 0.02432,  56:-0.65032,
                 57:-0.60761,  58: 0.32844,  59: 0.04324,  60: 0.53179,  61:-0.17557,  62: 0.87432,  63:-0.73200,  64:-0.51369,
                 65:-0.80300,  66:-0.01428,  67:-0.76199,  68:-0.38302,  69:-0.77660,  70:-0.56944,  71:-0.20648,  72:-0.25322,
                 73: 0.55375,  74: 0.48319,  75: 0.87222,  76:-0.39924,  77: 0.73501,  78: 0.23092,  79:-0.78726,  80: 0.03242,
                 81: 0.67289,  82: 0.66742,  83:-0.50735,  84: 0.66389,  85:-0.69879,  86: 0.92589,  87: 0.13764,  88: 0.93758,
                 89:-0.08228,  90: 0.67164,  91: 0.63206,  92:-0.05310,  93:-0.65387,  94:-0.15164,  95:-0.19896,  96: 0.70017,
                 97:-0.59283,  98:-0.39546,  99:-0.21072, 100:-0.42124, 101:-0.03665, 102: 0.04949, 103: 0.80613, 104: 0.11296,
                105: 0.53090, 106: 0.51556, 107:-0.97888, 108: 0.28500, 109: 0.77620, 110: 0.02940, 111:-0.93363, 112: 0.37476,
                113:-0.56546, 114: 0.79692, 115: 0.62521, 116: 0.92048, 117: 0.76584, 118: 0.54059, 119: 0.65991, 120:-0.76645,
                121:-0.28992, 122: 0.63388, 123:-0.53927, 124:-0.32336, 125: 0.69582, 126:-0.92545, 127:-0.70302, 128: 0.70919,
                129: 0.51695, 130:-0.37195, 131: 0.83518, 132: 0.67928, 133: 0.90832, 134:-0.06307, 135: 0.38584, 136:-0.81846,
                137:-0.83818, 138: 0.29530, 139:-0.42145, 140: 0.22276, 141: 0.22630, 142: 0.17391, 143: 0.28277, 144:-0.30995,
                145: 0.78052, 146: 0.77787, 147:-0.06778, 148:-0.02196, 149: 0.46721, 150: 0.03252, 151: 0.22321, 152: 0.91434,
                153:-0.80674, 154:-0.18803, 155:-0.80191, 156: 0.16620, 157: 0.65787, 158:-0.87988, 159:-0.34374, 160:-0.50963,
                161: 0.24434, 162: 0.75553, 163: 0.72448, 164:-0.09376, 165:-0.56317, 166:-0.02720, 167:-0.75852, 168: 0.06536,
                169:-0.00939, 170: 0.30704, 171:-0.25135, 172: 0.72467, 173:-0.66088, 174:-0.64962, 175:-0.38323, 176: 0.80468,
                177: 0.96782, 178:-0.56499, 179: 0.87165, 180: 0.55695, 181: 0.68013, 182: 0.24530, 183: 0.20816, 184: 0.93727,
                185: 0.44201, 186: 0.98897, 187: 0.50945, 188:-0.52567, 189:-0.41073, 190: 0.32514, 191: 0.82682, 192:-0.63827,
                193:-0.95682, 194: 0.47626, 195:-0.45456, 196: 0.83713, 197: 0.39037, 198:-0.67649, 199:-0.41402, 200:-0.66704,
                201: 0.48125, 202:-0.43464, 203: 0.60233
   211 |      |   1:-0.22170,   2: 0.35772,   3: 0.07671,   4:-0.31136,   5:-0.57988,   6: 0.87097,   7: 0.37402,   8: 0.53213,
                  9: 0.61882,  10: 0.72687,  11:-0.69742,  12:-0.75869,  13:-0.72133,  14:-0.50678,  15: 0.09566,  16: 0.25401,
                 17:-0.97809,  18:-0.54542,  19: 0.07969,  20:-0.55369,  21: 0.43966,  22:-0.53871,  23:-0.15504,  24: 0.80840,
                 25: 0.05049,  26: 0.38901,  27:-0.15774,  28:-0.54675,  29:-0.73735,  30: 0.27769,  31:-0.35751,  32:-0.70550,
                 33: 0.33387,  34: 0.51408,  35:-0.39637,  36: 0.63276,  37:-0.01816,  38: 0.22645,  39: 0.36377,  40:-0.63697,
                 41: 0.59004,  42: 0.53592,  43:-0.70449,  44: 0.23793,  45: 0.82798,  46: 0.02489,  47: 0.71816,  48: 0.42627,
                 49: 0.69538,  50: 0.21324,  51: 0.70674,  52: 0.98424,  53: 0.51866,  54: 0.85869,  55: 0.22717,  56: 0.45324,
                 57: 0.07212,  58: 0.30581,  59: 0.06295,  60: 0.91786,  61:-0.16040,  62:-0.90808,  63: 0.60984,  64: 0.95726,
                 65: 0.33411,  66: 0.67780,  67: 0.66202,  68: 0.12007,  69:-0.50907,  70: 0.01136,  71:-0.61252,  72:-0.88292,
                 73:-0.63617,  74: 0.06662,  75:-0.08479,  76: 0.78563,  77: 0.88593,  78: 0.34596,  79:-0.51356,  80:-0.88062,
                 81: 0.28846,  82:-0.68418,  83: 0.64230,  84:-0.98422,  85:-0.83403,  86:-0.00488,  87:-0.85285,  88: 0.76919,
                 89:-0.81972,  90: 0.46951,  91:-0.47046,  92: 0.28175,  93:-0.66579,  94:-0.59436,  95:-0.46059,  96: 0.18649,
                 97:-0.27345,  98:-0.96165,  99: 0.28205, 100:-0.05766, 101:-0.88867, 102: 0.35545, 103:-0.86178, 104: 0.99123,
                105:-0.40354, 106:-0.02848, 107:-0.81176, 108:-0.56051, 109:-0.11911, 110: 0.53311, 111: 0.13108, 112: 0.77521,
                113:-0.22221, 114:-0.59373, 115: 0.56139, 116:-0.15174, 117:-0.08254, 118: 0.24536, 119: 0.90728, 120: 0.86865,
                121: 0.76299, 122: 0.11632, 123: 0.83454, 124:-0.67673, 125:-0.02024, 126: 0.84100, 127: 0.02117, 128:-0.56956,
                129: 0.13485, 130: 0.74231, 131: 0.95754, 132:-0.33910, 133: 0.30208, 134:-0.99247, 135: 0.92600, 136: 0.72521,
                137: 0.83372, 138:-0.63770, 139:-0.81908, 140:-0.31283, 141: 0.03076, 142: 0.97817, 143:-0.75853, 144:-0.90313,
                145: 0.18382, 146: 0.74738, 147: 0.30901, 148:-0.51624, 149:-0.77091, 150:-0.12022, 151:-0.65238, 152: 0.60696,
                153: 0.61294, 154:-0.25311, 155:-0.93445, 156:-0.42002, 157:-0.28783, 158:-0.04148, 159: 0.68926, 160: 0.57822,
                161:-0.07961, 162: 0.66021, 163: 0.33793, 164:-0.83393, 165: 0.17480, 166:-0.76189, 167: 0.32978, 168:-0.63294,
                169:-0.07005, 170: 0.17627, 171:-0.24821, 172:-0.87639, 173:-0.66092, 174:-0.70334, 175:-0.99043, 176:-0.41430,
                177:-0.59018, 178:-0.50059, 179: 0.27571, 180:-0.77848, 181: 0.17432, 182:-0.70882, 183:-0.75610, 184:-0.29671,
                185: 0.24891, 186:-0.37045, 187: 0.36636, 188: 0.19120, 189: 0.63095, 190:-0.88518, 191:-0.16322, 192:-0.52277,
                193:-0.95142, 194: 0.42695, 195: 0.53745, 196: 0.57246, 197:-0.21910, 198:-0.35953, 199:-0.40848, 200:-0.00056,
                201:-0.47829, 202:-0.93367, 203: 0.17132
   212 |      |   1: 0.30300,   2:-0.35853,   3: 0.70295,   4: 0.78534,   5: 0.73805,   6:-0.56580,   7: 0.56059,   8:-0.07591,
                  9: 0.24716,  10: 0.27088,  11: 0.31804,  12:-0.83784,  13: 0.62420,  14: 0.57768,  15: 0.29918,  16:-0.62205,
                 17: 0.10070,  18:-0.31212,  19:-0.63788,  20: 0.65321,  21: 0.79810,  22:-0.96472,  23: 0.96120,  24: 0.13776,
                 25: 0.93327,  26:-0.30198,  27: 0.48430,  28:-0.51735,  29:-0.84398,  30: 0.91786,  31:-0.67100,  32: 0.61992,
                 33: 0.35752,  34:-0.74799,  35: 0.82990,  36:-0.71199,  37: 0.17830,  38: 0.12636,  39:-0.00778,  40: 0.38285,
                 41:-0.29337,  42: 0.03080,  43: 0.73242,  44:-0.93797,  45: 0.84249,  46: 0.23869,  47: 0.34030,  48: 0.93356,
                 49: 0.26517,  50:-0.41392,  51:-0.31892,  52: 0.78974,  53: 0.54544,  54:-0.11532,  55: 0.42624,  56:-0.34704,
                 57:-0.24538,  58:-0.63023,  59: 0.67487,  60:-0.38428,  61: 0.91802,  62: 0.13701,  63: 0.69084,  64:-0.40414,
                 65: 0.21849,  66:-0.23471,  67:-0.71663,  68:-0.01611,  69:-0.73344,  70:-0.24348,  71:-0.59847,  72:-0.18969,
                 73:-0.29228,  74:-0.42464,  75:-0.24418,  76:-0.13766,  77:-0.46354,  78:-0.99661,  79: 0.33796,  80:-0.22820,
                 81: 0.73539,  82:-0.67476,  83:-0.64577,  84:-0.10211,  85:-0.83131,  86:-0.83872,  87:-0.25341,  88:-0.45784,
                 89: 0.35066,  90: 0.20706,  91:-0.26761,  92:-0.85987,  93:-0.99347,  94: 0.91947,  95:-0.11070,  96: 0.33831,
                 97:-0.12473,  98:-0.47954,  99: 0.64206, 100:-0.16790, 101: 0.50977, 102: 0.31854, 103: 0.62625, 104: 0.33556,
                105: 0.85159, 106:-0.94376, 107: 0.51868, 108: 0.68453, 109:-0.05439, 110: 0.08851, 111: 0.40100, 112:-0.26940,
                113:-0.43008, 114:-0.97585, 115: 0.58336, 116:-0.96670, 117: 0.95006, 118: 0.89332, 119:-0.26394, 120:-0.64656,
                121:-0.32681, 122: 0.84293, 123:-0.00604, 124:-0.67559, 125: 0.89094, 126:-0.75573, 127:-0.10011, 128: 0.44363,
                129: 0.78093, 130:-0.61047, 131:-0.71257, 132: 0.47827, 133: 0.81290, 134: 0.65494, 135: 0.77143, 136:-0.40537,
                137: 0.82993, 138:-0.85316, 139:-0.12325, 140:-0.14489, 141:-0.59274, 142:-0.01638, 143:-0.89378, 144: 0.32152,
                145: 0.89769, 146:-0.90692, 147: 0.70010, 148: 0.77558, 149: 0.42397, 150:-0.15533, 151:-0.60191, 152:-0.77911,
                153:-0.34466, 154: 0.14293, 155:-0.73389, 156:-0.15421, 157: 0.22997, 158: 0.46813, 159: 0.33350, 160: 0.26780,
                161: 0.29012, 162: 0.48005, 163:-0.70187, 164:-0.30692, 165:-0.18185, 166: 0.44767, 167: 0.45049, 168:-0.56643,
                169:-0.25638, 170: 0.21187, 171: 0.95201, 172: 0.13912, 173:-0.51712, 174:-0.55998, 175:-0.95788, 176:-0.49085,
                177: 0.43000, 178:-0.56753, 179: 0.16578, 180: 0.31915, 181: 0.60293, 182:-0.93574, 183: 0.58466, 184:-0.21733,
                185: 0.22941, 186: 0.99568, 187:-0.90393, 188:-0.19897, 189:-0.49039, 190: 0.99779, 191:-0.97692, 192:-0.95436,
                193:-0.50473, 194:-0.91998, 195:-0.19479, 196: 0.36544, 197:-0.73245, 198:-0.42388, 199: 0.11212, 200:-0.70860,
                201: 0.06987, 202: 0.96893, 203: 0.38439
   213 |      |   1: 0.63712,   2:-0.94389,   3: 0.92991,   4:-0.10785,   5:-0.19350,   6:-0.75103,   7:-0.67617,   8: 0.18579,
                  9: 0.84094,  10: 0.03521,  11: 0.63458,  12: 0.69149,  13:-0.10494,  14:-0.87749,  15: 0.36941,  16:-0.17207,
                 17: 0.21804,  18:-0.76560,  19: 0.96365,  20:-0.11916,  21:-0.88326,  22: 0.87746,  23: 0.64500,  24: 0.72391,
                 25:-0.00916,  26: 0.18205,  27: 0.05289,  28:-0.83467,  29:-0.17873,  30: 0.94779,  31:-0.49995,  32:-0.41388,
                 33: 0.21988,  34: 0.08199,  35:-0.28151,  36:-0.31126,  37:-0.85121,  38: 0.89959,  39: 0.40687,  40:-0.44309,
                 41:-0.12266,  42:-0.50281,  43: 0.65239,  44: 0.47088,  45: 0.87965,  46:-0.98264,  47: 0.88470,  48: 0.56423,
                 49:-0.06448,  50:-0.86391,  51:-0.74363,  52: 0.39072,  53:-0.54027,  54:-0.25538,  55:-0.15712,  56:-0.35581,
                 57: 0.36111,  58: 0.42192,  59: 0.70267,  60: 0.89505,  61: 0.86490,  62:-0.07228,  63: 0.30524,  64: 0.43683,
                 65: 0.59231,  66: 0.26600,  67:-0.92713,  68:-0.25630,  69:-0.31509,  70:-0.29153,  71: 0.52260,  72:-0.90124,
                 73:-0.67672,  74: 0.01816,  75: 0.75279,  76: 0.54539,  77:-0.91328,  78:-0.37990,  79:-0.41245,  80: 0.22551,
                 81:-0.76847,  82:-0.06678,  83:-0.35013,  84: 0.59432,  85: 0.15844,  86:-0.03753,  87: 0.83602,  88:-0.96100,
                 89:-0.34375,  90:-0.33023,  91: 0.25073,  92: 0.58603,  93:-0.45996,  94:-0.13348,  95:-0.44800,  96:-0.93024,
                 97:-0.82814,  98: 0.32800,  99:-0.94990, 100: 0.17164, 101:-0.78679, 102:-0.39547, 103: 0.78726, 104:-0.14905,
                105: 0.49848, 106: 0.33594, 107: 0.45873, 108:-0.99673, 109:-0.14758, 110: 0.66142, 111: 0.46487, 112: 0.74050,
                113: 0.25191, 114: 0.10872, 115:-0.06364, 116:-0.07093, 117:-0.76918, 118:-0.14579, 119: 0.35558, 120: 0.90025,
                121:-0.34132, 122: 0.83322, 123: 0.79712, 124:-0.68519, 125:-0.17096, 126: 0.37050, 127: 0.99838, 128:-0.31490,
                129:-0.45274, 130: 0.97074, 131:-0.10173, 132:-0.90043, 133:-0.98834, 134:-0.00676, 135: 0.18143, 136: 0.23263,
                137:-0.32544, 138: 0.12287, 139:-0.75038, 140: 0.13691, 141: 0.91550, 142: 0.98839, 143: 0.20724, 144:-0.10683,
                145: 0.75738, 146:-0.22865, 147:-0.53073, 148: 0.62814, 149:-0.46445, 150:-0.84687, 151: 0.83545, 152: 0.30220,
                153:-0.54836, 154: 0.07997, 155: 0.96283, 156:-0.97672, 157:-0.60117, 158:-0.64342, 159: 0.52950, 160:-0.62793,
                161:-0.04245, 162:-0.56277, 163:-0.28323, 164:-0.35430, 165:-0.31687, 166:-0.44864, 167: 0.42804, 168:-0.73356,
                169: 0.92719, 170: 0.72091, 171: 0.67272, 172:-0.51004, 173:-0.33310, 174: 0.69324, 175:-0.68059, 176: 0.52120,
                177: 0.91125, 178:-0.61889, 179: 0.78828, 180: 0.14844, 181:-0.01158, 182: 0.27776, 183:-0.18239, 184: 0.88708,
                185:-0.29510, 186:-0.63411, 187: 0.09102, 188:-0.35986, 189:-0.65335, 190: 0.28654, 191:-0.07965, 192: 0.19421,
                193: 0.63834, 194:-0.34584, 195: 0.29616, 196:-0.95334, 197:-0.00717, 198: 0.23261, 199: 0.17501, 200:-0.42415,
                201: 0.10535, 202: 0.71278, 203: 0.88420
   214 |      |   1:-0.65241,   2: 0.95666,   3:-0.17985,   4:-0.96899,   5:-0.49272,   6:-0.28914,   7:-0.65282,   8: 0.73778,
                  9: 0.95292,  10:-0.62311,  11:-0.31893,  12:-0.15777,  13: 0.97946,  14:-0.39981,  15:-0.40617,  16:-0.07083,
                 17: 0.87409,  18: 0.42218,  19: 0.04411,  20: 0.66938,  21: 0.86709,  22:-0.06437,  23:-0.82510,  24: 0.56319,
                 25: 0.88164,  26:-0.93949,  27:-0.62562,  28:-0.47665,  29:-0.65833,  30: 0.17207,  31:-0.13171,  32: 0.32201,
                 33: 0.70605,  34: 0.38286,  35:-0.06361,  36: 0.42302,  37:-0.03534,  38:-0.14147,  39:-0.78655,  40: 0.05674,
                 41:-0.66996,  42: 0.55459,  43:-0.94082,  44: 0.69349,  45:-0.28609,  46:-0.60131,  47:-0.52050,  48:-0.51152,
                 49: 0.37625,  50: 0.19234,  51: 0.27832,  52:-0.51017,  53:-0.88571,  54:-0.36777,  55:-0.85396,  56: 0.14051,
                 57: 0.41814,  58: 0.89776,  59: 0.28391,  60:-0.88837,  61: 0.70982,  62:-0.45454,  63: 0.36752,  64:-0.94230,
                 65: 0.81362,  66:-0.90025,  67:-0.48429,  68: 0.29623,  69: 0.54194,  70:-0.87879,  71: 0.21062,  72:-0.47620,
                 73: 0.24476,  74: 0.83875,  75: 0.47107,  76:-0.13573,  77:-0.46079,  78:-0.89858,  79:-0.91517,  80: 0.20376,
                 81: 0.54353,  82: 0.67215,  83: 0.32855,  84:-0.16079,  85:-0.22392,  86:-0.73792,  87: 0.72985,  88:-0.08215,
                 89: 0.59241,  90:-0.51322,  91:-0.66034,  92:-0.52697,  93: 0.42399,  94:-0.31111,  95: 0.37919,  96:-0.40419,
                 97: 0.11019,  98:-0.32521,  99:-0.39665, 100:-0.51674, 101:-0.10466, 102:-0.50684, 103:-0.71209, 104:-0.13616,
                105: 0.96749, 106:-0.13877, 107: 0.31229, 108:-0.75771, 109: 0.17167, 110: 0.42114, 111: 0.69294, 112: 0.18393,
                113: 0.32256, 114:-0.83292, 115:-0.65264, 116: 0.65758, 117: 0.60950, 118: 0.88608, 119: 0.46827, 120:-0.50578,
                121:-0.67257, 122: 0.84834, 123:-0.80384, 124:-0.95767, 125:-0.36696, 126:-0.90888, 127:-0.75732, 128: 0.89112,
                129:-0.57448, 130:-0.92788, 131:-0.41646, 132:-0.60110, 133:-0.34954, 134: 0.11220, 135:-0.43362, 136: 0.04794,
                137:-0.65381, 138: 0.57295, 139:-0.07317, 140: 0.22310, 141:-0.72945, 142:-0.92620, 143:-0.15644, 144: 0.78179,
                145:-0.20225, 146: 0.97745, 147:-0.23457, 148: 0.18517, 149:-0.55029, 150: 0.87669, 151: 0.19145, 152:-0.54027,
                153:-0.43008, 154:-0.30713, 155: 0.66403, 156:-0.14581, 157: 0.56396, 158: 0.32519, 159: 0.14203, 160: 0.77689,
                161: 0.27786, 162:-0.57493, 163: 0.75107, 164:-0.99455, 165:-0.42118, 166: 0.95310, 167: 0.17128, 168: 0.84375,
                169:-0.68599, 170: 0.62383, 171:-0.97168, 172:-0.01401, 173: 0.47986, 174: 0.36063, 175: 0.42128, 176:-0.51377,
                177:-0.27955, 178:-0.55172, 179: 0.87482, 180:-0.88863, 181: 0.92960, 182: 0.45117, 183: 0.67430, 184: 0.19205,
                185:-0.34654, 186: 0.20278, 187: 0.76794, 188:-0.87232, 189:-0.26841, 190: 0.59533, 191:-0.35661, 192:-0.77193,
                193: 0.88353, 194:-0.38664, 195:-0.84363, 196: 0.39533, 197:-0.88961, 198: 0.45074, 199: 0.96281, 200:-0.89200,
                201:-0.64217, 202: 0.79737, 203:-0.35534
   215 |      |   1:-0.83465,   2: 0.36078,   3: 0.76171,   4:-0.40446,   5:-0.54768,   6:-0.19965,   7: 0.73357,   8:-0.15997,
                  9: 0.10915,  10: 0.46968,  11:-0.92519,  12: 0.60974,  13: 0.79466,  14: 0.31191,  15:-0.63291,  16:-0.62310,
                 17:-0.57598,  18:-0.27574,  19: 0.56513,  20:-0.36131,  21:-0.11994,  22:-0.84183,  23: 0.81979,  24: 0.34568,
                 25:-0.38544,  26:-0.77165,  27:-0.94989,  28: 0.29855,  29:-0.85348,  30:-0.39419,  31:-0.36873,  32: 0.42242,
                 33: 0.33335,  34:-0.19367,  35:-0.17888,  36:-0.18630,  37: 0.69027,  38: 0.23562,  39:-0.19496,  40: 0.74345,
                 41:-0.46097,  42: 0.20959,  43: 0.02835,  44:-0.64728,  45: 0.73717,  46:-0.26862,  47: 0.86594,  48: 0.20399,
                 49:-0.18862,  50:-0.41655,  51: 0.74346,  52: 0.93106,  53: 0.91382,  54: 0.69335,  55:-0.80404,  56:-0.61572,
                 57:-0.16092,  58: 0.07583,  59: 0.68190,  60:-0.51627,  61:-0.13542,  62: 0.16524,  63:-0.55029,  64: 0.70924,
                 65:-0.82789,  66:-0.33791,  67:-0.40361,  68: 0.17034,  69: 0.61787,  70: 0.66283,  71:-0.58853,  72: 0.56337,
                 73:-0.53081,  74: 0.76655,  75:-0.05567,  76:-0.75369,  77:-0.97517,  78:-0.09505,  79:-0.22135,  80: 0.01003,
                 81:-0.32797,  82:-0.92071,  83: 0.58682,  84:-0.08200,  85: 0.57640,  86: 0.17183,  87: 0.04231,  88:-0.49546,
                 89:-0.19819,  90:-0.90207,  91:-0.00666,  92: 0.49606,  93: 0.94921,  94:-0.74697,  95: 0.88309,  96:-0.45659,
                 97: 0.39927,  98: 0.36733,  99: 0.70553, 100: 0.87023, 101:-0.26157, 102: 0.29682, 103: 0.31164, 104:-0.44305,
                105: 0.01888, 106:-0.85399, 107:-0.34456, 108: 0.85036, 109:-0.99442, 110:-0.46504, 111:-0.84421, 112:-0.46934,
                113:-0.36178, 114: 0.29648, 115: 0.33779, 116: 0.25235, 117: 0.50177, 118: 0.83133, 119:-0.56805, 120: 0.83059,
                121: 0.35778, 122:-0.42246, 123: 0.80260, 124:-0.24580, 125:-0.27847, 126: 0.29021, 127: 0.63655, 128: 0.51094,
                129:-0.65757, 130:-0.79011, 131:-0.03622, 132:-0.49360, 133:-0.69981, 134: 0.75936, 135: 0.05373, 136: 0.99723,
                137: 0.59437, 138:-0.40755, 139:-0.18861, 140:-0.74765, 141: 0.68737, 142: 0.97533, 143:-0.20136, 144: 0.46614,
                145:-0.15136, 146:-0.63525, 147: 0.76895, 148:-0.70162, 149:-0.48831, 150:-0.67704, 151:-0.49893, 152: 0.48333,
                153: 0.64612, 154: 0.64218, 155:-0.34525, 156: 0.06961, 157: 0.59673, 158:-0.28178, 159:-0.71755, 160: 0.51344,
                161:-0.53539, 162: 0.19368, 163: 0.48475, 164:-0.80324, 165:-0.80423, 166: 0.97295, 167: 0.98956, 168:-0.21859,
                169:-0.32201, 170: 0.58772, 171:-0.30321, 172:-0.89952, 173:-0.31752, 174:-0.83744, 175: 0.52148, 176:-0.35773,
                177:-0.93622, 178:-0.09946, 179:-0.71989, 180: 0.87385, 181:-0.33245, 182: 0.99184, 183: 0.52181, 184: 0.10664,
                185:-0.40603, 186: 0.46161, 187:-0.23913, 188:-0.08993, 189: 0.30586, 190: 0.94160, 191: 0.70622, 192: 0.47201,
                193:-0.68063, 194: 0.30459, 195: 0.02373, 196:-0.81848, 197: 0.41636, 198: 0.07817, 199: 0.65594, 200: 0.12495,
                201: 0.29700, 202:-0.50214, 203: 0.54132
   216 |      |   1:-0.30184,   2: 0.10573,   3: 0.56743,   4:-0.25596,   5:-0.32139,   6:-0.45981,   7:-0.34003,   8: 0.25351,
                  9: 0.53757,  10:-0.70702,  11:-0.01745,  12: 0.01185,  13: 0.09318,  14: 0.08465,  15:-0.79713,  16:-0.22150,
                 17:-0.16772,  18: 0.56770,  19:-0.29586,  20: 0.67165,  21: 0.99454,  22:-0.85394,  23:-0.41736,  24:-0.16442,
                 25: 0.12744,  26: 0.87272,  27:-0.04161,  28: 0.91088,  29:-0.36615,  30: 0.04928,  31:-0.47553,  32:-0.74582,
                 33: 0.65435,  34: 0.58652,  35:-0.42372,  36: 0.69724,  37:-0.81454,  38: 0.06509,  39: 0.66089,  40:-0.70580,
                 41: 0.10932,  42: 0.19656,  43:-0.04250,  44:-0.00620,  45:-0.32021,  46: 0.49428,  47: 0.19143,  48:-0.71434,
                 49:-0.23840,  50:-0.58168,  51: 0.59626,  52:-0.31767,  53:-0.05308,  54:-0.91161,  55: 0.63317,  56:-0.73113,
                 57:-0.32297,  58:-0.57530,  59:-0.03341,  60:-0.38117,  61: 0.18055,  62: 0.86952,  63: 0.85319,  64:-0.94197,
                 65: 0.81824,  66: 0.78584,  67:-0.44493,  68: 0.75864,  69: 0.11292,  70:-0.62206,  71:-0.27911,  72:-0.55398,
                 73: 0.06976,  74:-0.78236,  75: 0.63163,  76: 0.86509,  77: 0.48458,  78: 0.90550,  79:-0.32329,  80:-0.37422,
                 81:-0.16441,  82: 0.29776,  83: 0.96427,  84: 0.95383,  85:-0.50127,  86:-0.63480,  87: 0.28539,  88:-0.67670,
                 89: 0.76934,  90: 0.93080,  91: 0.11127,  92: 0.32668,  93:-0.73174,  94:-0.89930,  95:-0.57390,  96: 0.61994,
                 97:-0.57879,  98:-0.46994,  99:-0.83512, 100:-0.18791, 101:-0.10544, 102:-0.84270, 103: 0.16790, 104: 0.98651,
                105: 0.12358, 106: 0.63134, 107:-0.12713, 108:-0.34438, 109: 0.76023, 110:-0.68569, 111: 0.58832, 112:-0.34084,
                113: 0.28628, 114: 0.96458, 115: 0.92985, 116: 0.39268, 117:-0.12589, 118:-0.47869, 119:-0.18596, 120: 0.15684,
                121: 0.43492, 122: 0.88242, 123:-0.09204, 124:-0.01344, 125: 0.67504, 126: 0.28455, 127: 0.39685, 128: 0.47265,
                129: 0.80022, 130:-0.51975, 131:-0.21345, 132: 0.52897, 133:-0.41817, 134: 0.01678, 135: 0.78445, 136:-0.73364,
                137:-0.94672, 138:-0.25980, 139:-0.65647, 140: 0.87596, 141: 0.77022, 142: 0.39305, 143: 0.10467, 144:-0.75737,
                145: 0.88159, 146:-0.40769, 147: 0.78600, 148:-0.26895, 149:-0.83667, 150: 0.34690, 151: 0.75308, 152:-0.18050,
                153: 0.51229, 154:-0.09100, 155:-0.07425, 156: 0.88868, 157: 0.44086, 158:-0.50460, 159: 0.35821, 160: 0.17426,
                161: 0.01436, 162:-0.86539, 163:-0.05474, 164: 0.61440, 165: 0.00261, 166: 0.49867, 167:-0.40532, 168: 0.79835,
                169: 0.24787, 170: 0.49973, 171:-0.64729, 172: 0.46466, 173:-0.73431, 174:-0.86157, 175: 0.02386, 176: 0.80083,
                177: 0.67863, 178:-0.41937, 179: 0.08962, 180:-0.76220, 181:-0.56951, 182: 0.74225, 183: 0.66312, 184:-0.63041,
                185:-0.06169, 186:-0.66283, 187: 0.93267, 188:-0.80140, 189:-0.08125, 190:-0.01574, 191:-0.68154, 192:-0.96811,
                193:-0.01519, 194: 0.69820, 195: 0.32113, 196: 0.23301, 197:-0.93188, 198: 0.05990, 199: 0.86211, 200:-0.34909,
                201: 0.00486, 202:-0.73886, 203:-0.45547
   217 |      |   1:-0.08810,   2: 0.80791,   3:-0.93747,   4: 0.10304,   5:-0.60626,   6: 0.93874,   7:-0.15589,   8:-0.84140,
                  9: 0.35524,  10:-0.81093,  11: 0.60851,  12: 0.13732,  13: 0.20837,  14: 0.24773,  15: 0.01882,  16: 0.68171,
                 17: 0.72236,  18: 0.96488,  19:-0.62722,  20:-0.26931,  21: 0.88946,  22:-0.28449,  23:-0.52081,  24:-0.72549,
                 25:-0.30269,  26: 0.47388,  27:-0.10501,  28: 0.84179,  29:-0.87391,  30: 0.48554,  31: 0.19878,  32: 0.87549,
                 33: 0.37825,  34: 0.26314,  35: 0.29281,  36: 0.48297,  37:-0.29045,  38:-0.76023,  39: 0.09797,  40:-0.64853,
                 41: 0.10185,  42: 0.31085,  43:-0.39570,  44:-0.43262,  45: 0.77569,  46: 0.86048,  47:-0.48546,  48:-0.26748,
                 49: 0.58623,  50: 0.03393,  51:-0.09737,  52: 0.10975,  53: 0.61798,  54: 0.97603,  55:-0.08404,  56:-0.06781,
                 57: 0.75548,  58: 0.65086,  59: 0.87566,  60:-0.23534,  61:-0.84035,  62:-0.50528,  63:-0.25176,  64: 0.60410,
                 65:-0.04960,  66:-0.50875,  67:-0.76743,  68: 0.84810,  69:-0.95367,  70: 0.90869,  71:-0.73301,  72:-0.64629,
                 73:-0.86579,  74: 0.67772,  75: 0.03254,  76:-0.53729,  77:-0.24359,  78:-0.35953,  79: 0.21006,  80:-0.59468,
                 81: 0.16931,  82: 0.25232,  83:-0.17494,  84:-0.86573,  85: 0.12398,  86:-0.99322,  87:-0.75246,  88: 0.01743,
                 89: 0.26976,  90: 0.27841,  91: 0.34898,  92: 0.46661,  93: 0.23017,  94: 0.49017,  95: 0.28326,  96: 0.44581,
                 97: 0.32663,  98:-0.27940,  99: 0.45748, 100:-0.26595, 101: 0.74144, 102:-0.06373, 103:-0.11669, 104:-0.92850,
                105:-0.04287, 106:-0.01066, 107: 0.91830, 108:-0.94458, 109: 0.45905, 110:-0.96508, 111: 0.37063, 112: 0.44240,
                113: 0.84565, 114:-0.06693, 115:-0.21626, 116: 0.83051, 117:-0.90793, 118:-0.00375, 119: 0.45106, 120:-0.58018,
                121:-0.77626, 122: 0.77007, 123:-0.86789, 124:-0.53050, 125: 0.07666, 126: 0.69765, 127:-0.37521, 128:-0.62208,
                129: 0.17819, 130:-0.02668, 131:-0.84741, 132: 0.10822, 133:-0.36251, 134: 0.75580, 135: 0.08829, 136: 0.47162,
                137: 0.88052, 138: 0.45610, 139: 0.77734, 140: 0.97633, 141:-0.77731, 142:-0.03227, 143: 0.34557, 144: 0.37009,
                145: 0.79794, 146:-0.44802, 147:-0.63968, 148:-0.62702, 149: 0.94196, 150:-0.63212, 151: 0.32381, 152:-0.45430,
                153: 0.47522, 154:-0.75762, 155:-0.74095, 156: 0.80392, 157:-0.30248, 158:-0.23665, 159: 0.42690, 160: 0.21464,
                161: 0.56876, 162: 0.85607, 163: 0.59577, 164: 0.74612, 165:-0.67877, 166:-0.96305, 167: 0.66182, 168: 0.34343,
                169:-0.53179, 170: 0.04891, 171: 0.95704, 172: 0.73081, 173:-0.78360, 174:-0.25151, 175: 0.73630, 176:-0.23335,
                177:-0.94187, 178:-0.73112, 179: 0.33532, 180: 0.97249, 181: 0.75084, 182: 0.61682, 183:-0.14756, 184: 0.40446,
                185:-0.04884, 186:-0.87981, 187:-0.77617, 188: 0.62175, 189: 0.95845, 190:-0.66914, 191:-0.19035, 192: 0.82424,
                193:-0.13387, 194:-0.93816, 195:-0.55412, 196:-0.11891, 197: 0.97956, 198:-0.18463, 199: 0.98141, 200: 0.95937,
                201:-0.27112, 202:-0.29003, 203:-0.96802
   218 |      |   1:-0.19926,   2: 0.09263,   3: 0.75644,   4:-0.22818,   5:-0.99046,   6:-0.11873,   7:-0.18302,   8: 0.71439,
                  9:-0.78124,  10: 0.58640,  11: 0.46014,  12:-0.50158,  13:-0.31079,  14: 0.05657,  15:-0.56616,  16: 0.67144,
                 17:-0.68573,  18: 0.61452,  19:-0.06768,  20:-0.15451,  21: 0.77386,  22: 0.50933,  23: 0.46789,  24:-0.74047,
                 25: 0.73987,  26: 0.64994,  27:-0.26865,  28: 0.75056,  29:-0.24776,  30: 0.62606,  31:-0.22353,  32:-0.18725,
                 33: 0.72203,  34:-0.25183,  35: 0.95178,  36: 0.77782,  37:-0.28416,  38: 0.89081,  39:-0.01254,  40: 0.42812,
                 41: 0.78611,  42:-0.87041,  43: 0.47233,  44:-0.66501,  45: 0.34363,  46:-0.87094,  47:-0.52656,  48:-0.78978,
                 49:-0.21204,  50:-0.14438,  51:-0.48463,  52: 0.90914,  53: 0.83853,  54: 0.12487,  55: 0.71006,  56:-0.69686,
                 57:-0.07731,  58:-0.29978,  59:-0.92107,  60: 0.95167,  61:-0.08889,  62:-0.13161,  63:-0.48790,  64:-0.21534,
                 65: 0.93420,  66:-0.35534,  67: 0.24523,  68: 0.32222,  69:-0.38496,  70: 0.79789,  71:-0.00969,  72: 0.30780,
                 73:-0.88593,  74: 0.81196,  75:-0.87406,  76:-0.95686,  77: 0.36025,  78:-0.42934,  79: 0.73419,  80: 0.74829,
                 81: 0.85631,  82: 0.10862,  83:-0.72742,  84: 0.52023,  85:-0.23626,  86: 0.12932,  87: 0.70054,  88: 0.05171,
                 89:-0.47550,  90:-0.64496,  91: 0.76134,  92: 0.35236,  93: 0.14466,  94: 0.12531,  95: 0.57468,  96: 0.97236,
                 97:-0.80920,  98: 0.26198,  99: 0.85489, 100:-0.61795, 101: 0.42887, 102: 0.11834, 103: 0.97080, 104:-0.54369,
                105:-0.57852, 106: 0.24935, 107: 0.14985, 108: 0.73044, 109: 0.00011, 110: 0.39095, 111: 0.75022, 112:-0.95585,
                113:-0.28881, 114:-0.19546, 115: 0.43668, 116:-0.78498, 117: 0.61853, 118:-0.30069, 119: 0.96053, 120:-0.14530,
                121: 0.40873, 122: 0.84142, 123: 0.12965, 124: 0.76456, 125:-0.07588, 126:-0.17326, 127: 0.43627, 128: 0.45854,
                129:-0.97054, 130:-0.65298, 131: 0.06821, 132:-0.77440, 133: 0.25132, 134:-0.58649, 135:-0.04914, 136:-0.73866,
                137: 0.71512, 138: 0.49185, 139: 0.74643, 140: 0.29637, 141:-0.49734, 142: 0.20660, 143: 0.97193, 144:-0.11043,
                145:-0.72084, 146: 0.33085, 147:-0.40401, 148:-0.77188, 149: 0.66340, 150: 0.60538, 151: 0.54673, 152: 0.50683,
                153: 0.76624, 154:-0.76432, 155:-0.17113, 156: 0.40124, 157:-0.81464, 158:-0.82574, 159:-0.36856, 160:-0.01269,
                161: 0.75706, 162: 0.27504, 163: 0.53916, 164: 0.91206, 165: 0.92735, 166: 0.65068, 167: 0.27768, 168: 0.43309,
                169:-0.23487, 170: 0.89886, 171:-0.73049, 172: 0.89866, 173:-0.38902, 174: 0.89665, 175:-0.49828, 176:-0.35475,
                177:-0.00041, 178: 0.48276, 179:-0.93411, 180: 0.48807, 181:-0.16544, 182:-0.77530, 183: 0.38665, 184: 0.84433,
                185:-0.49133, 186:-0.44665, 187: 0.17519, 188: 0.96395, 189:-0.41544, 190: 0.57375, 191: 0.00457, 192: 0.18358,
                193: 0.27086, 194: 0.84077, 195:-0.01617, 196: 0.03318, 197: 0.89259, 198: 0.11813, 199:-0.90436, 200:-0.59095,
                201:-0.83366, 202:-0.30616, 203:-0.44904
   219 |      |   1: 0.60477,   2:-0.82880,   3: 0.65258,   4: 0.08558,   5: 0.01067,   6: 0.77130,   7:-0.67243,   8:-0.49041,
                  9:-0.10021,  10: 0.61235,  11: 0.97632,  12:-0.08173,  13:-0.56601,  14: 0.35570,  15:-0.97124,  16:-0.17493,
                 17: 0.96162,  18:-0.60347,  19: 0.19342,  20: 0.71492,  21: 0.97938,  22:-0.59172,  23:-0.59529,  24:-0.86850,
                 25: 0.94503,  26:-0.67108,  27: 0.27946,  28:-0.10333,  29: 0.60430,  30:-0.64696,  31: 0.89487,  32: 0.65866,
                 33:-0.02887,  34:-0.63863,  35: 0.71804,  36: 0.91496,  37:-0.29371,  38:-0.43883,  39: 0.15223,  40:-0.45202,
                 41:-0.64197,  42:-0.34843,  43:-0.89703,  44: 0.48496,  45: 0.02294,  46:-0.30173,  47: 0.92497,  48: 0.24673,
                 49: 0.50055,  50: 0.13932,  51: 0.33582,  52: 0.43387,  53: 0.27831,  54:-0.60888,  55: 0.65506,  56:-0.67669,
                 57: 0.80051,  58: 0.73068,  59:-0.14308,  60: 0.07895,  61:-0.16420,  62: 0.25341,  63:-0.74566,  64: 0.13712,
                 65: 0.53143,  66: 0.40598,  67:-0.46665,  68:-0.70981,  69:-0.61911,  70: 0.94058,  71:-0.26459,  72:-0.80718,
                 73: 0.06640,  74:-0.89555,  75:-0.42445,  76: 0.44573,  77: 0.48345,  78: 0.84740,  79: 0.15391,  80: 0.21796,
                 81: 0.50529,  82:-0.91213,  83: 0.16483,  84:-0.64719,  85: 0.77792,  86: 0.31778,  87: 0.66061,  88:-0.97572,
                 89: 0.40747,  90:-0.35209,  91: 0.34696,  92: 0.88529,  93:-0.54900,  94: 0.80448,  95: 0.36598,  96: 0.04698,
                 97:-0.93143,  98: 0.49620,  99:-0.81746, 100: 0.57854, 101: 0.73979, 102:-0.70243, 103: 0.18679, 104: 0.10296,
                105: 0.57464, 106: 0.96359, 107:-0.85679, 108: 0.72566, 109:-0.77996, 110:-0.46652, 111:-0.12656, 112: 0.36763,
                113: 0.72475, 114: 0.23431, 115: 0.30276, 116: 0.63386, 117:-0.19768, 118: 0.00268, 119: 0.00873, 120:-0.15819,
                121: 0.83273, 122: 0.25312, 123:-0.00410, 124:-0.37211, 125:-0.44463, 126:-0.40789, 127: 0.92280, 128: 0.66376,
                129: 0.40128, 130:-0.33190, 131: 0.30239, 132: 0.12733, 133:-0.26045, 134:-0.17045, 135: 0.18610, 136:-0.48159,
                137: 0.70663, 138: 0.20868, 139: 0.96269, 140: 0.67758, 141: 0.75938, 142: 0.14030, 143: 0.62121, 144: 0.10421,
                145:-0.56067, 146: 0.24834, 147: 0.14169, 148:-0.82064, 149: 0.13293, 150:-0.71735, 151:-0.38356, 152:-0.85983,
                153: 0.71657, 154:-0.03660, 155:-0.16997, 156: 0.73947, 157: 0.02692, 158: 0.19658, 159:-0.07195, 160: 0.72904,
                161:-0.98593, 162: 0.47390, 163: 0.60832, 164: 0.55574, 165: 0.42006, 166: 0.88150, 167: 0.12529, 168:-0.96054,
                169:-0.13972, 170:-0.36019, 171:-0.00265, 172: 0.05163, 173: 0.53346, 174: 0.61169, 175:-0.63891, 176:-0.77113,
                177: 0.49321, 178:-0.21481, 179:-0.32194, 180: 0.09164, 181: 0.80543, 182: 0.80435, 183: 0.24361, 184:-0.69992,
                185: 0.09999, 186:-0.46461, 187:-0.51183, 188: 0.53584, 189: 0.38928, 190:-0.82664, 191:-0.76223, 192:-0.83103,
                193:-0.25814, 194:-0.82344, 195: 0.28758, 196: 0.63255, 197: 0.91633, 198: 0.43262, 199: 0.24291, 200:-0.38324,
                201: 0.61201, 202: 0.48422, 203:-0.46672
   220 |      |   1:-0.37740,   2:-0.65790,   3: 0.94115,   4:-0.82284,   5:-0.43140,   6:-0.48385,   7:-0.69021,   8:-0.24713,
                  9:-0.07610,  10:-0.49827,  11:-0.95923,  12: 0.67289,  13: 0.41291,  14:-0.95094,  15:-0.34056,  16: 0.88183,
                 17: 0.01605,  18: 0.56601,  19: 0.46253,  20: 0.35734,  21:-0.81608,  22: 0.48360,  23:-0.23372,  24:-0.93326,
                 25:-0.70228,  26: 0.83731,  27:-0.69748,  28: 0.66504,  29: 0.30981,  30: 0.24310,  31:-0.37170,  32:-0.93866,
                 33:-0.30171,  34: 0.45468,  35: 0.05978,  36: 0.41903,  37: 0.27768,  38:-0.21174,  39: 0.66392,  40: 0.19679,
                 41:-0.97312,  42: 0.98404,  43:-0.98714,  44: 0.90105,  45: 0.84081,  46:-0.83581,  47: 0.15492,  48: 0.00836,
                 49:-0.70098,  50:-0.90214,  51: 0.16482,  52:-0.49012,  53: 0.40033,  54: 0.18169,  55: 0.94645,  56: 0.49394,
                 57:-0.63453,  58: 0.60546,  59:-0.93096,  60: 0.66099,  61: 0.59956,  62: 0.84487,  63:-0.62441,  64: 0.48474,
                 65: 0.67361,  66:-0.31279,  67: 0.11959,  68:-0.49907,  69:-0.41840,  70: 0.75989,  71:-0.67221,  72:-0.18993,
                 73:-0.18993,  74:-0.66018,  75:-0.02599,  76:-0.00783,  77: 0.08518,  78: 0.94538,  79:-0.93937,  80: 0.20141,
                 81:-0.39571,  82: 0.75704,  83:-0.32728,  84: 0.96902,  85:-0.40886,  86: 0.71299,  87:-0.01301,  88: 0.20747,
                 89: 0.01593,  90:-0.35082,  91: 0.72832,  92:-0.12732,  93:-0.91880,  94:-0.90286,  95: 0.97523,  96: 0.78026,
                 97: 0.78491,  98: 0.34677,  99:-0.02045, 100: 0.04343, 101: 0.63307, 102: 0.68619, 103:-0.09861, 104: 0.64380,
                105:-0.10868, 106:-0.06215, 107: 0.33859, 108:-0.31955, 109: 0.05047, 110:-0.35751, 111: 0.17898, 112: 0.07031,
                113:-0.74672, 114: 0.65543, 115:-0.29304, 116: 0.87438, 117:-0.98646, 118:-0.80280, 119:-0.20570, 120: 0.26529,
                121:-0.21603, 122:-0.73945, 123: 0.29415, 124:-0.52428, 125:-0.16482, 126: 0.96609, 127:-0.00912, 128:-0.79880,
                129:-0.06469, 130:-0.74139, 131:-0.65533, 132: 0.98136, 133: 0.82041, 134:-0.94451, 135: 0.17393, 136:-0.55894,
                137:-0.82624, 138:-0.55937, 139:-0.13669, 140: 0.10466, 141:-0.54903, 142: 0.11342, 143: 0.84630, 144:-0.74350,
                145: 0.46478, 146: 0.45801, 147: 0.32446, 148: 0.23896, 149: 0.15407, 150: 0.22869, 151:-0.56001, 152:-0.82869,
                153:-0.21426, 154:-0.08135, 155:-0.43900, 156:-0.36807, 157:-0.73581, 158: 0.89143, 159: 0.77244, 160:-0.04999,
                161:-0.05695, 162:-0.16591, 163:-0.95099, 164:-0.24181, 165:-0.05153, 166:-0.89850, 167: 0.53474, 168:-0.99774,
                169: 0.53745, 170: 0.15157, 171:-0.36083, 172: 0.11005, 173: 0.34146, 174:-0.85308, 175: 0.70897, 176: 0.18753,
                177:-0.19745, 178: 0.57191, 179:-0.56822, 180: 0.42088, 181: 0.92139, 182:-0.42773, 183: 0.11476, 184:-0.91943,
                185:-0.76534, 186:-0.11705, 187:-0.04844, 188: 0.19344, 189: 0.26047, 190: 0.41780, 191:-0.59980, 192:-0.10288,
                193: 0.43828, 194:-0.36924, 195:-0.95037, 196: 0.32516, 197:-0.30690, 198: 0.93279, 199:-0.27976, 200:-0.51988,
                201:-0.57041, 202:-0.89558, 203:-0.95553
   221 |      |   1: 0.33435,   2:-0.15721,   3: 0.13246,   4: 0.08033,   5: 0.58653,   6:-0.90162,   7: 0.28960,   8: 0.93293,
                  9: 0.10063,  10: 0.23329,  11:-0.50003,  12:-0.16976,  13:-0.45070,  14:-0.37724,  15:-0.00921,  16:-0.33831,
                 17:-0.29201,  18: 0.57403,  19:-0.55811,  20: 0.69818,  21: 0.69230,  22:-0.12625,  23: 0.50056,  24: 0.51148,
                 25:-0.74395,  26: 0.73966,  27:-0.53929,  28: 0.64856,  29:-0.76843,  30: 0.21679,  31:-0.00547,  32: 0.62107,
                 33:-0.32590,  34:-0.37634,  35: 0.28157,  36: 0.48330,  37: 0.59967,  38:-0.56158,  39:-0.53850,  40:-0.63217,
                 41:-0.62062,  42:-0.67840,  43:-0.88234,  44: 0.01900,  45: 0.90194,  46: 0.25961,  47: 0.33798,  48:-0.28833,
                 49:-0.89956,  50:-0.80267,  51: 0.93493,  52: 0.47051,  53:-0.04867,  54: 0.27974,  55:-0.44166,  56:-0.37342,
                 57:-0.28425,  58: 0.87009,  59: 0.90369,  60:-0.71862,  61:-0.83922,  62: 0.93866,  63:-0.01159,  64:-0.08209,
                 65:-0.54452,  66: 0.96307,  67:-0.19926,  68: 0.33508,  69:-0.89883,  70:-0.95637,  71: 0.56775,  72:-0.67679,
                 73:-0.12437,  74: 0.06932,  75:-0.23537,  76: 0.48670,  77: 0.62490,  78: 0.17935,  79: 0.90584,  80: 0.70641,
                 81: 0.63590,  82:-0.18129,  83: 0.50742,  84: 0.67338,  85:-0.89060,  86: 0.90316,  87:-0.44037,  88:-0.62011,
                 89:-0.70106,  90:-0.83038,  91:-0.14972,  92: 0.49231,  93:-0.40849,  94:-0.97593,  95:-0.23475,  96: 0.12603,
                 97: 0.11621,  98: 0.10206,  99:-0.72362, 100:-0.92128, 101:-0.65687, 102: 0.47337, 103:-0.99652, 104:-0.66062,
                105:-0.92353, 106:-0.24601, 107:-0.91686, 108: 0.37201, 109:-0.21964, 110:-0.70427, 111:-0.55083, 112: 0.87295,
                113:-0.63418, 114: 0.72037, 115: 0.66700, 116:-0.57340, 117:-0.49753, 118: 0.12403, 119:-0.91336, 120: 0.64620,
                121:-0.17608, 122:-0.27529, 123:-0.51212, 124: 0.30492, 125: 0.72403, 126: 0.14748, 127: 0.06846, 128:-0.13983,
                129: 0.97886, 130:-0.82430, 131:-0.66386, 132:-0.71668, 133: 0.39270, 134: 0.04161, 135:-0.24790, 136:-0.23591,
                137: 0.80390, 138: 0.23656, 139: 0.66414, 140:-0.39258, 141: 0.87700, 142: 0.60005, 143: 0.76910, 144: 0.33027,
                145:-0.53786, 146:-0.03730, 147: 0.94502, 148:-0.14786, 149:-0.73727, 150:-0.10762, 151:-0.53629, 152: 0.91886,
                153: 0.99107, 154: 0.80331, 155:-0.71436, 156:-0.92804, 157:-0.98649, 158: 0.66831, 159:-0.91718, 160:-0.94944,
                161: 0.12641, 162: 0.31541, 163: 0.84622, 164: 0.37089, 165:-0.96995, 166:-0.56211, 167:-0.79333, 168:-0.24431,
                169: 0.27595, 170: 0.30398, 171:-0.99168, 172: 0.27702, 173: 0.98481, 174:-0.82135, 175: 0.07935, 176: 0.62969,
                177: 0.02642, 178:-0.22039, 179: 0.68368, 180: 0.37524, 181: 0.21274, 182: 0.95461, 183:-0.26900, 184: 0.69981,
                185: 0.50252, 186:-0.88461, 187: 0.67033, 188: 0.03223, 189: 0.40589, 190:-0.12127, 191:-0.92190, 192: 0.49489,
                193: 0.39494, 194:-0.41272, 195: 0.53840, 196: 0.74163, 197:-0.11142, 198:-0.19085, 199:-0.45407, 200: 0.30989,
                201:-0.46502, 202:-0.90228, 203: 0.16676
   222 |      |   1: 0.21097,   2:-0.85666,   3: 0.49892,   4:-0.01901,   5: 0.43444,   6: 0.68047,   7:-0.60650,   8: 0.26865,
                  9: 0.91483,  10: 0.38306,  11:-0.73145,  12: 0.04916,  13:-0.55731,  14:-0.84544,  15: 0.06460,  16: 0.93023,
                 17:-0.12724,  18:-0.83556,  19:-0.25713,  20:-0.83484,  21:-0.10926,  22: 0.82548,  23: 0.24522,  24: 0.44841,
                 25:-0.57944,  26:-0.42522,  27:-0.96359,  28:-0.11069,  29: 0.62511,  30:-0.14384,  31:-0.12623,  32: 0.10985,
                 33:-0.55568,  34: 0.76863,  35:-0.26023,  36:-0.11209,  37: 0.57317,  38: 0.08903,  39:-0.62815,  40: 0.03267,
                 41: 0.04161,  42: 0.03003,  43:-0.49361,  44:-0.83162,  45:-0.88956,  46:-0.32914,  47: 0.19983,  48: 0.78418,
                 49: 0.18626,  50: 0.79171,  51:-0.31224,  52: 0.77825,  53: 0.68935,  54:-0.56901,  55:-0.11546,  56:-0.68548,
                 57:-0.76158,  58: 0.22369,  59:-0.58718,  60: 0.17926,  61: 0.76167,  62:-0.89081,  63: 0.98807,  64:-0.93504,
                 65: 0.97529,  66:-0.26401,  67:-0.01798,  68: 0.94393,  69: 0.51678,  70:-0.45777,  71:-0.63217,  72: 0.57691,
                 73:-0.53513,  74: 0.53518,  75:-0.76645,  76: 0.41937,  77: 0.26082,  78:-0.00504,  79: 0.27089,  80:-0.04359,
                 81: 0.56356,  82:-0.76805,  83: 0.63887,  84: 0.56415,  85:-0.62295,  86:-0.03991,  87:-0.68813,  88: 0.14108,
                 89: 0.09034,  90:-0.58337,  91:-0.70317,  92: 0.28682,  93: 0.73521,  94:-0.04781,  95:-0.79813,  96: 0.07063,
                 97:-0.18608,  98: 0.10231,  99: 0.72020, 100: 0.30037, 101:-0.84165, 102: 0.08499, 103: 0.22671, 104:-0.42109,
                105:-0.71395, 106: 0.97980, 107: 0.34563, 108:-0.24515, 109:-0.89219, 110: 0.54724, 111: 0.91630, 112:-0.89542,
                113:-0.73724, 114:-0.46368, 115: 0.04747, 116:-0.27912, 117: 0.11275, 118: 0.48119, 119:-0.89739, 120:-0.84036,
                121: 0.97726, 122: 0.25968, 123: 0.59842, 124:-0.02985, 125:-0.35194, 126:-0.78120, 127: 0.63229, 128: 0.89895,
                129: 0.86183, 130:-0.61794, 131:-0.00599, 132: 0.43403, 133: 0.15478, 134: 0.34436, 135:-0.61946, 136: 0.10100,
                137: 0.46270, 138:-0.08749, 139: 0.84547, 140:-0.77999, 141:-0.30007, 142: 0.62878, 143:-0.09337, 144: 0.39927,
                145: 0.25082, 146:-0.93535, 147:-0.35497, 148:-0.87424, 149: 0.38795, 150: 0.51887, 151:-0.90318, 152:-0.30463,
                153:-0.19696, 154:-0.39395, 155: 0.61968, 156: 0.21397, 157:-0.93650, 158: 0.56672, 159:-0.54072, 160: 0.33957,
                161:-0.58798, 162: 0.13809, 163:-0.88581, 164:-0.80342, 165:-0.91425, 166: 0.94753, 167: 0.36605, 168: 0.88097,
                169:-0.42021, 170: 0.86001, 171:-0.01882, 172:-0.87503, 173: 0.00699, 174:-0.95941, 175: 0.48072, 176: 0.96885,
                177:-0.94114, 178: 0.97859, 179:-0.69419, 180:-0.80665, 181:-0.14635, 182: 0.93672, 183: 0.86632, 184:-0.67128,
                185:-0.87377, 186:-0.40577, 187: 0.95449, 188: 0.33557, 189: 0.38543, 190: 0.68684, 191:-0.16391, 192:-0.35928,
                193:-0.39034, 194:-0.37278, 195: 0.91191, 196:-0.26885, 197:-0.80130, 198: 0.11955, 199:-0.50909, 200: 0.61478,
                201: 0.83199, 202: 0.14265, 203: 0.15758
   223 |      |   1: 0.63995,   2:-0.56346,   3:-0.43185,   4: 0.77013,   5:-0.84165,   6:-0.50174,   7:-0.05777,   8: 0.28939,
                  9:-0.90705,  10:-0.25895,  11:-0.27735,  12: 0.83632,  13: 0.39988,  14:-0.01406,  15:-0.59160,  16: 0.36758,
                 17:-0.33200,  18: 0.56397,  19:-0.22017,  20:-0.34154,  21: 0.89483,  22:-0.96814,  23:-0.90880,  24: 0.09132,
                 25:-0.07424,  26: 0.12633,  27:-0.93479,  28:-0.38356,  29: 0.46807,  30: 0.68747,  31:-0.95066,  32:-0.91876,
                 33: 0.76559,  34: 0.95209,  35:-0.10534,  36: 0.94989,  37:-0.54408,  38: 0.47921,  39: 0.83089,  40: 0.24786,
                 41:-0.28282,  42:-0.72152,  43: 0.18150,  44: 0.38726,  45: 0.21614,  46:-0.37053,  47: 0.06031,  48: 0.03590,
                 49:-0.45527,  50:-0.82528,  51:-0.87748,  52:-0.77943,  53:-0.48953,  54: 0.61608,  55:-0.55791,  56: 0.89288,
                 57: 0.84156,  58: 0.62330,  59:-0.87737,  60: 0.88039,  61: 0.37381,  62: 0.16364,  63: 0.31673,  64:-0.19951,
                 65:-0.31840,  66: 0.57385,  67: 0.95969,  68: 0.58687,  69:-0.74547,  70: 0.42161,  71: 0.27715,  72:-0.11477,
                 73: 0.84537,  74:-0.95183,  75:-0.40463,  76: 0.98705,  77:-0.55762,  78: 0.05919,  79:-0.71050,  80:-0.88514,
                 81:-0.34825,  82: 0.75548,  83:-0.99548,  84:-0.16536,  85:-0.90430,  86: 0.29375,  87:-0.73956,  88: 0.89028,
                 89:-0.99686,  90: 0.37078,  91:-0.07478,  92: 0.72789,  93:-0.46319,  94: 0.46938,  95: 0.05318,  96:-0.04280,
                 97: 0.88994,  98: 0.63467,  99: 0.52294, 100:-0.30758, 101: 0.90474, 102:-0.28575, 103: 0.57810, 104:-0.50988,
                105:-0.69804, 106: 0.75154, 107: 0.61702, 108: 0.97992, 109:-0.26366, 110:-0.57021, 111: 0.76871, 112:-0.55887,
                113: 0.25748, 114: 0.19388, 115:-0.66579, 116: 0.85011, 117: 0.59230, 118:-0.09763, 119:-0.99752, 120: 0.29897,
                121: 0.48736, 122:-0.03621, 123:-0.16665, 124: 0.31233, 125:-0.54833, 126:-0.82287, 127:-0.16415, 128: 0.26868,
                129:-0.80011, 130:-0.38142, 131:-0.91285, 132: 0.82468, 133: 0.26846, 134:-0.50379, 135: 0.79650, 136:-0.43955,
                137:-0.69656, 138:-0.06413, 139:-0.38882, 140: 0.78248, 141:-0.18357, 142: 0.07796, 143: 0.41083, 144: 0.96591,
                145:-0.52233, 146:-0.02575, 147:-0.50281, 148:-0.72553, 149:-0.25698, 150: 0.80091, 151: 0.64331, 152:-0.79676,
                153: 0.56001, 154:-0.52090, 155:-0.86309, 156:-0.95605, 157: 0.61071, 158:-0.54397, 159:-0.51568, 160: 0.62770,
                161: 0.85304, 162:-0.91113, 163:-0.38547, 164: 0.86376, 165: 0.62428, 166:-0.35743, 167:-0.45350, 168:-0.16842,
                169:-0.84045, 170:-0.38429, 171: 0.90022, 172: 0.61788, 173:-0.27548, 174:-0.89232, 175: 0.21520, 176: 0.39825,
                177:-0.38464, 178:-0.19516, 179:-0.30622, 180: 0.27889, 181:-0.22583, 182:-0.63284, 183: 0.14623, 184:-0.37261,
                185: 0.71688, 186:-0.57915, 187:-0.95294, 188: 0.67948, 189:-0.33095, 190: 0.79395, 191:-0.28461, 192:-0.58616,
                193: 0.32815, 194:-0.73546, 195: 0.73530, 196:-0.50210, 197: 0.37748, 198:-0.97660, 199:-0.60348, 200:-0.35965,
                201: 0.90421, 202:-0.20733, 203: 0.75198
   224 |      |   1: 0.58006,   2:-0.17086,   3:-0.11673,   4:-0.32761,   5: 0.12912,   6: 0.04628,   7: 0.64299,   8: 0.56226,
                  9: 0.90809,  10: 0.47508,  11: 0.45418,  12:-0.40569,  13: 0.69791,  14:-0.93022,  15:-0.34898,  16:-0.68520,
                 17: 0.51039,  18:-0.70050,  19: 0.11451,  20:-0.03723,  21:-0.82230,  22:-0.83931,  23: 0.33348,  24: 0.97495,
                 25:-0.75229,  26:-0.40609,  27: 0.13009,  28: 0.34205,  29:-0.75023,  30:-0.33731,  31:-0.26170,  32: 0.46952,
                 33: 0.27978,  34:-0.49097,  35: 0.09096,  36: 0.25923,  37: 0.56745,  38:-0.72358,  39: 0.41801,  40: 0.11245,
                 41:-0.73030,  42: 0.13532,  43: 0.13587,  44:-0.21350,  45:-0.37462,  46: 0.53720,  47:-0.77331,  48: 0.62322,
                 49:-0.84279,  50:-0.32823,  51:-0.77010,  52: 0.99690,  53:-0.42648,  54:-0.34996,  55:-0.88000,  56:-0.92810,
                 57:-0.93321,  58: 0.55629,  59: 0.90034,  60: 0.56732,  61: 0.89625,  62:-0.39107,  63:-0.96201,  64:-0.57048,
                 65: 0.45320,  66:-0.82051,  67:-0.11145,  68:-0.37190,  69:-0.17980,  70: 0.30746,  71:-0.84023,  72:-0.99005,
                 73: 0.43712,  74: 0.11393,  75:-0.95906,  76:-0.15220,  77:-0.42986,  78:-0.31131,  79:-0.15985,  80:-0.24046,
                 81:-0.55469,  82: 0.66424,  83:-0.56015,  84: 0.69256,  85:-0.83917,  86: 0.88743,  87: 0.37292,  88:-0.91707,
                 89:-0.25548,  90: 0.97870,  91: 0.26534,  92:-0.18677,  93:-0.70654,  94:-0.21600,  95: 0.37128,  96: 0.68849,
                 97:-0.75455,  98:-0.03875,  99: 0.18163, 100: 0.58966, 101:-0.88132, 102:-0.58139, 103: 0.01552, 104:-0.20566,
                105:-0.94741, 106:-0.21678, 107:-0.84273, 108: 0.00017, 109:-0.86586, 110: 0.30670, 111:-0.31102, 112: 0.95576,
                113:-0.35201, 114:-0.08270, 115: 0.55566, 116: 0.18542, 117: 0.30279, 118: 0.85033, 119: 0.60783, 120: 0.75708,
                121:-0.67841, 122:-0.69836, 123: 0.07298, 124: 0.33948, 125:-0.39103, 126:-0.24295, 127:-0.05372, 128:-0.34360,
                129:-0.50224, 130: 0.49009, 131: 0.65321, 132:-0.11274, 133:-0.28713, 134: 0.65754, 135: 0.66798, 136:-0.62150,
                137: 0.95740, 138: 0.45522, 139: 0.87508, 140:-0.70408, 141:-0.88048, 142:-0.04550, 143:-0.20403, 144: 0.42165,
                145: 0.61708, 146:-0.91628, 147: 0.48376, 148:-0.68083, 149:-0.65278, 150: 0.34009, 151:-0.81276, 152: 0.47598,
                153: 0.50128, 154: 0.33918, 155: 0.73012, 156: 0.98711, 157: 0.96068, 158: 0.38563, 159: 0.02473, 160: 0.84650,
                161: 0.83073, 162: 0.56578, 163: 0.98318, 164:-0.76985, 165:-0.97203, 166:-0.86319, 167: 0.19844, 168: 0.33084,
                169:-0.25015, 170:-0.53376, 171: 0.69667, 172: 0.66466, 173: 0.56595, 174:-0.26061, 175: 0.51871, 176: 0.42196,
                177:-0.87198, 178:-0.08879, 179:-0.76174, 180: 0.76873, 181:-0.14265, 182:-0.22546, 183:-0.71091, 184: 0.18845,
                185:-0.90589, 186: 0.92216, 187:-0.66968, 188:-0.55967, 189: 0.15340, 190: 0.20004, 191:-0.83792, 192:-0.27009,
                193:-0.49892, 194:-0.08169, 195: 0.90384, 196: 0.75644, 197: 0.21943, 198:-0.42745, 199:-0.58923, 200:-0.28769,
                201: 0.36661, 202:-0.37144, 203:-0.96781
   225 |      |   1:-0.77862,   2: 0.85425,   3: 0.54394,   4: 0.51938,   5:-0.65178,   6:-0.05914,   7: 0.70885,   8:-0.93680,
                  9: 0.41765,  10:-0.63307,  11: 0.10438,  12: 0.23901,  13: 0.27992,  14: 0.13731,  15: 0.82250,  16: 0.62907,
                 17: 0.85958,  18: 0.96950,  19:-0.50102,  20:-0.98875,  21:-0.90607,  22: 0.26570,  23: 0.07862,  24: 0.15443,
                 25:-0.75363,  26: 0.94167,  27: 0.36769,  28: 0.06886,  29: 0.11751,  30:-0.98528,  31:-0.23616,  32: 0.47644,
                 33: 0.17824,  34:-0.88097,  35: 0.08590,  36:-0.64571,  37:-0.54172,  38:-0.54149,  39: 0.18290,  40: 0.43628,
                 41: 0.79344,  42: 0.71040,  43: 0.46398,  44: 0.75597,  45: 0.95138,  46:-0.70299,  47:-0.57683,  48: 0.31184,
                 49: 0.43546,  50:-0.35565,  51:-0.81952,  52:-0.73159,  53:-0.84231,  54:-0.40182,  55:-0.15128,  56:-0.28092,
                 57: 0.45393,  58:-0.72118,  59:-0.22795,  60: 0.77634,  61:-0.60222,  62:-0.80831,  63: 0.25555,  64: 0.88043,
                 65: 0.39619,  66: 0.39147,  67:-0.01382,  68:-0.11186,  69: 0.49226,  70: 0.60314,  71: 0.88332,  72: 0.29018,
                 73: 0.56406,  74: 0.26519,  75: 0.34708,  76: 0.28080,  77:-0.87304,  78:-0.02860,  79: 0.80526,  80:-0.75048,
                 81:-0.81093,  82:-0.60814,  83: 0.89296,  84:-0.63190,  85:-0.42802,  86:-0.24385,  87: 0.60631,  88: 0.50028,
                 89:-0.67851,  90:-0.16067,  91: 0.21260,  92: 0.76615,  93: 0.85687,  94:-0.77892,  95:-0.28897,  96: 0.25442,
                 97:-0.06725,  98:-0.34000,  99:-0.85830, 100: 0.00457, 101:-0.56068, 102:-0.33204, 103:-0.76377, 104: 0.29735,
                105:-0.30238, 106: 0.86660, 107:-0.22571, 108:-0.78071, 109: 0.90343, 110:-0.80022, 111:-0.18040, 112:-0.46351,
                113: 0.45181, 114: 0.45904, 115: 0.80194, 116:-0.83804, 117:-0.71654, 118:-0.59364, 119:-0.48575, 120: 0.37230,
                121: 0.41236, 122: 0.75820, 123: 0.61358, 124:-0.22653, 125:-0.76739, 126:-0.20645, 127:-0.45973, 128: 0.58741,
                129: 0.90283, 130: 0.88622, 131: 0.07080, 132:-0.20644, 133: 0.44155, 134:-0.98280, 135:-0.55209, 136: 0.08035,
                137: 0.54149, 138:-0.37050, 139:-0.58111, 140:-0.58437, 141:-0.54037, 142:-0.96375, 143: 0.07350, 144:-0.28632,
                145:-0.36925, 146:-0.87053, 147: 0.40090, 148:-0.15465, 149:-0.61777, 150:-0.83606, 151: 0.55760, 152: 0.80226,
                153: 0.82711, 154: 0.86787, 155:-0.68785, 156:-0.21597, 157: 0.74067, 158:-0.32551, 159: 0.64609, 160: 0.33560,
                161: 0.07590, 162: 0.24693, 163:-0.53497, 164:-0.66792, 165:-0.63319, 166:-0.88773, 167:-0.49123, 168: 0.90943,
                169: 0.26134, 170:-0.28827, 171: 0.32860, 172: 0.59507, 173:-0.99770, 174:-0.24639, 175:-0.61405, 176:-0.46551,
                177:-0.94798, 178: 0.82077, 179:-0.53454, 180:-0.62532, 181:-0.01671, 182:-0.21352, 183: 0.51243, 184:-0.00308,
                185: 0.01370, 186: 0.94213, 187: 0.30755, 188:-0.26148, 189: 0.45401, 190: 0.70097, 191: 0.96920, 192:-0.73746,
                193: 0.21549, 194: 0.33704, 195:-0.20433, 196: 0.98802, 197:-0.75127, 198: 0.12388, 199:-0.62296, 200:-0.45147,
                201: 0.27237, 202: 0.28863, 203: 0.95198
   226 |      |   1: 0.90437,   2: 0.75726,   3:-0.33496,   4:-0.71139,   5: 0.14767,   6:-0.90764,   7:-0.89939,   8:-0.49910,
                  9:-0.82465,  10:-0.38033,  11:-0.14953,  12: 0.35816,  13: 0.66318,  14:-0.90533,  15: 0.82934,  16: 0.26200,
                 17:-0.36924,  18: 0.07334,  19:-0.22898,  20: 0.78680,  21:-0.75916,  22:-0.09049,  23: 0.58381,  24: 0.53867,
                 25:-0.53255,  26:-0.87791,  27: 0.92682,  28: 0.49145,  29: 0.61057,  30:-0.06455,  31:-0.55188,  32: 0.66182,
                 33: 0.53564,  34: 0.54587,  35: 0.64151,  36: 0.25251,  37: 0.89749,  38: 0.97489,  39:-0.03138,  40: 0.59636,
                 41:-0.41390,  42: 0.37469,  43:-0.73463,  44:-0.03617,  45:-0.52280,  46: 0.27088,  47:-0.08321,  48: 0.67845,
                 49:-0.78846,  50: 0.66664,  51: 0.66127,  52: 0.16982,  53: 0.24767,  54:-0.83059,  55:-0.10129,  56:-0.72926,
                 57:-0.42705,  58:-0.39635,  59: 0.15732,  60:-0.05212,  61: 0.11446,  62: 0.98265,  63: 0.95910,  64: 0.99445,
                 65: 0.61681,  66:-0.44249,  67: 0.15605,  68:-0.71384,  69:-0.74259,  70:-0.95174,  71:-0.76041,  72:-0.17993,
                 73:-0.08340,  74:-0.52041,  75: 0.90807,  76:-0.23913,  77:-0.66903,  78: 0.46230,  79:-0.02413,  80:-0.51600,
                 81: 0.51266,  82:-0.26835,  83: 0.58941,  84:-0.46582,  85: 0.14682,  86:-0.49159,  87: 0.65519,  88:-0.55347,
                 89: 0.17683,  90: 0.30109,  91: 0.76467,  92:-0.52689,  93: 0.59644,  94:-0.58699,  95:-0.99450,  96:-0.08285,
                 97: 0.39373,  98:-0.76733,  99: 0.57431, 100: 0.53158, 101:-0.40733, 102:-0.27344, 103:-0.35047, 104: 0.34609,
                105: 0.02820, 106:-0.93991, 107:-0.44739, 108: 0.44192, 109:-0.35656, 110:-0.63692, 111:-0.26833, 112: 0.21669,
                113:-0.86126, 114:-0.96570, 115: 0.86363, 116: 0.22933, 117:-0.68282, 118: 0.12515, 119: 0.61275, 120: 0.97116,
                121: 0.69939, 122: 0.02163, 123:-0.06394, 124: 0.09157, 125:-0.68145, 126: 0.39906, 127:-0.17264, 128:-0.53712,
                129: 0.10780, 130:-0.91642, 131:-0.01645, 132:-0.22154, 133: 0.16443, 134:-0.37546, 135: 0.91041, 136: 0.45134,
                137: 0.28509, 138:-0.04887, 139:-0.28453, 140: 0.75956, 141:-0.46561, 142:-0.87370, 143: 0.42432, 144: 0.34154,
                145:-0.08703, 146:-0.12972, 147:-0.32598, 148: 0.18579, 149: 0.26595, 150:-0.06109, 151:-0.44471, 152: 0.61754,
                153:-0.09313, 154: 0.62161, 155: 0.07686, 156:-0.07060, 157:-0.32574, 158:-0.63527, 159:-0.00318, 160:-0.76946,
                161: 0.58854, 162:-0.09473, 163: 0.80029, 164:-0.17101, 165:-0.60278, 166:-0.82617, 167: 0.50049, 168:-0.42520,
                169:-0.80043, 170: 0.73406, 171:-0.79341, 172: 0.67040, 173: 0.30081, 174:-0.41232, 175:-0.55098, 176:-0.37971,
                177: 0.38769, 178: 0.99095, 179:-0.10050, 180:-0.59894, 181:-0.87357, 182: 0.48327, 183: 0.09324, 184: 0.26915,
                185:-0.90016, 186: 0.88347, 187: 0.18586, 188: 0.60463, 189: 0.52032, 190: 0.61149, 191: 0.69482, 192: 0.06328,
                193:-0.06792, 194: 0.66619, 195: 0.02656, 196: 0.35485, 197:-0.14276, 198:-0.95611, 199:-0.27190, 200: 0.99378,
                201:-0.58665, 202: 0.70350, 203:-0.42107
   227 |      |   1: 0.64228,   2:-0.81694,   3: 0.18689,   4:-0.55158,   5: 0.15175,   6:-0.28651,   7:-0.96049,   8:-0.35395,
