SNNS network definition file V1.4-3D
generated at Fri Apr 22 21:15:55 1994

network name : patmat
source files :
no. of units : 80
no. of connections : 700
no. of unit types : 0
no. of site types : 0


learning function : BackpropMomentum
update function   : Topological_Order


unit default section :

act      | bias     | st | subnet | layer | act func     | out func
---------|----------|----|--------|-------|--------------|-------------
 0.00000 |  0.00000 | h  |      0 |     1 | Act_Logistic | Out_Identity 
---------|----------|----|--------|-------|--------------|-------------


unit definition section :

no. | typeName | unitName | act      | bias     | st | position | act func | out func | sites
----|----------|----------|----------|----------|----|----------|----------|----------|-------
  1 |          |          |  0.00000 |  0.98514 | i  |  2, 3, 0 |||
  2 |          |          |  1.00000 | -0.03320 | i  |  3, 3, 0 |||
  3 |          |          |  1.00000 |  0.45446 | i  |  4, 3, 0 |||
  4 |          |          |  1.00000 |  0.95140 | i  |  5, 3, 0 |||
  5 |          |          |  0.00000 | -0.18391 | i  |  6, 3, 0 |||
  6 |          |          |  1.00000 |  0.59007 | i  |  2, 4, 0 |||
  7 |          |          |  0.00000 | -0.75539 | i  |  3, 4, 0 |||
  8 |          |          |  0.00000 |  0.88126 | i  |  4, 4, 0 |||
  9 |          |          |  0.00000 |  0.47831 | i  |  5, 4, 0 |||
 10 |          |          |  1.00000 |  0.39434 | i  |  6, 4, 0 |||
 11 |          |          |  1.00000 | -0.78299 | i  |  2, 5, 0 |||
 12 |          |          |  0.00000 |  0.00360 | i  |  3, 5, 0 |||
 13 |          |          |  0.00000 | -0.42005 | i  |  4, 5, 0 |||
 14 |          |          |  0.00000 |  0.42717 | i  |  5, 5, 0 |||
 15 |          |          |  1.00000 | -0.72985 | i  |  6, 5, 0 |||
 16 |          |          |  1.00000 | -0.35108 | i  |  2, 6, 0 |||
 17 |          |          |  1.00000 |  0.08302 | i  |  3, 6, 0 |||
 18 |          |          |  1.00000 | -0.91927 | i  |  4, 6, 0 |||
 19 |          |          |  1.00000 | -0.54935 | i  |  5, 6, 0 |||
 20 |          |          |  1.00000 |  0.24690 | i  |  6, 6, 0 |||
 21 |          |          |  1.00000 |  0.54272 | i  |  2, 7, 0 |||
 22 |          |          |  0.00000 |  0.29093 | i  |  3, 7, 0 |||
 23 |          |          |  0.00000 |  0.39936 | i  |  4, 7, 0 |||
 24 |          |          |  0.00000 | -0.33953 | i  |  5, 7, 0 |||
 25 |          |          |  1.00000 | -0.43793 | i  |  6, 7, 0 |||
 26 |          |          |  1.00000 | -0.13191 | i  |  2, 8, 0 |||
 27 |          |          |  0.00000 | -0.64893 | i  |  3, 8, 0 |||
 28 |          |          |  0.00000 |  0.21878 | i  |  4, 8, 0 |||
 29 |          |          |  0.00000 | -0.63753 | i  |  5, 8, 0 |||
 30 |          |          |  1.00000 | -0.68802 | i  |  6, 8, 0 |||
 31 |          |          |  1.00000 |  0.63906 | i  |  2, 9, 0 |||
 32 |          |          |  0.00000 | -0.88679 | i  |  3, 9, 0 |||
 33 |          |          |  0.00000 |  0.15023 | i  |  4, 9, 0 |||
 34 |          |          |  0.00000 | -0.04133 | i  |  5, 9, 0 |||
 35 |          |          |  1.00000 |  0.86871 | i  |  6, 9, 0 |||
 36 |          |          |  0.00508 | -1.21785 | h  |  9, 2, 0 |||
 37 |          |          |  0.01650 |  0.33859 | h  |  9, 3, 0 |||
 38 |          |          |  0.97320 | -0.02450 | h  |  9, 4, 0 |||
 39 |          |          |  0.00272 |  0.52842 | h  |  9, 5, 0 |||
 40 |          |          |  0.01845 |  0.31459 | h  |  9, 6, 0 |||
 41 |          |          |  0.07328 |  0.93058 | h  |  9, 7, 0 |||
 42 |          |          |  0.99920 |  0.34417 | h  |  9, 8, 0 |||
 43 |          |          |  0.05993 |  1.02170 | h  |  9, 9, 0 |||
 44 |          |          |  0.00683 | -0.21901 | h  |  9,10, 0 |||
 45 |          |          |  0.99016 | -0.36302 | h  |  9,11, 0 |||
 46 |          |          |  0.05881 | -0.61751 | o  | 12, 3, 0 |||
 47 |          |          |  0.99407 | -0.41046 | o  | 13, 3, 0 |||
 48 |          |          |  0.99412 | -0.29567 | o  | 14, 3, 0 |||
 49 |          |          |  0.99108 | -0.32308 | o  | 15, 3, 0 |||
 50 |          |          |  0.03517 |  0.09048 | o  | 16, 3, 0 |||
 51 |          |          |  0.99025 |  1.13921 | o  | 12, 4, 0 |||
 52 |          |          |  0.01848 | -1.06568 | o  | 13, 4, 0 |||
 53 |          |          |  0.01150 | -1.58453 | o  | 14, 4, 0 |||
 54 |          |          |  0.01207 | -0.77450 | o  | 15, 4, 0 |||
 55 |          |          |  0.99962 |  2.05591 | o  | 16, 4, 0 |||
 56 |          |          |  0.96745 | -0.24426 | o  | 12, 5, 0 |||
 57 |          |          |  0.03645 | -0.04326 | o  | 13, 5, 0 |||
 58 |          |          |  0.02046 | -1.93931 | o  | 14, 5, 0 |||
 59 |          |          |  0.03603 | -1.13647 | o  | 15, 5, 0 |||
 60 |          |          |  0.97798 | -1.12955 | o  | 16, 5, 0 |||
 61 |          |          |  0.97068 |  0.90937 | o  | 12, 6, 0 |||
 62 |          |          |  0.97696 | -0.71250 | o  | 13, 6, 0 |||
 63 |          |          |  0.99513 | -0.32895 | o  | 14, 6, 0 |||
 64 |          |          |  0.98375 | -0.78039 | o  | 15, 6, 0 |||
 65 |          |          |  0.93559 |  0.20487 | o  | 16, 6, 0 |||
 66 |          |          |  0.96519 |  0.63447 | o  | 12, 7, 0 |||
 67 |          |          |  0.03535 |  0.10345 | o  | 13, 7, 0 |||
 68 |          |          |  0.00763 | -1.28847 | o  | 14, 7, 0 |||
 69 |          |          |  0.03554 | -0.27404 | o  | 15, 7, 0 |||
 70 |          |          |  0.97031 | -1.14568 | o  | 16, 7, 0 |||
 71 |          |          |  0.99509 |  1.60126 | o  | 12, 8, 0 |||
 72 |          |          |  0.01015 | -1.75445 | o  | 13, 8, 0 |||
 73 |          |          |  0.01164 | -0.88963 | o  | 14, 8, 0 |||
 74 |          |          |  0.00870 | -1.01641 | o  | 15, 8, 0 |||
 75 |          |          |  0.99181 |  1.20743 | o  | 16, 8, 0 |||
 76 |          |          |  0.97427 |  1.01991 | o  | 12, 9, 0 |||
 77 |          |          |  0.04457 | -0.38190 | o  | 13, 9, 0 |||
 78 |          |          |  0.03695 | -1.08261 | o  | 14, 9, 0 |||
 79 |          |          |  0.03759 | -1.54414 | o  | 15, 9, 0 |||
 80 |          |          |  0.92144 |  1.54549 | o  | 16, 9, 0 |||
----|----------|----------|----------|----------|----|----------|----------|----------|-------


connection definition section :

target | site | source:weight
-------|------|---------------------------------------------------------------------------------------------------------------------
    36 |      | 35:-1.11388, 34:-0.61934, 33: 0.10554, 32:-0.47313, 31:-0.75268, 30:-0.17876, 29: 0.74950, 28: 0.03073, 27: 0.55507,
                26:-1.13708, 25: 0.10668, 24: 0.62536, 23:-0.72103, 22: 0.59080, 21:-0.64881, 20: 0.57562, 19: 0.55138, 18:-1.12275,
                17:-0.69060, 16:-0.63789, 15: 0.19630, 14: 0.18792, 13:-0.15271, 12: 0.05013, 11: 0.33884, 10: 0.12481,  9: 0.65202,
                 8: 0.99637,  7: 0.91043,  6: 0.12682,  5:-0.20271,  4:-0.38398,  3: 0.57557,  2: 0.01144,  1: 0.57497
    37 |      | 35:-0.25073, 34: 2.51597, 33: 2.51323, 32: 1.11985, 31: 0.06671, 30: 1.02107, 29: 0.57753, 28:-0.26736, 27: 0.89287,
                26:-0.44211, 25: 1.28360, 24:-0.18425, 23: 0.64717, 22:-1.16042, 21:-0.39852, 20:-0.56842, 19:-1.30719, 18:-1.25099,
                17:-1.42418, 16: 0.51059, 15:-0.36093, 14:-1.08266, 13:-0.38709, 12:-0.97352, 11:-0.05863, 10:-0.80483,  9:-0.35631,
                 8:-0.15442,  7: 0.45376,  6:-0.74606,  5:-0.61993,  4: 0.69894,  3: 0.04768,  2:-0.44263,  1: 1.09263
    38 |      | 35:-0.68010, 34: 1.40317, 33:-0.22821, 32: 1.30051, 31:-1.29349, 30: 1.85981, 29:-0.80369, 28: 0.24470, 27: 0.36094,
                26: 0.30725, 25: 0.73265, 24: 0.30111, 23: 0.54271, 22: 0.30189, 21:-0.96006, 20: 1.18599, 19: 0.50200, 18:-0.25156,
                17: 0.39408, 16:-0.80378, 15: 0.44871, 14:-0.55638, 13:-0.66629, 12:-0.94888, 11:-0.37295, 10: 1.23796,  9:-0.79709,
                 8: 0.49284,  7:-0.22264,  6:-0.95366,  5:-0.86030,  4: 0.83528,  3: 0.06636,  2: 1.36203,  1:-1.96927
    39 |      | 35: 0.45167, 34: 0.83303, 33: 0.13569, 32: 0.82883, 31:-0.60324, 30:-0.56465, 29: 0.75653, 28:-0.96309, 27: 0.88995,
                26: 0.41753, 25: 0.21606, 24: 0.84436, 23:-0.05121, 22: 1.03346, 21:-0.07131, 20:-0.31161, 19:-1.71290, 18:-0.37578,
                17:-0.13424, 16: 0.10606, 15:-0.64982, 14: 1.01186, 13: 0.60864, 12: 1.56215, 11:-0.60943, 10:-0.16590,  9: 0.79044,
                 8:-0.46595,  7: 0.76180,  6: 1.19930,  5:-0.29720,  4:-1.09498,  3:-1.25959,  2:-1.26914,  1: 0.77910
    40 |      | 35:-1.52406, 34: 1.21673, 33: 0.93854, 32: 1.46036, 31: 0.02578, 30:-2.05682, 29: 0.90822, 28: 0.41085, 27: 0.21151,
                26:-0.29242, 25:-0.43590, 24:-1.14530, 23: 0.04904, 22: 0.31757, 21: 0.80293, 20:-2.41188, 19:-0.85877, 18:-0.06623,
                17:-0.70605, 16: 0.84646, 15: 0.35177, 14:-1.00472, 13: 0.08435, 12:-1.30140, 11: 0.48194, 10:-0.53453,  9:-0.94092,
                 8: 0.29226,  7: 0.13699,  6: 0.46940,  5: 0.06921,  4: 0.42311,  3: 0.18873,  2: 1.00802,  1: 1.03825
    41 |      | 35:-0.80472, 34: 0.39591, 33: 0.49181, 32: 0.02672, 31: 1.26313, 30:-2.03135, 29:-0.45915, 28:-0.61263, 27: 0.69605,
                26:-0.35516, 25:-1.04950, 24:-0.86391, 23:-0.23586, 22:-1.08968, 21: 0.27488, 20:-0.79135, 19: 1.29423, 18:-0.04100,
                17: 1.25786, 16: 0.04811, 15: 0.54771, 14:-0.98757, 13: 0.33974, 12: 0.19955, 11:-0.47623, 10:-0.62741,  9: 0.80275,
                 8: 0.31908,  7: 0.19652,  6:-0.91546,  5:-0.43797,  4:-0.64426,  3: 0.14543,  2:-0.56279,  1: 2.00646
    42 |      | 35:-0.98664, 34:-1.00142, 33:-0.91031, 32: 0.07970, 31:-0.03515, 30:-0.56657, 29: 0.42648, 28: 0.78449, 27:-0.15335,
                26:-0.94077, 25: 1.44876, 24:-1.02394, 23:-0.49619, 22:-0.22663, 21: 0.07079, 20: 0.41200, 19: 0.96028, 18: 1.34000,
                17: 0.74225, 16:-0.41477, 15: 1.32183, 14:-0.79631, 13:-0.55990, 12:-0.93208, 11: 0.77789, 10: 0.46673,  9:-0.85650,
                 8:-0.53201,  7: 0.42084,  6:-1.35288,  5:-0.26279,  4: 1.53872,  3: 0.41770,  2: 1.58316,  1:-0.82041
    43 |      | 35:-0.03704, 34: 0.09477, 33:-0.62583, 32: 0.11843, 31:-1.27269, 30:-1.69809, 29: 0.08933, 28: 0.42946, 27:-0.70044,
                26: 0.38304, 25:-2.53779, 24:-0.17579, 23: 0.33801, 22:-1.21704, 21: 1.10060, 20: 0.09220, 19:-0.44070, 18:-0.91436,
                17:-1.37555, 16: 0.47202, 15:-0.97596, 14:-1.25081, 13: 0.63526, 12:-0.45090, 11: 1.53902, 10: 0.65352,  9: 0.68447,
                 8:-0.09519,  7: 0.59202,  6: 0.86048,  5: 0.55012,  4: 0.99055,  3:-0.42630,  2:-0.18736,  1:-0.10961
    44 |      | 35:-0.99532, 34:-1.40767, 33:-0.58838, 32:-0.17731, 31: 0.60724, 30:-0.80559, 29:-0.06701, 28:-0.32947, 27: 0.59634,
                26:-0.31264, 25:-0.52371, 24: 1.29665, 23: 0.44595, 22: 1.45696, 21:-0.99434, 20:-1.03229, 19: 0.67418, 18: 1.18210,
                17: 0.30794, 16:-0.48071, 15:-0.97872, 14: 1.22343, 13:-0.89542, 12: 0.63267, 11:-0.02283, 10:-0.69289,  9: 0.11266,
                 8: 0.15764,  7:-0.40377,  6: 0.24536,  5: 1.23914,  4:-0.11325,  3:-0.93299,  2: 0.10785,  1: 0.66956
    45 |      | 35: 1.84308, 34:-1.39978, 33:-0.30507, 32:-0.71650, 31: 1.67804, 30:-0.73303, 29:-0.37539, 28:-0.50744, 27: 0.65734,
                26: 1.02360, 25: 0.70539, 24: 0.40428, 23:-0.71519, 22: 0.43204, 21:-0.08464, 20:-0.40882, 19:-0.03097, 18: 1.49155,
                17: 1.45310, 16: 0.43025, 15: 0.09934, 14: 0.68589, 13: 0.17547, 12: 0.78476, 11:-0.23003, 10:-0.61357,  9:-0.46982,
                 8:-0.09483,  7: 0.80024,  6:-0.18264,  5:-0.06786,  4:-0.35875,  3: 0.10720,  2:-1.21444,  1: 1.07955
    46 |      | 45: 1.57289, 44: 1.60723, 43:-2.41109, 42:-0.87969, 41: 3.12924, 40: 2.49236, 39: 0.99731, 38:-3.07069, 37: 0.73670,
                36:-0.40456
    47 |      | 45:-0.26657, 44:-1.44972, 43: 0.81451, 42: 3.94395, 41:-1.10414, 40: 0.54586, 39:-1.69024, 38: 1.96422, 37:-1.01523,
                36:-0.49304
    48 |      | 45:-0.44928, 44:-1.29279, 43: 0.33041, 42: 4.05977, 41:-0.54660, 40: 0.12075, 39:-1.88779, 38: 1.90751, 37:-0.32945,
                36:-0.86968
    49 |      | 45:-0.59688, 44:-0.73679, 43: 0.65662, 42: 3.50069, 41:-0.17588, 40: 0.19092, 39:-2.28857, 38: 2.17504, 37:-0.59780,
                36: 0.25633
    50 |      | 45: 0.40892, 44: 1.45858, 43:-2.10694, 42:-1.99614, 41:-1.51347, 40:-1.28018, 39: 1.31973, 38:-1.59519, 37:-0.56071,
                36:-0.74688
    51 |      | 45: 1.58514, 44: 0.57866, 43: 1.04644, 42: 0.85736, 41: 0.44052, 40: 1.15694, 39: 0.35928, 38: 0.96985, 37:-0.52450,
                36:-0.14494
    52 |      | 45:-1.18972, 44:-1.67188, 43:-0.58776, 42:-0.27861, 41:-1.01161, 40:-1.09632, 39: 0.20481, 38:-1.33594, 37:-0.70897,
                36: 0.38272
    53 |      | 45:-0.40602, 44:-0.29289, 43:-0.52302, 42:-1.14258, 41:-0.93754, 40:-0.78648, 39:-1.26811, 38:-1.22777, 37:-0.50524,
                36:-0.44058
    54 |      | 45:-1.38746, 44:-0.39020, 43:-0.47681, 42:-0.84608, 41:-0.08991, 40:-0.91471, 39:-1.14502, 38:-1.37946, 37:-0.47251,
                36:-0.54294
    55 |      | 45:-0.16501, 44: 1.41190, 43:-0.49195, 42: 3.35959, 41:-1.14737, 40:-1.38343, 39:-0.28900, 38: 2.85529, 37:-1.55173,
                36: 1.07134
    56 |      | 45: 0.25561, 44:-2.36706, 43: 1.17005, 42: 1.65981, 41: 0.25160, 40: 2.09823, 39:-0.83850, 38: 1.64558, 37: 0.90316,
                36:-0.11894
    57 |      | 45: 0.11355, 44: 1.42466, 43:-0.74336, 42:-2.79455, 41: 0.01385, 40:-2.16936, 39: 1.57566, 38:-0.46101, 37:-2.19115,
                36: 0.55553
    58 |      | 45:-1.21201, 44: 0.22839, 43:-1.13822, 42:-0.85062, 41: 0.34658, 40:-0.87052, 39:-0.96768, 38: 0.19952, 37:-0.71692,
                36:-0.30977
    59 |      | 45: 0.33305, 44: 2.00034, 43:-0.35180, 42:-1.58417, 41:-1.22688, 40:-1.93848, 39: 1.96899, 38:-0.76938, 37:-1.22840,
                36:-0.05234
    60 |      | 45: 1.58068, 44:-1.31529, 43:-2.15106, 42: 2.96887, 41: 1.23140, 40: 0.61043, 39:-2.35389, 38: 0.47398, 37:-1.85000,
                36: 0.65603
    61 |      | 45:-0.39710, 44:-2.31236, 43: 0.47288, 42: 1.61103, 41: 0.27462, 40: 2.04497, 39:-1.39221, 38: 1.31466, 37: 1.56765,
                36: 0.40679
    62 |      | 45: 1.65954, 44:-1.41983, 43:-1.84986, 42: 2.73950, 41: 1.55212, 40:-0.01604, 39:-2.84141, 38: 0.11838, 37:-1.44138,
                36: 0.52547
    63 |      | 45: 2.44248, 44: 1.85696, 43:-2.80918, 42: 2.01933, 41: 0.85171, 40:-0.21838, 39:-0.61868, 38: 1.38422, 37:-2.34948,
                36: 0.74673
    64 |      | 45: 2.07771, 44:-1.87613, 43:-1.95033, 42: 2.96324, 41: 1.01262, 40:-0.04538, 39:-2.66623, 38:-0.05494, 37:-1.19313,
                36: 0.45517
    65 |      | 45: 0.02912, 44:-1.92727, 43:-1.75678, 42: 1.28419, 41:-0.94882, 40:-2.73858, 39:-1.50736, 38: 1.47907, 37:-2.39099,
                36: 0.31793
    66 |      | 45:-0.30826, 44:-1.48118, 43: 0.68607, 42: 1.61397, 41: 1.41109, 40: 1.73101, 39:-2.03621, 38: 1.22760, 37: 1.40827,
                36: 0.32695
    67 |      | 45:-0.05137, 44: 1.92240, 43:-1.78592, 42:-2.39825, 41:-0.38744, 40:-1.41404, 39: 1.20266, 38:-0.81790, 37:-1.25244,
                36:-0.20127
    68 |      | 45:-1.92993, 44:-0.76703, 43:-0.70197, 42:-1.03342, 41: 0.27112, 40:-0.57718, 39: 0.27780, 38:-0.60010, 37:-0.74251,
                36:-0.48238
    69 |      | 45: 0.00193, 44: 2.41410, 43:-0.59565, 42:-1.97823, 41:-0.14919, 40:-2.31933, 39: 0.99923, 38:-0.98815, 37:-1.24944,
                36: 0.08278
    70 |      | 45: 1.11753, 44:-1.58441, 43:-3.94705, 42: 2.50549, 41:-0.66596, 40:-1.65262, 39:-1.77467, 38: 1.36369, 37: 1.56411,
                36: 0.19230
    71 |      | 45: 1.50127, 44: 0.49886, 43: 0.17129, 42: 1.43118, 41: 0.31578, 40: 1.19321, 39: 0.03433, 38: 0.75414, 37: 0.04398,
                36:-0.09773
    72 |      | 45:-1.21178, 44:-0.13529, 43:-0.39789, 42:-1.24316, 41: 0.44567, 40:-0.13817, 39:-0.74150, 38:-0.37515, 37:-1.17089,
                36:-0.43621
    73 |      | 45:-1.56005, 44:-0.41468, 43:-0.62192, 42:-0.94675, 41: 0.65322, 40:-0.78272, 39:-0.89208, 38:-1.05892, 37:-1.05423,
                36:-0.86608
    74 |      | 45:-0.44360, 44:-1.12217, 43:-1.32077, 42:-1.68503, 41:-0.18848, 40:-0.70552, 39:-1.14310, 38:-1.52917, 37: 0.33651,
                36: 0.68440
    75 |      | 45:-0.96542, 44: 1.76900, 43:-2.08841, 42: 1.27958, 41:-2.50161, 40:-1.56657, 39: 1.01096, 38: 3.65917, 37: 1.45234,
                36: 0.68458
    76 |      | 45: 3.39363, 44: 0.79682, 43:-1.16288, 42: 0.99095, 41: 2.02265, 40:-1.11345, 39: 0.12861, 38:-1.83946, 37:-0.50236,
                36:-0.28121
    77 |      | 45:-1.89331, 44:-1.99883, 43:-0.51256, 42:-1.69815, 41:-0.39394, 40: 2.09735, 39: 0.48380, 38: 0.87927, 37: 4.09811,
                36:-0.37047
    78 |      | 45:-1.92712, 44:-1.32167, 43:-0.27948, 42:-1.15015, 41: 0.07068, 40: 1.60336, 39: 0.46308, 38: 0.82098, 37: 4.44698,
                36:-0.60632
    79 |      | 45:-1.63472, 44:-0.85148, 43: 0.09720, 42:-0.83540, 41:-0.98795, 40: 2.16019, 39: 0.35566, 38: 0.72416, 37: 4.72348,
                36: 0.71429
    80 |      | 45: 3.36545, 44:-0.11589, 43:-0.10837, 42:-1.69413, 41:-1.62162, 40:-4.15465, 39: 3.50630, 38:-0.54575, 37: 0.24005,
                36:-0.51863
-------|------|---------------------------------------------------------------------------------------------------------------------
