SNNS network definition file V1.4-3D
generated at Thu Oct 20 09:16:25 1994

network name : patmat_untrained
source files :
no. of units : 80
no. of connections : 700
no. of unit types : 0
no. of site types : 0


learning function : Std_Backpropagation
update function   : Topological_Order


unit default section :

act      | bias     | st | subnet | layer | act func     | out func
---------|----------|----|--------|-------|--------------|-------------
 0.00000 |  0.00000 | h  |      0 |     1 | Act_Logistic | Out_Identity 
---------|----------|----|--------|-------|--------------|-------------


unit definition section :

no. | typeName | unitName | act      | bias     | st | position | act func | out func | sites
----|----------|----------|----------|----------|----|----------|----------|----------|-------
  1 |          |          |  0.00000 |  0.20707 | i  |  2, 3, 0 |||
  2 |          |          |  1.00000 | -0.68097 | i  |  3, 3, 0 |||
  3 |          |          |  1.00000 |  0.29333 | i  |  4, 3, 0 |||
  4 |          |          |  1.00000 |  0.10683 | i  |  5, 3, 0 |||
  5 |          |          |  0.00000 |  0.36261 | i  |  6, 3, 0 |||
  6 |          |          |  1.00000 | -0.77286 | i  |  2, 4, 0 |||
  7 |          |          |  0.00000 |  0.96883 | i  |  3, 4, 0 |||
  8 |          |          |  0.00000 | -0.16818 | i  |  4, 4, 0 |||
  9 |          |          |  0.00000 |  0.68126 | i  |  5, 4, 0 |||
 10 |          |          |  1.00000 |  0.23257 | i  |  6, 4, 0 |||
 11 |          |          |  1.00000 | -0.38201 | i  |  2, 5, 0 |||
 12 |          |          |  0.00000 |  0.88228 | i  |  3, 5, 0 |||
 13 |          |          |  0.00000 | -0.79971 | i  |  4, 5, 0 |||
 14 |          |          |  0.00000 |  0.67291 | i  |  5, 5, 0 |||
 15 |          |          |  1.00000 |  0.68186 | i  |  6, 5, 0 |||
 16 |          |          |  1.00000 | -0.06613 | i  |  2, 6, 0 |||
 17 |          |          |  1.00000 | -0.20829 | i  |  3, 6, 0 |||
 18 |          |          |  1.00000 | -0.16540 | i  |  4, 6, 0 |||
 19 |          |          |  1.00000 |  0.46006 | i  |  5, 6, 0 |||
 20 |          |          |  1.00000 |  0.21904 | i  |  6, 6, 0 |||
 21 |          |          |  1.00000 |  0.41320 | i  |  2, 7, 0 |||
 22 |          |          |  0.00000 | -0.48475 | i  |  3, 7, 0 |||
 23 |          |          |  0.00000 |  0.40295 | i  |  4, 7, 0 |||
 24 |          |          |  0.00000 |  0.84892 | i  |  5, 7, 0 |||
 25 |          |          |  1.00000 |  0.19003 | i  |  6, 7, 0 |||
 26 |          |          |  1.00000 | -0.71476 | i  |  2, 8, 0 |||
 27 |          |          |  0.00000 | -0.88394 | i  |  3, 8, 0 |||
 28 |          |          |  0.00000 | -0.32566 | i  |  4, 8, 0 |||
 29 |          |          |  0.00000 | -0.69295 | i  |  5, 8, 0 |||
 30 |          |          |  1.00000 |  0.99449 | i  |  6, 8, 0 |||
 31 |          |          |  1.00000 |  0.07524 | i  |  2, 9, 0 |||
 32 |          |          |  0.00000 | -0.06519 | i  |  3, 9, 0 |||
 33 |          |          |  0.00000 | -0.57575 | i  |  4, 9, 0 |||
 34 |          |          |  0.00000 |  0.46878 | i  |  5, 9, 0 |||
 35 |          |          |  1.00000 | -0.96550 | i  |  6, 9, 0 |||
 36 |          |          |  0.00508 |  0.38643 | h  |  9, 2, 0 |||
 37 |          |          |  0.01650 | -0.91927 | h  |  9, 3, 0 |||
 38 |          |          |  0.97320 | -0.93147 | h  |  9, 4, 0 |||
 39 |          |          |  0.00272 | -0.39113 | h  |  9, 5, 0 |||
 40 |          |          |  0.01845 | -0.09741 | h  |  9, 6, 0 |||
 41 |          |          |  0.07328 |  0.10693 | h  |  9, 7, 0 |||
 42 |          |          |  0.99920 |  0.33581 | h  |  9, 8, 0 |||
 43 |          |          |  0.05993 | -0.21522 | h  |  9, 9, 0 |||
 44 |          |          |  0.00683 |  0.95270 | h  |  9,10, 0 |||
 45 |          |          |  0.99016 |  0.00589 | h  |  9,11, 0 |||
 46 |          |          |  0.05881 |  0.87596 | o  | 12, 3, 0 |||
 47 |          |          |  0.99407 | -0.40377 | o  | 13, 3, 0 |||
 48 |          |          |  0.99412 | -0.16414 | o  | 14, 3, 0 |||
 49 |          |          |  0.99108 | -0.37685 | o  | 15, 3, 0 |||
 50 |          |          |  0.03517 | -0.28357 | o  | 16, 3, 0 |||
 51 |          |          |  0.99025 | -0.40495 | o  | 12, 4, 0 |||
 52 |          |          |  0.01848 |  0.42117 | o  | 13, 4, 0 |||
 53 |          |          |  0.01150 | -0.07224 | o  | 14, 4, 0 |||
 54 |          |          |  0.01207 |  0.04052 | o  | 15, 4, 0 |||
 55 |          |          |  0.99962 |  0.40253 | o  | 16, 4, 0 |||
 56 |          |          |  0.96745 |  0.67988 | o  | 12, 5, 0 |||
 57 |          |          |  0.03645 |  0.05265 | o  | 13, 5, 0 |||
 58 |          |          |  0.02046 |  0.56962 | o  | 14, 5, 0 |||
 59 |          |          |  0.03603 | -0.37939 | o  | 15, 5, 0 |||
 60 |          |          |  0.97798 | -0.69465 | o  | 16, 5, 0 |||
 61 |          |          |  0.97068 |  0.63711 | o  | 12, 6, 0 |||
 62 |          |          |  0.97696 | -0.23667 | o  | 13, 6, 0 |||
 63 |          |          |  0.99513 | -0.22356 | o  | 14, 6, 0 |||
 64 |          |          |  0.98375 |  0.27645 | o  | 15, 6, 0 |||
 65 |          |          |  0.93559 | -0.58811 | o  | 16, 6, 0 |||
 66 |          |          |  0.96519 | -0.07475 | o  | 12, 7, 0 |||
 67 |          |          |  0.03535 |  0.69423 | o  | 13, 7, 0 |||
 68 |          |          |  0.00763 |  0.20740 | o  | 14, 7, 0 |||
 69 |          |          |  0.03554 |  0.94262 | o  | 15, 7, 0 |||
 70 |          |          |  0.97031 |  0.04557 | o  | 16, 7, 0 |||
 71 |          |          |  0.99509 |  0.06656 | o  | 12, 8, 0 |||
 72 |          |          |  0.01015 | -0.43596 | o  | 13, 8, 0 |||
 73 |          |          |  0.01164 | -0.75376 | o  | 14, 8, 0 |||
 74 |          |          |  0.00870 |  0.04862 | o  | 15, 8, 0 |||
 75 |          |          |  0.99181 | -0.38733 | o  | 16, 8, 0 |||
 76 |          |          |  0.97427 | -0.26292 | o  | 12, 9, 0 |||
 77 |          |          |  0.04457 |  0.13616 | o  | 13, 9, 0 |||
 78 |          |          |  0.03695 | -0.60692 | o  | 14, 9, 0 |||
 79 |          |          |  0.03759 |  0.84997 | o  | 15, 9, 0 |||
 80 |          |          |  0.92144 | -0.99442 | o  | 16, 9, 0 |||
----|----------|----------|----------|----------|----|----------|----------|----------|-------


connection definition section :

target | site | source:weight
-------|------|---------------------------------------------------------------------------------------------------------------------
    36 |      |  1:-0.20171,  2:-0.21743,  3: 0.57512,  4:-0.77179,  5: 0.39069,  6: 0.69628,  7: 0.32468,  8: 0.22505,  9:-0.28722,
                10:-0.50711, 11:-0.20723, 12:-0.06326, 13: 0.08128, 14:-0.30498, 15: 0.34564, 16:-0.89274, 17: 0.26392, 18:-0.88778,
                19: 0.98514, 20:-0.03320, 21: 0.45446, 22: 0.95140, 23:-0.18391, 24: 0.59007, 25:-0.75539, 26: 0.88126, 27: 0.47831,
                28: 0.39434, 29:-0.78299, 30: 0.00360, 31:-0.42005, 32: 0.42717, 33:-0.72985, 34:-0.35108, 35: 0.08302
    37 |      |  1:-0.54935,  2: 0.24690,  3: 0.54272,  4: 0.29093,  5: 0.39936,  6:-0.33953,  7:-0.43793,  8:-0.13191,  9:-0.64893,
                10: 0.21878, 11:-0.63753, 12:-0.68802, 13: 0.63906, 14:-0.88679, 15: 0.15023, 16:-0.04133, 17: 0.86871, 18:-0.82702,
                19:-0.76517, 20:-0.52273, 21: 0.20215, 22:-0.37651, 23:-0.52310, 24: 0.18998, 25: 0.74950, 26: 0.03073, 27: 0.55507,
                28:-0.74624, 29:-0.05764, 30: 0.99717, 31:-0.72103, 32: 0.96261, 33:-0.62978, 34: 0.51423, 35: 0.37086
    38 |      |  1:-0.87112,  2:-0.61886,  3: 0.01578,  4: 0.55973,  5:-0.15271,  6: 0.42194,  7: 0.35787,  8: 0.47735,  9: 0.65202,
                10: 0.99637, 11: 0.91043, 12: 0.51765, 13: 0.16910, 14:-0.40325, 15: 0.55631, 16:-0.00782, 17: 0.86594, 18: 0.21387,
                19: 0.04105, 20: 0.56372, 21: 0.56098, 22:-0.83241, 23: 0.29956, 24: 0.61461, 25: 0.57753, 26:-0.26736, 27: 0.89287,
                28:-0.56682, 29: 0.93865, 30: 0.11181, 31: 0.64717, 32:-0.86436, 33:-0.81930, 34: 0.05431, 35:-0.74339
    39 |      |  1:-0.86038,  2: 0.08982,  3: 0.20287,  4:-0.78661,  5:-0.38709,  6:-0.67747,  7:-0.47940,  8:-0.30254,  9:-0.35631,
                10:-0.15442, 11: 0.45376, 12:-0.87078, 13:-0.32388, 14: 0.90517, 15: 0.25392, 16:-0.23639, 17: 0.70274, 18: 0.24539,
                19:-0.28918, 20: 0.94862, 21:-0.68276, 22: 0.84596, 23:-0.48527, 24: 0.48803, 25:-0.80369, 26: 0.24470, 27: 0.36094,
                28: 0.57713, 29:-0.29707, 30: 0.49737, 31: 0.54271, 32: 0.49816, 33:-0.88644, 34: 0.72657, 35: 0.45988
    40 |      |  1: 0.35196,  2:-0.73016,  3: 0.40659,  4:-0.36012,  5:-0.66629,  6:-0.75261,  7:-0.29933,  8: 0.85377,  9:-0.79709,
                10: 0.49284, 11:-0.22264, 12:-0.68378, 13:-0.66404, 14: 0.25483, 15:-0.51410, 16: 0.78157, 17:-0.70162, 18:-0.11866,
                19:-0.71516, 20: 0.31381, 21:-0.38354, 22: 0.30961, 23:-0.78717, 24:-0.91742, 25: 0.75653, 26:-0.96309, 27: 0.88995,
                28:-0.22955, 29: 0.92375, 30: 0.24705, 31:-0.05121, 32: 0.43615, 33:-0.12108, 34:-0.21449, 35:-0.63288
    41 |      |  1: 0.94578,  2: 0.05629,  3: 0.43020,  4: 0.41455,  5: 0.60864,  6: 0.96484,  7:-0.65920,  8:-0.14633,  9: 0.79044,
                10:-0.46595, 11: 0.76180, 12: 0.55222, 13:-0.89451, 14:-0.47810, 15:-0.64271, 16:-0.65226, 17: 0.49804, 18: 0.48701,
                19: 0.32361, 20: 0.22356, 21:-0.05464, 22: 0.46718, 23: 0.19756, 24:-0.74179, 25: 0.90822, 26: 0.41085, 27: 0.21151,
                28:-0.12000, 29: 0.37836, 30:-0.64515, 31: 0.04904, 32: 0.81771, 33: 0.47520, 34:-0.83409, 35:-0.95687
    42 |      |  1:-0.80415,  2: 0.51873,  3: 0.25367,  4:-0.50457,  5: 0.08435,  6:-0.80126,  7: 0.15421,  8:-0.13185,  9:-0.94092,
                10: 0.29226, 11: 0.13699, 12: 0.64182, 13: 0.56936, 14: 0.32565, 15: 0.09126, 16: 0.91055, 17:-0.36776, 18: 0.87570,
                19:-0.10275, 20: 0.36766, 21: 0.46356, 22:-0.00153, 23: 0.87493, 24:-0.92965, 25:-0.45915, 26:-0.61263, 27: 0.69605,
                28:-0.41004, 29:-0.45991, 30:-0.68513, 31:-0.23586, 32:-0.91090, 33: 0.04122, 34:-0.05417, 35: 0.94123
    43 |      |  1: 0.90486,  2:-0.18554,  3: 0.19471,  4:-0.80879,  5: 0.33974,  6: 0.37833,  7:-0.70989,  8:-0.46830,  9: 0.80275,
                10: 0.31908, 11: 0.19652, 12:-0.97033, 13:-0.25919, 14:-0.66392, 15: 0.12576, 16:-0.58245, 17: 0.88108, 18: 0.72973,
                19:-0.08765, 20:-0.86090, 21:-0.76980, 22: 0.22021, 23: 0.17088, 24:-0.71373, 25: 0.42648, 26: 0.78449, 27:-0.15335,
                28:-0.55520, 29: 0.71550, 30:-0.61735, 31:-0.49619, 32: 0.17995, 33: 0.04977, 34: 0.31108, 35: 0.16640
    44 |      |  1:-0.05162,  2:-0.43578,  3: 0.52795,  4:-0.38973,  5:-0.55990,  6:-0.52550,  7: 0.75687,  8: 0.25896,  9:-0.85650,
                10:-0.53201, 11: 0.42084, 12:-0.96732, 13: 0.14379, 14: 0.92437, 15:-0.19665, 16: 0.96881, 17:-0.51345, 18: 0.73864,
                19: 0.25087, 20: 0.56501, 21:-0.15559, 22: 0.58867, 23:-0.57404, 24:-0.49674, 25: 0.08933, 26: 0.42946, 27:-0.70044,
                28: 0.09998, 29:-0.67002, 30: 0.13951, 31: 0.33801, 32:-0.90174, 33: 0.50225, 34: 0.28641, 35: 0.16426
    45 |      |  1:-0.77059,  2:-0.12633,  3:-0.37100,  4:-0.93552,  5: 0.63526,  6:-0.13561,  7: 0.94067,  8: 0.59208,  9: 0.68447,
                10:-0.09519, 11: 0.59202, 12: 0.57743, 13: 0.86541, 14: 0.61381, 15:-0.80304, 16:-0.56410, 17: 0.39482, 18: 0.15598,
                19:-0.97905, 20:-0.59424, 21: 0.22506, 22: 0.63612, 23: 0.55054, 24:-0.47477, 25:-0.06701, 26:-0.32947, 27: 0.59634,
                28: 0.06235, 29:-0.13299, 30: 0.80507, 31: 0.44595, 32: 0.96538, 33:-0.12777, 34:-0.77388, 35: 0.85962
    46 |      | 36: 0.49339, 37: 0.38587, 38:-0.79328, 39: 0.73185, 40:-0.89542, 41: 0.14109, 42: 0.84375, 43:-0.56733, 44: 0.11266,
                45: 0.15764
    47 |      | 36: 0.62036, 37: 0.74756, 38: 0.50388, 39:-0.31586, 40: 0.72499, 41: 0.35445, 42:-0.64503, 43: 0.97232, 44:-0.84741,
                45: 0.24729
    48 |      | 36: 0.47725, 37: 0.17258, 38:-0.37539, 39:-0.50744, 40: 0.65734, 41: 0.74159, 42: 0.68202, 43: 0.41448, 44:-0.71519,
                45: 0.44225
    49 |      | 36:-0.67778, 37:-0.62995, 38: 0.90277, 39: 0.85412, 40: 0.13804, 41:-0.49965, 42: 0.69609, 43: 0.17547, 44: 0.79497,
                45:-0.52225
    50 |      | 36:-0.46982, 37:-0.09483, 38: 0.80024, 39:-0.46465, 40:-0.05766, 41:-0.03895, 42: 0.42700, 43:-0.89464, 44: 0.14773,
                45: 0.01141
    51 |      | 36: 0.48355, 37:-0.62274, 38:-0.76087, 39: 0.99774, 40: 0.78580, 41: 0.45350, 42:-0.96797, 43: 0.27775, 44:-0.63360,
                45:-0.71052
    52 |      | 36:-0.99897, 37: 0.98248, 38: 0.87243, 39:-0.93539, 40:-0.36632, 41: 0.39689, 42:-0.45085, 43:-0.84717, 44:-0.29803,
                45:-0.83154
    53 |      | 36:-0.95335, 37: 0.53305, 38: 0.16288, 39:-0.16376, 40:-0.56060, 41: 0.59966, 42:-0.80210, 43: 0.74173, 44:-0.85733,
                45:-0.52973
    54 |      | 36:-0.11275, 37: 0.97582, 38: 0.23253, 39: 0.24467, 40:-0.45710, 41:-0.08761, 42:-0.35511, 43:-0.17953, 44: 0.43447,
                45: 0.78435
    55 |      | 36:-0.05754, 37:-0.81003, 38: 0.12538, 39:-0.90234, 40: 0.53531, 41:-0.04000, 42:-0.23307, 43: 0.62345, 44:-0.95851,
                45:-0.00639
    56 |      | 36:-0.07907, 37: 0.61488, 38: 0.50187, 39: 0.33962, 40: 0.69824, 41:-0.24517, 42: 0.57655, 43:-0.88765, 44:-0.24402,
                45: 0.57265
    57 |      | 36:-0.68545, 37: 0.11763, 38: 0.76196, 39:-0.84084, 40:-0.34853, 41: 0.67056, 42:-0.56005, 43:-0.41905, 44: 0.63036,
                45:-0.55347
    58 |      | 36: 0.49099, 37:-0.32572, 38:-0.92123, 39:-0.88417, 40:-0.61601, 41:-0.59469, 42:-0.97290, 43:-0.39978, 44:-0.32904,
                45: 0.76427
    59 |      | 36: 0.68921, 37: 0.34463, 38: 0.09756, 39: 0.17687, 40:-0.01493, 41:-0.69255, 42:-0.64980, 43:-0.13758, 44:-0.38396,
                45: 0.71912
    60 |      | 36:-0.40250, 37: 0.58490, 38: 0.86609, 39: 0.12156, 40:-0.68995, 41: 0.39797, 42: 0.32188, 43:-0.07485, 44: 0.93415,
                45:-0.75738
    61 |      | 36:-0.92953, 37:-0.45504, 38: 0.10997, 39:-0.59855, 40: 0.00922, 41: 0.33785, 42: 0.69281, 43:-0.47444, 44: 0.10218,
                45: 0.29942
    62 |      | 36:-0.88301, 37: 0.72423, 38:-0.51735, 39: 0.91039, 40:-0.17328, 41:-0.31503, 42: 0.98019, 43:-0.93361, 44: 0.32747,
                45:-0.68919
    63 |      | 36: 0.97530, 37:-0.70460, 38:-0.02240, 39: 0.53108, 40:-0.34089, 41:-0.60428, 42: 0.87945, 43:-0.52088, 44:-0.23714,
                45:-0.84805
    64 |      | 36: 0.59299, 37: 0.34880, 38:-0.11230, 39:-0.74884, 40:-0.89626, 41: 0.93927, 42: 0.18923, 43:-0.53363, 44:-0.32392,
                45:-0.73703
    65 |      | 36:-0.13809, 37:-0.17416, 38:-0.15114, 39:-0.14623, 40: 0.43857, 41:-0.49820, 42: 0.16134, 43:-0.60272, 44: 0.99777,
                45: 0.66346
    66 |      | 36:-0.92927, 37:-0.84434, 38: 0.80374, 39:-0.58706, 40: 0.34781, 41:-0.68648, 42: 0.91476, 43: 0.24018, 44: 0.66655,
                45: 0.19830
    67 |      | 36: 0.34517, 37: 0.03959, 38:-0.28988, 39: 0.75243, 40:-0.27547, 41:-0.48568, 42:-0.78047, 43:-0.79023, 44: 0.81048,
                45:-0.75803
    68 |      | 36: 0.97350, 37:-0.54720, 38:-0.01395, 39: 0.76249, 40: 0.84165, 41:-0.10748, 42: 0.84642, 43:-0.55392, 44: 0.69049,
                45: 0.17762
    69 |      | 36:-0.63636, 37:-0.26114, 38: 0.68725, 39:-0.22247, 40:-0.11104, 41:-0.77573, 42: 0.03317, 43: 0.32589, 44: 0.76817,
                45: 0.83886
    70 |      | 36: 0.73800, 37:-0.33605, 38:-0.37883, 39: 0.99628, 40: 0.43912, 41: 0.42607, 42:-0.56223, 43:-0.94708, 44: 0.70482,
                45: 0.30250
    71 |      | 36: 0.30149, 37:-0.78903, 38: 0.21633, 39: 0.65452, 40:-0.15268, 41:-0.85350, 42: 0.37466, 43: 0.00411, 44: 0.55117,
                45: 0.13437
    72 |      | 36:-0.12521, 37:-0.85904, 38:-0.82842, 39: 0.20782, 40:-0.00542, 41:-0.25569, 42: 0.15615, 43:-0.23110, 44:-0.42141,
                45: 0.51175
    73 |      | 36: 0.49905, 37: 0.26024, 38:-0.13257, 39: 0.56427, 40: 0.45601, 41: 0.96146, 42: 0.16984, 43:-0.26588, 44:-0.30831,
                45: 0.46037
    74 |      | 36: 0.87874, 37: 0.58851, 38: 0.45242, 39: 0.48028, 40:-0.68576, 41:-0.51532, 42: 0.53061, 43:-0.42964, 44:-0.10114,
                45:-0.55094
    75 |      | 36: 0.03669, 37:-0.67696, 38: 0.77880, 39:-0.60646, 40:-0.73037, 41:-0.60686, 42:-0.59914, 43:-0.03231, 44: 0.53195,
                45:-0.75558
    76 |      | 36:-0.99024, 37:-0.97672, 38: 0.43999, 39: 0.08115, 40: 0.08079, 41:-0.93935, 42:-0.06323, 43:-0.55309, 44:-0.41140,
                45: 0.12435
    77 |      | 36: 0.95923, 37: 0.61991, 38:-0.18579, 39: 0.73887, 40: 0.91993, 41:-0.18537, 42: 0.39990, 43:-0.71365, 44:-0.09217,
                45: 0.30010
    78 |      | 36: 0.33650, 37:-0.14925, 38:-0.32935, 39: 0.90322, 40:-0.22856, 41:-0.40902, 42:-0.59741, 43:-0.83813, 44:-0.80023,
                45: 0.67900
    79 |      | 36:-0.06666, 37:-0.43566, 38:-0.93661, 39: 0.07716, 40: 0.21181, 41:-0.48410, 42:-0.94035, 43: 0.85067, 44: 0.99206,
                45:-0.17869
    80 |      | 36:-0.17211, 37:-0.42901, 38: 0.84530, 39:-0.15554, 40:-0.36890, 41: 0.08390, 42: 0.12313, 43:-0.51423, 44: 0.46325,
                45: 0.31671
-------|------|---------------------------------------------------------------------------------------------------------------------
