SNNS network definition file V1.4-3D
generated at Fri Mar  6 10:47:29 1998

network name : rpropMAP.net
source files :
no. of units : 22
no. of connections : 120
no. of unit types : 0
no. of site types : 0


learning function : RpropMAP
update function   : Topological_Order


unit default section :

act      | bias     | st | subnet | layer | act func     | out func
---------|----------|----|--------|-------|--------------|-------------
 0.00000 |  0.00000 | h  |      0 |     1 | Act_Logistic | Out_Identity 
---------|----------|----|--------|-------|--------------|-------------


unit definition section :

no. | typeName | unitName | act      | bias     | st | position | act func             | out func | sites
----|----------|----------|----------|----------|----|----------|----------------------|----------|-------
  1 |          |          |  0.00000 |  0.00000 | i  |  2, 6,-4288 |||
  2 |          |          |  0.00000 |  0.00000 | h  |  5, 2,-4288 | Act_TanH             |          | 
  3 |          |          |  0.00000 |  0.00000 | h  |  5, 3,-4288 | Act_TanH             |          | 
  4 |          |          |  0.00000 |  0.00000 | h  |  5, 4,-4288 | Act_TanH             |          | 
  5 |          |          |  0.00000 |  0.00000 | h  |  5, 5,-4288 | Act_TanH             |          | 
  6 |          |          |  0.00000 |  0.00000 | h  |  5, 6,-4288 | Act_TanH             |          | 
  7 |          |          |  0.00000 |  0.00000 | h  |  5, 7,-4288 | Act_TanH             |          | 
  8 |          |          |  0.00000 |  0.00000 | h  |  5, 8,-4288 | Act_TanH             |          | 
  9 |          |          |  0.00000 |  0.00000 | h  |  5, 9,-4288 | Act_TanH             |          | 
 10 |          |          |  0.00000 |  0.00000 | h  |  5,10,-4288 | Act_TanH             |          | 
 11 |          |          |  0.00000 |  0.00000 | h  |  5,11,-4288 | Act_TanH             |          | 
 12 |          |          |  0.00000 |  0.00000 | h  |  8, 2,-4288 | Act_TanH             |          | 
 13 |          |          |  0.00000 |  0.00000 | h  |  8, 3,-4288 | Act_TanH             |          | 
 14 |          |          |  0.00000 |  0.00000 | h  |  8, 4,-4288 | Act_TanH             |          | 
 15 |          |          |  0.00000 |  0.00000 | h  |  8, 5,-4288 | Act_TanH             |          | 
 16 |          |          |  0.00000 |  0.00000 | h  |  8, 6,-4288 | Act_TanH             |          | 
 17 |          |          |  0.00000 |  0.00000 | h  |  8, 7,-4288 | Act_TanH             |          | 
 18 |          |          |  0.00000 |  0.00000 | h  |  8, 8,-4288 | Act_TanH             |          | 
 19 |          |          |  0.00000 |  0.00000 | h  |  8, 9,-4288 | Act_TanH             |          | 
 20 |          |          |  0.00000 |  0.00000 | h  |  8,10,-4288 | Act_TanH             |          | 
 21 |          |          |  0.00000 |  0.00000 | h  |  8,11,-4288 | Act_TanH             |          | 
 22 |          |          |  0.00000 |  0.00000 | o  | 11, 6,-4288 | Act_IdentityPlusBias |          | 
----|----------|----------|----------|----------|----|----------|----------------------|----------|-------


connection definition section :

target | site | source:weight
-------|------|---------------------------------------------------------------------------------------------------------------------
     2 |      |  1: 0.00000
     3 |      |  1: 0.00000
     4 |      |  1: 0.00000
     5 |      |  1: 0.00000
     6 |      |  1: 0.00000
     7 |      |  1: 0.00000
     8 |      |  1: 0.00000
     9 |      |  1: 0.00000
    10 |      |  1: 0.00000
    11 |      |  1: 0.00000
    12 |      | 11: 0.00000, 10: 0.00000,  9: 0.00000,  8: 0.00000,  7: 0.00000,  6: 0.00000,  5: 0.00000,  4: 0.00000,  3: 0.00000,
                 2: 0.00000
    13 |      | 11: 0.00000, 10: 0.00000,  9: 0.00000,  8: 0.00000,  7: 0.00000,  6: 0.00000,  5: 0.00000,  4: 0.00000,  3: 0.00000,
                 2: 0.00000
    14 |      | 11: 0.00000, 10: 0.00000,  9: 0.00000,  8: 0.00000,  7: 0.00000,  6: 0.00000,  5: 0.00000,  4: 0.00000,  3: 0.00000,
                 2: 0.00000
    15 |      | 11: 0.00000, 10: 0.00000,  9: 0.00000,  8: 0.00000,  7: 0.00000,  6: 0.00000,  5: 0.00000,  4: 0.00000,  3: 0.00000,
                 2: 0.00000
    16 |      | 11: 0.00000, 10: 0.00000,  9: 0.00000,  8: 0.00000,  7: 0.00000,  6: 0.00000,  5: 0.00000,  4: 0.00000,  3: 0.00000,
                 2: 0.00000
    17 |      | 11: 0.00000, 10: 0.00000,  9: 0.00000,  8: 0.00000,  7: 0.00000,  6: 0.00000,  5: 0.00000,  4: 0.00000,  3: 0.00000,
                 2: 0.00000
    18 |      | 11: 0.00000, 10: 0.00000,  9: 0.00000,  8: 0.00000,  7: 0.00000,  6: 0.00000,  5: 0.00000,  4: 0.00000,  3: 0.00000,
                 2: 0.00000
    19 |      | 11: 0.00000, 10: 0.00000,  9: 0.00000,  8: 0.00000,  7: 0.00000,  6: 0.00000,  5: 0.00000,  4: 0.00000,  3: 0.00000,
                 2: 0.00000
    20 |      | 11: 0.00000, 10: 0.00000,  9: 0.00000,  8: 0.00000,  7: 0.00000,  6: 0.00000,  5: 0.00000,  4: 0.00000,  3: 0.00000,
                 2: 0.00000
    21 |      | 11: 0.00000, 10: 0.00000,  9: 0.00000,  8: 0.00000,  7: 0.00000,  6: 0.00000,  5: 0.00000,  4: 0.00000,  3: 0.00000,
                 2: 0.00000
    22 |      | 21: 0.00000, 20: 0.00000, 19: 0.00000, 18: 0.00000, 17: 0.00000, 16: 0.00000, 15: 0.00000, 14: 0.00000, 13: 0.00000,
                12: 0.00000
-------|------|---------------------------------------------------------------------------------------------------------------------
