SNNS network definition file V1.4-3D
generated at Thu Apr 21 18:17:53 1994

network name : watch_2out
source files :
no. of units : 21
no. of connections : 62
no. of unit types : 0
no. of site types : 0


learning function : Rprop
update function   : Topological_Order


unit default section :

act      | bias     | st | subnet | layer | act func     | out func
---------|----------|----|--------|-------|--------------|-------------
 0.00000 |  0.00000 | h  |      0 |     1 | Act_Logistic | Out_Identity 
---------|----------|----|--------|-------|--------------|-------------


unit definition section :

no. | typeName | unitName | act      | bias     | st | position | act func     | out func | sites
----|----------|----------|----------|----------|----|----------|--------------|----------|-------
  1 |          | i_nw     |  0.40392 | -0.02892 | i  | 1,3,0    |||
  2 |          | i_n      |  0.39608 |  0.09486 | i  | 2,3,0    |||
  3 |          | i_ne     |  0.37255 | -0.06828 | i  | 3,3,0    |||
  4 |          | i_w      |  0.98039 |  0.08460 | i  | 1,4,0    |||
  5 |          | i_m      |  0.96863 | -0.04853 | i  | 2,4,0    |||
  6 |          | i_e      |  0.96078 |  0.04880 | i  | 3,4,0    |||
  7 |          | i_sw     |  0.98431 | -0.08037 | i  | 1,5,0    |||
  8 |          | i_s      |  0.97255 |  0.02447 | i  | 2,5,0    |||
  9 |          | i_se     |  0.96471 |  0.03609 | i  | 3,5,0    |||
 10 |          | laplace  | -0.56470 |  0.00000 | sh  | 5,3,0    | Act_Identity |          | 
 11 |          | sobel_y  | -1.74902 |  0.00000 | sh  | 5,4,0    | Act_Identity |          | 
 12 |          | sobel_x  | -0.07059 |  0.00000 | sh  | 5,5,0    | Act_Identity |          | 
 13 |          | edge     |  0.98593 |  8.25904 | o  | 9,5,0    |||
 14 |          | h_1      |  0.98869 |  6.81989 | h  | 7,3,0    |||
 15 |          | h_2      |  0.00000 |  4.65135 | h  | 7,4,0    |||
 16 |          | h_3      |  0.00002 | -3.10219 | h  | 7,5,0    |||
 17 |          | no_edge  |  0.01975 | -8.21910 | o  | 9,3,0    |||
 18 |          | h_4      |  0.99883 |  4.85061 | h  | 7,6,0    |||
 19 |          | h_5      |  0.00640 |  4.69404 | h  | 7,7,0    |||
 20 |          | h_6      |  0.00001 |  6.47850 | h  | 7,2,0    |||
 21 |          | h_7      |  0.00011 |  7.37143 | h  | 7,1,0    |||
----|----------|----------|----------|----------|----|----------|--------------|----------|-------


connection definition section :

target | site | source:weight
-------|------|---------------------------------------------------------------------------------------------------------------------
    10 |      |  9: 0.00000,  8: 1.00000,  7: 0.00000,  6: 1.00000,  5:-4.00000,  4: 1.00000,  3: 0.00000,  2: 1.00000,  1: 0.00000
    11 |      |  9:-1.00000,  8:-1.00000,  7:-1.00000,  6: 0.00000,  5: 0.00000,  4: 0.00000,  3: 1.00000,  2: 1.00000,  1: 1.00000
    12 |      |  9: 1.00000,  8: 0.00000,  7:-1.00000,  6: 1.00000,  5: 0.00000,  4:-1.00000,  3: 1.00000,  2: 0.00000,  1:-1.00000
    13 |      | 14:-0.61125, 15:-0.92454, 16: 8.75411, 18:-3.39020, 19:-2.90110, 20:-1.33260, 21:-3.98502
    14 |      | 10:-0.75178, 11: 1.13379, 12:11.20294
    15 |      | 10: 8.79817, 11:10.82147, 12:-17.57275
    16 |      | 10: 0.64016, 11: 4.41442, 12:-2.38462
    17 |      | 16:-8.45197, 15: 0.83718, 14: 0.95252, 18: 3.35874, 19: 2.75892, 20: 3.39125, 21: 1.67906
    18 |      | 12:-9.14482, 11:-0.24119, 10:-1.47544
    19 |      | 12:-6.51109, 11: 5.65350, 10: 0.54930
    20 |      | 12: 7.74464, 11: 9.65836, 10: 1.97710
    21 |      | 12: 8.98182, 11: 9.10962, 10:-0.20236
-------|------|---------------------------------------------------------------------------------------------------------------------
